861 40
myfavourite -0.0036458625 -0.009216214 0.00015441794 0.00781075 -0.0036375094 -0.00690825 -0.008528029 -0.0070267515 0.0049068937 0.005252243 -0.005489466 -0.009745235 0.004354504 0.0037526758 0.011583197 0.0013464987 -0.002555957 0.00090052 -0.01033147 0.0085867485 -0.007904839 -0.00086906087 -0.0029236479 -0.003018652 0.0040334137 0.011004209 0.011637964 0.011098507 -0.009347211 0.011602699 0.010572906 0.011698277 -0.008729273 -0.010991027 -0.0028428482 0.008950776 0.0017244015 0.008778705 0.006647884 0.005774229
sweettooth -0.2346617 -0.012559968 -0.16477141 0.15679471 -0.1225738 0.1718324 0.15968464 -0.0456893 0.23253648 -0.15719223 -0.11682735 0.018812397 0.016830372 0.10238966 -0.11404733 0.3304114 -0.31400445 0.015852902 -0.14309944 0.11725473 -0.050819516 0.25460115 0.26545018 0.07680144 -0.14482827 -0.29852316 0.19843306 0.39208734 0.19132398 0.012741459 0.061135087 0.20615485 -0.0986843 -0.14617978 -0.2771939 0.13588358 -0.17503577 -0.009867776 0.08998828 0.18513185
frommydiningtable -0.0048301457 -0.011376073 -0.009611681 0.012374389 -0.0042146845 -0.0021289662 -0.001820025 -0.007583386 0.008579067 0.0014360799 0.008513897 0.0065287305 0.004201521 0.0037268037 -0.0011355672 -0.010246719 0.010987007 0.008705192 -0.010584945 0.009148763 -0.00077487994 -0.007631503 0.0028948635 0.0055451607 0.012021464 -0.0034663705 0.008196118 -0.009048927 -0.004621138 0.00914628 0.006837298 0.0019062608 -0.012456362 -0.0097428635 0.0010609459 0.0006095115 -0.01212526 0.0044134753 -0.010506585 0.0017857328
decorativegourdseason -0.0016023712 0.008501665 0.0066615613 0.0066475132 -0.008479217 -0.008372381 -0.011722689 -0.00981419 -0.0019325111 -0.0035235044 -0.0029620137 -0.009924601 -0.0049711512 0.008684897 -0.00084684044 -0.0068848864 0.0020326944 0.005567097 0.010197454 0.010846146 -0.010338572 -0.001772156 -0.0053701657 0.00087120663 0.0013591796 -0.0034714937 0.0010730047 -0.0066557573 0.00036040414 -0.0054831984 -0.007057971 -0.009554395 -0.008340767 -0.0006650882 -0.012377593 0.006996137 -0.011102686 -0.009179267 0.0048464807 -0.0046569128
wildfoodlove -0.035889722 -0.015460782 -0.028130835 0.027091298 -0.034365475 0.021425486 0.0137875 -0.0043218993 0.039749738 -0.030681685 -0.027899258 0.0033271657 0.001881853 0.021106428 -0.014728388 0.051912013 -0.046914574 0.00030814094 -0.034502048 0.0263531 -0.001821806 0.0363242 0.030926473 0.0014308097 -0.017342944 -0.042288776 0.017809365 0.057728786 0.027223319 0.012523708 0.0014688314 0.029116562 -0.008624112 -0.029160364 -0.034262292 0.007921996 -0.029455971 0.001599909 0.022538692 0.026529767
vegan -0.3191395 -0.0075732446 -0.22019787 0.19383106 -0.13875026 0.19953349 0.14303404 -0.116250485 0.2537969 -0.16066536 -0.11587354 0.0605057 0.010412866 0.11829299 -0.07925182 0.41703638 -0.41424432 0.04818681 -0.19070366 0.25062826 0.0006363589 0.27065548 0.33017665 0.13495822 -0.131058 -0.36531132 0.21686985 0.4761844 0.20696911 0.030555323 0.028543299 0.198457 -0.1307924 -0.19434108 -0.3453441 0.16122551 -0.2266227 0.017665477 0.10692468 0.21706322
glutenfree -0.24406126 -0.073051184 -0.13632946 0.1490387 -0.14694928 0.17087553 0.18536994 -0.053090815 0.30146563 -0.14514193 -0.111490056 0.011426479 -0.05249135 0.061133303 -0.10596118 0.36778164 -0.35037953 0.0029881103 -0.12804261 0.14595035 -0.026897963 0.28957662 0.32891428 0.008392974 -0.09413425 -0.29919547 0.23382378 0.416361 0.1866061 0.06787644 0.05417756 0.24853045 -0.12021284 -0.12440363 -0.29811385 0.15871106 -0.25292864 0.022567507 0.092970036 0.16406721
sponsored -0.063099556 -0.018034508 -0.03511086 0.05269015 -0.03552779 0.045706548 0.028783709 -0.00063864223 0.05855421 -0.0268976 -0.019602953 -0.002981019 -0.00036811666 0.02463787 -0.034788433 0.073955074 -0.084404156 -0.0116662225 -0.044827867 0.03204704 -0.011604944 0.05053628 0.05615038 0.016659994 -0.03504336 -0.08048558 0.05745976 0.09728827 0.039247017 -0.006456884 0.01726021 0.05659102 -0.024928413 -0.04408719 -0.0642036 0.030872995 -0.044279426 -0.010958165 0.013856428 0.05613217
f52grams -0.61617935 0.36316207 -0.546248 0.20915177 0.0951957 0.26918924 0.10002007 -0.80573505 0.35695684 -0.037993427 -0.31230724 0.4973831 0.5286183 0.3021776 0.016408233 0.6399203 -0.4269832 0.44270608 -0.11295647 0.5446268 0.14237328 0.11610472 0.5670497 0.29528368 -0.28446504 -0.9546184 -0.12765518 0.7914458 0.10077324 0.13644558 -0.47558406 -0.13077317 -0.71164215 -0.027572868 -0.47750565 0.08323485 -0.40963548 0.3797215 0.02147299 0.24390553
feedfeed -0.5766651 0.32074937 -0.5034909 0.14278352 0.21689688 0.29404917 0.119855724 -0.8559676 0.4421662 -0.17093901 -0.42573643 0.54016876 0.62056845 0.33515528 -0.054944124 0.5827033 -0.3317784 0.54624844 -0.09579346 0.24167867 0.07769056 0.14993843 0.64287055 0.22105026 -0.369148 -0.9618889 -0.07150894 0.78557616 0.06795203 0.2950113 -0.6485609 -0.08943446 -0.8087736 0.1638589 -0.44608343 0.036467243 -0.44009724 0.49164933 0.007327548 0.25888568
huffposttaste -0.59484804 -0.11598681 -0.025005363 0.29210016 -0.42646277 0.1755477 -0.062139116 -0.32767034 0.54457045 0.03954756 0.12552577 0.58118343 0.32687685 0.020010674 0.46865854 0.5282257 -0.82227534 0.45868853 -0.41563195 1.2262955 0.63853997 -0.094403386 0.69432986 0.20196387 0.34720385 -0.6324731 0.103971995 0.787375 0.10082099 0.2997048 -0.42098573 0.44949022 -0.73857474 -0.22395924 -0.71890885 0.13728102 -0.82334226 0.25898165 0.12595598 0.44299424
buzzfeast -0.73088133 0.14757173 -0.30452356 0.43040326 -0.15155852 0.28176734 -0.12312259 -0.65722525 0.5841165 -0.1487787 -0.14776652 0.58429927 0.57739586 0.29771373 0.3000084 0.72544354 -0.8549775 0.52533555 -0.25568098 1.0558343 0.4852303 -0.036130942 0.8166557 0.42657575 0.07015882 -0.9034625 0.014407648 0.9555077 -0.032856714 0.24323563 -0.5432648 0.27358127 -0.7744059 -0.23407175 -0.71102095 0.1570948 -0.7394397 0.4777001 0.28664714 0.47775924
eeeeeats -0.82433426 0.19178575 -0.31017247 0.5318605 -0.14789805 0.28542805 -0.1530693 -0.71190774 0.5625545 -0.15040739 -0.19042087 0.6006142 0.6393145 0.3175247 0.39496046 0.8127272 -0.9526421 0.5683837 -0.2918517 1.1809698 0.6010449 -0.113100216 0.8067424 0.554597 0.116667084 -0.93383735 0.008252133 1.0020651 -0.029240744 0.22591032 -0.5585684 0.31077775 -0.7195847 -0.2651787 -0.7855042 0.14816564 -0.72782004 0.4853782 0.37122887 0.51459557
beautifulcuisines -0.6089034 0.3164699 -0.43529233 0.37876436 0.09243769 0.31780517 -0.095432565 -0.63341945 0.3180872 -0.150325 -0.35477626 0.5255413 0.7110495 0.40647087 0.10632068 0.5578382 -0.6728952 0.5320568 -0.15710725 0.61414 0.2780333 -0.057269886 0.63163334 0.5448649 -0.2584951 -0.8542773 -0.09015553 0.8161634 -0.060175158 0.23242442 -0.43785658 0.12507688 -0.70109504 -0.27026907 -0.56356466 0.08254321 -0.45956632 0.4251637 0.30545208 0.33034697
thekitchn -0.75986415 0.3508915 -0.4547636 0.5155107 -0.015411578 0.33870542 -0.06465151 -0.7074626 0.36857307 -0.17508847 -0.29701483 0.52766067 0.6805865 0.34519067 0.27322647 0.7294383 -0.9476506 0.57099056 -0.2845338 1.0928515 0.44277877 -0.027269755 0.7898762 0.70157254 -0.08189445 -0.985029 -0.038733777 0.9342996 -0.032833304 0.24961247 -0.3826861 0.13596892 -0.69633067 -0.42715022 -0.7083478 0.14218895 -0.5157149 0.4464654 0.32384 0.520556
foodandwine -0.3814273 0.29313356 -0.4052201 0.37534043 -0.03459086 0.35255378 -0.08895981 -0.36774015 0.080260634 -0.1881474 -0.34302834 0.36151138 0.6460927 0.31855285 0.000908956 0.4476696 -0.6945467 0.32917872 -0.24940811 0.45846325 0.13321765 -0.022213332 0.59619653 0.59033346 -0.23454174 -0.76045805 0.07510344 0.67012995 -0.069280334 0.2608621 -0.062730044 0.18654208 -0.49280804 -0.40129033 -0.42518085 0.1212619 -0.10380739 0.22237635 0.2913304 0.38023898
forkyeah -0.7060725 0.38243136 -0.6676397 0.66454995 0.10394385 0.33914742 -0.08171831 -0.58833665 0.079480395 -0.22981174 -0.37633026 0.34947437 0.5760573 0.2477625 0.17752156 0.6728202 -0.86473906 0.37299263 -0.26443598 0.8483117 0.28404418 -0.05945961 0.55002236 0.9760538 -0.15739352 -0.82228863 0.21472365 0.7932316 0.012353395 0.13222356 -0.016265087 0.11754605 -0.34312832 -0.61288995 -0.7199137 0.2098373 -0.06828722 0.22010316 0.43350893 0.42812356
yahoofood -0.77985084 0.27178398 -0.52062184 0.72122085 -0.020955428 0.24435855 0.035559833 -0.6963366 0.32248875 -0.09012132 0.025153235 0.27903262 0.056183096 0.051768005 0.36254388 0.8342448 -1.0154471 0.3831156 -0.31567025 1.4973562 0.45597482 0.19351949 0.6446582 0.8166768 0.2279433 -0.76316655 0.4306065 0.86425275 0.15878008 0.087499954 0.08383832 -0.10283003 -0.10579722 -0.6725686 -0.72717637 0.38954815 -0.14489786 0.18734536 0.31148708 0.49733445
onthetable -0.6955769 0.34304667 -0.5543401 0.7509716 -0.04520435 0.21131937 -0.035650156 -0.5841229 0.13641872 -0.12072554 -0.009190847 0.28151658 0.20567639 0.09595863 0.36339906 0.7974156 -1.0483825 0.28246868 -0.28343204 1.3661103 0.41038212 0.1415455 0.5123052 1.0031139 0.09170681 -0.74179107 0.39159185 0.7843814 0.07077621 -0.06327057 0.16683832 -0.124389835 0.028601144 -0.8563794 -0.74222404 0.39217255 -0.05665664 0.16255426 0.39117426 0.43770644
buzzfeedfood -0.6751187 0.45827854 -0.6129403 0.7192786 0.027029755 0.19591473 -0.045468915 -0.5528873 -0.0031763343 -0.12841626 -0.08626716 0.23782073 0.3389317 0.13309471 0.30566427 0.7289262 -0.9247634 0.33673105 -0.2701491 1.1490859 0.29178694 0.07129535 0.48518452 1.0553191 -0.09656082 -0.7483649 0.3231776 0.71435755 0.11869644 -0.026367279 0.19764364 -0.1292975 -0.040311635 -0.8737415 -0.70872504 0.30618352 0.043206505 0.13775592 0.38700068 0.35160455
vscofood -0.7239708 0.42422467 -0.74059653 0.8024881 -0.08698821 0.25744835 0.26033136 -0.43472838 -0.014637474 -0.2457266 -0.1496909 -0.006395474 0.060163584 0.16402334 0.06909059 0.8754533 -1.0989703 0.097680725 -0.36508545 1.1049339 0.02345318 0.49046224 0.49203017 1.1239694 -0.30526972 -0.7472765 0.5610942 0.89270186 0.3337204 -0.2242201 0.5480392 -0.09854439 0.31415534 -1.1926165 -0.80961853 0.46061236 0.1787037 -0.08126995 0.3753331 0.43241194
foodstyling -0.5447773 0.32062596 -0.5606609 0.6633652 -0.09934477 0.20607464 0.31356728 -0.35418835 0.010002315 -0.20394368 -0.019028354 -0.12812518 -0.12532687 -0.076455444 0.068243735 0.68766284 -0.9374566 0.016720451 -0.34964794 0.9552393 0.005023201 0.54340136 0.33304924 0.92649174 -0.17689662 -0.56681037 0.4830967 0.6967592 0.35109913 -0.18790539 0.5847244 -0.09227724 0.41769156 -1.0248162 -0.6333498 0.3675932 0.22377065 -0.24419823 0.24842234 0.33005464
foodphotography -0.533203 0.07112018 -0.44541624 0.5755543 -0.05712989 0.1306093 0.4786247 -0.15436864 0.24098325 -0.3451185 -0.056634124 -0.47937503 -0.60915846 -0.044686638 -0.19647977 0.7953284 -0.74421823 -0.19621517 -0.37427613 0.52717245 -0.0056618634 0.8802458 0.0476239 0.6296092 -0.2066266 -0.32904506 0.8660057 0.68026227 0.60942817 -0.4073867 0.7163882 0.019368844 0.78046936 -0.87850726 -0.5055245 0.42863613 0.2097554 -0.4525479 0.19371621 0.3256218
lifeandthyme -0.39330366 0.41593662 -0.7351875 0.34298766 0.03206884 0.33202428 0.2503739 -0.31922102 -0.2508595 -0.16891195 -0.21872042 -0.0032637422 0.08766621 0.20468514 -0.22835405 0.56539357 -0.706025 0.07054035 -0.32944116 0.5318191 -0.24499822 0.43029916 0.36408207 0.80482394 -0.5445099 -0.6689194 0.26896936 0.6912103 0.41247937 -0.07881024 0.48442674 -0.18821529 0.09956679 -0.7698995 -0.57555664 0.30686215 0.31159395 -0.124291584 0.13126355 0.26469728
eater -0.48446736 0.39187947 -1.0122839 0.5293129 -0.0066790665 0.51644593 0.5447803 -0.068794735 -0.14361317 -0.4710757 -0.48754594 -0.23392008 0.041391615 0.27404112 -0.59829843 0.87123513 -0.8381836 -0.27931395 -0.4438947 -0.039550863 -0.68945 0.88709813 0.39788502 0.88916314 -0.9719514 -0.76340085 0.619166 0.886192 0.7577688 -0.24406187 0.89228 0.19089685 0.4028242 -0.9627143 -0.6607536 0.46432963 0.47778615 -0.36081335 0.22704458 0.3191652
heresmyfood -0.5031146 0.54174906 -1.0120642 0.39807293 0.15491007 0.40816244 0.28078374 -0.4623249 -0.26921558 -0.2896333 -0.48222318 0.11943531 0.43345067 0.38598612 -0.34134626 0.7294887 -0.6628891 0.04681245 -0.33203694 0.18598574 -0.4563721 0.439522 0.50616634 0.9154678 -0.8949458 -0.94128203 0.33611637 0.815093 0.53228974 -0.11010846 0.36118564 -0.12564613 -0.014190609 -0.75867957 -0.6078217 0.37172043 0.38273066 -0.006432951 0.20001905 0.22751705
food52 -0.49913186 0.42733 -0.84401 0.26566574 0.07025684 0.30824637 0.44160452 -0.39739606 -0.10205703 -0.23933063 -0.37168634 0.026948342 0.19382204 0.31837153 -0.37148058 0.6570149 -0.4483882 0.016128493 -0.26215392 0.08420716 -0.48762012 0.5394475 0.511117 0.48853847 -0.7614567 -0.8274788 0.34228823 0.7233181 0.5979649 -0.11640568 0.2798002 -0.18182419 -0.06006425 -0.52628946 -0.4477436 0.32968524 0.303882 -0.0024007536 0.054377023 0.15906912
gloobyfood -0.4861768 0.2973622 -1.0239813 0.3889305 -0.08059658 0.48705226 0.67634827 -0.070546776 -0.072587855 -0.5363944 -0.6498882 -0.17810597 0.21078002 0.42370766 -0.75918806 0.788185 -0.6696413 -0.29460147 -0.48567125 -0.39869127 -0.81912595 0.8778075 0.53262764 0.6150127 -1.2188689 -0.8629428 0.58651435 0.95019263 0.83781004 -0.1955415 0.67810225 0.28091887 0.12845695 -0.8199614 -0.63497376 0.40317836 0.2598027 -0.23311058 0.12809175 0.22908013
foodgawker -0.4397388 0.30739942 -0.9545582 0.27089575 -0.07277314 0.4934585 0.61846673 -0.03419083 -0.043579753 -0.55720466 -0.736521 -0.13812347 0.34445566 0.49596876 -0.7749725 0.6804175 -0.58893156 -0.21738198 -0.43095443 -0.54253495 -0.8437999 0.7951894 0.5786636 0.5212223 -1.2335032 -0.8587041 0.41876233 0.94942087 0.76508915 -0.0768584 0.5528344 0.3791478 -0.048223525 -0.6496436 -0.592381 0.30295628 0.15377772 -0.17879383 0.09920058 0.233943
eattheworld -0.47498107 0.5148981 -0.93856865 0.1391867 0.15867808 0.4499803 0.24056113 -0.4094602 -0.13629541 -0.3794261 -0.75794935 0.15138663 0.7608495 0.6346207 -0.47523913 0.5378967 -0.52923185 0.20196804 -0.25944182 -0.25085348 -0.5299402 0.3502011 0.5956036 0.6422057 -1.0807791 -0.9394441 -0.03298941 0.86257696 0.3868195 0.10821685 0.089999914 0.121150516 -0.48702297 -0.44004995 -0.5699462 0.108200125 0.026822759 0.21411379 0.13550308 0.24130587
eatfamous -0.46631652 0.26152405 -0.91964555 0.22361952 -0.032304898 0.62063444 0.58792615 0.027885662 0.13496782 -0.6423084 -0.89404875 -0.12231653 0.45105076 0.5569485 -0.84622365 0.7837457 -0.62180257 -0.17098913 -0.45277527 -0.6787792 -0.84286135 0.7870412 0.66878116 0.4711033 -1.2784156 -0.876569 0.3362849 1.0736433 0.7404098 0.016496921 0.45621732 0.65149295 -0.22782238 -0.48634142 -0.6084573 0.21470647 -0.050454076 -0.11064619 0.16208617 0.29285723
tastingtable -0.38941956 0.51464856 -0.90783525 0.05570679 0.25221482 0.5177248 0.18782592 -0.40938765 -0.0010744531 -0.43118516 -0.8802153 0.32462206 0.9620363 0.6836124 -0.5049108 0.6001951 -0.45203096 0.27184176 -0.2791703 -0.36298358 -0.5201428 0.2589162 0.6914066 0.59672153 -1.1040595 -1.0070935 -0.13278177 0.91394204 0.32909402 0.21821065 -0.093352646 0.2893555 -0.7107623 -0.19810803 -0.47723824 0.08878838 -0.15492986 0.36353633 0.11434281 0.24720666
dailyfoodfeed -0.41457796 0.20082861 -0.8747212 0.1806352 -0.11191838 0.6120093 0.53519255 0.18260315 0.24205005 -0.6955975 -0.9050296 -0.07258873 0.4707326 0.5972394 -0.8685688 0.7880412 -0.5782186 -0.16249745 -0.44557258 -0.7733827 -0.85106415 0.7196966 0.6755181 0.3270552 -1.2725946 -0.82550335 0.36669913 1.0612757 0.72829926 0.0639621 0.41435462 0.80047977 -0.29936093 -0.3875732 -0.5462001 0.19710454 -0.114274934 -0.084074214 0.18396457 0.29472834
spoonfeed -0.37480772 0.14051737 -0.86966324 0.1354361 -0.083677724 0.6229441 0.5567358 0.22497997 0.24035907 -0.6588552 -0.9015257 -0.12151591 0.4394831 0.57066655 -0.9813475 0.709331 -0.4870804 -0.22112644 -0.405229 -0.9802251 -0.9407109 0.80035985 0.61164916 0.20654534 -1.3110193 -0.7834801 0.3456776 0.98240024 0.7616975 0.035795584 0.41451862 0.7910038 -0.26561713 -0.33694625 -0.47853717 0.19406046 -0.08666947 -0.09082473 0.12640868 0.25010467
foodbeast -0.39640447 0.16664524 -0.8234685 0.13344637 -0.047181476 0.5653332 0.51518714 0.078568794 0.2569479 -0.6306306 -0.8758362 0.02232865 0.52635837 0.56621987 -0.80899763 0.6806369 -0.4616757 -0.116414554 -0.38879135 -0.7754033 -0.7768274 0.649093 0.66528547 0.26210687 -1.2134011 -0.8500108 0.2541555 0.9835998 0.6240125 0.0919591 0.28381747 0.6996324 -0.41888806 -0.29240474 -0.4795993 0.16033518 -0.18456529 0.0052436735 0.12259797 0.27319723
hautecuisines -0.33512285 0.21981716 -0.7089139 0.089272015 0.053397026 0.4457934 0.3162038 -0.05765905 0.1570116 -0.51329225 -0.77652544 0.11111436 0.5934781 0.54250807 -0.58889586 0.51428586 -0.40190935 0.015489861 -0.28670716 -0.56593364 -0.5239185 0.42301282 0.5804929 0.31991935 -0.971954 -0.7469607 0.13173768 0.83991617 0.38156122 0.14531071 0.10409484 0.50360423 -0.45265555 -0.19498938 -0.42913648 0.087567694 -0.2009418 0.1539726 0.15161961 0.23646758
foodblogfeed -0.30549315 0.1760212 -0.62339 0.07237357 0.07889872 0.42278588 0.27713215 -0.08538176 0.23434299 -0.42233798 -0.7060224 0.06893688 0.53752977 0.49966025 -0.5454746 0.5077041 -0.3392577 0.07082359 -0.25701493 -0.5215682 -0.45074314 0.36468446 0.4956678 0.20934103 -0.87221694 -0.66145355 0.057169512 0.7675921 0.35459143 0.11970683 0.060047314 0.46007603 -0.4758129 -0.09345762 -0.39097118 0.023288015 -0.2526132 0.15327527 0.123794906 0.20412035
onmytable -0.2881637 0.11977851 -0.5183474 0.14138785 -0.062404078 0.39092514 0.30124938 0.09384865 0.2764619 -0.4324991 -0.53010315 -0.019778503 0.30691814 0.2969942 -0.49896476 0.534725 -0.42712715 -0.070246525 -0.2622951 -0.3417635 -0.41247407 0.5035027 0.43847516 0.2433931 -0.7016536 -0.48218206 0.17065963 0.7217446 0.3862495 0.08120327 0.27825218 0.5721128 -0.22809288 -0.2377691 -0.3725106 0.06168273 -0.20723419 -0.017830698 0.12432956 0.21613553
theartofescapismcooking -0.2706505 0.03926411 -0.15675469 0.133709 -0.09619245 0.14148432 0.049309492 -0.17528918 0.24778192 -0.10288119 -0.09079756 0.15119275 0.14611094 0.13172948 -0.008367575 0.31166303 -0.32779577 0.11801174 -0.13091049 0.2780182 0.08735089 0.11202198 0.30472535 0.10127967 -0.06584407 -0.34951347 0.08473983 0.41296902 0.11287004 0.06581545 -0.11329019 0.15562704 -0.23220983 -0.112333104 -0.27358186 0.071614414 -0.2554541 0.10572951 0.074327104 0.18652323
ladyandpupscookbook -0.3212348 0.039791375 -0.1592701 0.15544125 -0.08596852 0.15053377 0.04351017 -0.23608072 0.26023424 -0.09012823 -0.09665726 0.19903424 0.19439498 0.12619007 0.017099407 0.36062023 -0.36723047 0.16993731 -0.12858337 0.3493925 0.12134411 0.09675708 0.33747566 0.12694064 -0.065406226 -0.40551028 0.072558396 0.44274524 0.101535864 0.083898745 -0.15481307 0.14881422 -0.27804354 -0.10719081 -0.31666005 0.084219486 -0.28909165 0.13944924 0.104938634 0.1997471
holidaygiftguide -0.37026387 0.038794566 -0.17518127 0.195553 -0.106231615 0.165841 0.032020725 -0.27782813 0.2895722 -0.08817208 -0.10957937 0.23616055 0.19936125 0.1442043 0.061657395 0.39259592 -0.42981762 0.19115227 -0.15069936 0.4292006 0.1580629 0.0881242 0.36833182 0.17914516 -0.027525917 -0.43921724 0.08699637 0.4765297 0.07657179 0.08489412 -0.17151684 0.16600467 -0.3162374 -0.14045788 -0.3586868 0.08250538 -0.32815707 0.14805733 0.1151694 0.23020281
nothingfancycookbook -0.170161 -0.0014130904 -0.11431339 0.108147725 -0.07940133 0.10429345 0.086455196 -0.038163185 0.13829143 -0.09058444 -0.08062959 0.049594313 0.043130428 0.069931254 -0.06488842 0.2177106 -0.20918454 0.02767227 -0.09683084 0.09903404 -0.030822322 0.14128345 0.17757921 0.053984333 -0.10011957 -0.19630584 0.108357444 0.28365055 0.1116525 0.01354467 0.0012114391 0.14002962 -0.08567045 -0.08946459 -0.19647352 0.08523574 -0.13014823 0.0074003 0.0670663 0.10746171
gatherandfeast -0.15251626 -0.007483221 -0.103391066 0.09173575 -0.081448644 0.10657991 0.07631246 -0.04776364 0.11229628 -0.086391024 -0.0700688 0.026002595 0.027837299 0.079439715 -0.074948676 0.20552756 -0.18831502 0.0068058465 -0.09556432 0.07989505 -0.022059912 0.12107745 0.16774069 0.052810214 -0.09780442 -0.18047343 0.10996596 0.23881245 0.10007266 0.0045904405 0.017307386 0.117006354 -0.050360885 -0.08979323 -0.1521164 0.061324246 -0.11583998 -0.0018803109 0.05975754 0.11266693
kewpiemayo -0.16710396 -0.016364856 -0.09950824 0.09902292 -0.08347617 0.09951468 0.07853702 -0.054070845 0.12799352 -0.08159559 -0.06514246 0.024830211 0.01043919 0.0691301 -0.049776137 0.21765897 -0.21979786 0.017284388 -0.089740686 0.09939232 -0.014900226 0.12411302 0.15584369 0.06872079 -0.07592789 -0.19301334 0.108953714 0.2592758 0.100021414 0.00033673344 0.010320854 0.14087497 -0.06220328 -0.11968298 -0.16604064 0.08020157 -0.10933663 -0.0017257179 0.059286788 0.10977114
kp_partner -0.16439506 -0.006261243 -0.11729895 0.1072941 -0.07906515 0.09741291 0.07826489 -0.041037217 0.12017512 -0.111523345 -0.08667095 0.022373913 0.022546073 0.08371088 -0.07547355 0.21794361 -0.22238894 -0.009295606 -0.09004096 0.0722867 -0.02724823 0.15331714 0.16298495 0.07738177 -0.09360381 -0.18950345 0.119086005 0.25661016 0.118296355 0.0134155145 0.04221112 0.12260161 -0.065612786 -0.120455116 -0.16503742 0.07540789 -0.09614296 0.002120447 0.04237161 0.11061796
kewpiemayonnaise -0.15630485 0.003868 -0.093540296 0.09235149 -0.083703786 0.09695051 0.0806135 -0.053301726 0.1378487 -0.07570323 -0.06555317 0.03367385 0.018370537 0.052321974 -0.051212773 0.21730492 -0.21938622 0.015363753 -0.08534655 0.10423615 -0.0019894806 0.11909005 0.17155057 0.052331585 -0.07679105 -0.18754819 0.10841682 0.25233337 0.10850842 0.029369207 0.012734492 0.11669047 -0.057749286 -0.11007375 -0.16339654 0.07138243 -0.12596186 -0.006849636 0.047415543 0.11700089
kewpiemayomadebetter -0.16432717 -0.010230393 -0.080745675 0.09195643 -0.078865446 0.10352148 0.06892875 -0.04818532 0.13546288 -0.0865097 -0.06295551 0.044505123 0.021356188 0.07182223 -0.044931643 0.21124436 -0.19917761 0.022074068 -0.09034156 0.106224224 0.0003749599 0.12454843 0.15089424 0.047031652 -0.052584946 -0.18584122 0.11498571 0.23014915 0.100611806 0.025305731 0.003936842 0.12072301 -0.06760912 -0.08764497 -0.16253772 0.07385707 -0.13001928 0.014094848 0.06287361 0.10612651
kewpiemayosriracha -0.14759335 -0.013195642 -0.10303139 0.078187115 -0.0748631 0.10856908 0.08394648 -0.04736298 0.13634978 -0.0760223 -0.07524931 0.04109927 0.028223626 0.061592855 -0.056853347 0.19975023 -0.2045918 0.0047233114 -0.09100997 0.102535866 -0.022069262 0.1245541 0.15391144 0.058644377 -0.068210855 -0.17063585 0.094785094 0.2302492 0.11055372 0.008396347 0.008312832 0.13124435 -0.07593916 -0.0923854 -0.17449433 0.06159761 -0.11763042 0.021526728 0.0553625 0.1131893
japanesemayonnaise -0.14366072 -0.005578192 -0.08333467 0.1036849 -0.0899223 0.107008986 0.07676174 -0.04981814 0.1346112 -0.09262518 -0.06813692 0.026065595 0.02453652 0.052523784 -0.04496941 0.20677577 -0.21163687 0.023405753 -0.08060701 0.1182083 -0.012202256 0.12983947 0.15779956 0.047793396 -0.07272103 -0.18005624 0.11032116 0.23893125 0.106565505 0.022184813 0.010852977 0.11113549 -0.069075815 -0.0846148 -0.17752214 0.059798446 -0.12975058 0.00054203765 0.0566466 0.11879091
JusJusVerjus 0.0037061637 -0.0053690374 0.0003880579 0.00743533 -0.0052915453 0.011032411 3.468059e-05 -0.0023287814 0.0026657758 0.00024141837 0.011171781 0.0040493915 -0.009233828 -0.007018571 -0.006373379 -0.010556066 -0.009801777 -0.0057679876 0.0021130126 0.0049469722 -0.0011428343 0.011913297 -0.002194807 0.0076608444 0.011599326 0.00091080833 0.0054663653 -0.0005870834 -0.0018618908 -0.010244767 -0.0066135763 -0.008591426 0.010075656 0.0033510784 -0.0011117011 0.006848554 0.0035971003 0.0023665428 -0.008464836 0.011920541
LowABV -0.041666552 0.012029202 -0.026547963 0.023302035 -0.029000212 0.021801375 0.010541911 -0.012504379 0.023603272 -0.026255254 -0.019618608 0.00787883 0.0009755199 0.027911907 -0.009452753 0.06350239 -0.049041893 0.009410393 -0.03272533 0.034233157 0.0067331977 0.043226574 0.047187954 0.010736732 -0.024092607 -0.04555662 0.023286266 0.0724024 0.03576536 -0.0074124117 -0.0028835295 0.0340601 -0.023802863 -0.032966346 -0.052643992 0.01923289 -0.023767715 -0.008440272 0.0052195047 0.039712507
heirloomcookbook -0.008053744 0.00040555466 -0.000957625 -0.0033761095 0.004113176 -0.011145214 0.0014089094 0.0030226978 -0.000318666 -0.0021136757 0.0075708674 -0.0041088806 0.006343794 0.011811697 -0.012491385 -0.004897715 -0.008584505 -0.0040811375 0.0024494948 0.008925849 -0.009839485 -0.000653686 -0.0046949326 0.0045306673 0.0029867338 0.0022288188 -0.004121976 -0.009696713 0.003934662 0.0067257145 0.012412685 0.012461788 0.0016071694 0.011856708 0.00025225244 -0.0031739054 0.007223607 0.008841927 -0.009883982 0.003061111
TraegerCulinary -0.003953656 -0.0114125535 -0.004743423 -0.0055936947 -0.009738596 0.00996557 -0.0028568655 -0.008477181 0.00200433 -0.011275912 -0.005095321 -0.008034682 0.01112382 0.00693521 -0.0041331844 0.00034400355 -0.008142384 -0.008759709 -0.002671997 0.008365906 0.008598779 -0.0015407307 -0.0063402327 -0.0066868425 0.0005924674 -0.005706674 -0.008361939 0.0018743826 -0.0060930434 -0.011903803 0.0036200834 0.0033858353 -0.00441722 -0.008270268 -0.004971294 0.008145467 0.007449706 -0.0067064944 0.0061490117 -0.0091144545
jkimPies -0.0003970731 0.0037267366 0.01197574 0.0057304027 -0.0035786256 -0.005843015 0.0032732068 0.009900077 0.0070239296 0.007969708 0.012173287 0.0040217927 -0.0032587824 -7.584877e-05 -0.0067834035 0.0048082387 -0.0098594325 -0.0052781226 0.009385868 -0.010452899 0.0013597552 0.0062542995 -0.0025789542 0.0002324488 -0.0041524563 -0.0015505431 -0.010453718 0.010321279 -0.0007483959 0.01039813 0.002988967 -0.0010923343 0.0028349478 -0.004303284 -0.010886011 -0.005734909 0.011709855 0.007635827 -0.009908015 0.008263194
sparkjoydaily -0.0034315605 0.00020013936 0.0056517655 -0.0074959635 -0.007464996 0.007752196 -0.011301237 0.0076230476 -0.0054898085 -0.0057844655 -0.0013511721 0.0033525797 -0.0049040318 0.00016964693 0.012029664 -0.008041466 0.002599014 -0.0036983145 -0.0034167115 0.00076596905 0.00838796 -0.004915226 0.0007427316 -0.0013579279 0.0028559836 -0.009029172 -0.005099037 -0.006033592 0.009203167 -0.007113773 -0.0021978943 0.007798326 0.0024398519 0.008987005 0.00051207654 0.0031231688 0.0017837267 -0.010954893 0.006089852 0.001198967
thanksgiving -0.32123163 0.052066684 -0.22434546 0.1586738 -0.103841126 0.21402842 0.11013238 -0.16608481 0.2621258 -0.14285009 -0.18414521 0.123050146 0.13923836 0.160157 -0.07620543 0.41129303 -0.39844105 0.081810504 -0.15058486 0.20753936 0.008161392 0.1909879 0.34671506 0.12871146 -0.18385676 -0.4263939 0.13128626 0.50445884 0.16175546 0.057934403 -0.044998966 0.19345818 -0.21533419 -0.13797088 -0.33085224 0.12284014 -0.25609237 0.101384915 0.096553355 0.20744993
thanksgivingleftovers -0.031508602 -0.010719912 -0.017767796 0.0022796718 -0.020667143 0.017721 0.0062156646 -0.013260789 0.023036528 -0.028263774 -0.02205524 0.005921027 0.013727358 0.014826074 -0.02597158 0.03234975 -0.039225064 -0.006864883 -0.011607453 0.013685603 0.00018277789 0.020595476 0.044341747 0.01858309 -0.022417512 -0.046957772 0.012976333 0.053753387 0.025128288 0.0042807823 -0.00963532 0.025312219 -0.005586015 -0.003945856 -0.03831684 0.009227472 -0.011059353 0.0118189305 0.012937071 0.014870022
Vermicular -0.28500053 0.015776068 -0.1789305 0.15644209 -0.10153039 0.16636232 0.053734586 -0.1364937 0.22491542 -0.12640847 -0.12711805 0.13023466 0.143791 0.14155398 -0.034295857 0.31611556 -0.3631527 0.08814566 -0.14855693 0.23011649 0.03407641 0.12285988 0.30557233 0.13609129 -0.11099387 -0.33813232 0.11453286 0.4211128 0.093277685 0.077509195 -0.05172284 0.17849277 -0.21057832 -0.1380175 -0.29140213 0.102230206 -0.23781584 0.08222756 0.1121632 0.19890226
Ad -0.3032058 0.06598985 -0.25620863 0.17755565 -0.09648347 0.21879931 0.09340038 -0.1333635 0.1926652 -0.1746862 -0.18769342 0.11903931 0.16050965 0.1829442 -0.09433892 0.3795492 -0.37939617 0.07653063 -0.17330006 0.18554807 -0.027283229 0.1724692 0.35223368 0.18367895 -0.19879255 -0.412239 0.13139088 0.488148 0.15391327 0.06503938 -0.00904352 0.18526545 -0.19438556 -0.19269018 -0.32582375 0.12240699 -0.19080052 0.06372744 0.10684008 0.19690602
MusuiKamado -0.34054098 0.08323531 -0.2792112 0.22598842 -0.10102727 0.20579204 0.0862055 -0.16478185 0.19313227 -0.15669568 -0.18446572 0.14123558 0.18839201 0.17153881 -0.065011285 0.4157913 -0.42612672 0.08881346 -0.17400882 0.2552713 -0.012814593 0.18126011 0.37317815 0.22224236 -0.19568896 -0.4456911 0.16421413 0.5166689 0.15931717 0.053554732 0.0022279697 0.18819 -0.2010715 -0.2406393 -0.35911205 0.15315291 -0.20876561 0.08439445 0.13980146 0.20932686
howisummer -0.4254568 0.15972047 -0.40460432 0.2517547 -0.08432962 0.25387925 0.14305703 -0.25533655 0.19265287 -0.20876917 -0.24976309 0.1879538 0.24733354 0.2565438 -0.12020755 0.5091341 -0.5014964 0.13152182 -0.20973758 0.2789554 -0.0550876 0.25726745 0.4372713 0.32264546 -0.32659984 -0.5887063 0.16802669 0.62822366 0.22164947 0.04087927 0.004097769 0.15810362 -0.23841882 -0.32042465 -0.45213506 0.18162052 -0.21039666 0.08864923 0.14883351 0.26054788
rslove -0.50735384 0.21066347 -0.47629654 0.28477752 -0.035506554 0.2567616 0.13772322 -0.42230076 0.20973131 -0.19080603 -0.31938985 0.23154797 0.39448676 0.30366707 -0.05607163 0.55966157 -0.5499441 0.23140508 -0.23040448 0.37918457 0.016046794 0.18421774 0.5265342 0.40019608 -0.3383538 -0.6954807 0.12310096 0.7237343 0.21140721 0.063572444 -0.1286075 0.1217335 -0.36521855 -0.2997874 -0.5276035 0.1665968 -0.23530053 0.19915779 0.1790757 0.25983188
tastemade -0.41711524 0.09284129 -0.30653825 0.1992246 -0.100631356 0.24869981 0.07852194 -0.2925126 0.2349751 -0.18708439 -0.24017325 0.20066355 0.3393804 0.26458967 -0.07501696 0.4524542 -0.49313647 0.18598697 -0.20337759 0.3128651 0.027753094 0.16170758 0.51325244 0.22270356 -0.2537287 -0.5616951 0.08236379 0.6481088 0.17267315 0.107539356 -0.16490209 0.237853 -0.3760607 -0.20248203 -0.42884648 0.12062559 -0.2677025 0.17756225 0.13786882 0.23192494
bareaders -0.5059728 0.2518899 -0.5071356 0.23896721 0.07115018 0.31257212 0.009730806 -0.4854473 0.19076322 -0.20564336 -0.39236122 0.32206953 0.5475679 0.39061084 -0.045128465 0.4941226 -0.5148478 0.34563282 -0.18323731 0.3151237 0.07007627 0.06613 0.53859544 0.44489652 -0.38088575 -0.7372811 -0.010733529 0.7301152 0.09004122 0.13378736 -0.24850649 0.104292914 -0.5097317 -0.18543375 -0.47084662 0.09701233 -0.25576282 0.30965868 0.20429237 0.26068422
createandcapture -0.42530018 0.010117017 -0.22764407 0.2726177 -0.1772419 0.21759346 0.056619383 -0.24126916 0.3369854 -0.18910514 -0.15959989 0.17933777 0.17720123 0.15177636 0.026935592 0.48938286 -0.5422174 0.15293103 -0.21989644 0.43750367 0.13953348 0.15041645 0.46028712 0.20278756 -0.051584903 -0.49256226 0.17950566 0.62279683 0.14053127 0.09273363 -0.12291062 0.2959299 -0.26325357 -0.19854301 -0.44783378 0.16465266 -0.32834077 0.107118316 0.16461852 0.27556098
momentsofmine -0.39599782 -0.14750181 -0.12841313 0.3019581 -0.30166176 0.19875501 0.09477943 -0.14687583 0.4116518 -0.18368578 -0.12859125 0.1149367 0.017540466 0.11655499 0.0005808388 0.5280581 -0.5092187 0.04914837 -0.19962934 0.40372798 0.17935109 0.1696241 0.45029008 0.08926961 0.034231737 -0.39910105 0.24223906 0.5987432 0.16956516 0.08964438 -0.06406387 0.4421237 -0.19794093 -0.16996416 -0.47384888 0.13287449 -0.42212558 0.1047221 0.16496229 0.2522446
aquietstyle -0.40524682 -0.0068856655 -0.18886602 0.28025484 -0.1759117 0.17658086 0.059174642 -0.23324461 0.30987394 -0.15113176 -0.13300851 0.1503948 0.1341647 0.14494479 0.045276497 0.45228112 -0.5010936 0.13689123 -0.19635032 0.43361974 0.15792575 0.15695311 0.40604624 0.18236169 -0.046505593 -0.44030964 0.16501807 0.5697274 0.13478409 0.08121233 -0.10485557 0.255596 -0.22370669 -0.20104958 -0.41733092 0.13828456 -0.31411204 0.11201781 0.15570708 0.23958397
daysofsmallthings -0.38582945 -0.006718866 -0.18450578 0.2175642 -0.15992859 0.18369457 0.066394836 -0.2188594 0.30763716 -0.1555904 -0.15841708 0.16604361 0.14871 0.1603028 0.023829494 0.40750706 -0.44049352 0.14443767 -0.17356013 0.3544642 0.12216037 0.14189526 0.38186973 0.1385831 -0.060638286 -0.42042825 0.12840489 0.530058 0.13336724 0.08157252 -0.12306273 0.27232185 -0.2649303 -0.12064255 -0.36987093 0.12499196 -0.3231696 0.10738315 0.14570098 0.21677735
simpleandstill -0.36583722 -0.024673887 -0.1551658 0.21740621 -0.17127119 0.17018828 0.064718 -0.15537666 0.3199223 -0.14289534 -0.13466658 0.12407217 0.09580461 0.14490104 -0.010743639 0.39292473 -0.43170297 0.09819217 -0.17195061 0.3238693 0.118327744 0.14632869 0.3547806 0.12081986 -0.045976188 -0.3916492 0.16286469 0.50083464 0.15579891 0.07879184 -0.08389407 0.28133214 -0.23494336 -0.1431837 -0.3527349 0.13202003 -0.31059623 0.09502095 0.13450223 0.2142184
untoldvisuals -0.33893827 -0.015388081 -0.1581261 0.19859268 -0.16425769 0.16293177 0.0812984 -0.13051967 0.28069764 -0.1443275 -0.10587907 0.11479717 0.062353544 0.1193651 -0.0114902565 0.38037673 -0.3935471 0.075599276 -0.15983877 0.3113541 0.09051266 0.17807496 0.32802 0.09714851 -0.06120567 -0.35717937 0.16588748 0.4578403 0.15771489 0.03472806 -0.047186796 0.24307556 -0.17759436 -0.13666265 -0.34609243 0.13078111 -0.2692821 0.06341609 0.121094964 0.21672577
eatrealfood -0.30882794 -0.022970494 -0.1675113 0.18971089 -0.15787704 0.16874772 0.09283306 -0.114226654 0.2520974 -0.1358971 -0.12673481 0.08857918 0.056023333 0.10640283 -0.050385375 0.3447728 -0.377436 0.04798729 -0.15790455 0.23716313 0.04727687 0.18823065 0.30502877 0.10002976 -0.09060221 -0.33937436 0.15190327 0.4533221 0.17516199 0.04275962 -0.026721131 0.23798616 -0.13726844 -0.14040212 -0.31591237 0.12790428 -0.23745073 0.03514139 0.108190686 0.1927839
CrateStyle -0.0075963214 -0.0019462779 -0.0059281024 -0.010999938 -0.002949412 0.010023312 0.003137934 0.0066969926 0.0041596116 -0.00997868 0.005271769 0.012454719 0.0020894483 0.0041015586 0.012240217 0.0076349312 -0.012445089 -0.004272026 -0.0044210684 -0.010974655 0.007872024 -0.0074934675 -0.007909812 0.0047764545 -0.00041996688 0.010685888 -0.0024150033 0.006105109 -0.0007253615 -0.010832176 0.002654925 -0.0041266438 -0.011473677 0.002535848 -0.0060794577 0.002020955 0.009296588 -0.0013706433 -0.0072736754 -0.0044397917
coffeeeee -0.16785568 -0.008026971 -0.09550602 0.09375057 -0.08395266 0.094529584 0.051698454 -0.06528708 0.1498255 -0.08887296 -0.06841742 0.059268367 0.03319758 0.06638149 -0.0131573705 0.21024865 -0.20840086 0.025928253 -0.08166669 0.121484645 0.023815302 0.09551074 0.17978558 0.06914871 -0.05045394 -0.17517003 0.08938779 0.24891008 0.08485917 0.030766113 -0.016942728 0.13340698 -0.08888516 -0.095761776 -0.16576858 0.05724339 -0.13657634 0.010597252 0.0525775 0.11599
frenchtoast -0.0034877928 0.003596642 -0.0071344227 0.0057934197 -0.009981455 0.011135208 0.0017548399 0.011135497 -0.011223236 0.011040078 0.00521719 0.01184597 0.00081246905 -0.009757958 -0.001283342 0.0088907955 0.012263929 0.0024384782 0.00037239492 -0.009592031 0.0067721168 0.006105096 0.012326221 -0.0066259936 -0.009563006 0.0038843015 0.007780797 -0.009470193 -0.010626331 0.0006873254 0.009346812 -0.009061282 -0.0045185937 -0.009235626 0.010704345 -0.0028623985 0.005650443 -0.00558573 -0.0087640835 -0.0032563005
gorengpisang -0.04466988 0.0027143122 -0.028119529 0.030716393 -0.032873735 0.04010961 0.025854994 -0.02407913 0.040919703 -0.021413596 -0.030811483 0.0105211465 -0.004738725 0.012810807 -0.008258867 0.053330798 -0.06432479 0.011333317 -0.017980825 0.037812717 -0.006965635 0.04420315 0.055900197 0.008921953 -0.027554391 -0.045478635 0.039041378 0.07519359 0.031877354 0.016132003 -0.0027958765 0.040914107 -0.020805521 -0.03022666 -0.058436826 0.014032081 -0.028419634 -0.0038527765 0.012885875 0.022213027
hoshinoyaguguan 0.0036463784 0.0074154595 -0.0014783423 -0.005071646 -0.010066597 0.0033108229 -0.005446549 0.0019324021 0.0013194261 -0.00876155 0.008919123 -0.0039913356 -0.010396515 -0.0044003185 0.0035557998 0.0043288628 0.010548034 0.002248006 -0.009424975 0.007105342 -0.00039099623 -0.0044224365 -0.00071408134 -0.008577611 0.00025573187 -0.004517153 9.1046095e-05 -0.0008869618 -0.009014686 0.005777425 7.966533e-06 0.0015310021 -0.0036606966 0.010804062 -0.0065514254 0.012452922 0.010290808 -0.008111988 -0.0058941664 0.0005605491
xlbcrxtaiwan -0.05110505 -0.012070267 -0.040402256 0.027944682 -0.016157037 0.025162451 0.03578999 -0.014344244 0.03676269 -0.035136268 -0.010756178 0.004991617 -0.0061258595 0.021488992 -0.020331018 0.042173862 -0.053435974 0.004298255 -0.023854773 0.017414212 -0.0023917705 0.037206575 0.05035064 0.020370536 -0.036669314 -0.05418327 0.036407065 0.056334596 0.024121087 0.0016402318 0.017981375 0.046541043 -0.025809636 -0.017923843 -0.035164073 0.010825983 -0.033017937 -0.0044345483 0.0101936115 0.037938423
anxiety -0.0054458454 -0.012398775 -0.0030350182 -0.001582074 -0.006941286 0.0063068094 -0.010437289 -0.010999776 0.003108928 0.0059262672 -0.009698316 0.00661938 -0.0063794227 0.00052470993 -0.012375273 0.0003600372 0.0044222334 -0.004683392 0.0022151489 0.007994586 0.010788915 -0.0003402233 0.005625167 0.005002114 -0.0030774307 0.002735503 0.0028757695 -0.010805427 -0.012208283 0.0023616748 0.009664883 -0.0039753495 0.010318092 0.005592766 -0.00616152 -0.009208314 -0.010756058 -0.0114897955 -0.0047133043 -0.007291363
mentalhealthawareness -0.042445213 0.0038463392 -0.018092068 0.036564276 -0.026892595 0.03695718 0.01999797 0.00072374503 0.025231497 -0.027179535 -0.010952082 0.017511025 0.010782267 0.021706361 -0.009763719 0.044083275 -0.050354928 -0.01028408 -0.028781429 0.021644933 -0.0035924688 0.0393377 0.036607277 0.013849126 -0.03308225 -0.056694187 0.029334966 0.07188338 0.043273453 -0.0052072657 0.0021401811 0.033777 -0.024071729 -0.020426376 -0.054972358 0.015037737 -0.021799192 0.008216899 0.011188468 0.02074656
myseasonaltable -0.25433937 -0.0012942133 -0.17116837 0.13491182 -0.14387819 0.15859948 0.11739634 -0.08220269 0.20733331 -0.13918844 -0.14169204 0.03600878 0.043801654 0.10651441 -0.103133895 0.3406072 -0.33188033 0.022194428 -0.1549141 0.13800551 -0.026799018 0.20267732 0.28423727 0.093965985 -0.1562092 -0.3202727 0.164305 0.39442435 0.17332986 0.02973728 0.02812759 0.1907747 -0.122189045 -0.17776872 -0.26886484 0.105447955 -0.18926238 0.014974064 0.088949725 0.18722235
eatseasonal -0.27194372 0.03769003 -0.24178547 0.18768643 -0.13330603 0.1806783 0.14515279 -0.094101526 0.20338483 -0.17478526 -0.14747016 0.030769035 0.02995688 0.119774446 -0.12540635 0.3766107 -0.37536693 0.0024328693 -0.17775898 0.16420981 -0.0667924 0.26972836 0.30654246 0.1544872 -0.2032582 -0.3547498 0.21001151 0.4544486 0.2338528 0.0025139814 0.06931939 0.183223 -0.08770127 -0.2128069 -0.30438605 0.14463781 -0.16200162 -0.0052386774 0.08011345 0.18714511
seasonaleating -0.28011125 0.03763328 -0.2905513 0.17037708 -0.118496254 0.2088159 0.17700781 -0.06288797 0.19060293 -0.19741149 -0.20776124 0.034111425 0.0764676 0.1729939 -0.18452972 0.39603764 -0.38769433 -0.0114245955 -0.20594342 0.06675584 -0.1327136 0.2932972 0.3325702 0.1681818 -0.31372932 -0.39982662 0.21147254 0.49499682 0.28010875 0.007953833 0.11003826 0.2236102 -0.1083885 -0.23381023 -0.3315522 0.1387226 -0.13485922 -0.0055572884 0.09426626 0.18983987
seasonalfood -0.34393236 -0.0036932188 -0.29925826 0.17064781 -0.21261816 0.27801144 0.21726444 -0.025731508 0.28606755 -0.2633146 -0.21451828 -0.01252184 0.028177932 0.17741972 -0.24101943 0.46932766 -0.48987 -0.05029447 -0.24027744 0.06477796 -0.17307974 0.37296066 0.34363693 0.12214689 -0.3121274 -0.40650973 0.26043263 0.57537496 0.31942117 0.010549424 0.16985916 0.30116895 -0.110044755 -0.2745937 -0.38470823 0.1835831 -0.18153225 -0.022324886 0.105161875 0.25538248
realsimple -0.39137247 0.20295358 -0.43655834 0.20130266 0.0045623733 0.275539 0.0871623 -0.34332365 0.17179783 -0.20100985 -0.33261865 0.21321468 0.3677417 0.33408785 -0.121456124 0.49226218 -0.4626379 0.19740336 -0.17779912 0.18948402 -0.0688254 0.18855622 0.47405437 0.3345347 -0.4041169 -0.64761084 0.0741074 0.6395432 0.18303248 0.108227514 -0.10715227 0.1115268 -0.3566769 -0.21592855 -0.42247245 0.13444257 -0.22215383 0.20509058 0.12484281 0.25106823
firstweeat -0.31054664 0.022686485 -0.2897896 0.19016175 -0.16527313 0.23050065 0.16450734 -0.09657465 0.22579594 -0.21605685 -0.1763834 0.046943396 0.06528391 0.1637124 -0.1492323 0.4336756 -0.4249654 -0.0013274996 -0.21487339 0.13986999 -0.10895387 0.31439224 0.35019127 0.15156974 -0.25665915 -0.41322076 0.22372182 0.5360338 0.2483352 0.037760362 0.095747896 0.23878506 -0.1176572 -0.2519248 -0.35377127 0.16402346 -0.17220591 0.011968233 0.08823485 0.2210228
inmykitchen -0.32868752 0.023082111 -0.2773536 0.16805081 -0.16406883 0.23263466 0.14287595 -0.085265465 0.26578563 -0.21893075 -0.19131431 0.05947738 0.11488702 0.17221989 -0.16216208 0.4433466 -0.4222448 0.017576195 -0.18853559 0.17605214 -0.09480608 0.2781096 0.3933177 0.12665889 -0.24448209 -0.45162165 0.18430024 0.54990023 0.21997274 0.058213618 0.037739903 0.25117424 -0.18913984 -0.2341247 -0.37334254 0.14295392 -0.25149027 0.043155007 0.0911296 0.2220453
eatmunchies -0.2948629 0.019563945 -0.3105593 0.16546693 -0.14755063 0.23429887 0.20251521 -0.05500367 0.22946705 -0.2290147 -0.19851865 0.04435732 0.07470903 0.18190613 -0.19395034 0.43326786 -0.40839064 -0.018951219 -0.21553288 0.074900724 -0.15250543 0.32177767 0.34210414 0.14987502 -0.3015711 -0.42269078 0.23034564 0.5270327 0.28663704 0.03229845 0.1001184 0.25884 -0.10380728 -0.23440446 -0.35622278 0.16237946 -0.15720692 -0.01859371 0.07967703 0.21340446
thenewstyle -0.30813494 -0.0007535401 -0.28248772 0.16764449 -0.16553529 0.23192155 0.19004035 -0.063422136 0.23948704 -0.22002663 -0.18883237 0.029803783 0.06993078 0.16079047 -0.20877674 0.41677475 -0.37402073 -0.017390547 -0.1956492 0.06758869 -0.14431949 0.31904823 0.34957138 0.10557061 -0.30194137 -0.4143541 0.24175024 0.5177758 0.27520546 0.0346078 0.0894266 0.26433918 -0.12958576 -0.21732311 -0.34408042 0.16424042 -0.17404693 -0.014244683 0.08702768 0.19368279
italianfoodstyle -0.28386554 -0.008684508 -0.29259366 0.19387072 -0.18418323 0.22220062 0.20995785 -0.032386214 0.2407369 -0.23670982 -0.18405166 -0.009785189 0.031998973 0.141223 -0.22453243 0.41723788 -0.385353 -0.047108214 -0.21166554 0.056269992 -0.1668472 0.3553333 0.32246658 0.1140952 -0.30743352 -0.3902151 0.27849275 0.52934533 0.29955822 -0.00084936153 0.13625053 0.26387122 -0.060715765 -0.263234 -0.3320684 0.17898987 -0.16721639 -0.035061322 0.081620425 0.2029674
mangiareitaliano -0.28319794 -0.0016715814 -0.27035907 0.17655623 -0.17042473 0.2137284 0.19887389 -0.029813724 0.24615969 -0.20698956 -0.17440127 -0.0008551771 0.04206634 0.14621301 -0.19667262 0.41063324 -0.3763738 -0.0302254 -0.19860196 0.080759175 -0.13127322 0.32837212 0.31560525 0.11583098 -0.26609018 -0.3927219 0.25767934 0.5069531 0.2856144 0.016102552 0.11540165 0.2647239 -0.072006986 -0.23160255 -0.3221631 0.15297927 -0.17678908 -0.020751923 0.09227684 0.19470304
italiancooking -0.2888902 -0.039197534 -0.19508648 0.16615635 -0.1713898 0.20522402 0.15306626 -0.061090045 0.26591358 -0.1972868 -0.1427673 0.042439997 0.026419781 0.13813964 -0.15320852 0.37618148 -0.3732654 0.003112823 -0.19521594 0.14326335 -0.07618505 0.27878597 0.31964886 0.07979944 -0.19230595 -0.3560747 0.23455378 0.47865885 0.23920307 0.048058692 0.059472423 0.25848433 -0.113727815 -0.18238188 -0.3242405 0.13750403 -0.2282884 0.0040359 0.0813752 0.19811457
italianrecipe -0.28825927 -0.03235479 -0.19126289 0.16150314 -0.17811497 0.1855395 0.15955563 -0.033169072 0.26323032 -0.19691813 -0.12915708 0.016407842 0.019547662 0.11679863 -0.13682382 0.38454834 -0.36581904 0.0053266804 -0.17794251 0.1424617 -0.07535179 0.2913099 0.30871058 0.079862654 -0.17024317 -0.33095574 0.22681062 0.47751802 0.23906557 0.036121447 0.06067213 0.26744407 -0.08796918 -0.1957212 -0.32264155 0.15054742 -0.19922139 -0.017284447 0.097543776 0.1900851
homebaking -0.29534036 -0.03021385 -0.19768304 0.15351562 -0.17704369 0.20342644 0.15848523 -0.034691505 0.25946826 -0.19899738 -0.14207363 0.04103413 0.009216652 0.14677839 -0.15183055 0.38272312 -0.38376033 -0.0056938464 -0.18131544 0.13527694 -0.054838732 0.29353335 0.3366611 0.08122015 -0.1799175 -0.33790338 0.21282613 0.485772 0.2245557 0.025081547 0.0550036 0.27129567 -0.10775204 -0.18890926 -0.31610355 0.15517858 -0.21384357 0.0019058245 0.10251107 0.22057265
instabake -0.23881306 -0.022290485 -0.16062118 0.13046558 -0.12399041 0.15054147 0.118182145 -0.051785216 0.2003175 -0.14907736 -0.13163291 0.039296072 0.036421083 0.10007918 -0.09779357 0.30302322 -0.28719214 0.0055488534 -0.1481433 0.11037363 -0.06106133 0.20346624 0.25353342 0.07859351 -0.16199213 -0.2798399 0.14646578 0.37395835 0.17846768 0.01828788 0.018490292 0.19864161 -0.103833295 -0.1326568 -0.2434858 0.10428554 -0.17708325 0.012197073 0.060260534 0.16281997
patisserie -0.23425905 -0.0182503 -0.14133212 0.13062516 -0.13326076 0.14683884 0.122671165 -0.0473649 0.21537173 -0.1407931 -0.10693899 0.042473797 0.024807762 0.08910778 -0.10458381 0.30366272 -0.30402115 0.010297163 -0.13420749 0.14578676 -0.04180903 0.21455856 0.26594013 0.08309139 -0.12823018 -0.2830611 0.1605751 0.37977284 0.16998242 0.021043584 0.024198705 0.21184307 -0.08808389 -0.15501952 -0.24162482 0.10925616 -0.17622702 0.0026493175 0.06367513 0.16888137
baking -0.30118144 -0.15078753 -0.061371673 0.13992569 -0.2762122 0.22984265 0.2909913 -0.066620834 0.54919857 -0.16905464 -0.06120198 -0.01722547 -0.1829372 0.048667356 -0.14652745 0.43424493 -0.3693996 0.02119061 -0.12174728 0.23655103 -0.13311444 0.4711033 0.41879803 -0.18328807 -0.005072606 -0.36328638 0.321742 0.5050958 0.30547604 0.10815706 0.045957293 0.34109074 -0.1181809 -0.03955786 -0.3319736 0.21140061 -0.34689605 0.0014507509 0.0416836 0.28024876
bakingtime -0.23200317 -0.033312675 -0.14934778 0.14083284 -0.1390471 0.14192618 0.12925744 -0.054380372 0.2157622 -0.13077395 -0.1053851 0.02702067 0.0035654122 0.10075774 -0.09779128 0.30688068 -0.29384902 0.0003826334 -0.14605732 0.1442451 -0.029469717 0.22345184 0.24901643 0.06901956 -0.110140406 -0.2645717 0.18821715 0.3848932 0.18220544 0.01000523 0.023577465 0.19031906 -0.09427894 -0.15440926 -0.2595539 0.13273117 -0.17315997 0.0042264774 0.08127182 0.1658579
thebakefeed -0.3409004 0.056065872 -0.31494975 0.17273413 -0.115692586 0.24570954 0.1683612 -0.15797527 0.20596853 -0.19686212 -0.22387573 0.10200727 0.17193794 0.2329127 -0.15787187 0.41835865 -0.41543293 0.07584142 -0.1800271 0.14654526 -0.080098696 0.25639334 0.39363214 0.17052238 -0.29819623 -0.47179148 0.13916041 0.5540323 0.19219942 0.048068035 -0.005966427 0.21095848 -0.23857062 -0.20361781 -0.38560098 0.14847896 -0.23588732 0.0925844 0.11632991 0.21616162
lovebaking -0.22521317 -0.009849465 -0.14941844 0.14031568 -0.12016216 0.15771055 0.117227115 -0.06735293 0.22194004 -0.14252368 -0.12769127 0.054989703 0.02726459 0.11246158 -0.100262314 0.31847596 -0.2877673 0.031180426 -0.12710254 0.1300889 -0.016598288 0.20246457 0.2711585 0.078385346 -0.13553168 -0.2829913 0.16878574 0.3848536 0.158164 0.03384233 0.019420266 0.21110772 -0.109783754 -0.13431033 -0.2634946 0.11768972 -0.18308382 0.0069344975 0.076199576 0.15349056
ilovebaking -0.22952954 -0.024055367 -0.13420965 0.12661433 -0.12986378 0.13517433 0.10606055 -0.055697966 0.21139848 -0.13546611 -0.11185592 0.050607976 0.02822981 0.08215502 -0.09680109 0.28186172 -0.29144138 0.0021295205 -0.13546552 0.14494999 -0.025592392 0.19621433 0.2451961 0.083108135 -0.1137638 -0.2592645 0.15528865 0.35362288 0.15117212 0.023442362 0.014721924 0.20149395 -0.103994235 -0.13155153 -0.2490503 0.11506789 -0.17151794 0.0074906657 0.08639147 0.16427347
lovetobake -0.28072903 0.015250477 -0.2079382 0.14981358 -0.15113176 0.20431484 0.14367001 -0.10082365 0.243742 -0.1780185 -0.17626286 0.08033203 0.093946464 0.17320445 -0.12654588 0.37063387 -0.3939746 0.047605526 -0.1598078 0.15953648 -0.030970922 0.24986677 0.33856365 0.1077488 -0.18336117 -0.383245 0.15861848 0.49025488 0.18465242 0.053681783 0.0075390483 0.26103583 -0.18157743 -0.17170535 -0.3231407 0.13340916 -0.22684109 0.06197335 0.10461033 0.20251018
bakingday -0.2039428 -0.018136712 -0.11849165 0.12027497 -0.10706388 0.13148884 0.10321181 -0.044521406 0.19075315 -0.10597352 -0.09023966 0.035682276 0.021281427 0.086083084 -0.06573252 0.25962484 -0.26361662 0.024454942 -0.10843753 0.119364776 -0.002866271 0.16633567 0.22616364 0.0660809 -0.1002812 -0.2277924 0.12865964 0.3297115 0.13612862 0.019779226 0.021310952 0.1621767 -0.10570424 -0.12235657 -0.20922877 0.09478714 -0.15717347 0.012076542 0.064078055 0.13658617
bakingfun -0.18793337 0.0073625026 -0.11581799 0.115797594 -0.09518969 0.12977296 0.081285425 -0.05041401 0.14612027 -0.10921441 -0.06985056 0.035816208 0.026056595 0.08164828 -0.053096294 0.24608327 -0.24172592 0.012551393 -0.11610016 0.13022076 -0.008808601 0.15035102 0.19959079 0.07373677 -0.08728016 -0.2183082 0.123028874 0.3002654 0.12742592 0.014118798 0.02913063 0.15216582 -0.084513366 -0.13321328 -0.19602153 0.085298575 -0.14632681 0.0060432125 0.06724726 0.13515685
dairyfree -0.2548374 -0.024356643 -0.17684446 0.1808947 -0.14334254 0.17849162 0.14765033 -0.046126265 0.22227222 -0.15772307 -0.11891327 0.023358328 -0.014330393 0.10888785 -0.12909922 0.34561542 -0.35050732 -0.008148933 -0.17211947 0.13877657 -0.062118724 0.26839605 0.27814877 0.10877236 -0.14221953 -0.29892474 0.21746582 0.4259314 0.21939144 -0.0051479586 0.079883255 0.20667276 -0.06992708 -0.18512285 -0.2834827 0.151987 -0.17439191 -0.00697057 0.094570406 0.1755552
oliveoilcake -0.17783993 -0.012088436 -0.109598465 0.10727478 -0.08302748 0.0907496 0.09200423 -0.041605018 0.13842857 -0.10045613 -0.076735705 0.0397415 0.0142073175 0.062671974 -0.053825036 0.2221229 -0.22099607 0.0022659483 -0.10245104 0.12944584 0.004984807 0.14357737 0.1785931 0.05427771 -0.067949265 -0.19707905 0.11742465 0.26614568 0.10269101 0.014467263 0.021801272 0.13372405 -0.055700324 -0.12030935 -0.1920713 0.089895345 -0.114844576 0.0039444542 0.056243572 0.12534183
bakedinmud -0.18494925 0.008465532 -0.13020971 0.11025223 -0.08901055 0.119022876 0.0799472 -0.053260814 0.13316877 -0.10940516 -0.08072131 0.043910824 0.042545836 0.07868116 -0.053828176 0.23921256 -0.22386211 0.014528063 -0.10886838 0.103142224 -0.00992691 0.1363438 0.20222318 0.07531776 -0.094452195 -0.21034582 0.11666121 0.2648773 0.13038896 0.022864169 0.026600221 0.12779811 -0.08124473 -0.12153686 -0.18728565 0.08993743 -0.122705065 0.0007393118 0.0549894 0.11752094
savorypie -0.18390407 -0.012957525 -0.14834087 0.11624351 -0.10931781 0.112589546 0.11426972 -0.036236912 0.14990926 -0.124918394 -0.10694817 0.026308142 0.028521406 0.090302356 -0.09329872 0.25659445 -0.24364984 0.004701925 -0.12421105 0.081271276 -0.054831825 0.17670454 0.19982842 0.08770803 -0.12336507 -0.21486428 0.14086565 0.28803363 0.14661667 0.0039761392 0.047930654 0.14093398 -0.069305725 -0.12430789 -0.1880798 0.096213534 -0.11300005 -0.012524991 0.049125135 0.12888682
cookingfromscratch -0.26400676 -0.025244264 -0.19349581 0.1604378 -0.14527832 0.17169178 0.16088846 -0.0402646 0.23408608 -0.15860915 -0.1292103 0.026343297 0.0047046854 0.115330115 -0.11069664 0.35144764 -0.3552334 -0.013329591 -0.15877184 0.15813556 -0.044937283 0.24786675 0.29661372 0.103067786 -0.16788153 -0.32318908 0.20814405 0.42508507 0.20899856 0.020730013 0.06006001 0.22555718 -0.07172031 -0.18995723 -0.29110754 0.15293702 -0.17500003 -0.012992592 0.092217036 0.18349381
weeknightmeal -0.15505931 -0.0068065305 -0.111188516 0.09572533 -0.074085355 0.11396924 0.0756133 -0.044227984 0.12777653 -0.09873112 -0.09025601 0.020507459 0.025397547 0.070169166 -0.072973646 0.21370758 -0.19140604 0.0026510076 -0.09791722 0.08900097 -0.020860875 0.12385574 0.18095703 0.05905426 -0.10234047 -0.19672342 0.11762621 0.26254654 0.11804465 0.018194145 0.023299655 0.12588231 -0.074104965 -0.087664016 -0.1572733 0.06484242 -0.11012689 0.0047895177 0.06363339 0.11987424
ad -0.29428294 -0.07790706 -0.121718615 0.1447237 -0.19328108 0.1882583 0.1886987 -0.08104991 0.3784405 -0.17571987 -0.11099446 0.03736534 -0.054695085 0.08099005 -0.09456791 0.40776515 -0.39733148 0.04819488 -0.13807645 0.22403 -0.061544012 0.33403718 0.371443 -0.009225934 -0.061528653 -0.32654777 0.25511947 0.44252783 0.24459082 0.09617308 0.039699297 0.27549243 -0.13103457 -0.12280439 -0.31610665 0.19604729 -0.2879354 0.035185684 0.07656065 0.23716615
lovescucchiaio -0.28968683 -0.08114234 -0.11779708 0.15378171 -0.19644216 0.19240412 0.21658622 -0.053064607 0.4001071 -0.16514553 -0.11009364 0.010297372 -0.113841765 0.07921404 -0.122957356 0.41193396 -0.3805064 0.016736396 -0.14323735 0.2363878 -0.08927924 0.3851834 0.36499023 -0.0042339494 -0.056880124 -0.33197734 0.28924325 0.43933606 0.26045156 0.08344066 0.0651346 0.27778357 -0.07771299 -0.10868964 -0.31765574 0.20561725 -0.2443038 0.013632898 0.05866705 0.24129134
cake -0.32441726 -0.10359027 -0.09763988 0.13852951 -0.21975201 0.2079928 0.24217908 -0.08358243 0.44866294 -0.17129159 -0.110599644 0.029889503 -0.12264099 0.06260386 -0.122805655 0.4304321 -0.37781933 0.031901557 -0.12996697 0.22509803 -0.07669653 0.40453056 0.40700468 -0.046428554 -0.04790979 -0.34469315 0.28449488 0.45821962 0.26668206 0.100105725 0.04728275 0.29571417 -0.11866795 -0.08348108 -0.3363014 0.21055101 -0.27775458 0.009239514 0.04704149 0.2701841
dessert -0.31521848 -0.12617485 -0.06620436 0.099625595 -0.23446162 0.21810625 0.2627269 -0.10135622 0.5418814 -0.15341496 -0.08334364 0.020670287 -0.12550294 0.04594931 -0.12888093 0.45187053 -0.37103805 0.079193905 -0.11153094 0.24588485 -0.09524183 0.43548375 0.42241144 -0.12543833 -0.021178212 -0.38033563 0.24474223 0.48618037 0.27317426 0.15795168 -0.009082486 0.30645892 -0.18167154 0.0042300695 -0.31926212 0.22104426 -0.37669334 0.036140937 0.024124907 0.2864959
chocolate -0.37450337 -0.045587715 -0.09279297 0.15573014 -0.20346078 0.20216836 0.29304582 -0.271736 0.54583037 -0.094153635 -0.05913468 0.054624546 -0.11705904 0.00986194 -0.05473836 0.4982576 -0.4217983 0.15533169 -0.100945525 0.3904164 -0.046132546 0.44886294 0.47293052 -0.08314769 0.020545062 -0.45709324 0.21593374 0.50105476 0.27688292 0.13722463 -0.0524735 0.19102854 -0.1632285 -0.017710194 -0.3556147 0.21920206 -0.3433755 0.09173192 0.024674494 0.2750801
sweets -0.3887128 -0.08795963 -0.14330643 0.16773143 -0.24617621 0.25229314 0.28425547 -0.12008871 0.54810023 -0.17956764 -0.12419333 0.030535609 -0.109585434 0.09153723 -0.12709942 0.52146363 -0.4479917 0.07139199 -0.1553177 0.2946831 -0.11748447 0.45544264 0.48566854 -0.07649856 -0.046907052 -0.42594767 0.3228635 0.57657444 0.3363227 0.14412893 0.0064300345 0.3305644 -0.17063145 -0.085448176 -0.36610407 0.24412048 -0.37717712 0.024706785 0.04003263 0.29565212
pastry -0.37916306 -0.09976191 -0.11713085 0.17492804 -0.24939825 0.24420507 0.25613138 -0.11075171 0.5497657 -0.16583331 -0.09868229 0.027890507 -0.14345153 0.109602354 -0.104167834 0.49131784 -0.4369951 0.08474762 -0.15436433 0.31555444 -0.09848245 0.44902894 0.48983622 -0.1081146 -0.041757245 -0.41511396 0.31461048 0.5636992 0.32768267 0.14336438 -0.0030353977 0.33521613 -0.17041953 -0.060424637 -0.3830116 0.23448354 -0.36958954 0.028992465 0.047642536 0.30271715
desserts -0.41544205 -0.018571021 -0.20925179 0.1676567 -0.20158283 0.25322703 0.25032362 -0.2171063 0.49678984 -0.18068951 -0.14906985 0.07744093 -0.07721645 0.15311646 -0.11164162 0.53848165 -0.44843102 0.13048953 -0.15446292 0.30588734 -0.13081819 0.4356474 0.5370147 -0.05258401 -0.11813046 -0.47691458 0.29574117 0.595664 0.31936583 0.12884651 -0.046883058 0.28515404 -0.20192246 -0.06295858 -0.38128942 0.22847405 -0.33011472 0.06775406 0.03151162 0.28602305
bake -0.45297125 0.02845827 -0.28098196 0.19851522 -0.16380148 0.27607617 0.2882661 -0.26893282 0.4570135 -0.1903371 -0.18532653 0.08916735 -0.016535299 0.15792826 -0.13492708 0.56258446 -0.4565518 0.1155324 -0.1683212 0.3110367 -0.14386432 0.46765077 0.55158854 0.049682394 -0.19248107 -0.5446721 0.31072357 0.6669746 0.37618855 0.13222218 -0.0104329595 0.25571007 -0.20130484 -0.12723768 -0.42544305 0.24654977 -0.30800042 0.03802951 0.037247572 0.28282896
baker -0.49360195 0.07999202 -0.29758674 0.24050468 -0.15152162 0.26070294 0.27285197 -0.31341693 0.4630082 -0.1763139 -0.19081824 0.1364277 0.035128158 0.14672133 -0.08329024 0.58837515 -0.5195593 0.16422185 -0.18026 0.40835303 -0.08302277 0.41120726 0.5568504 0.12441489 -0.16498467 -0.59255534 0.2686967 0.7049063 0.32809165 0.101633176 -0.069399 0.22304006 -0.19506982 -0.1889066 -0.4610579 0.2366407 -0.31586337 0.046833068 0.058699306 0.32263538
instacake -0.5268209 0.13534433 -0.32149974 0.25170225 -0.12784134 0.2671172 0.23651442 -0.37839338 0.44270414 -0.17013079 -0.22062278 0.19773862 0.16291182 0.20222029 -0.049104694 0.6179731 -0.53732723 0.21272415 -0.17812037 0.4390012 -0.051629417 0.37776324 0.58921677 0.18587774 -0.19649382 -0.67686427 0.21399151 0.7403736 0.3200156 0.1056466 -0.12612519 0.18529652 -0.27795282 -0.17489664 -0.47493127 0.21384297 -0.35861132 0.10530488 0.075263254 0.33343038
cakestagram -0.5545906 0.13950804 -0.38636842 0.24581681 -0.122480035 0.28282735 0.23263545 -0.4126909 0.421759 -0.17816769 -0.2186535 0.18691398 0.1954036 0.2025097 -0.044181786 0.62565815 -0.56058335 0.21419954 -0.18617168 0.47880766 -0.03140222 0.36420524 0.57512325 0.21952944 -0.20650992 -0.679121 0.18516171 0.7542156 0.31861407 0.115203105 -0.119686045 0.14435604 -0.31959873 -0.22665 -0.48071867 0.20873973 -0.34047082 0.12488182 0.093676 0.3106771
bbcgoodfood -0.52773815 0.19623885 -0.37953186 0.24595839 -0.03942476 0.22224705 0.18376106 -0.4398473 0.3284832 -0.17945829 -0.21731806 0.2074086 0.22576702 0.20168598 -0.026711904 0.574872 -0.52662015 0.23330802 -0.20680076 0.47513652 0.007332005 0.2974115 0.5620236 0.29837188 -0.22814657 -0.6715181 0.15260682 0.7088122 0.23497921 0.084190026 -0.106579974 0.098125674 -0.31057477 -0.23125428 -0.48074043 0.19359413 -0.27552485 0.18194579 0.102811076 0.29398456
saveurmag -0.5440078 0.16322018 -0.36611092 0.24989085 -0.05901486 0.23864523 0.1918294 -0.43698776 0.34289116 -0.17899105 -0.20314358 0.2092583 0.22877158 0.19372538 -0.03005268 0.58741385 -0.5404951 0.23714384 -0.18632635 0.46241266 0.038319428 0.29618767 0.54707325 0.26399305 -0.2021854 -0.6771537 0.13181232 0.7018428 0.2527028 0.1086738 -0.12536143 0.09655101 -0.32736868 -0.20597751 -0.47688326 0.16987395 -0.29601327 0.16773453 0.109445795 0.3083781
chocolatetruffles -0.49982962 0.072421394 -0.2531883 0.23654665 -0.13120733 0.20831655 0.14050706 -0.3250651 0.387844 -0.14916153 -0.15565686 0.19675617 0.15993126 0.1652305 -0.0131471995 0.5427542 -0.52613086 0.20877664 -0.19093068 0.46077687 0.10740994 0.22001289 0.48261675 0.20104487 -0.11088649 -0.55621237 0.13772562 0.63070416 0.2150421 0.11282458 -0.1341139 0.16956043 -0.32162216 -0.18629652 -0.42245683 0.16748038 -0.34686336 0.1638259 0.12926352 0.30895886
bakingbook -0.44010854 0.06718376 -0.25477764 0.2271341 -0.13242356 0.20630305 0.15550007 -0.27812076 0.3378664 -0.15076986 -0.15726192 0.16133614 0.13059269 0.17461877 -0.039900772 0.5071978 -0.44626442 0.14207424 -0.17649509 0.37590095 0.04718282 0.23817496 0.46757913 0.13491741 -0.1305511 -0.51167053 0.16115975 0.59603095 0.2310252 0.10241151 -0.091769144 0.15944776 -0.2804997 -0.16080849 -0.400455 0.15476792 -0.29484904 0.13273147 0.10175752 0.2764639
pastrybook -0.39353192 0.037439376 -0.24645734 0.22230949 -0.14101015 0.20180681 0.186386 -0.1826415 0.3346448 -0.18458413 -0.15330689 0.09120955 0.04851826 0.13485621 -0.0977022 0.45728973 -0.418451 0.07941949 -0.19435285 0.27853134 -0.03180798 0.30119297 0.42471516 0.10482701 -0.16769542 -0.4540734 0.21287514 0.5650065 0.2497274 0.089560285 0.01215106 0.1894962 -0.20490623 -0.15895142 -0.35665548 0.1709036 -0.25449735 0.05655964 0.088727154 0.24121964
coffeeshopcorners -0.3947017 -0.13603483 -0.0545767 0.2721657 -0.30285582 0.13212217 0.10196665 0.22862959 0.42890114 -0.5020452 -0.026844602 0.29499602 -0.2749964 0.12355397 -0.2222557 0.49199834 -0.38101396 -0.26668411 0.033095773 -0.03137935 -0.049879517 0.47627133 0.3831699 -0.1159188 -0.09447127 -0.10012926 0.33168074 0.45996702 0.32215312 -0.26472095 -0.1923486 0.262457 0.025947232 -0.34921893 -0.4180902 0.35593897 -0.6782302 -0.3904485 0.22879231 0.3288653
shotoniphone11pro -0.03981925 -0.010657212 -0.021890502 0.030018913 -0.013378255 0.016038511 0.02815363 -0.01796086 0.0251276 -0.014376928 -0.002931796 -5.045929e-05 -0.0043945257 0.022467753 -0.011003898 0.0469486 -0.056846727 0.007409471 -0.009536515 0.015668277 0.0071506295 0.04312939 0.0509195 0.0028165756 -0.018911647 -0.04489801 0.037138596 0.06757603 0.037335973 -0.010726619 -0.007375068 0.015457694 -0.0018090946 -0.022445086 -0.044891056 0.03016291 -0.018744469 -0.01786576 0.004165623 0.020669118
chasinglight -0.275769 -0.072497904 -0.14997357 0.17300467 -0.19207312 0.17791748 0.17306802 -0.06064709 0.2827285 -0.16373067 -0.10198849 0.02209088 -0.014331349 0.11485496 -0.12672022 0.39688468 -0.36804712 -0.028950656 -0.17213894 0.132433 -0.037190367 0.2841359 0.30908328 0.051863886 -0.11804867 -0.3305233 0.22948343 0.45589784 0.21475099 0.020128656 0.052164152 0.28490326 -0.095697746 -0.17970833 -0.33016232 0.14884025 -0.21621004 -0.008287304 0.0777722 0.19773419
soup -0.07458171 -0.015966525 -0.032429643 0.03683563 -0.0263086 0.030569868 0.03361252 0.002662057 0.04638624 -0.03672201 -0.03560533 -0.004494812 0.011645911 0.013721109 -0.03468212 0.09685677 -0.07845555 -0.0028529365 -0.051527675 0.039826017 -0.0029492294 0.049855344 0.06415478 0.014177862 -0.02321672 -0.076446675 0.04367737 0.0972666 0.053151 -0.0066236113 0.020464202 0.06165492 -0.018132726 -0.041931678 -0.07850248 0.025529483 -0.057966296 0.0075332336 0.028009305 0.03656324
comfortfood -0.059368666 0.009771427 -0.037897017 0.028502513 -0.029978337 0.048211742 0.033006158 -0.025691155 0.06304056 -0.042177584 -0.036602218 0.022685058 0.0008615826 0.024079235 -0.034716412 0.07992221 -0.09480284 0.006387015 -0.04702022 0.032594454 -0.018391259 0.06745716 0.08380945 0.021637384 -0.02881128 -0.08409935 0.041353293 0.10653146 0.06008538 0.006833877 -0.002926961 0.057524998 -0.033736758 -0.0410313 -0.06432304 0.036114898 -0.046443615 0.0068538026 0.028606614 0.0525014
chicken -0.23800111 0.011020514 -0.17001393 0.16702703 -0.10351093 0.15569918 0.104614325 -0.0851312 0.1705789 -0.12795855 -0.11014794 0.067371435 0.045357328 0.10588027 -0.07785564 0.31200925 -0.3343745 0.026255216 -0.1333829 0.17045203 0.0025697895 0.18248558 0.25364557 0.14954902 -0.12326267 -0.28280723 0.14697327 0.39137226 0.14685519 0.011525879 0.02250207 0.15611367 -0.1048248 -0.1772823 -0.26406097 0.12886214 -0.16033897 -0.00019205597 0.09121925 0.15852183
cookies -0.3142652 -0.028236095 -0.16883746 0.18871595 -0.16806923 0.18035056 0.16656873 -0.11654169 0.30915344 -0.16874501 -0.13761765 0.051284075 -0.0029843862 0.119720854 -0.081067346 0.39981842 -0.40120324 0.045949172 -0.14838848 0.24015415 -0.011089247 0.28863662 0.36631864 0.05429114 -0.12039789 -0.3707834 0.2173641 0.4899466 0.21408318 0.08321198 0.030988852 0.2417091 -0.15388758 -0.15314204 -0.348992 0.15285863 -0.26649758 0.0392158 0.095497556 0.22003944
plantbased -0.30685145 -0.057321895 -0.18689565 0.21608715 -0.15583447 0.20196488 0.16822268 -0.059719335 0.2832916 -0.16777961 -0.07468965 0.025880393 -0.062937714 0.0953685 -0.106625296 0.41224122 -0.41142684 0.015794333 -0.15671027 0.2266805 -0.00930408 0.31071824 0.32240307 0.08717548 -0.094882354 -0.35301453 0.26731926 0.45611715 0.20837761 0.02878813 0.06824751 0.21210639 -0.08505806 -0.1932912 -0.32855383 0.18385816 -0.20640527 0.011611343 0.11866104 0.21044782
kalesalad -0.15215199 -0.027292177 -0.08056363 0.09242632 -0.095193975 0.10295007 0.108030476 -0.022824772 0.13889831 -0.07754495 -0.07055353 -0.0024272562 -0.031062432 0.038840476 -0.05298363 0.21006517 -0.2015095 -0.0118062515 -0.09529789 0.09555637 -0.02316909 0.14264438 0.16382411 0.04425421 -0.06987639 -0.18299712 0.12927715 0.2535398 0.10348502 0.007467369 0.043374654 0.119115956 -0.046448518 -0.10264224 -0.16490404 0.08116772 -0.11117744 -0.010294636 0.06695175 0.09177634
easydinner -0.15928522 -0.02667946 -0.09823385 0.1062991 -0.08695086 0.08753439 0.0810612 -0.038792703 0.14099291 -0.07380445 -0.052052297 0.022965463 -0.011213078 0.03852246 -0.031903878 0.22289814 -0.22208118 0.019381335 -0.082601376 0.12241023 -0.008995766 0.13796431 0.17126411 0.048033718 -0.06505237 -0.17374933 0.12902568 0.25680137 0.11661372 0.0227027 0.0341677 0.12120536 -0.060814604 -0.11266902 -0.18885875 0.088543914 -0.1349666 -0.0053506317 0.06743479 0.10223401
video -0.053755455 0.004543904 -0.023709012 0.035791993 -0.018213196 0.036182016 0.0059924596 -0.04697086 0.05130068 -0.021438368 -0.034347463 0.039730974 0.031179104 0.028987553 -0.0065461965 0.06458045 -0.059766456 0.02303584 -0.016180482 0.04949458 0.016565993 0.011000628 0.056602802 0.016318481 -0.0034484726 -0.06610394 0.022548957 0.09030108 0.02438088 0.0023940091 -0.01909212 0.042926252 -0.04066071 -0.0216358 -0.05120462 0.026542492 -0.05594772 0.03248232 0.014555687 0.032477796
recipevideo -0.092414044 0.009410974 -0.0599158 0.06515623 -0.035774987 0.04108064 0.021589521 -0.05616114 0.0851373 -0.028112609 -0.032138333 0.04134485 0.027230734 0.028901424 -0.016810793 0.120726764 -0.11488266 0.0169365 -0.04988512 0.09173071 0.014768621 0.037840527 0.103622064 0.028212374 -0.032205224 -0.11667325 0.050451275 0.12990645 0.05297728 0.018283617 -0.023136249 0.051796798 -0.075478464 -0.04019465 -0.09501726 0.036430202 -0.08965478 0.016636772 0.03481481 0.06899824
vodka -0.09446075 0.025292842 -0.08088394 0.05088096 -0.03395267 0.07307931 0.048282757 -0.053886827 0.07417699 -0.05311006 -0.043227065 0.039520428 0.037046563 0.046195336 -0.028045109 0.13174717 -0.13425592 0.04087069 -0.051104736 0.09339122 0.009483137 0.052028988 0.101446465 0.06352282 -0.060928967 -0.1338681 0.06120608 0.1564338 0.04313131 0.02167574 -0.012444226 0.05600206 -0.07317721 -0.054951247 -0.11798585 0.03576836 -0.06638544 0.026088193 0.03621178 0.06397195
christmasdrinksaturday -0.09221007 0.0029574865 -0.07455064 0.054963324 -0.035120703 0.06727464 0.03133768 -0.046986062 0.086856075 -0.04711282 -0.040309463 0.048574753 0.028616808 0.03022716 -0.008410618 0.11174812 -0.109484464 0.033025037 -0.043561053 0.08746825 0.012292906 0.050765187 0.1124797 0.03964074 -0.049389306 -0.11916744 0.04499208 0.13454917 0.045990907 0.014218432 -0.008782531 0.06269453 -0.04887426 -0.06511652 -0.095499195 0.03578577 -0.06704713 0.019642996 0.033954136 0.0666941
hbhcocktailsaturday -0.1409064 0.007756997 -0.089474395 0.07884419 -0.052177012 0.08264825 0.059987452 -0.050817113 0.113722295 -0.07745626 -0.073233895 0.054674357 0.047237307 0.051858187 -0.030492295 0.17116953 -0.15625383 0.043917716 -0.07018857 0.085545935 -0.0043688547 0.09703457 0.14943914 0.06255587 -0.058368605 -0.1592479 0.06826125 0.18896806 0.0728011 0.015161266 -0.0021032896 0.0734957 -0.063489005 -0.06481129 -0.13919851 0.05565017 -0.10249927 0.032577742 0.04366539 0.07505452
imsomartha -0.3971429 0.033588164 -0.21487756 0.20025742 -0.10911786 0.18946773 0.06579856 -0.3223997 0.3803895 -0.12477566 -0.09913702 0.26772785 0.18975826 0.16450547 0.011451752 0.47884676 -0.44910857 0.23357977 -0.15245423 0.42973652 0.13751245 0.17317891 0.42180884 0.111499816 -0.06616679 -0.54037696 0.12098998 0.581019 0.09575304 0.075986326 -0.23906766 0.16993032 -0.3584605 -0.101652846 -0.41746974 0.12228205 -0.41835314 0.20267954 0.11886559 0.2702579
CLkitchen -0.08328398 0.0020991582 -0.04888368 0.054761883 -0.036884103 0.056973808 0.043760125 -0.006681826 0.06628524 -0.0389819 -0.042437017 0.015532797 -0.0015569353 0.02094229 -0.019078756 0.10452609 -0.10979244 0.010766839 -0.05676853 0.044019796 0.0048363963 0.07338495 0.078180805 0.017751317 -0.030810665 -0.093697034 0.062004592 0.13398515 0.04403164 -0.0035109539 0.009919721 0.06160017 -0.029402025 -0.06168324 -0.0769212 0.051514752 -0.054316968 -0.0070485035 0.033204354 0.058694158
neocoffeebar -0.009748903 -0.008780712 -0.001855053 -0.011253464 -0.0006496478 -0.0035685077 0.011232632 -0.011247079 -0.0011133719 0.011487122 -0.00740923 -0.007831326 0.0068796603 -0.0026774574 0.0067899497 -0.0074333223 -0.0032226294 -0.0045129787 0.0099273855 -0.00396928 -0.010261318 -0.0011227 -0.0052543776 0.008087651 0.004887442 0.0006844569 -0.0016826959 -0.010529098 0.0046650795 -0.007000585 -0.0029015513 0.012301923 0.005176493 -0.009329086 0.009657265 0.0031244783 -0.012432498 0.0033751605 0.004030264 0.012402548
SavBlogAwards -0.250585 -0.010697459 -0.16315143 0.15884477 -0.16258124 0.18244033 0.17686318 -0.024565088 0.25051442 -0.13616574 -0.12364115 0.004439887 0.010357574 0.103874564 -0.10316852 0.34050348 -0.33721128 -0.005735992 -0.17142238 0.13368924 -0.06411097 0.23564456 0.29210058 0.08195449 -0.16338138 -0.29865405 0.1900946 0.43657935 0.22520964 0.020078234 0.07749164 0.23159064 -0.09747824 -0.16339245 -0.25666228 0.12100308 -0.19666804 0.012030463 0.083682634 0.16687731
byfolk -0.26208562 -0.04374008 -0.15673737 0.14748417 -0.18562905 0.1708658 0.18818896 -0.00036145223 0.25262398 -0.14203078 -0.12941611 0.012373156 0.010659699 0.08037854 -0.10768872 0.34976017 -0.35668242 -0.007674872 -0.20365947 0.12881193 -0.050451722 0.25598532 0.31258395 0.045362804 -0.1617085 -0.31028953 0.20921986 0.44552547 0.24656577 0.030568907 0.07393225 0.27448207 -0.09901209 -0.17446369 -0.28233406 0.14292783 -0.22847459 0.0013245047 0.099362396 0.17902526
bedroominspo -0.2904301 -0.034073092 -0.15054311 0.16398397 -0.19440502 0.17877498 0.19293936 -0.025762228 0.27863717 -0.16711918 -0.12610777 0.016764821 0.012505958 0.09816165 -0.10354529 0.36138374 -0.38087127 -0.014703471 -0.20414862 0.14086011 -0.05401017 0.25918114 0.31674418 0.052202594 -0.15630949 -0.31093484 0.21226507 0.46605143 0.24606308 0.046932533 0.076393574 0.27448085 -0.124824055 -0.19063082 -0.29797825 0.15139027 -0.2281886 0.0134221325 0.08908159 0.19466943
flashesofdelight -0.29188436 -0.041879512 -0.16593623 0.18260297 -0.23713693 0.18369599 0.22936484 0.012423223 0.27148405 -0.18720281 -0.14234972 -0.016579485 -0.012450103 0.07967894 -0.13543846 0.37574944 -0.38775498 -0.029631926 -0.20896015 0.114196315 -0.08990927 0.30326298 0.3129731 0.056030665 -0.18685079 -0.31490907 0.24540292 0.49020278 0.2655702 0.027538832 0.13536458 0.30177757 -0.102192745 -0.18860348 -0.29944968 0.16054764 -0.22210872 -0.013476111 0.09084883 0.19338624
littlestoriesofmylife -0.31147727 -0.08352828 -0.13397317 0.1759095 -0.2506428 0.18182619 0.2046987 0.0093507115 0.3201351 -0.14453703 -0.1007513 0.018184863 -0.0057486556 0.059308533 -0.09256904 0.38173243 -0.4140121 -0.0027939966 -0.23709527 0.21269527 -0.022486214 0.2705483 0.3533562 0.026303705 -0.12282605 -0.30750027 0.22753151 0.50583625 0.2671867 0.07038488 0.08391038 0.31731397 -0.12592481 -0.18473248 -0.3238521 0.16331401 -0.28796884 -0.01160255 0.098935544 0.2113685
thisismycommunity -0.32056382 -0.06453772 -0.15757033 0.18138987 -0.25195414 0.17606644 0.2153669 0.011492335 0.29655206 -0.15287803 -0.10952088 7.8232435e-05 -0.028285922 0.077917755 -0.09950104 0.39161623 -0.4421028 -0.013195488 -0.22600082 0.20532751 -0.023627741 0.27706954 0.3444029 0.032104064 -0.12717283 -0.32784683 0.24857472 0.49644715 0.26891723 0.04725395 0.12877326 0.32629418 -0.10504296 -0.20733507 -0.3356491 0.16140495 -0.26374757 -0.015204834 0.10070221 0.21636763
pinterestinspired -0.32057184 -0.08393194 -0.15217097 0.21335272 -0.2970195 0.17530799 0.23389843 0.032660607 0.33392826 -0.14503905 -0.08590059 -0.0076775337 -0.020116525 0.044945464 -0.10208896 0.41654444 -0.4383508 -0.013186613 -0.24640633 0.21771632 -0.020010686 0.28731054 0.36266002 0.02882336 -0.11532842 -0.321975 0.26572347 0.50753665 0.29053342 0.07614277 0.1370882 0.34147403 -0.08971913 -0.23307826 -0.34043127 0.14751913 -0.2861703 -0.021849878 0.09235914 0.19824344
theprettycities -0.32868052 -0.08368536 -0.17655215 0.20970301 -0.28971174 0.19882062 0.2361718 0.018202206 0.31378 -0.1527391 -0.086261556 0.0038222682 -0.013086501 0.061613347 -0.11507407 0.44547772 -0.46685627 -0.0074761813 -0.2619838 0.2343836 -0.010134387 0.29935104 0.36913455 0.062125597 -0.13746144 -0.33927763 0.25828567 0.5508394 0.29402813 0.07611652 0.12218685 0.34455124 -0.10156811 -0.23301232 -0.35229692 0.14184718 -0.30846852 -0.01115973 0.09619512 0.21586928
mytinyatlas -0.34837475 -0.09589302 -0.16496363 0.22691183 -0.3035383 0.19443026 0.21273457 0.0014229224 0.3221496 -0.15579936 -0.082714655 0.013360302 -0.011150759 0.049951717 -0.10596889 0.4403477 -0.46886146 -0.032717954 -0.2614425 0.24925177 -0.035463985 0.28621706 0.37138844 0.060937375 -0.13905035 -0.3590319 0.26453373 0.5619352 0.29238257 0.07373438 0.122608185 0.36055934 -0.11014883 -0.21548589 -0.3836585 0.16123559 -0.31309542 -0.016814718 0.08221951 0.21336791
momentslikethese -0.42358407 -0.22618063 0.05345899 0.3324084 -0.5670407 0.11890632 0.200665 0.077181466 0.42177042 -0.023061184 0.15884277 0.17642654 -0.071768776 -0.13297573 0.20509961 0.49430904 -0.71258384 0.054556187 -0.44311574 0.823376 0.3304217 0.16406824 0.48695403 0.04361425 0.2149906 -0.3703035 0.3096885 0.6748322 0.28765568 0.11811238 0.10849015 0.52321845 -0.22410874 -0.38861272 -0.55962193 0.16087277 -0.5273553 -0.07706943 0.10509401 0.31445408
interior4all -0.3656379 -0.10705469 -0.15999644 0.22899577 -0.3106293 0.1941575 0.20906274 -0.0126930615 0.35743657 -0.173283 -0.09733586 0.017074019 -0.03133241 0.06799468 -0.102445416 0.46836787 -0.4955576 -0.012599437 -0.24930692 0.293548 -0.009986956 0.27815902 0.38703522 0.089661956 -0.09792833 -0.36770588 0.28500196 0.56387585 0.29546836 0.078420304 0.10562861 0.37904415 -0.12492113 -0.22751522 -0.41896486 0.1616387 -0.30897996 -0.029790886 0.09221071 0.22188538
pursuepretty -0.41592732 -0.06381385 -0.15309472 0.32542136 -0.33232963 0.17277381 0.17975308 -0.05894244 0.35437167 -0.14294213 0.012295604 0.04147981 -0.057344362 -0.003916155 0.03740694 0.4998258 -0.61869806 0.013240433 -0.26840886 0.5508149 0.14733024 0.2666159 0.39372703 0.16844083 0.008908213 -0.3676211 0.2702862 0.5966595 0.25193757 0.07235339 0.16187975 0.35598114 -0.09041448 -0.33376938 -0.48216555 0.15327173 -0.30468586 -0.016388047 0.1214021 0.28320894
allshots_ -0.3878449 -0.1115662 -0.17288134 0.25309005 -0.2994064 0.1866151 0.20085113 -0.04561225 0.37679994 -0.18198478 -0.09945661 0.043251958 -0.020053126 0.07311412 -0.09728567 0.48505998 -0.5219708 -0.005414456 -0.24610235 0.32310393 0.038465783 0.28442273 0.40034217 0.049576696 -0.08943026 -0.38529706 0.29796448 0.57830465 0.28690618 0.06983129 0.09244161 0.40571168 -0.12397135 -0.220269 -0.43015233 0.1466526 -0.36080995 -8.0682716e-05 0.10471747 0.23669218
tlpicks -0.37918755 -0.108358584 -0.19240092 0.2513249 -0.29290658 0.19944187 0.18153362 -0.060189515 0.35885626 -0.16854852 -0.09434985 0.064763375 -0.0050794613 0.0991089 -0.10092105 0.48125693 -0.522778 -0.005212957 -0.22803476 0.30713284 0.058970924 0.26631773 0.41826314 0.062170096 -0.090727754 -0.38826558 0.29217446 0.57995164 0.26313385 0.07913976 0.07088608 0.39655808 -0.13355334 -0.24582087 -0.42467928 0.16114582 -0.3658047 0.0038785925 0.1094062 0.24781269
liveauthentic -0.35326865 -0.12216871 -0.16141066 0.2667173 -0.29969877 0.19842723 0.16476662 -0.036437795 0.37475327 -0.17005594 -0.08816279 0.053798605 -0.019863643 0.08569105 -0.08386235 0.49188828 -0.5240471 -0.0050396933 -0.2153258 0.32300958 0.06978607 0.27059278 0.402532 0.08562411 -0.0496181 -0.3847398 0.26330185 0.5792854 0.25401255 0.07185742 0.040724337 0.40912908 -0.12319124 -0.21811761 -0.42182446 0.14539948 -0.36940137 0.011107308 0.12664282 0.23710905
currentdesignsituation -0.35572514 -0.11138504 -0.1707489 0.26653937 -0.2733373 0.2215267 0.18678436 -0.06394661 0.34658682 -0.20620954 -0.11384664 0.049832117 -0.018206995 0.09677648 -0.087528646 0.4893423 -0.50884044 -0.032334242 -0.21249472 0.2980622 0.061468683 0.2845548 0.40164316 0.094953075 -0.07453274 -0.38994747 0.28648144 0.5904224 0.2653672 0.037151165 0.051772483 0.4026975 -0.12074429 -0.23312403 -0.43829474 0.14325745 -0.33801493 0.02559894 0.12803158 0.2279958
verilymoment -0.33526596 -0.1282235 -0.16370477 0.23245607 -0.2679014 0.22645143 0.19353524 -0.054530136 0.3606468 -0.21409044 -0.1366525 0.031824123 -0.02412183 0.12717548 -0.1253793 0.49128976 -0.4454718 -0.031494275 -0.20601319 0.22560054 0.024461847 0.27323717 0.38262624 0.06464596 -0.09474667 -0.37077996 0.28616893 0.56681985 0.23845361 0.02922122 0.040718827 0.40330487 -0.14904733 -0.2156682 -0.424236 0.14948359 -0.32976708 0.02686653 0.13273518 0.22823204
searchwandercollect -0.34339038 -0.10756286 -0.16062722 0.22664826 -0.23760074 0.21174763 0.19165848 -0.06906395 0.3638468 -0.22198525 -0.14575768 0.028930042 -0.03547926 0.13543892 -0.12783459 0.48576063 -0.45119607 -0.025395898 -0.19110255 0.2265 0.033064403 0.2841954 0.3860477 0.045876574 -0.101041324 -0.38867277 0.26664382 0.5698548 0.22995272 0.026433725 0.039265648 0.38904977 -0.13255535 -0.17885712 -0.42291173 0.15096918 -0.31792068 0.012154707 0.1094832 0.24969463
watchthisinstagood -0.33906248 -0.13017532 -0.17906044 0.21818426 -0.24919434 0.22235405 0.18120137 -0.04396939 0.37126076 -0.21250653 -0.10992099 0.0084874695 -0.06780447 0.13500749 -0.13180238 0.4769723 -0.45118853 -0.055699013 -0.19080052 0.22011632 0.028116042 0.3155957 0.39524817 0.047785822 -0.085947596 -0.3723052 0.28715596 0.54666007 0.25515103 0.019750886 0.062467948 0.39130902 -0.115330026 -0.22270198 -0.40574062 0.15468846 -0.29406983 -0.008022958 0.13134599 0.22470507
boyswithplants -0.32058325 -0.13058104 -0.1456044 0.23822398 -0.2255202 0.22484002 0.16211422 -0.094852716 0.3635521 -0.19472834 -0.104268774 0.04670607 -0.05031762 0.13066424 -0.112866625 0.4857937 -0.4457418 -0.009144041 -0.16973914 0.25526366 0.035167444 0.28733167 0.40098765 0.045458965 -0.06549689 -0.373976 0.2682926 0.5284312 0.2411252 0.02763462 0.022206794 0.37465024 -0.14128277 -0.1784086 -0.41498286 0.13505831 -0.32293883 0.017144825 0.13059469 0.23931953
artofvisuals -0.3205217 -0.14261954 -0.15203118 0.22175713 -0.23253636 0.21310025 0.1899856 -0.071976826 0.37578604 -0.21120304 -0.11449251 0.03679458 -0.04837929 0.13823667 -0.1258582 0.46669334 -0.43452978 -0.036288787 -0.16630177 0.18724293 0.03630039 0.30528232 0.4133013 0.030175332 -0.08169868 -0.38689634 0.27721986 0.54731905 0.2384961 0.033301316 0.01635216 0.40068442 -0.15295568 -0.17050518 -0.4022429 0.15551396 -0.32899365 0.038179457 0.10216568 0.23830791
postitfortheaesthetic -0.28837216 -0.11727162 -0.16855013 0.20985502 -0.24121408 0.19904567 0.19794863 -0.043788105 0.33507216 -0.20385489 -0.11692846 0.022841554 -0.0669664 0.11933133 -0.15304643 0.45367703 -0.42781085 -0.060776193 -0.1676088 0.14727293 0.00648205 0.3205302 0.36265737 0.030225333 -0.10902742 -0.34613982 0.2621785 0.5105472 0.22775786 0.016901363 0.063241586 0.35155126 -0.096001476 -0.19409329 -0.38911974 0.13552047 -0.28756732 0.0043806797 0.11409911 0.21040125
thehappynow -0.28424674 -0.12734506 -0.14936028 0.19422363 -0.23263562 0.19864272 0.20295677 -0.056424554 0.3218436 -0.1857358 -0.11759472 0.025160683 -0.04826362 0.13264321 -0.13666397 0.44336626 -0.38725525 -0.032325808 -0.16948478 0.17119141 -0.013001487 0.29476285 0.37446013 0.02682534 -0.109438 -0.35485294 0.26968002 0.48516983 0.22274089 0.033845782 0.05812001 0.33289737 -0.10699648 -0.18286793 -0.384019 0.14942537 -0.26275676 0.019614771 0.09993226 0.22131144
apartmenttherapy -0.28167117 -0.11987714 -0.12549017 0.19718051 -0.22128241 0.20004077 0.18338525 -0.040995624 0.323876 -0.18488047 -0.085018836 0.0359563 -0.056859665 0.11047512 -0.12510584 0.437508 -0.39856753 -0.040436663 -0.16573712 0.17607176 0.019619668 0.28502256 0.3445651 0.024980435 -0.085298106 -0.33531132 0.23694164 0.4969132 0.20126462 0.018832007 0.023768766 0.33888763 -0.11897029 -0.16441548 -0.37429523 0.14001411 -0.30193025 0.025132837 0.102805965 0.1979924
neverstopexploring -0.27499604 -0.108750194 -0.14595482 0.16318597 -0.21198979 0.20318936 0.18446773 -0.059189104 0.33080658 -0.18659896 -0.1114619 0.042464133 -0.04010908 0.13185385 -0.13733844 0.40388364 -0.37479055 -0.023789538 -0.15316959 0.13470815 -0.01633692 0.2897937 0.3528033 0.013215804 -0.107052654 -0.326048 0.24243315 0.47303858 0.21222782 0.013620658 0.018752413 0.3240974 -0.13135758 -0.16157793 -0.3629899 0.12711792 -0.26790994 0.018863207 0.09830853 0.21157025
interiorforinspo -0.29105708 -0.09406869 -0.14625897 0.17785698 -0.20677428 0.18965125 0.14763391 -0.06999489 0.30196318 -0.16552655 -0.099037595 0.055631306 -0.034849938 0.11485232 -0.10101734 0.40488416 -0.38158712 -0.0013280971 -0.15116125 0.17864321 0.014081712 0.254178 0.32794717 0.05468425 -0.09131732 -0.32169813 0.23483902 0.45998678 0.1922839 0.01974881 0.020467777 0.27127853 -0.107710846 -0.15970299 -0.35584432 0.12749603 -0.26077092 0.021773333 0.10108604 0.21728365
coffeefliicks -0.24963228 -0.049568202 -0.1512535 0.1667784 -0.1593396 0.17885531 0.13208075 -0.06642372 0.26240623 -0.15914093 -0.0971299 0.050581645 0.016780157 0.09980062 -0.10966085 0.36336508 -0.34391296 -0.002028372 -0.1513563 0.14806399 -0.011717289 0.24658039 0.3116987 0.059037883 -0.13360198 -0.3283475 0.19887881 0.41511437 0.18223673 0.027774794 0.037382677 0.2380206 -0.117433004 -0.14385183 -0.3211951 0.12576318 -0.2189042 0.026373591 0.07333951 0.1719767
plantsofinstagram -0.26038808 -0.054228142 -0.16030967 0.15774326 -0.1449407 0.17435731 0.15004978 -0.064629406 0.24166626 -0.14284492 -0.100491054 0.04302679 0.0071072145 0.11066312 -0.11581276 0.34224233 -0.3438984 -0.0014993448 -0.14282797 0.121288806 -0.014567256 0.22634439 0.28956002 0.074092634 -0.14353421 -0.2998639 0.18588063 0.39550284 0.1723287 0.025444446 0.054933086 0.23703513 -0.11160633 -0.1565416 -0.29993993 0.11749228 -0.1903973 0.007968052 0.07518959 0.16740997
breakfast -0.36292574 0.02965269 -0.22979769 0.22715932 -0.121838845 0.19387314 0.094532974 -0.20812847 0.28082347 -0.14903758 -0.13349257 0.17300335 0.11532583 0.15734029 -0.02560403 0.43395266 -0.43811512 0.12562299 -0.17533341 0.32282814 0.0736824 0.19053064 0.3601816 0.17680103 -0.123992674 -0.43744215 0.14655426 0.5249917 0.1599763 0.055655077 -0.07938216 0.19043091 -0.2479009 -0.17592551 -0.39058298 0.13113284 -0.29493096 0.084612064 0.11999623 0.23200697
brunch -0.3552103 0.024895422 -0.2002413 0.1866913 -0.111012265 0.18380626 0.09885223 -0.21539953 0.28755978 -0.13436428 -0.12883565 0.17435443 0.12745088 0.15134104 -0.029086897 0.41642743 -0.38268474 0.12077543 -0.15674001 0.2671205 0.0601876 0.18233258 0.35190675 0.14476337 -0.116227314 -0.4331756 0.1398783 0.48893335 0.14119154 0.0564408 -0.13078406 0.18667872 -0.24293864 -0.14742865 -0.35624838 0.11556906 -0.2815679 0.113368936 0.10448848 0.21630102
bagel -0.389274 0.078074664 -0.24563615 0.1983749 -0.088089235 0.18804933 0.065982744 -0.2787305 0.2854658 -0.13584194 -0.15756585 0.21780095 0.20023993 0.15877874 0.0099244015 0.45099133 -0.4367173 0.18319999 -0.17132534 0.36872903 0.09762349 0.14902112 0.39376378 0.19712953 -0.12726411 -0.49768475 0.12454157 0.5384567 0.13558866 0.08777327 -0.16597165 0.15537839 -0.30558673 -0.15920654 -0.4049054 0.121835776 -0.30624613 0.14028959 0.12726516 0.23256288
lox -0.33498302 0.027775202 -0.21810566 0.17013653 -0.091118045 0.1930692 0.11268991 -0.2091042 0.28243324 -0.12830897 -0.15339871 0.16148882 0.11241229 0.16077079 -0.065983176 0.40082285 -0.37575358 0.12273345 -0.14965233 0.24136381 0.013340328 0.2112116 0.341236 0.11855405 -0.15204135 -0.4315599 0.13714483 0.4859842 0.17069279 0.040042993 -0.11887626 0.1670529 -0.24819796 -0.12664868 -0.3451465 0.13449757 -0.28933594 0.10293565 0.09455 0.19321696
jewish -0.394829 0.08428938 -0.2614865 0.18728015 -0.086440675 0.19618572 0.09389213 -0.30706394 0.33522892 -0.13336267 -0.1440619 0.2532005 0.23424159 0.1966456 -0.0055574346 0.4631276 -0.39810437 0.2162423 -0.1557305 0.34752685 0.08311162 0.15092714 0.40513396 0.16328198 -0.14956066 -0.5341334 0.0939872 0.58821476 0.11751685 0.08916001 -0.2500635 0.14656888 -0.35664093 -0.087078616 -0.4131492 0.112652205 -0.3731323 0.17405908 0.08847956 0.22771682
jewishfood -0.3832704 0.014072622 -0.20471328 0.16750027 -0.11645503 0.20958835 0.09546561 -0.2549844 0.37128878 -0.13406476 -0.14165285 0.21962222 0.14690648 0.17390795 -0.019741504 0.43563387 -0.3897065 0.1661078 -0.14860444 0.3117225 0.08993777 0.18200779 0.39742553 0.1001895 -0.13670132 -0.49968922 0.13023587 0.57249427 0.13272989 0.074616194 -0.20286621 0.1919494 -0.33881766 -0.08161627 -0.39413399 0.12962787 -0.3872854 0.1579449 0.085246906 0.23749384
carbs -0.27626827 0.027995214 -0.18015903 0.13022359 -0.0905264 0.14585537 0.09604773 -0.14694224 0.23002204 -0.12306648 -0.11453368 0.136687 0.113480374 0.11302562 -0.038693164 0.3398628 -0.31986135 0.078607574 -0.14608859 0.20248793 0.018974934 0.1676073 0.27982432 0.09976592 -0.1355085 -0.34089127 0.1216221 0.41138098 0.118106104 0.041160274 -0.08054897 0.1684613 -0.18912512 -0.11373453 -0.29267186 0.11308068 -0.22927527 0.060592566 0.08127994 0.18103993
tomatoes -0.27578214 0.028113866 -0.15101567 0.12569177 -0.10598304 0.14728819 0.08277825 -0.15498613 0.23179625 -0.10742879 -0.107162856 0.1300137 0.081912026 0.10615686 -0.044778638 0.3233099 -0.29602435 0.080346435 -0.11454457 0.20731835 0.029990043 0.15136468 0.28866333 0.09438359 -0.11164598 -0.33304393 0.12470778 0.3808052 0.1129022 0.033039454 -0.08166544 0.16186391 -0.18059407 -0.123220585 -0.26380897 0.08760612 -0.23550767 0.071474314 0.087752156 0.16774157
shabbat -0.28819385 -0.03305065 -0.1986216 0.16969824 -0.15783638 0.19486631 0.16340347 -0.08335021 0.29738292 -0.17869173 -0.13054754 0.0787991 0.029915497 0.127433 -0.12564825 0.39453 -0.38475892 0.046353173 -0.16909938 0.18677117 -0.03754379 0.24761389 0.32508096 0.07176872 -0.17634767 -0.36136904 0.2031169 0.48240665 0.20729932 0.042662263 -0.0068496643 0.25379765 -0.15868038 -0.14916234 -0.32407734 0.15110597 -0.23730816 0.011103344 0.09885183 0.21186268
shabbatshalom -0.29538783 -0.038168564 -0.17461143 0.16516575 -0.1843987 0.20447066 0.14539832 -0.100028604 0.31989405 -0.16739875 -0.11950087 0.0750546 0.023946067 0.116696365 -0.10551285 0.41503182 -0.39045572 0.061731648 -0.16773754 0.2097978 -0.014989477 0.27191827 0.33651394 0.05049711 -0.13044184 -0.36983114 0.201318 0.50826955 0.1802782 0.04377192 -0.04789493 0.26235214 -0.18703526 -0.13434577 -0.3484512 0.14091562 -0.28316087 0.032598365 0.07826282 0.22884241
myonetable -0.28926963 0.020077335 -0.18977371 0.14996777 -0.109238945 0.17239015 0.112513885 -0.14684938 0.25492615 -0.13377449 -0.13062131 0.127078 0.10630392 0.13867548 -0.045521002 0.38152093 -0.3540678 0.09714646 -0.16125281 0.24511169 0.015117819 0.16908821 0.32949755 0.1065857 -0.13682388 -0.374389 0.11531165 0.45593873 0.13510263 0.04541915 -0.085207604 0.17312236 -0.2213911 -0.13865493 -0.3265954 0.12747674 -0.26692945 0.08379389 0.081024155 0.1904808
hanukkah -0.35959327 0.02351813 -0.18253475 0.18353046 -0.111771345 0.1816057 0.073222615 -0.24213107 0.32109776 -0.119009756 -0.11555566 0.20143901 0.156408 0.14315785 0.012970943 0.4043465 -0.40537834 0.17730169 -0.15627299 0.33580297 0.1077605 0.13459988 0.3619608 0.11562979 -0.10294285 -0.45142317 0.11480046 0.52891266 0.12329818 0.08201645 -0.1707824 0.18815035 -0.2958797 -0.10385469 -0.35690838 0.12033777 -0.34489214 0.128812 0.096171685 0.24078469
latkes -0.35818568 0.035134688 -0.19651578 0.17902662 -0.110040344 0.19428505 0.094494365 -0.24113889 0.31398022 -0.11642004 -0.12663546 0.20679931 0.17466569 0.15518177 -0.012479733 0.4013803 -0.38960382 0.16045131 -0.15555699 0.3373874 0.08108006 0.14888783 0.37344173 0.1288109 -0.11887468 -0.45272252 0.08979997 0.5272837 0.11717532 0.07821026 -0.17702243 0.16599624 -0.29443276 -0.10707693 -0.36795476 0.121908806 -0.32801148 0.13542807 0.106873915 0.21688186
potatoes -0.30342367 0.036246497 -0.18433794 0.15015262 -0.078295276 0.17083831 0.05528083 -0.21579148 0.24198352 -0.11239004 -0.1189504 0.18497616 0.16812068 0.13789865 -0.025018495 0.3503917 -0.337741 0.14514333 -0.123270005 0.2529527 0.06950021 0.13192058 0.32470185 0.11757069 -0.11147449 -0.3839105 0.09161486 0.4278723 0.09282355 0.057633862 -0.14267847 0.14959735 -0.26268014 -0.08942768 -0.29811272 0.09828627 -0.25950474 0.12735826 0.08273546 0.20309275
apples -0.24215053 0.007613923 -0.18966287 0.15149066 -0.109370925 0.1741734 0.1296706 -0.11444667 0.21645948 -0.14236379 -0.12999938 0.067497276 0.0799761 0.1191357 -0.09506454 0.32844815 -0.3236755 0.04260386 -0.14725105 0.16118814 -0.022293532 0.2047264 0.27228948 0.08527502 -0.1583127 -0.31941515 0.15088561 0.41005933 0.18092383 0.03558413 -0.014759888 0.16818725 -0.1527215 -0.1181559 -0.27724105 0.11638115 -0.20113577 0.0448144 0.06589739 0.15714663
cheese -0.26338285 0.023610765 -0.18385243 0.1616847 -0.10672294 0.17405474 0.10909734 -0.12806049 0.21786314 -0.12984253 -0.11849073 0.08947364 0.07264163 0.13302542 -0.06561806 0.35395288 -0.33205917 0.06181257 -0.14164394 0.20392375 -0.016764892 0.20334093 0.29277548 0.10820676 -0.12965073 -0.3468152 0.14244033 0.4123288 0.16466317 0.038824685 -0.03257998 0.16545077 -0.15547146 -0.13101745 -0.288397 0.115815215 -0.20406313 0.049693115 0.07187149 0.1837249
cheesy -0.2812791 0.021402325 -0.1775793 0.15526572 -0.11862848 0.16603328 0.11273157 -0.13433628 0.22952746 -0.13477951 -0.13161445 0.08412507 0.09282721 0.13151525 -0.06933117 0.35566056 -0.3381574 0.07369339 -0.13792634 0.21183471 0.012647909 0.16942292 0.29887456 0.09510054 -0.1288325 -0.3490132 0.13764384 0.418991 0.14902495 0.040318567 -0.054629587 0.166545 -0.17692356 -0.120369956 -0.28845534 0.0969309 -0.21485484 0.069470234 0.09173193 0.1888982
cheeseboard -0.26003158 0.008099821 -0.17959578 0.16354047 -0.10805349 0.16623454 0.13136986 -0.12122697 0.21998312 -0.1307558 -0.13157618 0.08072014 0.0726776 0.11947124 -0.09354899 0.35231027 -0.33851194 0.048931077 -0.13273959 0.18003714 -0.016876964 0.1981066 0.30707577 0.100141905 -0.14021589 -0.34133732 0.15102106 0.41675347 0.16559942 0.031894803 -0.0119568035 0.19757374 -0.14584458 -0.12322908 -0.2897534 0.11354164 -0.19381198 0.062385496 0.07654195 0.1678283
koruapples -0.26426604 0.0047904933 -0.17488563 0.1518604 -0.11385179 0.17013499 0.10008998 -0.14274062 0.21617098 -0.12273636 -0.11293269 0.106839105 0.104094215 0.14095719 -0.05370715 0.3441671 -0.34221599 0.0791905 -0.14289322 0.21499376 0.00953835 0.1860683 0.2918691 0.11564053 -0.11805341 -0.35036993 0.13083297 0.42856815 0.16719799 0.030899158 -0.040075608 0.17702729 -0.18640615 -0.12093946 -0.28892502 0.12020679 -0.22832265 0.06004368 0.0833338 0.16779082
boards -0.21996176 0.004640045 -0.15357903 0.14450318 -0.1211564 0.15985158 0.13080022 -0.08214949 0.19490722 -0.13854565 -0.10462275 0.05439995 0.04282922 0.1117177 -0.07372512 0.3048634 -0.31216678 0.01447043 -0.12954162 0.1406727 -0.013822839 0.19281617 0.24860473 0.07730663 -0.12474991 -0.27092 0.15298066 0.35967815 0.1562958 0.019676132 0.01811967 0.17612675 -0.11076911 -0.13973983 -0.24909957 0.10152064 -0.16219114 0.017667789 0.07488144 0.17027184
entertaining -0.2488359 -0.004830204 -0.16556627 0.16840082 -0.14113598 0.16914842 0.11747234 -0.08897335 0.22970375 -0.13872483 -0.10798509 0.05776519 0.020780446 0.09932596 -0.06515456 0.34919012 -0.34241745 0.024729753 -0.15587251 0.19375545 -0.013008753 0.23000336 0.287085 0.07865098 -0.12125026 -0.31882828 0.17788622 0.41036642 0.17828378 0.02489669 0.017986044 0.2087233 -0.122237206 -0.15718654 -0.29296526 0.11287542 -0.18452497 0.026646886 0.07797016 0.1738633
RobertMondaviWinery -0.039870463 -0.011710642 -0.029157039 0.036692105 -0.024266532 0.035199527 0.020081814 -0.0015549802 0.043494657 -0.03558586 -0.01206006 0.008986003 -0.007463327 0.028166411 -0.029516187 0.049750365 -0.04340199 0.005040006 -0.020422349 0.013108043 0.0015817687 0.028342113 0.052865565 0.011469519 -0.021921648 -0.050902743 0.037062384 0.06701763 0.037928715 0.011699404 0.011010855 0.01894704 -0.011744472 -0.037325207 -0.04219805 0.024238296 -0.034407645 0.009160624 0.02241628 0.01896065
RobertMondaviPartner -0.051629864 0.008463916 -0.04395388 0.0425784 -0.013295836 0.043606423 0.03853015 -0.0015297756 0.042590834 -0.0224979 -0.037670493 0.0033295508 -0.0039476184 0.025951227 -0.032523375 0.074643284 -0.062572405 -0.003943251 -0.029073969 0.012276362 -0.012562673 0.04818659 0.048385568 0.015151314 -0.030013064 -0.06975857 0.046338115 0.08045019 0.045375537 -0.0042225523 0.015068359 0.04497654 -0.023894038 -0.03944595 -0.0551812 0.02514326 -0.020782802 0.00085942016 0.02398008 0.03779568
Msgfor21 -0.07655496 -0.0011558027 -0.060317636 0.050561808 -0.05379964 0.040022574 0.048280243 -0.0069468226 0.06342894 -0.052668583 -0.024539785 0.0070598093 0.0038965603 0.022091296 -0.036316857 0.09420213 -0.1116555 0.0039405907 -0.041278496 0.02813416 -0.020494936 0.090089515 0.07437738 0.039501265 -0.03533824 -0.07583655 0.057218306 0.108319886 0.07438476 0.001357693 0.03143037 0.056970365 -0.012329982 -0.051427998 -0.07317826 0.036439788 -0.047858957 -0.009970207 0.032745767 0.048297316
veganuk -0.28965175 -0.001527291 -0.19459453 0.20178361 -0.14534827 0.19113998 0.12302525 -0.06943996 0.22382133 -0.14755549 -0.11997314 0.050707903 0.030087527 0.09407276 -0.089158714 0.35998967 -0.36917424 0.018250737 -0.16349742 0.20546113 -0.00038673042 0.23461832 0.29391998 0.14550687 -0.11509453 -0.32727426 0.21272129 0.43439117 0.18383014 0.02439099 0.044571195 0.2135416 -0.094227605 -0.1948216 -0.2980919 0.14083485 -0.18776873 -0.0052251928 0.106785126 0.1993389
veganbreakfast -0.21683845 0.0066569364 -0.1694874 0.15602358 -0.1039441 0.14258371 0.10077517 -0.07232056 0.16049273 -0.10333953 -0.097548485 0.0412361 0.024033017 0.082623966 -0.047008336 0.2790474 -0.3037113 0.020291416 -0.13803461 0.1745269 0.013573495 0.1777706 0.23290212 0.14030123 -0.10225412 -0.26049447 0.16986522 0.33628914 0.1420147 0.016499246 0.03840721 0.15241988 -0.072627686 -0.18339898 -0.24573766 0.11612342 -0.14131063 -0.0061912946 0.07820089 0.14846943
mycommontable -0.36966372 0.020612953 -0.2815303 0.27877688 -0.17872413 0.2168839 0.16084151 -0.11919283 0.25582343 -0.1984776 -0.11663591 0.07249678 -0.008142105 0.12815763 -0.12047403 0.5072998 -0.5719979 0.01294666 -0.24225876 0.35584572 0.0034800163 0.3186958 0.39577916 0.2547523 -0.2002523 -0.47421753 0.28597197 0.59976155 0.24012351 -0.0034239797 0.13777702 0.24931051 -0.09952624 -0.3468563 -0.45687407 0.22311558 -0.237935 -0.01804617 0.14216709 0.25845274
creativityfound -0.2841502 0.025493912 -0.21933475 0.1911889 -0.12831143 0.18605445 0.113199115 -0.088692725 0.22945198 -0.16048221 -0.1633313 0.0715383 0.07417983 0.13163404 -0.09655526 0.36355096 -0.37237528 0.036499824 -0.16289948 0.20232575 0.0005303033 0.22215189 0.31087866 0.14398564 -0.14762448 -0.3663863 0.17681608 0.4693671 0.1645591 0.037886314 0.016251508 0.21504365 -0.14658529 -0.18999845 -0.3100825 0.13770027 -0.20982182 0.028025068 0.09902786 0.21097869
vegansofig -0.29995078 -0.014889363 -0.19289462 0.23630938 -0.17239788 0.18900391 0.13316372 -0.06420463 0.2729604 -0.16021101 -0.094511114 0.041634005 -0.032532364 0.110459566 -0.06629594 0.41175932 -0.43831727 0.009892198 -0.19617128 0.26891163 0.011519851 0.26383948 0.30639958 0.14618622 -0.103274494 -0.33846048 0.2562329 0.48379004 0.20845914 0.02330467 0.07329924 0.2352755 -0.08637119 -0.22535245 -0.33002943 0.17645697 -0.22300382 -0.00051482604 0.11113798 0.22877483
vegansofinstagram -0.32434508 0.014761274 -0.22888914 0.22728865 -0.16356458 0.20762105 0.14296576 -0.07942563 0.25941986 -0.17268948 -0.10878257 0.045291167 0.0031274376 0.1287517 -0.10081443 0.4055079 -0.44112623 0.00758531 -0.19672458 0.23880489 -0.0053422116 0.2604086 0.30630502 0.16888224 -0.14016123 -0.3766888 0.2317403 0.48275816 0.19514638 0.022654476 0.055176426 0.20451781 -0.10319868 -0.23676556 -0.32855603 0.15744463 -0.20187607 -0.016624585 0.13224052 0.22191106
eattherainbow -0.28553948 0.0009825138 -0.18810005 0.19508752 -0.14499658 0.17983422 0.102044806 -0.08117656 0.24113643 -0.1574771 -0.10941512 0.06424404 0.04192567 0.1289539 -0.06663193 0.3571105 -0.40108836 0.031328835 -0.16753396 0.24888119 0.026913831 0.21786156 0.30190274 0.14393641 -0.11906712 -0.35033274 0.20451154 0.444073 0.1710423 0.021335926 0.019282207 0.19300854 -0.122108035 -0.19809861 -0.3176374 0.13680017 -0.20900771 0.015125633 0.105035886 0.20547958
whatveganseat -0.34745213 -0.02216776 -0.22498587 0.23701535 -0.18845813 0.21354243 0.16820185 -0.07588016 0.27765307 -0.17583893 -0.10727584 0.041967396 -0.029420057 0.12042595 -0.108387314 0.43572637 -0.47999895 0.000972562 -0.22059253 0.2844344 -0.0036506762 0.31752703 0.3317001 0.18125556 -0.1352424 -0.40402022 0.2699539 0.5252261 0.23716629 0.017462833 0.07735081 0.24960278 -0.08542398 -0.2788559 -0.3735093 0.19447373 -0.21175705 -0.01021673 0.12778953 0.2305215
flatlayforever -0.29181868 -0.014609925 -0.19810423 0.19611594 -0.16967289 0.19738227 0.1534179 -0.06940721 0.24823551 -0.19109002 -0.14051473 0.022204861 0.030216748 0.1440147 -0.135094 0.38196915 -0.38931605 -0.00069681334 -0.19555768 0.16114645 -0.041380625 0.2894853 0.31426647 0.13625705 -0.16806726 -0.34573656 0.22573957 0.48647043 0.2164602 0.023528563 0.050696727 0.25431836 -0.09608734 -0.21167706 -0.3098062 0.15577051 -0.2032837 -0.015977861 0.10260236 0.20346683
morningslikethese -0.3070932 -0.018266188 -0.17768703 0.18526253 -0.16220589 0.19371004 0.11567496 -0.058970474 0.26516008 -0.16171384 -0.11713269 0.08109607 0.030322358 0.13406113 -0.08239656 0.3710066 -0.3973081 0.027745644 -0.17857401 0.24148785 0.020437522 0.2205074 0.31266952 0.10986163 -0.122004405 -0.3510232 0.19050336 0.4697442 0.19339278 0.04790334 0.004654878 0.263255 -0.14758474 -0.1928311 -0.33209714 0.15624131 -0.25245062 0.011418922 0.09945237 0.21657707
thatsdarling -0.35809737 -0.027002987 -0.21379268 0.27296975 -0.20499389 0.22220339 0.15956314 -0.0575609 0.25612143 -0.18767115 -0.1380125 0.056326907 -0.0020640355 0.14203297 -0.11819178 0.43106204 -0.5115965 -0.022011185 -0.21199995 0.2846204 0.016019858 0.29659298 0.3543974 0.17559795 -0.15659288 -0.3769574 0.28334025 0.5467906 0.20206223 0.028920954 0.09985289 0.25980565 -0.08628855 -0.30400586 -0.3774224 0.2043006 -0.23344855 -0.007419308 0.12136762 0.24278966
darlingweekend -0.34218016 -0.06738915 -0.15724209 0.21186745 -0.23498958 0.22049448 0.16565605 -0.021611143 0.30347875 -0.17416467 -0.11195794 0.093148924 0.007774076 0.13337481 -0.09929137 0.42644805 -0.45266566 -0.029387804 -0.19871588 0.24998578 0.01511882 0.2544299 0.3571947 0.08855762 -0.10826198 -0.36443073 0.23403126 0.5131091 0.21843454 0.06433966 0.024268884 0.2977496 -0.15672545 -0.2311852 -0.38804635 0.15639396 -0.29833865 -0.02540894 0.09117581 0.22074959
kinfolktable -0.25614345 0.013446256 -0.2021032 0.18501024 -0.11929119 0.17285001 0.10935923 -0.0822628 0.20279135 -0.1511014 -0.11026727 0.04637655 0.0424754 0.12816088 -0.0904164 0.34792468 -0.360753 0.024225013 -0.14451063 0.19063652 -0.025818346 0.20679583 0.27522716 0.15229942 -0.14536439 -0.32232946 0.18372235 0.42492217 0.160953 0.014512431 0.050715663 0.17109974 -0.10202814 -0.20334569 -0.28672644 0.1423884 -0.17601159 0.009386404 0.09192025 0.18829876
thelittleplantation -0.3754834 0.020104453 -0.26762134 0.27174324 -0.14698541 0.22004187 0.1658039 -0.16718453 0.26626906 -0.17148103 -0.10746651 0.09230994 0.029061042 0.13103811 -0.07362543 0.465887 -0.5065184 0.04360777 -0.22142245 0.35492858 0.02731687 0.29696655 0.3652305 0.24190852 -0.1675987 -0.43776736 0.2766748 0.57333565 0.22839722 0.01918526 0.04363884 0.20588975 -0.11433552 -0.29565373 -0.3989414 0.18953748 -0.2281086 0.004104975 0.12582493 0.2525903
