3006 100
frommydiningtable -0.024917569 0.06593888 0.05752784 0.033195756 -0.016525174 0.09077766 0.14802332 -0.039312918 -0.089036316 0.0063659674 -0.04833068 0.050270926 -0.009045738 -0.044033993 -0.02986897 0.03730329 0.05056168 -0.007693445 -0.012318464 -0.102371946 0.08594367 -0.008007775 0.017514352 -0.009019349 0.010447301 -0.027917968 -0.100477785 -0.031758547 0.024422131 -0.0057910187 0.00025027827 -0.034062773 -0.0032762939 -0.048241653 0.018213373 -0.048916977 0.07797672 0.06108459 -0.00855843 0.10054068 0.011269373 -0.068620816 -0.07362031 0.090153396 -0.07039192 0.0334101 0.09060512 0.069034144 -0.022300698 0.023851484 0.036585238 0.0572307 0.009684269 0.019183509 0.03561867 -0.0045731184 0.04147107 -0.021735376 -0.043991335 -0.0133047085 0.051981132 0.0041821264 0.06150925 0.025010835 -0.090700015 -0.038902048 0.06747227 0.08982863 -0.14690474 0.02546748 -0.048260547 0.002726103 -0.046424683 -0.043109063 -0.14404742 0.041382104 0.05825523 -0.04395982 0.045458272 0.0033402157 0.08182975 0.028784843 0.12094282 0.033150196 0.056647647 -0.12543078 0.083905265 -0.0038094344 0.0055830157 0.015893534 0.026087783 0.039840065 0.0739316 -0.06047343 -0.059348978 -0.106691234 0.011816762 -0.06263115 -0.09087589 -0.0030157794
ladolcevita -0.019660689 0.041408785 0.028583042 0.025449764 -0.016784428 0.05173211 0.10093968 -0.025483418 -0.059689544 0.01177935 -0.032735538 0.035600588 -0.00771074 -0.024215551 -0.010282771 0.028236905 0.035200562 -0.0028669562 -0.009682745 -0.071505584 0.060504183 -0.006184456 0.0055077607 -0.004800163 0.0077396114 -0.02043038 -0.06854026 -0.02165377 0.01660278 -0.008562349 0.0038307798 -0.017530976 -0.0014770505 -0.033241976 0.008909481 -0.031475738 0.04835417 0.03967862 -0.012111634 0.0657303 0.0025436115 -0.04346024 -0.04585622 0.053711068 -0.04669707 0.023931978 0.054382745 0.04356882 -0.0025853873 0.013534808 0.01384545 0.04006593 0.0052824644 0.017853614 0.024608867 0.00517868 0.027567757 -0.009019198 -0.028415324 -0.011215962 0.034955606 0.0077603436 0.04145845 0.0126330005 -0.06026296 -0.023159921 0.050531853 0.04885416 -0.08781932 0.014605306 -0.03293055 0.0036796806 -0.02300397 -0.026663026 -0.10125598 0.030137124 0.03983119 -0.022978753 0.027214453 0.0008850108 0.057419218 0.0170067 0.082914665 0.018974392 0.030956289 -0.08477662 0.06010478 -0.0055082566 0.009308491 0.006024768 0.014460549 0.022845704 0.052390303 -0.044605564 -0.037603598 -0.07271499 0.009052449 -0.0455108 -0.06384661 0.0016805728
happiestinthekitchen -0.004129845 0.020505138 0.015292199 0.012954905 -0.005987513 0.021935413 0.043063518 -0.00635046 -0.028479163 -0.00014577544 -0.01707957 0.011806075 -0.004364003 -0.007396919 -0.004306036 0.00723451 0.020257272 0.0031557588 -0.0063121854 -0.02915505 0.026506286 -0.00074296317 0.006279999 -0.0051002027 0.006568952 -0.00729759 -0.027981678 -0.006596219 0.006005034 -0.0001780396 -0.0017010244 -0.011579729 -0.00028406663 -0.017982857 0.0068914504 -0.010301489 0.026614085 0.017247895 -0.0012879034 0.033285975 -0.0021539398 -0.022168595 -0.018826073 0.024042778 -0.018742215 0.0106861675 0.025344381 0.014237262 -0.005143914 0.009034511 0.004341277 0.01799695 0.00064968807 0.009546462 0.009966717 -0.0004768448 0.009737237 -0.0082113175 -0.018759068 -0.006646471 0.013973539 0.0018188063 0.018930547 0.0035267244 -0.026106961 -0.0126585355 0.025596738 0.019203924 -0.039174784 0.008066929 -0.013167554 -0.0011970409 -0.016876278 -0.009709342 -0.038061287 0.011704653 0.014672192 -0.010604425 0.014109049 -0.0018130961 0.025915625 0.009889513 0.039508138 0.0056004985 0.014917547 -0.037846033 0.024020903 0.0015303339 0.0069657853 0.0031058628 0.0033095907 0.0178215 0.021712959 -0.02214535 -0.022980342 -0.031234186 -0.0008019298 -0.016841648 -0.02667978 -0.00025259744
collaboration -0.017125506 0.021236503 0.016973602 0.009942405 -0.0034040096 0.024420336 0.055923663 -0.009051738 -0.03172125 0.004176679 -0.0145231625 0.013539694 0.001775477 -0.016123526 -0.005943372 0.011299017 0.022721782 0.0035884131 -0.009416781 -0.038259536 0.035111293 0.0020779795 0.0050989687 -0.0070663546 0.007973673 -0.007077164 -0.03856198 -0.014707617 0.004133931 -0.00059489335 -7.593876e-05 -0.011785001 0.0019345625 -0.017468609 0.0034861283 -0.012954018 0.021967815 0.016465446 -0.00936281 0.033429284 -0.00029940193 -0.024173379 -0.019503819 0.02977648 -0.02141007 0.01414709 0.03090568 0.02376052 -0.0074951514 0.010898512 0.008345966 0.018099368 0.0007275823 0.00887808 0.01664968 0.0011745713 0.011067248 -0.0030835911 -0.01486698 -0.00041997718 0.016814115 0.0057465937 0.023652758 0.0032533617 -0.028377812 -0.011120332 0.02081068 0.022246957 -0.043073084 0.009532686 -0.019158067 0.00386063 -0.012446541 -0.020818103 -0.047753863 0.017457569 0.023223037 -0.013668301 0.012703327 0.0039475677 0.034513813 0.012681243 0.03803373 0.013165721 0.018983213 -0.04128009 0.03165623 -0.0060177622 0.0053631114 0.0089817755 0.012549611 0.017224297 0.024214992 -0.0197318 -0.023912499 -0.034719057 0.0040638587 -0.024997577 -0.030822344 0.00029175065
drinkresponsibly -0.035467844 0.078203246 0.070538275 0.03688238 -0.02056731 0.094804995 0.17092393 -0.045993984 -0.09736896 0.013122001 -0.056020524 0.05803776 -0.0068626017 -0.04753407 -0.03945834 0.047545422 0.05928901 -0.0069824574 -0.005212258 -0.1183368 0.10818562 -0.0035991694 0.019040285 -0.012762753 0.01405875 -0.03682292 -0.11452447 -0.0396889 0.029826304 0.00523686 0.009063402 -0.036538046 -0.008689931 -0.05197704 0.018080272 -0.053654525 0.09032691 0.07031465 -0.015398995 0.12038164 0.01444776 -0.07760355 -0.08026468 0.10423011 -0.092092834 0.02896116 0.09764547 0.08366929 -0.02603351 0.029897317 0.042062543 0.05871577 0.013887033 0.023101373 0.039656173 -0.0067130374 0.05234511 -0.013556532 -0.05530449 -0.01802722 0.056827754 0.0031448791 0.06354903 0.025163246 -0.093354486 -0.05060397 0.0756563 0.09938515 -0.16961707 0.035629753 -0.04614376 0.005008628 -0.056742467 -0.042519808 -0.16950242 0.03950126 0.07113955 -0.05834004 0.058384113 0.0044373 0.09454812 0.036058456 0.14576711 0.03996072 0.05425977 -0.13875 0.09188268 -0.015817318 0.0053823926 0.011745289 0.035173386 0.051555853 0.08410691 -0.07133253 -0.065385155 -0.11088385 0.0050951755 -0.06845174 -0.09999698 0.0011555171
breakfastofchampions -0.074384116 0.13962108 0.06271222 0.10221665 -0.020135935 0.22763652 0.3925914 -0.08148003 -0.23705317 0.066994876 -0.10033906 0.11905953 -0.018963754 -0.084036715 -0.061100338 0.11061511 0.13116582 0.0012766313 -0.07383899 -0.23781024 0.204871 0.021185432 0.00692827 -0.019538896 0.028713414 -0.08021539 -0.24662584 -0.117385894 0.04672168 0.006351121 0.014931442 -0.06471822 -0.06260653 -0.11222574 0.06912882 -0.10560414 0.14726004 0.14742821 -0.044820458 0.23702522 0.0013346853 -0.1484897 -0.15722536 0.19648819 -0.17878738 0.09804543 0.21905671 0.17366992 -0.016574394 0.06619653 0.065638036 0.16980042 0.041575756 0.059559412 0.103642225 -0.007936091 0.07176949 -0.062787496 -0.10217899 -0.011396563 0.15183215 0.022275483 0.18366924 0.034656342 -0.1813247 -0.12795375 0.1794207 0.18822894 -0.33750623 0.07043681 -0.0985514 0.018540332 -0.075628854 -0.12387474 -0.4136007 0.099877596 0.16587093 -0.11445878 0.12337177 0.0038205455 0.22214058 0.076884925 0.2716365 0.063749604 0.1003678 -0.310686 0.20332204 0.0065685376 -0.007813055 0.043814182 0.064221695 0.08545349 0.2079982 -0.15948188 -0.12874343 -0.27715373 0.011494825 -0.1303203 -0.2363427 -0.0029147912
sweetsforthesweet 0.00053344946 0.002877595 0.0011864691 -0.004619092 -0.0021044833 -0.004551034 0.0047014877 0.004701187 0.0043960605 -0.0025075364 0.00091581745 -0.0035957657 0.0009433669 -0.0047439206 -0.0039096163 -0.0016761392 -0.0010254406 -0.00030268775 -0.00194508 0.0011661905 -0.0035708589 -0.001601048 0.0047927517 -0.002596485 0.002940962 -0.0015904366 0.0003672163 -0.0010083974 0.0006162389 0.0010395502 0.00290553 0.003112046 -0.0047720745 0.002597571 -0.00013347622 0.0032477146 -0.0023277318 0.0009973245 0.0040244516 -0.0028845714 -0.00078485906 0.0023627644 -0.0024281454 -0.004323666 0.0022784956 -0.00032965466 0.0047760727 0.0033470122 0.001622221 -0.0032254588 0.003222148 -0.004064398 -0.0049680267 -0.0033955555 0.0038954178 -0.004339691 -0.0004609041 0.00082034944 -0.0010713986 -0.0036324887 0.0033056755 -0.0049616275 0.0014709872 0.0015062308 -0.00052306475 0.0040886514 0.0032536369 0.00049368804 -0.00016781222 0.0048985807 -0.003782072 0.0032693073 -0.002464814 0.0010175849 4.3357722e-06 -0.0009481311 -0.00055438885 0.000131913 -0.003480671 0.002521153 0.002753283 0.0036948724 -0.0032326381 -0.0027078623 0.00089946156 -0.0027495169 0.0020715576 0.0010073418 -0.0018664538 -0.0022407472 -0.0024976395 -0.0031101923 0.002984698 5.5004843e-05 -0.0042736153 -0.0024955953 0.0038159788 -0.002535553 -0.0032562483 0.0038352571
onacoldnight -0.0017157592 0.010005938 0.009768115 0.006739973 -0.0023901467 0.013984949 0.02128943 -0.010139003 -0.009111219 -6.329725e-05 -0.0064502577 0.008114125 -0.00089097227 -0.0029453798 -0.0031916709 0.0033061348 0.0127029745 0.0042696646 -0.0024275866 -0.013816733 0.012050447 -0.0067758644 0.0011600424 -0.0018567048 0.001563696 -0.0065639676 -0.010937734 -0.0039259465 0.0068474463 0.0021236972 0.0011418624 -0.0073868376 -0.0013916335 -0.003030505 -0.0022193638 -0.010624264 0.016867675 0.009105602 -0.0024534499 0.019580448 0.0038269407 -0.010617853 -0.010052413 0.011172554 -0.010546513 0.0053240056 0.013543772 0.00698458 -0.004163647 0.0053740945 0.0024661713 0.0077112466 -0.00029492707 0.001419832 0.007768062 0.0010413801 0.010136407 -0.004401363 -0.008071175 0.0022907308 0.0032225903 0.0019748206 0.0069965417 0.0017147963 -0.013592199 -0.006364091 0.0071822405 0.015533424 -0.016717086 0.005664583 -0.0081258435 -0.0031389354 -0.005726687 -0.0024209553 -0.023935964 0.005327552 0.006237693 -0.0022195575 0.0052648745 0.0023263644 0.012940641 0.0056760325 0.015353323 0.00535935 0.007937499 -0.014535614 0.015024157 -0.0013229062 0.007429092 0.0041851434 0.003831829 0.010729219 0.0063550845 -0.009097237 -0.0144883655 -0.018187772 0.0041645705 -0.007466122 -0.0090780575 0.0011258628
comfortfood -0.03795569 0.084420204 0.071392 0.051246196 -0.01936973 0.108311124 0.1919546 -0.03932904 -0.11755281 0.020265942 -0.052979685 0.056899477 -0.019497704 -0.046729352 -0.041788213 0.053571638 0.067625605 -0.0009874176 -0.021739358 -0.13288665 0.114907406 -0.008553762 0.021301437 -0.0056210347 0.013439645 -0.0456039 -0.13081719 -0.038715977 0.029841583 0.0063472656 0.005420342 -0.034771957 -3.1694322e-05 -0.0562522 0.026793832 -0.06371719 0.098269254 0.07368415 -0.011422862 0.12580134 -7.170023e-05 -0.086330175 -0.08604272 0.10880665 -0.08898525 0.038624085 0.11982336 0.07677636 -0.022095853 0.022486912 0.033098266 0.070581116 0.029488817 0.028442146 0.046292778 -0.0045669978 0.051192846 -0.017244468 -0.057487745 -0.010080694 0.058306273 0.013383319 0.07771067 0.019141827 -0.11201803 -0.060508206 0.084175326 0.09519641 -0.17405358 0.040296685 -0.062018536 0.008367171 -0.047556873 -0.05029737 -0.19327074 0.05091154 0.07929286 -0.058344625 0.06804042 0.006269352 0.111109935 0.031239413 0.15388955 0.046161067 0.069645375 -0.16000254 0.10473418 -0.013272149 0.011118666 0.02530232 0.041972216 0.054865703 0.09727363 -0.07842069 -0.07930216 -0.12520699 0.00775029 -0.074350074 -0.1132853 0.0022511918
autumnmood -0.07952415 0.12638466 0.029146058 0.08768265 -0.011724962 0.21709523 0.3568407 -0.053797472 -0.19797644 0.051298164 -0.10696562 0.113779075 0.010007994 -0.07213882 -0.051595062 0.11216969 0.11372153 0.01647415 -0.0497857 -0.19752738 0.18867368 0.013154915 0.020541163 -0.008729205 0.025981268 -0.07978193 -0.23960929 -0.11622489 0.02389753 -0.0014707153 0.022482093 -0.07725089 -0.05763964 -0.1284853 0.053623617 -0.10690611 0.10397372 0.12764303 -0.040160436 0.20436554 -0.0009085113 -0.1426932 -0.13933563 0.17409065 -0.14842972 0.10027905 0.18384328 0.16632862 -0.023759779 0.07376615 0.07720616 0.14460494 0.021910572 0.05127688 0.07297082 -0.0021098212 0.064653985 -0.0508659 -0.07662783 -0.012611325 0.14821362 0.00096637424 0.17105892 0.026503649 -0.15995705 -0.10067583 0.16359627 0.17505352 -0.29085925 0.05653634 -0.10667292 -0.0010802391 -0.042342022 -0.12519808 -0.36348486 0.08014606 0.14808504 -0.11547163 0.12018931 0.0062187854 0.20291755 0.10585452 0.24940374 0.045640457 0.08716358 -0.26819336 0.17919287 0.018284462 -0.013483685 0.0499457 0.059853002 0.09010767 0.20725682 -0.13538226 -0.11407304 -0.25734633 0.014660038 -0.114894114 -0.23280235 0.007274022
happybirthdayaeneas 0.0026068855 -0.0040932507 -0.003374198 -0.0040239263 -0.0042494438 -0.0013124882 -0.0040314216 -0.0018270034 -0.0004059528 0.0006712596 -0.0012267928 0.00071888557 0.000906073 -0.00083825225 0.0011108462 0.0010887319 0.002157929 2.824841e-05 0.0017910395 -0.0014302873 0.00048275525 0.0010595918 -0.0022718501 -0.0042484254 -0.0024931787 0.0030466802 0.004405504 0.0016434235 0.003484861 -0.0038782535 9.1341324e-05 0.0011711633 0.0019523967 0.0039842045 -0.0025905126 -0.0041810186 0.0023880736 0.0013905 -0.0028065967 -0.001890288 -0.003562193 0.0029320726 -0.002349878 0.0040978463 -0.001793409 0.004143874 0.0009875121 0.0014084275 -0.0049495716 0.0036717644 0.0024632183 -0.0026795089 -0.002764719 0.00049138954 0.003031563 0.0015216512 -7.4546784e-05 0.0013673911 -0.00059326366 -0.002143994 -0.00062660594 0.00051569333 0.002418899 -0.0029798578 0.0015270705 -0.0017505628 0.0024877484 -0.003155601 0.0038187867 0.0040973583 -0.0006656386 -0.0016272848 -0.003042403 -0.0038772814 0.0019885283 0.0012151464 0.0026393626 -0.00078576617 -0.0006709327 0.001935632 -0.0036044652 -0.0047861873 -0.0025320554 0.0031625815 -0.0009303163 -0.00434093 0.0023820787 -0.0034924923 0.0013605505 -0.004958189 -0.00081543764 0.0032103583 0.0007328992 -0.0022208428 -0.003998393 -0.0032605373 0.0046447627 -0.00030318322 -0.0026789438 0.004056463
lastdaysofalmostsummer -0.0015826719 -0.0014054924 -0.0014770031 -0.0003842418 -0.00049712183 -0.00044051325 0.0012046071 -0.0044133137 -0.0011782271 0.004036907 0.001221288 0.00072351936 -0.0037743705 0.0022507948 -0.0040406445 -0.004331319 -0.0019107924 -0.0038346308 0.0039075604 0.0007348247 -0.0007789545 0.001741183 0.0010535866 -0.0019593637 -0.0024828457 -0.0041405624 -0.0040017455 -0.0046322257 0.0037218956 -0.003259555 0.004207097 0.0011615953 -0.002090346 -0.0006117434 -0.002822356 -0.0029951418 -0.004164119 0.0034079226 -0.0010036184 0.0027757394 -0.0027575737 -0.0008309637 -0.0031866333 -0.0006466792 0.00070534647 0.002646396 -0.004081605 -0.0046529737 -0.0047766785 0.004709541 -0.0011439335 -0.0020748393 -0.0036044836 0.0018695337 -0.00083951 0.0021960866 0.00038792007 -0.0016247134 -0.00333104 0.0020357259 -0.0030160206 -0.00023530237 -0.0032290977 0.0008053393 -0.0031660013 -0.002811148 -0.0022012733 -0.0048970194 -0.0024799954 -0.0026815103 -0.0008112197 -0.00271228 0.001002078 -0.004845835 -0.003939882 -0.0025577277 -0.002405814 -0.0006601047 -0.0042000217 -0.0016962027 0.0029421486 -0.003918714 0.0036965236 -0.0016004646 0.0049969787 0.0031573065 0.0024545197 0.0005991934 0.0039099734 0.0037728865 -0.0047102827 -0.003925754 -0.004944951 -0.0005025738 0.0014122664 0.001623543 0.0034774877 -2.9636081e-05 -0.0049493536 0.002360899
thatfridayfeeling -0.005689396 0.014186994 0.007926698 0.006769087 -0.00091598736 0.011264822 0.031458188 -0.0081121465 -0.013485017 0.004544116 -0.010537689 0.004513846 -0.0023133522 -0.0038690756 -0.005063533 0.009689054 0.010930969 0.0010446337 -0.002676478 -0.01713945 0.011684722 0.003774724 -0.0025904241 -0.005160153 -0.00058339234 -0.003921657 -0.021409055 -0.003938859 0.008239988 0.00045067008 0.0046347263 -0.007768075 0.00014459991 -0.011507574 0.00026720468 -0.008917031 0.012268304 0.012351793 -0.0016763478 0.013883703 -0.0018779666 -0.013725597 -0.012883035 0.017411297 -0.013512579 0.003076263 0.018205855 0.016652385 0.0015002686 0.00065467495 0.009487474 0.00963005 0.0023539995 0.006349357 0.0063458593 0.0018350373 0.0065627336 -0.004708838 -0.009340466 0.001920015 0.008426264 0.0024947063 0.0065362058 0.0058887596 -0.018867657 -0.0066336584 0.012318942 0.016348824 -0.02887304 0.009842251 -0.009310546 -0.00395777 -0.007394359 -0.010312388 -0.025866183 0.012425004 0.010490525 -0.01224049 0.006274702 -0.002011882 0.017555753 0.008263772 0.025680853 0.0069194864 0.01287756 -0.023767114 0.016286133 -0.0006888839 0.0047932463 0.0013560439 0.0075106113 0.007982356 0.00993318 -0.00623395 -0.0068295305 -0.014800033 0.0062164837 -0.008596583 -0.012435822 0.0033970678
fastfood 0.002924054 -0.00053141546 0.0039337026 -0.0002606213 -0.0014831321 -0.0029134923 0.0025965772 -0.003993601 0.003909708 -0.0016191935 -0.0034566168 -0.0043981513 0.0035289181 0.00012354087 0.0027963645 0.001094663 -0.0025925247 -0.0036710429 -0.0035657953 0.00096941274 0.0017249538 0.0022474676 0.0008844868 0.0017151572 -0.0013696307 -0.0027412002 -0.002242447 0.001066085 0.0018594996 0.0038568815 0.0037750592 0.004307608 -0.0035128216 0.0034612622 0.001977778 0.0045818025 -0.002759056 0.0013546515 -0.003677634 0.0019524 -0.004469101 0.0018242309 0.001371914 0.0041334806 -0.0011042196 0.0025778855 -0.003352962 -0.0024318676 0.0004553222 0.00038873032 -0.0026519964 -0.004504989 -0.00036257925 0.003042508 -0.00071342755 0.00040988065 -0.0046179625 0.0035393825 -0.0031326325 0.0008163871 -0.0008279234 0.0034783864 0.0020683957 0.003052067 -0.000103035476 0.0044492055 0.004499466 -0.0018235487 -0.0014881366 -0.00459079 -0.00026189163 -0.001845405 -0.0047393995 0.0018549436 -8.301344e-06 0.0045872796 -0.0017926644 0.0023079426 -0.00020905957 8.486584e-05 -0.0027626513 -0.001260255 0.0032304432 -0.0040287613 -0.0015599907 0.00019884389 -0.0014886933 0.0005902485 0.0019409964 -0.0020234466 -0.0017586339 0.0030015754 0.0016040732 0.0037258668 -0.0035400037 -0.0006810152 0.001121521 0.0042312387 -0.001861816 -0.0006626062
neverwanttoleave 0.0010407767 -0.0010301336 0.0039622746 0.0040434524 -8.356944e-05 0.0026775636 0.004089282 0.003225646 0.0021622623 -0.0031753033 0.0035335906 -0.0047314577 -0.0010441719 0.0015506917 -0.00017380761 0.0045504607 0.0032034246 -0.0043327403 0.002002052 -0.00040233927 0.0020806692 0.0016557421 0.0038513541 -0.0017070514 0.0023189452 -0.003404572 0.003082824 0.0020616744 0.0025464422 0.0039271284 -0.0037209766 -0.0017434531 -0.0029854667 -0.0034470162 -0.00037265383 -0.0006036414 -0.0014278281 -0.0019078886 -0.0030470584 0.004510386 0.002236071 0.0006113411 -0.001726011 -0.004864325 -0.001579281 -0.0018016673 -0.0042025424 0.0035380796 0.0013560485 -0.003634585 0.002957995 0.00014287885 0.004382126 -0.004169359 0.0011365847 -0.0007368163 -0.0044526346 -0.0041720876 -0.0031819683 0.0040225387 -6.125821e-05 0.0022423528 0.0032694424 0.0040546367 -0.0027108574 -0.0005294145 -0.003464449 -0.00013437867 0.0035481825 0.0049352273 -0.0025076603 -1.44457445e-05 0.0038560573 0.004325183 0.00078947796 0.0017659138 0.0034546694 0.0023602867 0.0012718169 -0.0032056528 -0.0044095498 -0.0048879944 -0.0044787405 -0.0043992186 -0.0021710151 -4.677754e-05 -0.003466519 0.004253817 -0.00069780275 -0.00412338 0.0019377093 -0.0036983602 0.0037371982 0.0036305198 0.0049457652 -0.002475559 -0.003232609 0.00258314 -0.0019334643 -0.0037679267
aboutlastnight 0.0024840091 0.0025519398 0.004852012 0.0022116732 0.0033948068 -0.0044381637 -0.0024866848 -0.0035977077 0.0023470903 0.002031906 0.004709443 0.00047512306 -0.0016050637 -0.0027302545 -0.0027470374 -0.0028185241 0.00023015263 -0.004689943 0.0028965315 -0.0014158522 -0.0044763815 0.0004941039 0.00031284336 6.322842e-05 0.003100521 -0.00073682657 -0.0019595486 0.0023646527 -0.0014159959 -0.0021202778 0.0023865998 -0.004433777 0.0021176697 -0.0031251255 0.00085782027 0.0047945064 -0.004329807 -0.0027712476 -0.0040911655 0.0028795786 -0.0044783643 -0.0048857946 -0.00022452883 -0.0009249989 -0.0014887266 0.0046371035 0.0033803517 -0.0014580286 0.0024299002 0.00079649314 0.00024742913 0.00033576787 0.0048439214 0.0005937712 0.003426019 -0.0016946774 -0.0023879386 0.0042195693 -0.00409187 0.003184123 0.0047419323 0.0040563894 0.002103385 0.0041296165 0.004244022 0.00053224154 -0.0021326852 0.0040548667 0.0027461243 -0.0012862396 0.004859085 0.0030141752 0.000943467 -0.00371495 0.0044179447 0.0014534602 -0.00046896795 -0.004758705 -0.0010695537 -0.0032878579 -0.0038679426 0.0034215618 0.003245934 0.0032104496 0.0036277445 -0.00019652862 0.002456768 -0.002489832 0.0035081692 -0.00044224784 -0.0020572697 -0.0047079283 0.0014309366 -0.0047288025 -0.0017881466 -0.0047384053 0.0011527906 -0.0025766927 0.0033779452 -0.0026417088
lazyweekend -0.002512483 -0.0047428613 -0.0010516061 -0.004716954 0.0017000055 0.0035553556 0.0010475414 0.0044109905 0.004150004 0.0020088148 -0.002787864 0.002804418 -0.0029661 -0.0029413283 -0.0033070496 -0.0032555985 -0.00084959157 -0.00076617673 0.003394436 0.0017548734 -0.0004182388 -0.0022541117 -0.0029679316 -0.00057450077 -0.0003447868 0.004794848 0.0020605186 0.0004643947 -0.0016304636 0.000118125696 -0.0008917786 -0.00019239727 0.004267904 -0.004228308 -0.0010399371 -0.0049965996 0.0007428606 -0.0044771205 -0.0045793937 0.0012704222 -0.00022302428 0.0007310724 -0.003087902 -0.0011014706 0.0023076949 0.0014527272 -0.00212475 -0.0041271243 -0.0013021403 0.000530289 0.002254414 -0.00073220767 0.0001751422 -0.0046564154 0.003609852 -0.00025658542 -0.00053215213 0.003248104 0.0023818635 0.0049082385 0.00264866 -0.0049609873 0.0025880765 0.0044921646 -4.8015732e-05 0.0026174276 -0.004074024 -0.0006399369 0.0036135009 -0.003688442 0.0031381287 0.0027245074 -0.0033789836 -0.0012100209 0.0040768115 0.0014504762 -0.00017478364 -0.0031162929 -0.0039538145 0.0038996208 -0.0026621795 -0.0033306996 -0.0019908785 0.0021162033 0.0025208048 -0.0014917022 -0.00044280244 -0.0010662656 0.0034476314 -0.0018788737 -0.0030112676 0.0044771004 0.00024888478 0.0045742868 0.0028834576 -0.0043088836 0.0011424953 0.004941697 -0.0017262178 0.00072135916
homesweethome -0.0446351 0.109596536 0.091955155 0.065611936 -0.02027879 0.1499741 0.26038626 -0.060087204 -0.15489247 0.02851214 -0.07784143 0.088432916 -0.01177042 -0.0695334 -0.04482833 0.07279031 0.09035029 -0.0028092968 -0.016604686 -0.18310922 0.15955842 9.71608e-06 0.015978582 -0.019230098 0.015302847 -0.060570568 -0.17348017 -0.06556445 0.04813748 0.00073601113 0.012297699 -0.051065337 -0.00922855 -0.0681781 0.03374004 -0.082665905 0.13070393 0.11348477 -0.02584239 0.18680313 0.016060805 -0.12036951 -0.1168624 0.15376309 -0.13366824 0.060128268 0.14770745 0.12357331 -0.032013193 0.046013188 0.0605112 0.09959118 0.02664635 0.04142802 0.06279564 -0.011155182 0.082328334 -0.030187322 -0.081169724 -0.018660285 0.08853017 0.009244398 0.104648985 0.03239648 -0.14966542 -0.08175937 0.121554576 0.14722244 -0.24865097 0.058600772 -0.079767905 0.01624531 -0.07966194 -0.07351331 -0.26465553 0.059362862 0.105575524 -0.07628907 0.09482369 0.00023642591 0.15357633 0.05530107 0.20261297 0.061122093 0.08738891 -0.21623887 0.1423974 -0.015157251 0.0036239002 0.026185717 0.05128632 0.076864 0.14086294 -0.10620404 -0.103430055 -0.17548318 0.006091244 -0.108072646 -0.15755558 0.004300611
atableinvenice 0.0027754544 0.00402575 -0.0031689995 -0.004683399 0.0038036164 -0.0043259664 0.0029960163 -0.004105795 -0.003067516 0.0026301602 -0.0015725701 -0.0011739868 -0.0026699484 0.00058310525 -0.0025107902 -0.0018801247 0.0040339557 -0.0021048586 0.001594624 -0.0028670554 -0.0025334454 0.0008987766 0.0028754175 0.0015442772 0.0023513134 -0.00024406007 0.0010374766 -0.0003593904 -0.004577155 0.0010072519 -0.000959822 -0.00020783348 0.002066962 -0.0020286255 0.004756403 -0.00457065 0.004782158 0.002310691 -0.0027428293 0.0023725466 -0.0048135184 -0.0038734674 8.613989e-05 -0.004176365 -0.0033139414 0.0031307107 0.0015518651 0.002340374 -0.0014426154 0.0011092322 0.004792679 0.0003801412 0.0008053337 -0.00030920748 -0.0037429242 -0.0027765934 0.0038538678 -0.0016261328 -0.0024367261 0.003098444 -0.0012428551 -0.004091704 0.0024767946 0.0001564608 -0.003958488 -0.00056108646 -0.0049258154 0.004207623 -0.0023072623 0.0019339151 -0.0021582097 -0.0017031152 -0.0019777108 0.0039168317 0.0036296956 0.004562665 0.0022779582 -0.0048688124 -0.003713293 0.001781275 0.00324166 0.0024552755 -0.0022345644 -0.0004463545 0.00053662853 -0.0013572956 -0.002863956 0.0037799543 -0.0034909127 -0.0015649104 0.0035382072 -0.00013216957 -0.002675761 -0.0013646476 -0.004235325 0.003349064 0.0017586984 -0.000641373 0.0018403069 -0.002679786
babyachilles -0.00013272511 0.0040890696 -0.0024380612 0.00028187037 0.0025827847 -0.0024096405 -0.0046260795 -0.0032986593 -0.0037312405 -0.0019635826 0.0021209149 -0.0047544665 -0.0048287516 0.002691099 -0.0046098474 -0.0037278882 -0.0048165205 0.0010861657 0.0004013409 -0.00467121 0.0048432555 0.0029783817 -0.0023839504 0.00068008713 0.0030742465 0.0044717444 -0.0026343947 -0.004272182 -0.0009686481 -0.0009526843 -0.0009620227 0.0029082503 -0.00037911488 -0.0007640845 -0.00043101795 -0.0003660554 -0.0028988265 0.0011602384 0.0005032588 0.004546173 -0.0041019702 0.0041205874 -0.0040472224 0.001269816 -0.0017368477 -0.004615908 -0.0021393043 0.0012858724 -0.004053955 -2.1669082e-05 0.0028198585 0.00069251657 0.0027776281 0.0020115487 0.0037015844 -0.002770543 0.004273084 0.00088144606 0.002263635 0.004894128 -0.0029994636 0.0024496443 0.0014439356 -0.0029193722 -0.00067996746 0.0006798804 0.0008558333 0.0006613266 0.000111939386 0.00044706836 0.0041145785 0.002395871 0.0035274262 0.004251064 -0.0047825533 -0.004231272 0.0010480988 -0.0038070623 -0.0033284086 0.0022131298 0.0017791516 -0.000338919 0.00040830486 -0.0012190854 -0.0049554547 6.935233e-05 -0.00031027198 -0.0016562957 0.0037274929 -0.002985152 -0.0025119965 -7.3403586e-05 -0.0031643033 0.0017756158 0.001009482 -0.0033446895 0.004452835 -0.0016369564 0.0013102181 0.0024374402
sweetdreams -0.0061716796 0.013869177 0.005013804 0.010607246 0.0005356069 0.010722856 0.028735999 -0.0057879975 -0.012593402 -0.0024242182 -0.010795731 0.008690041 0.0020966982 -0.0039817933 -0.0046129087 0.00097616104 0.0074696215 -0.003495255 -0.0050499653 -0.0130309155 0.018076707 -0.00055224163 0.0058907536 0.000541363 -0.0025974899 -0.0070145903 -0.011514082 -0.004410374 0.002359241 -0.005524693 -8.455186e-05 -0.0060310476 -0.0032474392 -0.0025374256 0.0052206996 -0.0050435015 0.0076816813 0.010127094 0.0027985733 0.017338438 0.0016229516 -0.008457228 -0.010632869 0.014534561 -0.0153430505 0.00631786 0.017407678 0.012832981 -0.0025436927 0.009387016 0.0053724134 0.008520055 -0.0022700322 0.003983725 0.0057562287 -0.0018415254 0.009500648 -0.0072755674 -0.0052795606 -0.0017219946 0.014243538 -0.0023088327 0.014384868 0.0077033327 -0.016535066 -0.002513162 0.009037156 0.013334954 -0.026058447 -2.2577762e-05 -0.006556446 0.00024280095 -0.009407661 -0.011454263 -0.022968601 0.0030963626 0.0065854695 -0.0018121308 0.008259288 -0.004241815 0.0160581 0.0032083848 0.022946144 0.0021775851 0.011188373 -0.016827889 0.014474243 0.0013586507 0.0027940413 0.0015006388 0.006284492 0.006623363 0.014454067 -0.005095918 -0.0075375936 -0.017953137 -0.0016521713 -0.012617028 -0.011574717 -0.0021800525
lunchtime -0.023443045 0.0587946 0.03653284 0.034256686 -0.009605358 0.08272732 0.13630934 -0.026531331 -0.07905274 0.016727496 -0.036116704 0.041509885 -0.0032362805 -0.03245027 -0.023436354 0.036012817 0.047958795 0.0035897766 -0.019687863 -0.09163341 0.073747635 -0.0058313957 0.00720435 -0.012555277 0.010702488 -0.0300353 -0.0985116 -0.03632264 0.020719327 -0.0020662074 0.007997327 -0.027081532 -0.007673305 -0.04256665 0.017554583 -0.040652152 0.062214285 0.050895065 -0.010896089 0.086492814 0.0038406868 -0.056659877 -0.06355931 0.07554112 -0.06415483 0.033005074 0.07874658 0.0612341 -0.006953504 0.026299795 0.021629632 0.047724776 0.01753167 0.026325705 0.03723274 -0.0025601701 0.032510042 -0.015844336 -0.042737488 -0.003755576 0.048933048 0.0063502067 0.062192272 0.016215574 -0.07732776 -0.03875115 0.059997715 0.0726611 -0.12626271 0.024047362 -0.04109698 0.0005969907 -0.031105042 -0.046843756 -0.14080475 0.040229686 0.05386766 -0.04051053 0.046532348 -0.0015614254 0.083132476 0.033563156 0.10430511 0.02520634 0.04126184 -0.11627884 0.07779633 -0.001660222 0.008520651 0.014023706 0.023059996 0.038775835 0.07767611 -0.05856909 -0.049971577 -0.09660008 0.0025953387 -0.05731449 -0.08761401 0.0007522588
summerinvenice -0.0030648254 0.0044567855 0.0019588112 0.0042487774 -0.00068294536 0.0021514576 0.004187545 -0.003703568 -0.004264408 0.0019135047 -0.0033190202 -0.0029592495 -0.00094383117 -0.000920122 -0.0032456082 0.0014511384 0.0026316056 5.50407e-05 0.0023035957 -0.0021937971 0.0019951225 0.0025312854 0.0026593804 -0.0048686634 0.0010931813 0.0036962545 -0.0036023944 0.0019781487 -0.0008669114 -0.004621865 0.0038707294 0.0012508486 0.004623891 0.0018028063 -0.0046598334 0.0027693515 -0.0008018119 -0.0015813732 -0.0025317876 0.0009950968 0.003005837 -0.0024506156 -0.004027587 -0.0010388521 -0.0043436117 -0.004174478 0.0038253358 -0.00066242693 0.004696971 -0.0047408105 0.0032202313 0.0021337587 0.0004774807 -0.0031780624 -0.00013943575 0.0006589447 0.0021054605 0.0011155759 -0.0013366789 -0.0030532693 -0.001233825 -0.00304151 -0.002213435 0.0021861242 0.0021270602 -0.0020077366 -0.0007621092 -0.0022632414 0.0025299327 0.004441548 0.0043468075 0.0004362841 0.0040424354 -0.0027752935 -0.0028855687 -0.003295858 0.003969528 0.00031015836 -0.0031074411 0.0024274592 0.0007126522 0.00067863334 -0.003975818 0.0049811676 0.0015039942 0.0032356903 0.0030809864 -0.0011191911 -0.001895501 0.0021133702 0.0013594395 -0.003885881 -0.0015175603 0.0006094305 -0.003714379 0.0020593153 -0.00077214837 -0.0017695373 -0.001870424 0.0013891687
viewoverthegrandcanal -0.0058642155 0.016133197 0.013289195 0.010304222 -0.0035404195 0.020627674 0.026609452 -0.0024991096 -0.015325201 0.001185889 -0.013479643 0.010993569 -0.0023825134 -0.0037888393 -0.0073334337 0.010323982 0.012433608 0.004045946 -0.0027712565 -0.023331834 0.02147835 -0.002517019 -0.0012716083 0.00313388 0.0047583026 -0.005182483 -0.018576045 -0.0033848938 0.0062816264 0.0035295303 -0.0032094829 -0.0035514636 -0.0048295627 -0.010454565 0.00044196748 -0.011863428 0.011373134 0.013497192 -0.00571398 0.01674681 0.00035658083 -0.007868285 -0.013043251 0.02126873 -0.012455153 0.0045016487 0.017642688 0.0086534815 -0.0055243196 -0.000724487 0.001331087 0.013760869 0.0028949126 0.0065398514 0.0031235253 -0.0010914756 0.005025169 -0.0015255256 -0.0076570017 0.0005599154 0.012565674 -0.0011085987 0.0067686005 0.0051121525 -0.011888111 -0.0044941483 0.011092422 0.016693272 -0.028390985 0.009693801 -0.010309024 0.002094198 -0.004743357 -0.009069934 -0.025447678 0.008673013 0.008296367 -0.011441343 0.006943191 7.628193e-05 0.013841768 0.006149402 0.024617517 0.0076757544 0.0083231 -0.019197969 0.015282739 -0.004508471 0.003540487 -0.0017772459 0.0048997505 0.009099415 0.016225925 -0.009244178 -0.015117018 -0.020004822 -0.00091352686 -0.0076789916 -0.016660418 -0.004880052
classic -0.04058049 0.107839145 0.09520558 0.049641177 -0.017537082 0.15270564 0.23724504 -0.06984256 -0.13906111 0.013172871 -0.089820825 0.097917534 0.0076744747 -0.063655026 -0.045345604 0.058859967 0.08851461 -0.021705179 0.007840683 -0.17505926 0.15468776 0.0006666047 0.028427118 -0.019254677 0.0061559044 -0.05350309 -0.16644527 -0.058633562 0.042673152 0.0021818287 0.0066660973 -0.051965922 -0.018403394 -0.07292159 0.016270302 -0.084543 0.1294888 0.11599014 -0.0150265 0.18171692 0.022756949 -0.12099832 -0.10182123 0.15432204 -0.12267806 0.048966527 0.13771261 0.13297246 -0.03902875 0.05794527 0.077818856 0.08631959 0.02495748 0.035559244 0.052871477 0.00032831155 0.08885777 -0.030314744 -0.09588691 -0.030300425 0.08775751 -0.008272758 0.095329896 0.03983758 -0.14342315 -0.06874643 0.11045796 0.15216659 -0.2558892 0.051843967 -0.075269446 0.025336491 -0.07689204 -0.07086997 -0.23377235 0.054313812 0.10157319 -0.073564485 0.08887464 0.001887627 0.13343945 0.062640145 0.198945 0.062422287 0.082034476 -0.21580373 0.12139994 -0.008865828 -0.0039908546 0.022642186 0.04882224 0.07264592 0.12983733 -0.096958406 -0.10061396 -0.16651024 0.015721899 -0.10311755 -0.15092471 0.013804996
favouritemealoftheday 0.00025984785 -0.003431487 0.0005536997 -0.004179118 -0.0039551323 0.002640348 0.00022275094 -0.0041013495 0.0031275023 0.0035596471 -0.0015346294 -0.003780529 0.0029893406 0.0013093669 -0.0048439675 0.0039894767 -0.001304562 -0.004600047 -0.00032625068 0.0008114083 0.00062491046 0.0049631502 -0.0015617071 -0.0029718012 -0.0016700672 -0.0002960395 -0.0016801213 9.893766e-05 0.0012735222 0.0013433541 0.00038143853 0.00035674218 0.00323598 0.00036929268 0.003194808 0.0035978388 -0.0015307462 -0.0042138 -0.0044162194 0.004274848 0.003723248 0.00081738597 -0.0024896173 -0.002298503 -0.0020400966 -0.002715882 -0.00024042604 -0.0032266402 0.002870312 0.0022588228 -0.0007721507 -0.0015688841 -0.003850621 -0.0005592392 -0.0006912197 0.0033967234 0.0041378858 -0.0025463575 0.0024821456 -0.0049236747 0.0035898304 0.0017282874 0.0020878636 0.001104991 0.0010079653 0.0014897785 -0.0049248347 0.0027978 -0.0019071733 0.0014259792 0.0021474552 0.003079053 -0.0041788784 -0.0027199006 -0.002836446 -0.002437268 6.8445224e-05 -0.003932574 -0.003865444 -0.0032389397 0.0044889282 0.00018719863 0.004934814 0.0038998555 -0.0042091804 -0.0026399428 -0.0032649904 -0.0042898175 -0.0022095179 -0.0041912217 -0.0027513367 0.0047997246 -0.001951437 -0.0021491395 -0.0030744164 0.0021518748 -0.0033699232 -0.0037530821 -0.0041138874 0.00022321055
recipetesting -0.02463162 0.11268423 0.11213534 0.050985377 -0.021499684 0.1727918 0.25409022 -0.08286589 -0.14220084 0.0022887937 -0.10386001 0.11622018 0.012725261 -0.06520557 -0.059947275 0.05816177 0.09190912 -0.021442564 0.012174943 -0.19301453 0.16908686 0.020491064 0.0274682 -0.035649728 -0.0028359145 -0.059427183 -0.1719651 -0.0708162 0.04534507 0.009522938 0.0003491104 -0.055999663 -0.029888313 -0.06953865 0.017084433 -0.08496326 0.13689098 0.13043144 -0.019799601 0.2059655 0.036219835 -0.13025364 -0.115027115 0.16873348 -0.14623968 0.038331337 0.13799855 0.16689901 -0.04368332 0.060010232 0.09529253 0.09724014 0.021507684 0.03139593 0.0426515 -0.0048082275 0.09653403 -0.041382086 -0.10939995 -0.035222404 0.10193194 -0.004355077 0.091908574 0.049610376 -0.14867678 -0.06793358 0.122801155 0.18424836 -0.302968 0.050038017 -0.078914344 0.022524964 -0.10092936 -0.07069072 -0.2525818 0.04913905 0.104215674 -0.07876348 0.09849156 -0.005632586 0.1435366 0.07071821 0.22440958 0.059575707 0.07959713 -0.24150026 0.13391645 -0.011211073 -0.025076695 0.013507632 0.04952539 0.07946861 0.13678364 -0.099270456 -0.09890991 -0.18742523 0.012425536 -0.11242869 -0.16805784 0.017531104
summermood -0.003953471 -0.0017947196 0.0032422766 0.0027022967 -0.0031181495 -0.0028826063 0.00018212665 0.0046864804 -0.0038291377 0.0013052905 0.001617372 -0.0010400075 0.0017212545 0.0015397109 0.004463047 -0.002603383 0.0015479662 0.0010208446 0.0028893352 -0.00040098652 -0.0015354764 -0.0049040685 0.0046366258 -0.00494891 0.004841312 0.0014129733 0.00401547 -0.0005554282 -0.0008083433 0.0037740972 -0.0022000878 -0.0017302744 0.0037192786 -0.00087809423 0.003386804 -0.0012785189 -0.0007526614 -0.0003609215 -0.0018760061 0.0048888735 0.0024028067 0.0015346617 0.0012232848 0.003358407 -0.003334837 -0.0008750097 0.00014967518 0.00252518 0.0031764135 -0.0032337848 -0.0012667691 4.6097208e-05 -0.0026049428 0.00025518704 -0.0010989977 0.00090644555 0.0018307576 -0.0037173377 -0.0004568491 -0.00015271502 0.00032823905 -0.004629386 -0.0002892129 -0.004000332 -0.0017112023 0.0017461609 -0.0009625708 0.0017242064 -0.0043846816 0.004262113 0.001400663 0.0038959952 -0.0017783348 -0.0015495531 0.0046749488 0.002211613 0.0015258202 0.0034439964 -0.004500723 -0.0034984858 -0.0038751066 -0.00014882069 -0.0014530539 -0.0047793747 0.0012932182 -0.0046306644 -0.0032284975 0.0026069176 0.0022871727 0.0030282307 -0.004964703 0.0033689924 -0.0021029864 0.0032545868 0.002483115 -0.0040227436 -0.0019618988 -0.00021481235 0.0023592515 0.0017693015
holidays -0.027324006 0.0614781 0.057230074 0.036768198 -0.019711433 0.0855555 0.14784674 -0.038654618 -0.08351998 0.009689812 -0.04356426 0.051296443 -0.0116101 -0.034314334 -0.026064118 0.03210846 0.053754274 -0.012098242 -0.0016288385 -0.10136315 0.08166004 -0.0076363 0.010385988 -0.016183726 0.014232631 -0.024991464 -0.095291354 -0.0276594 0.03134948 0.004127509 0.0055554137 -0.02948291 -0.00120161 -0.037411794 0.01568622 -0.049804818 0.07416046 0.06322514 -0.012233794 0.10057615 0.0095563885 -0.065392025 -0.06874564 0.09519166 -0.06801153 0.029412527 0.082225405 0.06637514 -0.016780492 0.024851851 0.029693935 0.057872754 0.022393348 0.018462388 0.033362288 -0.0060307095 0.045168206 -0.018799214 -0.0544619 -0.012408905 0.051511962 0.0002170399 0.05418715 0.023593096 -0.08568797 -0.044933114 0.06475016 0.08027596 -0.14961149 0.032097638 -0.04004524 0.011433515 -0.049547497 -0.04012821 -0.13750125 0.03405519 0.059928097 -0.041920386 0.04273526 0.000589314 0.077871636 0.03293416 0.11456102 0.035667554 0.04703153 -0.12516743 0.08540605 -0.011685746 0.004205734 0.011163032 0.025909118 0.046085138 0.07072063 -0.06322756 -0.058847852 -0.09356203 0.002008547 -0.061056722 -0.08765532 -0.0015110858
onemonthold -0.010205599 0.013927048 0.006655521 0.005189551 3.6222966e-05 0.010678745 0.02898661 -0.0005788034 -0.016354155 0.0037152853 -0.00579959 0.011429976 -0.0011635221 -0.005949289 -0.0011770165 0.0058526886 0.011726915 0.0016490202 -0.007912885 -0.01848003 0.009359468 -0.0013557298 0.002835356 -0.0012482653 0.0038142027 -0.002070874 -0.020555286 -0.009251864 0.0072105187 -0.003757083 0.0060546864 -0.008852066 -0.00061935105 -0.004316407 0.008630354 -0.01277116 0.0104116555 0.012844634 -0.004714007 0.01784076 -0.0018121136 -0.011131809 -0.012977373 0.016250046 -0.008280443 0.005378256 0.009988616 0.010785059 -0.001635571 -0.0002628363 0.009605741 0.009857012 0.007778244 0.007529634 0.004384867 0.0009748468 0.0052505834 -0.0069256513 -0.00594811 0.0035320956 0.006531232 -0.0026082208 0.008789154 -0.0016613242 -0.0093807485 -0.0050736605 0.011840638 0.013758842 -0.026912628 0.005124694 -0.005222002 0.00033110968 -0.004196282 -0.010417842 -0.023609105 0.006931131 0.009420457 -0.0108361915 0.0044615353 -0.0040489077 0.011268093 0.0035380018 0.019075377 0.0008295608 0.010431068 -0.022964902 0.018573731 0.0013326771 0.001120904 0.003599216 0.006765987 0.0070281876 0.009683421 -0.01007204 -0.0047287713 -0.02063489 0.00250409 -0.009372201 -0.01596679 -0.0020579435
summertime -0.016009282 0.04381086 0.042407513 0.019119948 -0.01763329 0.05381013 0.0915679 -0.028046427 -0.051247872 0.003694358 -0.02386545 0.03329627 -0.005830443 -0.025457298 -0.018969132 0.023429828 0.032657575 -0.0031483397 -0.0072760745 -0.06262584 0.055686112 -0.006333448 0.005396208 -0.007783589 0.0058275023 -0.012741595 -0.059463184 -0.020581607 0.02161342 -0.0013327781 -0.0006468379 -0.015871504 0.0031379405 -0.022059685 0.0050066025 -0.0350192 0.044854615 0.040213052 -0.009000391 0.061982326 0.007009517 -0.039506193 -0.046253454 0.06147285 -0.037319567 0.024413805 0.05078282 0.03909148 -0.010096737 0.014334676 0.01676647 0.026855778 0.008383244 0.012432324 0.023611074 0.00030085116 0.021907555 -0.007189487 -0.033953376 -0.0064152824 0.03154392 -0.0032823829 0.027867494 0.010634427 -0.057780147 -0.017434437 0.045114506 0.051143087 -0.083480924 0.018803794 -0.029388828 0.0016648851 -0.028489618 -0.024949782 -0.08320462 0.025765503 0.03191677 -0.023905577 0.023823146 0.0035119185 0.053998105 0.016294228 0.07136902 0.01501683 0.038500868 -0.07522383 0.048426487 -0.010656875 0.0054006036 0.010112996 0.017115457 0.024821414 0.041162457 -0.037823744 -0.039071545 -0.053453542 0.003553601 -0.039002694 -0.05556014 0.0033106804
servechilled -0.008648715 0.026503963 0.022756455 0.017327208 -0.0050509926 0.034216575 0.06599233 -0.015883027 -0.04061032 0.004301308 -0.017071776 0.025662916 -0.0039413767 -0.012505966 -0.008339092 0.020922678 0.020244984 -0.0027634206 -0.0117847305 -0.039672114 0.03968263 0.0009399576 0.00065690064 -0.0042626066 0.008846885 -0.01016506 -0.045156285 -0.017166624 0.0068336157 -0.0012212947 0.004788271 -0.014935969 -0.002581581 -0.01972365 0.005982728 -0.020036545 0.027609775 0.029474864 -0.0038428812 0.03831856 -0.0018117222 -0.029784042 -0.030246824 0.034593318 -0.027703358 0.012630525 0.035489794 0.031205699 -0.0037417337 0.008088275 0.012619009 0.028710602 0.0056168237 0.012822582 0.018277923 0.0003614792 0.014329624 -0.009104716 -0.017559614 -0.007370175 0.023900712 -0.0007485881 0.028163102 0.0071924417 -0.03549644 -0.022418238 0.032298435 0.03807869 -0.0593826 0.010244264 -0.016441323 1.38285e-05 -0.016152512 -0.017879112 -0.06663239 0.014825796 0.023886066 -0.014741834 0.025807735 -0.00060642476 0.0392094 0.012947378 0.05045169 0.008569242 0.01764404 -0.056837276 0.032312557 -0.006508682 -0.0014220942 0.0096873995 0.008291329 0.016349543 0.038344417 -0.029196125 -0.0210537 -0.04614731 0.007703386 -0.028582491 -0.040458765 0.0021082587
makeahead -0.025698943 0.05217789 0.045283657 0.029044744 -0.014652166 0.06968876 0.13329181 -0.023068931 -0.08381983 0.01649609 -0.042069968 0.04710124 -0.01193628 -0.033003412 -0.01887766 0.03783669 0.043121014 -0.00046376258 -0.020743458 -0.08830849 0.06997988 -0.010382869 0.015431037 -0.010966014 0.019681245 -0.025592027 -0.095225826 -0.033315115 0.022706056 -0.008542262 0.002891104 -0.026771603 -0.0057506096 -0.0399525 0.020610884 -0.048341334 0.06344245 0.051629268 -0.013049396 0.08913373 0.004960464 -0.054702032 -0.060160886 0.08159857 -0.062103022 0.035515677 0.07866971 0.05489974 -0.013499242 0.0244322 0.023468427 0.05141815 0.013723184 0.020983052 0.031268783 0.002636693 0.027907861 -0.015984133 -0.035949234 -0.004440686 0.04846427 0.0027407415 0.051811032 0.013326998 -0.0711957 -0.033572134 0.06431233 0.07394836 -0.11867172 0.029360233 -0.04041733 0.006221028 -0.03327812 -0.04461442 -0.12909816 0.039288465 0.0579005 -0.031964812 0.038228374 0.0038003335 0.07432093 0.025046693 0.10149899 0.021669345 0.043535456 -0.11000588 0.073731974 -0.0100686755 0.005673428 0.01053082 0.020668276 0.035657052 0.069658644 -0.057760995 -0.056922 -0.091923766 0.0025398727 -0.05621799 -0.07869439 0.0023978108
secretvenice 0.0028739776 -0.0015861404 0.0035290942 -0.00422333 0.00078662205 0.0009833914 0.0018006996 -0.0018702627 0.0041350955 0.0044647763 0.0027057272 -0.00039531058 0.004885329 0.0047847247 -0.0041142423 -2.6812777e-05 -0.0046884734 -0.0034796447 0.0002780091 0.0020855772 -0.0030114597 -0.003961478 -0.004175942 0.00036061415 -0.00047417404 -0.0009800107 -0.0010688952 -0.0003330703 -0.004572317 -0.0012111438 0.002101841 0.0039281277 0.002019425 -0.0002250378 0.0031748367 0.00019864133 -0.0048710215 0.00013953587 2.3582485e-05 0.0011769328 0.0047315946 0.00044758338 0.0041357316 -0.004563919 -0.002285928 -0.000635718 0.002129449 0.0043035354 -0.0019073873 -0.0003972263 -0.004291905 -0.0031678604 0.0035584262 -0.0010097227 0.0029789992 0.00451532 -0.0030827087 -0.0013122868 0.0038886517 -0.00082726637 -0.0026634294 -0.001914466 0.0015906156 -0.002009508 0.004022709 0.0025356598 -0.00017619506 0.0028888164 0.0035048928 0.0039408067 0.004073932 0.003263183 -0.0009456817 0.0001326697 0.001136343 0.0006005303 -0.00037288666 0.002276651 0.0032646498 -0.0037724834 -0.0019086497 -0.00070329243 -0.0030645714 0.0006124745 0.0036919191 -0.0012611239 -9.725802e-06 0.00029637758 -0.0025449835 -0.00019572955 -0.00019987952 0.00231478 0.00044385856 -0.0030100686 0.004968915 0.0039172303 0.004555976 -0.0018526905 -0.0049997726 0.004598555
myfavouritecolour -0.004147675 -0.0030533457 0.0030668806 -0.0032193474 -0.0037373423 -0.004986246 -0.0015335178 -0.0022536337 0.0043758657 0.004420317 -0.0027098393 0.0033942387 0.0007882356 0.0045381663 0.00432684 0.0019108267 -0.0038580424 -0.0027675664 0.0019522998 0.0013443423 -0.002516293 0.0005926732 0.0038909046 -0.0048029264 0.0038308045 0.0015962664 -0.0013113224 0.0025106287 -0.0015238982 0.0008962797 -0.0032764375 0.0011399733 -0.0034180186 0.0034975382 -0.003964318 -0.0002795346 -0.0036574595 0.0013637566 -0.0032934581 -0.002006901 -0.0035876394 0.0048998436 -0.003363546 0.0015396471 0.00054762047 0.0023633302 -0.0025940412 -0.0028732466 0.000820864 -0.0026568419 -0.0031259526 -0.0021514003 -0.0016170121 -0.003474106 0.00090376893 -0.0010846308 0.004981106 4.7902577e-05 -0.0020548285 0.0019429456 6.9183297e-06 0.0019926126 -0.004864219 0.0008421154 -0.0021716547 0.002838986 0.0021534394 0.0034444844 0.0036999434 -0.0041969437 -0.003444417 0.0029765386 0.0011171033 0.0027259053 0.0049985023 -0.0047006034 0.002836029 -0.0005037319 -0.0022879571 -0.0047288747 1.1989847e-05 0.00028407993 -0.0037944634 -0.0010871827 0.0026510442 0.0040291883 -0.004033271 0.004605178 -0.002400611 -0.0049437275 0.002261798 0.003786791 0.0036380384 -0.0013063448 -0.0035725653 0.004272268 -0.0013529717 0.0032997252 -0.002673788 0.00033952715
lavieenrose -0.0090444125 0.013209342 0.0071464917 0.00914783 -0.00453007 0.013955281 0.03127885 -0.010338739 -0.019079627 0.004743593 -0.00732065 0.0065235156 -0.00023586607 -0.010365172 -0.0025629469 0.010211161 0.010818043 -0.0045677773 0.0023276273 -0.016691722 0.016980551 -0.0053349053 0.0061894264 -0.0020943962 0.0051286933 -0.0070283776 -0.023995414 -0.012006816 0.00673346 0.0038756204 -0.0010259955 -0.0030041328 -0.0051656985 -0.012634375 -0.00026793507 -0.014817851 0.017367046 0.0120968865 -0.0050672325 0.01729286 0.0032438894 -0.016016508 -0.012677927 0.01533766 -0.016218752 0.010790242 0.017304752 0.015219871 -0.0051985197 0.009320049 0.008260178 0.014944641 0.0036784033 0.008535114 0.0026597085 -0.0027657384 0.0044533317 -0.0057212496 -0.010734647 0.000496887 0.009733475 -0.00095413136 0.01558181 0.0005196909 -0.018598096 -0.01205686 0.01127817 0.018496139 -0.0298646 0.0038701312 -0.012395075 -0.0039907717 -0.0076543735 -0.01171339 -0.028182065 0.006061615 0.011474626 -0.0073705823 0.005177257 -0.0022315965 0.018513802 0.009716633 0.024160154 0.0062094047 0.007533388 -0.028710263 0.013437786 0.0006312448 -0.0013221995 0.0065132403 0.008247522 0.008849935 0.02024715 -0.016988618 -0.010247356 -0.025324186 0.0044828374 -0.017486615 -0.021784669 -0.0031320672
inthemoodforpasta -0.0011987013 -0.0005141557 0.0027109561 0.0028889477 0.0006168252 -0.0047555137 -0.004061789 -0.0016796624 -0.004545568 0.0037703505 0.0038733333 -0.0010571866 -0.003973307 -0.00013858778 -0.0044940338 0.0038555106 0.0029487116 0.0039122906 -0.0044711144 -0.0038206368 -0.00073412526 -0.00018426124 0.0047403043 0.003609255 0.004560059 0.0006537307 -0.0017910749 0.004265588 0.004989581 -0.0047658863 0.0017604493 -0.00045910338 -0.0014313012 -0.00052426197 -0.0045110667 -0.0027765553 -0.003552168 0.0022218544 0.004470192 -0.004386832 -0.0031963787 0.0019253604 -0.004552095 -0.0004820712 -0.0025669676 -0.00410477 -0.0008326792 0.003600129 0.0047904123 0.00027636113 0.00029591657 -0.002663849 0.0013775621 -0.004293428 0.0023843707 -0.000994063 -0.0030229795 -0.0027707475 -0.0017346912 0.001144384 -0.0026424543 0.0006270795 0.0013860208 0.0034150537 -0.0024221246 0.0038123569 -0.0036463402 -0.0018850905 0.0016538948 0.00013014022 0.0019513881 0.0016985587 0.0023760456 -0.0007568323 -0.0026669055 0.0033249594 0.0005778414 0.004955072 0.001106678 -0.0007829089 0.0045101494 0.0015791589 -0.0022791964 -0.004677937 0.0011764378 -9.723939e-05 0.0017850492 -0.0049903626 0.0037501035 0.004131957 0.0011774199 -0.0031139753 0.0023690374 -0.0023345547 0.0032283915 0.0038538054 -0.00490022 -7.23009e-05 9.918446e-05 0.0041772733
sunday 0.0022955248 -0.0023871004 -0.0011577809 -0.0038047403 0.00019515818 0.0027953116 -0.0020227903 -0.0022170704 -0.0006869198 0.00032329792 0.0042278282 -0.0032024584 -0.00019026175 0.0005726693 -0.0032409357 0.0040372694 -0.0047435793 -0.0047849338 0.0012222789 -0.003105958 -0.0003105658 -0.0008570468 -0.003910534 -0.0038114458 -0.0007903739 0.0036003431 0.0024095206 -0.0018724578 -0.002559945 0.0030280277 0.0036691548 0.0046587884 0.0023759543 0.0041240156 0.0023883865 0.0029306952 0.00476487 -0.0032215319 -0.0047178403 0.004369178 -0.0032978929 -0.0015962457 0.0020493544 0.0022233734 -0.0024237137 0.003961211 -0.00038344925 0.0035620052 -0.0012402076 0.0005536787 -0.004778127 -0.0036314134 0.0005686325 0.0022659064 0.0019547776 0.0027737208 -0.0046055517 0.0038512154 -0.00038485508 0.0043142326 -0.0039017694 -0.001217156 -0.0022277725 0.0029155482 -0.0016609912 -0.0027095287 -0.0029372035 0.0020456105 -0.00079409126 0.0019340711 0.0025230246 0.00064265355 -0.0034350646 -0.001285336 -0.003683033 0.0004569334 -0.004637935 -0.0022049642 0.001987923 -0.0012215984 0.00077487715 0.00089259027 -0.0038233816 0.0028940178 0.0017199926 -0.0010896362 -0.0037455475 0.003296679 -0.00233904 -0.0030639372 0.0011737021 0.002508591 0.0034239003 -0.001160329 0.0023463718 -0.004862281 0.0010858607 -0.0013729709 -0.0019858254 -0.0044104178
babyboy -0.0019938243 0.0030670753 -0.00044366112 -0.003909128 -0.0049104146 -0.0012680285 -0.0012364322 -0.0011694115 -0.0042590415 0.0028475681 0.001244552 -0.001545446 0.0012885933 0.0036143884 0.002096842 0.0015191147 -0.0027020401 -0.0020293086 0.0019172882 -4.0745363e-06 -0.00083610555 0.004342038 0.0029946538 -0.0036754238 0.0011394662 -0.00013630046 0.0046573337 0.004888842 0.0014882595 -0.0044916044 -0.0049707363 -0.0035795134 -0.0030156868 0.0036683856 0.00012249826 -0.0031121378 -0.0009023221 0.0037128385 0.0034604212 0.002511586 0.0028943233 -0.001972373 0.0023872321 -0.0001382404 0.0042398674 -0.0043405513 -0.0027259307 -0.004147176 -0.004911059 -0.0022496157 0.00058885943 -0.0042823893 -0.004790538 0.004345474 0.0003721849 -0.0045637 0.0046889605 -0.0023347354 -0.00043461658 0.001335715 0.0019822316 -0.0047895643 -0.0021981471 -0.00070661306 -0.0011167882 -0.003594907 0.003022776 2.993038e-05 0.0036700023 -0.0029310887 0.0002625459 -0.0007086317 0.0036279084 -0.0021088356 -0.004607589 0.003690416 0.003676013 -0.003101273 0.0006517749 0.002564109 -0.0036440277 0.0006322609 0.0035225134 -0.0010013063 -0.00077558914 -0.001203804 -0.00160335 -0.0015152819 -0.0024777579 -0.0046679303 0.0044343164 -0.0010855226 -0.002436226 0.004732413 0.00059257634 -0.0016551805 -0.0028837393 0.004547812 0.0008836989 0.0020919857
mondaynight 0.004581603 -0.004898383 0.0016758125 -0.0023581267 -0.0030339349 0.0021704286 -0.00408797 0.0017896062 0.003039647 0.0006351876 0.0044742255 -0.003538385 -0.0017444117 0.0046637906 0.004419867 0.00016887952 0.0016909731 -0.0020881223 -0.0011976981 -0.0036906337 0.004792544 0.0011129593 -0.001809275 0.0043205563 -0.002996682 0.004755212 0.0037175342 -0.00013463199 -0.002148553 -0.0010547191 -0.0030936014 0.0043118065 -0.0030833823 0.0022168467 -0.004090479 -0.0030121212 0.0016991645 0.0010530627 -0.0016904003 -0.0047730384 0.0012033521 -0.0041395808 -0.0011194055 -0.0045795324 0.0018497766 -0.0025802087 0.0042659454 -0.0024272208 0.0007898342 -0.0018844961 0.00050483504 0.0018069851 -0.003926625 -7.062964e-05 0.00069938414 -0.0009776657 -0.003685556 0.00059603434 0.0019381708 0.0036847433 -0.0018475282 -0.00046672113 0.0014135931 0.0002533244 -0.003117516 0.00418685 0.0042561544 0.00058574555 -0.0006648097 -0.0037213163 0.003636172 -0.0010516667 -0.002419585 -0.0038294033 0.0013813782 0.0041692853 -0.0021883254 -0.0017810625 0.0019367384 -0.0033275764 -0.0011298351 0.00095346384 0.00042804377 -0.0030892002 -0.0015567874 0.00040805526 -0.00254127 0.001273972 -0.00090671796 0.0036848625 -0.0033018081 -0.0035665766 0.004897507 -0.0045924834 -0.00080607133 -0.0014014763 -0.0044799964 -0.003955369 0.003123859 0.002251714
weekends 0.0020089536 0.004280354 0.00078746304 0.0036971783 0.0041394522 0.0029067742 0.0008371705 -0.003572061 0.0049159583 0.001429304 -0.0016029929 -0.0026619774 -0.0046655983 0.0007867082 0.0035134843 0.0013071727 0.0035585593 -0.003873576 -0.0013774848 0.0024356144 -0.0009389762 0.000190767 0.0033420753 -0.002681713 0.003933708 0.0027720532 0.0017675497 -0.0010089711 0.0021476243 0.0023264 -0.0016399019 -0.0019411086 0.0024781614 -0.0041707284 -0.0009421096 0.004762782 0.0021605021 0.0022337157 0.0029883357 -0.003507981 0.0026992788 -3.0733645e-07 -0.00023139827 0.003356724 0.0034084255 0.00070877885 -0.0046656053 -0.0012089824 -0.0033076303 0.0038971212 -0.00030104816 0.0013392079 0.0010003634 0.002870408 -0.0029523687 -0.001131559 0.004209811 -0.0042726 0.0023862463 -0.003519063 -0.0025790334 -0.0026756132 -0.0029664552 0.0027386732 -0.0010021972 -0.0017301161 0.0035188533 0.0009745024 -0.0035620886 0.0027539385 0.0037127845 -0.0036578118 0.0013766331 0.0012525916 -0.00153511 0.0023265546 0.0038970625 0.0045227734 0.0032946123 -0.0026939462 -0.0008845432 0.0024377047 0.0022968156 0.0040288065 0.0016100621 0.0016142512 0.0020215372 -0.0023171657 -0.0040731607 -0.0037188176 0.0024109315 -0.0027111857 0.0018494362 0.0008084052 -0.0026688443 -0.0004608077 -0.0048014103 -0.0017592555 -0.0006869738 0.0038248925
lazystarttotheday -0.0031271738 0.012551042 0.013013114 0.008334588 -0.006279249 0.012533866 0.025441315 -0.00636869 -0.0143209845 0.0072680796 -0.009445491 0.006510674 0.0012274486 -0.0065622483 -0.0077636517 0.0037820414 0.014286354 -0.0038760197 -1.443379e-05 -0.020332146 0.012850859 -0.0011421917 0.00016723479 0.0010846223 0.003002556 -0.002515952 -0.016581658 -0.01052027 0.0016412749 -0.0054382323 -0.0009698324 -0.00036785615 -0.0010701164 -0.0061104926 0.0030796356 -0.0102114035 0.009918014 0.009962187 -0.005910512 0.0168018 0.001557325 -0.012698411 -0.01150032 0.016958643 -0.012403291 0.010173426 0.016682152 0.012569524 -0.0004343927 0.006746045 0.007860695 0.0106662065 0.0075564003 0.004546052 0.0076892814 -0.0040196427 0.00800494 -0.0077726035 -0.007931513 0.0020494564 0.0066377674 0.0026878524 0.012401694 0.00048760744 -0.020913221 -0.012883621 0.008503468 0.013423098 -0.025313433 0.0057116547 -0.008390745 -0.0024838233 -0.006037352 -0.009141193 -0.026288312 0.009036279 0.0166048 -0.006412082 0.0065757134 0.0008676456 0.0120022185 0.007934348 0.020196345 0.0070790066 0.012433816 -0.02147003 0.019125614 0.00069623615 0.001660417 0.00252169 0.008843747 0.0042611803 0.010984392 -0.01188883 -0.009138492 -0.021913765 0.003285946 -0.010898247 -0.014609621 -0.0022702483
themorningafter 0.0014120588 0.009531101 0.0060826996 0.004278899 -0.005031376 0.0077941786 0.01873314 -0.0026309786 -0.013088163 0.0038315658 -0.005716529 0.007674343 -0.00015871582 -0.0067049065 -0.0055273613 0.005199421 0.00060741295 0.0031961768 -0.0017044506 -0.010246017 0.008093862 -0.0012291197 0.0065890555 -0.0048875273 0.0019045165 -0.004231785 -0.006538706 -0.0008210627 0.0021560048 0.0032358011 0.0010627036 3.0415255e-05 -0.0016687012 -0.0083801625 -0.00045773113 -0.0036998861 0.0071142097 0.010324667 -0.005112682 0.010789907 -0.0026495492 -0.0043286444 -0.011744605 0.009819314 -0.0064211483 0.0060018324 0.004539933 0.0036970912 -0.0058470964 0.0038568268 0.004987329 0.00658769 -0.0006936445 0.0025741423 0.006316264 0.0027008685 0.0018810685 -0.003369106 -0.0023405629 -0.0027541649 0.0051666168 -0.0040403088 0.005634864 0.0030025737 -0.0137552675 -0.0046392214 0.00976107 0.007612571 -0.012908686 0.0027168707 -0.005572085 -0.0032789956 -0.00094846834 -0.0023838556 -0.009875159 0.0059099337 0.0012802422 -0.004003764 0.0019063021 -0.00047910315 0.0057388633 0.0020636206 0.008172313 0.005260312 0.0053278487 -0.012142091 0.011620859 1.8319684e-05 -0.001709703 0.0014901074 0.005893082 0.0044214 0.005696069 -0.0020618716 -0.005216121 -0.004594281 0.005711999 -0.0045564673 -0.010048903 0.00018723114
andthesweetestroses -0.010824985 0.011256764 0.009341383 0.007687117 0.0013531095 0.020710915 0.03459647 -0.011399755 -0.026483474 0.0064894706 -0.010651867 0.0075613866 -0.004700305 -0.009330253 -0.008046567 0.012669633 0.011386496 0.0026741822 -0.006516775 -0.025322616 0.022100415 -0.0024139485 0.0022720173 -0.0062015727 -0.0017388458 -0.0068423995 -0.027264796 -0.0039854227 0.0054596206 -0.0049860044 0.0025543894 -0.007870453 -0.005350046 -0.0138526 0.0066169617 -0.013149781 0.012765316 0.014003117 -0.0022364024 0.019574033 -0.002448053 -0.015021454 -0.012458827 0.02271503 -0.020928798 0.011156546 0.019624876 0.012864593 -0.0054238182 0.003482978 0.0047530523 0.01859141 0.0005230936 0.008341145 0.004892587 0.0018975266 0.0071886736 0.00037792133 -0.008715145 0.002131188 0.015262467 0.0054483833 0.014556955 -0.00018800072 -0.021760508 -0.014320465 0.017597768 0.01728129 -0.032379784 0.0101905875 -0.012541611 0.0011375116 -0.0059255096 -0.007018067 -0.038795963 0.013995509 0.01100084 -0.0109797595 0.014396601 -0.0002264014 0.019014832 0.008886089 0.031272434 0.0094769 0.010920899 -0.025457837 0.015187254 -0.002504748 0.006650251 0.002942951 0.011067753 0.007780103 0.017987128 -0.015838709 -0.015919996 -0.02919277 0.0021935357 -0.012518009 -0.02348166 0.0016587921
tuesdaynight 0.0035452913 0.010803071 0.010848127 -0.0018099503 -0.0017398002 0.0038042846 0.014149383 -0.010531639 -0.003516017 -0.00044547155 -0.004105813 0.0065137832 0.0007636817 -0.0021397197 -0.005930222 0.005191627 0.0021223247 -5.264865e-05 0.002238611 -0.011801784 0.012291376 6.8109664e-05 0.0015693929 -0.00094510335 -0.0018889247 -0.0016202176 -0.00646439 -0.0040668417 -0.0006868151 8.675063e-05 -0.0044482015 0.0010278249 0.0061730547 0.00091928634 -0.0017316529 -0.007315925 0.0062362305 0.0071788942 -0.0054223873 0.011500494 0.0054294365 -0.003948537 -0.0038435024 0.014069351 -0.0092257755 -0.0034821804 0.009006892 0.005370854 -0.0032916167 -0.00034507923 0.0006688011 -0.0009094014 0.0055837603 0.00618666 0.0029561098 -0.0015773311 0.008484885 0.00137347 -0.01103405 -0.004856104 0.0054533146 -0.0024880532 -0.00023582403 0.0017445281 -0.0113772955 -0.0054072337 0.007708816 0.010640292 -0.020154923 -0.0011759686 -0.0046909456 0.0044214046 -0.008761584 -0.0027105077 -0.008874331 0.00622185 0.0051614987 -0.005914482 0.0058003957 0.0019315531 0.004097214 -0.0013972039 0.009746215 0.0022411954 0.009855593 -0.015671821 0.0090661915 -0.002651556 0.005427931 0.0009395511 0.0043953983 0.007550595 0.003447082 -0.0019431746 -0.009264948 -0.007845914 0.0039562634 -0.0051372843 -0.0096646715 0.0014324501
wishiwerethere 0.003569723 -0.0027733617 0.004059395 -0.0036529396 -0.004730449 0.0037740665 -0.0043670298 -0.00050840806 -0.002078147 0.0016435208 0.0005055773 -0.0017404514 0.00045771524 0.0017643515 0.0033588978 -0.0009322935 0.0016905777 -0.002781003 -0.0026833033 -0.0011605502 -0.0017127227 0.0026479494 0.0046374258 0.0042736167 -0.0003970759 0.00212736 0.0017928127 0.0015636869 0.0011013644 0.0025098305 0.0033613108 -0.001730752 0.003282779 -0.0030368452 -0.0017286409 0.003702906 -0.003347416 -0.0012761645 0.0038507786 0.001973732 0.0023330771 -0.00084331864 -0.0028213477 0.00067666825 -0.0042635994 0.0032786587 -0.0046427827 0.0035184482 -0.0049806666 -0.001724466 -0.0022559369 -0.0042261374 -0.0021802557 -0.0013304185 0.00016891258 0.0039513875 -0.0027895814 -0.0012910198 -0.0025105607 -0.0039366144 0.0021534562 -0.0010183216 0.0018771002 -0.0035137753 -0.003495618 0.0023178314 -0.0039765323 -0.0012740714 0.002583745 -0.0017423313 0.0029683914 0.0009864611 0.0044276966 0.0032687634 -0.0041691056 0.0046341354 0.004501328 -0.0036358945 0.004287498 -0.0016700805 0.0026010787 0.002447113 -0.0023943733 0.0012777583 -0.0024199449 -0.0021497363 0.0012731631 0.0022190642 -0.0020788682 -0.0037967556 -0.0021612966 0.004609257 -0.0021605587 0.0006359746 -0.0017618132 -0.004221251 -0.0023267013 -0.0025113958 -0.0035808603 0.0046431627
postcardfromvenice -0.005694838 0.014271852 0.011340157 0.011170642 -0.0016337653 0.02048641 0.026514722 -0.0060606236 -0.013754518 0.0043397457 -0.007250817 0.012086714 0.0010410352 -0.0023654103 -0.0043907682 0.01030991 0.014329568 -0.00056374865 -0.0012943135 -0.02401919 0.013604806 -0.0031662544 -0.0005817973 -0.0037966233 0.0022938831 -0.009390593 -0.021617465 -0.010613273 0.0026732185 -0.004397745 -0.003766516 -0.0009805155 -0.00062509783 -0.008824 0.00416129 -0.010665208 0.018993385 0.013404682 -0.0032440494 0.022723503 0.006378856 -0.012585585 -0.013447646 0.016707476 -0.017525075 0.0088529615 0.01643971 0.013887777 -0.0030490926 0.0033064422 0.009628895 0.0075263497 0.0038946797 0.0022401712 0.009979494 -0.0020546676 0.008941322 -0.005869342 -0.014345178 -9.4646086e-05 0.015692301 0.0019186509 0.009966694 0.0011152627 -0.019482257 -0.006667321 0.014749725 0.013239943 -0.027729519 0.0028014053 -0.005268144 -0.001778449 -0.008311869 -0.007497921 -0.033330992 0.0128405485 0.016305622 -0.009656985 0.013783451 0.0005590459 0.018252239 0.0038897833 0.029267173 0.0045518675 0.011407864 -0.028323168 0.021617498 0.0032734226 0.0004330659 0.0042043147 0.0098403655 0.005059569 0.019759156 -0.013480962 -0.013803674 -0.0201768 0.005629661 -0.012133697 -0.020151298 0.0031559812
decorativegourdseason 0.0038175993 0.00025289366 -0.00434612 6.41495e-05 -0.003423056 0.0025429903 -0.0032105749 0.00044206902 -0.0034135748 0.004707534 0.0001546042 -0.002745695 0.0029278677 0.002358914 -0.00062742643 -0.0031674448 -0.0033676284 0.0014651418 0.0039272318 -0.0040934137 -0.004329017 -0.0003744443 0.0031618876 -0.00015242258 -0.0030444765 -0.0030722015 0.002150604 0.00480914 0.0026502423 -0.0021391946 0.003999701 -0.0041228742 -0.0018633592 0.0029051192 0.00050880713 -0.0029606984 -0.004376754 0.004119749 0.0049621603 0.0011869026 -0.0024646292 0.0008959267 -0.0022773724 -0.000111586414 -0.0010248553 -0.004243229 0.004648024 -0.004448082 0.0008465643 0.00043716654 -0.0012917011 -0.0016857986 0.003089629 -0.0043137 -0.003055707 -0.0047050314 -0.0042453185 -0.0020983815 0.0024589426 0.004422649 0.001252708 -0.0025260746 0.0022223634 -0.0035054944 0.0032577533 -0.0024367701 0.0025739367 0.0042891316 -0.0024062681 -0.0012131028 -0.0049865255 -0.00051868195 -0.0002065557 0.0007399814 0.0008505932 -0.0012942904 -0.0022442846 0.0030308738 -0.0036188392 -0.0008966704 0.0038879113 -0.0024018115 -0.0017921161 -0.00043562753 0.003585889 0.002275555 0.0013515013 0.0024236361 -0.0041616014 0.00071481336 -0.00045162905 0.00013735192 0.0034522265 -0.0019918901 -0.0044787317 -0.0036855119 0.002510591 0.0027802284 0.0027067862 0.00054476876
wildfoodlove -0.01040157 0.01861563 0.0141305085 0.0073273806 -0.003794537 0.017539283 0.032832224 -0.010102641 -0.019069422 0.004578844 -0.0105333915 0.0122046005 -0.0016502651 -0.0073829647 -0.007777808 0.010711071 0.016100643 0.0029621008 -0.0026343714 -0.018804519 0.019396791 0.0010732225 0.0007876622 0.0018943462 0.00453482 -0.011516601 -0.019535542 -0.010570824 0.0019695873 0.003059638 0.0060069975 -0.008652114 0.004439338 -0.014602057 0.0015870688 -0.008044603 0.01570035 0.011168131 -0.0066543664 0.024797836 0.0008104825 -0.014494396 -0.016923713 0.020268088 -0.01911195 0.0037875054 0.018737035 0.013534255 -0.0047645196 0.006784447 0.009855004 0.006489178 -5.865505e-05 0.0068820533 0.010364392 -4.845856e-05 0.008262398 -0.003561605 -0.0061449897 -0.006541511 0.0068218666 -0.0023462013 0.011108185 5.9708633e-05 -0.01836789 -0.008951857 0.0093737105 0.015522311 -0.03370085 0.008494518 -0.013658815 0.0031528894 -0.012779829 -0.013099089 -0.03233241 0.011403898 0.01786704 -0.01239597 0.005081668 -0.004048214 0.017340727 0.002713209 0.030720899 0.009032758 0.010926355 -0.030468062 0.013769298 0.0025716925 -0.0011491139 0.0066942456 0.010538205 0.0048601264 0.012427098 -0.015610509 -0.013615815 -0.015418138 -0.0030409915 -0.01561652 -0.014714506 -0.0023903744
tomatoseason -0.0014873224 0.0009206254 0.00038729655 0.002897882 0.0015497506 -0.0031140822 0.0013305717 0.0006446643 -0.0040479144 -0.0041246377 -0.0036084373 0.002376421 0.004831518 -0.0034383605 -0.00010344945 -0.0009361948 -0.004049862 -0.0031463092 0.0019814163 0.000949285 0.0033541378 0.0009922492 0.0011276812 -0.00049747806 -0.0048557296 0.00320814 0.0018534982 -0.003044031 -0.0003226041 0.0018888558 0.0017890101 -0.0013469553 0.0030994536 0.0034573218 -0.003074369 0.0036597382 -0.0012533932 -0.002362532 0.0033534523 0.00032324437 -0.00398974 -0.002335214 0.002320793 0.004583113 -0.0022901671 -0.0032449071 -0.0020074253 0.0003181263 -0.0034538805 -0.0038992367 -0.0048836605 -0.0016434644 -0.0040715835 -0.0011641604 -0.0045343116 0.0041755196 -0.004143372 0.003170224 -0.003753624 -0.00035285344 0.0012866319 -0.00239457 0.00046372367 -0.004555295 0.0026923926 0.0042626746 -0.004007941 -0.002907489 -0.0023585092 0.0028277757 0.003948874 -0.0028021818 0.00427855 -0.0024915533 -0.0024290471 -0.0036166073 -8.8817906e-05 0.0028247666 -0.003556876 -0.0018041818 -0.0026212453 -0.0043002237 0.0030014263 0.00040437886 -0.0048653632 -0.0010292572 -0.0028681392 0.0026582289 0.0032210685 0.004709875 -0.0013191556 0.00311789 0.0029895985 0.0021023015 -0.0009587044 -0.0048786732 -0.001393717 -0.0044912654 0.002660436 0.0025096629
peakperformance -0.00035200873 0.0008181315 -0.0038275432 0.0037460085 -0.0042850445 0.0047237175 -0.0021660852 0.00035361806 -0.0040166667 0.0041012177 0.0013617426 -0.0016922562 -0.0023142195 -0.0022106606 -0.004153833 -0.0030215578 -0.0023217702 -0.0003464087 0.0024402756 0.0034475774 0.001511246 -0.0025922458 -0.0037342352 -0.0023755895 0.0037579462 -0.0022699172 0.0014643478 -0.0011079048 0.001522122 0.00067047495 0.0012210528 0.0038094418 -0.002203477 0.0034595747 -0.0027843718 0.0016292701 -0.004495063 -0.0028462785 0.00016137073 -0.0014778757 0.0018869955 -0.0016412109 0.00089612417 -0.0047774957 0.0033531124 0.0037997188 -0.003254218 0.0035864012 -0.0017679923 -0.0013590581 0.002090814 -0.004740975 -0.0018889201 0.0035531875 -0.0014212232 -0.0011076354 0.00040895306 0.0023260484 -0.0019687724 -0.0032979797 -1.5933532e-05 -0.002560324 -0.00048202043 -0.0018776262 -0.0030475021 -0.0045552687 0.003961215 0.0031817118 0.003695459 -0.0010061683 0.0012663985 -0.0028055517 0.0031260075 0.002356676 0.0043760026 0.00062794564 0.0012758486 -0.0026022827 0.002885528 0.0025311154 -0.003663904 0.0025615776 0.0018730294 -0.0030826265 0.004145476 0.0034999195 0.0028081406 -0.0011019593 0.0015554428 0.0012582378 -0.0012765138 -0.004546361 -0.00062840385 -0.002013548 0.00096767535 -0.00015317323 0.0038056066 -0.0048219613 0.0040457044 0.0008076723
leoseason -0.0057518957 0.009972182 0.0039433977 0.006288525 -0.004606065 0.00947184 0.028778791 -0.008679489 -0.015019001 0.004684265 -0.0032036086 0.0044507287 -0.0063468018 -0.0026936403 -0.0047046775 0.0061696395 0.004535414 -0.002872407 -0.003793789 -0.015105817 0.018951451 0.0030235266 0.0012576722 -0.005657371 0.0006894242 -0.002163031 -0.018364042 -0.008648752 0.0039562797 -0.0047884136 0.0048846086 -0.0013100705 -0.0014152619 -0.0069459835 0.0014779042 -0.0047353785 0.010375931 0.014347867 -0.005735824 0.01777678 -0.0028911629 -0.00916267 -0.013818214 0.016826352 -0.0160806 0.01008435 0.018210491 0.013047681 -0.00141131 0.0045171445 0.0005519288 0.007833736 0.0036831019 0.0018006605 0.007170697 -0.00534406 0.010419337 -0.0048542223 -0.01212437 -0.00012589026 0.007405919 -0.002766176 0.012649167 -0.00059939496 -0.014657722 -0.010051983 0.010260227 0.010640782 -0.02678198 0.0017622117 -0.008545873 0.0057653496 -0.006916494 -0.0051057325 -0.02690968 0.0044347257 0.0084577855 -0.007908856 0.009219469 0.0015479462 0.0110888155 0.00053574075 0.015616923 0.004581317 0.011112509 -0.021238096 0.016368855 0.0023702446 0.0015313085 0.0033077188 0.005313835 0.003460707 0.016902652 -0.005510189 -0.0062989877 -0.013378264 -0.001750475 -0.010778311 -0.016048199 -0.0014528618
summerismagic -0.0071309507 0.0143322 0.008729643 0.011446291 -0.0066888486 0.012847179 0.028041681 -0.0067814603 -0.01487783 0.006332564 -0.01084136 0.0092504425 -0.004756443 -0.008804468 -0.0009585609 0.008728585 0.010634745 -0.0018404974 -0.0086295735 -0.021193847 0.019334814 -0.0018237773 0.0031378502 0.002231598 0.0066181514 -0.0043806853 -0.017144365 -0.0041660196 0.0047930763 -0.0013955274 -0.0012522497 -0.0004082424 -0.004106362 -0.009397718 0.0043188287 -0.0037923963 0.015157796 0.0084527675 0.0020643994 0.015285138 0.0032682542 -0.013338227 -0.014556886 0.018864304 -0.016641654 0.008288387 0.013788368 0.007057322 0.003442319 0.009301656 0.0057557956 0.01061071 0.0052480134 0.0077289934 0.012060466 -0.001110997 0.009447427 -0.0070621 -0.0097296275 -0.0048467703 0.011200399 0.00400255 0.016109351 -0.0002376162 -0.013092086 -0.009021029 0.012036401 0.014844329 -0.026859837 0.008070914 -0.0039935084 -0.0034290634 -0.0026270756 -0.009191055 -0.03172624 0.013348444 0.009646683 -0.0101306485 0.011857206 0.003021139 0.018450769 0.004940833 0.01913173 0.0050253845 0.003425639 -0.01923841 0.012496474 0.004842046 -0.0022024733 0.008342704 0.004195706 0.006876209 0.016539501 -0.009074468 -0.014187914 -0.019253515 -0.00019304825 -0.012575888 -0.01326879 0.0036852024
feedlife -0.018782772 0.030826837 0.026966123 0.022253579 -0.0038986513 0.044501867 0.08577986 -0.02029832 -0.045781698 0.004626171 -0.020885127 0.026452001 0.0025461477 -0.021171616 -0.007822591 0.0162683 0.03066352 0.0032804653 -0.009779662 -0.056725193 0.04117759 -0.0055077816 0.0051953574 -0.009060387 0.01044494 -0.01764037 -0.05257498 -0.018698854 0.011181309 0.0028496222 0.0022088173 -0.012380019 -0.009890477 -0.026090391 0.0091214925 -0.022843687 0.03720175 0.034279328 -0.006784348 0.058645915 0.0039381175 -0.031136626 -0.036067974 0.045161497 -0.033600006 0.022720966 0.045988902 0.04272399 -0.007533729 0.018600414 0.021420557 0.03110014 0.0062163337 0.00782858 0.015997533 -0.0044856374 0.0209373 -0.008341095 -0.025027188 -0.0046189567 0.034957465 0.005248373 0.031192513 0.0056893933 -0.04792864 -0.018541394 0.042054247 0.043871928 -0.07151915 0.014766676 -0.021470675 -0.000997559 -0.015972912 -0.024059238 -0.083582684 0.018979754 0.029590813 -0.018920505 0.02649261 0.0014444939 0.04329286 0.020387882 0.06534717 0.013666369 0.030835522 -0.06883615 0.045619614 0.0010832003 -0.0009347705 0.008324345 0.011563797 0.02609541 0.038243737 -0.035886064 -0.02647658 -0.051645026 0.006402656 -0.03444783 -0.05382977 -0.002494786
summerlovers -0.00023813732 0.0013364512 0.004228481 -0.0043757297 -0.0015750718 0.00033601513 -0.00021487055 -0.0036166678 -0.0039000195 -0.0047320826 -0.004913094 -0.0033523035 -0.00086706737 0.0012762258 -0.0020331328 -0.0038943707 0.00053688465 0.00027067354 0.0019359868 0.00027417298 -0.0029808814 0.004767187 -0.0038569241 0.0023259302 -0.0040217545 0.0024126493 0.00022510067 0.0034134118 0.0035319254 0.0039442945 -0.004027561 0.004227615 0.0019527758 0.004043118 -0.002818092 -0.0018139665 0.0017736251 0.0044615725 0.0012642927 -0.0034939544 -0.0030015993 0.0036695693 -0.0009990754 0.004252052 0.0039761886 -0.004201924 0.0032983143 -0.002103461 0.0049059466 0.004837402 0.00048037013 -0.0016241146 0.0011161184 -0.0017759823 -0.001317404 0.0014801049 -0.0014180606 -0.0012638646 0.003434998 -0.00391898 -0.0030401743 -0.00013335282 -0.0030475054 -0.0031256746 -0.0013859272 -0.0004334813 4.0441286e-05 -8.730451e-05 0.0019064932 0.0011878978 0.0007917923 -0.002658928 -0.0014808052 0.0009274944 0.0021775789 0.0023478782 0.0021631438 0.0037986739 0.0017236001 0.0049138507 0.0031281821 0.0033346573 0.004970611 -0.0035979133 -0.00116122 -0.00073919725 0.0034336718 0.0030183066 0.0049438756 -0.0020826661 0.0018844982 -0.0011055619 -0.0030202228 -0.00043141842 0.0041578095 -0.0005588271 -0.0038597137 0.003626408 -0.0020343703 -0.0035162335
alpenglow 0.002587386 0.0043531787 0.004194608 -0.002030843 0.0016069971 -0.0013972353 -0.0036892854 0.004640146 -0.00013917964 0.0018965285 -0.0012914883 -0.0012497467 0.004622304 -0.0033657593 0.0018780502 -0.0021940933 0.0022277152 0.0022739754 -0.002036314 -0.0018303941 0.003133215 0.004986585 -0.004648064 0.0040992824 -0.0017251445 0.0049801497 -0.004158684 0.00097472174 0.0026475792 0.0015575341 0.0019684602 -0.00068421103 -0.003446173 0.0007367516 0.0030754842 0.0048628766 0.0009926083 0.0016782354 0.0045515047 -0.0020602774 -0.00019073859 -0.0026691752 0.0015812754 -0.0045417664 -0.0036390268 0.00450428 -0.00036906078 0.0010574488 3.7280843e-06 -0.0049079848 -0.00067981286 -0.0017058498 0.0032087108 0.0038304273 -0.0021282178 -0.0011464721 0.002532205 0.004804766 -0.0013811172 0.00069860974 -0.002248293 0.0007753009 0.0012976741 0.0021167458 0.00015263818 -0.00027806405 0.0032685343 1.3924204e-05 0.00020971429 -0.0034855222 0.0018013502 -0.00299385 9.975862e-06 0.0035970835 -0.0009826273 -0.00043202657 0.00021458557 0.0038767233 -0.0014791077 -0.0048504453 0.0044380175 0.0027276091 -0.0011267704 0.00021773623 0.0001192973 -0.003982228 0.0006727171 0.0008472889 -0.0018218947 -0.00018789247 0.0042228624 -0.00024433387 0.004668041 -0.00055679074 0.0043035084 -0.0006015464 -0.0025274914 -0.003412587 -0.0044416212 0.0009249104
weekendwarrior 0.0005918299 -0.0029258702 0.0013033273 0.0039003054 -0.0025839268 -0.0014402508 -0.0021523642 0.0032310924 -0.004556435 -0.0034184349 -0.0047342693 0.0015038662 -0.0037263923 0.0032078736 -0.0019411927 -0.0043724785 0.0017160038 -0.004408692 -0.0009196573 0.00031931978 0.0016912632 -0.0022678708 0.00025484804 0.0032593776 0.00019190274 0.0044822935 0.0033108955 0.0038158372 0.0038664779 -0.0025074964 -0.004160946 -0.00082724215 -0.0012459678 0.00020806305 -0.0032000593 0.0007062303 0.0035110656 0.0017900066 -0.0021829873 -0.00035669375 0.0025234772 -0.003469978 0.0032332977 0.0020757825 0.0027534566 0.001966158 -0.0006055231 0.0036520166 -0.00429943 0.0038351063 0.00026018312 -0.0005373233 0.0010427064 -0.0019145841 -0.001896501 -0.0040708864 0.0007174583 0.0022947108 -0.0038309316 -0.0024993003 -0.0017681259 -0.0044155484 0.00022114674 -0.00018388033 0.00446406 -0.0048869974 0.00026534917 -0.00038072607 0.002963786 -0.0040724836 0.001054924 0.0036746506 0.0010637706 0.00091534853 -0.0013327359 -0.0024718945 -0.0029845648 0.002109759 -0.001000368 -0.0037943416 0.002136624 0.0008006734 -0.002474175 0.00038764998 -0.0048251064 -0.00049854675 -0.004453247 -0.0037274014 0.0035011321 -0.0036689965 8.877739e-05 -0.0038303207 0.00040111784 -0.0011432935 -0.0038569802 0.002018577 -0.0014154112 0.00027702563 -0.004218614 0.0042470777
figtastic -0.0058769765 0.014204813 0.012838455 0.0018994226 -0.004980225 0.014644576 0.029917568 -0.0052805357 -0.020793883 0.007103927 -0.004804678 0.004753979 -0.006390413 -0.010549723 -0.0043345494 0.009322229 0.012507825 0.0028342356 -0.0037425247 -0.021073263 0.012923774 -0.0025125276 -0.00066012784 -0.002189246 -0.00023992997 -0.0035000846 -0.018767243 -0.0034954983 0.00048528067 0.00055795343 0.0025093283 -0.006547583 0.0013379198 -0.0046890853 0.00097399065 -0.0064675733 0.01140702 0.013755801 0.001769646 0.021385292 0.0014120009 -0.007709926 -0.014208003 0.018646615 -0.017012924 0.007420809 0.021937339 0.009908507 0.0009244623 0.0058855107 0.0014375895 0.009620902 0.0037613704 -2.8972927e-05 0.0023842554 -0.0020136116 0.009364268 0.0007244028 -0.008634666 0.002838884 0.013524365 0.0011480473 0.0101257535 0.006329791 -0.020685347 -0.0096313 0.016869085 0.017103618 -0.027584497 0.003024259 -0.0065616043 -0.00087951537 -0.007194953 -0.0041352334 -0.027140398 0.007778301 0.0098091075 -0.011702029 0.0077966284 -0.0029401453 0.011201403 0.0063904007 0.022626808 0.0032175581 0.0059987367 -0.028313417 0.017064549 -0.0036156077 -0.00041398164 -0.00055771036 0.009474054 0.00896348 0.017593438 -0.011731717 -0.009536399 -0.016834488 -0.0029887399 -0.015612168 -0.018040625 0.0039588916
figonometry -0.0006276736 0.010305419 0.01061125 0.009012951 -0.005234641 0.012915491 0.024080355 -0.002608104 -0.01694733 0.002689603 -0.008328686 0.012053059 -0.0016265721 -0.0031503823 0.0011752299 0.007835476 0.0059652952 -0.0032246416 -0.0036846378 -0.01165792 0.015234725 0.0005054027 -0.0011185148 -0.0065282136 -0.00079906953 -0.00084775646 -0.01126139 -0.0014583175 0.0067417556 9.1913535e-05 -0.0018133589 -0.0041213464 0.0023741873 -0.0008157231 -0.0010374482 -0.011699459 0.011323318 0.0054252655 -0.003801402 0.012918517 0.0012155883 -0.009423947 -0.013295409 0.013444523 -0.01496403 -0.00042815393 0.0078059123 0.0117892325 0.0014845451 0.0020206608 0.006857445 0.011767635 -0.001574169 0.0052336543 0.0017060075 0.0018371674 0.010330738 -0.006057873 -0.0045596412 -0.003311133 0.007996128 0.0017916086 0.012409876 0.0036619806 -0.0075726523 -0.004233928 0.0068370053 0.0115064485 -0.023412548 0.004201636 -0.008767738 -0.00096594606 -0.002724969 -0.006491152 -0.015460154 0.009503412 0.013435372 -0.009693808 0.00470327 -0.002274163 0.01608326 0.0057686176 0.019278882 0.00072017417 0.010323086 -0.014743764 0.012437988 0.0007649436 -0.004882135 0.0053829425 0.009034508 0.0026543022 0.015691303 -0.0099465 -0.0077449023 -0.010568805 0.0038047011 -0.0067059016 -0.013884692 0.0029134904
fignewton -0.009145429 0.023485573 0.021218063 0.018501276 -0.0046404027 0.031895123 0.056316778 -0.014378482 -0.03387587 0.009731552 -0.012950979 0.017442755 -0.0046763457 -0.011454187 -0.008984994 0.013104096 0.016365977 -0.0033508244 -0.0031968746 -0.041884027 0.027866144 -0.006378058 0.008378199 -0.0040729106 0.0015077441 -0.011590921 -0.041910443 -0.010247801 0.010845174 -0.0065782308 -0.00249791 -0.013578072 -0.003453938 -0.018477451 0.003742237 -0.015492595 0.025071744 0.026593465 -0.005376149 0.038267504 0.0026927316 -0.026750416 -0.030221207 0.03197089 -0.02497566 0.01408416 0.028797965 0.022435943 -0.0032506373 0.012610683 0.0151231475 0.018466113 0.009347329 0.012972995 0.0138291335 0.0044637388 0.018544989 -0.009231625 -0.019362576 -0.008314348 0.02124278 -0.0008472636 0.02358467 0.0051313112 -0.029586915 -0.01833512 0.02169636 0.026677355 -0.050662868 0.007138535 -0.01448586 0.0007072856 -0.011380855 -0.0196502 -0.058362518 0.010988709 0.018045956 -0.01292197 0.013580822 -0.0013230649 0.032090016 0.011310749 0.046575934 0.0106527265 0.0239098 -0.043930374 0.03543604 -0.0052491277 0.00023008182 0.005087014 0.0061621447 0.012493805 0.03198743 -0.022253275 -0.027025964 -0.038537882 0.0028520292 -0.028353963 -0.03429332 -0.0002739924
summerfridays -0.04106329 0.08597436 0.044732697 0.05056397 -0.0021440836 0.14688905 0.23298422 -0.05386001 -0.13525476 0.028278686 -0.07540477 0.08251517 0.016397728 -0.05064711 -0.03359721 0.06662261 0.081550844 -0.0038745801 -0.019302389 -0.143606 0.12721449 0.017769845 0.0153628085 -0.0123274475 0.012159878 -0.05584848 -0.15659681 -0.07697932 0.021595877 0.004082965 0.010124296 -0.045851007 -0.0380896 -0.06688651 0.025860498 -0.070952274 0.091591015 0.103345 -0.02629505 0.14760788 0.013868694 -0.10268223 -0.091455914 0.12313371 -0.100154005 0.057366304 0.11858754 0.1299125 -0.022323165 0.0516997 0.05853858 0.096290894 0.01960118 0.030344144 0.05066317 0.003881879 0.05634875 -0.038119256 -0.06564034 -0.01598119 0.09070761 0.0006295747 0.10897539 0.028904915 -0.11048135 -0.07233121 0.10433218 0.1286008 -0.22077417 0.039410893 -0.06279504 0.010881324 -0.042286612 -0.07637374 -0.24031356 0.05737258 0.09596923 -0.06757022 0.080353014 0.0037894396 0.12510107 0.07480197 0.16580178 0.038815346 0.054631907 -0.19637819 0.118091434 0.00903331 -0.018632267 0.024754573 0.04148899 0.06573092 0.12819338 -0.09048417 -0.073039964 -0.16880827 0.013662214 -0.08293086 -0.15296684 0.0038600408
optoutside -0.0037771384 0.0039375266 0.0039205896 -0.0020767176 0.0018962971 -0.004807396 0.00092177745 -0.0014329148 -0.00020523649 -0.0028759318 0.0039755516 0.0017618113 0.0028501851 0.0010578977 -0.00033081602 -0.0017138582 0.0029387726 0.00080054766 0.0011998252 -0.0012357682 -0.0038330418 -0.004513703 -0.0034349512 -0.00093730167 0.0030400986 -0.0021014826 -0.003218704 -0.00094648637 -0.0020937687 0.0043641683 0.0024507702 -0.0006891689 -0.0028340041 -0.0013444752 0.004753641 0.001367047 -0.0029986787 0.00015940331 0.0011341367 -0.004276323 -0.0011723565 -0.0019282943 -0.00046151318 -0.0035318553 -0.004698606 0.00011696527 0.0034945952 -0.0042455634 0.0012239623 -0.0025310188 0.0014836378 -0.0010750126 0.00035154028 0.0042283162 -0.0014010393 0.0024812035 0.0029885927 -7.884903e-05 0.003305805 -0.0024730915 0.003512417 -0.00287144 -0.0041318107 0.0031073447 0.0042718677 -0.0017750126 -0.00015421165 -0.0024490242 -0.0016391594 0.004010436 -0.0023288399 -0.0026042194 0.00019750558 0.0018922086 0.00077362126 -0.004509179 -9.4838906e-05 0.0049575344 0.0038816603 0.0036212392 -0.004233565 -0.0014080077 0.0018646102 -0.0045139054 -0.0048686783 -0.002399404 -0.0026414907 0.0038757185 -0.0026309437 -0.0042625247 -0.0047538565 -0.002503733 -0.003951024 -0.0028508091 -0.002968645 0.0036388012 0.0004900531 0.0027758582 -0.002129452 -0.0004891665
mood 0.0018658019 0.0044867788 0.0044688666 0.0015770099 0.0019610166 0.001314343 -0.0038590233 0.0006814194 0.004437198 -0.0003224099 -0.002413935 0.0049584163 0.004921158 -0.0008922247 6.3914806e-05 0.0018917411 0.002782323 -0.00440373 0.0033830842 0.0039631315 0.0036084224 -0.0006301077 0.0027258927 0.0028333701 -0.003300561 -0.004789819 0.00048594223 0.00045531616 -0.003704919 -0.0045575798 0.0018649693 -0.0009357203 -0.0038146144 0.00064479886 0.004722463 0.0039545624 0.0023175855 -0.00033025816 0.0016813604 0.0030660126 0.0020321435 -0.004263678 0.0010709548 -0.001949995 0.004317061 -0.0013480191 0.00036807498 -0.004189374 -0.003737108 0.003308367 -0.002697686 -0.0023558014 -0.004915167 0.004355479 -0.0036228048 0.000603152 0.00067624496 0.0020513833 -0.0017676048 0.0015022419 0.0029415712 0.002028979 -0.0008804081 0.00032623392 -0.00042200135 -0.0015334832 0.003315203 -0.0024369096 -0.0024996644 0.0028872946 -0.00021579396 -0.00025357073 -0.0016794521 -0.004767695 -0.0022175943 -0.0020701156 -0.0030900566 0.002183522 0.0004145843 0.0009539109 -0.004816726 -0.00010343315 -0.003961385 0.001945023 0.002478118 0.004895431 -0.0049885744 -0.0045675216 -0.00019944366 -0.002981121 0.00060452055 -0.0015706897 0.0029094536 -0.002322818 -0.0025488096 0.0028643794 -0.004144592 0.0033966983 -0.0043510697 -0.0034126346
joyspotting -0.02904136 0.056344464 0.04309908 0.03132695 -0.017608773 0.08435583 0.13685027 -0.03187187 -0.07959329 0.00998488 -0.03881167 0.04183427 -0.001145324 -0.027793922 -0.019591676 0.03588072 0.04791763 0.0018261061 -0.011960069 -0.08733245 0.0772039 -0.004589665 0.015513598 -0.009194512 0.00803504 -0.028770696 -0.09507362 -0.037401088 0.018648416 -0.0066762613 0.008173861 -0.028739655 -0.012621572 -0.041305393 0.022597669 -0.0470506 0.058317706 0.053483114 -0.008359206 0.08782317 0.0016537929 -0.05486807 -0.06059223 0.07743191 -0.06300609 0.04027297 0.081865415 0.067132615 -0.009472688 0.024656652 0.025115702 0.054413322 0.01683196 0.025563043 0.028569741 0.001207937 0.03478425 -0.015436174 -0.043799743 -0.0095114205 0.05025912 -0.0015479827 0.055687357 0.012797104 -0.07239715 -0.03979648 0.067297705 0.074456416 -0.12357106 0.021594992 -0.04276735 0.006889937 -0.030256731 -0.040121295 -0.13868384 0.03555772 0.057502914 -0.04115824 0.042486355 -0.003753919 0.08119043 0.036965024 0.10475044 0.024992486 0.042024843 -0.11660569 0.07848692 -0.0070683286 -0.00076061534 0.015386671 0.024291985 0.041269496 0.072889194 -0.057232272 -0.052168258 -0.092062324 0.010563965 -0.053719275 -0.08540364 -0.0011702463
ilovesummer -0.003966523 0.012167486 0.0047755265 0.0023027996 -0.0007330681 0.010556587 0.029899908 -0.0020603803 -0.015407677 0.0063795676 -0.00735284 0.006097977 -0.0011574165 -0.009475243 -0.0019293689 0.008507547 0.0048272056 -0.00094926235 -0.008351101 -0.016448477 0.014151115 -0.00012239753 0.006131979 -0.0006361224 0.007814363 -0.0038173238 -0.014081224 -0.009266775 0.005312861 -0.0041663963 -0.00091319723 -0.008840311 -0.006023141 -0.0132170245 0.0006006217 -0.011556193 0.010060587 0.0105214985 -0.0033241708 0.016992496 0.0009114599 -0.0127930045 -0.011061799 0.009256527 -0.013613116 0.008593407 0.011690715 0.011722757 -0.0057843276 0.004381657 0.00040890038 0.0043410356 0.0056733624 0.0052711437 0.0053839674 0.00011240594 0.0019666792 0.0024336178 -0.0027478414 0.00027484988 0.0075549367 -0.002757736 0.013387912 0.0053797066 -0.015765939 -0.009752639 0.011605622 0.0067781424 -0.024601948 0.0040862774 -0.008200045 0.0042288164 -0.0072834846 -0.009930462 -0.021677691 0.008975553 0.014694222 -0.011196908 0.00420967 0.0024169357 0.012755714 0.0017426132 0.021265399 0.0056722285 0.012423744 -0.017239645 0.015613061 0.0028326458 0.0043984484 0.0012023096 0.0051890267 0.00694454 0.015138936 -0.010500954 -0.0061879396 -0.019236652 -0.001548098 -0.008822197 -0.013412497 -0.0002553368
teamworkmakesthedreamwork -0.004336817 -0.0009833099 0.004226272 0.004969744 -0.001833309 0.0049147326 -0.0014549524 -0.0036055446 -0.0038050348 0.0044224365 -1.7191283e-05 0.0014672265 0.004949214 -0.0038430756 0.0043324456 0.0033705868 0.0021389634 0.003285421 -0.0024758142 0.0035180459 -0.0003787703 -0.0021209435 -0.003862598 -0.00072518643 0.0009950413 0.00011082273 0.0017909771 0.0039105555 -0.0025328505 -0.0020453816 0.00026020873 -0.0043465337 0.0008320785 0.0032144422 0.004918443 -0.0010937154 0.0009823586 -0.0037547045 0.0018737977 -0.0014711504 -0.003883174 0.0020142416 0.0013221214 0.0017606327 -0.00032669865 -0.0014903431 0.001545155 0.002290056 -0.003516783 0.0037231185 -0.0038573598 -0.00360552 -0.00429271 -0.0010339688 -0.003384251 0.0021250271 0.0035153208 -0.003984988 -0.0027480535 0.00018576579 -0.0010068626 0.003387143 0.00033300044 0.0032133367 0.0005966006 -0.003277706 0.00248254 -0.0034549413 -0.001772694 0.0029323986 -0.0049393647 -0.003909828 0.0028385213 -0.0013704067 0.00057118246 -0.003028165 0.0015534353 -0.0036272102 -0.00059088366 0.004230506 0.00032114703 0.0012512123 0.0015171128 -0.0026934529 0.0018127919 0.0039464356 0.0029865317 0.0029736497 -0.00367935 0.004460971 0.0033262726 0.001026562 -0.0021051008 -0.004073003 -0.003751751 -0.0030583506 -0.004769591 0.0018176506 0.0035881242 0.0025576917
freedomfries 0.0023540007 -0.003436759 0.0034527788 0.0032288404 -0.004768555 -0.0046729776 -0.0011631239 -0.0037939625 0.0007969951 0.0041560885 0.0011699214 -0.0006637727 -0.0049888683 0.00075409096 0.004266713 -0.0037784535 0.0020830743 0.00018307194 -0.0014417928 -0.00038065622 0.0008710064 0.003743833 -0.0004543839 -0.004577377 -0.0028377592 -0.0033538966 0.0012049242 -0.0007570549 0.003728536 -0.0014914656 -0.0013662432 0.0040123733 0.002636413 0.0033232467 0.0022174572 0.004352633 -0.0025121165 4.8897695e-05 -0.0028110724 0.00027775718 -0.0025723039 -0.0047653113 -0.0016001521 -0.00035791285 -0.0009159767 0.003256292 -0.0032987655 0.00424088 0.0042165024 0.00087710796 -0.004695966 -0.0011446888 0.0002848981 -0.0031677745 -0.0032563328 -0.0004948173 -0.004066932 -0.0013634919 -0.0025010824 0.001733793 0.0034892028 -0.0034668713 0.00029415265 0.003236779 -0.0038005596 0.002269026 -0.0039468026 -0.002783106 0.00076203234 -0.0010240404 -0.0021515202 0.0017869412 0.0025930833 0.00066491077 -0.0038176607 -0.0046322793 -0.0023862915 -0.0014522988 0.0012162896 0.0005856599 -0.0026093167 -0.00029220758 0.0044789687 -0.0011711859 -0.001491478 0.0030651856 0.004406969 0.0032530427 0.0020066565 -3.2001175e-05 -0.0042620874 -0.0018572337 0.0043239444 0.004815531 0.0033429442 -0.0015395915 -0.004482059 0.0023422688 0.00081156613 0.004550429
iloveyou -7.950142e-05 0.0032642307 -0.0043325317 0.0027612676 -0.0031968753 -0.0016720318 -0.002658782 -0.0023267048 -0.00063564954 -0.0031640755 -0.0026892393 -0.0015369689 0.002285854 -0.0025865412 -0.0008633323 3.4717377e-05 -0.0012113482 -0.0037146388 -0.00496039 0.00035849633 -0.004100018 -0.00088516995 0.0029198332 0.0020154128 -0.0020018232 0.0013878844 0.0037264694 0.0021819556 0.0045588566 0.004617487 -0.002511723 -0.0011733943 0.0016512764 -0.004887711 0.0021940214 0.0044863774 0.0015742751 -0.0031878906 0.0036005992 -0.0046558552 0.0030214824 -0.0014061558 -0.0011226886 -0.0031288683 0.0035367599 -0.003999782 -0.004956682 0.0006900369 -0.0047339574 0.00065004406 -0.0032483898 0.0001356639 -0.001922295 0.004948171 0.003765583 -0.0023404039 -0.004229968 0.0027303044 -0.0014266139 -0.002710858 -0.0024067818 0.002062757 -0.0016517036 -0.0036830795 0.0005965722 -0.002641481 0.0019759964 0.0040470073 -0.0040412582 0.0032444336 0.003564993 -0.0020253563 -0.00031237165 0.002163134 0.00054473523 -0.0009287745 0.002682075 -0.0031502557 0.0024417755 -0.0017878681 -0.0032619922 0.0049790572 -0.0049320483 -0.0036819344 -0.0007041758 0.0005905526 -0.0018482881 0.0026522772 0.0011893515 0.0033144644 -0.004664005 0.0040329546 0.0049830414 0.0032433234 0.0026043672 -0.00021459302 0.0038749278 0.0049520712 0.0030795736 -0.0007030172
fuckthepatriarchy -0.010730558 0.009943685 0.0064300247 0.009770923 -0.0015131148 0.01638618 0.029926103 -0.010765618 -0.018631786 0.0038332688 -0.011702347 0.00991304 0.0016713059 -0.0077083134 -0.008959111 0.0051180283 0.015100949 0.003885024 0.0009027775 -0.022856291 0.022324305 -0.0030426027 0.0076411963 -0.0009783439 -0.00041843695 -0.0025226343 -0.018947126 -0.004299983 0.00014836797 -0.0036179076 0.001497134 -0.0042121606 -0.0035073792 -0.011579874 0.0038229362 -0.009339241 0.018819507 0.015323982 -0.0046036653 0.022637643 -0.0027481942 -0.01565231 -0.017213695 0.01874115 -0.0117101865 0.00965732 0.01363251 0.016868219 -0.00301218 0.0052806116 0.010290795 0.008657687 0.0007296799 0.009548705 0.011176838 -0.0018469436 0.0048214635 -0.007351251 -0.0104647465 -0.0016732352 0.0091537675 0.005600299 0.012893186 0.004163158 -0.012876119 -0.008042126 0.015019082 0.020141145 -0.028305545 0.0071518407 -0.006750109 0.005003129 -0.009311054 -0.012859496 -0.026521273 0.005596951 0.012684725 -0.010010181 0.014023318 -0.0023678872 0.014894836 0.01169077 0.019886397 0.004179049 0.007792097 -0.021558577 0.021182474 0.0010497255 -0.0018200498 0.0038730889 0.008808259 0.012214117 0.013787059 -0.017561255 -0.009907156 -0.021748627 0.0016938715 -0.015922496 -0.019335123 0.004187829
jbfa -0.018148042 0.036944803 0.036673665 0.019691648 -0.008732009 0.05754474 0.10289845 -0.025048045 -0.06628789 0.010492176 -0.030843534 0.032639574 -0.0033098753 -0.027150955 -0.016881939 0.022384927 0.036753226 -0.0051557356 -0.0075422856 -0.06903771 0.05751017 -0.0018574804 0.009345723 -0.011850693 0.010113465 -0.013979944 -0.07362173 -0.023027716 0.015096803 -0.005936589 0.0046118614 -0.014993377 -0.0067413757 -0.02397953 0.016867213 -0.038531106 0.047306664 0.042968318 -0.0039595403 0.07195888 -0.0028106305 -0.04003331 -0.04514544 0.055428267 -0.048183616 0.024978075 0.060412407 0.042625535 -0.0082666585 0.01929345 0.022943828 0.03362278 0.009717673 0.014917103 0.021553412 0.0020803986 0.031199355 -0.013428163 -0.027181303 -0.0012533653 0.03268022 0.002242073 0.044748027 0.008228772 -0.05346918 -0.032277957 0.0433755 0.0495629 -0.09225515 0.024054658 -0.029204462 0.0046155388 -0.021129994 -0.028276904 -0.100891456 0.028607871 0.038990192 -0.026010128 0.032551218 -0.0016235037 0.053401295 0.017275633 0.07451783 0.02023833 0.03950139 -0.081472695 0.060077645 -0.005243823 0.007158248 0.010790844 0.021835033 0.023982123 0.05468182 -0.043053605 -0.03653574 -0.07101253 -0.00034061572 -0.04153514 -0.054924615 -0.0035218832
chicagohome -0.026881073 0.04522767 0.032667037 0.02544328 -0.013018855 0.06452455 0.11328688 -0.020894691 -0.064566605 0.01145351 -0.032639112 0.039061934 -0.010117193 -0.02805591 -0.019451313 0.026702838 0.041809198 -0.001226024 -0.01658279 -0.07070269 0.056998998 -0.011633808 0.011362583 -0.0074254656 0.018314911 -0.018670665 -0.0739026 -0.019931419 0.013811405 -0.0061239516 0.0027816528 -0.016941214 -0.0022799368 -0.03531945 0.010546924 -0.036258865 0.054547094 0.03851493 -0.007837982 0.07412076 -0.0032876455 -0.041635208 -0.054847226 0.06194632 -0.044956625 0.0370431 0.0649109 0.043315217 -0.012842028 0.014683382 0.0176269 0.037628423 0.012465781 0.013513154 0.024672545 0.0047470247 0.024897907 -0.011860206 -0.027931025 -0.0034004413 0.041466847 0.0026138304 0.043506518 0.009633451 -0.05870826 -0.030522382 0.047952462 0.06042817 -0.09163131 0.02620057 -0.035493705 -0.0029091074 -0.029989261 -0.03459942 -0.11062384 0.03249442 0.04100574 -0.028064605 0.03420087 0.00031652304 0.06547594 0.022608368 0.09004056 0.017980192 0.042188328 -0.08765585 0.062740535 -0.00045177943 0.009961794 0.016043188 0.0177461 0.029948063 0.055280462 -0.042870462 -0.047629856 -0.07454779 0.004393163 -0.042506278 -0.066697024 6.644262e-05
illinoisrestaurants -0.040761095 0.06678246 0.048177034 0.04234876 -0.013702566 0.09660672 0.16723956 -0.03145852 -0.10269617 0.014910269 -0.055054676 0.050261427 -0.011111126 -0.03450278 -0.024017604 0.043745887 0.055462275 9.8178476e-05 -0.016317181 -0.10351307 0.09263627 -0.0065800487 0.015075155 -0.0093533825 0.019903181 -0.037773125 -0.11683133 -0.041051727 0.025921898 -0.010476304 0.0048435954 -0.030237751 -0.009060844 -0.059389528 0.01739933 -0.052599713 0.07549796 0.06009293 -0.015576911 0.11111065 0.0012690191 -0.07263423 -0.07565085 0.091287516 -0.07680006 0.048683155 0.098074704 0.07261785 -0.00973501 0.02572211 0.032847177 0.061635587 0.016541127 0.021193601 0.035853483 0.007196831 0.044054598 -0.017128443 -0.043072924 -0.01527684 0.061567895 0.0010844507 0.0658218 0.016263006 -0.093174666 -0.045626108 0.07594938 0.09003381 -0.14538763 0.031348534 -0.050644387 -0.001169243 -0.031699315 -0.057798542 -0.16199735 0.05016532 0.06592796 -0.046636835 0.047446586 0.0041542924 0.093852706 0.03994813 0.12895313 0.034060307 0.058042422 -0.13263676 0.09584642 -0.0018903558 0.009519272 0.0155710615 0.03000425 0.0453489 0.08652886 -0.074048735 -0.06411606 -0.115934424 0.006621618 -0.06914314 -0.098921105 -0.0047458177
petalpower -0.0019998103 0.0006731795 0.0024777185 0.0014865245 -0.0008133538 -0.0008197599 -0.0033327942 -0.0044008046 0.004597144 5.220482e-05 0.00035245065 0.0014848788 0.0022663372 -0.0018025832 -0.002408495 0.0023550987 -0.0026194644 0.003708643 -0.00026666326 0.0016962145 -0.001961276 0.0026370995 0.00015825499 0.0031332616 -0.004931259 0.0025986494 0.0014918232 0.0019997559 -0.0015169673 0.0011602389 1.1702068e-05 0.002948882 0.0030800207 -0.00042093825 -0.0040894155 0.0024605794 0.003395469 -0.0008430495 -3.2735988e-07 0.0032413146 0.0041630436 0.003010136 -0.0032613098 0.0038454179 0.0008353018 -0.00071341265 0.0048162527 -0.0017202699 0.0020449609 0.004217184 -0.0047204974 0.0048875185 0.0030752188 -0.004814716 0.0006005801 0.0023308122 0.0037672175 -0.0018159896 -0.0019529359 -0.0023854314 -0.0027712916 -0.004371788 0.0016867272 0.0034520626 -0.0013347398 0.0018880842 -0.003921564 0.00043929275 0.0014197035 -5.841255e-06 0.0024768114 -0.004253736 0.0028737802 0.0035689278 -0.004228267 -0.0022712832 -0.004628637 -0.0043230485 -0.0025148247 0.002788439 0.0048641004 0.0048371227 -0.004460178 0.00080435025 -0.002637344 0.0006367266 0.004875578 0.0011256309 -0.00359999 -0.0034936164 -0.0007304107 0.0041295346 0.0027550636 -0.0007581259 0.0008223825 -0.0045375777 0.0035509607 -0.00077227596 -2.7471222e-05 -0.0018119831
spargel -0.00088793226 0.0032693138 -0.0047120512 -0.002209925 0.0028525656 -6.8171415e-05 -0.002503203 -0.0030531525 0.0015052287 0.0021997248 0.0017197714 -0.0043985555 -0.0039609796 0.00462409 0.001744349 -5.0399452e-05 0.003416893 -0.00049461937 0.0012785709 -0.002212137 0.0010182043 0.0021407749 0.0035453448 0.0043676877 0.0048446935 -0.0049068076 0.0023409752 0.004775758 -0.0021260844 0.0047004484 0.0019908864 -0.0033352291 -0.0021899992 0.0007218681 0.0009983806 -0.004521048 -0.0013750857 0.0027861022 -0.004892134 0.0027662716 -0.004799184 0.0049463036 0.0034429086 4.038075e-05 0.0032693632 0.0023504044 -0.001404509 0.002534253 -0.00496498 0.0032958724 -0.0039464487 0.00479149 -0.0030675144 -0.0022297746 0.0018793778 0.0035783974 -0.0013823907 -0.004288122 0.0030125696 0.0027847989 0.0004629898 -0.0031300443 0.003485132 0.003911524 0.0021025292 -0.0044211093 -0.004945913 0.00041937642 0.001619943 -0.0030002475 0.000935399 0.00026516058 0.0025480608 -0.0006110221 0.0020428943 0.0014485866 -0.002573943 0.0041141883 -0.0040634554 0.0024638851 -0.004724174 0.001278094 0.0039839484 -0.0036659478 -0.003966216 -0.0029716534 0.0026521278 -0.0045805983 0.0017813109 0.0033658259 0.0029301187 -0.004703459 -0.00070747035 -0.0006960309 -0.0043183058 0.0019562156 -0.0021496469 -0.00093455566 0.0029899366 0.004149044
pollinators -0.0011079055 -0.0021683292 -0.0037803142 -0.0042112432 -0.004012858 0.0041744215 0.003692666 0.0015272093 0.004471942 0.0039095767 0.0030093025 -0.0025927853 -0.0002889838 0.0017754328 0.0034247376 0.003117349 -0.003714895 -0.0015077365 -0.00327561 -0.004105828 -0.0033838325 0.0003142124 0.003514965 -0.004755708 -9.000767e-06 0.0004476211 -0.004749121 -0.0027838354 0.0046349308 0.0018684128 0.0008790842 -0.004301266 0.0040152185 -0.0023411787 -0.0031709557 7.221056e-05 -6.483123e-05 -0.0031993217 0.0015824526 -0.0018727256 -0.0019039512 -0.0009087892 -0.0021193845 0.003180067 -0.004233967 0.0009378819 -0.0038746572 0.0007585995 0.0020012092 -0.0031266874 -0.00092237536 0.0032324148 -0.001004708 0.00017965259 -0.0015050638 6.361911e-05 0.0032537421 -0.0024050414 0.0017199344 0.0014386652 0.0033273837 -0.004244149 -0.0005994844 0.004029982 0.0048582936 -0.004682722 0.00021042395 -1.9853935e-05 0.004476212 -0.0021390067 0.0042999834 0.0009106309 -0.00055846944 8.981209e-06 -0.003216515 0.0002610474 0.0004470884 0.0016252734 0.0029407013 -0.00087400246 0.0019227657 -0.0014169167 0.0015061097 -0.0040605646 -0.0049250857 -0.0026716602 -0.0038231928 0.0027959812 -0.00086453 -0.0043188552 0.0011308724 -6.581191e-05 0.0040073367 0.0019498412 0.0005489709 -0.0008092779 0.0008842624 0.0027844966 -0.0040132124 0.0013917452
greenstrawberries 0.001385448 0.001773593 -0.0022459507 0.0009489781 0.0035607368 -0.00016239937 0.004599004 0.0018504579 -0.0014347332 0.004638167 0.0049157282 -0.004704748 0.003346731 -0.0020369173 0.0033955695 0.0036921436 0.0047012046 -0.0023632192 0.0026441156 -2.5285408e-06 -0.0021160399 0.0026604491 -0.004798807 -0.002044068 0.003700965 0.0031605577 0.0010737493 -0.002705007 0.0041609174 0.004630048 0.0037092026 0.0025699441 0.0014116978 0.001266358 0.003221549 0.0001114998 -0.0040142797 0.002194034 -0.002769481 0.00083605386 -0.00116754 -0.004294702 -0.0047661965 0.0035751984 -0.0017748235 -0.0035881363 0.00057008443 0.0037624836 0.0038858345 -0.0004005772 0.0047565354 -0.0009642076 -0.00015120022 4.4263434e-05 0.00049746875 -0.0015883243 0.0030033896 0.001908436 0.00033612596 0.00031032553 0.00014953502 0.00026862975 -0.00056252116 0.002005485 0.0034022387 -0.0014557177 0.0015111393 -0.0014315015 0.004991848 -0.0045368904 0.0031248918 0.0018891562 -0.0009970362 -0.004934458 -0.003011571 0.0010395143 0.0032718936 -0.0049923253 -0.0015071076 -0.0049507623 -0.004052629 0.0037921024 -0.0029133628 -0.0037083654 0.0030142525 0.0012790491 0.00463129 -0.003897649 -0.0006504031 0.002718483 0.001158806 0.0034951968 -0.0015400564 0.0030351402 0.0007430124 0.0008588708 -0.004008865 0.00084296335 0.0007830695 0.002035127
