861 40
myfavourite -0.0036458625 -0.009216214 0.00015441794 0.00781075 -0.0036375094 -0.00690825 -0.008528029 -0.0070267515 0.0049068937 0.005252243 -0.005489466 -0.009745235 0.004354504 0.0037526758 0.011583197 0.0013464987 -0.002555957 0.00090052 -0.01033147 0.0085867485 -0.007904839 -0.00086906087 -0.0029236479 -0.003018652 0.0040334137 0.011004209 0.011637964 0.011098507 -0.009347211 0.011602699 0.010572906 0.011698277 -0.008729273 -0.010991027 -0.0028428482 0.008950776 0.0017244015 0.008778705 0.006647884 0.005774229
sweettooth -0.2687809 -0.08044467 -0.18095924 0.22615834 0.054294568 0.31799248 0.56680304 -0.22640783 0.64835304 -0.11440459 -0.09068278 -0.29363325 -0.3730973 -0.22884673 -0.20922957 0.4577951 -0.37151653 0.31544268 0.2029426 0.1861173 -0.5463696 1.0537952 0.65374076 -0.31366733 0.107324325 -0.42716396 0.3836275 0.41841745 0.571085 0.43167645 0.30783305 0.20555823 -0.04321188 0.13625647 -0.3374006 0.5188425 0.01832975 0.02569138 -0.03387559 0.2594785
frommydiningtable -0.0048301457 -0.011376073 -0.009611681 0.012374389 -0.0042146845 -0.0021289662 -0.001820025 -0.007583386 0.008579067 0.0014360799 0.008513897 0.0065287305 0.004201521 0.0037268037 -0.0011355672 -0.010246719 0.010987007 0.008705192 -0.010584945 0.009148763 -0.00077487994 -0.007631503 0.0028948635 0.0055451607 0.012021464 -0.0034663705 0.008196118 -0.009048927 -0.004621138 0.00914628 0.006837298 0.0019062608 -0.012456362 -0.0097428635 0.0010609459 0.0006095115 -0.01212526 0.0044134753 -0.010506585 0.0017857328
decorativegourdseason -0.0016023712 0.008501665 0.0066615613 0.0066475132 -0.008479217 -0.008372381 -0.011722689 -0.00981419 -0.0019325111 -0.0035235044 -0.0029620137 -0.009924601 -0.0049711512 0.008684897 -0.00084684044 -0.0068848864 0.0020326944 0.005567097 0.010197454 0.010846146 -0.010338572 -0.001772156 -0.0053701657 0.00087120663 0.0013591796 -0.0034714937 0.0010730047 -0.0066557573 0.00036040414 -0.0054831984 -0.007057971 -0.009554395 -0.008340767 -0.0006650882 -0.012377593 0.006996137 -0.011102686 -0.009179267 0.0048464807 -0.0046569128
wildfoodlove -0.12692057 -0.05322802 -0.075829975 0.08980057 -0.11220707 0.08522734 0.08445819 0.00821884 0.13786966 -0.09979275 -0.06647102 0.014238053 -0.01831194 0.04618155 -0.0703895 0.18308213 -0.17611456 -0.02807128 -0.084519066 0.0681737 -0.024094865 0.13403223 0.15139128 -0.0008297346 -0.049127873 -0.13363716 0.09962167 0.20995246 0.11097974 0.017821416 0.024793012 0.15018815 -0.037912242 -0.084722295 -0.14828858 0.060203735 -0.12197765 -0.01803145 0.059203677 0.096053064
vegan -0.6049854 0.13310312 -0.4657612 0.3665815 0.31472746 0.34661973 0.0032141865 -0.41407925 0.25955793 0.091450796 0.34155303 0.1602771 -0.56070864 0.020634044 0.11722463 0.5459339 -0.5551305 0.25969523 -0.033447076 0.80791414 0.43232572 0.6046154 -0.03659389 0.53977054 0.009073341 -0.6028412 0.27663276 0.42236134 0.22071226 -0.2333846 -0.3785962 -0.57668424 -0.14664191 -0.30075696 -0.51140153 0.49594125 -0.3310017 -0.103892535 0.22211386 0.14459838
glutenfree -0.37725967 -0.2755091 -0.48998094 0.5964826 0.6445661 0.26150727 0.22334886 -0.5663219 0.67177814 -0.08645351 -0.39568818 -0.56137365 -0.58145934 -0.53404045 0.26425388 0.9194021 -0.84540206 0.6784391 0.63675827 0.055113688 0.57435304 0.6952253 0.75453943 0.19624716 -0.106363535 -0.59024125 0.38947996 0.38494003 -0.33288538 0.8164385 0.49869454 -0.4678624 -0.3635077 -0.039077982 -0.7861683 0.45553538 -0.6541369 0.57743037 0.92907524 -0.3423156
sponsored -0.24829668 0.015192685 -0.20458324 0.17925318 0.05837523 0.121201985 0.038373467 -0.18105407 0.18682894 -0.079759605 -0.06685401 0.019814325 -0.050238255 0.028891185 -0.031794623 0.29512742 -0.25248572 0.086211324 -0.07457143 0.17355992 0.1328097 0.17405139 0.09731552 0.19360155 -0.0884352 -0.27937075 0.11852644 0.30506977 0.063093886 -0.023877718 -0.029293463 -0.037590016 -0.082245566 -0.10171078 -0.23067808 0.101962015 -0.16821872 0.028049773 0.08570663 0.11361762
f52grams -1.3477743 1.0044334 -1.6172911 0.8016539 -0.6460061 0.5759886 -0.030944627 -1.6810998 0.70740217 0.74816054 -0.60491234 0.81076527 0.6226611 0.63553226 0.24387641 1.1201583 -0.018937308 0.21820422 -0.10780496 1.4525042 0.17482895 0.507659 0.17670844 0.44241643 0.08135245 -1.6961747 0.13060054 1.2727197 0.22878759 -0.41630128 -0.50380886 -0.30419603 -0.75792533 -0.5220891 -0.29518968 0.1933266 -0.68487823 -1.2148069 -0.5892721 0.033112217
feedfeed -0.76080513 0.37641513 -1.1484231 0.8275414 0.1556615 0.13979259 0.48675725 -1.441399 0.86963445 -0.9611193 -0.6412708 1.2357268 0.89978576 -0.4498474 0.011315173 1.2208136 -0.6528046 0.47127202 -0.81559193 0.14316854 0.3690939 0.28870025 1.1036881 0.53394127 -0.5023322 -1.0525411 0.096700564 1.0052207 0.4770246 1.0004408 -0.7102857 -0.85804045 -0.9531227 0.36141717 -0.90023273 -0.34114048 -0.19557649 0.75747126 -0.95464367 0.28125498
huffposttaste -0.37818524 0.052936174 -0.693111 -0.5455504 -0.5154185 0.6442383 -0.07200753 -0.13201118 0.31093192 0.34059033 0.27390274 1.0145236 1.1032957 -0.7807177 0.9091223 0.4431911 -1.0652459 1.1641637 -0.7281693 1.812457 0.21775176 0.6484278 0.37753287 0.58546495 0.30668014 -0.83400124 -0.29243207 0.90648115 0.4347312 0.6751699 0.26043493 1.0514804 -1.7706275 -0.7777352 -1.1704416 0.23290102 -0.22689785 0.42507452 -0.39510134 0.7949285
buzzfeast -0.56845975 0.39234716 -0.2407434 0.68943495 0.23423831 0.23725256 -0.007021023 -0.7816901 0.6782013 -0.9315885 0.43925604 0.7499791 1.0909364 0.15522838 0.7454634 0.7835757 -1.0112056 0.26472476 -0.270788 1.4982724 -0.27553317 0.07849083 1.2340069 1.0988654 0.3985881 -0.7652318 -0.10774475 0.6391264 -0.33554387 -0.57006854 -1.4328184 0.66488975 -0.6744608 -0.26688752 -0.7246297 0.81119215 -0.75635386 0.73205876 0.41484022 1.1737787
eeeeeats -1.4990611 0.8384196 -0.4726531 1.098211 0.09043045 0.22870961 -0.3060887 -0.49138784 0.23165995 -0.35003635 -0.8513143 0.44278947 1.790852 0.6409336 1.1538254 0.81297255 -0.76368093 0.63811946 -0.40975407 1.3774757 0.09282153 -0.5371752 1.0655508 1.3932416 0.18351217 -0.74687034 -0.111825585 1.0979759 0.5243847 0.20133102 -0.6102184 1.572455 -0.40041846 -0.4193425 -1.1100329 0.18840545 -0.62135905 0.37968573 0.9317395 0.50396293
beautifulcuisines -0.97468853 0.55769014 -0.33939394 1.0989039 0.98324835 0.53658485 0.44149256 -0.104502425 0.82344055 0.04424713 -0.50505555 1.3051714 0.5511922 0.13339177 0.0819841 0.57412255 -1.4692453 1.1120603 0.064976744 0.38309082 0.47192505 0.049691614 0.6395316 1.2576437 -0.90748125 -1.1051304 -0.16928132 1.0412802 -0.14077024 0.08668002 -0.42533752 0.08228361 -0.9114764 -1.7732625 -0.56737804 0.16645174 -1.1191894 0.29730004 1.4803538 -0.085525334
thekitchn -0.8618098 0.9801273 -0.78174156 0.50124025 0.17672607 0.5269285 0.43410757 -0.5849187 0.09313611 -0.80132335 -0.4849728 0.28296494 1.3332893 0.20418102 0.21894181 1.0181458 -1.3895009 0.6737003 -1.157078 1.0138475 0.3241787 -0.2988414 0.76536846 1.2669446 -0.66476834 -1.5472068 -0.20166497 0.53640383 -0.008829365 0.20324358 -0.07163369 0.40461028 -1.2711241 -0.79601884 -0.32309085 0.03379859 0.36921462 0.25829074 0.07739635 1.2817346
foodandwine -0.103626266 0.48370028 -0.22266188 0.20046288 -0.50357884 1.1269395 -0.19909401 -0.4612965 0.35339972 -0.07471939 -0.8051378 0.76641846 1.1967181 0.8742661 -0.5448349 0.6379052 -1.7724192 0.9722682 -0.012715107 0.6833184 -0.22426595 0.8416481 1.290914 0.68093914 -0.4493038 -1.7056146 0.44842628 1.0745252 -0.48689374 1.1752276 0.18057427 -0.097345285 -0.51658905 -1.2927359 -0.2590577 0.42736292 0.6552171 -0.13050991 0.5413853 1.3153893
forkyeah -1.7163217 0.22205168 -1.7993008 1.2860711 0.44036958 0.63657165 0.3205031 -0.59818983 -0.052176286 -0.7830683 -1.4594668 0.22045806 1.1678693 0.0033568458 -0.098682225 1.090476 -1.1863519 0.20252189 0.3381332 0.5390051 -0.1245697 -0.44151393 0.50823575 1.6879377 0.2877996 -0.98590845 0.5179272 0.5035627 0.20694132 -0.13963124 0.09953225 1.1449342 -0.60866356 -0.5724876 -1.3388133 0.27360967 0.92333704 0.57396656 1.0474999 1.0293311
yahoofood -1.0635967 0.84745896 -1.4775625 1.0443587 0.6401413 0.22599742 0.1777392 -1.5440848 0.47435287 -0.25745314 -0.5359515 -0.022207135 0.16857998 0.14366192 0.8799575 1.2666738 -1.1267537 0.6156127 -0.76841146 2.6336706 -0.21147835 0.0028088244 1.4906708 1.2665757 0.6782906 -0.6567493 0.67586064 1.2249367 0.74413747 0.7356412 0.6688464 0.013221588 0.3089374 -0.4150097 -0.71809006 0.3799794 0.2659245 0.72197795 -0.076259114 0.68141806
onthetable -0.9189938 0.3888371 -1.0324811 0.86893654 0.16077653 0.03360369 0.0005252738 -0.690866 0.086525336 -0.6127091 -0.21039014 0.62671673 0.73502237 0.25683576 0.74663264 1.2945725 -1.5550876 0.21065538 -0.3708216 1.6175059 0.5110518 -0.15747333 0.65955186 1.7467788 -0.10720115 -0.9404848 0.5594112 0.7553377 0.079689346 -0.50283897 0.08497816 -0.36539719 0.1436619 -1.275093 -1.1582494 0.6620275 0.09401919 0.67654234 0.49272886 0.65149367
buzzfeedfood -1.3512706 0.96191317 -1.1531613 1.108827 -0.19798371 -0.08062441 -0.82754046 -0.06832723 0.51032186 -0.25350097 0.077223204 -0.24460563 1.2750552 0.3260848 0.8971832 1.6725242 -0.94923776 0.96827817 -0.5298902 0.6479461 -0.03450082 -0.27243894 0.2245792 1.2035702 -0.80062866 -0.72486657 0.65331054 0.59446347 0.7349105 0.5284426 0.78591 0.08170086 -0.046975896 -1.1807584 -1.2643478 -0.38207132 -0.52752626 0.7675407 0.5294727 0.19193894
vscofood -1.3383828 0.93268657 -1.1463491 1.4539871 -0.14412196 0.17313392 0.4487858 -0.75212294 -0.10994475 -0.4825515 -0.7914056 -0.11839856 1.0541188 0.5424379 0.18332636 1.2438599 -1.6199838 0.3191215 -0.129051 1.2685491 -0.37138104 0.5243627 0.7540404 1.9376894 -0.7324378 -1.023401 0.45847934 1.1253669 0.1549789 -0.44567043 0.72904444 -0.19498481 0.62717324 -2.215995 -1.1253946 0.43942732 0.5189783 0.24778067 0.87639385 0.69029367
foodstyling -0.8354794 0.6052057 -0.93830866 1.0698113 0.30944687 0.64034677 0.80352557 -0.79636323 0.0876399 -0.31021938 -0.030429356 -0.4076891 0.06730859 -1.0345472 0.41770494 0.9583946 -1.3690819 0.19167712 -0.36976346 1.3226807 -0.5213701 1.3598902 0.2029053 1.9832665 -0.08316684 -0.6991105 -0.17767273 0.99017084 0.27940902 -0.10699976 0.31696397 0.01401769 0.5685721 -1.6555055 -1.2469447 0.24848755 0.03167539 -0.5127598 0.19696447 0.12368531
foodphotography -0.7178915 0.59582585 -0.63197297 0.14073712 1.0863497 -0.033086512 0.7279746 -1.0024787 0.7421403 -0.64166594 -0.8335176 -0.5670353 -0.026183093 0.49722567 -0.5611309 1.4914793 -0.8306756 0.8217644 -0.6586422 0.47035235 0.60492927 1.8660271 -0.55639976 1.4962282 -1.1485262 -1.043506 1.2497038 1.5630107 0.5898678 -0.6257896 0.6073678 -0.57839173 0.9031651 -1.3505758 -0.40466076 0.19171457 -0.09950444 -0.03879746 0.049062017 0.75979745
lifeandthyme -0.6266662 0.1928925 -1.2453548 -0.40509963 -0.43801275 0.85772073 0.10800992 -0.2921687 -1.0875032 0.24577466 -0.3283608 0.059567127 0.19295001 0.5731949 -0.57587487 0.86812687 -1.2724603 0.113446414 -1.214514 1.6443309 -0.24043114 0.059715837 0.24822167 1.2866684 -0.9218206 -0.6523112 -0.33451954 1.4383152 1.309165 0.06849173 0.50245655 -0.65451753 -0.08353998 -1.2318572 -1.6009402 -0.08199161 0.24418104 -0.19118902 -0.17935786 0.24764158
eater -1.0403817 0.89901817 -1.5447043 1.0848196 0.099746734 0.8701219 0.6686196 -0.3314147 -0.14535174 -0.720494 -0.9499072 -0.2702348 0.90728456 0.04371068 -0.5294319 1.5417709 -1.4132165 -0.22965854 -0.5928483 -0.34527543 -1.0521737 0.8751248 0.43535045 1.7896887 -1.5234096 -0.9273 0.14337271 1.21018 0.8864603 -0.027840152 1.1580839 0.23680995 0.7669269 -1.3403052 -1.1584603 0.14231978 0.93626696 -0.68313444 0.44690132 0.6177647
heresmyfood -0.86709636 0.48962083 -1.7235807 0.6202449 0.4054259 0.9278025 0.0033063039 -0.9729969 -0.5200708 -0.037376657 -0.831688 1.1855655 0.646445 0.5360215 -0.32760724 1.5238482 -0.76124287 0.21979904 -0.21976213 0.3559335 -0.49825183 -0.21594466 0.65037835 1.3241779 -0.86487925 -1.5250574 0.5900148 1.0613364 1.0378088 -0.36602184 -0.48756632 -0.1856825 -0.10371795 -0.6887488 -0.9325594 1.0370865 1.0464194 0.3732653 0.9156399 0.0062635522
food52 -1.4227762 1.0065217 -1.5613441 0.8559797 0.30815092 0.34541345 1.5319949 -0.9521055 -0.2764602 -0.12040537 -0.35766372 0.87120456 0.24901472 0.18187763 -0.24718228 1.2867167 0.14132239 -0.10485082 -0.234792 0.29971498 -1.1204474 0.43001798 1.9632554 0.26932314 -0.90805423 -1.8731619 1.4763463 1.061611 1.515208 -0.14335102 -0.09563648 -0.86044216 -0.5724962 -0.45395622 -0.35045576 1.0765582 1.0832659 0.18888076 0.15869409 -0.026901241
gloobyfood -0.87743783 0.60222894 -1.6574038 0.82458377 0.4565873 0.13486274 1.0863792 -0.839051 -0.5264 -0.7151332 -1.0226505 0.097354785 1.1170924 0.7227882 -0.2623702 0.9330466 -0.6699453 -0.26332667 -1.1390646 -0.19186766 -0.3984182 0.22960857 0.7157615 1.3071125 -1.7912441 -1.4577503 0.7810958 1.0309279 0.9054778 -0.5136226 0.5278626 0.030498687 -0.15372886 -1.0408386 -1.0748942 0.31940314 0.21632455 0.29271686 0.1606134 0.2349974
foodgawker -0.2673903 0.68336695 -1.0663332 0.62713003 -0.47658813 0.35433826 0.8982612 -0.36658874 -1.1129392 -0.78571653 -1.2538614 0.2992406 1.4939249 1.0470016 -0.79210347 0.37058473 -0.8263181 -0.50385505 -0.73349905 -0.50671947 -1.097092 0.5245455 1.3606995 1.4568722 -1.7274722 -1.2577662 0.45449516 1.2162203 0.66778505 -0.26379573 0.5417451 0.4632769 -0.15404798 -1.3879905 -1.0517701 0.5270988 0.33208135 -0.318271 0.16907945 0.27611083
eattheworld -1.2397217 0.92275834 -1.7787424 -0.25674316 0.2531677 0.60072947 0.026331654 -0.21314329 -0.6450368 -0.39831847 -0.73256844 -0.012638831 0.48181647 1.1427591 -0.0052029327 0.16896044 -0.81127864 0.4767421 -0.38279462 0.31486583 -0.9603293 0.37422454 0.64870846 1.3781209 -1.5623194 -0.72009456 -0.3274763 1.0277007 1.213547 0.6778071 0.3211779 -0.013797669 -0.56820816 -1.0716736 -1.6526833 -0.15461181 -0.5598772 -0.49239516 -0.14266801 0.5143694
eatfamous -0.9225964 1.2760495 -1.1727724 0.9602432 0.95847976 0.84469825 0.87401557 -0.37392905 -0.2843386 -0.9596675 -1.63118 0.007980101 1.2478343 0.63706785 -0.381227 0.9310398 -0.45964357 -0.07705774 -0.7292918 -0.38492832 -0.75950015 0.11548256 1.0139933 1.7933962 -1.6098295 -1.1056917 -0.13471042 1.2865655 0.7879626 -0.16353557 0.16056614 1.1818403 -0.101130925 -0.7053701 -0.6451118 -0.014062778 0.07949226 -0.68165433 0.5858959 0.22824861
tastingtable 0.395238 0.7065563 -1.5820537 -0.5044184 0.6052766 0.29978836 0.38548148 -0.9563058 -0.61300135 -0.45895782 -1.3811314 1.0065367 1.4866276 0.42252553 -0.21425089 0.8265948 -0.72540575 0.43076792 -0.70891756 0.22057408 -0.5380719 0.25287467 1.1334937 1.3845171 -1.2857407 -1.4488078 -0.36537948 1.3822968 0.52879095 0.2928631 0.041040145 1.0829705 -0.77093345 -0.18523286 -0.7332145 0.2140159 0.028091082 0.49355632 -0.5709005 0.0420842
dailyfoodfeed -0.35893127 0.835506 -1.3991038 0.6890308 0.83077 0.72448707 0.42820537 0.24675499 -0.035531342 -1.1218563 -1.6121066 0.26044583 1.4603773 0.69069433 -0.6023563 1.3690685 -0.72287244 0.15620926 -0.8362539 -0.6792753 -0.63310784 0.05602218 0.7467111 1.6977624 -1.9014758 -1.0569723 0.21444458 1.1275553 0.7526721 -0.2317397 0.50697917 1.4235042 -0.1798917 -0.78387684 -0.5181098 -0.0611028 0.21686946 -0.1761424 0.6491809 0.31972829
spoonfeed -0.5326697 0.5450677 -1.691466 0.8288215 0.5749847 0.8930227 0.80646086 0.42164937 0.17430604 -0.55539757 -1.4943836 0.38985837 1.1827598 0.47489426 -1.4578673 0.95637006 -0.69458497 0.22366603 -0.31315336 -1.3488141 -1.1381243 1.036961 0.6708717 0.82416654 -1.8962351 -1.2461524 0.17332323 1.2317461 1.0188624 -0.10592831 0.71485126 1.1472673 -0.48968506 -0.85241055 -0.37940773 0.15511432 0.2711036 -0.41183838 0.38216606 0.04343576
foodbeast -0.7272233 0.669591 -1.6417791 0.5510097 0.49448106 0.7269943 0.7126986 0.16258916 0.43381974 -0.78883785 -1.5249118 0.80765295 1.3861604 0.79403114 -0.8684767 0.98335445 -0.36038482 0.0350782 -0.712414 -1.1117014 -0.6232306 0.38267148 0.75239843 0.8457109 -2.138302 -1.5196118 0.18426734 1.3510545 0.7528494 0.024387807 0.22523718 0.9793373 -1.0220644 -0.67296344 -0.42213 -0.1378301 -0.512556 -0.18578212 0.15820295 0.1910351
hautecuisines -0.22462873 0.94759303 -1.0838481 -0.0076180906 0.795694 0.08458372 0.42780435 0.42767805 -0.028029645 -0.1518997 -1.0023929 0.8796726 0.40817127 0.7918826 -0.38400337 -0.21075377 -0.34826964 0.3339276 -0.2426814 0.15659332 -0.035300896 0.5281632 0.5004283 1.3658386 -1.2728943 -0.7190683 0.33967885 1.1744336 0.20255105 0.40357596 0.5552031 0.38950163 -0.63225335 -0.96408904 -0.22361976 -0.12176661 -0.9682973 -0.35272196 0.020878708 0.1896251
foodblogfeed -0.4026224 0.1934964 -1.453429 0.20903268 1.4835688 0.27588266 0.3226312 -0.2448398 0.7493639 -0.6243441 -1.580567 0.13994831 0.8973101 0.7977332 -0.7446073 0.95915097 -0.34319466 0.69175476 -0.42269358 -0.62573826 0.019440418 0.44138 0.12730335 0.8761738 -1.3748829 -0.66954386 -0.19538373 1.288455 0.5544674 -0.05986749 0.17885567 0.6339724 -0.7433429 0.20088892 -0.7419637 -0.42673135 -1.2044746 0.9416034 0.30833572 0.00045819234
onmytable -0.402207 0.7702036 -1.0088893 -0.026992453 0.4970051 0.29914534 0.57217467 0.6053317 0.9294905 -0.55217177 -0.6947702 -0.048441395 0.8121021 -0.8676254 -0.014654421 0.75771946 -0.51932234 0.44512796 -0.17965578 0.41390365 -0.25414425 1.032993 0.18631308 1.2738316 -0.9414347 0.07652622 -0.44074985 1.1615548 0.688971 0.5373072 1.5374783 1.6061283 -0.4770644 -0.6836685 -0.48153037 -1.1323038 -0.53858835 -0.018737134 -0.087682694 0.07294704
theartofescapismcooking -0.7319505 0.22051838 -0.17573944 0.033247318 -0.17551513 0.10978039 0.011175906 -0.6540037 0.5554477 0.017045403 0.059021577 0.5927113 0.59678066 0.17924894 0.45824614 0.59986085 -0.5435639 0.5542103 -0.30717915 1.0067892 0.3704281 0.002855659 0.6591181 0.21032938 0.017672608 -0.6889339 -0.20810172 0.7579211 0.4300921 0.07400943 -0.7690276 0.19368115 -0.6740583 -0.09711651 -0.58838993 -0.019813007 -0.7028135 0.2235525 -0.04653494 0.33302796
ladyandpupscookbook -0.785 0.18665689 -0.20756169 0.17959258 -0.20639552 0.18939787 0.005571119 -0.71581864 0.5505565 -0.0104715945 -0.00660578 0.7039209 0.680011 0.123266116 0.39489454 0.663699 -0.6008755 0.56830615 -0.29546246 1.007388 0.465204 -0.07675016 0.66501707 0.23090127 0.10805673 -0.8268943 -0.08307674 0.7576735 0.29060352 0.120072305 -0.7936042 0.24842627 -0.81394607 -0.041135963 -0.6132578 0.0385386 -0.6565842 0.21132258 0.05352355 0.4487293
holidaygiftguide -0.8343137 0.19251172 -0.23485048 0.33228144 -0.17816938 0.22811937 -0.072912514 -0.82546926 0.5962135 -0.03128721 -0.047439013 0.74059844 0.6732731 0.101965554 0.51413333 0.6733772 -0.6345867 0.6051257 -0.36018968 1.1214049 0.59349704 -0.12183829 0.71320593 0.34375036 0.21801114 -0.85207844 0.020165063 0.82344157 0.21050599 0.21500762 -0.7972579 0.30729473 -0.8299305 -0.09666692 -0.63334006 0.044502825 -0.6262002 0.16454104 0.086702086 0.44132987
nothingfancycookbook -0.32710168 -0.090251416 -0.07449231 0.05306409 -0.31133905 0.18986574 0.15792853 0.17872505 0.3551161 -0.26227227 -0.13999215 -0.11122307 0.007473677 0.17095913 -0.18405037 0.3252818 -0.3237897 -0.10290656 -0.22330648 -0.10738435 -0.22454336 0.24933037 0.16560194 -0.14495118 -0.23715276 -0.16823667 0.13122241 0.37565312 0.2296914 0.0057365377 -0.026123798 0.43808216 -0.22820821 -0.07229138 -0.2366408 0.049629644 -0.1954928 -0.014572901 0.09796912 0.19792193
gatherandfeast -0.24403739 -0.0761907 -0.07936302 0.16971533 -0.15631142 0.12997007 0.15528952 0.0017079096 0.19446485 -0.18329039 -0.12834257 0.005711265 -0.015704371 0.090370856 -0.13551171 0.33152622 -0.23019348 -0.07328542 -0.12178046 -0.029253067 -0.061216492 0.1482024 0.20031965 0.01277369 -0.13363452 -0.17653114 0.2213693 0.31950292 0.20754084 -0.050216936 0.011437178 0.2765278 0.008629786 -0.093646824 -0.19153628 0.06426263 -0.22362721 -0.10174458 0.12223834 0.14537443
kewpiemayo -0.23497199 -0.102749236 -0.058568735 0.16005972 -0.15523686 0.12749472 0.12394674 0.030225128 0.21068172 -0.19133314 -0.105117194 -0.0072123613 -0.06446239 0.079004854 -0.109165296 0.3354603 -0.26407376 -0.07429348 -0.116364256 -0.022257749 -0.05701468 0.17364678 0.17219575 0.015630111 -0.11018995 -0.15770479 0.22799766 0.32804543 0.21332121 -0.059062876 0.017689608 0.28360838 0.020292826 -0.13354759 -0.18489705 0.10735312 -0.2078346 -0.10163861 0.12124808 0.15268236
kp_partner -0.23562984 -0.094430685 -0.075988255 0.14562847 -0.15203825 0.12795743 0.13306227 0.022811024 0.20398782 -0.20148146 -0.12157188 0.00064758875 -0.028475156 0.08882742 -0.119748846 0.32245874 -0.26300427 -0.076382905 -0.11480188 -0.035385925 -0.062490262 0.20088433 0.19295172 0.006613137 -0.10092951 -0.16223082 0.19707747 0.3171594 0.2355395 -0.024775766 0.034928787 0.2934978 -0.034418408 -0.12347347 -0.18910852 0.08364486 -0.19765127 -0.07869708 0.082361 0.15167375
kewpiemayonnaise -0.22684588 -0.07985925 -0.05983919 0.14182208 -0.1316805 0.11874191 0.14784147 -0.01798676 0.21925911 -0.16487753 -0.10001805 0.0028295794 -0.052456416 0.061040808 -0.09880151 0.34416658 -0.24607575 -0.05326406 -0.11476212 0.000876603 -0.023303386 0.17716289 0.18325093 0.006537312 -0.106674686 -0.19485673 0.23740965 0.33589584 0.23239705 -0.035754617 -0.007320634 0.23223715 0.022745943 -0.11161697 -0.19486897 0.09748686 -0.21856199 -0.088156074 0.08431469 0.1498335
kewpiemayomadebetter -0.23391102 -0.102151066 -0.05859052 0.1356315 -0.15442513 0.13384192 0.13291952 0.016094923 0.21801195 -0.1888016 -0.105870284 0.022513997 -0.031001851 0.06515118 -0.11008322 0.3442918 -0.24381143 -0.054197278 -0.12605645 -0.009265069 -0.027933983 0.16790968 0.1691696 -0.00975624 -0.0816621 -0.17751025 0.2196095 0.30942968 0.22240266 -0.035203107 0.0032413616 0.29595238 -0.017450122 -0.09347616 -0.21033855 0.078199126 -0.23775387 -0.09530797 0.11380284 0.14211744
kewpiemayosriracha -0.21718921 -0.10965353 -0.06736787 0.14008401 -0.15004213 0.13213874 0.15474077 0.011468127 0.20834823 -0.17090677 -0.09599303 0.030592324 -0.026708372 0.061753906 -0.10398562 0.32509658 -0.25163892 -0.08134742 -0.1281237 0.020355433 -0.046205733 0.16682602 0.19565275 0.0006966124 -0.07145958 -0.15779984 0.21658383 0.3034642 0.23288973 -0.05401123 -0.0049168635 0.2859512 -0.013767285 -0.101615354 -0.21852063 0.08776139 -0.22836897 -0.08193392 0.102943234 0.15429272
japanesemayonnaise -0.21126795 -0.097386375 -0.03693188 0.16607067 -0.1541673 0.12887967 0.1622224 -0.0073568854 0.2219722 -0.1724291 -0.099060595 0.010622759 -0.05451273 0.043535057 -0.09655642 0.32523572 -0.2629247 -0.030437184 -0.10985736 0.044202257 -0.014310658 0.18726763 0.18111585 -0.010679861 -0.078622535 -0.18681471 0.22677268 0.33303216 0.19948995 -0.018885257 -0.0020927694 0.2475959 -0.012395724 -0.08483093 -0.22051103 0.074374706 -0.25845224 -0.09595499 0.09736474 0.15052545
JusJusVerjus 0.0037061637 -0.0053690374 0.0003880579 0.00743533 -0.0052915453 0.011032411 3.468059e-05 -0.0023287814 0.0026657758 0.00024141837 0.011171781 0.0040493915 -0.009233828 -0.007018571 -0.006373379 -0.010556066 -0.009801777 -0.0057679876 0.0021130126 0.0049469722 -0.0011428343 0.011913297 -0.002194807 0.0076608444 0.011599326 0.00091080833 0.0054663653 -0.0005870834 -0.0018618908 -0.010244767 -0.0066135763 -0.008591426 0.010075656 0.0033510784 -0.0011117011 0.006848554 0.0035971003 0.0023665428 -0.008464836 0.011920541
LowABV -0.11748889 -0.0064293854 -0.088626795 0.0862894 -0.07464675 0.08299021 0.09375638 -0.023986218 0.10356968 -0.09151977 -0.073402114 0.008765192 -0.01023064 0.07427669 -0.08077318 0.19414338 -0.160708 -0.014394901 -0.10590127 0.04942828 -0.008002343 0.15475991 0.14544246 0.029576195 -0.09724231 -0.15540451 0.11824218 0.22648987 0.12849529 -0.015301021 0.037228554 0.11403053 -0.030132398 -0.098939225 -0.14473437 0.062188365 -0.08354738 -0.030884199 0.027445287 0.10105068
heirloomcookbook -0.008053744 0.00040555466 -0.000957625 -0.0033761095 0.004113176 -0.011145214 0.0014089094 0.0030226978 -0.000318666 -0.0021136757 0.0075708674 -0.0041088806 0.006343794 0.011811697 -0.012491385 -0.004897715 -0.008584505 -0.0040811375 0.0024494948 0.008925849 -0.009839485 -0.000653686 -0.0046949326 0.0045306673 0.0029867338 0.0022288188 -0.004121976 -0.009696713 0.003934662 0.0067257145 0.012412685 0.012461788 0.0016071694 0.011856708 0.00025225244 -0.0031739054 0.007223607 0.008841927 -0.009883982 0.003061111
TraegerCulinary -0.003953656 -0.0114125535 -0.004743423 -0.0055936947 -0.009738596 0.00996557 -0.0028568655 -0.008477181 0.00200433 -0.011275912 -0.005095321 -0.008034682 0.01112382 0.00693521 -0.0041331844 0.00034400355 -0.008142384 -0.008759709 -0.002671997 0.008365906 0.008598779 -0.0015407307 -0.0063402327 -0.0066868425 0.0005924674 -0.005706674 -0.008361939 0.0018743826 -0.0060930434 -0.011903803 0.0036200834 0.0033858353 -0.00441722 -0.008270268 -0.004971294 0.008145467 0.007449706 -0.0067064944 0.0061490117 -0.0091144545
jkimPies -0.0003970731 0.0037267366 0.01197574 0.0057304027 -0.0035786256 -0.005843015 0.0032732068 0.009900077 0.0070239296 0.007969708 0.012173287 0.0040217927 -0.0032587824 -7.584877e-05 -0.0067834035 0.0048082387 -0.0098594325 -0.0052781226 0.009385868 -0.010452899 0.0013597552 0.0062542995 -0.0025789542 0.0002324488 -0.0041524563 -0.0015505431 -0.010453718 0.010321279 -0.0007483959 0.01039813 0.002988967 -0.0010923343 0.0028349478 -0.004303284 -0.010886011 -0.005734909 0.011709855 0.007635827 -0.009908015 0.008263194
sparkjoydaily -0.0034315605 0.00020013936 0.0056517655 -0.0074959635 -0.007464996 0.007752196 -0.011301237 0.0076230476 -0.0054898085 -0.0057844655 -0.0013511721 0.0033525797 -0.0049040318 0.00016964693 0.012029664 -0.008041466 0.002599014 -0.0036983145 -0.0034167115 0.00076596905 0.00838796 -0.004915226 0.0007427316 -0.0013579279 0.0028559836 -0.009029172 -0.005099037 -0.006033592 0.009203167 -0.007113773 -0.0021978943 0.007798326 0.0024398519 0.008987005 0.00051207654 0.0031231688 0.0017837267 -0.010954893 0.006089852 0.001198967
thanksgiving -0.45600656 0.31655696 0.029057033 -0.12848678 -0.070756555 0.34824273 -0.23565592 -0.33138606 0.6278557 -0.16623333 -0.47438878 0.59727514 0.4268104 0.6627103 -0.108957686 0.4827961 -0.5651215 0.3113356 -0.07448043 -0.05850734 0.29935563 -0.015355868 0.4833043 -0.033213675 -0.35608345 -0.6417046 0.016860662 0.5579785 0.033070985 0.4002176 -0.6020403 -0.18984653 -0.40221015 0.2711606 -0.08047699 -0.07721172 -0.70277244 0.40547946 0.13023803 0.5018184
thanksgivingleftovers -0.20230584 0.023160947 -0.103287436 0.061809003 -0.048079196 0.110641465 0.029139275 -0.12282518 0.20051028 -0.10737631 -0.16333051 0.13377267 0.10311012 0.16603985 -0.0940027 0.20871893 -0.19836298 0.050552357 -0.058381468 0.036224477 0.030749755 0.08513298 0.2091274 0.04869527 -0.13276856 -0.26227775 0.06309634 0.28158852 0.06248976 0.0735072 -0.12388847 0.05102227 -0.14421299 -0.00988818 -0.14463268 0.0476622 -0.20594458 0.12093578 0.05822217 0.11701002
Vermicular -0.36123636 0.40419948 -0.4692158 0.1445548 -0.07012793 0.50035554 -0.35343128 -0.007833992 -0.16146252 -0.003332672 -0.3051371 0.5226099 0.4960971 0.7605235 -0.21987185 0.19872469 -0.79634684 0.31286383 -0.12632878 0.41154155 -0.19285773 0.011468578 0.41461307 0.63857734 -0.519768 -0.5931941 -0.09946875 0.61307544 -0.15595016 0.2057891 0.053604845 -0.10472312 -0.4831046 -0.81888837 -0.47366953 0.18270494 -0.3942121 0.040326983 0.44642118 0.41481054
Ad -0.35962588 0.45663387 -0.5721116 0.3133133 -0.07928956 0.60519046 -0.35977647 0.057339314 -0.10295927 -0.050793923 -0.28798947 0.6985929 0.5977974 0.6720799 -0.2680386 0.3639428 -0.6633511 0.2484222 -0.16420513 0.18481632 -0.18710792 -0.038060054 0.38872305 0.5991713 -0.6479025 -0.7810688 -0.051257797 0.5592082 -0.13390061 0.16294359 0.010051454 -0.13714778 -0.4885859 -0.82835287 -0.32929915 0.18812121 -0.2384662 -0.10778928 0.39794526 0.33418402
MusuiKamado -0.41411915 0.5012119 -0.6271598 0.36792195 -0.17258193 0.43956262 -0.26132885 0.029608004 -0.1723692 -0.013270033 -0.20153129 0.8268979 0.68253005 0.6110594 -0.17871019 0.43243462 -0.7875979 0.17652199 -0.2678133 0.30302417 -0.14010532 -0.03339035 0.40918404 0.7092075 -0.8394181 -0.87141144 0.012465605 0.6628066 -0.064241074 -0.011707879 0.06067096 -0.26170108 -0.49368837 -1.1205064 -0.50050884 0.2380194 -0.3546879 -0.054749735 0.4031733 0.2503278
howisummer -0.6461558 0.6763374 -0.68969697 0.32093295 -0.033069376 0.45147967 -0.13592905 -0.38201195 -0.18643014 -0.043723535 -0.25869608 0.87983555 0.70903397 0.80720574 -0.103927165 0.4210239 -0.78192264 0.3952709 -0.25446615 0.3922924 -0.20368448 0.20987499 0.44643888 0.95883834 -1.0786514 -0.9360393 -0.09732549 0.8818397 0.06862605 -0.21589512 -0.29373023 -0.38280177 -0.32655025 -1.2901658 -0.6744972 0.23892556 -0.43580282 -0.3171162 0.40026844 0.23498291
rslove -1.0463433 0.008197898 -0.825309 0.660123 -0.12997013 -0.156373 0.43362695 -1.3712869 -0.18778253 -0.40130565 -0.93581647 0.042173646 1.0223621 0.28003204 0.3693875 0.8334203 -0.5933229 0.32103053 -0.29583612 0.5282614 0.6573024 -0.41262123 0.77498186 0.81891626 -0.47594818 -0.9048785 0.011268582 1.0463063 0.4878847 -0.5165087 -0.69805825 0.28913486 -0.12497128 -0.50273496 -1.0506648 0.10177455 0.36386082 0.26321214 0.4912121 -0.30033666
tastemade -0.67911667 -0.1821047 -0.08332358 0.075594395 -1.1534934 0.42276302 -0.19051628 -0.85564685 -0.8564654 -0.38548866 -0.52318203 -0.24773958 1.5352906 0.8638657 0.056602355 0.26203465 -0.8525832 -0.036313117 -0.58611625 0.5650177 -0.10384437 -0.44635603 1.3040321 0.56775147 -0.29247448 -0.5837349 -0.47582108 1.0435077 0.5828392 -0.30173966 -1.0438795 1.1271052 -0.47661453 -0.6173426 -1.0268394 0.1359243 0.8169941 0.045293875 0.42745098 -0.2089589
bareaders -1.1183039 -0.12816189 -1.2862217 0.602441 0.0787606 0.48751876 -0.59523726 -1.3351703 0.25596276 -0.47087187 -1.4505647 -0.09568338 1.0312108 0.89710736 -0.05853133 1.022935 -0.5611064 0.78666884 0.43406332 -0.04103045 0.7379323 -0.11443565 0.5812431 0.7783346 -0.75688237 -1.0661883 -0.3916584 1.210634 0.09315658 0.07286427 -0.36548978 0.36302447 -0.00014630356 -0.15638565 -0.7232973 -0.1618715 0.4621375 0.4469691 0.7263975 -0.26329058
createandcapture -0.91516477 -0.2773023 -0.69021595 0.9722352 -0.26363924 0.2998556 -0.54956466 -0.93014646 0.2279005 -0.7726026 -0.98712635 0.0520794 0.69980264 0.42788956 0.3591234 1.0675305 -0.7746918 -0.039735742 -0.3039896 0.50026137 0.7451508 -0.7058619 0.73651177 0.8135708 0.26035514 -0.5365397 0.13366805 1.1248019 0.01609741 -0.09897151 -0.6908881 1.1993258 0.027827965 0.19095746 -0.96479666 0.1870101 -0.033169933 0.36763176 0.8381814 0.05754392
momentsofmine -0.7058468 -0.757507 -0.59489846 1.3874608 -0.73072577 0.14062595 -0.35259324 -0.81950736 0.38572216 -0.6202777 -0.72146654 -0.4064841 0.5033789 0.13273023 0.35693455 1.3010328 -0.96836066 -0.37347767 0.0794331 0.89988834 0.8627159 -0.7644589 1.0418638 0.7944596 0.7698826 -0.3528668 0.092420675 1.1718141 -0.18281713 0.17454882 -0.0400365 1.8265786 0.2034116 -0.18610746 -1.4005342 -0.28017902 -0.38163304 0.9138264 0.9004235 -0.08634908
aquietstyle -0.96074337 -0.25370726 -0.45966825 1.0506732 -0.12325088 0.17907186 -0.49139416 -0.83157253 0.572389 -0.7305398 -0.91265464 -0.042639636 0.61826384 0.4244728 0.49567884 0.9374084 -0.8260292 0.18513796 -0.032372512 0.54934204 0.7428277 -0.48827833 0.73310983 0.6665126 0.33758137 -0.38473645 0.07694776 0.98311305 -0.16010086 0.08120886 -0.59793186 1.1879445 0.053938597 0.06417467 -0.8129087 0.058386657 -0.3111861 0.48010042 0.92150503 0.16460751
daysofsmallthings -1.0093755 -0.36862355 -0.4532674 0.91442424 -0.28278896 0.20359029 -0.555097 -0.8081863 0.5313866 -0.5650129 -0.85760653 0.01564748 0.4742541 0.5279291 0.39051914 0.839058 -0.7098008 0.2050865 -0.06987271 0.54899955 0.9088104 -0.55019474 0.6671942 0.400451 0.37300155 -0.43856484 0.20987171 1.0213938 -0.065946884 0.19960862 -0.52760047 1.0927233 -0.17731267 0.22176842 -0.85791713 0.06538931 -0.44375378 0.45643607 0.8528559 0.115297064
simpleandstill -1.0461819 -0.33487287 -0.19901426 0.9568207 -0.29627445 0.19936572 -0.48093292 -0.59091926 0.68521637 -0.53202784 -0.6470828 0.06052041 0.40163574 0.39338002 0.44649994 0.72923434 -0.79748845 0.2054743 -0.14960887 0.73146445 0.96655536 -0.5065549 0.6547124 0.38239798 0.5368715 -0.39695507 0.27799034 0.9347222 -0.08739304 0.18058884 -0.55052423 1.115019 -0.21271251 0.102689214 -0.74070954 0.10235455 -0.49416468 0.37504116 0.8687477 0.28252447
untoldvisuals -1.0262573 -0.4219649 -0.18039683 0.8181939 -0.3613971 0.13394935 -0.4165701 -0.5039617 0.66030097 -0.54713374 -0.5899473 -0.02022171 0.2833228 0.39861795 0.38686225 0.7675198 -0.7415965 0.10697003 -0.05195486 0.6418117 0.8820926 -0.4061308 0.5650485 0.26194674 0.47032297 -0.30827782 0.2087129 0.8749829 -0.024211667 -0.03286045 -0.54600036 1.087181 -0.05860632 0.17983475 -0.7857058 0.08662296 -0.53388894 0.39406544 0.83729225 0.24414566
eatrealfood -0.969901 -0.43929455 -0.12815064 0.7854499 -0.4072449 0.14506824 -0.43651137 -0.4715841 0.6994408 -0.5041898 -0.5376611 -0.015089989 0.2234014 0.38169298 0.37314203 0.74597365 -0.77934444 0.10404957 -0.065957196 0.6492857 0.84710795 -0.35836995 0.58773655 0.21374738 0.48008165 -0.3097394 0.18064694 0.9012469 -0.014086762 0.0352501 -0.51409936 1.0878552 -0.047047216 0.16844584 -0.7611517 0.105328456 -0.6153255 0.39636242 0.8005397 0.26016694
CrateStyle -0.0075963214 -0.0019462779 -0.0059281024 -0.010999938 -0.002949412 0.010023312 0.003137934 0.0066969926 0.0041596116 -0.00997868 0.005271769 0.012454719 0.0020894483 0.0041015586 0.012240217 0.0076349312 -0.012445089 -0.004272026 -0.0044210684 -0.010974655 0.007872024 -0.0074934675 -0.007909812 0.0047764545 -0.00041996688 0.010685888 -0.0024150033 0.006105109 -0.0007253615 -0.010832176 0.002654925 -0.0041266438 -0.011473677 0.002535848 -0.0060794577 0.002020955 0.009296588 -0.0013706433 -0.0072736754 -0.0044397917
coffeeeee -0.60172296 -0.23274396 -0.09297756 0.49322137 -0.21109717 0.09564514 -0.26919866 -0.30660626 0.47723117 -0.3272447 -0.33125937 0.06898021 0.16005217 0.2181796 0.27320832 0.4989931 -0.46637097 0.10504909 -0.0460686 0.39901024 0.54240274 -0.23943998 0.3574863 0.17795947 0.2897788 -0.20531818 0.1172736 0.55670583 -0.048538562 0.03444238 -0.3618624 0.6528724 -0.09195238 0.086306505 -0.45596147 0.046140287 -0.4296094 0.21830082 0.47944024 0.18854952
frenchtoast -0.0034877928 0.003596642 -0.0071344227 0.0057934197 -0.009981455 0.011135208 0.0017548399 0.011135497 -0.011223236 0.011040078 0.00521719 0.01184597 0.00081246905 -0.009757958 -0.001283342 0.0088907955 0.012263929 0.0024384782 0.00037239492 -0.009592031 0.0067721168 0.006105096 0.012326221 -0.0066259936 -0.009563006 0.0038843015 0.007780797 -0.009470193 -0.010626331 0.0006873254 0.009346812 -0.009061282 -0.0045185937 -0.009235626 0.010704345 -0.0028623985 0.005650443 -0.00558573 -0.0087640835 -0.0032563005
gorengpisang -0.1477753 -0.0074893483 -0.079064116 0.09351846 -0.1009633 0.08584798 0.077854 -0.05699192 0.13235281 -0.065272525 -0.05292076 0.009893759 -0.02845659 0.044851538 -0.035210006 0.18478663 -0.19060342 0.006315427 -0.0826179 0.11609911 -0.0066148643 0.1251573 0.13628708 0.036934793 -0.06526138 -0.1438144 0.11382728 0.22305791 0.09487584 0.0005782052 0.014116253 0.11121329 -0.033002164 -0.1006101 -0.16319816 0.053195458 -0.1008416 -0.0068008434 0.04910617 0.08246571
hoshinoyaguguan 0.0036463784 0.0074154595 -0.0014783423 -0.005071646 -0.010066597 0.0033108229 -0.005446549 0.0019324021 0.0013194261 -0.00876155 0.008919123 -0.0039913356 -0.010396515 -0.0044003185 0.0035557998 0.0043288628 0.010548034 0.002248006 -0.009424975 0.007105342 -0.00039099623 -0.0044224365 -0.00071408134 -0.008577611 0.00025573187 -0.004517153 9.1046095e-05 -0.0008869618 -0.009014686 0.005777425 7.966533e-06 0.0015310021 -0.0036606966 0.010804062 -0.0065514254 0.012452922 0.010290808 -0.008111988 -0.0058941664 0.0005605491
xlbcrxtaiwan -0.12709793 -0.06158306 -0.06797343 0.08654995 -0.08794851 0.088092834 0.10642849 0.0009516536 0.14663634 -0.10518963 -0.057267807 -0.01058381 -0.021340901 0.05989302 -0.077204235 0.16503364 -0.1745026 -0.020500695 -0.104936436 0.035522535 0.0018592157 0.1354338 0.14457865 0.021559203 -0.081936166 -0.14570802 0.13711414 0.2119521 0.10311258 0.0059193256 0.049323272 0.17907338 -0.04152463 -0.064075105 -0.12360671 0.0479105 -0.11623584 -0.024080202 0.037723526 0.102287136
anxiety -0.0054458454 -0.012398775 -0.0030350182 -0.001582074 -0.006941286 0.0063068094 -0.010437289 -0.010999776 0.003108928 0.0059262672 -0.009698316 0.00661938 -0.0063794227 0.00052470993 -0.012375273 0.0003600372 0.0044222334 -0.004683392 0.0022151489 0.007994586 0.010788915 -0.0003402233 0.005625167 0.005002114 -0.0030774307 0.002735503 0.0028757695 -0.010805427 -0.012208283 0.0023616748 0.009664883 -0.0039753495 0.010318092 0.005592766 -0.00616152 -0.009208314 -0.010756058 -0.0114897955 -0.0047133043 -0.007291363
mentalhealthawareness -0.14194627 -0.020550285 -0.06592519 0.110667795 -0.08724503 0.09864797 0.07178269 -0.0064752502 0.1372261 -0.10246581 -0.0683183 0.032362126 0.011453643 0.059219383 -0.05894808 0.17378566 -0.17654112 -0.01788313 -0.080127046 0.04835675 -0.002520696 0.12142077 0.14685588 0.022500778 -0.0791593 -0.15110482 0.104424655 0.2306071 0.11499009 0.003229616 0.009758758 0.14910406 -0.060369838 -0.06396424 -0.15664023 0.058483236 -0.12157239 -0.00619811 0.060781248 0.09159615
myseasonaltable -0.42220914 0.17669502 -0.68027484 -0.4111609 -0.5891835 0.47078165 -0.22913526 0.01400908 -0.07022453 -0.19548991 -0.3217087 -0.27160546 0.059042517 0.56728536 -0.46932733 0.54752177 -0.70465165 0.018443089 -0.34928665 -0.27719522 -0.41327253 0.2647697 0.15925403 0.08468349 -1.1079707 -0.52487695 -0.21640599 0.6907246 0.56115234 0.18496087 0.3721515 -0.262943 -0.2873175 -0.53266376 -0.63864785 -0.13316414 -0.1390336 -0.12211414 -0.08390343 0.25185695
eatseasonal -0.41853023 0.22691609 -0.7476769 -0.3196149 -0.6783323 0.34308803 -0.1586538 -0.0002457299 -0.07787763 -0.20805533 -0.23455338 -0.15367025 0.1640795 0.5101576 -0.40287414 0.60737824 -0.7602463 -0.05329727 -0.4250874 -0.24153021 -0.40472487 0.28812903 0.15923542 0.16160193 -1.2524747 -0.60767496 -0.13021058 0.74318546 0.60590696 0.032918144 0.41023448 -0.34294325 -0.23598875 -0.718478 -0.7024975 -0.09772315 -0.13250932 -0.11623475 -0.13190994 0.18508391
seasonaleating -0.45124707 0.23145455 -0.7923921 -0.3120148 -0.6821263 0.40167052 -0.1386968 0.0016738495 -0.09620396 -0.2003889 -0.23386368 -0.1039476 0.20317112 0.5397632 -0.42962402 0.6524725 -0.74050653 -0.06438262 -0.46788582 -0.2987111 -0.4553183 0.27309325 0.1956742 0.1558538 -1.3451422 -0.7132943 -0.10874822 0.74185526 0.67494375 0.052576814 0.41253123 -0.37397498 -0.26094362 -0.73087466 -0.70295876 -0.07747177 -0.03772555 -0.14226325 -0.1303749 0.1900721
seasonalfood -0.7778503 0.24240969 -0.8400424 -0.561993 -1.1049696 0.7111229 -0.05629015 0.2275155 0.17763868 -0.36767855 -0.19837238 -0.4237438 0.19972666 0.5455307 -0.62197286 0.90184134 -1.2635189 -0.19941981 -0.6715101 -0.59326977 -0.75260556 0.5388515 -0.12610155 -0.059355408 -1.5826652 -0.68663204 -0.21918136 0.8603501 0.80550885 -0.019028006 0.64230114 -0.3775672 -0.40835708 -1.0434102 -0.69623077 0.028621642 0.13587032 -0.17385383 -0.11445814 0.38066176
realsimple -0.91270745 0.48329356 -1.0714403 -0.33599302 -0.64974207 0.3798515 -1.0397607 -0.5816245 0.25065884 -0.12741844 -0.5402379 -0.20568983 0.7042514 1.1771886 0.012686607 1.0963025 -0.84458464 0.65292335 -0.13289098 -0.23885569 -0.036107678 0.06274728 0.18831559 0.39406532 -1.658879 -0.72361517 -0.38318098 1.0070757 0.66346383 0.60488343 0.27425325 -0.6902239 -0.24142657 -0.57905036 -1.0623664 -0.46673822 -0.60626185 0.26783496 -0.041874364 0.2518394
firstweeat -0.38193038 0.24369557 -0.924855 -0.45303673 -0.7916792 0.4758835 -0.20528719 -0.00023334663 -0.16514933 -0.22280192 -0.1048672 -0.012418654 0.22010277 0.5608048 -0.5022989 0.7053643 -0.79773533 -0.0055756983 -0.5489658 -0.21357855 -0.5301465 0.4443049 0.1878172 0.13507237 -1.5458603 -0.8792598 -0.1078934 0.9150911 0.69348395 0.1338879 0.48028997 -0.47714385 -0.31651172 -0.9062203 -0.84111184 -0.066312045 -0.115976006 -0.16399533 -0.29353657 0.24413826
inmykitchen -0.10075603 0.048735492 -0.9468777 -0.9206504 -0.3506366 0.14269176 -0.17697589 0.05044433 0.3945107 -0.34984303 0.1640958 -0.3251855 0.5657901 0.3422941 -0.4084482 0.7017089 -0.6639493 0.33558804 -0.5145758 0.3023647 -0.5382264 0.9852201 -0.27108714 -0.31866258 -1.41447 -1.0729561 -0.26079234 0.97916174 0.16107342 0.08206701 0.23211165 -0.26085222 -0.84447986 -0.7038497 -0.7793829 -0.36582956 -0.5645864 0.96737516 -0.7964137 0.26653934
eatmunchies -0.2208554 0.05767345 -0.9566862 -0.4630635 -0.68257546 0.3297213 -0.07407424 0.08410158 -0.09167773 -0.28400084 -0.09080475 0.08240001 0.352016 0.5236061 -0.56027704 0.51994604 -0.41641137 -0.0051058824 -0.4291015 -0.2291669 -0.6640973 0.5496308 0.34185934 -0.02827055 -1.608594 -1.0293893 0.085005626 0.9768793 0.7178113 0.19484542 0.37167427 -0.31456888 -0.22150253 -0.8144062 -0.8433546 -0.045872606 -0.21591064 -0.18807901 -0.4425893 0.12141624
thenewstyle -0.17508526 -0.0025565168 -0.85214186 -0.4183909 -0.6903396 0.32444468 0.102632284 0.2156232 -0.037307296 -0.3080944 0.025298648 0.04455373 0.25140268 0.37757528 -0.6221973 0.4806691 -0.33382466 -0.11804695 -0.45523587 -0.25934985 -0.8393783 0.70741874 0.34159306 -0.14616919 -1.6077605 -1.0023515 0.22163124 0.92519665 0.7711769 0.13370083 0.38012934 -0.1758066 -0.19283713 -0.8338634 -0.7462112 0.07695386 -0.20925914 -0.2448093 -0.48381898 0.08491866
italianfoodstyle -0.112706475 -0.025748339 -0.84080887 -0.3207642 -0.63827455 0.24734277 0.20898022 0.17102678 -0.0023624294 -0.30909485 0.03937875 0.1606064 0.2962471 0.28522936 -0.56082433 0.48443782 -0.25321296 -0.085043654 -0.4236486 -0.23583066 -0.8017025 0.7497946 0.3927276 -0.15891705 -1.5554265 -1.0370451 0.2943568 0.94298756 0.75928104 0.10264312 0.33035216 -0.16312502 -0.15728895 -0.84046704 -0.7079431 0.13180888 -0.24186637 -0.22902554 -0.51715684 0.039839435
mangiareitaliano -0.11475783 -0.09923762 -0.80933195 -0.33234346 -0.51918817 0.4069196 0.15102576 0.25066042 0.07088501 -0.34598044 -0.082511544 0.038171154 0.22766936 0.39220324 -0.6638786 0.41713372 -0.14853126 -0.039043624 -0.3489965 -0.3624465 -0.85152173 0.7780492 0.42764568 -0.25981662 -1.4309165 -1.0018252 0.26617268 0.9104738 0.77653 0.26234138 0.27740234 0.046124533 -0.19033986 -0.57914436 -0.5908032 0.1060211 -0.24299195 -0.2579197 -0.45596427 0.082315944
italiancooking -0.086966336 -0.22547773 -0.6271737 -0.56167305 -0.47602826 0.33266145 0.19903016 0.14199981 0.10882732 -0.34181705 -0.12851709 -0.16149907 -0.040339258 0.43617254 -0.59361154 0.28215826 -0.16421694 0.0646459 -0.26646286 -0.16997008 -0.9163661 0.9004296 0.54739124 -0.43357685 -1.2183033 -0.776953 0.30057362 0.9760048 0.865556 0.41741148 0.23049474 0.17008474 -0.15073699 -0.34480062 -0.7237037 0.15954982 -0.3669382 -0.12616603 -0.5604408 0.08726684
italianrecipe -0.1065398 -0.22516929 -0.595462 -0.47879225 -0.44591087 0.30176565 0.22633265 0.17844105 0.12668042 -0.32064885 -0.12208458 -0.17445016 -0.0680593 0.40215823 -0.5615414 0.27606928 -0.064491056 0.04736341 -0.13254933 -0.18058817 -0.97514504 0.88088024 0.6361304 -0.4769493 -1.1222012 -0.7371697 0.29825112 0.90847206 0.90111893 0.3963489 0.19107197 0.16126524 -0.07894138 -0.30595505 -0.68656844 0.23828463 -0.3276789 -0.17299707 -0.47577465 0.043743692
homebaking -0.29044992 -0.30006993 -0.41509598 -0.5617821 -0.52110475 0.35186648 0.10387318 0.12801647 0.45864967 -0.3746205 -0.09476889 -0.16266298 -0.05112584 0.4554285 -0.5387166 0.35367632 -0.18374945 0.12391772 -0.12766555 -0.34389806 -0.76829505 0.72555965 0.378399 -0.6803225 -1.0030236 -0.6360808 0.059335776 0.9522787 0.50201404 0.23120844 -0.37903023 0.45781842 -0.4839049 0.04054891 -0.58444834 0.08937886 -0.40289688 0.10803927 -0.3377108 0.095013134
instabake -0.099768125 -0.20475698 -0.40302256 -0.30604175 -0.21991695 0.31078377 0.2474755 -0.013300449 0.23129176 -0.22362784 -0.23543231 -0.10261059 -0.07708412 0.31096745 -0.4899273 0.2470929 -0.07849548 0.09438751 0.028678853 -0.22886336 -0.783738 0.7639849 0.54678094 -0.40719825 -0.74021375 -0.65181005 0.21796696 0.7194999 0.54283565 0.2975653 0.013918451 0.21523024 -0.14833115 -0.035973974 -0.4184536 0.29263708 -0.18813063 0.06741554 -0.26785526 0.06781025
patisserie -0.09770331 -0.21501504 -0.33933064 -0.25779784 -0.21348087 0.3141697 0.30139604 -0.03257632 0.32875705 -0.24847513 -0.22139493 -0.09392694 -0.09686194 0.28085202 -0.52030957 0.27967352 -0.084598035 0.07680483 0.07226893 -0.25600532 -0.74937195 0.8050992 0.6065262 -0.47396863 -0.63586766 -0.6426367 0.265926 0.7054609 0.49558702 0.28758952 0.0047903243 0.24874589 -0.16982013 0.002203552 -0.36217186 0.32716888 -0.21786755 0.10688774 -0.22514574 0.10464099
baking -0.2954488 -0.14458106 -0.42035228 0.076210655 -0.16279092 0.6196954 0.6878733 -0.5421341 1.1904771 -0.03324904 -0.16918129 -0.039570235 -0.3129066 0.05830516 -0.3246742 0.5320907 -0.16915895 0.52141845 0.48068568 0.36356038 -1.123003 1.6122302 1.2553679 -1.2033298 -0.04808098 -1.0205148 0.6417628 0.97391695 1.1599555 0.87768364 -0.048348665 0.3408731 -0.16313423 0.38810977 -0.42564407 0.68508345 -0.1973948 -0.057375565 -0.5500677 0.2683362
bakingtime -0.022144353 -0.2605421 -0.2370011 -0.23719862 -0.16277812 0.3268885 0.30162504 -0.07686963 0.32978594 -0.17691717 -0.26005504 -0.0779509 -0.100351125 0.28685504 -0.47322395 0.24381799 -0.14007722 0.14838757 0.06859816 -0.16665508 -0.6152522 0.80793947 0.61135966 -0.46605533 -0.4455348 -0.59996635 0.2808939 0.71000624 0.40319833 0.32492566 -0.012207589 0.31377745 -0.22896938 0.06318475 -0.33442616 0.3993108 -0.21652302 0.18356973 -0.16487831 0.13734187
thebakefeed -0.06292277 -0.3356563 -0.8230015 0.0008622896 0.3558521 0.50350714 0.43428075 -0.8330047 -0.2674652 -0.16666032 -0.7936548 0.13737942 0.041084364 0.8292998 -0.78220564 0.25000933 -0.32704568 0.13810605 0.53968847 -0.08697563 -0.61842155 0.83242476 0.80889034 -0.118125744 -0.532725 -1.0688137 -0.15524305 1.0328996 -0.3589854 0.017804177 -0.3810764 -0.06257767 -0.51847434 0.025350418 -0.7818786 0.8227085 -0.37919173 1.0302883 0.25829837 0.048987
lovebaking -0.041969407 -0.20229156 -0.18846071 -0.16293256 -0.014007394 0.28810382 0.29904658 -0.19905615 0.34267473 -0.17515971 -0.2753099 -0.04893775 -0.17356682 0.26462558 -0.4099932 0.27628526 -0.13892436 0.19552818 0.14995065 -0.09625456 -0.44289568 0.7765502 0.56864375 -0.37677827 -0.28911287 -0.5252801 0.28434286 0.63832194 0.29312542 0.21978231 -0.031461574 0.2823225 -0.15293463 0.09987119 -0.2939371 0.44478863 -0.19221933 0.20697914 -0.08079716 0.14621535
ilovebaking -0.082319066 -0.18872617 -0.16505925 -0.18813881 -0.05192077 0.28172094 0.3042776 -0.17131586 0.31694 -0.16639571 -0.29280978 -0.06719453 -0.15436675 0.25065205 -0.40602863 0.23972417 -0.16843191 0.16791387 0.10050814 -0.10032249 -0.48627558 0.7521245 0.53796864 -0.33547908 -0.27993163 -0.5103125 0.2539129 0.5961432 0.3002007 0.2174698 -0.023954332 0.28944102 -0.16805984 0.10321083 -0.27341464 0.44327256 -0.15328838 0.20530519 -0.057754334 0.16822596
lovetobake 0.14569151 0.003965899 -0.25359824 -0.46970317 -0.038217474 0.3156285 0.2849028 -0.18364823 0.10958291 -0.0010888944 -0.38722214 0.16242489 0.34533405 0.3498685 -0.32413736 0.053097054 -0.43737623 0.542405 0.05192917 0.17358874 -0.4016987 0.8715442 0.6349589 -0.31477162 -0.3529381 -0.86292416 -0.055643998 0.6769223 0.024577955 0.52373 0.082084514 0.29548013 -0.77214676 -0.18940802 -0.28066164 0.33397558 -0.29860356 0.52357054 -0.33155707 0.2721726
bakingday -0.06528911 -0.16347209 -0.13157576 -0.111809626 -0.0549514 0.27007422 0.21070583 -0.1523508 0.25007796 -0.16111816 -0.25391173 0.038304765 -0.030634014 0.2847566 -0.34662572 0.24082875 -0.22175148 0.14262632 0.06533409 -0.09325421 -0.25941265 0.54334545 0.47550982 -0.219578 -0.23002498 -0.49983758 0.17878544 0.5736979 0.13343887 0.11720077 -0.07113913 0.23603067 -0.25830165 0.01860339 -0.22571555 0.35839316 -0.2044051 0.25756338 0.035729937 0.18242477
bakingfun -0.06819545 -0.12404312 -0.1611238 -0.116455 -0.021717852 0.2749763 0.19172667 -0.17443165 0.22071369 -0.16811714 -0.22923674 0.022707902 -0.048255198 0.28072554 -0.33030963 0.28247637 -0.21005419 0.113754526 0.02172152 -0.082386225 -0.25156966 0.527352 0.39601645 -0.16353077 -0.23728299 -0.4901713 0.19854769 0.5361545 0.15242024 0.06498851 -0.037808836 0.19579057 -0.20177756 0.004817008 -0.2289015 0.333555 -0.18238594 0.24724989 0.05264157 0.1990129
dairyfree -0.209824 -0.06058223 -0.22471116 0.14112031 0.10110636 0.10048564 0.21676652 -0.48607227 0.21371877 -0.18564497 -0.11437217 -0.1466728 -0.27615753 0.29830706 -0.22752948 0.44187865 -0.2026434 0.09437413 -0.0670159 0.13014871 0.0052931467 0.7545502 0.09745526 0.089732416 -0.09004928 -0.43251655 0.5314142 0.5613682 0.28044918 -0.43613675 0.02749479 0.0046977466 0.24714316 -0.21150407 -0.18131737 0.501683 -0.064163625 0.035948955 0.06496702 0.18491864
oliveoilcake -0.11803822 -0.111584574 -0.1418124 -0.030173734 -0.051734395 0.16475868 0.19947377 -0.12046686 0.21522595 -0.16034368 -0.17662436 0.0025968635 -0.0393692 0.18490043 -0.22047615 0.26584986 -0.2568157 0.094775215 -0.030495843 0.06511851 -0.12044807 0.47156805 0.35943073 -0.12732568 -0.13426505 -0.36108688 0.18765572 0.47891828 0.1618567 0.06544705 0.02145268 0.23907275 -0.14235272 -0.07605224 -0.26837155 0.27835962 -0.20875664 0.13685009 0.007862819 0.18648972
bakedinmud -0.3093907 0.12967226 -0.52212536 -0.2728132 -0.41650203 0.34772778 -0.11587269 0.0024740442 -0.028783927 -0.16971731 -0.22792667 -0.15245682 0.12021381 0.42254078 -0.33669576 0.42736712 -0.51815414 0.019321581 -0.27887115 -0.22187716 -0.3164018 0.22274801 0.13027792 0.044191886 -0.82380724 -0.4252173 -0.1212163 0.51341486 0.4056788 0.122327596 0.26687202 -0.15678759 -0.25120798 -0.39426833 -0.4475324 -0.053641852 -0.06508155 -0.028977053 -0.072447546 0.17350836
savorypie -0.12366642 -0.11315554 -0.48191854 -0.21747598 -0.3335058 0.22160745 0.17812164 0.20707053 0.037025757 -0.31425563 -0.16926323 -0.1032558 0.045143254 0.3103714 -0.44107923 0.27239653 -0.1597098 -0.09205742 -0.21355946 -0.2561313 -0.61297554 0.52380407 0.33992055 -0.11529326 -0.83347976 -0.49592325 0.20662554 0.60773456 0.55446726 0.12370071 0.21705814 0.16151597 -0.060742937 -0.31837803 -0.44029868 0.11556784 -0.194288 -0.16343556 -0.22282295 0.083124034
cookingfromscratch -0.09474756 -0.34569386 -0.2121908 -0.09494881 -0.38129878 0.14479877 0.18620107 0.47818175 0.1681496 -0.51976967 -0.16213779 -0.15284148 -0.015433949 0.2823593 -0.20291102 0.25411758 -0.054083414 -0.19168296 -0.1240286 -0.33920294 -0.51318747 0.5407895 0.4892633 -0.1728434 -0.7196938 -0.39135754 0.35582083 0.53383476 0.6425543 0.09005265 0.09620542 0.5090953 0.13800903 -0.22523978 -0.36152023 0.24195889 -0.34399155 -0.33150694 -0.09199076 0.04372798
weeknightmeal -0.10749569 -0.14319882 -0.37082964 -0.09868908 -0.2737853 0.21461052 0.14889264 0.18196681 0.110520445 -0.29830855 -0.15760188 -0.085159436 0.057656266 0.23494022 -0.3712841 0.26117864 -0.115219146 -0.1028325 -0.15723737 -0.23748444 -0.48703182 0.45357051 0.36253402 -0.14682625 -0.6746801 -0.45934263 0.2683986 0.5525014 0.4710466 0.12918195 0.17078575 0.22163346 -0.037068773 -0.24298218 -0.33908835 0.13512102 -0.19186167 -0.1273545 -0.12600003 0.08746666
ad -0.46124357 -0.25193647 0.117036775 0.16421548 -0.12692851 0.29722998 0.5279359 -0.43039787 1.1870216 -0.31145248 -0.08301201 -0.054003283 -0.48054153 -0.1702137 -0.04219136 0.6600245 -0.51465786 0.48150158 0.29371148 0.5223649 -0.39892548 1.203866 1.090764 -0.63898164 0.46689987 -0.45518667 0.6260924 0.41993332 0.6350266 0.77233076 -0.054227162 0.468243 -0.24006702 0.4312285 -0.399927 0.71113884 -0.45580125 0.25426272 -0.12251896 0.52387065
lovescucchiaio -0.53458184 -0.2547465 0.063175924 0.10103791 -0.18989502 0.37478516 0.7617817 -0.4839867 1.417845 -0.23445308 -0.104585856 -0.16089669 -0.6338059 -0.19145669 -0.14487626 0.79657346 -0.6082119 0.5052602 0.18026452 0.73966205 -0.5471455 1.4117839 1.2351193 -0.6634415 0.4012769 -0.6400793 0.63144654 0.6230632 0.7684334 0.8353553 0.11346587 0.430839 -0.19986215 0.43224606 -0.53834945 0.686308 -0.45706528 0.30348325 -0.21676295 0.6350412
cake -0.6331795 -0.21935369 0.049194865 0.08838214 -0.20975862 0.4017438 0.8400333 -0.61063516 1.4928705 -0.21232413 -0.12326708 -0.1385747 -0.63835055 -0.20561525 -0.1041374 0.8493933 -0.5641686 0.55111784 0.22062524 0.7880409 -0.6069101 1.4787643 1.3415 -0.7066961 0.4176 -0.670873 0.63924915 0.68035764 0.87901896 0.8403606 0.06668439 0.43349436 -0.1955677 0.463631 -0.5357121 0.73241335 -0.4738299 0.20349395 -0.28023797 0.66636217
dessert -0.026715463 0.114048734 -0.11393967 -0.094113596 0.5758336 0.5089781 0.6373754 -0.5693949 1.3663183 -0.15285905 -0.536725 -0.04075832 0.39544907 -0.20651196 -0.42828375 0.5622497 -0.7388314 1.1424686 0.6316775 0.56801146 -0.7516683 1.8226002 1.1140038 -0.22816591 0.13301137 -0.8858233 -0.26281312 0.68093467 0.22089995 1.2331792 0.22529496 0.4347685 -0.73240256 0.37325853 -0.3448784 0.57037973 -0.71015155 0.7625848 -0.33775434 0.6793226
chocolate -0.8713344 0.2567014 -0.07491079 0.46191633 0.28295648 0.3437007 1.325312 -1.2923665 1.1079868 -0.14410037 -0.114028156 -0.63440746 -0.2692146 -0.7843342 -0.099365324 1.0016813 -0.91120374 0.7645867 0.44936225 1.0360544 -0.5035989 1.5260804 1.4541571 0.04828631 0.50813365 -0.93607384 -0.2907188 0.3563056 0.8889726 0.8412328 0.3916227 -0.34751353 -0.14811699 0.31305143 -0.6575626 0.81562173 0.1075482 0.5173643 0.24910247 0.64688075
sweets -0.8863866 0.13051118 -0.37698206 0.18128128 -0.28901762 0.48950922 0.8763962 -0.90497345 1.5058571 0.11181623 -0.0658983 0.051489927 -0.6237206 -0.06465399 0.035682984 1.0296819 -0.41476348 0.5963096 0.23666115 1.1934186 -0.84858483 1.3198692 1.3994329 -0.7928445 0.44235328 -0.90722966 0.71651024 0.84480417 1.0986896 0.7014638 -0.10198058 0.057750203 -0.26159316 0.3660202 -0.38859138 0.7682247 -0.41604778 -0.005012827 -0.4804621 0.5331012
pastry -0.85698915 0.15295403 -0.37733337 0.2860231 -0.19530347 0.43828484 0.8297557 -0.78408223 1.4253659 0.13101514 -0.017315777 0.01533497 -0.77991 -0.023833705 0.18619068 0.94781834 -0.3153075 0.55355585 0.18803667 1.1925364 -0.81816137 1.2513127 1.3965709 -0.8380552 0.40938404 -0.7769418 0.8161364 0.8611266 1.1824043 0.66557634 -0.08437531 0.07338843 -0.13418719 0.39072293 -0.40923572 0.7126963 -0.3635224 -0.12799132 -0.5073631 0.47437656
desserts -0.8009105 0.3816357 -0.6719207 0.07057473 0.0684405 0.4869222 0.4248574 -1.1071693 1.0764562 0.11668563 -0.20472616 0.08265433 -0.22112204 0.28611088 0.09724523 0.73609024 -0.33520758 0.99819326 0.3675484 0.7682886 -1.1942208 1.5019548 1.2704245 -0.36850297 0.06665164 -0.7939108 0.6598186 0.8014775 1.242655 0.4919928 -0.31180963 0.30148533 -0.029047819 0.24485028 -0.3922992 0.8232561 0.17708172 -0.14233743 -0.4746954 0.35701844
bake -1.0346563 0.62842953 -0.5846737 0.071516156 0.034267783 0.4037918 0.8364575 -1.4219233 0.9464443 0.095586605 -0.14943203 0.16949736 -0.40725586 0.21300878 0.19540854 0.9458552 -0.20287035 0.62293416 0.06632668 1.214949 -1.0277463 1.3106799 1.4705611 -0.11370656 -0.13167731 -1.0215191 0.62606055 1.0614069 1.3108411 0.38652542 -0.40731236 -0.2544867 0.07248706 0.16646998 -0.48302445 0.7451548 -0.14076042 -0.38220164 -0.6185035 0.37902415
baker -0.9892268 0.83601075 -0.38709453 0.21180551 0.082137965 0.2460397 0.9431689 -1.3457267 1.0591849 0.21162015 -0.3604416 -0.021961909 -0.18705966 0.07856292 0.32625782 0.9076494 -0.34814474 0.825537 0.2908211 1.3960261 -0.90831375 1.2450771 1.307848 0.05422809 -0.011742501 -1.0020063 0.49348733 1.0542785 1.0714934 0.30476534 -0.14928985 -0.08081819 0.4315413 -0.18112274 -0.29161397 0.533463 -0.012669211 -0.43465763 -0.4324124 0.48139706
instacake -1.199327 0.84757787 -0.49537918 0.26862627 0.10134643 0.2507973 1.0690575 -1.3903853 1.0868278 0.21573626 -0.31571755 0.078820586 0.011483179 0.045418434 0.3139445 1.0727717 -0.4315011 0.7647201 0.17895123 1.4813291 -0.7748259 0.89681715 1.3358032 0.022915628 0.050205097 -1.1043873 0.15863149 0.9648943 1.2737907 0.25200695 -0.27229008 -0.2809779 0.058666456 0.08667617 -0.4239672 0.40156382 -0.14699464 -0.0745184 -0.37379584 0.553179
cakestagram -1.2540299 0.84904855 -0.6770273 0.290774 0.06837033 0.30825388 1.0120122 -1.4405171 0.9842401 0.22695448 -0.2887453 0.062447965 -0.02884732 0.10936232 0.25076416 1.1075475 -0.43956727 0.69377166 0.15917644 1.5066417 -0.6852853 0.9201113 1.2476441 0.07978881 0.01341993 -1.153303 0.18925133 1.0370234 1.2315053 0.23891649 -0.21926078 -0.49420837 -0.018462155 -0.062178656 -0.37147677 0.4422918 -0.102467634 -0.11588949 -0.32634574 0.48618683
bbcgoodfood -1.0838939 0.92243826 -0.4571153 0.36376554 0.26138484 -0.018863503 0.62374145 -0.9628195 0.4889914 -0.07251368 -0.0975263 0.3131911 -0.10065999 0.10636112 0.03419455 0.6814515 -0.5239093 0.5469281 -0.27066284 1.4418294 0.077254765 0.74377894 1.2110165 0.62621427 -0.16057509 -0.9281053 0.13903022 0.7556925 0.58453554 0.56381 0.28608936 -1.0621346 -0.27209407 -0.45671564 -0.14707676 0.32337674 0.09198112 0.05472725 -0.29967156 0.59880245
saveurmag -1.3399148 0.7016101 -0.4799068 0.39404598 0.40247318 0.008683197 0.8370755 -1.6016841 0.7613534 -0.27611002 -0.1278936 0.03751617 -0.016524622 -0.15585034 0.24374028 1.0927988 -0.6000485 0.741456 -0.19758847 1.2702676 0.04583229 0.86044914 1.2928305 0.49542996 0.026165258 -1.0620148 0.18851507 0.9218373 0.8743136 0.4748816 -0.12953922 -0.79818076 -0.1481261 0.0011559522 -0.46750027 0.37129122 0.09878487 0.36106145 -0.079605184 0.5979302
chocolatetruffles -1.3417455 0.49716648 -0.48912212 0.5575134 0.24722637 -0.03749365 0.8640295 -1.2711185 0.8835101 -0.20678051 -0.15206732 -0.024817541 -0.12472546 -0.25057912 0.16604437 1.1346473 -0.6091223 0.5920875 -0.14780642 1.210279 0.20708336 0.5747601 1.1220618 0.21616611 0.21637014 -0.9513283 0.18289383 0.747222 0.8279912 0.48098674 0.058898367 -0.7435518 -0.30190834 0.06887479 -0.378518 0.3143891 0.10527994 0.59904087 0.0193875 0.5740078
bakingbook -1.234116 0.37987977 -0.61962575 0.44855756 0.20815638 0.06909122 0.68323666 -1.1938196 0.73153573 -0.17656155 -0.038181096 0.09619551 -0.27006704 -0.100432895 0.10844145 1.075291 -0.49416605 0.44290054 -0.20618403 1.1526144 0.12927794 0.5444604 1.1049298 0.08703257 0.16028106 -0.88792664 0.22522783 0.745454 0.85815656 0.46334893 -0.048012767 -0.8218306 -0.42322302 0.18619022 -0.4945441 0.38684025 0.019452956 0.5921698 -0.06690412 0.49984372
pastrybook -1.2383024 0.3442965 -0.49863026 0.61289775 0.13222697 -0.007406605 0.73974836 -1.191771 0.87516075 -0.31888595 -0.030887926 0.0035246608 -0.44345593 -0.27491748 0.054859784 1.0570374 -0.4586522 0.329131 -0.29221606 1.0621244 0.22481184 0.68584394 1.1290829 0.06805536 0.2716107 -0.8352905 0.44960672 0.77765846 0.69971406 0.5465609 0.15550257 -0.80036306 -0.2417271 0.19041222 -0.31823128 0.37535074 0.093466155 0.42390546 -0.09180369 0.5257238
coffeeshopcorners -0.97021115 -0.036924813 -0.23815581 0.6699288 -0.39108375 0.16742642 -0.012844035 0.47196212 0.71964633 -1.3773453 -0.063591145 1.0959127 -0.4053386 0.2780025 -0.43160573 1.033727 -0.69409895 -0.59112203 0.42201194 -0.22782257 -0.14583316 0.9619654 0.9221631 -0.106784284 -0.33553213 -0.106429435 0.48023647 0.9141108 0.7059117 -0.8567566 -0.7833906 0.16480294 0.09686277 -0.9699968 -0.9452048 0.9596721 -1.6960596 -1.1103425 0.651549 0.746706
shotoniphone11pro -0.21209505 -0.05584723 -0.017628992 0.118324675 -0.12270343 0.056394044 0.02314467 0.10322708 0.15685125 -0.266667 0.013941977 0.1953452 -0.08152845 0.04699357 -0.07913393 0.20382637 -0.17150079 -0.10958282 0.048820704 -0.022212058 -0.016424784 0.19277324 0.24080104 -0.04974934 -0.06717281 -0.06813104 0.104468234 0.22947514 0.1743193 -0.15285812 -0.14072584 0.08119685 -0.0022380776 -0.18751575 -0.21627456 0.20171541 -0.33079627 -0.23145686 0.10429439 0.15895267
chasinglight -0.101679526 -1.1649247 0.049956743 0.45581153 -0.52001655 0.38854185 0.270628 -0.10950281 0.67308766 -0.49585903 0.0799877 -0.20200232 -0.51263684 0.36665395 -0.44253346 0.9827896 -0.4733163 -0.57529795 0.18809222 -0.3602564 0.42495745 0.5588443 0.8366981 -0.35063332 0.22657679 -0.5788364 0.5362564 0.8036827 0.102082565 -0.17215851 0.07525789 1.2982825 -0.19046545 -0.20023032 -1.2430812 -0.0014928296 -0.64753616 0.39004385 0.24604309 0.17624912
soup -0.1999919 -0.054249756 -0.122542955 0.11146736 -0.017737618 0.09725201 0.040552463 -0.03942035 0.16672371 -0.13714634 -0.14531593 -0.026193682 0.019525131 0.07474382 -0.07654042 0.27206668 -0.21259724 0.027363557 -0.06752357 0.017748352 0.040251996 0.12316977 0.17197244 0.064991884 -0.10116985 -0.17568506 0.1021917 0.26421386 0.11829144 0.003854475 0.015236737 0.13677546 -0.05863514 -0.061056137 -0.21377438 0.07956375 -0.19190682 0.04346744 0.13304517 0.09225173
comfortfood -0.1833203 0.0028445201 -0.1538211 0.10661028 0.006204445 0.11304735 0.0157204 -0.07881659 0.14591433 -0.13804479 -0.15735862 0.030527491 0.046202935 0.102410704 -0.058386456 0.24592008 -0.23893948 0.053864967 -0.088870384 0.033099156 0.056634482 0.1000302 0.17505884 0.1319195 -0.134754 -0.1937842 0.078499466 0.28629056 0.10972827 0.012747154 -0.020168673 0.11736599 -0.085840724 -0.08598483 -0.19840834 0.06869136 -0.1777859 0.03296243 0.12967068 0.09469418
chicken -0.46554506 0.13584223 -0.3020793 0.58057755 0.2657117 0.13955198 -0.26428384 -0.02567329 0.30356047 -0.17511527 -0.23696938 0.07951121 0.1634373 0.12649411 0.18030314 0.46300712 -0.48120502 0.24905188 -0.19200964 0.22228357 0.4634562 -0.2040406 0.00015350159 0.61684746 -0.12568691 -0.11364463 0.14924172 0.46855116 -0.016538223 0.07340747 0.14839531 0.19267237 -0.032322824 -0.28974146 -0.46063384 -0.022722667 -0.46578106 0.047774777 0.57164997 0.14609972
cookies -0.10860426 -0.005133232 -0.03603206 0.049041633 0.100054204 0.351879 0.5783765 -0.4862069 0.72091776 0.16939145 0.0249357 -0.081729144 -0.40242836 -0.25262168 3.5669254e-07 0.4801376 -0.71667933 0.53893024 0.4659107 0.86751467 -0.3528414 1.3199059 0.85046035 -0.38363686 0.21645452 -0.8960775 0.07234365 0.5359753 -0.18418013 0.742272 0.20433779 -0.24251647 -0.6589013 -0.07679266 -0.5294905 0.64329237 -0.6424909 0.68035114 -0.029044231 0.3526382
plantbased -0.47575444 -0.19419782 -0.44856122 0.5406417 0.54825133 0.6035433 0.09671857 -0.20840558 0.4825682 0.16456598 0.49335706 0.16268072 -1.1272337 -0.5976223 0.23750372 0.6253414 -0.81072664 0.6051863 0.51539737 0.9264415 0.25760695 0.98145664 0.6014962 0.48722035 0.33633298 -0.69102925 0.6430496 0.3304073 -0.1871868 0.3824482 0.1373256 -0.4390382 -0.42223337 -0.32578847 -0.8231318 0.92565304 -0.37992027 -0.04361272 0.8084781 0.06627741
kalesalad -0.26980385 -0.15516855 -0.11167585 0.40223032 0.18950401 0.26339078 0.4627936 -0.33213255 0.5022994 0.05664892 0.035336398 -0.26143065 -0.692632 -0.4418311 0.10555729 0.5663136 -0.60688037 0.2270285 0.29334536 0.494292 0.10463025 0.7820219 0.50225633 0.039048843 0.18525739 -0.5125707 0.4031635 0.3533648 -0.11029008 0.26384023 0.2452393 -0.205798 -0.08387419 -0.19438791 -0.4754664 0.49429572 -0.3136147 0.08075923 0.4483032 -0.009910872
easydinner -0.27509326 -0.15813151 -0.19119963 0.3903857 0.14895654 0.24667373 0.43981963 -0.31645516 0.48413187 0.08995048 0.08153218 -0.24120817 -0.66773766 -0.45026737 0.08421379 0.58636475 -0.60885507 0.24991381 0.30453685 0.4861159 0.012224612 0.7918647 0.5002412 0.018787103 0.14737763 -0.48352757 0.41173372 0.35344917 -0.021199023 0.277145 0.30235946 -0.18540648 -0.09238291 -0.22133163 -0.5173824 0.5251887 -0.33121175 0.056715943 0.40542153 -0.00585794
video -0.22076851 0.03728959 -0.08952263 0.203953 -0.047650747 0.1524898 -0.004827868 -0.20141323 0.17575651 -0.092388585 -0.090714574 0.2356381 0.19113097 0.020192487 0.021997834 0.22651125 -0.22745329 0.12415979 -0.0657379 0.2127577 0.1415128 -0.012146434 0.19245233 0.127716 0.08343075 -0.31841314 0.11208104 0.25539026 -0.042414196 0.032312755 -0.18393825 0.16457564 -0.26195812 -0.027821884 -0.17019539 0.103771165 -0.13805608 0.059280913 0.11087529 0.222272
recipevideo -0.25967637 0.025954153 -0.10705419 0.2565408 -0.0644469 0.14234287 -0.03601314 -0.18487862 0.21137834 -0.12635638 -0.07851468 0.26222324 0.23681016 0.03190308 0.04138785 0.27754068 -0.28758615 0.09655904 -0.10042721 0.24680832 0.19232222 -0.064134076 0.22666124 0.15704654 0.07527728 -0.33752197 0.12652916 0.27859864 -0.0653345 0.026287965 -0.23850088 0.20319277 -0.31174484 -0.035417147 -0.22033198 0.09019091 -0.21468544 0.05914627 0.16643359 0.271269
vodka -0.32736227 0.17551352 -0.20015498 0.042711385 -0.048360903 0.13346109 0.023151606 -0.31094986 0.1812943 0.0118163265 -0.05243692 0.21556604 0.16526183 0.208821 0.08304838 0.28899547 -0.19508187 0.2268905 -0.09139518 0.33339724 -0.0059338487 0.14288652 0.23473892 0.1976955 -0.17398117 -0.35517922 0.10067223 0.38902146 0.18895034 -0.053504445 -0.26385832 0.053691234 -0.13746306 -0.15859222 -0.23938589 0.095267214 -0.1924046 -0.072436236 0.023024593 0.10482723
christmasdrinksaturday -0.31795368 0.12750609 -0.17988278 0.029091217 -0.06594217 0.13460837 0.037640084 -0.3192534 0.22708654 -0.00017075619 -0.05800272 0.20370065 0.13955043 0.18637156 0.08656157 0.2903814 -0.18735655 0.21916504 -0.0863507 0.32670072 -0.010559281 0.17711753 0.2904791 0.12622228 -0.1530448 -0.35926 0.0896805 0.38522393 0.20535208 -0.03517069 -0.257597 0.07317461 -0.12727833 -0.1276403 -0.2271391 0.108467676 -0.20349771 -0.05614191 0.0015612183 0.1264307
hbhcocktailsaturday -0.3622929 0.15943299 -0.20439859 0.05468428 -0.06215589 0.124462776 0.04511749 -0.34910882 0.23977177 0.016371373 -0.0672086 0.24601874 0.14065231 0.1952401 0.07769506 0.31854534 -0.1389834 0.22217597 -0.066188104 0.30182973 -0.020680327 0.20255838 0.2667016 0.12066753 -0.14285225 -0.37540877 0.09961442 0.39841986 0.21260913 -0.07773232 -0.29243478 0.02558267 -0.11580314 -0.11719684 -0.21475664 0.10674276 -0.23326345 -0.11614204 -0.01992163 0.0804511
imsomartha -0.237764 0.09784977 -0.828597 0.064426966 0.21258862 0.40546522 0.08455021 -0.81022596 0.472224 0.13657889 0.78420436 0.7179656 -0.024260486 -0.30842257 -0.30918902 1.0621421 -0.5847865 0.67730075 0.1631957 0.87338394 0.13391772 1.2897916 -0.24889028 0.027373139 -0.05758111 -1.7259755 0.4805377 0.82353467 -0.68129694 -0.44386676 -0.65983963 -0.68877095 -1.0945282 -0.18361552 -0.9117996 0.7371214 -0.512648 0.8752784 -0.053926606 0.5364699
CLkitchen -0.15419024 -0.042814672 -0.08666268 0.005291647 -0.004101862 0.18951266 0.17397904 -0.2592142 0.3321389 0.0073609105 0.04948944 0.06186908 -0.13710661 -0.05499588 -0.07180527 0.332135 -0.30835304 0.19044374 0.045760185 0.26245135 0.009781037 0.4633833 0.24409783 -0.10028349 -0.0228042 -0.450088 0.08447927 0.38329577 -0.027015314 0.066892646 -0.12576044 -0.05126733 -0.26969296 -0.009066091 -0.28064728 0.24442157 -0.27702665 0.18353657 0.038413513 0.17442419
neocoffeebar -0.009748903 -0.008780712 -0.001855053 -0.011253464 -0.0006496478 -0.0035685077 0.011232632 -0.011247079 -0.0011133719 0.011487122 -0.00740923 -0.007831326 0.0068796603 -0.0026774574 0.0067899497 -0.0074333223 -0.0032226294 -0.0045129787 0.0099273855 -0.00396928 -0.010261318 -0.0011227 -0.0052543776 0.008087651 0.004887442 0.0006844569 -0.0016826959 -0.010529098 0.0046650795 -0.007000585 -0.0029015513 0.012301923 0.005176493 -0.009329086 0.009657265 0.0031244783 -0.012432498 0.0033751605 0.004030264 0.012402548
SavBlogAwards -0.53246355 -0.27252436 -0.052314203 0.42439273 -0.96703243 0.0046106684 0.91822815 0.75375205 0.4680172 0.14521828 0.03302541 -0.47060928 0.06689358 -0.54425436 0.036442127 0.39743546 -0.70332766 -0.1548574 -0.68922794 0.22729383 -0.22966209 0.26151913 0.73193973 -0.33102128 -0.29053465 -0.22096093 0.34515876 1.017277 0.885148 0.38204116 0.9182889 0.772485 -0.12696517 -0.46603206 -0.35037214 0.15973125 -0.7154641 0.08920874 0.19678512 -0.0028936097
byfolk -0.5782248 -0.29604077 -0.064516224 0.4420724 -1.032156 -0.048447482 0.99318993 0.8047182 0.4432753 0.18022907 0.036274932 -0.49684727 0.085081026 -0.6377603 0.06463518 0.4077413 -0.76762223 -0.1677166 -0.7935745 0.25754073 -0.23800251 0.2796309 0.7611348 -0.35295278 -0.32918996 -0.24130629 0.38917917 1.0888202 0.97363085 0.3763046 1.0149188 0.83559763 -0.0915484 -0.50905883 -0.39168584 0.2114239 -0.75277966 0.083968505 0.2436243 0.006735223
bedroominspo -0.6280099 -0.32033405 -0.068147205 0.5608911 -1.1082779 -0.06995868 0.9942445 0.81138986 0.46930814 0.13563308 0.044633836 -0.5185539 0.07640711 -0.6494534 0.03288181 0.41173333 -0.85500467 -0.2755271 -0.75692856 0.30982313 -0.20891872 0.23092711 0.7722365 -0.32513347 -0.29688933 -0.19483998 0.40879545 1.1426035 0.9024135 0.40843076 1.135231 0.9033438 -0.09035843 -0.5781359 -0.47069156 0.1718227 -0.75347155 0.113772795 0.2766924 0.010547543
flashesofdelight -0.6689808 -0.33516788 -0.058182895 0.5632621 -1.1943187 -0.048221916 1.0295689 0.865783 0.49472934 0.12791361 0.021529926 -0.5603533 0.05490618 -0.67353576 0.031537037 0.43435916 -0.89678824 -0.23107152 -0.775015 0.30456892 -0.22169137 0.2852617 0.7716934 -0.34842598 -0.3139538 -0.20627265 0.4399206 1.1890141 0.9427978 0.44184232 1.1626031 0.97707236 -0.10246874 -0.56084985 -0.46729302 0.20005003 -0.7698759 0.07052511 0.26639506 0.013904912
littlestoriesofmylife -0.72959584 -0.35543582 -0.09833176 0.5566645 -1.2180195 -0.06877082 1.0080284 0.80399936 0.4998972 0.20003264 0.122243404 -0.52144367 0.07624801 -0.7284415 0.11119928 0.50550437 -0.97343385 -0.15379101 -0.8722463 0.5687871 -0.15753117 0.22040984 0.8827425 -0.32320815 -0.20320626 -0.26547506 0.43504307 1.16467 1.0516839 0.503402 1.129869 0.899634 -0.092409804 -0.6512063 -0.5582162 0.18990907 -0.8137055 0.03323853 0.24831372 0.045395706
thisismycommunity -0.7367551 -0.3958905 -0.08911266 0.60553765 -1.2377698 -0.085283585 1.0212053 0.8284914 0.51727813 0.18229678 0.12144195 -0.55912167 0.049023215 -0.7236263 0.108709045 0.5233248 -1.0032581 -0.18623249 -0.82245463 0.5194076 -0.11638339 0.2350059 0.8772075 -0.35870162 -0.16792983 -0.29235896 0.47423434 1.1883098 1.0266974 0.48530623 1.1722674 1.00077 -0.06281009 -0.6299029 -0.5805933 0.18553527 -0.8597762 0.0889439 0.2739082 0.04589072
pinterestinspired -0.7254799 -0.33163127 -0.23104975 0.68808794 -1.2623656 -0.042408124 0.8910116 0.734576 0.5405848 0.17853461 0.17603827 -0.5895124 0.068509765 -0.79967785 0.12027283 0.61038417 -1.0545309 -0.16695714 -0.7354804 0.7544125 -0.10563955 0.23163219 0.85934174 -0.10930301 -0.098298445 -0.22673132 0.38904995 1.190059 0.9671118 0.5440628 1.3091805 1.0315192 0.030383708 -0.71078634 -0.672306 0.053893127 -0.8122556 0.14600395 0.2796918 0.033527404
theprettycities -0.75865453 -0.4196294 -0.26842108 0.7550208 -1.2831626 -0.057597715 0.8430257 0.6290193 0.5255679 0.19284573 0.19419071 -0.6071379 0.054325175 -0.7860375 0.100490786 0.70695245 -1.0755473 -0.19583914 -0.67356294 0.8184614 -0.01201983 0.14327146 0.8564345 -0.10527711 0.019814417 -0.1971251 0.37253928 1.2002803 0.88643086 0.5572456 1.2228625 1.0808097 0.05932983 -0.66576844 -0.740861 -0.040126696 -0.8649758 0.20459512 0.3320712 0.010830756
mytinyatlas -0.79089326 -0.52067924 -0.20267266 0.8555755 -1.3226691 -0.07160521 0.71937764 0.5614132 0.56280726 0.14561938 0.22960041 -0.5959625 -0.0033545448 -0.78542596 0.12709707 0.7462482 -1.0768217 -0.29900542 -0.6029656 0.8909643 0.052525286 0.058699258 0.7852408 -0.06531711 0.15620644 -0.18012176 0.4106244 1.1899717 0.778772 0.51762927 1.1773493 1.1674697 0.10998574 -0.63313985 -0.85515577 -0.07345157 -0.85752356 0.21135695 0.33942068 0.012261007
momentslikethese -1.0625976 -0.19086666 -0.16073103 1.0473264 -1.1423972 -0.48321727 0.952806 0.08399091 0.19847922 0.71642 0.40411538 0.31241193 0.46674433 -1.0488989 0.9569185 0.9632459 -1.1494796 0.43805963 -1.2850809 1.7903377 0.8478363 -0.5007102 0.7865742 0.24425708 0.46654013 -0.7839583 0.74038494 1.1368393 0.9361554 0.45724815 0.89280045 0.4421586 -0.18548185 -1.0887045 -1.0382987 0.039019197 -0.4315673 -0.120941 0.23975477 0.3436468
interior4all -0.829532 -0.6283047 -0.16614284 0.92434716 -1.2991544 -0.108115226 0.5706884 0.34405485 0.65327233 0.07961458 0.23629662 -0.5651438 -0.15465735 -0.6836942 0.13771243 0.8761846 -1.1319648 -0.29830393 -0.46263036 1.1278064 0.28284112 -0.055357262 0.78407246 -0.017072039 0.41290498 -0.22297165 0.48538306 1.1245787 0.6396933 0.46930245 1.0228988 1.2079184 0.12955071 -0.6166663 -1.0208316 -0.1303666 -0.8311743 0.20208262 0.36287433 0.04588125
pursuepretty -0.8937662 -0.010942417 -0.58158165 1.0091136 -0.9315105 -0.14799643 0.3113907 -0.24829653 0.38845295 0.0040978426 0.27785298 -0.44094983 0.42988202 -0.953816 0.5530716 0.9525997 -1.2461702 -0.13071813 -0.11269175 1.6250744 0.54511756 0.0536436 0.5120931 0.843584 0.2987937 -0.22500715 -0.12694591 1.1358738 0.40412816 0.28071526 1.3645422 1.0838311 0.20313801 -1.0368073 -1.281927 -0.60009784 -0.15492462 0.30552226 0.29631785 0.077330925
allshots_ -0.9027995 -0.7046227 -0.23281619 1.0550113 -1.1145898 -0.09105401 0.2696384 0.056568842 0.65107495 -0.07430917 0.11821333 -0.54128957 -0.08781489 -0.4931101 0.17121999 0.905129 -1.1607057 -0.27383533 -0.22628954 1.1630286 0.6083916 -0.19759467 0.7802648 0.025831867 0.6131565 -0.2344575 0.44713497 1.0660824 0.42591658 0.4019967 0.7827619 1.3695141 0.16657427 -0.4766573 -1.100559 -0.20653038 -0.8144211 0.3644359 0.52626926 0.06503905
tlpicks -0.79933596 -0.81079197 -0.23464964 1.0421281 -1.0805337 -0.058453906 0.17421205 -0.0018884906 0.6029096 -0.056577988 0.16474134 -0.44805133 -0.08374547 -0.4093202 0.19566135 0.93367827 -1.1380833 -0.29138866 -0.18181783 1.1926271 0.7753823 -0.2538201 0.81954116 0.04901428 0.7318 -0.251934 0.45685467 1.0192018 0.35664743 0.40786737 0.6383958 1.4127573 0.13681652 -0.51952314 -1.1494042 -0.2599246 -0.8631175 0.38833758 0.4874209 0.057329524
liveauthentic -0.661013 -0.84839505 -0.20484571 1.0390389 -1.0263417 -0.013474455 0.1324646 -0.06345543 0.6401969 -0.11227916 0.15650383 -0.45037228 -0.18949935 -0.33950818 0.16263522 1.0505446 -1.106275 -0.31672695 -0.12710842 1.1926396 0.7802306 -0.18039468 0.81185883 0.13587914 0.74948186 -0.3244487 0.44390273 1.0452241 0.3086875 0.32344526 0.5575915 1.4158474 0.18399039 -0.46758306 -1.2174572 -0.28814855 -0.88711256 0.46047896 0.47493255 0.056100145
currentdesignsituation -0.5979477 -0.89343417 -0.20167063 1.0341772 -0.933559 0.12167907 0.073924296 -0.09724667 0.6855321 -0.2847241 -0.0014349277 -0.428381 -0.18167289 -0.20964608 0.046708893 1.0311542 -0.99806225 -0.43802652 0.039590172 0.93298644 0.77864295 -0.12313138 0.77028245 0.13578506 0.7153686 -0.26613274 0.421625 1.0914494 0.14543436 0.25746945 0.48822838 1.5880989 0.116435826 -0.34825498 -1.2222528 -0.31136656 -0.8885468 0.57101184 0.55686533 0.07452825
verilymoment -0.5396385 -1.0715722 -0.052225474 0.94310415 -0.9173265 0.17576955 0.08775328 -0.13981813 0.77536184 -0.37548482 -0.059551567 -0.40176237 -0.29007527 0.016959464 -0.052283354 1.1059796 -0.8553566 -0.46922702 0.060684416 0.70003587 0.80961335 -0.12554982 0.7857749 -0.05412762 0.7332387 -0.38138413 0.50712204 1.0779523 0.04130175 0.13609843 0.24027796 1.6355344 -0.05769227 -0.26859805 -1.2871752 -0.2456804 -0.9012994 0.5897861 0.56979746 0.1347499
searchwandercollect -0.5037872 -1.1374135 -0.024427442 0.88879627 -0.8148475 0.20066154 0.083980195 -0.17460804 0.7960517 -0.46001536 -0.051026076 -0.4020498 -0.357113 0.0938429 -0.103471816 1.10944 -0.8058432 -0.5009097 0.14626545 0.5459212 0.8339804 -0.011753462 0.84657234 -0.15889151 0.72146523 -0.4372594 0.4997556 1.0639575 0.06094525 0.07135191 0.18617164 1.6652682 -0.078948036 -0.19733375 -1.3529344 -0.2161732 -0.89965606 0.5719627 0.5279204 0.16774932
watchthisinstagood -0.41647726 -1.1892848 -0.052411813 0.8124234 -0.72719246 0.29429474 0.042761363 -0.21615697 0.8258662 -0.48599225 -0.045986705 -0.37559298 -0.4087138 0.22925118 -0.18231781 1.112162 -0.75497764 -0.5309454 0.1983753 0.38833326 0.82462496 0.10057747 0.8818645 -0.16159095 0.6801274 -0.49918962 0.55364645 1.0025009 0.041447002 0.02010019 0.12378868 1.6615697 -0.11295915 -0.21178605 -1.3283654 -0.19011828 -0.8263812 0.5721239 0.5325307 0.16624083
boyswithplants -0.34920356 -1.2571788 -0.017765714 0.80744916 -0.6581259 0.34619674 0.054789703 -0.27627373 0.7980815 -0.5191106 -0.048998546 -0.3470714 -0.42484307 0.29509604 -0.24919097 1.1422838 -0.70871097 -0.5342813 0.26844785 0.2363027 0.77474105 0.18868327 0.94435114 -0.19611582 0.6281069 -0.5450925 0.5391112 0.97414213 0.046757944 -0.017421361 0.07270898 1.6440217 -0.1322705 -0.14379738 -1.3829829 -0.17615657 -0.8218652 0.60464984 0.51522243 0.17556223
artofvisuals -0.2961275 -1.2995135 -0.021747436 0.748522 -0.5994009 0.39130992 0.094923615 -0.26888683 0.80095124 -0.57534355 -0.08756175 -0.30774996 -0.3906903 0.39231902 -0.29816 1.1259916 -0.66277516 -0.55743575 0.26084253 -0.0084134415 0.7819907 0.26754966 0.97056335 -0.22674584 0.53328 -0.6264965 0.5646358 1.0045456 0.029075801 -0.058476366 -0.030037956 1.6853827 -0.20581272 -0.10789964 -1.3754461 -0.12196865 -0.81652147 0.65909046 0.47710896 0.17278232
postitfortheaesthetic -0.12027404 -1.3391784 -0.007063831 0.671573 -0.6358574 0.41008452 0.20346306 -0.17054933 0.75520873 -0.5645575 0.017152097 -0.21955137 -0.5296624 0.36355424 -0.4166892 1.1726397 -0.62532175 -0.6443635 0.2667159 -0.16264455 0.70752895 0.45321462 0.99514836 -0.3058106 0.41640747 -0.64667916 0.58136314 0.98264945 0.042959157 -0.10010407 0.049677044 1.5713047 -0.194871 -0.21020637 -1.4540366 -0.109309226 -0.88930917 0.59277076 0.3837824 0.13910195
thehappynow -0.0806582 -1.3964125 0.049286786 0.59897786 -0.6139116 0.45212388 0.28360274 -0.15632024 0.74264956 -0.55944955 0.025453273 -0.2175265 -0.557745 0.41184154 -0.44224814 1.1642553 -0.5313707 -0.63119906 0.26576325 -0.2838973 0.60744244 0.52878255 1.015292 -0.36063394 0.35019535 -0.6632983 0.62250227 0.9486835 0.06797238 -0.119022615 0.033905465 1.5410515 -0.20460965 -0.20401542 -1.4687167 -0.04659082 -0.8058894 0.562483 0.3221523 0.15169737
apartmenttherapy -0.08747179 -1.305959 0.03897412 0.5674642 -0.54273057 0.45126757 0.258138 -0.17287734 0.7303661 -0.58188874 0.030441906 -0.19352694 -0.5442497 0.40420282 -0.4475883 1.1444672 -0.51957804 -0.60845804 0.2852897 -0.3097599 0.58159286 0.52860874 0.95845187 -0.35885325 0.32932064 -0.63155425 0.5451976 0.93726385 0.03972732 -0.1677924 -0.021620676 1.4755388 -0.22727036 -0.16391999 -1.4227093 -0.042971633 -0.81289136 0.5531828 0.33871132 0.14372595
neverstopexploring -0.083009966 -1.2730415 0.020751117 0.50048536 -0.5234635 0.42889485 0.24843615 -0.15935865 0.7112576 -0.5693986 0.031785134 -0.19020021 -0.5202895 0.41377902 -0.4322746 1.0593185 -0.46697247 -0.5865598 0.27069917 -0.37422264 0.54734355 0.51400876 0.9240017 -0.3748169 0.29208827 -0.5700979 0.54326415 0.8666111 0.06386076 -0.20303832 -0.0057313195 1.4246277 -0.22279811 -0.17913723 -1.3746719 -0.056424458 -0.73349524 0.49367717 0.3326428 0.15098943
interiorforinspo -0.090042636 -1.2564499 0.04975553 0.47333243 -0.5430025 0.4091156 0.26280412 -0.14114235 0.6926423 -0.5034782 0.091410786 -0.2060985 -0.5736257 0.3566475 -0.41818273 1.0382098 -0.4644112 -0.5570065 0.24651223 -0.310558 0.49160314 0.54604775 0.899993 -0.3604978 0.29613283 -0.583794 0.5630613 0.82268906 0.09481659 -0.1688451 0.083244234 1.3136984 -0.1786997 -0.17815563 -1.3380362 -0.03150358 -0.69298 0.4680744 0.28052926 0.18231912
coffeefliicks -0.0495353 -1.1080459 0.059515297 0.4383852 -0.4724 0.38017204 0.23462494 -0.091854595 0.625296 -0.46995583 0.09362178 -0.12257014 -0.4632911 0.31350422 -0.41202292 0.9017255 -0.44129732 -0.53846747 0.1920398 -0.34932318 0.44249147 0.52388406 0.8370936 -0.33414268 0.18472673 -0.56314945 0.5003085 0.7217124 0.081623346 -0.1512928 0.05992821 1.199899 -0.1945513 -0.14799398 -1.1891587 -0.009904672 -0.6297362 0.38399285 0.21433216 0.12556109
plantsofinstagram -0.051529918 -1.132304 0.05803248 0.41836822 -0.46857533 0.36975875 0.2946886 -0.09272039 0.5988842 -0.42452595 0.12007324 -0.1423518 -0.49688256 0.3077083 -0.41162694 0.89800936 -0.44155002 -0.51901084 0.2081413 -0.37899753 0.43305615 0.5459222 0.81431305 -0.3295899 0.1675684 -0.547965 0.50533247 0.7110881 0.070145905 -0.14064176 0.106912084 1.1644684 -0.16432288 -0.18566401 -1.1960014 -0.008920206 -0.5929303 0.3774978 0.18244492 0.11100764
breakfast -0.9143498 0.0864803 -0.3665685 0.89884716 0.22962077 -0.025421051 0.018400619 -0.45046076 0.8396049 -0.19656153 0.11147814 0.51327866 0.038611375 -0.12422514 0.28084373 1.0271468 -0.15963785 0.21415396 -0.39119512 0.106091745 0.7571453 -0.2823139 -0.23373276 0.18614455 -0.098143175 -0.43079507 0.24593717 0.7172242 0.14828797 -0.19147715 -0.6709244 0.016686812 -0.38184017 0.38838086 -0.89044577 -0.24930198 -0.98054624 0.18111858 0.35508734 0.13537903
brunch -0.951808 0.026567034 -0.2895543 0.45404008 0.0139712235 -0.008891357 0.12993754 -0.734449 0.7817439 -0.08550194 0.14237955 0.584288 0.032389555 0.14700636 0.21449818 0.95852864 -0.08044216 0.2927756 -0.22141859 0.24582593 0.43097824 0.027869098 0.19945744 -0.0264862 -0.14883208 -0.6439015 0.31359196 0.7848747 0.34989676 -0.33008882 -1.1275351 0.015377915 -0.4216879 0.28469774 -0.825618 0.0038415599 -0.86103684 0.1613299 0.17447403 0.057026934
bagel -0.50553405 0.47010395 -0.26417938 0.8271848 0.2641903 0.159357 0.17471361 -0.95818305 0.15208632 -0.29483396 0.11153913 0.326465 0.38077217 -0.092359714 0.039407615 0.7048778 0.09599784 -0.037772287 -0.40582243 0.16207227 0.25713864 -0.102941655 0.44669792 0.39500302 -0.1664985 -0.8447377 0.2796104 0.8876999 -0.06334477 -0.03532214 -0.74647796 -0.23835441 -0.34576666 0.4626876 -0.6350702 0.19403024 -0.22966407 0.026457 0.24357529 0.031330835
lox -0.9026576 0.08043671 -0.37272555 0.32662767 -0.006236769 0.10877084 0.17814393 -0.9207113 0.8778762 -0.023693904 0.17554766 0.6228718 0.023270119 0.17198384 0.085283265 1.0259959 -0.22241913 0.36994067 -0.13901871 0.51750636 0.37758628 0.25900236 0.23442607 -0.075117834 -0.22662163 -0.97434556 0.21950866 0.9737907 0.15957658 -0.37568483 -1.1896571 -0.18632478 -0.64257413 0.27443463 -0.86272687 0.15669961 -0.9873636 0.3100573 0.07825959 0.13242972
jewish -1.0812925 0.026032023 -0.40048942 0.2578559 -0.2189216 0.12500347 0.1932938 -0.8986956 1.1572427 -0.15524203 0.26778886 0.6878146 0.18962412 0.29323867 0.14204 1.2331854 -0.28633422 0.4600766 -0.26879445 0.56008196 0.39828253 0.18616574 0.29771605 -0.2387063 -0.38399866 -1.0673072 0.15843336 1.2498279 0.23672925 -0.4073796 -1.591362 -0.021344615 -0.8559436 0.42917588 -1.0632651 0.06628683 -1.2734498 0.35093573 0.01680108 0.22412087
jewishfood -0.9902606 -0.12652528 -0.27588877 0.057047103 -0.3174079 0.106301896 0.09501119 -0.724482 1.211782 -0.13644356 0.39626634 0.5320922 -0.016962552 0.2949614 0.06254035 1.0532902 -0.16801433 0.3774939 -0.22209965 0.36571535 0.29635975 0.2804894 0.02251981 -0.3463692 -0.5404999 -0.8966097 0.1751564 1.2188516 0.17152005 -0.60138994 -1.6335554 0.1380546 -0.75079376 0.4207473 -1.00971 0.043631144 -1.2764283 0.20162173 -0.012208171 0.1577947
carbs -0.62009615 0.0136652505 -0.27675027 0.07248229 -0.120688744 0.13702552 0.11393056 -0.78297967 0.7704163 -0.011201244 0.12639172 0.5664637 0.020825906 0.14379635 0.08335168 0.79245126 -0.24169695 0.32845408 -0.12872413 0.53189486 0.3324947 0.39130086 0.221964 -0.13118674 -0.19610788 -0.8413826 0.15163293 0.9045916 -0.011086772 -0.23501793 -0.9740947 -0.057980876 -0.56672865 0.17785367 -0.62844867 0.15878159 -0.88617176 0.11636104 -0.07957585 0.19520171
tomatoes -0.6366782 0.042757574 -0.2693688 0.011819219 -0.17206411 0.16975436 0.05686779 -0.78748125 0.77681744 0.050424226 0.13396077 0.569696 -0.0058624307 0.23364596 0.048835732 0.7629289 -0.20940211 0.34848592 -0.05408424 0.55246633 0.2678086 0.41450295 0.21199927 -0.12641393 -0.23779088 -0.8532803 0.14313294 0.8998222 -0.0026920233 -0.3297474 -1.0073696 -0.04838194 -0.53470963 0.097087696 -0.5768476 0.15911351 -0.9186108 0.07067121 -0.05917185 0.16816016
shabbat -0.64238596 -0.29802528 -0.3199165 -0.2905366 -0.6535652 0.28609392 0.059874844 -0.15731952 1.094838 -0.34648046 0.09784617 0.15242028 0.07233602 0.26333144 -0.27446628 0.7618856 -0.3032041 0.18579984 -0.35466138 -0.043162636 -0.07238909 0.2667892 0.011728374 -0.76361936 -0.6571965 -0.60986227 -0.1040455 1.0145205 0.08785562 -0.049284272 -1.0006074 0.4616427 -1.0262486 0.4443857 -0.63386905 -0.2203996 -0.94738936 0.25264835 -0.2145804 0.24978964
shabbatshalom -0.6274134 -0.32979098 -0.25387308 -0.044639975 -0.6353498 0.30514747 0.2319161 -0.4021435 1.1755687 -0.5176622 0.031728268 0.19074786 0.14478512 0.14377753 -0.21914585 1.0548053 -0.42926472 0.17897303 -0.49665138 -0.05085395 0.21749407 0.27062055 0.10772085 -0.8622263 -0.4953236 -0.6530535 0.015280614 1.1271473 0.120630406 -0.03543831 -1.2263352 0.34553665 -1.122263 0.76192415 -0.7184054 -0.37512648 -1.0426825 0.42368862 -0.3657951 0.32011893
myonetable -0.75114715 -0.14654952 -0.29206276 0.12369535 -0.2825463 0.20387346 0.21512245 -0.5196644 0.96036845 -0.22298518 0.014829467 0.44911376 0.22269991 0.22535649 -0.004234928 0.9163427 -0.35996586 0.29832014 -0.2520961 0.40567207 0.24595913 0.01893642 0.39657095 -0.4081334 -0.22853978 -0.7642463 -0.06697403 0.94721514 0.17741014 -0.10245578 -1.088764 0.20574407 -0.9113335 0.48900586 -0.75146115 -0.015929533 -1.0084065 0.48206228 -0.030269342 0.29321498
hanukkah -0.75221026 -0.060449287 -0.22907497 0.1334936 -0.2765459 0.3152303 0.06987068 -0.76852 0.9660625 -0.15843132 0.14276476 0.6651009 0.3331947 0.14372654 0.08561274 0.86566716 -0.41805393 0.48353964 -0.15993074 0.57269675 0.39872703 0.14126004 0.28172183 -0.23024715 -0.13708541 -1.0230235 0.06961129 0.99859625 -0.13919914 -0.16922526 -1.3544855 0.18483303 -1.0285492 0.3943111 -0.71754855 0.12247253 -0.954672 0.26278242 -0.0014145749 0.51183075
latkes -0.7331878 -0.026294226 -0.22735596 0.17059878 -0.21864232 0.30779544 0.14016321 -0.7937624 0.90725285 -0.122199275 0.121667095 0.6736124 0.3559415 0.08463705 0.11153704 0.8548862 -0.45183727 0.48495904 -0.16077061 0.6864333 0.42570394 0.14267796 0.34650427 -0.15832895 -0.063193254 -1.0173514 0.016351402 0.94178617 -0.11012579 -0.10186395 -1.247643 0.112277 -1.0106379 0.36202595 -0.7313368 0.1387005 -0.8908652 0.32441315 0.02503698 0.487236
potatoes -0.6369992 0.12398393 -0.25888252 0.17796238 -0.030104157 0.30730203 0.040756665 -0.7798638 0.56516004 -0.0796667 0.015515179 0.63420916 0.4314579 0.13138416 0.13186398 0.6719895 -0.52125806 0.49247074 -0.08855572 0.7324368 0.33315173 0.16494852 0.4693071 0.18230996 1.0850114e-06 -0.9395868 0.014999088 0.75678784 -0.081034444 -0.06003689 -0.9052762 0.07895698 -0.8107698 0.07101391 -0.5984056 0.23267241 -0.6201187 0.3218323 0.11568353 0.5097064
apples -0.56384766 -0.094849914 -0.2443964 0.19059223 -0.09695055 0.19694203 0.43798825 -0.5582768 0.7320349 -0.30751833 -0.14950885 0.29024917 0.27087954 0.13544858 -0.036109243 0.82593435 -0.30702412 0.23627515 -0.2756797 0.123929285 0.21106887 0.10158183 0.4092914 -0.44062644 -0.2860723 -0.5622956 0.011775039 0.7620111 0.5033284 0.032672558 -0.90340745 0.07936011 -0.7309135 0.684156 -0.5798165 -0.16021445 -0.6974263 0.49430862 -0.18764178 0.16032505
cheese -0.52306587 -0.13537222 -0.21630324 0.20924637 -0.12199606 0.21821547 0.4226623 -0.53472024 0.7411953 -0.33242655 -0.15919827 0.3093739 0.26955384 0.15708439 -0.052194845 0.8757964 -0.30419382 0.2384228 -0.29362997 0.104304366 0.20230113 0.105052225 0.44785467 -0.47161233 -0.25029978 -0.58426154 0.008903446 0.7937441 0.4559553 0.03074837 -0.9527695 0.15342502 -0.785605 0.7585818 -0.59267443 -0.184128 -0.7477442 0.5194608 -0.1954333 0.1840302
cheesy -0.5537906 -0.12507176 -0.20091185 0.17984699 -0.14361487 0.20814295 0.45888668 -0.51122713 0.746078 -0.33124906 -0.15448935 0.26833966 0.26527527 0.14964706 -0.049133923 0.8753234 -0.35012165 0.26045892 -0.29144683 0.15287568 0.20348573 0.09572548 0.47330502 -0.47908592 -0.26081377 -0.57133 0.0042205197 0.7887134 0.5089956 0.044005707 -0.92114955 0.13369237 -0.76881653 0.73126227 -0.5939682 -0.19228354 -0.73586845 0.5359498 -0.17999229 0.21602081
cheeseboard -0.55996615 -0.13679926 -0.20108835 0.23560841 -0.12295499 0.20745836 0.47731674 -0.5362917 0.7413384 -0.32895938 -0.16588853 0.30214953 0.2775381 0.11055035 -0.047839962 0.8693035 -0.3375435 0.24358253 -0.28332695 0.14017332 0.2013917 0.07736383 0.5199468 -0.46808225 -0.21185635 -0.5708374 0.03912748 0.7720232 0.51514673 0.055723958 -0.91513 0.18910976 -0.75412995 0.7698342 -0.57823575 -0.14990124 -0.6802254 0.5170691 -0.1858769 0.19951643
koruapples -0.5617134 -0.119463295 -0.21828607 0.20630834 -0.11231132 0.20239446 0.4269152 -0.5600905 0.7351395 -0.3270075 -0.14106615 0.303774 0.30747712 0.15113288 -0.019442365 0.87262 -0.32208502 0.27480683 -0.2960381 0.13119727 0.21656403 0.08425099 0.4406452 -0.4203932 -0.2509165 -0.57374823 0.0054758377 0.7879471 0.5165998 0.008499117 -0.93784654 0.1366062 -0.77630234 0.74438936 -0.59108686 -0.17979874 -0.72701097 0.49919626 -0.16707066 0.18011585
boards -0.39151043 -0.1734908 -0.13898621 0.21032259 -0.19077033 0.23024842 0.35433656 -0.45618305 0.7476014 -0.33602232 -0.12103109 0.2665594 0.15378466 0.104205035 -0.06578739 0.73961157 -0.282394 0.16078295 -0.23836812 -0.009713803 0.23528124 0.20759284 0.31050134 -0.5112008 -0.22344299 -0.49135143 0.13499542 0.74871427 0.24859536 0.04867939 -0.8384494 0.17079765 -0.65925294 0.6383697 -0.47023314 -0.15598664 -0.704124 0.33065063 -0.20697147 0.1542168
entertaining -0.38559452 -0.12595096 -0.24491492 0.14002936 -0.10340559 0.27955553 0.5129955 -0.60725194 0.9015946 -0.21279588 -0.16853635 0.09871275 -0.118152864 0.05724372 -0.09826525 0.7467812 -0.15336336 0.22093596 -0.045208525 0.053266264 -0.1519383 0.6391962 0.41600055 -0.7474311 -0.1438605 -0.5819971 0.22416657 0.82116747 0.569084 0.08953842 -0.7157051 0.2441192 -0.509458 0.77336997 -0.47987846 -0.020112911 -0.5565109 0.26734462 -0.43768883 0.08883875
RobertMondaviWinery -0.13384598 -0.057164025 -0.066218324 0.10395938 -0.10877004 0.111734204 0.078194536 0.005183982 0.1649223 -0.105071805 -0.048761867 0.010904199 -0.040477313 0.065683015 -0.08387673 0.18806566 -0.16880476 -0.019663591 -0.08406044 0.052902382 -0.009126152 0.12783895 0.15701023 0.015012978 -0.05056105 -0.14952295 0.13683946 0.22329979 0.11582664 0.023504462 0.032080613 0.1313315 -0.035977107 -0.079642296 -0.14965889 0.075192735 -0.12374672 -0.005503546 0.056667928 0.09530179
RobertMondaviPartner -0.15172142 -0.020532634 -0.083012246 0.101070136 -0.07378155 0.09275034 0.08992541 -0.007982412 0.14130862 -0.09011832 -0.06268454 0.025247464 -0.03613586 0.05249604 -0.06899878 0.19893625 -0.17000103 -0.018084059 -0.07107647 0.040843867 -0.015501125 0.14336376 0.14491841 0.0057755522 -0.066230744 -0.15204579 0.12609541 0.21945271 0.13347526 -0.015045656 0.005004755 0.11806522 -0.042215142 -0.08939275 -0.1534341 0.084202334 -0.1170359 -0.025594052 0.057634003 0.09601835
Msgfor21 -0.18308885 -0.039163843 -0.07938302 0.11244088 -0.12310331 0.08464277 0.10599883 0.00019885287 0.1742444 -0.115314916 -0.0449749 0.028910499 -0.03381652 0.040930644 -0.058787655 0.21569036 -0.22451133 -0.006635318 -0.09951591 0.07035905 -0.0013345137 0.16130246 0.15856175 0.03506729 -0.051011093 -0.14662603 0.13833803 0.23822092 0.14942573 -0.010037926 0.014154722 0.15054026 -0.031073235 -0.095007956 -0.16285966 0.08252928 -0.1499708 -0.046995513 0.07112495 0.106331274
veganuk -0.345666 0.16858427 -0.5309585 0.5456219 0.20686528 0.48186278 0.006399341 -0.0069752177 0.13211535 0.07522783 0.180054 0.12785809 -0.71998566 -0.10946507 -0.07082897 0.3399391 -0.7645314 0.07704687 -0.03413085 0.87949765 0.29819813 0.5993682 0.100133166 0.79232633 0.04255158 -0.5244299 0.34956652 0.5210954 -0.11571077 -0.06640447 0.29304105 -0.2744996 -0.104612 -0.697146 -0.47234684 0.53238994 -0.3198942 -0.34954923 0.41678298 0.23621209
veganbreakfast -0.30084112 0.13337027 -0.481421 0.52601534 0.22800942 0.33459514 0.020505477 -0.010918315 0.113373205 0.057640098 0.09123954 0.13304842 -0.47960323 -0.14039576 0.0653895 0.3549856 -0.75351125 0.13825715 -0.033237472 0.8129237 0.2790471 0.34621996 0.13317366 0.7519544 0.008969538 -0.40098435 0.2743506 0.42286122 -0.074169315 -0.043919332 0.34845406 -0.13164708 -0.055658475 -0.69375104 -0.49791926 0.40502995 -0.24673423 -0.12325742 0.44923094 0.14653257
mycommontable -0.09063009 0.25051665 -0.59804755 0.42414072 -0.26548466 0.14319395 -0.05557591 -0.049830202 -0.32149804 0.101860575 0.47487628 0.33780938 -0.7121938 0.026220493 -0.18215457 0.41686127 -1.5152612 -0.038543567 -0.20813084 1.6377268 0.3979834 0.27575386 0.48865125 0.8883387 -0.4424951 -0.91446686 0.1927681 0.8262978 -0.18829273 -0.4636401 0.8159004 -0.32622463 -0.18291906 -1.2242751 -1.073814 0.70352226 -0.451869 -0.22391638 0.43034783 0.40966466
creativityfound -0.110087745 0.20974559 -0.41656154 0.5141741 0.3458919 0.44036573 -0.005388971 0.32814497 0.1030586 0.00732269 -0.11372532 0.2010635 -0.5184737 0.09482255 -0.16119467 0.1749616 -0.85243464 0.102884986 -0.14629495 0.77006954 0.46682495 0.39776042 0.117604755 0.91670465 -0.2883961 -0.50232047 0.114198 0.6406374 -0.2911587 0.0394572 0.44953257 0.021886164 -0.2194413 -0.8551166 -0.4017153 0.3440964 -0.6064017 -0.33711103 0.4275641 0.16107783
vegansofig -0.3303231 0.13289616 -0.50073075 0.6851605 0.24645431 0.53068376 -0.10216453 0.07949217 0.14263892 0.023344828 0.18158145 0.12566844 -0.82424986 0.089215435 0.007104728 0.42020488 -0.97492427 0.073927574 -0.19440442 1.020543 0.438966 0.63574964 0.052413676 0.96054584 0.034143224 -0.5702045 0.5767342 0.6111182 -0.1386249 -0.094715916 0.35240197 -0.22716525 0.032486215 -0.92390144 -0.44711378 0.7410459 -0.3382076 -0.3556919 0.48481348 0.30107266
vegansofinstagram -0.35421887 0.15217872 -0.5584544 0.65659016 0.17891248 0.59221375 -0.13768321 0.23977286 -0.0010364688 -0.08507406 0.16795759 0.23728654 -0.750531 0.2350774 -0.100307725 0.35192525 -0.9920194 -0.065441206 -0.36674476 0.98951876 0.5182388 0.5715437 -0.04675596 1.1075783 -0.08133814 -0.58621377 0.594597 0.6805342 -0.12344191 -0.13693956 0.33817866 -0.23766664 0.02417535 -1.0811452 -0.46017087 0.65141815 -0.24838708 -0.48183408 0.4167225 0.34493428
eattherainbow -0.25325304 0.03618352 -0.32422173 0.5522093 -0.014249985 0.46811923 -0.17144981 0.3025924 -0.035714447 -0.15034427 0.11768837 0.27967706 -0.5000823 0.2626577 -0.064101405 0.22762533 -1.0696626 -0.027827576 -0.37481546 1.0041786 0.6543949 0.24174319 0.11268046 0.95092374 -0.12076536 -0.5182312 0.42022645 0.6844762 -0.18082833 -0.0934695 0.28969383 -0.030284803 -0.0994194 -1.0146544 -0.56798553 0.45257083 -0.35328 -0.42156214 0.37779683 0.37802467
whatveganseat -0.4851648 0.07373214 -0.30816767 0.50030464 0.054810215 0.62023044 -0.05589484 -0.15138741 0.18324271 0.16536616 0.48604032 0.21999824 -0.8949548 0.1821905 0.008721189 0.36337924 -0.95052046 0.1154565 -0.12912065 1.2301474 0.5507872 1.0313555 0.027987584 0.9212359 -0.007532155 -0.8535031 0.6258747 0.763969 -0.17508969 -0.16746835 -0.14200611 -0.43308908 -0.022309905 -1.0964692 -0.5289031 0.828865 -0.28761667 -0.6044721 0.2680773 0.2836525
flatlayforever -0.3872279 0.06097653 -0.19914751 0.5927669 -0.02899596 0.6282885 -0.045950137 0.15071657 0.07451427 -0.07664206 0.23145036 0.06934629 -0.7107817 0.19991438 -0.13975462 0.19687228 -0.89277947 -0.056125406 -0.23199968 0.86633664 0.5237014 0.7733641 0.06979791 0.9080701 0.027790768 -0.584663 0.48374736 0.61559296 -0.20378633 0.010827133 0.09704108 -0.19945155 -0.021041239 -1.0352011 -0.3539697 0.6298971 -0.2224005 -0.73147225 0.28603 0.36035955
morningslikethese -0.08986339 -0.086661495 0.15202844 0.1168743 -0.24946094 0.58697516 -0.30750313 0.5833114 -0.23056641 -0.1014789 0.1487383 0.2761967 -0.3755291 0.4475545 0.22749643 0.0040102187 -0.7741436 0.20806305 -0.5440565 0.6531824 0.45515683 0.45587564 0.1738279 0.6584689 0.003981315 -0.5195907 0.3697643 0.4522258 0.118853085 0.08910987 0.03163189 0.52000296 -0.26105374 -0.8559692 -0.2696812 0.9786925 -0.36531004 -0.5189163 0.07608685 0.45366228
thatsdarling -0.42995417 -0.13898185 -0.36955142 0.96690494 -0.2501662 0.8115247 0.060981873 1.1466514 -0.34461838 -0.22653858 -0.32639945 0.950049 -0.1841573 0.63013977 -0.3943289 0.10115041 -0.93128985 -0.7142504 -0.7645533 0.6029554 0.66893286 0.47202438 -0.15340787 1.1247331 -0.47317648 -0.61425704 0.8194676 0.7818577 -0.49342516 0.1650465 0.34612086 -0.08017265 -0.30877545 -1.70708 -0.42666835 0.5754666 -0.24551643 -0.5541979 -0.18827476 0.20651841
darlingweekend -0.43808696 -0.3803619 0.074686065 0.53244746 -0.8579335 0.6368197 0.17427361 0.8700449 -0.14844832 -0.037405238 0.14759582 0.8743651 0.19680367 0.6242062 -0.15567794 0.0783254 -0.94901955 -0.8040198 -0.6226114 0.80783486 0.2833865 0.4391811 0.36219177 0.41817337 -0.010884164 -0.6273836 0.7215616 0.68155897 -0.26454872 0.43655998 -0.01437382 -0.038118266 -0.4773963 -1.4538877 -0.6379931 0.4780046 -0.33919945 -0.6718448 -0.43149316 0.3903054
kinfolktable -0.28367883 0.16026174 -0.1699582 0.34260848 -0.351285 0.3431167 0.033928093 0.05859218 -0.18099523 0.02836781 0.15133736 0.33332175 -0.14361134 0.34263235 -0.041898392 0.18374257 -0.69027025 -0.13371938 -0.28736353 0.8832936 0.22838013 0.3883165 0.36049625 0.57139105 -0.08785388 -0.61036545 0.3682338 0.5248368 -0.073633015 0.1427892 0.1955444 -0.4339768 -0.14859673 -0.9137136 -0.30830306 0.49134967 -0.0171142 -0.29433912 -0.08094586 0.3401316
thelittleplantation -0.4782752 0.23354335 -0.30502632 0.34161475 -0.21174875 0.4734297 -0.0030919942 -0.29793596 -0.044238497 0.23046531 0.45980808 0.3685792 -0.5733165 0.39740497 0.0625615 0.35145736 -0.90730107 0.06949815 -0.19364555 1.4526664 0.33056056 0.93691164 0.29256475 0.83593714 -0.11471188 -0.9030046 0.64680773 0.760813 -0.086805046 -0.049736597 -0.041045777 -0.7363772 0.008881084 -1.1970466 -0.49409285 0.82189155 -0.13072233 -0.47493976 -0.0026328447 0.38985577
wherewomencreate -0.27417257 0.4356481 -0.34152693 0.15267849 -0.073085405 0.25504643 0.08397485 -0.108364224 -0.09157277 0.13392729 -0.045064677 0.35658082 0.10579381 0.4042111 -0.13133939 0.18528533 -0.46755046 0.088822335 -0.25190422 0.82781714 0.055549525 0.44633147 0.36410573 0.61535186 -0.36232 -0.6158287 0.14639923 0.60030925 0.06183983 0.098901585 0.19177784 -0.37702477 -0.17992121 -0.858797 -0.16900462 0.21945007 -0.0876578 -0.38115272 -0.1659491 0.27619785
bestofvegan -0.35385856 0.57107437 -0.6797652 0.34735048 0.11482291 0.35300958 -0.06216562 0.011658846 -0.0002433658 0.16329135 0.0841771 0.3328769 -0.17523555 0.4593233 -0.15921204 0.34200326 -0.56160146 0.15028463 -0.20765479 0.82608926 0.0831018 0.6481285 0.14981176 0.84756345 -0.52153677 -0.74009514 0.30450815 0.55270374 0.08272337 -0.12902972 0.3220394 -0.4582343 -0.1137516 -1.0325882 -0.09658979 0.42988613 -0.13016482 -0.43930107 0.052979924 0.21324477
theartofslowliving -0.36014014 0.67519164 -0.78133947 0.40104994 -0.22296213 0.18184938 0.18592556 -0.19814038 -0.06329839 0.36290973 0.17743081 0.24638209 0.22154287 -0.19664544 0.07173184 0.5770734 -0.91600245 0.4316656 -0.46129218 1.5188178 0.25319377 0.36005476 0.65606177 0.84967065 -0.42421392 -0.9191459 -0.009561171 0.8747776 0.4049786 0.39819527 0.96316665 -0.16490212 -0.20110126 -1.1176335 -0.3681861 -0.040922973 -0.08307751 -0.4320712 -0.08453376 0.2532473
firstworldproblems -0.28337708 0.037505984 -0.26860735 0.34133253 0.012148928 0.24729618 0.060241967 -0.049696695 0.12741022 -0.051310495 0.09430413 -0.0182708 -0.37403876 0.006848863 -0.06074548 0.29971173 -0.47542843 -0.030762244 -0.13065457 0.46710894 0.16600454 0.42062306 0.046572965 0.43601885 -0.026566273 -0.33731878 0.29050606 0.37885985 0.018437408 -0.11525423 0.123805314 -0.10800185 0.045857955 -0.4697676 -0.3153711 0.2941526 -0.13482487 -0.23129983 0.1788242 0.14221773
