3006 40
frommydiningtable 0.14469472 0.006897667 0.002473789 0.11250425 -0.027834529 0.14722928 0.12331193 -0.13626848 0.21934901 0.09723787 -0.3188364 -0.013229102 0.036596593 0.1515882 0.011279258 0.22591099 -0.006129895 -0.019258128 -0.1216428 -0.18637137 0.13152488 -0.10710451 0.041878376 -0.0061318385 0.19629212 -0.03894739 -0.15051407 0.18157803 -0.33139732 -0.10826235 0.05612402 -0.17089042 -0.07129991 -0.007147608 0.32013193 0.09008818 -0.039540336 0.05597301 -0.16171065 -0.039123714
ladolcevita 0.15671392 0.05299891 0.031348284 0.17401014 -0.006713674 0.19495371 0.11151172 -0.2008589 0.2631157 0.13488072 -0.3615026 -0.05869219 0.02201457 0.14871894 0.02619961 0.19881216 0.0007719904 -0.016459117 -0.10018545 -0.1654388 0.087714456 -0.09645801 0.027973164 0.02240138 0.21713974 -0.06753987 -0.15800484 0.19466403 -0.34817713 -0.087287806 0.050166607 -0.15750602 -0.032658923 -0.08916015 0.27789173 0.12238065 -0.026367363 0.01840097 -0.19394164 -0.034371443
happiestinthekitchen 0.119649746 0.014673857 0.033328004 0.11668293 0.011053523 0.13720486 0.058105 -0.09941468 0.15678783 0.10739747 -0.23791106 -0.029405855 0.021458168 0.10877862 -0.0058812033 0.16549018 0.0049981996 -0.02580521 -0.08413576 -0.12875123 0.09290829 -0.04724317 0.016506758 -0.011329968 0.13454324 -0.015878018 -0.13155207 0.115397766 -0.24721365 -0.071252 0.04438006 -0.12195318 -0.03728067 -0.0156105915 0.2403148 0.059174113 -0.022312127 0.041278735 -0.120422445 -0.031431746
collaboration 0.12245724 0.057823677 0.065252855 0.12547447 0.01324155 0.14889789 0.06163705 -0.11041581 0.15205145 0.14484748 -0.20831326 -0.031541865 0.01122592 0.07684374 -0.025896888 0.19633733 0.027378663 -0.053294245 -0.08357976 -0.16965894 0.13413653 -0.022441434 0.022950606 0.012816406 0.14873995 -0.012694231 -0.1173643 0.085885994 -0.26221108 -0.06677837 0.044329345 -0.0889307 -0.020376058 -0.05048389 0.2075855 0.076481275 0.013086951 0.04842255 -0.08988791 -0.0390622
drinkresponsibly 0.12832496 -0.17724757 0.21402614 0.1966353 0.18029708 0.13815123 0.0055382866 -0.19201188 0.47922897 0.20448378 -0.20223425 0.08186838 -0.3082903 0.3490884 -0.29363662 0.5761245 0.22492932 -0.27410534 -0.39258757 -0.33417997 0.37878144 -0.2585676 -0.08469389 -0.4044485 0.7539561 -0.06355551 -0.5500791 0.2268828 -0.3432184 -0.0043270583 0.049329 -0.35849804 -0.11317107 -0.005054386 0.092816 0.06558958 -0.3352649 0.022284806 -0.23413144 0.04832193
breakfastofchampions 0.5795162 -0.1666363 -0.24677078 0.6382945 0.0144359805 0.83434385 0.016415726 -0.4129577 0.89144677 0.74600285 -0.75331616 -0.27641633 0.22170192 0.5129736 -0.22188638 1.2143166 0.15455586 -0.06453271 -0.65884775 -0.027302593 0.058404297 -0.2076005 -0.07148835 -0.0066417535 0.55695 -0.3901279 -0.72392064 0.115510486 -1.3553292 -0.17673771 0.45778704 -0.48758262 -0.11474213 0.26945594 0.9089537 -0.04808892 -0.4393607 -0.12054185 -0.33979848 -0.062280864
sweetsforthesweet -0.0038767187 -0.0060909973 -0.0072867796 -0.0054736226 -0.0058216187 -0.012416345 0.006765769 -0.0023122998 0.007513321 0.008001155 0.00093596615 0.005071626 -0.00027805567 -0.010344434 -0.002289203 0.0022425633 0.004125391 -0.0070263282 -0.0016438691 0.010983844 -0.009812353 -0.0035156216 0.007882073 0.004814365 0.012237177 -0.0010928493 -0.0031515034 0.0075291293 0.0026583467 7.102825e-05 0.0044644633 0.009782088 0.0002891915 0.0012321752 0.004952452 -0.0017614365 0.004231666 -0.010530809 0.0010869186 -0.0035659866
onacoldnight 0.06267879 -0.011776154 0.027388949 0.044474803 -0.0311357 0.045297027 0.049169946 -0.037350304 0.12242443 0.076897725 -0.13687538 -0.00339292 0.035008345 0.07655572 -0.0007085426 0.08574311 -0.003908603 -0.030766653 -0.048811562 -0.08593119 0.08755975 -0.014625867 0.052996695 8.3679784e-05 0.122275665 0.013250487 -0.07982015 0.036420755 -0.14757213 -0.04399477 0.03299334 -0.037492957 -0.021205757 -0.039798044 0.14850703 0.0305538 -0.018419687 0.05982425 -0.04449851 -0.00018395917
comfortfood 0.13512075 -0.009062899 -0.040629048 0.16412732 -0.030664671 0.18408339 0.12584028 -0.16720763 0.36096612 0.2428724 -0.37279412 0.04873322 0.16534258 0.3236743 0.05362519 0.19706976 0.038338486 -0.092156455 -0.10222161 -0.15398934 0.048706796 -0.057175424 0.10870562 0.070703484 0.3123124 -0.011153376 -0.18151698 0.06223145 -0.4331395 -0.108997636 0.16273263 -0.063141175 0.029742425 0.008093874 0.33563966 -0.07451772 -0.09447897 0.14010154 -0.0938437 0.00018308964
autumnmood 0.6315589 0.46095148 -0.030157356 0.67965364 0.042408936 0.99969417 0.5161623 -0.9091882 0.8191416 0.41364214 -1.5553526 -0.14355595 -0.018604452 0.5461734 0.15807863 0.9035197 -0.032156553 0.19701417 -0.32406896 -0.7042637 0.010745529 -0.5739316 -0.03425287 0.09593972 0.4704921 -0.6058269 -0.62466246 1.3064672 -1.5625689 -0.4375788 0.048010185 -0.9642921 -0.26333135 -0.29952765 0.9677983 0.82251036 -0.10330497 -0.012219094 -1.1098026 -0.1304027
happybirthdayaeneas -0.001856057 -0.0036209077 -0.011269264 -0.0022130068 -0.008751485 0.009529243 0.006485359 0.009083026 -0.0006721001 0.00971974 0.008804851 -0.0056022913 -0.0024234857 0.0010162639 -0.009943219 0.011582254 0.00037178677 0.00528529 0.011836671 3.772974e-05 -0.010837661 -0.0086665945 -0.005195439 0.00598609 0.010960695 0.010988475 0.007912454 -0.008717792 0.011363166 -0.0004848363 0.0013334276 -0.012064069 0.002019329 0.0054170704 0.0013306271 0.008849726 -3.9788894e-05 0.0014316468 0.0021737963 0.0032330165
lastdaysofalmostsummer 0.009343118 -0.002197815 -0.004596822 0.0053642737 0.0116442265 0.008094364 0.009315343 0.0066255284 0.006653688 0.011051978 -0.0035532694 0.0020954264 -0.009217897 0.00075305067 0.007090823 0.0012318399 0.012098183 -0.010801757 0.002853142 -0.003770168 -0.0005872641 0.0048516626 0.0022749258 -0.0020403713 0.00066184066 0.00020668656 -0.0017316211 -0.0014276356 -0.0064704674 -0.0011987463 -0.010907607 0.0013761669 -0.010347618 -0.0028083874 -0.0055575445 -0.0047283308 0.0015792269 0.00033504702 -0.011281717 -0.00032545812
thatfridayfeeling 0.1097454 0.020019593 0.036976047 0.08496383 0.013642962 0.090224385 0.05003723 -0.09349565 0.16355741 0.108364314 -0.19708487 -0.013540314 0.053839073 0.087440155 -0.0014755693 0.13708173 0.03409315 -0.014279328 -0.07397498 -0.08522174 0.07906834 -0.021450233 0.045410138 -0.0072703715 0.13694033 0.012432681 -0.11461014 0.055970468 -0.19273292 -0.06394992 0.046193283 -0.083241835 -0.03223292 -0.021522712 0.19169721 0.018931856 -0.006631883 0.037746552 -0.069869064 0.011198551
fastfood -0.005853401 0.0042737657 0.0046021426 -0.005822444 -0.006631312 -0.009350657 0.002580355 -0.00587817 0.007840448 0.011922591 -0.0077631236 -0.0039706733 0.0024368344 -0.0061785164 0.01013855 0.0023553995 -0.004497856 0.010867902 0.0032426054 -0.008777855 -0.007845974 0.00933184 -0.008278204 -0.009955366 0.0029295133 0.0038132323 0.0055551967 0.010870201 0.0016036537 -0.005276065 0.008561534 -0.010273675 0.00015676953 0.003989446 0.003944353 0.01005379 -0.009664128 -0.0069704624 0.011466048 -0.007201731
neverwanttoleave -0.00485135 0.004628652 0.005203224 0.009966052 -0.01135892 0.001151259 -0.008736613 0.009345087 0.011902108 -0.0071564093 0.0011665616 -0.0044513317 0.011047146 0.0014528828 0.0043885736 0.010740857 0.006498323 -0.006784448 -0.008403083 -0.0037061367 0.0064386604 0.0054928055 0.0064750304 -0.006726447 0.007085786 0.0048807273 -0.012239272 0.0021848204 -0.006070146 -0.006467819 -0.004436044 -0.012128557 0.004295514 -0.011057921 0.0023933025 0.0074039986 -0.006670846 -0.011361447 -0.006023392 -0.0038818642
aboutlastnight 0.005540381 0.0054337224 0.0024822578 -0.0060050595 -0.0008195536 0.007613574 0.010632007 0.0028305706 -0.00988545 0.007745561 -0.00089134835 -0.0014741765 -0.01023416 -0.000516993 0.011500322 0.0091765085 -0.00025708415 -0.004970798 -0.011747514 0.009862374 -0.0076543065 0.010850978 -0.0024050344 -0.0062323245 -0.00047457777 -0.003382911 0.007834618 0.0068857847 0.0069186846 0.009728716 0.00023268163 0.010307551 -0.010333205 0.009521098 0.007909135 0.009331574 -1.8621795e-05 -0.0024381224 -0.0028238613 -0.00861266
lazyweekend 0.01082435 -0.007920277 -0.010614905 0.0022924598 -0.005263516 -0.0014186781 -0.005603619 -0.0071988776 -0.00835332 0.0098146135 -0.0119914515 0.007728298 0.012242786 0.003472236 -0.0066628917 -0.0071308925 0.006061177 0.0014389502 -0.0074967267 -0.009967305 -0.0051528155 0.009651256 -0.011004957 0.0003465768 -0.0043222066 -0.011149193 -0.008244288 0.0022002328 0.006622839 0.009753552 0.0043678647 0.00017034262 -0.0029470995 0.012174764 -0.012420892 0.006612734 -0.010620502 0.003651646 -0.0038254308 -0.0048580663
homesweethome 0.2781485 -0.20865086 -0.037193574 0.15418811 -0.6014094 -0.1129404 0.4202589 -0.17406443 0.40112028 -0.11373243 -0.53464663 0.22145125 0.049026646 0.29413643 -0.069373846 0.1725367 -0.17340124 -0.07412883 -0.24121644 -0.5462738 0.33169666 -0.2974436 -0.17309594 -0.25322258 0.6728266 -0.00021663407 -0.40410084 0.3318095 -0.4014332 -0.38822028 0.17872591 -0.2531424 -0.38489822 0.102695994 0.7942709 0.401051 -0.2147501 0.26345754 -0.44526836 -0.08682633
atableinvenice 0.0029339194 -0.00906839 0.0009854045 -0.008341452 -0.011526056 0.011648887 0.0095557375 0.005148747 -0.0077579054 0.00064606406 -0.0015237825 0.0031859586 -0.0068642185 -0.007335988 -0.011833136 -0.0033484679 -0.0038725333 0.007861997 0.010176848 0.011350549 0.009042713 -0.01003665 0.0069308234 0.011492857 -0.004086539 0.008422007 -0.009615148 -0.008977245 -0.006453015 0.009663715 -0.004377991 0.0011741817 -0.002071065 -0.0064551756 -0.010183752 -0.0018561529 0.010740398 0.011146945 -0.010618351 -0.0026866226
babyachilles -0.01171336 0.0007259669 -0.0045599435 0.00032714754 -0.011787209 -0.010685804 -0.0018404098 0.010672801 -0.009263871 0.0011115 0.0016043233 0.001370552 -0.011456124 0.0110573275 -0.00505528 0.005024758 -0.0015923502 0.0068604397 -0.009162133 0.007552066 0.009794896 0.0075690607 0.0042025587 -0.0015532319 -0.0032153334 -0.0042164475 -0.0023022797 0.0026532281 -0.0038617123 -0.009675915 -0.0070203156 0.0049521206 0.009766976 -0.00036036223 0.0026017157 0.009605891 -0.0037103575 -0.012145805 -0.007146253 -0.012186708
sweetdreams 0.075366214 0.061983746 0.024233019 0.100893445 0.026388086 0.13403071 0.055963628 -0.10405281 0.12828642 0.128125 -0.18772918 -0.0063671144 0.01763921 0.08159252 0.030360576 0.11411319 0.0020809344 -0.030945562 -0.03893566 -0.10627725 0.051074974 -0.017898185 0.04102362 0.032114837 0.10015754 -0.020606134 -0.08249654 0.07546999 -0.19548962 -0.038834956 0.03141201 -0.073843405 -0.0028178184 -0.06965674 0.16871563 0.07062553 0.0002766919 0.023141675 -0.07386401 -0.010505963
lunchtime 0.15793745 0.056727596 0.08172128 0.24097823 0.08736097 0.2692375 0.06641987 -0.14954627 0.317427 0.37753132 -0.39674932 -0.114532374 0.117982544 0.3574093 -0.029971989 0.41211358 0.11146681 -0.059737362 -0.17674933 -0.20399511 0.17811073 -0.006819273 0.16101071 0.11596301 0.27391255 -0.059964336 -0.23996475 0.11674782 -0.63119483 -0.09248519 0.15365724 -0.21750611 -0.0043003317 -0.0040157046 0.39250752 -0.04217338 -0.102539144 0.14910024 -0.12004709 -0.022495754
summerinvenice 0.0022969171 0.00092971325 0.007704814 0.008331423 0.0007640226 0.010764201 -0.00432075 -0.009018347 0.010914673 0.0057755085 -0.008288456 -0.009815264 0.001411031 0.008695495 0.010656917 -0.0076962817 -0.0105405 -0.011699949 -0.00033056736 -0.009085918 -0.011008236 -0.0031953305 0.006301065 -0.0043117385 0.009295504 0.00097163767 0.006982022 -0.0021964516 -0.010542971 -0.0024740444 0.004312993 0.0021915827 0.0029032556 -0.01087157 -0.007809587 -0.010686973 -0.005660489 -0.007958427 0.0021984782 -0.007246894
viewoverthegrandcanal 0.08487419 0.04063349 0.014405614 0.06603225 -0.019641727 0.12082828 0.059662793 -0.091762125 0.1257352 0.11358502 -0.1773693 -0.0144312885 0.035289064 0.077245735 0.01871582 0.107779704 0.028215338 -0.049303 -0.041718617 -0.12133547 0.071146846 -0.015043999 0.04440753 0.026267674 0.11036004 -0.005692773 -0.08903339 0.061563723 -0.18856703 -0.038685232 0.04097095 -0.061791275 -0.0003988208 -0.051714256 0.17799844 0.050555248 -0.019598547 0.02703631 -0.049672045 0.0029096105
classic 0.9554059 0.55077285 0.46857113 1.1228929 -0.16078658 1.3604213 0.31998235 -0.6462855 0.77233076 1.5605887 -1.6933668 -0.044345386 -0.14278585 0.8756662 -0.3621711 1.3039604 0.28459853 -0.72988147 -0.4240311 -1.6946136 0.47797897 0.07666031 0.19746381 -0.01226373 1.1929368 0.25788558 -1.1501806 0.51408535 -2.4345875 -0.33141693 0.49491006 -0.70471257 0.18950354 -0.39089793 1.7757909 1.0666609 -0.06716597 0.40661612 -0.5057192 -0.49326777
favouritemealoftheday 0.0051203696 -0.010014157 0.011615449 -0.012357435 -0.011021963 0.0075149247 -0.008173652 -0.01161076 -0.0004009558 -0.005188635 0.00522256 -0.0006913198 0.009674386 -0.002842458 0.0124140745 -0.010287866 0.011885603 0.005886589 -0.006574494 -0.0063965856 -0.009217247 0.007825532 -0.0022592787 0.0036499696 -0.0120663615 -0.0037480425 -0.0051358477 0.01178404 -0.0057164715 0.005867454 -0.0044195773 0.010265182 -0.0038732113 0.0029403064 0.0004233895 -0.012047248 0.00019970257 0.008353283 -0.0045965565 -0.0024270285
recipetesting 0.5043374 0.094813116 0.2344879 0.39837784 0.028924853 0.71986604 -0.2669013 -0.1542244 0.2043575 0.7453449 -0.86532515 -0.09713769 -0.04004061 0.3753671 -0.2876224 0.84781253 0.34227815 -0.51078236 -0.23099491 -0.976681 0.24913454 -0.12821494 0.14259242 -0.038150884 0.53086925 0.07421792 -0.6398037 0.19693497 -1.3606031 -0.17788465 0.007198849 -0.24814498 0.1946813 0.11627064 0.5273339 0.37264866 -0.022219822 0.27396858 -0.05389764 -0.37442696
summermood -0.011396574 0.0076446896 -0.008428281 0.0018942412 -0.007120931 -0.011668831 0.0031565959 0.0044897785 -0.0016898718 0.009545582 -0.011240603 0.008292713 -0.008185474 0.00782992 -0.0037112506 0.007872117 -0.0016495781 -0.0028402088 -0.00051094126 -0.0026263073 -0.0029051322 -0.0031409012 0.00043649971 -0.0056237145 0.004317214 0.0019578887 0.011069448 0.002144957 0.0053849714 -0.009604344 0.00038068555 -0.010602227 0.008107343 -0.0116743315 0.008936829 0.0049121166 -0.008359913 -0.006550209 -0.004135211 0.00029353797
holidays 0.12958694 0.08783731 -0.042136353 0.2507792 0.040554278 0.39585558 0.09720757 -0.14193729 0.40812662 0.6061189 -0.3940939 0.022363372 0.12577625 0.38895088 0.06438254 0.28969333 0.03350957 -0.26321518 -0.046665404 -0.27517858 0.12184164 0.07801974 0.2529378 -0.011626768 0.49148837 -0.07096148 -0.21623704 0.030765919 -0.71563166 -0.06341492 0.17509173 -0.054681063 0.090881445 -0.21754473 0.315811 0.07561188 -0.09713104 0.25322425 -0.0017138757 0.1907269
onemonthold 0.063218415 0.029895319 0.037237946 0.07780621 0.02514051 0.11331686 0.019890822 -0.054154456 0.10349127 0.13138796 -0.16249706 -0.027481332 0.006570462 0.06667005 -0.018922247 0.13510023 0.019545123 -0.03471084 -0.060598675 -0.0980508 0.061388545 -0.013705095 0.052809536 0.024464417 0.08994895 0.013814912 -0.07134892 0.087725855 -0.19766307 -0.033460308 0.013582713 -0.06780932 0.023951057 -0.018526059 0.12240958 0.047213256 -0.0050433916 0.016293302 -0.053336684 -0.03611821
summertime 0.15662594 0.030632097 0.061202444 0.13602936 -0.017534234 0.13263676 0.11709744 -0.10835209 0.18905158 0.15777293 -0.25583637 0.0009197943 0.0020390505 0.123706296 0.0052532447 0.20248918 0.033264417 -0.06492172 -0.087643586 -0.2045255 0.16098785 -0.038682096 0.06030808 -0.0136241345 0.21207136 0.021506839 -0.13146111 0.1162893 -0.26800326 -0.079587534 0.040370207 -0.09331503 -0.014921156 -0.050212707 0.24527316 0.097800426 -0.011546884 0.042845927 -0.07646181 -0.011571746
servechilled 0.11996768 0.01657825 0.04091881 0.085977525 -0.042388957 0.14655131 0.06374816 -0.086179435 0.15788145 0.12378465 -0.20998397 -0.024310846 -0.008565355 0.10352639 -0.04409762 0.19106422 0.056201395 -0.048261225 -0.08803928 -0.17843546 0.11443271 -0.06179268 0.027211903 -0.022082852 0.16266744 -0.011466755 -0.13919252 0.1177048 -0.25633356 -0.06617565 0.032180037 -0.093386754 -0.03909697 -0.018688504 0.213621 0.07632863 -0.04560592 0.02463964 -0.085985035 -0.041784633
makeahead 0.17223457 0.049235824 0.07876684 0.09732911 -0.032221824 0.11195243 0.13750438 -0.10916924 0.1867816 0.09383173 -0.26949143 -0.020783596 0.004515731 0.0904125 0.011707428 0.17183268 0.030864239 -0.049424876 -0.07101688 -0.21318029 0.18088853 -0.08311608 0.062129945 -0.0042476202 0.17867616 0.01332151 -0.096045576 0.12263541 -0.2142921 -0.116469346 0.03936468 -0.105339676 -0.060780745 -0.055116776 0.28130084 0.1076832 0.026495961 0.026977992 -0.08993096 -0.0058147786
secretvenice -0.00021927245 0.00125203 0.0035771588 0.0065504694 -0.001609223 0.0081202565 0.008395796 0.0014086794 -0.011111403 0.0017036293 -0.0017124098 -0.006476593 0.008735989 0.0066575045 0.0033349553 0.005394415 -0.008180248 -0.010768746 0.0012890277 -0.011507212 -0.0011915695 0.008678817 0.0024835635 0.0029005604 0.010989086 0.0034703976 0.0052773105 0.011623221 -0.0055137174 0.00073197484 0.0020896597 -0.0039905906 0.0002186643 0.005792276 0.0013606222 -0.00023053586 0.006023287 -0.0052035227 0.0053762095 0.010513433
myfavouritecolour -0.008925535 0.00487152 -0.0016238615 -0.005897574 -0.011445135 -0.0065310686 -0.012134179 0.010180765 0.011534902 -0.011135772 0.010337538 -0.008887352 0.00399864 0.0040601706 -0.0035954956 0.0035467362 0.004173967 0.011906383 0.01230248 -0.0024194065 0.0034507634 -0.0020433636 0.006121899 -0.0017633308 -0.0024024965 0.0018477384 0.005516733 0.0050165793 0.009217084 -0.009472186 8.2617626e-05 -0.00046209246 -0.0070694136 0.004454228 0.004105375 0.0035529817 -0.005409607 0.0070397714 0.0029918281 0.010602514
lavieenrose 0.08772006 0.033320315 0.03761142 0.08937547 0.019821448 0.11124508 0.045525562 -0.077570625 0.11341289 0.09478619 -0.16851854 -0.01971928 0.008531445 0.098385915 -0.0014287397 0.13918361 0.018637108 -0.015025262 -0.04829301 -0.122228585 0.079988725 -0.034836028 0.043984845 0.01119732 0.10797285 0.0012669001 -0.07575388 0.0857611 -0.20511033 -0.046121407 0.02627077 -0.071526006 -0.019592818 -0.045973 0.16248326 0.07359294 -0.011992682 0.042470165 -0.052739426 -0.024387948
inthemoodforpasta -0.0090058055 -0.0042729257 0.011086644 0.0055459114 0.0029045893 -0.0065670046 0.0019527795 -0.000851335 0.007426058 0.0007593455 0.0029956158 0.002031264 0.00451387 -0.005248812 -0.01187062 0.0022914829 0.001521091 -0.012074882 0.0048487717 8.599926e-05 0.0050793653 -0.012143485 -0.0014226316 0.0072279545 0.0040647713 -0.008486822 -0.003080395 -0.0025220336 0.003451827 -0.0024362635 -0.004344927 0.012056955 0.0031367699 0.0053932415 -0.01227303 0.0006017927 0.008655679 -0.0005349498 -0.0015773345 0.0032067737
sunday -0.005484644 0.002885675 0.0075722607 -0.0059277727 0.0014201775 -0.011412372 0.006657739 0.0010705339 0.011507862 0.000684157 -0.0048905103 -0.0029404238 -0.011624656 0.008144769 -0.0026784595 -0.006258324 0.012055212 -0.012341055 0.0066341916 -0.011645622 -0.0035478277 0.004782199 0.0067333495 -0.0002611503 0.0007513715 0.007034409 0.000432821 0.008988016 -0.00013732724 -0.008098577 0.004928463 0.01116355 -0.009757186 0.010235715 0.009798934 -0.010798757 0.008167339 0.010036035 0.010110992 -0.010613299
babyboy -0.0043235 -0.0014119623 0.008527624 -0.0008425284 -0.010626621 -0.0053459196 -0.012448415 -0.0029535908 -0.004420954 -0.008450145 -0.011299674 0.003646643 0.0010740329 -0.0010057343 0.00028862804 0.0074970974 0.0008537518 1.1736527e-05 -0.00312607 -0.0019420143 0.006080077 -0.00852329 0.010276799 0.0063328603 -0.00577288 -0.011499183 -0.00388172 0.011160255 -0.010568745 -0.0076387287 -0.0041660788 0.008788674 -0.00862537 0.007096215 -0.006465067 0.01069606 0.008848072 -0.011097426 0.0062063253 0.008407661
mondaynight -0.0051616654 -0.010314876 -0.011523395 -0.00215221 -0.002909854 0.007441026 -0.012018998 -0.001519246 0.009008692 -0.0088334335 -0.004260379 -0.0046726195 0.00080492534 0.0008007195 -0.0075569274 -0.012236561 0.0033636848 -0.008872459 -0.009091526 -0.0069897207 0.007485072 0.00045310706 -0.007939679 -0.006057869 -0.00019985251 -0.0109226825 0.010884878 -0.011281902 0.011733399 -0.00018098485 -0.0011988226 0.00010836311 0.00040345173 -0.0024367375 -0.011467894 -0.0025948808 -0.0095444815 0.0014071781 -0.0010937601 -0.0074561327
weekends 0.00021840353 0.010608816 -0.0026986469 0.0009652497 -0.009428024 0.0075314874 -0.0067503825 -0.010727574 0.0012498405 -0.010042133 0.0064409906 0.0056690415 0.001097409 0.009968779 -0.0037444755 0.0014221352 -0.0041780546 -0.007979308 0.0023848163 -9.0025365e-05 0.00468129 -0.01141783 0.0023265127 -0.003427878 -0.012253678 0.0075750677 0.00023159571 0.0025640028 -0.0034247665 -0.0071296617 -0.0009961482 -0.0036460068 0.012061375 -0.010023892 0.0045553064 -0.0039904313 0.0075665927 -0.008244783 -0.0020248815 -0.00013316236
lazystarttotheday 0.09465125 0.021306388 0.012862229 0.07358784 -0.032409426 0.10349216 0.0865407 -0.06417211 0.118926235 0.07683359 -0.17246497 0.008990086 0.011973438 0.118787505 -0.018787313 0.13865055 0.0038727152 -0.044116337 -0.035146847 -0.1336466 0.08327998 -0.033241265 0.027966857 -0.016018245 0.12371807 0.0009416561 -0.11826906 0.07810865 -0.16381559 -0.07055655 0.039624706 -0.06390109 -0.01939545 0.0008363016 0.20413668 0.051483367 -0.015757717 0.0475025 -0.07291596 -0.03543937
themorningafter 0.07894358 0.033494316 0.029319663 0.07647118 -0.0071995133 0.08997318 0.054634187 -0.07242512 0.07675962 0.07526259 -0.12577565 -0.0064500356 0.013750885 0.07768133 0.015875889 0.107948944 0.0020035098 -0.004278443 -0.029355103 -0.0850979 0.052449778 0.0002464167 0.036544915 0.0164517 0.08403673 -0.0074379453 -0.061210956 0.053225946 -0.13118623 -0.03822765 0.020562427 -0.049430475 0.005215158 -0.032154582 0.12022827 0.060650256 0.012024802 0.024668975 -0.06394266 -0.025085816
andthesweetestroses 0.11863485 0.010124716 0.01710244 0.068629175 -0.006125483 0.1386306 0.06703448 -0.12964998 0.16138288 0.06482231 -0.2075656 0.0068883826 0.026548935 0.0981208 -0.005749173 0.11237136 0.034728512 -0.03298037 -0.087721825 -0.12281112 0.07318049 -0.06576019 -0.008147579 0.021280708 0.14546905 -0.020497933 -0.12923396 0.08921777 -0.2287562 -0.057729 0.05503649 -0.11239818 -0.007918647 -0.019782683 0.21064216 0.06771474 -0.028994577 0.01526082 -0.08118865 -0.022731816
tuesdaynight 0.06762747 0.0017095553 0.023043113 0.052840993 -0.015220743 0.081689596 0.028589856 -0.054473612 0.08843418 0.078861274 -0.12548092 0.00014124702 0.0061510396 0.07413033 -0.02623325 0.117174394 0.017403832 -0.057437476 -0.054467466 -0.118429534 0.07476016 -0.021551322 0.03159962 0.0010583611 0.10761914 -0.004553857 -0.07942821 0.03139234 -0.17140351 -0.041086715 0.014176227 -0.047378607 -0.0133201135 -0.010324963 0.1235312 0.03745534 -0.028460126 0.051900707 -0.038881876 -0.01942276
wishiwerethere -0.011738134 -0.008345303 -0.011615216 0.012334554 0.0037506437 -0.011875838 0.010450886 0.011529817 0.01042368 -0.009169946 0.008936868 -0.00070786756 -0.0017075613 0.0075506316 0.0042596767 -0.00878595 0.0071973996 0.009101224 0.0023075733 0.00058118254 0.003745283 -0.002442588 0.0051947096 0.00058527105 -0.0008000657 0.0032026088 -0.010770196 -0.0107929455 0.00440129 -0.0017684968 0.0039106114 0.010027328 0.005893369 0.0044039274 0.002646042 -0.0031689946 -0.00012026541 0.011483 -0.0061504007 0.009596457
postcardfromvenice 0.09944155 0.031891357 0.042640682 0.10405552 -0.0050503146 0.11797482 0.05973688 -0.09901521 0.12438894 0.09764601 -0.17811392 -0.025356596 0.021187782 0.07394563 -0.015419852 0.115376584 0.018497404 -0.043138523 -0.04303892 -0.1209145 0.08694979 -0.020908924 0.013602579 0.008278188 0.11146753 -0.007764282 -0.09720614 0.07849025 -0.19058223 -0.057024002 0.05062034 -0.07732052 -0.017337196 -0.043835573 0.17796323 0.0759708 -0.010373762 0.04862249 -0.06668191 -0.017418873
decorativegourdseason 0.009239252 -0.0018129246 0.002064337 -0.00044038426 0.009765659 0.009870538 -0.005076298 0.010830139 -0.007470609 -0.0069064307 -0.0063467384 -0.007541548 -0.0040510725 -0.003982256 -0.00025918614 -0.008352824 0.0019814726 -0.00354888 0.0017563077 0.0033287732 -0.005774704 0.0058790026 0.011071806 0.011023697 0.00056329183 -0.011782045 0.0004517557 0.0075436244 -0.0007656608 0.011160287 0.0058329543 0.00048451312 -0.011490022 -0.0075326907 0.012327126 0.0003019767 -0.0018997807 0.011266136 -0.0034078015 -0.00076045096
wildfoodlove 0.09002792 0.027310263 0.036395483 0.09119788 -0.01420276 0.119716465 0.053323433 -0.072343856 0.15408792 0.12692331 -0.18698014 -0.032135468 0.014899808 0.07349717 -0.010208473 0.13552429 0.027637288 -0.047020346 -0.065204106 -0.112750255 0.08193094 -0.02526323 0.027493382 0.009708164 0.12130014 0.018138202 -0.089709155 0.050751053 -0.21469247 -0.039735958 0.029190462 -0.061022915 -0.007683805 -0.04461558 0.14986566 0.051951773 -0.013149837 0.043007594 -0.042817965 -0.01956595
tomatoseason 0.004464538 0.0027432758 -0.011002364 0.004210378 -0.004069833 -0.0019966634 0.00084018894 0.005707138 0.008989233 -0.008475793 0.0017905012 -0.0065153795 0.005844203 -0.004408148 -0.0058309063 -0.00695055 -0.0018512206 -0.010668993 -0.010449235 0.0014335094 -0.0027487827 -0.0027270522 0.008913928 -0.0006822925 -0.011337726 0.0029824423 0.005106191 0.006296537 -0.0022996916 0.0007113889 -0.002538371 0.008527133 0.010529856 -0.0010168133 0.012212948 -0.004694991 -0.00042709522 0.0020428672 -0.011354323 0.004572819
peakperformance -0.009394126 0.0056810854 0.0078032324 -0.003998041 -0.0097301155 -9.200722e-05 -0.0058214827 0.0056482563 -0.003957348 0.003683378 0.003096548 0.010723858 0.0071252687 -0.00470164 0.0028072447 -0.006352592 0.0042416295 0.012308943 0.0013808561 0.0027504321 0.011187115 -0.010114044 -0.001228149 0.0112066055 0.004076273 0.0029702215 0.012339878 0.004722585 0.0015692338 -0.011825467 -0.00026640855 -0.007859193 -0.011529694 0.0021277424 -0.011942304 -0.006730363 0.005767961 0.001870255 -0.0060547725 0.0034189792
leoseason 0.08037518 0.026134899 0.026181553 0.062935434 -0.014614376 0.102305174 0.054859437 -0.09946297 0.12679227 0.096127175 -0.18205975 -0.015907027 0.037114862 0.08068508 -0.0029945367 0.14892676 0.013385072 -0.024329709 -0.07177067 -0.10999847 0.104002595 -0.043130152 0.025947383 0.0039331503 0.107919976 -0.020149453 -0.0918651 0.06004275 -0.19558592 -0.066171944 0.02241833 -0.07467785 -0.008641471 -0.017861959 0.18525217 0.039534297 -0.006152719 0.04940146 -0.062328465 -0.01394119
summerismagic 0.08448532 0.029981354 0.019228565 0.098278426 0.011909348 0.13194339 0.078068964 -0.08551737 0.12849425 0.11204794 -0.20612523 -0.01179616 0.031750508 0.10422704 0.016589148 0.12389515 -0.008678477 -0.022687636 -0.044460308 -0.10016401 0.064099535 -0.028488422 0.039242264 0.014997958 0.108776696 -0.022192828 -0.1055082 0.08079327 -0.19076928 -0.054359917 0.030536871 -0.09702776 -0.017378943 -0.024800904 0.17356558 0.05772992 -0.01905307 0.02680505 -0.085436404 -0.0042028874
feedlife 0.16109554 0.040515225 0.031571623 0.12648498 -0.012770621 0.16195741 0.07478914 -0.11777985 0.17990102 0.14906728 -0.2645532 -0.021230042 0.052828122 0.15044571 -0.016820073 0.21715988 0.03317225 -0.041745104 -0.09443901 -0.1541876 0.11534113 -0.046208534 0.037811283 0.02165639 0.1692745 -0.018834757 -0.14825337 0.082525164 -0.30610397 -0.059462186 0.06136708 -0.13759144 -0.028189424 -0.029667346 0.29337513 0.08456379 -0.012607798 0.036409292 -0.11132151 -0.041402347
summerlovers 0.0010688324 -6.5040775e-05 0.0011445824 0.0092355525 0.0019025002 0.0031339535 0.0061412314 -0.012274332 -0.0054666474 -0.011687808 0.005237353 -0.0056002066 0.003314943 0.001836827 -0.0057164463 0.006435604 -0.00063324906 0.0013580639 -0.010985548 0.009677433 -0.0071167173 0.009130265 -0.004606828 0.00807174 0.0042079063 0.00081244856 0.012284446 -0.0060080946 0.0004780665 -0.0010564383 0.006601258 4.2527914e-05 0.0062336707 0.0045662234 -0.004188831 0.006423586 -0.00322182 -0.009725129 0.010596951 0.0029960126
alpenglow 0.006009306 0.0078029158 0.0022560228 0.0010394556 -0.008875583 -0.0011223704 -0.008048486 0.004492252 0.012166291 0.0019499706 -0.010575085 -0.0050682053 -0.008627253 -0.007604416 -0.008146005 0.0036725113 -0.011142092 -0.0016472843 0.010066082 -0.0026180493 -0.0054233535 -0.010811823 0.00013406388 -0.006757258 0.00030937232 0.00078635477 0.0029612277 0.008897279 0.011722534 0.0065153865 -0.009992935 -0.0039233966 -0.0035293251 -0.011891124 -0.012018802 -0.007909802 -0.011341785 -0.0018728767 0.00555537 0.0006517321
weekendwarrior -0.00714072 -0.0030667884 0.009523203 -0.012441233 -0.0062899753 0.0086870575 -0.0068775415 0.009938101 -0.0055080876 0.0039833942 0.011382083 0.0012153741 -0.011768103 -0.00488186 0.0061588446 0.0011664508 0.011786827 9.521283e-05 0.0069349287 0.0064163515 -0.0035654781 -0.00026789773 0.00936734 0.0023384783 -0.0049847513 0.011577093 0.0062870877 0.002761173 -0.0022512525 0.0021834802 0.0055303825 0.001226591 -0.0026621995 -0.010520408 0.00039978884 -0.00596464 -0.00554328 -0.00024348032 0.0053200806 0.0023043063
figtastic 0.09955947 0.04357026 0.010861525 0.08790237 0.006568 0.119286716 0.038147856 -0.08426576 0.12705614 0.123359956 -0.20097557 -0.021917984 0.0321803 0.07594619 -0.008024523 0.13661821 0.04100581 -0.018227262 -0.060968958 -0.09305843 0.06724203 -0.028246542 0.03922505 0.0065646986 0.10692105 -0.00091840676 -0.09699536 0.06541498 -0.20001818 -0.05311558 0.026828453 -0.06701236 0.0018472356 -0.025061877 0.18781582 0.048695687 -0.006741167 0.0301271 -0.07347324 -0.0028834725
figonometry 0.09709733 -0.004287342 0.03158383 0.079569735 -0.016928429 0.09820077 0.035599697 -0.06994673 0.11554064 0.067962825 -0.15862091 -0.017931726 0.010131779 0.055478048 -0.01387968 0.1424727 0.026507348 -0.027027326 -0.067011826 -0.12707277 0.097964644 -0.052303694 -0.009749149 -0.027490115 0.14041735 -0.0381387 -0.11140456 0.08497625 -0.19585864 -0.06148697 0.025839865 -0.065649666 -0.022820024 -0.024029015 0.1619094 0.0633883 -0.038344342 0.028196495 -0.08103325 -0.0142486375
fignewton 0.13004 0.035507254 0.038412433 0.10094066 -0.0053220927 0.1847135 0.062978804 -0.1303774 0.18388367 0.12149866 -0.23541547 -0.011745631 0.047674354 0.10382131 -0.003709432 0.17281532 0.03149249 -0.043179613 -0.105627134 -0.14932245 0.13452817 -0.042756535 0.03343649 0.0017778556 0.156724 -0.04109039 -0.15297848 0.07916466 -0.28496945 -0.055990133 0.049594954 -0.12096045 -0.02285733 -0.04903779 0.25223622 0.070319496 -0.034753583 0.05108828 -0.11323898 -0.0012520058
summerfridays 1.1254354 0.6250793 0.30692655 0.9052242 0.20312145 1.7081758 0.46185797 -0.76795673 0.90580034 1.4213386 -1.7876775 -0.22618787 -0.108173825 1.0185804 -0.46579546 1.9143136 0.23282488 -0.3431097 -0.35431585 -1.2662951 0.46319905 -0.24758631 0.24489126 0.4053812 0.6851671 -0.21200259 -0.9500254 0.858388 -2.3082893 -0.3596785 0.27117464 -0.92365146 -0.10141978 -0.21937867 1.7044253 0.9977801 -0.076223336 0.3588822 -0.6025332 -0.51935977
optoutside -0.0070514544 0.00017250795 -0.0039680284 -0.0048071668 -0.010020262 0.011098952 0.003120087 0.010360754 0.0018098596 -0.008819317 0.005958072 -0.011335547 0.001003541 0.011582374 0.0040570768 0.006288142 0.005083912 -0.010260871 -0.0064201686 0.0072283885 0.005611093 -0.010498358 -0.003099434 0.0061187604 0.0013365094 -0.006185149 -0.00843182 0.0023429692 -0.011732168 0.004313682 -0.010006201 -0.012375563 0.010355937 0.002904296 0.009799543 8.856878e-06 0.009514184 -0.0010758489 -0.006355801 -0.00826267
mood -0.009857001 0.0064323014 0.0036898172 -0.00020891707 -0.008641792 -0.011347768 0.0032100147 0.008703875 -0.0024697706 0.006984354 -0.0037955549 -0.011555995 0.008374992 0.008302973 0.0070699016 -0.00454015 0.0060609365 -0.00074400567 -0.0014688196 0.0045196014 0.0073925154 7.758103e-05 0.0045617586 0.007633417 -0.0025243955 0.010179016 -0.006688857 -0.01245137 -0.007439058 0.0013993979 -0.008367114 -0.007882334 -0.0083605945 0.010851714 -0.0058285925 0.0015425365 0.008048887 0.00023379363 0.0004078839 0.0065417467
joyspotting 0.26848456 0.16936731 0.14992411 0.26660305 0.12670869 0.42982882 0.21162267 -0.332772 0.39521733 0.3873957 -0.45481768 -0.22321175 -0.0063500176 0.22189315 -0.05455354 0.4089584 0.13384482 0.076878905 -0.18241051 -0.124229036 0.11809111 -0.05166542 0.057910897 0.20665249 0.12583894 -0.07108397 -0.23670329 0.21901977 -0.48647264 -0.010764389 0.115829736 -0.31917936 0.008319199 -0.18239488 0.45285523 0.08705384 -0.12311361 0.026490863 -0.18654998 -0.07935132
ilovesummer 0.09412872 0.025740575 0.02722041 0.088039026 0.0061651925 0.1058666 0.061124716 -0.088681825 0.119307056 0.09707109 -0.1677941 -0.028908137 0.017958678 0.09991471 -0.012331186 0.16097097 0.01623765 -0.033894803 -0.059158884 -0.1172534 0.06746683 -0.035444587 0.015713293 -0.010901724 0.111977845 -0.0007556644 -0.08955752 0.07362194 -0.18486966 -0.035447195 0.017707653 -0.05660237 -0.031967085 -0.0029623406 0.18663871 0.059751835 -0.0096835075 0.027020324 -0.07013344 -0.0062924162
teamworkmakesthedreamwork 0.0036077583 -0.007857238 0.009093911 0.006322951 0.0044409344 0.00871911 -0.009385461 -0.008498286 0.00376176 0.0060110157 0.011588925 0.0044100406 -0.00454312 -0.010280713 -0.008172387 -0.0034592953 -0.0015829969 -0.002797355 -0.0077676238 -0.01149468 0.00329391 -0.005997957 -0.003553356 -0.01247467 -0.0038738418 0.011520536 -0.0005646916 -0.010360198 0.00033427496 -0.0018726857 0.0060864696 -0.0029058624 -0.005461608 -0.010796118 0.0028072912 -0.0029721782 -0.0051266076 0.0013101278 0.0018080641 0.0076739034
freedomfries 0.007925549 0.008514005 -0.0034670113 -0.010281277 -0.003655864 0.004940265 -0.008922761 0.0002733227 -0.008992789 -0.0021376042 -0.007802366 -0.011580783 0.010521471 -0.0063148215 0.0070137614 -0.009838959 -0.00785389 -0.0035282196 -0.0068627195 0.007644632 -6.988179e-05 0.00992811 -0.00322284 -0.008718622 -0.0044547766 0.0017076032 0.003091393 0.011080387 -0.011206663 -0.0111756995 -0.00721207 0.005190215 -0.011790292 -0.00011185277 -0.0074301586 -0.0064438074 0.01073162 -0.0028732019 0.011488075 -0.01145492
iloveyou -0.0019943388 -0.0036012903 -0.006724669 -0.011292624 -0.0038991626 -0.0010086596 -0.004780996 0.005878399 -0.007453598 -0.007934475 0.0018934635 -0.0090931 0.0016985461 -0.000845504 -0.0062428103 -0.0017342521 0.0015026974 0.0045726197 0.0062582204 -0.00039831828 -0.008305233 -0.0024498682 0.0024892362 -0.0021925569 -0.010978796 -0.0037055118 0.0043838033 0.010267907 0.00503748 0.0044522816 0.0049480805 0.0037687207 -0.0049154013 0.00045586657 -0.011226351 -0.010069077 0.00634645 0.004846777 -0.011041536 0.007923403
fuckthepatriarchy 0.104767025 0.026449058 0.039599515 0.07697375 0.0050814506 0.14169054 0.02870551 -0.0893482 0.1321508 0.088046476 -0.1861252 -0.0274696 0.016557198 0.061778247 0.0046734754 0.13864978 0.03177271 -0.046790864 -0.07215736 -0.12072289 0.07566817 -0.023966985 0.018783698 -0.002614882 0.13637716 -0.018615412 -0.104530655 0.061215278 -0.21075498 -0.035764392 0.025141565 -0.06853661 0.0125147 -0.04393611 0.12944251 0.06649095 -0.017086063 0.011950615 -0.06462012 0.0050417827
jbfa 0.13055788 -0.019930664 0.015917849 0.101882085 -0.0616477 0.09701606 0.0596205 -0.0543132 0.17575452 0.08716646 -0.2663869 0.01939803 0.022095583 0.110772945 -0.039377853 0.22555691 -0.026242845 -0.0886328 -0.10526774 -0.1869548 0.18476112 -0.062024754 0.060663722 -0.08267435 0.2075218 -0.021710726 -0.18017694 0.08409711 -0.2653748 -0.11618435 0.024041828 -0.07418815 -0.037143156 -0.032159947 0.26796558 0.107673354 -0.01645098 0.06156233 -0.07686986 -0.023641247
chicagohome 0.15466271 0.013133464 0.06884631 0.10669458 -0.07891719 0.12416651 0.14093427 -0.08694734 0.18958203 0.06963633 -0.26782358 0.014168411 0.025715295 0.12286971 -0.04145145 0.1847719 -0.023323921 -0.052298635 -0.06494513 -0.16392176 0.12381078 -0.060627084 0.047142968 -0.023827476 0.1968882 0.0043038013 -0.16521855 0.116584755 -0.26285484 -0.09309148 0.04213916 -0.10223001 -0.031306073 -0.052832834 0.30220908 0.10701965 -0.0014093571 0.06788333 -0.109234996 -0.040568225
illinoisrestaurants 0.14959529 0.021047633 -0.008743167 0.1318567 -0.05427413 0.11414755 0.13617858 -0.10611874 0.2589248 0.06288358 -0.2774092 0.041383702 0.054763727 0.13863395 0.024622204 0.15951212 -0.045028504 -0.04039795 -0.11185859 -0.13526312 0.11207956 -0.073332764 0.043067645 -0.0006061723 0.2169952 -0.00017262841 -0.15947828 0.12195194 -0.24682987 -0.1083631 0.06903726 -0.12968993 0.0022380499 -0.02627538 0.32786354 0.06617747 0.009295135 0.037660662 -0.07980774 0.037181396
petalpower -0.002676797 0.0030783396 -8.3208084e-05 0.007495097 0.0011972338 -0.0047915685 0.011930442 -0.0048420294 -0.007184164 0.006111945 0.0012188796 0.008231119 -0.000360528 -0.0073267194 0.0048636636 -0.011911876 -0.00012560468 0.004624049 -0.0045739654 -0.012244112 0.011592173 -0.00912329 -0.008863303 0.010584393 0.012093418 -0.008501546 -0.007013102 -0.0046487823 -0.010698396 -0.000467062 0.009831616 -0.007970413 -0.0060724854 0.011038086 0.0059099765 0.00071049295 -0.010467121 0.0071448116 0.011049864 -0.0038004685
spargel 0.0039706687 0.012476322 -0.011276552 0.010362544 0.0042083943 0.0011733603 -0.011507578 -0.0123966355 -0.008347878 -0.0005535288 0.0063383365 -0.008415664 0.0062240893 0.0062625436 0.0071036136 -0.0070020007 -0.0028212396 0.006313232 0.008926342 -0.003906386 0.010700033 0.0030404162 0.003075419 0.01226795 0.00041252654 -0.0010046903 -0.00095595233 -0.0040333467 -0.0021871058 0.00044355262 -0.008901993 -0.0029500024 0.011778624 0.008569173 0.0019901525 0.012325059 -0.010591355 0.008902173 0.0044557797 -0.004633257
pollinators 0.010673965 0.006590196 0.0087937 -0.0026434036 0.007935789 0.0050575556 -0.00591653 0.010009299 -0.005428539 0.0031178342 0.003734653 0.006777779 -0.010103673 -0.0055163773 0.005841854 0.0039517255 -0.0029724594 -0.009308403 0.005720434 -0.0074386643 0.004692287 0.007531508 -0.011569621 0.0017140908 -0.0047221812 -0.0032264562 0.004669928 0.0018359814 0.0044738287 -0.0068244636 -0.012305468 0.002477033 0.0024179574 -0.011014955 -0.0039682984 -0.008618225 -0.0015752111 -0.002893594 0.0075377272 -0.0019327085
greenstrawberries 0.0018948568 -0.011826986 0.0027295295 0.007470249 0.010181918 -0.0077677625 -0.007916398 -0.010237167 0.0037777117 -0.0026088404 0.0093612475 0.0057867123 -0.0003698347 -0.007589017 -0.0017070863 0.0044396827 0.00026834756 -0.009345159 0.0023635998 0.011785966 0.0066866884 0.010217135 0.0076824883 -0.0038205609 0.009147651 -0.008726853 -0.0018949388 0.007792839 0.010684186 -0.0023967866 0.011807361 -0.009137566 -0.005861749 0.010216351 0.00034790207 0.0053405715 0.006338653 0.010053181 -0.008320719 0.0037531191
soothinbspringvibes 0.103390925 -0.0012879522 0.012711748 0.08695057 -0.019471696 0.10546742 0.04285689 -0.03975421 0.12959573 0.11283827 -0.16694364 -0.011341992 0.013342129 0.09339463 -0.039657135 0.15415661 0.02009881 -0.050358634 -0.05149492 -0.15249775 0.08616933 -0.03126585 0.015753618 0.007292434 0.13883772 0.019475633 -0.10813451 0.05832711 -0.21239737 -0.07162459 0.039118856 -0.061333925 -0.0074041705 -0.01840235 0.1715404 0.051322058 -0.030743431 0.057337712 -0.05160903 -0.018332504
squidink 0.0031089215 0.00275941 -0.011511758 -0.0063555376 -0.012252492 -0.0021621063 0.011021999 0.0013415786 0.0095215505 0.0016169995 -0.00897833 0.00059930794 -0.007955236 0.012135805 -0.008317074 0.0016125124 -0.011568606 -0.011361298 -0.01103765 -0.010839298 0.011271876 0.00096993893 -0.0062336433 0.009160097 0.0024684947 0.0017239852 -0.012050693 -0.0076565044 0.0023689475 0.0039241062 0.009699049 -0.006277798 -0.011810084 0.007889518 -0.0032732636 -0.006878005 -0.0089701265 0.009390383 -0.0034085754 -0.0057084947
carbcycling 0.11329644 -0.007351191 0.037452 0.0785817 -0.024668049 0.09150513 0.04718553 -0.06470077 0.12525022 0.078399085 -0.18761578 -0.021054486 0.033474732 0.079829134 -0.0019414504 0.1234669 0.03132198 -0.039931733 -0.05033425 -0.10948608 0.07698157 -0.043887224 0.03489725 0.012870009 0.105702706 -0.011686253 -0.0933616 0.04264157 -0.19773412 -0.059212413 0.031490386 -0.048462477 -0.027757814 0.0054596476 0.18816856 0.040142212 -0.02364724 0.04766831 -0.06468346 -0.007179547
conjuringspring -0.0016158298 0.0027856901 0.003607695 -0.001226047 0.004540977 0.001980153 0.0020041661 -0.003902167 0.008522836 0.011978331 0.002240127 0.0034959847 0.010322758 0.004320017 0.0012383331 -0.0059494763 -0.011912127 -0.00077787973 0.0025526835 0.010542245 -0.005930077 0.0057424763 0.006281466 -0.009292224 -0.004673888 -0.009427436 -0.007135016 0.010127756 0.010139731 -0.010210988 0.005249518 0.009147099 0.00041728 0.0040925564 0.012044878 0.0069383467 0.0039231023 -0.0073674503 -0.011505914 -0.007434398
radish 0.11851618 0.04964355 0.019784233 0.09623987 0.00492966 0.12179607 0.06417893 -0.08721113 0.11477911 0.12747666 -0.18217343 -0.030995464 0.02604855 0.07738364 0.009922764 0.12569748 0.018808525 -0.027425062 -0.041208267 -0.11322333 0.05952203 -0.029885657 0.02220857 0.039979506 0.08583029 0.009834786 -0.08773423 0.07130601 -0.20452055 -0.05452784 0.01956519 -0.08124678 -0.017860437 -0.031243727 0.2049554 0.064442605 0.0016869915 0.01923064 -0.08132708 -0.02475106
hurryupspring -0.005586584 -0.002482826 0.001568797 0.010156487 0.0093441 -0.009167078 0.00017789751 -0.0064806836 -0.011306313 0.0109979 -0.00425041 -0.010001028 -0.006851028 -0.0035736281 -0.0054223896 0.0024567526 0.012390393 0.008476452 0.0053141667 0.00082207937 0.011799633 -0.006477307 0.004232592 -0.004566352 0.0049638553 -0.0007893201 0.004333335 -0.00627756 0.011828856 -0.008497255 0.012157082 -0.005526668 0.0007196991 -0.0022229012 -0.009540871 0.0043790014 0.011295634 0.001537038 -0.010885613 -0.004518496
bivalves 0.010073564 -0.0017447304 -0.00032567233 -0.011354588 0.009958298 -0.003955081 -0.009000736 0.0013010055 0.011173063 -0.0009872736 -0.00050040055 0.003121023 0.0071988637 -0.007993968 -0.005078617 0.0031264434 0.010953347 -0.0069852206 -0.008441602 -0.0034788717 -0.0010789577 -0.0106205335 -4.077889e-05 -0.0090664 -0.009859616 0.009571907 -0.0069868253 0.0098117525 -0.00688567 -0.0019250112 0.011065229 -0.0026028631 -0.010460971 0.0066348435 0.0027018562 0.008634807 0.006236783 -0.012353472 0.0016277032 -0.004773654
theworldismyoyster 0.10848774 0.033071663 0.027019117 0.09821569 0.0061085345 0.103070825 0.057689346 -0.0739631 0.13520662 0.11039121 -0.18850853 -0.008565362 0.027821735 0.097729005 0.010426642 0.13134313 0.0055851843 -0.03258004 -0.05553161 -0.109713875 0.08407896 -0.012321547 0.04427316 0.002674371 0.12419867 -0.0074064536 -0.10349574 0.046800435 -0.20958169 -0.053691123 0.04005919 -0.06757684 0.002328159 -0.040481597 0.1806432 0.053721603 -0.006499362 0.0537738 -0.06396301 -0.0065776473
terroir 0.006892436 0.0010715397 0.002409907 0.009225824 -0.0054507377 0.010578635 0.003581659 -0.00066535175 0.009586767 -0.010538446 -0.012387723 -0.002603854 -0.0022343453 0.0039563375 0.008575252 0.0019503552 0.0012655603 0.012034471 0.0031740302 0.011305538 -0.0060971244 0.009001591 0.0016032681 0.0034559192 0.008471654 -0.0022609178 0.0108210975 0.0002646353 -0.01233154 0.010011283 0.010714007 0.0041743526 -0.0036534248 0.009241407 -0.0056316527 -0.0043304414 -0.01023916 0.0011752713 0.0035830447 -0.0045139696
rhubarbarians -0.009555015 -0.00629694 -0.008052942 0.009058488 -0.0016867425 0.00817526 0.008319001 0.0016186852 0.0028067334 0.011961046 -0.0047840313 0.008364865 0.008435364 -0.007685538 0.0083371615 0.011930176 -0.0060669677 0.003421043 -0.00032521505 0.009579762 -8.5751526e-05 -0.0044351937 -0.0035349 -0.000918597 -0.0034396378 -0.0008159857 -0.009627541 -0.0030962657 0.00381432 -0.0060699093 -0.0104279015 -0.010054225 0.009107807 0.0070677428 -0.0018131956 -0.007013166 -0.0047466205 -0.0036143558 0.007824377 0.009128255
radicchiovibes 0.010844261 -0.012330103 0.0076330015 -0.010617231 0.001767491 -0.011205234 -0.0030675083 -0.0021624686 0.0007710513 0.003661436 -0.011408954 0.00677953 0.00802376 -0.007369259 0.0016782209 0.007919525 -0.0047959103 -0.0042176824 0.005500878 0.007927154 0.001489481 0.0043809796 0.007273809 -0.006359556 -0.008367889 -0.0064844266 0.0013703657 0.005921486 -0.005709356 0.009710384 0.0060486654 -0.00024716835 -0.010748953 0.004760581 0.010066469 0.0122326175 0.006846809 0.011033644 -0.004494289 0.0004847292
millenialpink 0.0767745 0.015146156 0.013109578 0.0778935 0.003808779 0.100729674 0.045976955 -0.07573025 0.11979328 0.09174413 -0.1689586 -0.0071053924 0.006909326 0.11295611 -0.03128136 0.14624149 -0.0053798123 -0.033010226 -0.059912555 -0.09073646 0.105698526 -0.048360743 0.045056075 0.01295779 0.13050598 -0.009408374 -0.097750865 0.08364228 -0.20068155 -0.04756084 0.044677705 -0.072472215 -0.02027379 -0.032482132 0.18668798 0.057093434 -0.025647137 0.06271556 -0.07204398 -0.012454403
vegan 7.437779 2.7943885 2.4244037 7.7902007 0.23400334 10.631363 4.3167343 -7.7740855 10.73783 9.401252 -15.1809 -1.4391843 1.4107819 8.162583 -0.73057485 12.96785 1.3314353 -3.1837208 -4.960125 -9.459006 6.895591 -1.6170024 1.8400514 -0.11992741 10.879582 -0.88274324 -8.775568 6.182513 -18.109552 -3.9883192 3.176714 -6.052192 -0.7262657 -4.2718596 14.584347 5.4473844 -1.0594379 4.099097 -5.954069 -2.0704637
glutenfree 0.5401684 0.2717569 0.59969383 1.2175945 0.14555211 1.3714932 0.5214692 -0.910877 1.7849404 2.001824 -2.318295 -0.6097756 0.6602782 1.7253145 0.1075334 1.5885715 0.21464752 -0.546323 -0.80202466 -1.2573881 0.9687326 -0.0845368 1.1820778 0.31557086 1.8286872 -0.074861236 -1.0566314 0.7387763 -3.1868143 -0.44012836 0.72083265 -1.0032384 0.2950778 -0.32491603 2.044149 -0.022522822 -0.21978356 1.0848378 -0.48142117 -0.26929122
sponsored 0.44853425 -0.16794267 -0.11808676 0.17524399 -0.29673818 0.20861411 0.08387287 -0.1557708 0.77997875 0.21751389 -0.8726373 0.0825764 0.2868077 0.19704206 0.12620167 0.11008671 0.12892762 -0.16615929 -0.1713797 -0.07947367 -0.103644386 -0.1161405 0.29271156 -0.0655186 0.6871102 0.47778705 -0.33874705 0.25223067 -0.7836824 -0.19460578 0.2373251 0.2331322 0.17689075 0.16001612 0.5763592 -0.17067477 -0.049941715 0.18063663 0.07041735 0.1297862
prepsaucesunday 0.24073626 -0.0016627151 -0.1647975 0.27314308 0.21221611 0.121561795 -0.044470236 0.0023474186 0.3145294 0.41199228 -0.41440865 0.08273877 0.22626622 0.44122928 -0.14559716 0.41416433 0.046991713 -0.13676557 -0.25203976 0.015355612 0.09844762 0.009946677 0.17532791 -0.06701378 0.26067728 0.07854355 -0.34840935 0.008824812 -0.68749356 -0.1720825 0.2540965 -0.06361107 -0.03532073 -0.008632358 0.28345925 -0.18089904 -0.10459824 0.25208157 -0.0285546 0.06740723
pizzamagic -0.0039807577 0.0012313742 -0.0012892233 0.008472008 -0.003870043 0.0022137612 -0.003971882 -0.00056132954 -0.0037615132 -0.002663849 -0.0047170254 0.0031311372 -0.011989589 -0.007455802 0.007626475 0.0016032783 0.00775651 0.0028698742 0.0031973151 -0.008653028 0.005068456 0.0009289216 -0.0047383937 -0.0074990913 0.010113739 0.006671519 -0.0116980225 0.012031772 0.0004106639 -0.006992911 0.004778537 0.008959617 0.008327593 0.002922644 0.004444252 0.010066316 0.0025271755 0.00998103 -0.0034414995 -0.007498366
ToastTuesday 0.011709335 -0.010935986 0.01194735 -0.0076679843 -0.0050150976 -0.0097632725 -0.002695146 -0.007224855 0.0024568317 -0.0036530178 0.004009544 0.0051149363 0.0025913287 0.003543361 -0.00015858095 0.009489431 -0.0004742574 0.009169259 -0.008321188 0.0018654782 -0.0076479437 0.010590558 -0.008803693 -0.005871739 0.0035478259 0.0012805033 -0.008431099 0.0031997869 -0.001664482 -0.008516664 -0.00072045624 -0.005362882 -0.0037154453 0.005346733 0.0011215042 0.00482867 0.0040622624 -0.008184534 0.011989907 0.012013913
dairyfree 0.33382863 0.11769765 -0.102610864 0.22039793 0.11429281 0.8228366 -0.11283794 -0.4665905 0.42265964 0.4496549 -1.218047 0.032835677 0.5396337 0.67189854 0.039537255 0.47101012 0.15240814 -0.16156057 -0.19773495 -0.44423518 0.21187596 -0.13055447 0.40222803 0.4702231 0.4581775 -0.08448816 -0.41059002 0.04309883 -1.1762925 -0.17970558 0.13691294 -0.19219252 0.44818 0.18805526 0.94326615 -0.009249337 -0.04009269 0.18095897 0.008775312 -0.007504567
grainfree 0.13720046 -0.0003406318 -0.093046926 0.17083053 0.1209639 0.17384319 -0.020982524 -0.048888378 0.22998016 0.27283275 -0.38642094 0.02866463 0.20264857 0.3722688 -0.04038657 0.30560422 0.019702734 -0.06615523 -0.1506633 -0.03301096 0.07350677 0.008263558 0.17228445 0.0693752 0.20740497 0.021757312 -0.21687408 0.011134003 -0.5055418 -0.11289933 0.15633294 -0.0808643 0.0532022 0.0658954 0.34729642 -0.091890864 -0.07530694 0.19782382 -0.010830119 0.0012455499
refinedsugarfree 0.095364965 0.0018335133 -0.021371357 0.14312164 0.02035595 0.18929267 0.042128965 -0.12773588 0.21731457 0.22423723 -0.36345223 0.0075616003 0.16351728 0.2511742 0.02782224 0.24991938 0.007590363 -0.08795992 -0.110317595 -0.11027686 0.13229719 -0.023603955 0.13279065 0.054532293 0.22123028 -0.02317238 -0.14654362 0.0143568795 -0.38328943 -0.08880354 0.07364598 -0.075220585 0.06802513 0.011886114 0.33887067 -0.021679243 -0.019275675 0.15233935 -0.017150946 -0.0011436042
allthefrees 0.13063885 -0.016667068 -0.022252053 0.13952936 0.0113351075 0.20657337 0.013670837 -0.08576625 0.22471726 0.23494665 -0.32593775 0.021068962 0.14326684 0.2975294 -0.026850505 0.28232723 0.039589487 -0.1106735 -0.0944926 -0.13938136 0.110018045 -0.019328017 0.12900361 0.06344372 0.23058671 0.008090714 -0.19774826 0.01653606 -0.39809936 -0.09497385 0.10479295 -0.09839572 0.057016253 0.059018992 0.35952452 -0.01909059 -0.05085467 0.14252642 -0.0025590821 -0.027250234
teamwedge 0.11603558 0.009908433 -0.054839436 0.11558449 0.06530188 0.0840553 -0.007846033 -0.0067854105 0.14030622 0.15617445 -0.19596006 0.02328977 0.10586916 0.19352853 -0.017696993 0.16007371 0.026813004 -0.0521614 -0.09274253 0.0013859455 0.029303556 0.024898795 0.09197464 0.011675153 0.09324837 0.03415451 -0.13096319 0.017558482 -0.29876903 -0.06856204 0.10801941 -0.04413784 -0.00893093 0.010431057 0.16475037 -0.05489705 -0.061512444 0.119420655 -0.02046264 0.017549837
foodandwine 46.817112 17.802347 14.633624 44.949543 -0.32465214 63.949383 28.52336 -46.875267 65.06553 58.54851 -91.19715 -11.969023 7.9590316 46.21586 -4.4676495 71.933624 8.026657 -19.170326 -27.382507 -58.252747 38.66421 -12.274527 13.622081 2.7350023 62.736458 -8.255819 -53.47266 39.45324 -107.62581 -22.378101 19.320976 -40.774742 -5.5600247 -22.335644 88.967735 33.452282 -6.094565 20.831833 -33.22576 -10.717401
FWhealthy 0.17632315 0.18373407 -0.09457116 0.31357318 0.25873685 0.4343239 -0.076756455 -0.32529464 0.31949452 0.5355087 -0.437281 -0.22427942 0.18996197 0.28275117 0.074283004 0.4588644 0.031120347 -0.07512322 -0.19952431 0.04451686 0.13043961 0.07892496 0.16223629 0.045726024 0.1156238 -0.09287186 -0.27421123 -0.03818085 -0.7648339 -0.00282571 0.092425086 -0.2913119 0.0124515 -0.20107266 0.32300502 0.12771621 0.020999206 0.12916502 -0.1263273 0.041188035
thekitchen 0.18397816 0.25825566 -0.03882341 0.38777512 0.44325277 0.51590794 -0.09122347 -0.42469624 0.3161092 0.6091456 -0.5633359 -0.278069 0.15528688 0.27957767 0.0926846 0.45158523 0.060989793 -0.022509115 -0.23111115 0.090344585 0.14991614 0.065108 0.18031722 0.122391164 0.0745343 -0.13239786 -0.319845 0.04219682 -0.8368659 -0.024806121 0.11538298 -0.32963532 0.011132925 -0.3132723 0.33772045 0.12316101 -0.024940196 0.116743006 -0.19998355 -0.012275837
feedfeed 30.272713 11.317464 9.352889 29.32088 0.45975554 38.516026 16.723703 -27.266209 38.688602 34.993782 -55.403477 -9.152606 3.4469504 27.38875 -3.5832577 48.489758 3.830349 -9.856687 -17.082783 -33.969112 26.565363 -7.9569783 8.319783 1.8214365 34.364407 -5.4758234 -31.19697 24.150082 -65.30769 -14.018465 10.322333 -25.436226 -5.2053084 -12.698259 53.59841 19.797066 -1.7092195 12.260558 -22.006039 -10.034503
iamwellandgood 0.18634915 0.29082632 -0.017685182 0.40214664 0.4325154 0.5626034 -0.03842732 -0.49403104 0.4182598 0.65029746 -0.5963516 -0.297518 0.1336206 0.31747523 0.1244685 0.46756682 0.03780402 0.01858682 -0.23880316 0.14095998 0.20188782 0.0329361 0.18210134 0.22228967 0.110574156 -0.15662737 -0.29332304 0.04029187 -0.8304668 -0.0040663974 0.12566775 -0.36764517 0.052318964 -0.39636785 0.39553443 0.10242267 0.0008145161 0.15432951 -0.14782143 0.016537473
onthetable 6.1727567 2.347847 1.6739385 5.6886144 0.9042115 7.9057193 2.5487418 -5.9429455 7.4010253 7.5046434 -11.705142 -2.1185436 0.8575915 5.592045 -0.32614246 9.408111 0.66049504 -1.8524541 -3.8015625 -6.5659604 5.199393 -1.34973 1.5513855 0.59216917 6.630217 -1.0933498 -6.630714 4.163262 -13.666068 -2.854177 1.5464659 -5.4414434 -1.0133238 -2.5823 10.97731 4.558472 0.3510687 2.6913593 -4.3313823 -1.2018834
f52extra 0.22403722 0.316543 -0.010151344 0.27714232 0.34867707 0.5690871 0.00046105174 -0.47266787 0.35842547 0.5008925 -0.6625142 -0.17247939 0.017700855 0.22139578 0.11836421 0.29241934 -0.037722185 0.018141901 -0.17300528 0.10597112 0.10896759 -0.106847964 0.18811123 0.2553352 0.10647819 -0.21878825 -0.26352188 0.14939342 -0.6552245 -0.008388703 0.032227624 -0.30550033 0.08748521 -0.28841487 0.34338853 0.1212813 0.01899825 0.11064601 -0.11973137 0.04084018
f52grams 31.828606 11.940608 11.934046 30.174702 -0.15384571 43.174786 17.650736 -28.790771 41.943855 38.052826 -61.555458 -6.7246895 4.293912 30.491756 -3.0640926 49.620766 4.9771132 -12.995285 -17.587517 -38.432297 28.74459 -7.795305 8.459243 2.1872592 40.920372 -6.0738425 -35.227886 25.81556 -71.27419 -16.520756 12.793177 -26.257933 -3.1722631 -16.319624 58.425785 21.571602 -3.7344062 14.866816 -21.507046 -8.377287
bareaders 8.594504 4.531353 3.3365774 8.171641 0.8697753 11.989796 4.9674244 -8.579076 11.468984 10.966876 -16.320902 -2.3374822 0.5253094 8.337519 -0.7757414 13.42891 0.8893431 -2.7786825 -5.1581016 -9.799032 7.2830157 -2.449511 2.5478907 1.6156039 10.454271 -1.3878924 -9.343487 6.552675 -19.291513 -3.899313 3.2813206 -7.151037 -0.8271247 -5.0730844 15.368087 5.7790995 -0.844427 4.267088 -5.709935 -2.095074
plantstrong 0.24381652 0.28414106 0.08139191 0.30290776 0.29149193 0.44255367 0.046611957 -0.44967848 0.27585176 0.34548014 -0.5760393 -0.19948488 0.046623945 0.15321779 0.13284169 0.22556105 -0.009036043 0.073160864 -0.18230768 0.057725262 0.10526062 -0.12057501 0.040173635 0.27315393 0.020774707 -0.12553503 -0.21318744 0.13111559 -0.50897545 -0.037325487 0.047968224 -0.30719736 0.037466742 -0.23773849 0.39267206 0.13035953 0.09647424 0.07012343 -0.17000014 -0.049552068
huffposttaste 21.729336 9.235929 8.075401 21.362873 0.81524634 29.97662 11.410177 -20.225185 28.530659 28.532324 -42.328686 -5.6131306 2.2977154 21.75528 -2.8234403 35.250347 3.193243 -8.501155 -12.1892395 -27.443342 19.404669 -4.405246 7.0448174 1.0899882 27.66862 -3.4567108 -23.138697 17.282927 -50.2134 -10.479081 8.6836405 -18.444529 -1.5071918 -11.201637 40.063225 15.313177 -2.2882626 9.935564 -15.575596 -6.525139
buzzfeast 7.6518283 3.7521286 2.8532584 8.352922 1.4986959 11.204886 4.1849203 -7.989878 10.367055 9.93258 -15.255212 -2.4173176 1.2013942 7.7209415 -0.64255923 12.1184225 0.89353555 -2.4765007 -4.448164 -8.760633 6.099543 -0.8710674 1.6627734 1.1185886 8.804852 -1.4928241 -8.526844 5.71124 -17.551954 -3.3246343 2.9419045 -6.8303866 -0.9059297 -4.4739203 13.774986 5.4639244 -0.113709904 3.0747051 -6.092889 -1.581735
eeeeeats 24.846588 9.464217 8.414802 23.126118 0.6971249 33.96332 12.327494 -22.372456 31.475624 30.137232 -46.49463 -5.394821 3.758932 22.89163 -2.147185 39.495483 5.2648025 -9.382209 -14.061998 -31.759817 22.172834 -5.0197906 5.227687 1.2989967 31.09281 -4.5467424 -26.777866 19.004631 -55.39981 -12.167361 9.75535 -21.86598 -1.695843 -12.483857 44.046814 17.758163 -3.8634927 10.009011 -17.842167 -7.3475475
beautifulcuisines 39.533882 14.09628 14.172265 38.118153 0.754176 54.153393 24.105877 -37.85872 53.896683 48.54685 -77.64737 -8.297779 5.9544053 38.741146 -3.9296944 61.36266 7.2237954 -16.375422 -22.613878 -50.49067 35.82502 -8.882461 10.542447 2.7235138 51.457794 -6.458603 -44.18331 31.800724 -90.33842 -19.72728 16.960222 -34.032246 -4.181439 -19.993486 73.27539 28.277122 -4.12512 18.433054 -28.468987 -9.396476
thekitchn 22.496637 10.294955 9.101347 24.117643 1.3726667 32.59676 13.348745 -22.653414 30.67608 28.676352 -44.85413 -6.731058 2.7995274 22.288542 -2.1576252 37.140118 2.78578 -9.229571 -13.354211 -27.855577 20.274746 -5.5094256 6.0042405 1.3287947 29.288713 -4.864357 -25.424517 18.792494 -53.104717 -11.093096 9.08952 -20.741701 -2.0225704 -12.692204 42.329903 17.29593 -1.7225724 10.078056 -16.847174 -6.561078
forkyeah 25.149942 9.377132 7.6802588 24.152857 0.33076125 33.748886 12.664608 -23.296244 31.971603 30.87442 -46.622456 -5.837563 3.5738955 24.12385 -2.1377165 40.20595 5.4132304 -9.953175 -14.755955 -30.40174 20.80064 -6.0524607 6.748979 2.6066673 30.912592 -4.828548 -28.051592 18.197842 -57.18559 -12.040454 8.735158 -21.860956 -2.0027673 -11.914106 44.89491 17.91687 -3.7465878 11.729543 -16.796152 -6.469101
yahoofood 5.230961 3.1275575 2.0032308 5.3989406 0.8882918 7.8909755 1.9157283 -5.24395 6.4270735 6.407267 -10.591523 -1.4603239 1.3318715 4.89097 -0.29366398 8.983214 -0.08852856 -2.3495195 -2.8543124 -6.3382974 4.7960467 -0.54149127 1.460741 0.81847405 6.103912 -1.0895851 -5.988143 3.8550878 -12.337677 -2.3539708 1.8852844 -4.15169 0.033226777 -3.2308364 9.043226 3.4420195 0.7660154 2.7784305 -3.4343472 -1.7616317
buzzfeedfood 20.491632 6.8719354 7.568718 19.445951 1.0491246 28.893301 10.703133 -19.82698 27.265675 25.64895 -39.663334 -5.652944 2.5521245 20.010809 -2.266566 33.159733 4.419445 -8.406559 -11.960997 -26.944248 19.714756 -5.6145205 5.2664757 1.5678484 26.830675 -4.3721843 -22.79938 15.474864 -47.51865 -9.902124 7.802209 -18.301441 -0.5820729 -10.128319 37.912834 15.046934 -2.2952256 8.888597 -14.160238 -6.0676517
vscofood 4.0477657 1.5426227 1.8038672 4.037386 1.0402471 5.2766733 1.7866702 -3.633067 4.844546 5.2187185 -8.222374 -1.8469878 1.0521067 3.392732 -0.43156663 6.7030725 0.6042541 -1.1546828 -2.406422 -4.7553296 4.300248 -0.82232386 1.2841344 0.3090065 4.042958 -0.66619045 -4.331918 2.9243896 -8.893897 -1.9213166 1.1526555 -3.891045 -0.38978922 -1.7527397 7.1257844 2.9838276 0.73245883 1.5035981 -2.7190714 -1.4069953
foodstyling 14.4114685 5.6767383 5.904774 14.238211 1.4439903 19.039824 9.675938 -12.976798 18.928837 18.255442 -28.41402 -2.4135303 2.2609854 14.358054 -1.0401858 23.007925 2.0294805 -6.19842 -9.279509 -18.07851 12.807174 -4.068864 4.2003727 -0.6473018 18.877321 -2.958309 -15.9549055 11.882747 -32.014668 -7.721937 5.0450144 -13.093634 -2.2293446 -6.696603 26.33282 10.551723 -1.6498064 7.3503675 -10.708863 -3.2339761
foodphotography 15.260751 8.048857 4.7471585 15.380283 1.4553868 21.488699 10.914025 -15.938752 21.531466 18.688887 -29.760366 -3.001676 2.9958246 15.324211 -0.8458195 22.257122 2.2533333 -5.3243413 -9.931051 -18.30761 13.202054 -4.2038126 4.7253084 1.0858684 19.917633 -2.6413238 -16.22261 13.262488 -36.134502 -6.4791408 6.7296553 -14.567583 -2.0402384 -9.2589655 29.45348 11.5631275 -1.7471741 5.920376 -11.721531 -2.993752
lifeandthyme 16.939651 7.1573176 5.6241674 16.357925 0.6146892 23.068436 8.866328 -15.850146 22.233942 21.186567 -32.278507 -4.5646443 2.2719374 15.691342 -1.825682 27.061655 2.617815 -5.8033967 -9.804741 -19.738447 14.510627 -3.8810685 4.104704 1.1610705 21.375391 -3.221608 -18.104208 14.080734 -37.588943 -7.8756022 5.834185 -14.812146 -1.5002034 -8.925605 30.278553 11.786648 -1.7319896 7.067504 -11.517019 -4.27129
eater 21.344059 8.521031 7.269961 21.41398 1.2967217 29.102568 10.948485 -20.499146 26.853909 26.354645 -40.712406 -5.300947 3.199114 19.189468 -1.3616539 33.347767 3.975057 -8.666823 -12.548616 -25.343992 17.882788 -6.4072833 5.574715 1.7288942 26.01262 -4.9958158 -24.10122 16.707842 -48.763622 -10.549034 7.713892 -20.015848 -0.8997743 -10.340136 38.179413 16.046164 -2.7749546 9.428602 -14.618306 -5.8001256
heresmyfood 8.38355 4.22778 2.822809 7.2507906 0.98257333 10.86205 3.885836 -7.3501387 10.169613 10.129399 -15.237684 -2.5919163 0.8996524 6.8335752 -0.393678 12.522488 1.3150423 -2.590377 -4.4887147 -8.855075 6.590258 -1.3193223 2.3153648 1.1055871 9.429555 -1.6357249 -8.448453 6.610122 -17.481361 -3.666857 2.5376105 -6.5900116 -0.8662367 -4.1014414 13.3314 5.1733704 -0.78407437 3.1354804 -5.52005 -1.5026011
food52 32.764683 13.594468 10.872621 32.058384 0.8115318 45.743332 20.048525 -32.583984 45.86813 41.42153 -65.50544 -7.391994 6.3779635 32.906715 -3.4784994 52.29516 5.1877756 -13.425995 -19.583687 -41.526215 29.640957 -8.659603 10.618436 2.7033622 43.482655 -6.536214 -37.599804 26.770296 -75.75497 -17.207785 13.988172 -28.49183 -3.0983477 -17.681652 61.7083 23.452242 -4.3736553 15.498448 -24.675188 -8.208305
gloobyfood 5.128089 2.5866315 1.7253778 5.0189457 1.3871341 6.76007 2.3864803 -4.149959 6.207124 6.1733785 -9.560944 -1.7178226 0.19777328 4.1949058 -0.859716 8.591311 0.9152 -1.3454015 -3.0430768 -5.427717 4.397531 -1.3394178 1.7308501 0.6202692 5.3485937 -0.6947837 -5.0529118 5.0073595 -10.852615 -2.2636683 1.466863 -4.301054 -0.7986039 -2.6062877 8.110753 3.0827796 -0.21463576 1.7983 -3.6614099 -1.7722436
foodgawker 26.782701 11.450068 8.629262 25.619448 0.94773763 37.74863 15.907726 -26.837955 36.844254 34.646748 -51.55131 -8.239092 3.5651455 24.853579 -3.6227849 42.24676 4.2067184 -9.914419 -15.808697 -32.02262 23.05501 -6.62259 7.808861 2.1906562 33.94124 -5.203594 -30.55538 22.888432 -60.480103 -11.828565 11.240618 -23.873173 -3.3842375 -13.725848 50.547455 19.432188 -3.0765786 10.483327 -19.164724 -7.350933
eattheworld 19.162306 8.489562 6.7528305 19.001015 0.3995332 26.46812 10.962289 -18.20822 25.968418 23.929094 -37.274353 -4.8495092 2.9485765 19.449268 -1.7907821 30.267689 2.3081224 -6.929629 -11.081129 -23.788637 16.893396 -4.5766 5.360084 1.9643576 25.646004 -4.0823803 -22.198433 16.471027 -43.797974 -9.241111 7.4906664 -17.463549 -2.0575678 -10.147808 35.468414 13.337961 -2.2554286 8.902835 -13.864724 -4.7229943
eatfamous 22.935535 9.281506 7.6060314 21.680084 1.1248299 31.656254 12.451183 -21.12488 29.140923 28.583107 -42.80617 -4.502603 3.938672 21.787952 -2.138678 36.914886 4.29903 -8.725472 -12.702883 -27.399319 19.639318 -5.3853226 6.3569202 2.3141632 28.187914 -4.728812 -24.81865 17.60376 -51.277653 -10.910829 8.77123 -19.902391 -1.4367012 -11.582684 41.173454 16.201061 -4.000001 10.816267 -15.85845 -6.443171
tastingtable 13.986795 6.6148677 4.7489905 13.836922 0.96638495 19.302248 6.802615 -13.195613 17.74202 17.616232 -26.297232 -3.8690672 1.2268056 12.93668 -1.7008114 21.551739 1.8570004 -5.143254 -8.339893 -16.259512 11.263381 -3.139312 3.397925 0.89258903 17.390142 -2.3948085 -14.78284 11.229348 -31.313953 -6.4113464 5.0865426 -11.695786 -1.3776181 -7.841692 25.178518 9.490903 -1.5690835 5.821627 -9.518297 -3.5192196
dailyfoodfeed 21.723438 8.610955 6.864381 20.765606 1.358802 29.88503 12.2838545 -20.647766 28.240149 27.181362 -41.051975 -4.9027333 3.422344 21.136997 -2.154067 35.007057 4.1677856 -8.218555 -13.046005 -26.36873 18.607723 -6.014686 6.171874 1.7011552 27.093145 -3.9948258 -23.51829 16.901215 -49.729618 -9.898997 8.548508 -19.325998 -1.1047242 -10.435516 40.360233 15.449531 -3.462595 9.442072 -15.148133 -6.1130695
spoonfeed 38.853027 16.055233 13.030093 37.690235 1.3210402 54.600708 22.25349 -38.7904 51.79908 50.260513 -73.68346 -9.567123 6.644909 36.67452 -4.3662996 60.63931 7.300229 -15.10917 -23.25556 -45.633663 32.38345 -9.168469 10.619104 4.277557 48.624336 -7.8963456 -44.42268 29.83483 -88.49328 -17.996412 16.030304 -34.327793 -3.8062754 -20.185108 72.77591 28.072084 -6.7366586 17.85259 -27.625368 -9.829638
foodbeast 2.265011 1.5666893 1.5749916 2.8055973 0.8410632 3.3018758 2.0743666 -2.4863675 3.7061663 3.4544132 -4.4307814 -0.77914715 -0.71193475 2.285579 -0.27667964 4.218317 0.64977634 -0.61435354 -1.6078233 -3.168293 2.8222106 -0.6398886 0.8461723 0.043680623 3.440364 0.0064442204 -2.1573536 2.756627 -5.8858438 -0.90912986 1.1544142 -2.0722976 -0.24906108 -2.5063093 3.9217744 1.7004589 -0.39726305 1.3280907 -1.962328 -0.83753055
hautecuisines 6.7559085 3.1026404 2.2433236 7.122405 1.2216707 9.537238 3.4433203 -6.483275 9.046747 8.677653 -12.980047 -1.9805194 0.19928436 6.340538 -0.56890273 11.551762 1.1145729 -2.2378109 -4.4741626 -7.9761734 6.0043807 -1.084228 1.713928 0.24639544 8.989196 -0.7929856 -7.28436 6.6135745 -15.878942 -3.093443 1.9293672 -5.7321386 -1.3657922 -3.9386125 12.11059 4.3895106 -0.6315975 3.3325057 -5.2998743 -1.9281294
foodblogfeed 8.890766 3.875786 3.4342978 8.963868 0.9011389 12.720102 5.0809608 -8.994419 12.363082 11.752556 -16.828798 -2.160413 0.5068074 8.941754 -0.71362776 14.244185 2.1231656 -2.9270802 -5.0021935 -11.083266 7.4118414 -2.349565 2.5252178 1.7342032 11.292256 -0.9611899 -9.515027 7.994666 -20.955328 -3.801873 2.9888506 -7.099925 -0.9336779 -5.341952 16.222683 6.2967267 -0.7421431 4.1642275 -6.223523 -2.5534766
onmytable 1.1362853 0.6522429 0.87670344 1.5914336 0.5368584 1.473168 1.2666173 -1.3473113 2.0939703 1.7549734 -1.9007064 -0.047928452 -0.67840654 1.0695485 -0.061119273 2.0309627 0.5126995 -0.17858212 -0.984926 -1.7006422 1.4021115 -0.14668338 0.071948424 -0.18219611 1.9029924 0.6189598 -0.91589034 1.6489674 -3.0737817 -0.2533849 0.47812074 -0.6804645 -0.37685627 -1.6978714 1.9383873 0.8362719 0.059465393 0.8558061 -1.0074227 -0.3696238
theartofescapismcooking 0.7995271 0.9637495 0.0223879 1.0360056 0.68930274 1.8870916 0.40339407 -1.5899587 1.6042075 1.3852767 -2.3902164 -0.17194289 0.22915718 1.0039691 0.36954623 0.74744284 0.058715496 -0.039328523 -0.6419702 -0.4985911 0.17708145 -0.019606022 0.28936744 0.26415914 1.0768803 -0.6227906 -1.1624814 0.75443685 -2.3149538 -0.19314416 0.65422946 -1.1626436 0.10001299 -1.1403599 1.373451 0.51971895 -0.3085875 0.005407273 -1.021291 0.29956943
ladyandpupscookbook 1.0106094 1.2045995 0.041293874 1.2732834 0.7557841 2.164052 0.5820047 -1.8370012 1.9218446 1.5997157 -2.9018648 -0.15845357 0.34060046 1.212727 0.59097344 1.0553819 -0.11283278 -0.019041676 -0.6323673 -0.74686706 0.30033854 0.09397203 0.32686794 0.3767306 1.2492613 -0.56415427 -1.2400528 0.95549434 -2.6299193 -0.25253418 0.7881195 -1.3266869 0.19384056 -1.3801212 1.7063963 0.6792814 -0.10109304 0.12559855 -1.1557661 0.22184668
holidaygiftguide 0.4141114 0.7112649 -0.05918049 0.5990081 0.4981734 1.0117418 0.21838887 -0.8968895 0.7968467 0.78702146 -1.2810237 -0.09006528 0.16038954 0.49559915 0.4191755 0.24274835 -0.082795255 0.10754668 -0.23315415 -0.1628605 -0.08731693 0.15822475 0.14275496 0.27404934 0.38421103 -0.26697275 -0.4584908 0.37549984 -1.0950532 0.0014636806 0.37094575 -0.63843864 0.15422899 -0.7057821 0.61682236 0.27269572 -0.016485555 -0.048885953 -0.5146397 0.18338485
homedecor 0.18813454 -0.17929722 -0.068834424 -0.050771285 -0.42177382 0.084620014 0.29773322 -0.03419953 0.080361724 0.03641432 -0.40468648 0.18580958 -0.07275459 0.23759125 -0.15172997 0.2465243 0.00017077471 -0.0765659 -0.02505335 -0.5988005 0.37645513 -0.07825542 0.063719824 -0.20580278 0.38284078 -0.07069563 -0.33316788 0.479466 -0.46068895 -0.35911343 0.15526338 -0.19780889 -0.37297037 0.029459827 0.64441687 0.40001443 -0.36212754 0.23416357 -0.5285816 -0.117453046
decor 0.20189442 -0.1548954 -0.08567432 -0.050674997 -0.44873282 0.10101325 0.3420506 -0.09008527 0.08800268 0.08185003 -0.47929397 0.2313897 -0.025200617 0.27227333 -0.10787456 0.21644907 0.0055698445 -0.06541018 -0.02495104 -0.6066592 0.35999355 -0.05107115 0.08199457 -0.17475 0.3822838 -0.07263482 -0.34202826 0.5023357 -0.468785 -0.3810815 0.22003219 -0.23820496 -0.36352843 0.032254722 0.7103947 0.4069933 -0.3760492 0.23750688 -0.5608434 -0.09079983
homedesign 0.18617375 -0.17919199 -0.09015302 -0.036479183 -0.49206242 0.07927979 0.4069938 -0.097966656 0.14360468 0.05403239 -0.48728365 0.2573385 -0.03835462 0.3082704 -0.100687295 0.19188702 -0.042619266 -0.06760072 -0.067583926 -0.61204106 0.41318613 -0.078836665 0.09204313 -0.21584804 0.4718976 -0.060162857 -0.36958808 0.48766363 -0.45904946 -0.40369126 0.23325042 -0.24082938 -0.38408852 0.015201336 0.75491416 0.42262042 -0.4212428 0.271223 -0.5981967 -0.052140437
interior 8.165906 2.8440862 2.9494348 8.075898 0.09027451 11.677803 5.0199366 -7.7112584 10.456201 10.585152 -15.793241 -1.3078536 1.0635285 8.240376 -0.43878093 12.432901 1.6817981 -3.683729 -4.481186 -11.020854 7.1030746 -1.7484668 1.7686551 0.6231275 10.906551 -1.1745465 -8.842352 6.3646636 -18.434328 -4.356467 3.229841 -6.865939 -1.0927505 -3.3489668 15.632113 6.46568 -1.8334677 3.4865196 -6.3712134 -2.1577458
interiors 0.25445494 -0.22040412 -0.12148375 -0.03908858 -0.49961597 0.040689044 0.39064667 -0.08713181 0.15373321 0.027625043 -0.5398868 0.2781144 0.009221994 0.34278512 -0.1048838 0.19269498 -0.04873486 -0.08659433 -0.101871036 -0.6298426 0.445699 -0.124006264 0.07355958 -0.22797562 0.5354118 -0.09762658 -0.4482904 0.48119882 -0.4648858 -0.43923372 0.22385931 -0.29347375 -0.40033054 0.10205737 0.8441214 0.42828786 -0.42997712 0.27206928 -0.56145805 -0.06559374
decoration 0.25208974 -0.22089848 -0.11923318 -0.038535435 -0.54378086 0.034589346 0.40634176 -0.023238828 0.14759201 0.032767907 -0.5155467 0.27353752 -0.015002527 0.31254467 -0.13724555 0.21950632 -0.019880759 -0.06778438 -0.1042394 -0.69544137 0.46642423 -0.100654066 0.08156141 -0.24094377 0.51610494 -0.01387204 -0.39848724 0.53539866 -0.5192643 -0.44472474 0.2606276 -0.27565968 -0.41352317 0.12974432 0.90168965 0.4499592 -0.44064996 0.27895367 -0.5717881 -0.10824616
instahome 0.26885507 -0.22856928 -0.08726109 -0.012793199 -0.54387397 0.0018704479 0.43564498 -0.0626964 0.2130436 -0.026616896 -0.5295449 0.2901875 0.019140443 0.31139052 -0.12263041 0.20729671 -0.061575834 -0.078621 -0.1315043 -0.69324684 0.49978 -0.15645838 0.019304585 -0.27127048 0.5694368 -0.054447114 -0.43927014 0.51073986 -0.45044562 -0.47491664 0.2238049 -0.30478597 -0.45137095 0.07548626 0.8981431 0.46337044 -0.38831183 0.265959 -0.6138581 -0.121685505
homestyle 0.28411764 -0.22419022 -0.07297952 0.010458274 -0.589719 -0.012720819 0.39913735 -0.087631166 0.20769551 -0.021977134 -0.5413742 0.26999062 0.04171187 0.2853103 -0.12020049 0.24022226 -0.09211145 -0.093395546 -0.13529894 -0.7003634 0.48080826 -0.17765366 5.5649925e-05 -0.28883874 0.5743654 -0.07043437 -0.45912048 0.50791943 -0.45148963 -0.4789376 0.20220055 -0.28413323 -0.43817085 0.08055977 0.8902601 0.44654864 -0.3709095 0.27253202 -0.5878042 -0.12476507
instadecor 0.2753013 -0.18285537 -0.09481807 0.025189986 -0.59877783 -0.027605169 0.4077771 -0.1030081 0.27173415 -0.061743062 -0.5670039 0.29126438 0.009794087 0.2997362 -0.099901676 0.21036178 -0.1418946 -0.057652917 -0.16608068 -0.659113 0.43018192 -0.21718654 -0.028959047 -0.24692903 0.5663437 -0.040837795 -0.41378585 0.518251 -0.46887717 -0.44475517 0.20347239 -0.29663792 -0.4185764 0.11300907 0.87411076 0.46892068 -0.33801967 0.25864348 -0.59479594 -0.105887756
interiordecor 0.25336674 -0.16121648 -0.01510118 0.23049335 -0.6010026 -0.112613134 0.40038854 -0.2289016 0.41310847 -0.119843245 -0.5133246 0.22438338 0.03690005 0.3019618 -0.05792896 0.1559471 -0.22427483 -0.0736394 -0.27086166 -0.49951917 0.3808275 -0.2916362 -0.17756283 -0.23285146 0.7016551 -0.050352566 -0.40555495 0.28462517 -0.412254 -0.34244165 0.17306007 -0.28248563 -0.36445072 0.029738724 0.7873721 0.40261838 -0.16878115 0.30553237 -0.43850505 -0.102581166
furniture 0.24478264 -0.17472485 -0.004931818 0.28071135 -0.5633008 -0.12144447 0.4214736 -0.28237858 0.5017864 -0.11763471 -0.499285 0.21158944 0.0775884 0.27215907 -0.013409084 0.14590436 -0.25166318 -0.04983081 -0.32772484 -0.44241905 0.3907907 -0.3151417 -0.24139388 -0.24833548 0.72940886 -0.0411323 -0.41253713 0.23411731 -0.40635955 -0.34964842 0.1716884 -0.31505257 -0.3231834 0.020519879 0.78513 0.3981648 -0.1404362 0.26374274 -0.40192047 -0.08964534
interiorstyling 0.12766562 -0.18964835 -0.0075531653 0.40934205 -0.6287622 -0.048355047 0.35780105 -0.355786 0.47665164 -0.16511486 -0.41225412 0.22838517 0.14706397 0.34354445 -0.06724964 0.2823072 -0.41194585 -0.10043177 -0.39567968 -0.39252132 0.42551622 -0.34335566 -0.37491775 -0.21063219 0.7396749 -0.22039105 -0.49271625 0.07921397 -0.5195489 -0.3089987 0.14062786 -0.3632673 -0.2946231 -0.0598625 0.7868737 0.41960374 -0.053922128 0.45683366 -0.419191 -0.25600597
interior4all 0.5046735 0.08014259 -0.028908286 0.5180909 -0.8860939 -0.1975502 0.51304317 -0.57232565 1.06856 -0.4290487 -1.2413846 0.18610324 0.071562275 0.48403072 0.13332447 0.29280776 -0.6749638 0.35907564 -0.4714054 -0.2501545 0.08813697 -0.68803865 -0.47725365 -0.19321492 0.85856336 0.0113545265 -0.25702152 0.47386372 -0.6933908 -0.5664422 0.085698865 -0.44690257 -0.40663478 0.082298316 1.3049002 0.5678225 0.1291955 0.23727328 -0.54544765 0.022221576
homedecoration 0.120639816 -0.20803371 0.036071558 0.466047 -0.60396147 -0.072578296 0.33500543 -0.37531355 0.5240934 -0.20670873 -0.40513295 0.21398897 0.18004757 0.32882872 -0.071110494 0.3235458 -0.4360474 -0.168698 -0.4307942 -0.35764477 0.46116006 -0.38458976 -0.416279 -0.21153039 0.81539994 -0.24909556 -0.5166555 -0.0316169 -0.5369573 -0.29689586 0.11808169 -0.33727342 -0.24705854 -0.08192195 0.74699414 0.3589504 -0.012801033 0.48177704 -0.35836154 -0.27812088
homestyling 0.12065865 -0.19477789 0.054673854 0.5006317 -0.58244026 -0.07147432 0.3673206 -0.40838346 0.5978193 -0.1980165 -0.40445054 0.2376302 0.16210668 0.33664587 -0.0413465 0.32558596 -0.44586772 -0.1289357 -0.44332778 -0.3350552 0.42160416 -0.37774384 -0.4177086 -0.21089001 0.8404583 -0.24101359 -0.5421577 -0.021880982 -0.53902817 -0.25000572 0.16554731 -0.32810745 -0.2320287 -0.14852223 0.75855327 0.36889413 0.017084567 0.474782 -0.34115264 -0.24978136
instadesign 0.114041775 -0.16445917 0.09009797 0.5537928 -0.5712037 -0.054198295 0.33438796 -0.4209028 0.5595879 -0.14092402 -0.37817496 0.20004408 0.14378238 0.3445041 -0.097963005 0.3659749 -0.45521834 -0.18470721 -0.4362495 -0.32890734 0.46678463 -0.36097482 -0.42550406 -0.18032084 0.8378272 -0.27192616 -0.5587877 -0.08389677 -0.55008274 -0.22834575 0.17408027 -0.34151202 -0.22883026 -0.16341299 0.77077746 0.353264 0.04953744 0.54042333 -0.3071775 -0.30617008
interior123 6.87878 2.3398337 2.9934874 8.378659 0.14751916 9.866648 4.517668 -7.661713 10.2872505 9.011548 -13.749756 -1.4329193 1.275738 7.5170074 -0.8267109 11.827474 0.89579606 -3.3642101 -5.021597 -9.183374 6.7324467 -2.3674798 1.1351211 0.62315446 9.949786 -1.5686072 -8.376485 4.8302393 -16.899979 -3.7076828 2.944561 -6.42055 -0.8183359 -3.4717348 13.886739 5.5696497 -0.7279989 3.9742756 -5.619204 -2.4104078
livingroom 0.12116308 -0.1812499 0.1026823 0.57021993 -0.5622482 -0.04263496 0.36250472 -0.44503644 0.5917042 -0.12491004 -0.34867102 0.18944982 0.1910186 0.33222404 -0.064211614 0.3481654 -0.44170824 -0.17885138 -0.434093 -0.31570178 0.47450748 -0.34523883 -0.43690732 -0.15353778 0.8273542 -0.26120263 -0.53919554 -0.11819755 -0.546425 -0.24571338 0.1659981 -0.3352167 -0.20688589 -0.17217085 0.71363324 0.35169762 0.08717282 0.5217726 -0.2921874 -0.30503988
homeinterior 0.083834015 -0.1956701 0.09848054 0.5392157 -0.51216435 0.01482376 0.29224193 -0.43418807 0.53679585 -0.09363671 -0.2986513 0.2035051 0.18796101 0.3663623 -0.09565393 0.36032805 -0.39850408 -0.23840289 -0.42878404 -0.32437325 0.44395575 -0.3339258 -0.4221404 -0.13165486 0.80672437 -0.29622662 -0.58753073 -0.20065944 -0.5761953 -0.2081138 0.18017407 -0.31095576 -0.16861497 -0.18658821 0.69610095 0.32712033 0.032891825 0.5513778 -0.2544514 -0.29304224
bedroom 0.10085512 -0.21111898 0.1096247 0.5660665 -0.49671963 -0.016019434 0.31331557 -0.39288443 0.5000189 -0.08131255 -0.29916748 0.1718974 0.16418977 0.34172457 -0.12152933 0.35987806 -0.38221276 -0.2000731 -0.444647 -0.33077782 0.46476743 -0.31295192 -0.40981266 -0.14540318 0.77743876 -0.2778134 -0.55504715 -0.18653801 -0.5345255 -0.23017114 0.17042732 -0.31549513 -0.17872025 -0.152463 0.7176105 0.28772244 0.058961496 0.50370765 -0.26786813 -0.31560615
arquitetura 0.060469676 -0.22609463 0.12912583 0.54869986 -0.45977208 -0.03132736 0.30574518 -0.38746953 0.5037032 -0.07298938 -0.25963604 0.1414727 0.14680141 0.2813061 -0.13593729 0.39343467 -0.36035767 -0.21076147 -0.42084292 -0.35848367 0.53701746 -0.29878703 -0.411315 -0.15418871 0.7723524 -0.24556337 -0.5427226 -0.16432731 -0.51395524 -0.19836256 0.16764562 -0.29418203 -0.16253456 -0.20637949 0.6474013 0.28982484 0.06448303 0.4916399 -0.26090908 -0.31611693
decorating 0.07648462 -0.19389068 0.116890624 0.48022065 -0.4577449 0.026387678 0.28612256 -0.3581126 0.46454328 -0.085048206 -0.26024762 0.163524 0.13944584 0.28951842 -0.13410006 0.40771687 -0.34328926 -0.19803816 -0.38757962 -0.33051378 0.4604698 -0.28265497 -0.3689305 -0.1494638 0.72786295 -0.2803106 -0.5381777 -0.12729219 -0.5143376 -0.20087627 0.15412697 -0.27611795 -0.18585253 -0.16036345 0.66352075 0.2976067 0.021027934 0.47882777 -0.25397193 -0.2961119
interiores 0.12460957 -0.19028963 0.102654904 0.40386423 -0.39737475 -0.015422157 0.29280278 -0.26242426 0.45529383 -0.048970647 -0.256958 0.14261682 0.115283005 0.23401003 -0.10251095 0.34213412 -0.2409364 -0.2084381 -0.3286707 -0.33222088 0.46633226 -0.24042174 -0.24409975 -0.14857975 0.683977 -0.14049324 -0.43641788 -0.091308385 -0.40871245 -0.22298849 0.13988933 -0.21443678 -0.15061142 -0.11015569 0.5989579 0.23877257 0.01008374 0.3792351 -0.1861911 -0.19011581
kitchen 0.12921081 -0.15987551 0.0935204 0.3579846 -0.3474782 0.027474683 0.2896878 -0.29205668 0.46106905 -0.038475063 -0.28067568 0.14365439 0.116929844 0.23704295 -0.08703345 0.2933304 -0.23376821 -0.18048586 -0.31485474 -0.30520397 0.39036545 -0.23783521 -0.22432008 -0.13189855 0.6347328 -0.16557506 -0.39731833 -0.0434709 -0.36236966 -0.17988391 0.14643438 -0.21146278 -0.14130843 -0.12548801 0.5380906 0.22077826 -0.0026053032 0.31637767 -0.23563613 -0.15537919
interiorinspiration 0.14597954 -0.132899 0.078950614 0.3455852 -0.30984724 0.048754934 0.2592487 -0.24015117 0.41732755 -0.0012198535 -0.29297793 0.13841975 0.09663844 0.26539883 -0.083070226 0.2854022 -0.18379115 -0.15288375 -0.2670935 -0.30287814 0.34351206 -0.20968816 -0.18237975 -0.11068945 0.5837897 -0.13135791 -0.3907432 -0.023967488 -0.39121327 -0.20960183 0.15452816 -0.23092343 -0.15133075 -0.08049175 0.53742456 0.21931429 -0.02501519 0.2912504 -0.19525757 -0.14293139
decoracao 0.15500487 -0.12322529 0.07700788 0.30699494 -0.29606828 0.09538723 0.1955352 -0.21373291 0.35773918 0.031802375 -0.27784932 0.09853281 0.08477051 0.25879475 -0.09856426 0.3116193 -0.1333281 -0.17016295 -0.25334176 -0.28480974 0.2903294 -0.17453656 -0.17254907 -0.10810553 0.51067114 -0.10549876 -0.39052874 -0.023606412 -0.43341202 -0.16491646 0.12595133 -0.19820078 -0.10323995 -0.05848981 0.51391596 0.19005473 -0.05878771 0.26425362 -0.19026084 -0.1313576
remodelista 0.1562785 -0.11092803 0.061849363 0.26937532 -0.2518151 0.06825401 0.2054605 -0.21607694 0.37213263 0.019322375 -0.33165443 0.060424525 0.08323641 0.23187315 -0.06665574 0.2919166 -0.11419722 -0.12889822 -0.20890994 -0.27790013 0.30360729 -0.17182532 -0.11259389 -0.077055395 0.4636037 -0.08793172 -0.35712364 0.034428883 -0.3688776 -0.18822713 0.10384861 -0.1879381 -0.13128945 -0.07273864 0.5249608 0.18404469 -0.039031673 0.22819987 -0.18982282 -0.10028471
horumonyaki 0.26552126 0.50955665 -0.08117192 0.46669155 0.47152388 0.9564813 0.10369116 -0.80245936 0.66245633 0.69381064 -1.0856298 -0.12360183 0.09012088 0.4189236 0.26735047 0.1952545 0.017944764 0.075928845 -0.26345578 -0.08577068 -0.10090189 0.04171938 0.09408077 0.20450452 0.35352156 -0.3462964 -0.43236625 0.35939902 -1.0324599 -0.02107853 0.2462574 -0.55280507 0.08251614 -0.5703008 0.5016659 0.24543539 -0.1808071 -0.111750774 -0.5277976 0.15393454
firstworldproblems 0.22794144 0.08373532 -0.048893426 0.27564085 0.32514998 0.24870154 -0.09692584 -0.05702839 0.211942 0.31997862 -0.3606077 -0.14574063 0.14848506 0.27807674 -0.17877068 0.6139921 0.048855163 0.04493683 -0.26829162 0.15798277 0.15349573 0.0010315435 0.12866856 0.06903415 0.021113904 -0.043156363 -0.25802988 0.07877635 -0.54285985 -0.088746466 0.09571665 -0.1286887 -0.045324385 0.012162102 0.24380596 -0.16506316 -0.05925314 0.11341394 -0.088805325 -0.14748618
nothingfancycookbook 3.4791417e-05 0.0006544916 -0.0066447183 -0.008947922 -0.011592786 0.009132824 -0.005775818 0.003170685 -0.012058663 -0.0057253153 0.004463245 0.011082876 -0.007920552 0.0045262733 -0.0038749026 0.00065336376 -0.0046703247 0.0043473328 -0.0014153821 0.0054397127 0.004259982 0.009044715 -0.002693465 0.009136022 -0.0070815324 0.009239093 -0.004772331 0.012224606 0.0016005933 0.0053576333 -0.0041891634 0.0044830823 0.010985217 -0.011699828 0.008683206 -0.0048918724 -0.00043683033 -0.011057242 3.544707e-05 -0.0063142194
nytthanksgiving 0.009173655 0.004496525 -0.0008419659 -0.002863789 -0.007292828 -0.0012320904 -0.0047552395 0.007129143 0.008002919 -0.012406098 -0.006900677 -0.0055002677 0.0027732104 0.0019557793 0.0038738707 0.0071698083 -0.00024229567 -0.0060197874 0.004826133 0.003621799 0.009102442 -0.006536688 0.0018168762 8.514151e-06 -0.0018190714 -0.006464665 -0.0065499395 -0.011722091 0.010670963 -0.0031547071 -0.007812718 -0.0048464956 0.0093268 -0.0028324677 -0.0058386014 -0.0054999725 -0.008379877 0.0024136277 0.01151597 -0.0030583516
helpyourselfbook 0.002435198 0.00727106 0.010188875 -0.0055373134 -0.005768481 0.009232148 -0.0005734395 0.00199149 0.010925864 -0.010886627 -0.0018147733 0.0016144533 -0.011403906 0.011302295 0.010335223 0.00971824 -0.009042586 0.007186123 -0.00042286236 0.00093086995 0.007808865 -0.009927328 0.0049759774 -0.010609306 0.005865068 -0.0070737065 -0.0021342067 -0.00019415654 -0.0019334359 0.00091707986 -0.0006910162 0.01206541 0.0007389914 0.0013600541 -0.0039572865 -0.005343181 -0.012397403 -0.00055073015 -0.0068660914 -0.0063303052
healthyishcookbook -0.007492 -0.0062272996 -0.012185906 0.008391696 -0.011047119 -0.009688504 0.0093829585 -0.003619017 -0.011597012 0.0019259974 -0.00020174403 0.0014548171 -0.00033520907 -0.004941918 0.008649961 0.0007437784 0.01139243 0.008200704 -0.007477537 0.0032762112 -0.0057606846 0.011293181 0.0045957128 0.009118258 -0.009249409 0.006836041 0.004771323 0.012074078 -0.0052242293 0.008647564 0.005899449 -0.011770791 0.0012616012 0.009892707 0.0035277987 -0.0039456813 -0.0124913035 -0.002315782 -0.0063648014 0.0015813187
heirloomcookbook 0.20542544 -0.016543811 0.067193516 0.107385464 -0.0149765555 0.030246418 0.12969634 -0.059686467 0.18815927 0.0268769 -0.20808208 -0.003044069 0.03516165 0.06993101 0.0004474774 0.1676356 0.020649048 -0.07517137 -0.08837277 -0.15405677 0.18099459 -0.09782407 -0.020857127 -0.05249873 0.23556961 -0.0369006 -0.1776882 0.1830301 -0.13631268 -0.1511897 0.025729198 -0.1307942 -0.10911986 0.06905635 0.25188404 0.085046306 0.046980724 0.0016548934 -0.05474964 0.044072937
bakeitbold 0.060226236 0.009045225 0.016764002 0.047845516 -0.039490763 0.08536647 0.039983448 -0.08332804 0.103241965 0.024362853 -0.11612719 0.0109393485 0.010695767 0.02895724 -0.00094074965 0.052941862 -0.01711688 -0.024102343 -0.048509713 -0.07393184 0.046835087 -0.033872336 -0.0030746683 -0.010119445 0.084905304 -0.013596361 -0.058765154 0.036410358 -0.0992228 -0.044179205 0.036129374 -0.055023797 -0.0017419627 -0.011170578 0.14813383 0.030897545 -0.014207559 0.008706503 -0.04275731 0.019821493
bombesquad 3.8696353 1.5195229 1.5296652 3.7123706 0.40641192 4.895708 2.6505225 -3.2300193 4.5603747 4.3123503 -6.046488 -1.3892412 0.47218424 2.9436595 -0.83663183 5.593904 0.82664734 -0.7187532 -2.15418 -3.5879202 2.1449013 -0.5604684 0.52565455 0.72905046 3.4137287 -0.5696465 -3.7772284 3.156502 -7.3555236 -1.0046645 1.3989252 -3.1711416 -0.6114058 -1.9388037 5.7478404 1.9038367 -0.6504108 1.3095193 -2.4784856 -1.0770054
2 0.0931272 -0.0014739053 0.038873617 0.047217116 -0.052979205 0.105127595 0.049530566 -0.0600204 0.10115085 0.07872825 -0.1428812 -0.0019463962 -0.00664604 0.071016856 -0.043638103 0.1310556 0.0017851554 -0.032815877 -0.043490656 -0.11958761 0.08318323 -0.03895732 0.0072118193 -0.0060703726 0.10997291 -0.030529253 -0.107304975 0.0818951 -0.17156786 -0.07667465 0.037701286 -0.06739396 -0.025983378 -0.029920653 0.18279602 0.075946406 -0.029831447 0.02823714 -0.07847173 -0.033708386
lamasamadre 0.010838813 -0.00974752 0.006379013 0.0010340344 0.0031727785 -0.009020482 -0.011171299 -0.011118988 -0.0035011992 0.007020752 -0.008900741 0.0055485154 -0.00020338316 -0.006602092 0.010095992 -0.00753302 0.005525044 -0.00094097387 0.0066539804 0.009525294 -0.007757214 -0.003182252 0.0043103145 0.0020905565 -0.0075938003 -0.0012387363 -0.0107705295 -0.010643924 0.011906008 0.012439183 -0.007817646 -0.012160428 0.0042006383 0.0013601137 -0.009851622 -0.011587652 0.006714315 -0.008503035 0.003695161 0.0018448401
bakebakebake -0.0061292322 0.009674354 0.005004444 0.004605188 0.00014672615 0.0023735883 0.0073403353 -0.005478543 -0.0053273174 0.007837343 -0.004898095 0.00030946266 0.012045083 -0.0107597085 0.009776506 -0.0021746997 -0.0011957884 0.012078523 0.001716448 0.00910755 -0.008860456 -0.0029165 -0.010620969 0.011731804 0.008894171 0.0023188516 0.005765223 0.008196271 -0.0036169114 0.008053386 -0.002756618 0.009483329 0.0027918369 -0.006064539 0.0052732388 0.004406714 0.010776748 -0.0055229976 3.3100136e-05 -0.008601755
letshopeicatchthisflight 0.11129521 0.02970448 0.026964957 0.12258501 0.00673569 0.14352585 0.07598934 -0.13236144 0.20848432 0.10184023 -0.24803308 -0.032992847 0.026470657 0.1321799 0.020184334 0.15714079 -0.006622254 0.00096700725 -0.090736054 -0.116939366 0.09534991 -0.029679347 0.022836313 0.023347043 0.1595245 -0.034020677 -0.13577326 0.091117375 -0.2588467 -0.0503974 0.045938313 -0.115681134 -0.024564464 -0.05224531 0.21427117 0.08146416 -0.01109557 0.0554421 -0.119294725 -0.00682701
gratitude 0.0063835355 0.0045558317 0.0017725406 0.0049503604 -0.01130817 -0.0013926579 -0.0061973794 -0.0015883744 -0.008467952 0.011430112 -0.0029103737 -0.010302087 0.0017407183 0.0060793674 0.010872812 -0.0022324324 -0.0010683965 0.002229874 0.0075116446 -0.0071028876 0.0081041185 0.010146297 -0.010914653 0.004681132 0.0029035117 -0.009661296 0.00955025 0.009684204 -0.009295592 0.0048502805 -0.0071636452 0.003323027 -0.0061786 -0.0057175667 -0.01123138 -0.0033641085 0.008767263 -0.008185245 0.0036221137 -0.0082296785
communitynotcommodity 0.08751064 0.016746515 0.012239969 0.08474574 -0.002463564 0.13504276 0.02037687 -0.08408234 0.10311507 0.09335855 -0.17514674 -0.0065046893 0.047919385 0.090281196 -0.017624162 0.12622395 -0.0020205074 -0.044732653 -0.06343115 -0.11988818 0.06604197 -0.023824079 0.027116721 0.0073091993 0.11383687 -0.01900765 -0.11169094 0.075793654 -0.19883034 -0.053602565 0.023956312 -0.07160599 0.01137856 0.0022457647 0.1597525 0.04393557 -0.02290024 0.02737308 -0.07264172 -0.01486334
kneadingconference2019 -0.00541683 0.010922029 0.01150889 0.008040843 0.00010267459 -0.0042812526 0.0006250171 -0.01214276 0.0067056613 0.009670869 0.0056962753 -0.009055872 -0.010205725 0.007642529 -0.0065421537 0.0029119495 -0.0054911165 0.0067317216 -0.0060554133 -0.009283699 0.008597213 -0.008740971 0.0015695496 -0.007359825 -0.008305276 0.009305731 -0.006344098 0.0054233586 0.0063939197 -0.0033910405 0.008702439 -0.005365226 0.011329674 -0.008915271 0.006976499 0.00997758 -0.005009298 0.010252648 0.009079591 0.009780624
highsummer -0.0041384753 -0.0024736896 0.00075594615 -0.0094966395 -0.006194666 -0.0029221997 0.008566585 0.008438825 0.008154512 -0.009973208 0.0064988965 -0.010602146 0.001760778 0.0023519844 0.0119680585 0.0008817706 -0.006967558 -0.010182625 0.0037673516 0.0025211647 -0.0041819485 0.01000807 -0.008112229 -0.009953613 0.007836551 0.007387466 -0.01057282 -0.012047465 0.007535287 -0.0043283943 0.0066580595 0.005301983 0.0018409593 0.0033480627 0.010414363 -0.011428303 0.0034331875 -0.00894692 -0.010495965 -0.0031696167
bakeyourheartout 0.0010078745 0.011460834 0.0004300056 0.008200583 0.011153723 0.0067946846 -0.0024764854 0.006553064 0.0009509651 -0.007036635 0.01119247 -0.008939005 0.0064810487 0.0050004935 0.009267832 -0.003500091 0.0055050002 0.009797226 0.0016753878 0.0013053417 -0.0005592285 -0.00973185 -0.009195511 0.0037779445 -0.0042222785 0.0076079657 0.011077969 0.00993359 0.006548059 -0.0025909934 -0.0038916636 -0.0008436246 -0.00039981864 0.0026341025 0.0035910727 -0.011941688 -0.0010125954 -0.003606719 0.007263596 -0.0036544027
makemondaygreatagain 0.008208894 -0.009097552 -0.0012065442 0.008814658 0.01201846 0.005365827 -0.0064907447 0.002585481 0.0057346756 -0.004739508 0.005099223 -0.008819377 0.0022105053 0.0063799033 -0.0013721529 0.0027006594 -0.00650838 -0.0056257755 -0.007182445 -0.010606042 -0.004473488 -0.0049037486 0.0011590365 -0.006040038 -0.01128612 -0.008570889 -0.005314386 0.005397835 -0.0016847327 0.011626416 -0.0030717012 0.008091657 0.011336337 -0.0046358136 0.0067990655 0.00731936 0.0037858235 -0.0030192565 0.00079362374 0.0055177556
seasonalbaking 0.0821922 0.004807775 0.040769193 0.07956743 -0.014139142 0.104321145 0.07805462 -0.0736106 0.12797835 0.08914487 -0.16697922 -0.0013552452 0.019451793 0.096591614 -0.009347536 0.1177604 0.010883589 -0.047271807 -0.059510674 -0.11457944 0.09570568 -0.023042778 0.005696833 -0.0047167297 0.12242536 0.003083902 -0.0905429 0.07583937 -0.19707079 -0.057614762 0.02718787 -0.063955374 -0.023835767 -0.03604979 0.18958104 0.07576503 0.00039035702 0.048843756 -0.061423812 -0.014317229
baketheworld -0.007862789 -0.010240075 0.0040235994 0.0071884384 -0.0063493266 -0.010074655 -0.004538797 0.0022912845 0.005269238 -0.008830436 -0.010488762 -0.004045481 -0.009528099 0.0011641514 -0.0084736515 0.008856091 -0.008704188 -0.0009253025 0.008923315 -0.0019800458 0.0063906787 0.0016753823 0.00030196924 -0.010878401 0.011488023 0.0021646945 -0.012084435 -0.008148693 -7.284619e-05 -0.010449236 -0.001479758 -0.0031644134 -0.0016911607 -0.0061130184 -0.0013874862 -0.012359369 0.012242786 0.009458912 0.008997426 0.002755682
preservetheseason 0.1807792 -0.02322267 0.0362518 0.07698049 -0.08869421 0.1587268 0.029139375 -0.0838849 0.15856491 0.055615272 -0.31673563 -0.04242522 0.10781961 0.046878163 -0.04761606 0.14684948 0.030025678 -0.06516823 -0.08875689 -0.12457105 0.16725117 -0.069821514 0.015763648 -0.02736164 0.12512903 0.00021051911 -0.18851393 0.00593606 -0.20750298 -0.093306534 0.06291415 -0.047335368 0.04517735 0.06484418 0.31630558 0.052083403 -0.050120216 0.053281363 -0.09545305 -0.007448024
naturallyleavened 0.19279413 0.023965288 0.06012663 0.1531127 -0.045690127 0.18893662 0.10971894 -0.15505867 0.27234712 0.1849312 -0.34007394 -0.025242886 0.03429521 0.16913716 -0.030318562 0.28484368 0.030078303 -0.073769554 -0.1353359 -0.2370229 0.17991997 -0.06985188 0.0510743 -0.017905977 0.28674135 -0.006947754 -0.19874243 0.1567093 -0.38044322 -0.119482 0.07636598 -0.12739481 -0.033643577 -0.056049224 0.37978944 0.12769523 -0.05908588 0.070918836 -0.15281647 -0.038621385
holiday 0.48670456 0.33987227 0.35929617 0.5811365 -0.0016475242 0.5689366 0.3765062 -0.7752997 0.85891795 0.73156255 -0.8871504 -0.26952562 0.4262197 0.5563497 0.22369424 0.4477366 0.22624268 -0.40962246 -0.18294738 -0.73352295 0.2488635 0.21278954 0.21589273 -0.2742265 0.9253089 -0.14331278 -0.6963927 -0.02314257 -1.1144611 -0.122072384 0.4284447 -0.4381897 -0.089294836 -0.6920518 1.1117319 0.3425122 -0.031691745 0.16421387 -0.49676374 0.28475115
herewegoagain 0.09288835 0.0055279387 0.022643628 0.07791228 -0.035567313 0.09014521 0.05654909 -0.069025174 0.12006595 0.10095642 -0.16110422 0.016482014 0.026697857 0.075169936 -0.0066613383 0.093769066 0.013919188 -0.051585544 -0.035264846 -0.13795365 0.10255571 -0.007363556 0.014121973 -0.018893586 0.14432032 0.011641566 -0.10252705 0.06255286 -0.15881705 -0.054844055 0.027128873 -0.05480081 -0.028211381 -0.0503445 0.16935998 0.07254126 -0.0059245387 0.031979535 -0.046085168 0.010706341
fermenteverything 0.006637822 -0.007066184 0.004407664 0.001283315 -0.0103625115 -0.0046544895 0.007851549 0.002956519 -0.0048888116 -0.0038839802 -0.0050976053 -0.007691629 -0.0089459475 0.0056791445 -0.0006901594 -0.0024911268 0.0007519219 0.0016124025 0.0049258852 -0.0043044183 0.009608823 -0.0084941555 0.006967754 0.010697682 0.0027493965 -0.0052068443 0.0015483471 -0.0077809813 0.0022852467 -0.005732875 0.012318547 -0.0003843233 -0.007518803 0.0048167156 -0.0076515973 -0.004916416 0.0016583446 0.0034543565 0.01248788 -0.003391494
makeityourown 0.0091421595 0.0024337424 -0.00845536 0.010638566 -0.0056183073 -0.0067028063 -0.0069150776 -0.008009632 0.0120966965 -0.009586705 0.0045013605 0.0011618407 0.008852952 0.0025277166 -0.0061579854 0.008143046 -0.01043153 0.0047241626 -0.004025434 -0.00662106 -0.0051257643 0.005703875 0.0053307274 0.0043677995 0.003895429 0.0032095695 -0.01097118 -0.005009295 -0.0043428987 -0.010077189 -0.008276086 -0.010499539 -0.0053373026 0.003221902 -0.0029012011 0.0031100307 -0.01190564 -0.007731013 -0.0040733693 0.0039939443
heirloomrecipe 0.09766292 0.026818417 0.023150148 0.0746491 -0.009349661 0.10074809 0.06751295 -0.050687287 0.13531181 0.120179914 -0.17245792 0.019565308 0.025268888 0.106439754 -0.023493411 0.143783 0.024906209 -0.046399076 -0.058193505 -0.13944764 0.07503726 -0.021642901 0.037933037 0.009700485 0.12788197 0.001091179 -0.099298246 0.084312804 -0.19437012 -0.058909256 0.029435856 -0.06616498 -0.020084085 -0.02538905 0.16452074 0.05825381 -0.015697172 0.051315412 -0.061006974 -0.005354588
sourdoughworkshopseries -0.0054303454 0.002554588 0.0043884637 0.002598037 -0.002127789 0.0013577659 -0.0053364844 0.006885442 -0.0053931954 0.0013749925 0.01129532 -0.0021691946 -0.006023699 -0.00025253743 -0.00855739 0.004080071 0.0061556464 -0.0096537545 -0.009238131 -0.01042248 -0.0011420576 -0.006572713 -0.004537585 -0.010545391 -0.006762244 0.0036937082 -0.0064752176 -0.00948683 -0.010476591 -0.01248426 -0.009383666 -0.01138703 -0.00539476 0.0038962597 0.008181375 0.01128224 -0.0041252347 0.010321668 -0.0012880098 0.002926032
HUAWEIP30PRO 0.09783297 0.049269293 0.026582653 0.07780334 -0.011467253 0.12310323 0.033861257 -0.087454185 0.10830181 0.09773296 -0.17594066 -0.014028888 -0.008218647 0.06538637 -0.02149978 0.15005904 0.03095334 -0.04192151 -0.05965763 -0.11886858 0.07513091 -0.03534814 0.021364426 0.00076359283 0.1098517 -0.020940708 -0.09163689 0.09163954 -0.2121683 -0.03193326 0.023004375 -0.0672671 -0.0049313908 -0.041640315 0.15240088 0.087465644 -0.008328366 0.025949745 -0.07805114 -0.037417512
hfk 0.081330895 -0.0177926 0.046204116 0.080446005 -0.035544887 0.0991652 0.04261571 -0.052267816 0.14268932 0.11199275 -0.15516652 -0.018162109 0.012158656 0.06838256 -0.054524787 0.11472779 0.0346023 -0.050540958 -0.07733215 -0.13498755 0.08987485 -0.06168974 0.015354365 -0.039547674 0.13270052 -0.0015758368 -0.11255671 0.079301916 -0.20540322 -0.06573315 0.03602505 -0.051074468 -0.02701211 -0.01744706 0.1655037 0.055522256 -0.04511921 0.031948455 -0.07349946 -0.016670674
HuaweiFotoKonsortium 0.1345322 0.049208604 0.04773151 0.11335459 -0.0052010617 0.14681436 0.05254243 -0.09578009 0.16142443 0.138426 -0.25592542 -0.03869837 0.041157193 0.09691149 -0.022104446 0.19125645 0.025177768 -0.05210024 -0.07168353 -0.1628336 0.12007784 -0.041985117 0.049254168 0.003005506 0.14170343 -0.0008231681 -0.1450948 0.09967157 -0.3031843 -0.085038394 0.04819169 -0.102259375 -0.017417772 -0.05140853 0.23733252 0.0798879 0.007814207 0.050995328 -0.08291383 -0.05929403
TraegerCulinary 0.005625223 -0.0053046453 0.009778685 -0.0027586296 -0.007410756 0.011900418 0.0037526945 -0.00777065 -0.0122257965 0.002788568 0.008920855 0.004093633 -0.0074309274 -0.0010752054 -0.0076387706 -0.005600801 -0.0073313224 0.0031180205 -0.0036951676 -0.008942841 -0.009841351 -0.0019824058 -0.009115299 0.0011742311 0.0038436754 -0.009856431 -0.007958945 0.0045486083 -0.008844376 -0.0021132734 0.011520759 -0.0075961235 0.008260646 0.0076503446 -0.007147451 -0.0057338956 -0.0038776426 0.0057136742 -0.007273221 -0.007620424
ad 3.4509387 1.0644429 0.7693253 2.5886753 -0.11098206 4.089095 1.6176735 -2.4482596 4.1408887 4.1983457 -5.679907 -0.26708174 0.020234192 2.6827059 -0.3352391 3.955623 0.95167446 -0.88842666 -2.4355876 -3.7098775 2.0965815 -0.6799753 1.0576366 0.0042801993 3.8165407 0.17702298 -3.6713748 1.8152423 -7.094669 -1.1693627 0.8582029 -2.5500934 0.02690411 -1.8673596 4.73453 2.6941032 -0.594024 1.5524994 -1.5809827 -1.0619653
TraegerGrills 0.00478468 -0.004548082 0.0093679605 0.0023229169 0.0052213287 -0.009121766 -0.0043666568 0.0057314383 -0.0092266295 0.004039378 0.008859272 0.0056889085 0.0028752787 -0.01168883 -0.010661691 0.0060003297 -0.0039290283 0.0029609604 -0.0052452595 -5.2260235e-05 -0.0047537345 0.008945405 -0.009973047 0.0046366462 -0.0005151015 0.0034287805 0.00085213315 0.010501617 0.009392521 -0.00470787 0.0024408307 -0.0029684128 -0.00257436 -0.0075353743 0.0064387536 0.008194641 0.0061514685 0.0011491105 0.005418646 -0.0021417486
pomitomatoes -0.008234991 -0.0067267525 0.0059788795 -0.0004991563 0.0024259537 -0.009614463 -0.005679673 0.0055458257 -0.010668801 0.012387975 0.00025561266 0.011995357 -0.009638727 0.0039381264 0.010047586 0.00357096 0.006259882 0.0097362 -0.001661812 -0.00060488004 -0.009015488 0.012206647 -0.0122799305 -0.00324074 0.0086698895 -0.009474573 -0.011627723 0.0037272582 0.0046679405 -0.0045632813 -0.010708014 0.011240832 0.0077442965 -0.0037889825 -0.0019369107 -0.0063238773 -0.0044777934 0.010460324 0.0040058913 0.0059029134
cookingwithpomi 0.1044165 0.02147715 0.036966223 0.08378993 0.00435583 0.10467623 0.027411735 -0.07112694 0.11201588 0.11570956 -0.1748094 -0.032815594 0.018169435 0.076453514 -0.03497074 0.15066369 0.034818325 -0.025211956 -0.05021369 -0.14381197 0.097416304 -0.020782258 0.021313991 -0.016618721 0.12034388 0.0062445863 -0.1051207 0.07996753 -0.19693834 -0.055699706 0.023206882 -0.07748872 -0.009814967 -0.028181603 0.1651846 0.064563274 -0.0060014883 0.04092971 -0.069849975 -0.023994863
jkimPies 0.14470537 -0.0205559 -0.011785801 0.11828954 -0.0891974 0.14908488 0.04830019 -0.0812536 0.1799305 0.119140215 -0.22774856 0.008674748 -0.020528989 0.18958777 -0.03128637 0.22646219 -0.030824658 -0.13186418 -0.07974915 -0.15211678 0.14551891 -0.043488033 0.10292009 -0.038444933 0.28524137 -0.00019712873 -0.18255259 0.089455165 -0.35803813 -0.044945635 0.10020591 -0.022770695 -0.031801235 -0.07161061 0.30142787 0.00086087384 -0.038230617 0.15086679 -0.021121897 -0.01622415
sparkjoydaily 0.18268584 -0.081479825 -0.01632899 0.14440547 -0.13252123 0.11818993 0.04987327 -0.070161834 0.22439133 0.09949658 -0.27275762 0.014930857 -0.028029675 0.18651047 -0.019774254 0.21332535 0.009096144 -0.14494698 -0.11179091 -0.19794971 0.20313853 -0.07546762 0.079366386 -0.07127137 0.35285467 0.054098785 -0.19634771 0.09492834 -0.35878244 -0.090903 0.116306335 -0.053415533 -0.031394254 -0.057251375 0.363004 -0.029902242 -0.03922438 0.13872942 -0.03577022 -0.014247423
bts 0.12256117 0.020888712 0.020155955 0.11282524 -0.031480744 0.14933467 0.06654561 -0.11806192 0.17581134 0.09968912 -0.22654685 -0.01532041 0.012953649 0.08360921 0.005643411 0.16633528 0.021343311 -0.046884306 -0.10566161 -0.16412508 0.14574188 -0.06204326 0.017174056 -0.01924085 0.19194472 -0.027735801 -0.1350711 0.12945537 -0.25160363 -0.06580111 0.04526187 -0.09885908 -0.034263503 -0.043685574 0.2202261 0.0597305 -0.030432902 0.021584881 -0.1003339 -0.034542724
SnacksWeek 0.08646373 0.022902409 0.020564659 0.06114571 -0.007044558 0.09447997 0.05307869 -0.06508463 0.12957656 0.08378292 -0.15369885 0.0020314245 0.024076879 0.08187232 -0.00538001 0.10977097 0.009649164 -0.046772774 -0.046910066 -0.0990493 0.072973326 -0.020430654 0.03145762 0.019173967 0.10457728 0.01620859 -0.098934844 0.04988966 -0.15925239 -0.06009139 0.02147632 -0.03375711 -0.011814484 -0.027008852 0.15968505 0.043405924 0.0014251785 0.04701088 -0.049032737 -0.028627055
