141 300
DCUniverse -0.0015824799 -0.00025038526 -0.00025732536 -0.0009978267 0.001079093 -0.00063254556 -0.00056687614 -0.0013532323 -0.0015649984 -0.0010591319 0.0015254179 -0.0014925894 0.0012609374 0.0015256607 0.0010499468 0.0014718447 -0.00050091045 0.00024770654 0.0014459379 -0.0004732454 0.0005569833 0.00094073405 -0.0005854182 -0.0005401791 -0.0010908807 -7.935858e-05 0.00085107307 0.0015891436 -0.0010600981 0.00027447066 -0.00010068156 -0.0016639982 0.00024022069 0.00067245634 -0.0015977137 -0.0015470793 -0.00014062587 -0.0014070291 0.00014088827 0.0016578732 0.0010361958 0.0015333062 0.0009519558 -0.0014666852 -6.440107e-05 -0.0006875505 0.0011629402 -0.00090337894 0.0011980284 -0.0011139631 0.0010428613 0.0016358327 -0.00036420824 -0.0006479103 -0.0006121469 0.0003246027 -0.00090930186 0.0015534633 0.0016318636 0.0009918376 0.0010256185 0.00025641953 0.00019390101 0.0005044306 -0.00011066452 -0.00018875126 -0.001259984 0.0015945348 0.0004001495 -0.0007675972 0.0016484652 -0.0005969261 -0.0014572039 0.0016006171 4.863029e-05 -0.0005863027 0.001630523 0.00021780189 0.00044188648 0.00011623604 0.0007163307 0.00045657926 -0.0012298006 -0.0015940781 -0.0011040615 -0.00112403 -0.0013212212 0.00021975278 0.00094287726 -0.0012364779 -0.0011522468 -0.00046015566 -0.00079959753 0.0015822838 -0.00065344677 0.0010368582 0.0008160628 -0.00029609702 0.001279671 1.6345992e-05 0.0015258975 0.001335636 -0.00036639906 0.00037705363 5.7357945e-05 0.00035908516 -0.0003410033 0.000505754 -0.0014662191 -9.522552e-05 0.00067673833 -0.00053650304 0.0012807213 -0.00040640414 0.0008120693 -0.0009934005 -0.001534201 -0.0013774135 0.0008027437 -0.0012033547 1.709524e-05 -0.0009870551 -0.0015113609 -0.0009531931 -0.0011822556 -0.00075014314 -0.00133576 -0.00079732796 -0.00045704306 9.137788e-06 -0.0014246266 -0.00046445825 -0.0006803749 0.00058572786 0.0013018136 -0.0001613961 0.0010262209 -0.00033797068 0.00069105206 0.0012117894 -0.0009363705 3.6063604e-05 -0.0009219216 -0.0005172066 0.0016162968 -0.0014210592 0.00061370665 -7.6588825e-05 0.001641727 0.0013672204 -0.0008099411 0.00050024944 0.0008789145 0.00034809578 0.00047745812 -0.0010696475 0.0001839986 -0.0011209343 -0.0010231944 0.0009996104 -0.0011855279 -0.00097122474 0.001123656 -0.000945828 -0.0004968069 0.00096447254 -0.0015089494 -0.001345759 0.00039687078 -0.0005550176 0.001149609 0.00049514044 0.00042171404 -0.00069677416 -0.0010769735 0.0002482069 -0.0015707638 -0.00074925605 0.00083629345 0.001387486 -0.0003602982 0.001361772 -0.0005586328 -0.0010685697 -0.0004914794 -0.0014598003 -0.0005201219 0.0016094064 0.00024557766 -0.0013914113 0.0010437393 0.00017231761 -0.00036036014 -0.0014072754 -0.0002738398 -0.00093571725 0.00034080376 0.00091579556 0.0011410264 -0.00017255917 0.0013496501 0.0013318274 0.0012006972 0.0005396013 -0.0013188438 0.0015503173 -0.0014883333 0.00013949291 -0.0013252485 8.740579e-05 -0.0002067294 -0.00097515486 -0.0016525984 0.0006099765 -0.00026406802 0.0006029564 0.00082322257 -0.00031028385 0.00083013345 0.0013376304 0.00062742806 0.0014220036 0.0010673704 3.1767064e-05 -0.0015564912 0.00068785995 0.0013823989 0.0002470716 -0.00062042475 -0.0014290921 0.0013283996 0.0016295344 0.00089611695 -0.0012313653 0.0011427084 -0.00092078035 -0.0006233057 -0.0012542133 0.0005610329 -0.0013846898 -0.0015779575 -0.00013405562 -0.00078566174 -0.00076234405 -0.0003296188 -0.001160984 0.0015029502 -0.00048467354 0.0015544724 0.0013346884 -6.579573e-05 -0.0015832447 -0.000114346505 -0.00084516924 -0.00010545051 -0.0007754175 -0.0005391884 -0.0010502576 0.0016189592 -0.0007512482 -0.001384448 0.00022616447 -0.000722731 -0.0003594387 -0.00077613 0.001214043 -0.0014687855 -0.0004798174 -0.001104388 0.00081521994 -0.0010175356 0.00158507 -0.0008808013 -0.00016974157 -0.0016140183 -6.8022637e-06 -0.0009400016 0.0010731986 0.0010737891 0.00086032203 0.00068056304 -0.0005661049 -0.0014517475 0.0005734351 8.792803e-05 0.00017269119 0.00043810485 0.0003434047 0.00042240042 0.0008112318 -0.0002074287 -0.0013390691 -0.00046578562 0.0011637756 -0.00025144638 -0.00045997917 0.0016520107 -0.0016308738 0.0002903703 0.0013837633
JumanjiTheNextLevel -0.0016147391 0.0016097162 -0.0013776808 3.652003e-05 -0.0013160616 -0.0002976183 -0.0010017983 -0.00014687114 0.00026936704 -1.4803606e-05 0.0005617932 0.0011591864 -0.0011850513 -0.0008934452 -0.0015944939 -0.00080452557 -0.00037113487 -0.00067641155 0.00063410867 -0.0012409128 -0.00033377294 0.0007121702 0.0014545005 -0.00030992727 -0.00044911794 0.00047536043 0.001058761 0.0009318807 -0.00021336495 0.0006583192 -0.0015031117 -0.0001240634 -5.7646797e-05 -5.8208985e-05 0.0011481917 0.00012550544 0.0003422436 0.00082749076 -0.0009709426 9.995466e-05 0.00065963255 0.00034751068 0.0016954609 0.0010773878 0.0006204967 0.0009051499 -0.0008895752 -0.0011768395 0.0015134471 -0.00081577664 -5.646419e-05 0.0006561421 0.0006086156 0.001769813 0.0001424051 0.00036021858 -0.000529649 -2.9887342e-05 -0.0011269631 -0.001076966 -0.0005949453 -0.00061168737 -0.00014526227 -0.0011456598 0.00042975027 0.0016334612 0.00048042907 -0.000790311 -0.00055479375 0.00036120357 -0.0008206124 -0.0009056477 -0.00042492175 0.00040015785 -3.0790437e-05 -0.0008121922 -0.000593147 -0.0010244761 -0.0010021665 0.0001594234 0.0010727056 0.0016777109 0.00071690814 0.0013744854 -0.0010019131 0.0012953259 0.000794516 -0.00074090203 0.00018910687 -0.00087506324 0.0013842665 -0.0005439776 -0.0012891885 0.00019865639 0.0004321994 -0.0012391956 0.0008937391 0.00047389997 0.0002811354 -0.001567993 0.00015214997 -0.0005650792 0.0014944419 -0.0013067118 -0.0008252434 -0.00012417074 -0.0007718769 4.545949e-05 0.0001733443 5.972399e-05 -0.0009939076 0.00018332936 -0.00018653276 -0.0013725881 9.988025e-05 -0.0014958176 -0.0012646931 -0.0011836356 0.00033171423 -0.0011759471 -0.00019611312 -0.0005420375 0.0011660814 0.000895372 0.00093344605 -0.0006524365 0.0015740058 -0.0011723019 -0.0011297594 -0.0010515015 0.0017333028 -0.0011567815 -0.0017249325 0.0013760247 -0.0010502231 0.00068008015 0.0002941879 -0.0010595836 0.0009000142 -0.00052257284 4.5189486e-06 -1.8472749e-05 -0.0009697414 0.0009925229 -0.0015936964 -0.0010155084 0.0013868138 0.0005239502 -0.0015178111 -0.00017783477 -0.000618107 -0.0006040972 -0.0012739733 0.0006045076 0.0012247271 0.000839663 0.00021352136 -0.0002739358 -0.00012147562 -0.00028681505 0.0007686684 0.0012395936 -0.00035038905 0.00015529153 -0.00051295286 0.00056686456 -0.00030536816 -0.000121002035 0.0006681644 -0.0010559277 0.0002497179 0.0012352315 -0.0011792142 0.0002723684 -0.00037411903 0.0011102145 -0.00018987177 -0.001500769 -0.00047191975 -0.0011029788 0.0009297964 -0.00056059234 -0.0018085837 -0.0011573478 -0.00031009148 0.0014043628 -0.0014002805 0.0009625788 -0.0004637006 0.0012458839 0.0010403378 -0.0007112022 0.0014445974 -0.0006033419 0.0011844959 -0.0009521944 0.0014246057 0.0011317641 -0.0013180472 -0.0013467452 0.00172963 0.00026595907 -0.0006042427 0.0007499969 0.0011127403 0.0014383104 -0.00084340957 0.0008508516 -0.0014875426 0.0008819181 -0.00023258204 -0.00052102865 -0.0013140044 -0.0015010863 0.00044479768 -0.00094587123 4.6378256e-05 -0.0010517134 -0.0013755307 0.00020306295 0.0015257425 -0.00020426334 0.00046358778 -0.00038496268 0.00091133924 -8.876026e-05 0.0004490618 0.0010830776 0.0017633841 0.0010808238 0.0014592609 0.0013410817 -0.0013239114 5.1982228e-05 -0.0010507855 -0.0011725991 0.0013191216 -0.00086360786 -0.001248868 0.0018867647 -0.0002583661 0.0010764549 0.0007514883 -0.00031832958 0.0016408203 -0.001650799 0.001488346 0.0013308965 0.0016783044 -0.00034976538 -0.0013768149 0.00063726574 -0.0006586664 -2.8040522e-05 0.0012929197 0.0012612387 -0.0015749522 0.0011280234 -0.0006532385 -4.856868e-05 -0.00069062103 -0.0004821521 0.0012497398 0.000967974 0.001274052 -0.0014681881 -0.0005519429 0.001434556 -0.0010717651 -0.0005885019 -0.00082503696 0.0009178063 -0.0008712262 0.00031109562 -0.001501171 1.8770268e-05 0.00013943372 0.0016983097 -0.00013446597 -0.00044838234 -0.0015662675 -0.0017241548 -0.0013640489 5.830018e-05 0.00015645089 0.00019099216 -0.0001773783 0.00081217114 0.0008801922 0.00025819906 -0.0010743104 -0.0004162042 -0.0013602743 -0.0002823428 -0.00060734793 -0.0007330341 0.00039928884 -0.00014158804 0.0010031677 -0.00027335453
spring2020 8.451182e-05 -0.00043311075 -0.0014593825 0.000533934 0.0015910405 -0.0005752506 0.0009575377 -0.0009334817 0.00079919584 0.0012449829 -0.00062128366 -0.00055755256 -0.0013183642 0.0013983957 0.0011948817 -0.0008949425 0.0009131434 -0.0010785281 -0.0005526686 -0.0004062251 0.00054984726 -0.0016650546 -0.00030600384 0.0011648219 0.0007736485 -0.0015653669 0.001027625 -5.362439e-06 0.001568795 0.0007465335 0.0006837407 0.0010619399 -0.0013536074 -0.0016525585 0.00044534984 0.00030436506 -6.335357e-05 0.0007644864 0.0011291553 0.0011708343 0.0010502837 0.001440193 0.00025573396 7.8479876e-05 -0.0014548769 0.00097503397 0.00093729445 -2.959394e-06 0.0015303874 -0.00072267593 0.0006931366 -0.0014901173 -0.0008608238 3.1385804e-05 -0.0007398176 0.00042583793 -0.00015165273 -1.2104167e-05 -0.0010600076 -0.0002796139 -0.001475514 -0.00025700685 0.0006372775 -0.0013165892 -0.00088530703 0.0008364271 0.00033050543 -0.00014502055 -0.0010932551 0.0003266225 0.000108717126 0.0015827911 -0.00015750749 -0.0011396863 -3.4117838e-06 -0.0011191551 0.0007835296 0.00084058056 -0.0012532247 -0.0011690189 0.00093536614 -0.0010002019 0.0001995212 0.00056627323 -0.00081280986 -0.00059558754 -0.00052320363 0.0004203897 -1.1668773e-05 -0.0014807433 -0.0013171403 -0.00096333923 -0.0013932455 0.0010633674 4.648068e-05 -0.0012958297 0.00072739576 -0.00030978897 0.00010197342 -0.00073190173 -4.6569854e-05 -0.0015667032 0.00046735303 -0.0007538653 0.00021634239 0.00033454108 0.0011369623 -0.00024941482 -0.0013866429 -0.00074357056 0.0014968473 -0.00026514567 0.0004332629 -0.0010841241 8.103438e-06 -0.0016584287 0.0006397725 0.0013770119 0.00016674178 0.0001323634 -0.00013095338 -0.00043306197 -0.0004929396 -0.0012493253 0.00047423015 0.00046645454 -0.0013228935 0.00012213027 -0.0006831235 -0.0014176439 -0.0012140288 0.0009550047 0.0012554117 0.00041280314 0.0012146798 0.0012134765 0.0003316882 -0.0014956429 -0.0003785676 0.00020423299 -0.0006664292 0.0004894666 0.0015651046 0.00020990486 -0.0013685883 0.0014990228 -0.00063027744 0.0015612952 7.6821656e-05 0.0012999494 -0.0006785067 -0.0010634059 -0.0012393675 -0.0013024776 3.180327e-05 0.00026474718 -0.00078663195 -0.00077169144 0.0008175317 0.0010817272 0.00094381836 8.719787e-05 -0.00093604904 0.00045696925 -0.0003885039 -0.00037419423 -0.0008230003 -5.6394376e-05 -0.0010431963 0.0010922214 -0.0011896376 -0.0013328723 0.0012321428 -0.00031431532 0.0011773852 -0.0011257462 0.00068973145 -0.00040661835 -0.0005926704 -0.0009227922 -0.0004847427 -0.0016237199 -5.2276417e-05 0.0011078899 -0.0012909239 0.0014714724 0.0015949765 0.00048572524 0.0015750073 -0.0011741591 -0.0009788142 0.0009392267 0.00044621597 0.00014631869 0.001592081 0.0014072799 0.00050084037 -0.001658359 -0.0001874991 0.0011653791 -0.00014568667 0.0007159796 -0.0008207669 0.00048807962 0.0006517905 0.0012520943 0.0006526783 -0.0013082131 -0.0008116331 -0.00047945464 0.0012609968 -0.0006653933 -0.000576884 0.0001467138 -9.463017e-05 -0.00014933047 0.0009453518 0.0003123677 -0.0015488198 -0.0012748651 -0.0007593813 0.0011305357 0.0011157177 0.0007009469 7.693237e-05 0.00041497895 0.0001227631 -0.0011677416 -0.0004742255 0.0013570369 -0.00018644473 0.0011544491 -0.0015474228 -8.9144334e-05 -0.0014925916 -0.0010193707 0.0011564367 0.0010253971 -0.0010918705 0.0016053573 -0.000720345 -0.0009424412 -0.0009861388 -0.0011512454 -8.210121e-05 0.0015049647 0.00051982305 0.000473093 -0.00043390074 -0.0001143245 0.0005397629 0.00076909317 -0.0015639899 0.0016302245 -0.0015363994 0.000570467 0.00039239996 -0.0008761879 0.00073186704 0.00077179377 -0.0011449456 -0.0007505785 0.0003893983 0.0014102431 -0.0011758988 0.00014802418 0.0015354399 -0.0012679603 0.0013216748 -0.000342382 7.403316e-06 0.0013512801 -0.00034276326 0.0014763158 -0.00023520645 0.00045087724 0.00017940777 0.0008899381 6.9475034e-05 0.00046225102 -0.00046367547 -0.0005761753 -0.001032457 0.00087518524 -0.00024635636 0.0011037295 0.00028121017 0.0015280463 -0.0010831186 -0.00027369242 0.0015671176 0.00090605393 0.0013078365 0.0007934298 -0.0015355891 -0.0015827734 -0.0003147415 0.00076368265 0.0012907903 0.001448151
lifeisagift 0.0004183757 -0.0015749282 0.00052040606 -0.001261471 -1.535751e-05 -0.0010645161 0.0004382329 -0.0008537887 -0.0004841393 9.019976e-06 -0.0014592619 -0.00034263567 -0.0012051857 0.0014910263 0.00094436645 0.00015909318 0.00093567185 -0.0007298382 0.0011042899 -0.0002458169 0.001519423 5.0207367e-05 -0.0010991863 -0.0009297834 0.0011103668 0.00034824922 7.010496e-05 0.0014213617 -7.705833e-05 -6.753544e-05 -0.00047500408 0.0014075243 8.071249e-05 0.00023401261 0.0011904659 0.0016078958 0.0010275799 -0.0008648036 -0.00073307694 0.0015700697 -0.0004812131 -8.847192e-05 -0.0008545995 0.0013545253 -3.6463956e-05 -0.0012546139 0.001643521 -0.0006579793 -0.0012387186 -6.836059e-05 0.00049531553 -0.00053103385 0.0006203491 -0.0010093651 0.00045732036 3.8833823e-05 0.0015614002 0.0012099864 0.00035088416 -0.00057424104 -0.00021069567 -0.0005123435 0.0015250919 0.0016093836 -0.0015863993 -0.0009101101 -0.00053555134 0.00094859744 -0.0002594376 0.0010887326 -0.00075895985 0.00053805904 -0.0005607486 -0.0010913323 0.000619052 0.0011095346 -0.0009790394 5.037582e-05 0.0015080865 -2.724526e-05 -0.001567577 0.0013512047 0.0011339863 -0.00047272013 0.0010573873 -0.001592487 0.0008202561 0.0013168561 0.0009310143 -0.0011064343 0.0015773159 -0.0008589355 0.0001466996 0.0012260426 0.0013448198 0.00045621558 0.00011173682 0.0009205814 0.0007815545 -0.0011194041 0.0015764895 0.000726223 -0.0016587381 -0.0003404927 7.155514e-05 -0.0008231173 -0.0008207504 0.00086372974 -0.000968806 0.00013336434 0.00028642232 -0.001541944 -0.00011790474 0.0016491176 -0.0013829842 -0.00079990545 -0.0006867602 0.0007441372 0.00034480495 0.0013025459 0.00052182423 0.0005733124 0.0012880855 -0.00063771405 -0.00078670343 -0.0005987731 0.0011891306 -0.001526586 -0.0015928994 -0.0008719077 0.0015369263 0.0009793483 -0.0007942691 0.00094689056 -7.664424e-05 -0.0012519859 -0.00093216065 0.0012254897 -0.0010224227 -0.00067760726 -0.00031826482 -0.0011170986 -0.00014264823 0.0002755121 0.00023160817 -0.00010688102 0.0007841096 0.0005124726 0.00085750595 0.0016348239 -0.0001392212 -0.0014744463 -0.0012153615 -0.0010806781 0.0013776254 0.00078672986 -0.0013187977 -8.918345e-05 0.0008603218 -0.00043153402 0.00027765834 -0.000831095 0.00082003605 0.00022600626 0.00045870733 0.0010393148 0.0012393838 -0.0007322389 -5.2436837e-05 -0.000702257 -0.0015951779 0.00020878331 0.0016385028 -0.0014953671 0.0015234982 -0.0011066773 -0.001342504 0.00070511154 -0.0006038443 0.00015786011 0.0010882744 -4.751922e-05 0.0013690537 0.0001780428 0.0016647435 0.00034157536 0.00015813368 0.0007642789 -0.0012036697 -0.0003771833 0.0002870066 0.00056732865 0.0005635936 0.00074444944 0.00021343247 0.0011579958 0.0011690797 0.0005685105 0.0005126586 0.00067493576 -1.9230647e-05 0.00035910518 -0.0011741857 -0.0015884714 -0.0007172213 0.0016556398 -0.00073286693 0.001304324 0.0007216041 0.00083421776 -0.0016517998 -0.00055879017 -0.0010392228 -0.0013647776 -0.0015390228 -0.0014960166 0.00088114035 0.0014639357 0.0009944867 0.00016004744 -0.0005706608 -0.0014790184 0.00072003854 0.0015122478 0.0009686125 0.0015329046 0.0014383062 -2.9338174e-05 0.0016542289 0.00019522943 -0.00061408954 0.001184596 0.0014999167 -0.00087722164 -0.0007802314 -0.00046080048 0.00041326042 -0.0013947715 -8.406816e-05 -0.00083524507 0.00037703384 0.00127068 0.0008995759 -0.0011620878 -0.0016581647 -0.00012743368 0.0011163645 -0.00060993 0.0014638472 0.0004340692 0.0011148814 0.00036986312 -0.00064064364 -0.0013707712 0.0004912766 -0.001558385 0.0013299324 0.0004985037 0.00040477095 -0.0016495014 0.00016436237 0.0014246793 0.00024783553 0.0005574038 5.8026286e-05 0.00049132854 0.00011856435 0.00091250567 -0.0001855999 -0.0015576099 -0.0007992343 0.0006104084 0.00013652444 0.0009332311 0.00054618716 -0.0005784383 0.0007337339 0.00042229006 -0.00085785787 0.0005823092 -0.0010888604 -0.0010732296 -9.607233e-05 0.0015476979 0.0004522761 0.0015713798 -0.0001374787 -0.0014031143 0.0015083037 0.000817172 -0.00094572426 -0.00047385553 0.0011219704 -0.0004377691 0.00017490587 -0.00042075757 0.00042187725 0.0003306782 0.0002887703 -0.001301198
jumanji -0.0012409493 -0.0010078775 -0.0017346747 0.001683529 -0.0013789613 -9.860669e-05 -2.5528321e-05 -0.0011303131 -0.0011544449 0.0006288211 0.0016273459 -0.00058100716 0.0014321299 -0.0008834518 0.0011413541 3.432889e-05 0.0010182913 0.00080886786 0.0007035201 -0.0008456497 0.00012964402 0.0006245819 0.00087231357 0.0003947849 0.0012437791 -0.00032242647 0.0011793238 -0.00073776994 -0.0011587429 -0.0010844049 0.00047643605 -0.0010987958 -0.00032047316 -0.0008064753 -0.001227415 -0.0004378529 -0.0010391674 0.00022120962 -0.0009845933 -0.0014404358 -8.802125e-05 9.069953e-05 0.0005477648 -0.00015576123 -0.00015548848 -0.00017974229 2.671397e-05 -0.00093983323 -0.00032373195 -0.0013060981 0.00074094284 -0.0013137488 0.00050305796 0.00062870426 -0.0016220402 -0.0015530237 -0.0011493383 -0.00011411676 -0.0016885616 0.0012677769 0.00076614803 0.0007584965 0.0011061113 0.00068782765 0.0010279253 0.0006113864 0.0008247206 0.0009825118 0.0012877395 -0.001054506 -0.00089826615 -0.0005199845 -0.0011542296 0.000753171 -0.0013057395 -0.0015312257 -6.118661e-05 0.0015742651 -0.00082736986 0.0014478305 6.821188e-05 -0.0007909119 -0.00046196138 0.00026403405 -0.00048859796 0.0012551604 -0.0001955478 -7.4105614e-05 -0.00019440561 -0.0010382754 -0.0013275034 -0.0012730428 -0.0007424284 -0.0018164179 -0.0002809651 -0.0010516112 -0.00015000897 0.00011045578 -0.000103921986 -0.0010190147 0.0015901056 0.0015174703 -0.00013253158 -0.0005081897 -0.0006883629 -0.0011080228 -0.00088811 -0.0009795692 -0.001134957 -0.0010971332 0.00019417187 -0.0013298708 0.00019500058 -0.00031582848 -0.00025149077 0.0016516424 0.0014248589 0.0012069347 -0.00091888395 0.00031050656 0.0010441793 0.0013057932 0.0008313125 -0.0003118912 -0.0012423834 0.0007674592 9.663414e-06 0.0011710908 -0.0011820088 -0.0008085013 0.0005627602 -0.0016314224 0.00019497333 -0.00041449792 -0.0007735927 0.0017164139 0.0008860309 0.00063056615 0.00042270625 -0.0002945169 0.0014153938 0.0011505932 0.0009320159 -0.0014553281 -0.0010391594 -0.0007947189 -0.0011890525 0.0011658022 -0.0010005834 -0.0010041225 -0.0009784616 -0.00025959712 0.00093511585 0.0014928349 0.0013418768 0.0008696989 -6.356166e-05 0.00031126552 0.00036302838 0.0011142329 0.00075322436 -0.00097486214 -0.0011869952 -0.00039326234 -0.0015478814 -0.00046873116 -0.0016134746 -0.00090232637 4.830603e-05 -0.00018502005 0.00082993956 -0.00051553507 0.0017177104 0.0004253014 -0.00035325342 -0.0013501387 -0.00018865059 -0.000641697 -0.00025014763 0.0010130965 0.0012210158 3.5481073e-05 -0.0017401403 0.0015389805 0.0015801756 -0.0016187894 -0.001186751 0.0006560901 0.00031117102 -0.0014740606 0.00017007948 -0.0006023529 0.00015817815 -0.00032313983 0.0015073336 0.0010786927 -0.00034431048 -0.0012247731 0.00021555534 -6.486056e-05 0.00025344998 -0.0016606485 0.0016532551 -0.00090424746 -0.0007184904 0.0014669747 -0.0004959306 0.0004914588 0.00014282326 0.0013419456 0.0011942235 -0.00025506446 0.0015164046 -0.0011378377 -7.272052e-05 0.0013186816 0.0012257447 -0.00074046815 -0.0009663094 0.0005348219 -0.0014272342 -0.00079072174 0.0013451638 0.0008043508 -0.0011542601 0.00067902077 0.001212092 0.0012618818 0.0011186432 -0.00079420226 -0.001459619 -0.0016832858 0.0008356806 0.0010179366 0.0004857633 -0.0015225295 -0.00037040372 0.0010526989 -0.00095194054 0.00059648167 6.52966e-05 -0.00038640935 -0.0013164529 -5.915655e-05 0.0004689247 -4.157476e-06 -0.0012162502 0.0014280282 0.0007287792 -0.000955034 -0.00125261 -0.0012159017 0.00011409319 0.001404867 0.001272234 0.00028526867 -0.0013983642 0.0012388232 -0.00034159195 0.001571943 0.0011350607 0.001615651 0.0012681263 0.0013432166 0.0011087229 0.0002176459 -0.0012882095 0.0017004191 -0.001165506 0.00060860347 -0.00018613944 -0.00027517029 -0.001416757 0.00089361763 0.00013688715 0.0013023147 -0.0011528698 -0.0011991619 0.0011379009 -0.00072890305 0.0007275615 0.0013678006 0.00030810334 8.926556e-05 0.00012603618 -0.0008309992 -0.0014751137 5.0270704e-05 -0.00083611737 -0.0003646939 -0.0014984795 -0.00023936339 -0.00032778335 0.0015675633 0.00056578236 0.0008623061 0.0011952049 0.001024258 -0.00011149035 -8.421122e-06
veteransday 0.0011865748 4.9364844e-05 -0.0008985839 0.00024401637 -0.001867509 -0.0014948585 -0.00095084374 0.0013937687 -0.0014573799 -0.0011843686 0.0017204206 -0.00028776797 -0.0008178135 0.0014253799 -0.00017324218 -0.0012081692 -0.00042916837 0.000341391 0.0002955038 8.973805e-05 0.0005977992 -0.0012586031 0.000853285 0.0007313391 0.0005438156 -0.0013725522 -0.00061938504 0.0011136173 -0.0004392839 -0.0009324228 -0.0018469833 -0.00055309146 -0.00013990534 0.0011925607 0.0012853541 -0.0005490266 -0.00070150004 -0.001749236 -0.0003368368 -0.0015234379 0.0013725245 -0.0011865124 -0.00040067697 -0.00023587537 -0.000814937 0.0010976322 0.00042858673 0.0016189305 -0.0006304683 -0.0021712491 -0.0009108415 0.0014609861 -0.0008097717 0.00044758964 0.0005913777 0.00058830576 -0.00027624294 0.0010141456 -0.0001306151 -0.0003865979 -0.0016311425 -0.0016845345 0.0008429089 -0.0011765886 -0.0011009804 -0.0003409259 0.0009493327 0.001579712 0.0016655343 -0.0007597657 0.00028749657 -0.00039841785 -0.000516825 -0.0005631539 -0.0013899353 0.00080347137 -0.0003754714 -0.00037069304 0.0006676645 0.0008984896 0.0014069232 0.00031966573 4.3929875e-05 0.0021357345 0.0002832259 -0.001811633 -0.00037354903 -0.000867903 0.00041338246 -0.001268876 0.00041896044 0.0013020776 -0.00038193286 -0.0006284214 0.0012368612 0.00043277573 0.0010421083 0.0013538394 0.0010147719 -0.0011781822 0.00014664367 0.0002945517 -0.0018520878 -0.0015417729 -0.0016092786 -0.001342538 0.00077895593 0.00041881643 0.0012099736 0.0009915676 0.0017650591 0.00014081306 0.0003291193 -0.00034500638 0.001208871 0.0013388478 0.0013944518 0.0015157901 0.00035274998 0.0013096757 0.000101342506 0.0013322234 7.0086404e-05 -0.0010677242 -0.00062460237 -0.00038288304 -0.00031979187 -0.00045644245 0.00090929307 0.0017044352 -0.00095386524 -0.00015122745 -0.0004506113 0.0014908605 -0.0015987945 0.0014764784 0.0015512541 -0.00058733905 9.642551e-05 0.0013322869 0.00052280904 -5.502107e-05 -1.5725756e-05 0.00063211826 -0.0009825688 0.00020708155 0.001489834 0.000812195 0.0015813061 0.0001598246 0.0005333738 -0.00056344294 -0.00039336886 -0.0006367558 0.0015627837 -0.00036759677 0.0007378714 -0.0010700616 0.00084138365 0.0015012183 0.0005512378 0.0014874613 7.9294754e-05 -0.00039657406 0.0016076333 -0.0011936835 0.00075151253 2.4377769e-05 -0.0015026595 0.00044202752 -0.00062988285 0.00092337886 0.0012952142 0.00047672153 -0.0016528084 -0.0006521174 0.0015212584 -0.0010068443 0.00038952424 0.00069132546 0.00097039127 0.0003223425 -0.0015959573 5.320371e-05 0.00080817944 0.000928957 -0.00022297465 0.00079385506 -0.0014290981 0.00023160598 0.0012798042 -3.78642e-05 0.0013593746 0.0018170215 0.00068028556 0.0013804715 0.000504624 -0.0007315762 0.0016385647 0.0015860971 0.000643144 -0.0009996729 0.0013107163 0.0015017313 0.0009674254 0.0010014665 0.00012675402 -0.0017778337 -0.0004971728 0.0003566371 -0.0010853824 -0.000152803 2.9232353e-05 -0.0005658943 0.0008016707 0.00036686214 0.0017031262 -0.00040120727 -0.0010171954 -0.0014067055 0.0005667028 -0.0010970201 -0.0006005021 -0.0017570349 0.00028704276 0.0007153218 -0.00062362145 0.0016000939 0.0006168566 0.0018897962 0.0001352129 0.0014457272 0.00052827864 0.00074069225 -0.00013591711 -0.0011994754 4.576149e-05 -0.0016153352 0.0011533455 9.865891e-05 7.716919e-05 -0.0010094052 -0.0009083445 0.0011138507 0.0015246988 0.0011657052 0.0013264472 -0.00080144865 7.982429e-05 0.00091738906 -8.4358806e-05 0.0017140583 -0.00016310727 0.00039680174 0.00071945257 -0.001540908 0.0017214321 0.0014828534 0.0012623236 -2.882882e-05 0.0011729111 -0.0005577803 7.9703175e-05 -0.00023591054 -0.0009848904 -0.0011603436 -0.0015328549 -0.0006769213 -0.0014463406 0.0013086317 0.00092645414 0.00019341132 -0.00018530962 0.0006968993 -0.0010471271 0.0014449238 0.0007338615 -0.0012369473 -0.0014968505 -0.0013432071 -0.0012135061 -0.000796202 -0.0019736537 0.00087134825 0.00046332224 -0.0002463946 0.001586359 0.0017338473 -4.0102124e-05 -0.00062712876 -0.0013924607 -0.00155408 -0.0016017946 -0.0014383045 -0.00091702474 -0.0009609806 0.000990488 0.0009342172 -0.000856916 -0.00064959825
service 0.0013590035 -0.0007585642 -0.0017685256 0.0015106782 -0.00094866223 0.0009563386 0.0002856176 0.0004361558 0.0009318313 -0.00075098354 -0.0011616928 -0.0008519706 -0.0008905604 0.0007368769 0.0010090286 -0.00032348538 -0.0018655484 -0.00014803432 -0.00026799657 0.0014836221 -0.0013017559 -0.0010536434 -0.00035020558 -0.0004932631 -0.0003238381 0.00151209 -0.00022650098 -0.0005559419 0.000650023 -0.0011931258 -0.0016782145 2.3623104e-05 -0.0010500414 -0.0013682124 -1.1316754e-05 -0.00084995956 4.6132125e-05 -0.0011240448 -0.00025275818 -0.001204631 0.0010588476 0.0010230643 0.0009552972 0.0016635585 -0.0014366433 -0.0017934022 -0.0014776129 0.0008119466 -0.0013355943 -0.002133457 -0.0005446553 -0.0002831708 -0.0007080929 0.0016382382 6.0041388e-05 -0.0011465242 0.0008635771 -0.0014928079 1.502771e-05 0.0011221509 0.0012753253 0.0007223968 0.000656972 -0.000954284 -0.0006163718 -0.0009888279 0.0007089105 -1.2865623e-05 -0.0011131072 0.00033523436 7.3028365e-05 -0.0019403388 -0.0014733095 0.00028481614 0.00090105116 -0.00014724281 0.0015535482 0.0012175271 -0.0009641497 0.00083870394 0.0012165303 -0.00045867707 -0.00046033825 0.00046877065 -0.0014902098 -0.0012981254 -0.0004088048 -0.00029191154 0.0010999056 0.0010505223 -0.0017903137 0.00045349917 0.0012951994 -0.00028192913 0.0018489059 -0.0015810863 -0.0007413318 -0.0005051524 -0.0006938299 0.00088755955 -0.00081267004 4.8950442e-05 -0.0014899736 -8.18176e-05 0.0003526048 0.0006332996 -0.0009785856 -3.438449e-05 0.0006644554 -0.0010908827 -0.0014369478 0.0014535923 -0.0010696984 -0.0006299946 -0.0016570468 -0.00068353553 0.0017055076 -0.0017819925 -0.0007887706 0.00085832144 0.00054685475 -0.00073228206 -0.0010273847 -0.0008917408 0.00075354066 -0.0012431305 -0.00080790586 -0.0012696601 0.0007944471 -0.0009274403 0.0017609457 -0.0009757472 -0.0009934282 0.0014565128 0.0015188454 0.0004671667 -0.0013564464 0.0013204013 -0.000247951 -0.0013242618 -0.00083900994 0.0008925062 -0.00078786386 0.0006713749 -0.0016137343 0.0016059236 -0.0012006 -0.00038012365 -0.00084608543 0.0012683152 0.00015437612 -0.0003917834 0.0011750255 0.00019420861 0.00077930023 0.0011419524 0.0014975325 -0.0013380896 -0.0005087469 0.00054334913 0.00023119588 0.0013997001 -0.0005703328 0.0001674558 -0.0007817753 -0.00023023355 -0.0015908977 -0.0004804471 0.0013877078 -0.0013186797 0.0008337785 0.000969688 0.00047288334 0.00033946414 0.00067526044 0.0005881999 0.001326638 -0.0018653021 -0.00010324221 -0.00087663025 -0.0004095737 -0.0009080338 -0.0014186389 -0.0004431391 -0.00030075453 -0.0002758221 0.001210111 0.0006006297 -0.0006393145 -9.050494e-05 -8.23776e-05 -0.0016712623 -0.00013437266 0.0006613825 0.0009588518 0.0017478409 -0.0008107778 -0.0009633689 -0.00092912075 -0.00047327232 0.00042271795 -0.0015337217 0.001138807 0.0005356237 -4.2274014e-06 0.0012719687 -0.00027664175 0.00013146353 -0.0005081023 -0.00086740387 0.0005033835 0.0014379892 -0.00091436243 -0.000110118104 -0.0015045088 -0.0003532798 -0.0011018822 0.0012697625 -0.0011869137 -0.001758399 -0.00038802932 7.694523e-06 -0.0013207045 0.00035621267 -0.001495789 -0.0015673607 -0.0006371434 0.0016847932 0.0014544001 0.0016394871 0.00081101176 0.001191553 -0.00044083517 -0.0009331359 0.00043471967 -0.0013827059 -0.0006097699 -0.000745027 -0.0005683927 0.0003880735 0.0015183239 -6.396007e-05 0.0016108449 -0.0005228105 0.0010720246 0.0014866713 0.0014305819 -0.00073833193 0.0015621901 -0.00089475897 1.6012855e-05 0.0010757066 -0.00012164923 -0.00086355966 0.0011289199 -0.0014969107 0.0010957663 0.00056675577 0.0017724195 -0.00083601446 0.001354222 -0.0004971192 0.00062249403 0.0013236242 -0.00044130872 -0.0005873966 -0.0011155544 -0.0004499045 0.0015529268 0.0014249466 -0.0013878734 0.0003272405 0.0007778994 0.0021657809 0.0014323684 0.00071420224 0.0005319098 -9.411441e-05 -0.0006087135 -0.0016043202 0.0008550635 0.00015584574 0.0007102238 0.00094969873 -0.0010556903 -0.0016758518 -0.0009314424 0.001005562 0.00023016983 0.0013207903 0.0012396928 -0.0015848256 -0.000151418 -9.8214885e-05 -0.000113784685 -0.000987292 -0.00071287825 0.00075768 0.001638733 -0.0014427386
beatupandworn 0.00014621913 -0.0014855297 -0.0013996544 -0.0004017705 -0.00065970403 0.00045772895 -0.0017423759 -0.00050807174 -0.0012991279 0.0005963931 -0.00024172511 -0.0008605319 -0.00043958635 0.0011558721 -0.0016571392 0.0006621619 -0.0008614591 -0.0001709577 0.0013423825 -0.0005762625 -0.0016229022 2.5051813e-05 2.3030138e-05 -0.0011362464 -0.0007692459 0.001712855 0.000686291 -0.00031621088 0.000993191 0.0004097214 0.00088018837 -0.00086657115 0.00084926275 -0.0018139478 -0.0006649932 0.0009858633 -0.001110129 -3.2803495e-05 0.0015322971 -0.00048561156 0.0012371108 -0.0009122166 0.00060833176 0.00016619658 0.0008336312 5.5182012e-05 0.00084050396 -0.000104009196 6.550874e-05 -0.0013344254 -0.0015809317 0.0016559112 0.0013638274 0.0015214178 0.00059576135 -1.7449883e-06 0.0010163598 -0.0016636426 -0.0016302287 -0.0005436814 0.0012824318 0.0014465443 -0.00072512147 -0.0014324633 -0.00032593764 -0.000514222 0.00054493203 0.0018429178 0.0001431912 0.00047394016 0.00028338164 -0.0016556468 -0.00033945704 0.0009042815 0.0006953742 -0.0015938088 0.00065270934 0.0013922082 -0.0011756693 -0.0006241486 -0.0013080776 0.00020333349 0.0010735011 0.0004389607 0.0009734164 -0.00013256187 0.001604042 0.0011301069 -0.0013714113 -0.0017047268 -0.0005899285 0.0018234982 -0.0006339675 -3.5428617e-05 0.0007432753 0.0011289958 -0.0003818195 -0.0008860871 -0.00012154406 -7.3193354e-05 -0.000816348 0.00014826228 -5.328022e-05 0.0016588253 0.0005584272 -0.00060280395 -0.0005685721 0.0013681682 -0.0005383105 0.001231167 4.5784167e-05 0.0017365174 0.00042589768 0.0006642505 -0.0014991135 -0.0010835739 -0.0012230632 -0.00068257906 -0.0013433693 -0.0003345484 0.0014842774 0.0005668365 -0.00042783015 0.00081555755 0.00070629583 -2.3263043e-05 0.00033762917 0.0015448196 -0.0015079244 0.0010195811 -0.00028127816 -0.0007126441 -0.00057926 -0.0010788266 0.001500064 -0.00035077007 0.0016030157 -0.0014400468 0.0010557871 -0.0006628387 0.00076105684 -0.0011468559 0.0012213627 -0.0015401836 -0.0016538398 0.0003466504 0.0008503679 -0.00029770136 0.0015611791 0.00077459624 -0.0006588519 0.0005570698 -0.00038223763 -0.001588987 -0.0017536809 -0.00042080216 -0.00065013394 0.00034012992 0.0015326624 0.0007128349 -0.0009561459 -0.001396838 -0.0007069562 -0.0003215991 -0.001155563 -0.0006231264 -0.0015464794 -0.0019687833 -5.0657636e-05 -0.00034548694 -0.0009794859 -0.0014721378 0.00032658112 0.001083235 -0.0012497745 0.00082718505 0.0018501228 -0.0019446502 0.00077159953 0.00081068435 0.0018451794 -0.0014206719 0.00076382887 -0.0002721757 0.00087205635 -0.00090688246 0.0018682688 -0.0011682406 -0.0004004306 0.0017629677 -0.0008297327 -0.00023597629 -0.0009639273 -0.00014086919 0.0009932821 0.0005875787 0.0010713881 0.0015822264 -0.0009777596 -0.0005019088 5.5503846e-05 -0.0004596678 0.00013773052 0.00047376243 -0.001181186 0.001445302 0.0014094505 -0.0005113805 0.001490304 0.0017094353 0.0009865607 -0.00025849493 0.00047629207 0.0012090323 -0.00045526386 5.5687583e-08 -0.0015253484 -0.00026283838 0.00091290823 -0.0017853649 -0.0011329851 -0.0010379053 0.0010265897 -0.0010865604 -0.0010017129 0.00020598953 -0.0011177786 -2.509966e-05 0.0017784945 -0.00028699066 -0.00043554406 -0.0017229508 5.3200387e-05 -0.0016721567 0.0006946093 5.385037e-05 0.00096706505 0.0009704705 -0.0008009485 0.001092233 -0.0012035032 0.0014063796 -0.00087170594 0.00039212004 -0.0012603322 -0.00071897043 -0.00038701418 0.0011293127 -0.0015255368 0.0012621875 0.00029194725 -0.0007782076 -0.0014370307 0.00010139925 0.0014188674 -0.0018445731 0.0010165623 0.0008912215 0.0010463108 -0.0013310077 0.00012208079 -0.000110405395 -0.0004694519 0.00056349253 0.001201153 0.0017482683 -0.00033048086 0.001370472 0.00010771519 -0.0011906992 -0.00065453805 0.000965393 0.0013646826 0.0005907022 -0.0010985809 -0.0012645929 0.0001220601 0.000152515 -0.0005533208 0.000688719 0.0014700434 -0.0017937198 -0.001539926 -0.0012390503 0.00094159116 0.00081882795 0.0009016512 0.00027001344 -0.00053780637 0.0009837128 -0.00036684185 -0.00032199622 0.00040981683 0.00080869335 -0.00079512835 -0.00029758437 -0.00077010615 -0.00078664254 0.000112849026 0.0011999998
evenbetter 0.0013996823 0.00017643163 -0.0016685248 -0.0012962153 -0.00080036285 -0.0006786546 0.00066938216 0.0012342415 0.0006608024 0.00031913296 0.0013098613 -0.00039644208 0.0010166785 0.0013797868 -0.0013215232 0.0006102039 9.632928e-05 -0.0014863093 0.0013205633 -6.8749694e-05 0.00034207097 0.0013064707 0.00090989104 -0.00022585264 -0.00044005967 0.0007780065 -0.0006099102 0.0002627446 -0.0014996277 0.0010406796 0.00037268645 -0.001131526 -0.0014995083 -0.000660131 0.00012102943 0.0014257092 -0.0002680629 9.204152e-05 0.0003017766 -0.00073919643 -0.00012387606 0.00018148197 -0.0009578687 -1.7173874e-05 -0.00055595743 -0.00033654756 -0.0005817412 -0.0015208211 -0.00117488 -0.00029033318 -0.001695392 -0.0006519831 -0.0008742705 -0.00041927674 0.00024109636 -4.9904414e-05 -0.0009806098 -0.0017809969 -0.00084594457 0.00036460417 0.0015827563 -0.0013678868 -0.0007284637 -0.0008774567 0.0013499211 0.00080909004 0.00030270717 0.00084938214 -0.0005698037 -0.00017325352 -0.0013204934 -8.9746674e-05 -0.0016151313 -0.0013255596 -0.0007540143 -0.00015451454 0.0014942908 -0.0011506805 0.0005760605 0.0012183039 -0.001464187 -0.0009809661 -0.0014424339 0.0017630986 -0.00015369746 -0.00091830676 0.0005420616 -0.0018230117 -0.0010646846 -0.0015977656 -0.0013433298 0.002044374 -0.0007701068 -0.0012950841 0.00022708286 -0.0013264965 -0.0011287739 0.002073374 0.0013096647 -0.00097205077 -0.00046066527 0.00024565205 -0.0011741502 -0.00030805622 -0.0015778873 -9.372045e-06 -0.0011343954 -0.0006385103 0.0020137657 0.0012213467 0.0012435832 -0.0014989356 -0.00019757256 0.0012290297 0.0010326243 0.0007799397 0.0009614764 0.0010458403 0.0010094248 -0.0013046719 0.00072164304 0.0013931007 -0.00091674726 0.0011625785 3.57805e-05 -0.0011040276 -0.0011006 -0.00072994235 -0.0015479659 0.0003019205 0.00013691715 0.0012549981 0.0012172316 0.00054735667 -0.0011639489 0.0010001193 0.0018363191 0.00042251436 -6.685725e-05 0.00011204451 -0.0009971462 -0.0011057922 -0.0019250413 -0.001390119 -0.0016825045 -0.0011307814 0.0012865845 -0.0010009625 0.00052019604 -0.0011927473 -0.0009540339 -0.0013641177 0.0011981351 0.0008710443 -0.0007505372 0.0013682079 0.0012760777 -0.0019867225 3.9154816e-05 -0.000815702 -0.0004962965 0.0002429259 0.0002543672 -0.0019839401 -0.00046378814 -0.0014054433 0.0007946486 -0.0019093336 0.00042026417 0.0010251085 0.00016858934 0.0005603275 0.0010971815 0.0018468004 0.00086856424 -0.0008948485 0.0019974571 -0.0002278198 9.964811e-05 0.0002354248 -0.0002974166 -0.00028241912 -0.001584023 -0.00014134283 0.0002277704 -0.0016207461 0.0010630889 -0.0008373468 0.0003627348 8.634047e-05 0.00046083433 0.0010528727 -0.0012768329 -0.00095892604 0.00079340773 0.00053276337 0.0007748903 0.0011625092 0.0010327861 0.00020468837 0.00019909184 0.0008758346 0.001056819 0.0005226069 -5.639179e-05 0.0008145618 0.00013321188 -0.00027328116 -0.001008017 -0.0006583486 0.0013654003 -0.0008312806 0.0008892609 -0.00020294024 0.0004930646 -0.0017397243 -0.000933798 -0.0011316461 -0.0010440742 -3.3249085e-05 0.0012384645 0.0010318378 0.00040218365 -0.0018607076 -0.0008906881 0.0014211514 0.0005572935 0.0010773981 -0.0011775427 0.00010210387 -0.00033625818 0.00052803825 -0.000982341 -0.0006228732 0.001238165 -4.2511405e-05 0.0005063608 0.0003092014 -0.0017667476 0.00072915957 5.741921e-05 0.00045273214 0.0011383676 -0.00060618 0.0013138768 -0.0011122942 -6.470699e-05 -0.000993552 -0.0003062893 -0.0001772945 0.0011268449 -0.0007506188 0.0008061492 -0.0015366578 -0.00044566934 0.0003445999 0.0010286808 0.00013292894 0.0005149094 -0.0007520308 -0.0006820978 -0.0011625112 -9.800462e-05 -0.0010285607 -0.00041625113 -0.0006617526 -0.0016393568 0.0016489682 0.001710103 -0.0012022184 -0.00056810316 0.00015693995 -0.00040562623 0.0005705693 0.0012622382 -0.0017095801 -0.00094973185 -0.00076799485 -0.0007725136 0.0011018289 -0.00011673236 -0.00025343848 -0.0022652615 0.00042388786 0.0008292769 -0.0014644443 -0.001777146 0.0018305253 0.0005856107 -0.0010709952 -0.00067588984 -0.00068196363 -0.0009721761 -0.0012352508 0.0020193069 -0.0004481228 0.0004431373 -0.00015068754 -0.00036466707 0.001403525
projectrock -0.0009071226 -0.0009908741 0.0011869338 0.001263415 -0.00214419 0.0014075165 -0.0016147237 -0.0011233587 -0.00020835671 0.00027931304 0.001740332 -0.0003446952 0.0019763457 0.00012535433 -0.0012027617 -0.00042288963 -0.00071377534 0.0012496371 -0.0014889413 0.00042240677 -0.0011078038 -0.0009723087 -0.0010091714 0.00080092886 0.00019098475 0.0017423364 -0.0013608342 0.0011222825 0.0016187836 -0.0011249566 -0.00081033976 0.000646441 -0.0019959297 0.000676983 0.0002524258 -2.567759e-05 0.0004796746 -0.00028276138 0.0016727344 -0.0012736453 0.00017963313 -0.00047908537 0.0006295494 0.001925731 -0.0006307168 0.0014039051 0.0010424728 -0.0011538274 -0.0008335883 -0.001129593 0.0006114238 -3.2744567e-05 0.0014657525 0.00046389102 0.00055020605 0.0006032106 -0.0013667985 -0.00088580704 0.000113433605 0.0008401971 0.0014001238 -0.0003216833 0.0017992683 0.00065323693 -0.00015323273 0.0011327663 0.00070928916 -0.00063248596 0.00017816346 -0.0009265925 0.0005011223 -0.0012082946 0.0005417519 -0.0001917164 0.0015072381 -0.00046228562 -0.0012623634 -0.0013824813 -0.0013764978 0.0015727177 0.0007389721 0.00063338265 -0.0011468298 0.0006918758 9.0700916e-05 -0.0017277036 0.0010288337 -0.0012205489 -0.00075486046 -0.0017305464 -0.0002661252 -0.0009543664 -0.0004900787 -0.0010331674 -0.0005967516 -0.0011047601 0.0015204683 0.0017483857 8.769636e-05 -0.00046465851 0.00022005437 0.0007837652 0.0010614188 0.000589843 -0.00047359781 -0.0005262669 -0.0007354165 0.00040920684 -0.0008664989 -0.00013690085 0.0007331969 0.00062588684 -0.0012728045 -0.0013252506 0.00095659256 0.00029628965 -0.0009567638 -0.0014459636 -0.00073811586 -0.0008345947 0.0018091223 -0.00105051 -0.00076771184 0.001294905 0.0015983275 0.00038535657 0.0005047388 0.0016926565 -0.00039200913 -0.0012801875 0.0012837485 0.00031038775 -0.0013689819 1.3922995e-05 -0.0011209522 -0.0014389203 5.499177e-06 0.0003478265 0.00052399654 0.0012491255 -0.000488355 0.0005048305 -0.0018155986 0.0015151079 0.0009312408 0.00051212666 -0.0013353408 -0.0008443326 0.00010229768 -0.0016010746 -0.0015081363 0.0014798079 -0.00014078741 0.0005498294 -0.0017362416 -0.00033617968 -0.0009806907 -0.0006519524 6.763055e-05 0.0011056605 0.001281361 -0.00025404457 0.00043066006 -0.0010590571 -0.00014153664 -0.00011673338 -0.0011413409 -0.0015367258 0.0002873914 -0.0014194994 0.0006894551 0.0010782274 0.0010503079 0.0014006585 0.00051946356 0.0009695921 -0.001102245 -0.0016758792 -0.0013056136 -0.0012590111 0.0017172038 -0.0012787454 -6.9164287e-07 0.0016989659 1.7645714e-05 0.00096230843 0.0008044696 0.0010573273 -0.0009733716 0.0015312398 0.00077227526 -0.0019051777 -0.0016227434 -0.0005241509 0.0011885354 -0.000815309 0.0011038771 0.0011205875 0.0014651812 -0.000758056 -8.065316e-05 -0.000848205 0.0012498151 0.0021365006 -0.0014613625 -0.0015521733 -0.00015294814 -0.00019403221 0.0007478586 0.0014638247 -0.00093657017 0.00075250043 -0.0013200947 6.525447e-05 -0.00047102562 -0.0006853691 0.0005197732 -0.0005674889 -4.6232086e-05 -0.0005326174 0.0012005903 -0.0012299863 -0.0012468494 0.0014082179 0.0014577423 -0.00081750983 0.00063652016 0.0007760382 0.00012751378 -0.00077769154 -0.0016403566 0.000990848 -0.00089226256 -0.0012822273 0.00034470443 0.0018178662 0.0004524683 -0.0013284836 -0.00080122583 0.00078199396 -0.0012919793 0.0012935463 0.0017317075 -0.00097511854 -0.0014961412 -0.00086735893 0.0020922623 -0.00016843822 -0.0008518374 -0.0006334894 0.0008851513 -0.00019275628 -0.0012044641 0.0010960227 3.0512047e-05 -0.0010666241 -0.0008944451 -0.00047443 -0.0007818073 2.1071124e-05 0.0012450673 0.00041906495 0.0014802392 -0.0012938188 0.00035558682 0.0012312727 0.0017211816 0.0009786534 -0.001273975 0.00033849294 0.0015429356 -0.0005579728 0.0008926223 0.0024786473 -0.0018837934 -0.0007728526 0.0005956986 0.0013380395 0.00037965973 0.0004664023 -0.00081463804 -0.0005768386 -0.0014274074 0.001197917 4.1848423e-05 -0.00050447875 -0.00049666467 -2.7653734e-05 -0.0005787073 0.00068269466 0.0010488741 -0.0014273819 0.0007563297 -0.00095391105 -0.00095738424 0.00023471413 -0.0015562766 -0.0013745662 0.0004713771 -0.0011082253
underarmour -0.00033929606 -0.00038618632 0.00081982196 -0.0010524102 -0.0009310845 0.0006437314 -0.0005545692 0.00092518504 -0.00033107187 0.000557042 -0.0003752079 -0.00025831605 -0.00069586193 -0.00040375383 0.00041998836 0.00032670534 0.0005935377 -0.0009841521 0.0006082465 -0.0014314034 -0.0005306681 1.5978987e-05 0.0012368232 9.472229e-05 -0.00040064543 -0.0015146707 0.0008510227 0.00031673058 0.0010710733 -1.8274253e-05 0.0010888566 0.00042054558 -0.0010019687 -0.0018775796 3.1749976e-06 0.0012053096 0.0015430715 -0.0006059951 0.00073085807 0.0014529235 0.001148203 -0.001269611 -0.0013705821 -0.00056584924 -0.00035178676 -0.0007483123 0.00061425695 -0.0008010816 6.344412e-05 0.0011732641 0.0004214689 0.0008949281 0.0010265474 0.00011540663 -0.0015958208 -0.0010513716 -0.0012088988 0.00080834504 -0.0014086965 -0.00059935753 0.0010772578 0.000865825 0.0010139457 -0.0014695788 0.0016681092 -0.001416764 0.0011596521 -0.00074471056 0.0006756373 -0.0009596528 -0.0006542027 -4.273508e-05 0.00043728077 0.0003666398 0.0010257111 0.0009745895 0.00033248652 -0.0005486145 -0.0007041995 0.00019871045 0.000926145 0.0016784982 -0.0015153005 0.0007312387 -0.00067535636 -0.0005155694 0.0014740246 0.0009416414 0.0014067965 -0.0012658263 0.0001156658 0.0013091506 0.0010716849 -0.00015598608 0.001323263 0.00037531817 0.0019504 7.8887606e-05 -0.00034090888 -0.0015780331 0.0008064447 -0.0015790428 0.00080084446 0.00039125502 0.00070510106 -0.0014062453 -0.0011192448 5.6958128e-05 -0.00023730738 -0.00045627577 0.0014834916 -0.0004282248 -0.0005884537 -0.0002556875 0.00064256974 0.0014988144 0.00082150573 -0.000902993 -0.0011515961 0.0002880396 0.0016538195 -0.00027067095 0.001556472 0.0011527699 -0.0004690557 -0.00029144916 -0.0007369793 0.00096730504 -0.0003881287 -0.0009215151 0.0011732634 -0.0015953791 0.000948158 0.00057687826 0.00057647674 0.00040304486 -0.0016381914 0.0010375036 0.0015561956 -0.00017753174 0.0014846808 0.0011184172 0.0013470438 -0.0002527645 -0.001749482 -0.00049750815 0.000771391 -0.00050590734 0.0016168441 -0.0014805258 -0.00015673027 0.0016933049 -0.0011924286 0.0003410982 -0.00057185476 0.0009260042 0.000653727 0.0003801089 0.0012694149 -0.0002767251 -0.00018993046 0.0006126434 0.0011539006 0.001284933 -0.001483991 -0.00062701263 -0.0014657922 -1.5755199e-05 -0.0007322641 -0.0004406396 -0.0003446019 0.00084102585 0.0006010077 0.00051075104 -0.00040351614 0.0014432867 -0.0010116779 -0.0002981178 -0.00037026408 0.0015230572 -0.0008691804 0.00028747402 -0.0012626782 -0.00021695095 -0.00089978805 -0.00087263045 0.0010230952 -0.00025739562 -0.0015783166 0.0017213108 0.00072876626 -0.0012647477 -0.00043216787 0.00089827785 0.00087191584 -0.00071814825 -0.00053117843 -0.0009388364 0.0007303788 -0.00049030257 -0.0015087714 -0.0005039426 0.0014630455 0.0009084964 -0.0016491506 -0.00083875505 -0.0009546334 -0.00010199199 0.00022385048 -0.00086214585 -0.00063065515 -0.0008566587 9.866433e-05 -0.00047663588 -0.00095203496 -0.0018184604 0.0014512319 0.0008136112 -0.00027333596 0.00026047844 -0.0011046968 -0.001837002 0.00027727633 0.000360607 0.0009281141 -1.6180433e-05 0.0006494171 -0.0015169429 0.0013612059 -0.0006296211 -0.00052177045 0.0012448147 0.00018251309 -0.0017612734 -0.0013387514 0.0014568926 -0.00026083074 -0.0001613929 2.5827805e-05 0.00048657897 -0.00096093316 0.0013751495 -0.00093880837 0.0018923348 0.0013358673 -0.0005255592 -0.0010361874 -0.0010977461 0.00026531442 0.00043938486 -0.0008988533 0.00077239366 0.0005020431 -0.00087261846 0.0011755634 0.0007477044 -0.0013379228 0.00023906025 -0.0014156334 -6.282603e-05 0.0013946424 -0.0010116786 0.0002149484 -0.0006052873 -0.0015136198 -0.000102114805 0.0002470547 -0.0004238184 -0.0010874061 -0.0015730974 0.0018059949 -0.00024404001 -0.00045975472 0.00076843135 0.001467365 -0.0016471706 0.00071984995 0.0006824252 -0.001306951 0.0012418366 0.0008875812 -0.0015690909 -0.00075492216 -0.00019389171 0.0016428297 -6.0700087e-05 0.00022866437 -0.0014909222 -0.00179563 0.00067734404 -0.0003253381 0.0012776637 0.0007620355 -0.0001695674 0.00031223553 0.0014375318 1.25103015e-05 -0.0013853991 8.160442e-05 2.9049257e-05
uafreedom -0.001373747 -0.0007499452 0.0010696871 -0.001153756 0.00061550585 -0.0011102185 -0.0015133456 2.8233968e-05 0.0004259953 0.0009755251 0.00081527955 -0.00078116066 0.00058318075 -0.00054834434 -0.0017164181 -0.0013557165 -0.00053811684 -0.0012240562 0.0016764186 0.0005373764 -0.0016934904 -0.00080631324 -2.0708345e-05 -0.00046013432 -0.0015713952 0.0013983386 0.00013327062 -0.00017694822 -0.001560918 -0.0014016653 0.0014340049 -9.664247e-05 0.00096726033 0.0012397079 -0.00102019 -0.0011787602 0.0010594368 -0.000859376 0.000588784 0.0007993169 -0.0011781986 6.7182205e-05 0.00015097743 0.0013266746 -0.00020035858 0.00014050667 0.0007613228 0.0008371878 -0.0011396486 0.0008614906 0.00097175257 0.0009821343 -0.0011829032 -0.0013030957 -0.0011141038 -0.0012772634 -0.00012538866 0.0011649666 -0.0004995184 0.0006338733 -0.0012352723 5.3696283e-05 -0.00033832894 -0.0017293385 0.00012235947 -0.0015411223 -0.00048223452 0.0014192672 -0.0008017977 -0.00031852032 -0.00069275725 -0.0011097093 -0.0013659092 -0.0012725131 0.00055068824 -0.0006923911 -0.0004271614 0.0016583832 0.00050362013 -0.00025776078 -0.0006811439 0.00030526755 -0.0009579832 0.0021797987 0.0017009869 4.8127815e-05 0.00031709304 -0.00031066994 0.0013097463 -0.0015595596 0.0012050362 0.0014359511 -0.00084125856 -0.00053048297 0.0006382324 -0.00080445805 -0.0005677533 -0.0008979987 -0.0004505177 3.9499602e-05 -0.0012052335 -0.00023712778 0.000429477 -0.0002992111 -0.0013243139 -0.0020317717 -0.00044958925 0.00030902127 0.0017932979 0.0010097534 -0.00037779813 -0.00013450834 -0.0012096547 0.001108973 0.0005575197 0.00047888397 0.00034484154 -0.001411281 -0.0011811707 -0.0014202695 -0.0012810322 0.0006811185 6.6864995e-06 0.00065361283 0.0012326078 0.00021920598 0.0009460104 -9.77641e-05 -0.0010481684 -0.0008914378 0.0015747211 0.00068977644 -6.9391266e-05 -0.0015782586 -9.558652e-05 0.0013104659 0.0005475098 0.001306574 0.00018452553 -0.00022071373 -0.00055575214 -0.00069109746 0.0010553144 0.0004575762 -0.0015312389 0.00024755453 -0.00043487066 0.0007793889 -0.00030294422 0.00032246788 0.0005713995 0.0002670323 0.00030604439 0.0005470435 -0.0010791713 0.0004526511 -0.00042077535 -0.0013068307 0.0008982227 0.0017451292 -0.0017383185 0.0010429631 0.0012616544 -0.0012468918 -0.0009722202 -0.0015388768 0.0012962684 -0.00079732126 0.0004333989 0.00028335847 -0.0007706421 0.0004770739 0.00043259398 0.0014743138 0.001167665 0.00088598137 -0.0002740878 0.0007050818 -0.0010360599 -0.00058224326 -0.0005263804 0.00089040794 -0.0010479356 -0.00059522776 -0.001543591 -7.785798e-05 0.00054473715 -0.00047606282 0.0014534666 -0.0002908114 -0.0005073361 -0.0001811701 -0.00063554425 -0.0009377668 -0.0014804183 0.0004996287 0.0011183547 0.0004884712 -0.00041879088 -0.0014726485 0.0011654926 -0.0003288178 0.00087273016 0.0004038026 -0.00102408 0.0006750894 -0.001308234 0.0010729718 0.0009569405 0.00142799 -0.0016763724 0.0005764237 5.878795e-05 -0.0009349502 -0.0007632595 0.0011101111 4.8983715e-05 -0.00095465855 0.00067868 0.0012719596 -0.0015032045 -0.0015361068 0.0014402001 -0.0013142216 0.00047887414 -0.0008972906 0.00079738337 0.0001966678 -0.001334776 0.0012073807 -0.00016936233 0.0014169499 0.0011858434 -0.0010294936 6.2832405e-05 0.0016639668 -0.00057454605 -0.0007850835 -0.00081874063 0.00022717209 -0.00081351853 0.0011691841 0.0011697273 -0.00072594435 0.00010680381 0.000732987 -0.0008237721 0.00013395012 0.0017854802 -0.00015273715 -0.00087069446 0.00077155407 -0.0014347465 0.0005676478 -0.00038882406 -0.00018793024 -0.0012624471 0.0016741673 0.0012584121 -0.00042149652 0.0014530333 -0.00032745584 -0.0009901373 -0.00015717371 0.00093134004 -0.001071415 7.926603e-05 -0.0005044097 0.00027001096 -0.0006913186 -0.00086492824 -0.0010773523 0.0008910386 0.0021498485 -0.0010112132 0.0005163973 -0.0014800031 0.0017978742 0.001833301 -0.0016701281 -0.0013446343 0.0013892584 0.00022217858 0.0011661932 0.0013365131 3.2721728e-05 -0.0003842345 0.0014901138 -0.00060987164 -0.0009366729 0.0014888449 0.00023165811 0.0007474941 0.00094121974 0.00091418275 1.477407e-05 -0.0007829438 0.0003281699 0.0009156534 -0.00019375767
UNSTOPPABLE 0.001223891 5.3215423e-05 -0.0004148304 -0.000109941815 -0.00080944283 -0.00044756418 -0.0011554998 -0.00076269015 -0.0011594368 -4.9431692e-05 -0.00081807893 0.0009036665 0.00065918174 -0.00030008494 0.00018963555 -0.00043198292 -0.0009682556 -0.0013938107 -0.0005031208 -0.00017497817 -0.0015633738 0.0011897718 0.0015464136 -0.0009873287 -0.0011593879 0.0007890742 0.00058541656 -0.0013151316 0.0013373191 0.001114429 0.0015486253 -0.0016645966 -0.00046506408 -0.00032772578 -0.0010088611 -0.0004753268 0.00023153587 2.083159e-05 -7.12577e-05 -0.0005040503 0.0016583861 -0.0004773097 -0.0013831673 -0.0004983224 0.00025693676 0.00050238427 -0.00024606194 0.001665073 0.0016465276 0.00014413218 -0.0005976324 0.0014514155 0.00032434287 0.00013609254 3.921881e-05 0.0009820147 -0.00020380039 -0.001100027 0.001178843 0.0005742409 0.0010249731 -0.0003604464 -0.0006033238 0.0011362645 0.00045402418 0.0006081874 -0.0015663479 -0.0014049478 -0.0005816617 -0.0016520413 0.00056157354 0.00082648033 -0.0008642765 -0.00013787625 -0.0009662076 -0.00070752285 -0.0012046923 -0.0012247176 -0.00055120373 0.001390038 -0.0003534474 -0.0012808841 -7.900421e-05 0.0009902103 -0.0013513581 0.00017573219 0.00075534615 -0.0014852589 -0.0013945431 5.855621e-05 -0.0010889536 -0.0006713248 -0.0011082587 -0.000522483 0.001586372 0.00032132235 0.0012960252 0.0011410157 -0.00059572875 0.0008697498 0.0012584201 0.0009276923 -0.0010720668 0.0008659554 -0.00021455588 -0.00042855623 0.00029951287 0.0015821785 -0.0015997216 7.073884e-05 0.0008843909 -0.00013818126 0.00024570012 0.0006898148 0.001585714 -0.00043654325 -0.00094383716 -8.071109e-05 -0.0011346497 -0.0011446413 0.0015472956 0.00024414202 0.00023352145 0.0015761508 0.00048032706 0.00091017084 -0.0004391831 -0.0015967718 -0.0009424883 -0.0015060258 -0.0011717929 -0.0012474749 0.0012399897 -0.0011484337 -0.0016083438 -0.00034157315 -0.00078430277 -0.00040224555 0.0014725081 -9.519281e-06 -0.0012712157 0.0013381212 -0.000873546 -2.7999864e-05 -0.00037364243 -0.00021329161 -0.00013730745 -0.0014389956 -0.00033366587 0.00038459152 0.0015566484 -0.0011352432 0.00021167891 0.0009922404 0.0012746085 0.0004991302 0.0013046605 0.00069096475 -0.0007213164 -0.001378352 -0.0010034756 -0.00079295895 0.0012187983 0.00049523264 -0.0012143644 0.0005813625 7.9784426e-05 0.0006006991 -0.0005175193 0.0003698275 -0.00040409225 0.0007853133 0.0004985058 0.0015321339 0.0011874079 0.00059558335 0.0013431557 -0.0006736615 0.001105533 -0.00010498206 0.0008686776 6.4102933e-06 -0.0011102444 -0.0012561467 -0.00089716737 3.3333083e-05 -0.0014750378 0.00012035447 0.0015042436 -0.0012210278 0.0012540827 -0.00060044345 -0.001592511 0.0004774502 0.00023871835 -0.00011855306 0.0011028082 0.0011269785 0.00060253195 -0.00017338281 -0.0001922897 0.00024291896 0.000120568904 0.0014183279 0.0005317817 -0.00030170893 -0.0012312186 -0.0013694372 0.0011552204 -0.0010566096 -0.0011586945 -2.0276755e-05 -0.0010522804 -0.00086335023 0.00054357084 9.646174e-06 5.83675e-05 0.0004661386 -0.0004649707 -0.0008482629 -0.0012850893 0.0011865771 0.0015053821 0.0011544137 0.00048937765 0.00090226997 0.0004192246 0.00051662535 -0.0014171946 -0.00027468742 -0.00067702495 0.00059770374 -0.0016180825 0.00022263604 0.0014185125 -0.00042568345 -0.00084830384 -0.0012784747 6.8024034e-05 0.0007050568 -0.0010240038 0.0012529704 0.00028953026 -0.0015958587 -8.195534e-05 0.00022279774 0.0013735122 -9.96351e-05 0.00085482514 -0.0011452963 0.0014001587 -0.0016118332 0.00058583776 -0.0012398509 -0.0010568884 -0.00022295152 0.0010077516 0.0006869077 0.0012735301 -0.0008556243 -0.00029076182 0.000114061055 -0.00037761533 -0.0015706156 0.0009943594 0.0012673622 -0.000974228 -0.0010375537 -0.001216809 -0.00043179945 -0.0013604985 0.001451358 -5.6579942e-05 0.0012343698 -0.0012816025 0.0012808223 -0.0011039041 0.00027098611 0.00033717882 0.0008167024 0.00073638326 -0.00031347014 0.0006881992 0.0011341737 0.0008032997 -0.00021805649 0.0006418708 -0.0006989477 -5.178689e-05 0.0014826474 -0.0015676164 -0.0012054536 -0.00012979016 -0.0015072187 0.0013670444 -0.001285061 0.00085555064 -0.0004892808 -0.0009166696 -0.00027708767
TheAnthonyRoblesStory 0.00024920775 -0.0010871993 0.000159695 3.7606674e-06 -0.0015953413 -0.00014856836 -0.00049430336 0.0011880995 0.001748086 -0.0009897031 -0.000677641 0.0007638174 0.00063075975 -0.0013419194 0.0009856126 0.0008633865 -0.0009923842 1.6185493e-05 -2.1146205e-05 -0.0013910629 -0.00052949856 0.00063841743 -0.0001148021 -0.00083943014 -0.0001180284 0.0011748973 -0.0002659445 0.0007430876 -0.0012326057 -7.677352e-05 -0.0003885819 -0.00021673273 0.00046592127 -0.001605146 -0.0013662637 -0.0016488808 0.0014845905 -0.00059423695 0.000688711 0.00085955986 0.0014417338 0.00036164353 0.0010468133 0.00027473597 -0.00060510385 0.0007221578 -0.0003707388 0.00092682417 -0.00030715502 -0.000913548 0.0005572972 -0.001001584 -0.0010349536 -0.0004558915 0.00056552724 0.0007881511 -0.0006367166 0.0008244081 -0.0017936017 -0.000424442 0.0001161203 0.0004478383 -0.0008059283 -0.0014934888 0.0016017013 0.0012769125 3.0345464e-05 -0.00021697237 -0.0010280908 -0.00018434077 -0.0004766386 -0.00034869212 -0.0013650005 0.0011231038 0.00094466686 0.00057397917 -0.00049473566 -9.880691e-05 -1.3279363e-05 0.00067605096 0.00053102896 0.0013825799 0.0015093553 -0.0011163505 -0.0015982272 -0.0013308058 0.0007788593 -0.0010838718 -0.00041090947 -0.00021062599 0.00046355618 -0.000116805146 0.00095939456 0.0010807686 -0.00040139005 -0.00016590889 -0.0007998958 0.0015001952 -0.0010179491 -0.00019194199 -0.00018879776 0.0012146453 -0.0004943853 0.00075917545 -0.00027399298 -0.001403996 0.00054907746 0.00032091036 -0.0015485453 -0.00035144453 0.0009467638 0.0014126187 -0.0011233907 -0.0006105394 0.00083344226 -0.00024762022 -0.001164091 0.0013110469 -0.0006038343 -0.00060833694 0.00073303847 -1.8294322e-06 0.0016380915 0.0010935107 0.0006191897 -0.0011845215 -0.00033173268 -0.00012701831 -0.0002104874 -0.0013596986 5.6038934e-05 0.0010917028 0.0014395638 0.0012605798 -0.0016417819 0.001279963 0.0009170745 -0.0016503741 0.0011788108 0.0005912287 -0.0009045531 -0.0014494674 -0.0010634423 -0.00047000626 0.00014336388 -0.0006237704 -0.00059171754 -0.0015757375 -0.00063741 -0.00072734477 0.00073148747 0.00019214225 -0.00017245469 -0.0012698306 6.235479e-05 -0.0011707959 0.00047884375 0.0004006101 0.0014797912 -0.00071120955 0.00061570096 -0.0014643224 0.00011347144 0.00031363618 -0.0013079965 0.00021037702 0.0012504249 0.0007926442 0.0008400583 -0.0010598738 -0.0009075086 -0.00014300772 9.365731e-05 5.2943982e-05 -0.0016166159 -0.0008560229 0.0012996286 5.460057e-06 0.00097282877 -0.0007698202 -0.0008648228 4.0867744e-05 0.00083362113 0.0016419729 0.00044719293 0.00045211602 -0.0014192726 0.00016654123 -0.00022575256 -0.0014350266 -0.0015189841 0.0004473676 6.519939e-05 0.0008726697 -0.00012472317 0.0003037797 0.0008999906 4.063343e-06 -0.0013049536 0.0009136995 0.0003185073 0.0002180225 0.001131208 8.593236e-06 0.00095134263 -0.000848391 -0.0012393591 0.0010753374 0.00052636204 0.0007028941 0.0014261842 0.00032477808 -0.0010917891 -0.0011904176 -0.0007821222 0.0011549373 -7.063727e-05 -0.001450001 0.00016325581 0.00011834997 0.0006047256 -6.849662e-05 0.0011793217 -0.00029309542 0.0005520757 -0.00048293654 0.00079615886 2.9699906e-05 0.0011680592 -0.0004139127 0.00062225113 0.0014203758 0.0005919258 0.0008258363 -0.00068013085 0.0008125098 -0.0011468582 -0.0013335556 -0.00055652147 0.0005471844 -0.0008694749 1.4990751e-06 -0.0010413743 -0.0012348444 -0.0016394915 0.00035599648 0.001633041 0.0014942138 0.000371271 0.0002526153 0.00039051814 0.00088908727 -0.0012716603 0.0016106478 0.0014414979 0.0004976011 -0.0012143946 -0.0010791272 -0.001412949 0.0016262097 -0.0008199158 -0.00043692044 0.0010696241 0.001419371 0.0013260109 -0.00017948798 -0.0010382456 0.00033892534 -0.0012342477 -0.00035517072 0.0016667462 -0.0014384582 -0.001500445 0.0009965703 -0.0016608399 0.0011576323 0.0009169524 0.00088285655 -0.0006630173 -0.001099915 -0.00018883785 -0.0010956984 -0.00020979618 -0.00086463534 -0.00046073852 0.001133526 0.0014396209 -0.0001849808 -0.0016219503 -3.2166543e-05 -0.0002761089 -0.00023747481 -0.0012239954 0.00019563772 -0.0014663581 -0.00016936279 -0.00082437537 -6.7005356e-05 8.047542e-06 -0.0008586826
HobbsAndShaw -0.0007586704 -0.00080718147 -0.00029643287 0.0008261782 -0.0014011806 -0.00079733867 -0.001452293 -0.0015542816 -0.0007589098 0.0011362986 0.0008924761 0.00020502582 -0.0006981163 0.0011509416 0.00013234389 -0.00075825263 0.0013963584 -0.0016803008 0.0008096548 0.00092007814 -0.0010880566 -0.0013183106 0.0013663052 -0.0016748109 0.0015772777 0.0013932049 -0.00039412113 0.0010932048 -0.0012097101 -0.0015315675 0.0015617736 -0.0006431151 0.00062240433 0.0010759673 -0.0013561182 0.00022861741 0.0016575042 9.006599e-05 -0.00036674005 0.001378189 -0.0003375187 -0.00022113232 -0.0012756218 0.0015205 0.0008509064 0.0011860414 -0.00061475823 -0.0005673573 0.0014758799 0.00011223772 -0.00033711406 -0.001530989 0.0012250881 1.4739084e-06 -0.0011646769 -0.0017149866 0.0010780747 0.001214931 0.0013186301 0.0013953446 0.0003990834 0.0012549025 0.0008143209 0.0006381279 -0.0013961485 0.0007852204 -0.0008598196 -0.0005874434 -0.0012460994 -0.0015361481 -0.0016368882 0.000281211 0.0014658932 0.00022635177 0.0004834944 -0.0010182845 0.0015890874 0.0008689717 -0.00055205595 -0.0014747966 6.653785e-05 0.0016957544 -0.0012103312 3.879897e-05 -0.00011099021 -0.0006256839 0.001554603 0.0005533175 -0.00051112904 0.00013015664 0.0015342045 0.00037868647 -0.0010085895 0.0008200493 0.0014236054 0.0015115951 0.0011191361 3.7257196e-05 0.0006232733 -0.0013507104 -2.3997327e-05 -0.00093789666 -0.00060552685 -0.0005471061 -0.0010790185 0.001413158 -7.89286e-05 0.001588419 -0.0010924521 0.0011102235 2.5956595e-05 -0.00073723414 -0.0010228151 -0.000825345 -0.00043179287 0.0010098796 0.00016246739 -0.0012465819 -0.0013421023 0.0011767414 0.0015131581 -0.001508008 -0.0014824889 0.0010619962 0.00015116972 -0.001399313 -0.0014585742 0.0016415967 -0.0011798483 5.2100822e-05 -5.535494e-05 7.636457e-05 -0.000955079 -0.00050674565 0.00071418344 -9.5802716e-05 0.0013468956 -0.0005585863 0.0003194749 0.00061542395 0.00086442195 0.00013237487 -0.0010778414 0.00037728867 0.00015786644 -0.00065040466 0.001595329 0.0014380722 -0.00021654813 0.0009195337 -0.0005915634 -0.0013090845 -0.001331642 -0.0010286574 1.680297e-05 -0.0008237586 0.0013509453 0.0005345257 0.0006249974 -0.00037542556 -0.00068170467 -0.0009617436 -0.0005237313 -0.0014561759 -5.8717083e-05 0.0015325793 -0.00035464327 -0.0015526618 0.0015020455 -0.0016587111 -0.00021454897 0.00052051974 0.00031274505 0.0003627104 0.0010479961 -0.0012969362 0.00020201605 -0.0016204509 0.0012740396 0.00027153883 -0.0004279409 0.0008768631 0.00076185644 0.001160714 0.0015040555 -0.0012692894 0.0015863383 0.00093019404 -0.0006080824 0.00053173676 -0.0011516191 0.0005278749 -0.0012124357 0.00026460792 -0.0007543927 -0.0010443071 0.0014119351 -0.0016201325 -0.0009560185 0.0008739254 -0.0014333335 -0.0010424212 -0.00056808814 0.0016699061 -0.0014610499 -0.0010883969 0.0001047452 0.00066792016 0.00030084146 -0.00092464796 0.00028382998 -0.00074415613 0.00016155782 0.000875397 -0.0008237693 -0.0005326909 0.0014234872 -0.0010671907 -0.0010881774 0.0003604521 -0.0008451795 -0.00092823454 -0.00079847896 -0.0006616218 0.0007899031 0.00030870506 0.00060165615 0.0011191666 -0.0012186732 0.00075453933 -0.001571825 -0.0008046752 -0.00049515965 3.6267542e-05 0.0009702935 -0.00078126445 -0.0014594769 0.0013086817 0.00021513461 -0.0008238765 -0.0013605419 0.00069864833 0.0002434034 0.0012802497 0.0012409439 0.0008810684 0.00060879637 0.00075072364 0.00096408266 -0.0004511764 -0.00076071697 -0.0012752606 0.00031540336 -0.0005268193 -0.0006914785 0.00048591144 -0.00013098402 -0.001137473 0.00017657764 0.0006716891 0.0013102996 -0.0004752537 0.00054348697 0.0016769345 0.0007830034 0.00069962046 -0.000661841 -0.0013924361 0.0008807665 -0.00089410617 0.0006310136 0.00010134868 0.0016072924 0.0007611283 -5.2921165e-05 -1.10450255e-05 0.0012172151 0.0017289907 -0.00016904403 0.000921956 -0.001183255 -0.0017376738 -0.0012886071 9.511487e-05 -0.0006176081 0.00095567276 -0.0008546121 -0.00060789904 0.0015153057 0.0010373826 -0.00077290693 0.0007184959 0.0005740646 -0.0015436894 0.0013479638 0.0009961913 -0.00029999315 0.0003985201 0.00072903535 -0.0013649306
UFC244 -0.001756296 -0.00026312578 0.00077943644 0.0008890763 -0.0026619218 -0.0025601934 -0.0018885968 -0.00093255873 0.0023238845 0.002470629 -0.0012285215 0.00017543291 -0.0018338673 0.0012868542 0.0006151752 0.0011241782 0.0004681262 0.0010291082 0.0007944932 -0.0027442747 0.00090231595 -0.0009262577 0.001142144 -0.0045665414 -0.0023587719 0.0020581775 -0.0008278511 0.0024430947 -0.0003825699 7.5593605e-05 0.0014673388 7.659316e-05 -0.0009717259 -0.0018480871 0.0011741283 -0.0016233439 0.000943064 0.00096411613 -0.0026146865 0.00028716354 0.0009963196 0.0014365212 3.5032783e-05 0.0039161346 0.00072422804 -0.0016321542 0.0019621442 -0.0011606929 -0.0017821133 -0.0031072465 -0.0038387 0.0023352024 -0.0010523475 0.0009109168 0.0019989472 -0.0019010588 0.0016372112 0.00028257488 -0.0022651278 -0.002536711 -0.0016034812 -0.0018432699 0.00046811556 -0.0019892303 -0.0013438534 0.0003257173 0.00064063154 -0.0009871526 0.00041034917 -0.0014838082 -0.0036176501 -0.0029295748 -7.147215e-05 0.001691797 -0.0014809641 0.00080205296 6.721361e-05 0.00046910375 -0.0016234936 0.0018311085 -0.00016273788 0.00150567 -0.0004973563 0.0018038906 0.00027680022 -0.0003312861 -0.0009637404 -0.001432969 -0.0019328496 -0.0027665962 0.0011656525 0.0034678844 -0.00011363872 -0.0022266647 -0.0011422251 0.00022832041 0.002429001 0.00349011 -0.0020185444 -0.0024282378 -0.0022033725 0.0010900173 -0.0020421296 -0.0015261712 -0.002541792 -0.0024208939 0.0018059326 0.0017078966 5.4227266e-06 0.00037727054 0.0016428202 -0.001197317 0.000672029 0.00021631 -0.0018879604 0.001614448 -7.402228e-05 0.0015747596 -0.0021874446 0.0004741456 0.0018614234 0.0007791346 0.0031930315 -0.0020199222 0.0011806826 0.0007922116 -0.0018492506 0.0020519162 0.002534496 0.0011515045 0.001718705 0.0009989031 0.0011424387 0.001232262 0.00050900236 -0.0011949582 0.0008002793 0.0016864282 -0.0010072369 0.0026202414 0.00053132355 -0.00022153747 -0.00043078957 0.0024466657 -0.0041574077 0.0024573628 -0.0016874295 0.0019554337 -0.0011331979 -0.0006049515 -0.002343459 -0.0012122836 -0.00039455947 -0.0005176763 0.00032352062 -0.0019634014 -0.0004008511 -0.0032112512 0.0019141028 0.0011954074 -0.0025315206 -0.0013016684 -0.0031726176 -0.00084838556 -0.0012519122 0.0010665234 -0.0017192117 0.00055869546 0.0013650436 0.001533211 0.00034204047 0.00071595673 0.000101187245 -0.0002910012 -0.0027708746 -0.0010970483 -0.00017934304 -0.0022991458 0.0025173563 0.0007375978 0.0030342925 -0.0012961611 0.000119848286 0.002860272 0.0022541566 -0.0009518751 -0.0014081395 0.00048272562 0.00084942626 0.0007804008 0.00082039024 0.00051232404 -0.0013042728 0.0017773957 -0.00066121126 0.0026616438 -0.0018059289 0.0010004003 0.0034294345 -0.0003225359 0.0009888427 -0.0018268455 0.0015884311 0.0002073644 0.0014506074 -2.342794e-07 -0.000789489 -0.00095493125 0.0018015694 0.000769796 -0.003307114 -0.0021994777 -0.00040510434 -0.00013143878 0.0012293955 0.0021770853 -0.0003410708 -0.0022888808 -0.0011102555 0.0021492422 -0.001341375 -0.0015223194 0.0013345764 -0.0004094892 0.0012384526 -0.00095525564 -0.0022058333 0.0022004645 0.0005526441 0.0034111436 -0.0017719669 -0.002620872 -0.00047126476 -0.0017653244 -0.0006492797 0.000866638 0.0005433539 -0.000848166 0.0013456482 0.002050517 -0.0015903589 -0.0007903752 0.0019447727 0.0024604092 0.0004932859 0.001110005 -0.0016609001 -0.0008896334 0.0012517107 -0.0028756682 -0.0012209744 0.00022462867 -0.0013974371 0.00079285057 0.0003133008 -0.00223742 0.0022571182 0.0016723907 0.0031511334 0.0012375029 0.0012867113 -0.00015887244 -0.00024330408 -0.0016483933 0.0021004812 4.9635222e-05 0.0002744399 -0.000379847 0.001344297 -0.0026111663 0.0016254588 0.0009784206 0.0002885627 0.0036472369 -0.0009255521 0.0011788466 0.00032318785 -0.0008846782 0.0015071234 -0.0012655667 0.002320701 9.1208516e-05 -0.0018613893 0.0021720475 0.0006130702 -0.0014497463 -0.00012854749 -0.0015550012 0.0007469431 -0.0029622146 -0.00033720408 -0.0027601346 0.0009792013 -0.0009879064 0.0017795935 -0.001379555 0.0013651033 -0.00097012636 0.0024541623 0.0011595467
peopleschamp 0.00045117084 0.0014848689 0.0009019219 0.0017880575 -0.0019659935 -0.00057184574 0.00060724624 -0.001199351 0.0009006764 0.000948979 -0.0011456286 -0.00057182024 0.00022395902 0.001076313 0.001437568 -0.0011925563 0.001046762 0.0011945822 -0.0008170816 5.9389466e-05 0.0006822556 0.0010800954 -0.0005596125 -0.00023549184 -0.0018662931 0.0012378608 0.00061808864 -0.00092627836 -0.0016951405 -8.543763e-05 -0.00041170805 0.00033823794 0.0004333235 -0.0003969979 0.0008376656 0.0012466288 0.00045986552 -0.0012513937 -8.209807e-06 0.0017663853 0.00017191783 -0.00048856344 -0.001167509 0.0019245048 -0.00026998864 -0.002270602 0.0010060184 -0.0014697994 -0.0014901559 -0.0025641557 -0.0012873344 0.0010376582 -0.0013150955 -0.00071274827 0.001758507 -0.0013448243 0.0019284764 -0.0006195228 -0.0002832585 -0.00031697526 9.0639405e-05 -0.0009520567 -0.0014029121 -0.00069525826 0.0014456239 0.00022448286 -0.0007197373 0.0005342301 0.0017084207 0.0011802748 -0.00034966422 -0.0014610512 0.00044967947 0.0008817114 0.00036678676 -0.00019034374 0.0010500401 0.0018386209 0.0010774505 0.0007253253 -0.00058223604 0.0008318869 -0.0018661029 0.001136104 0.0012491151 -0.0016151237 0.0010035557 -2.769019e-05 0.0006290799 -0.00083707867 -0.0019301437 0.0010177857 -0.002023426 0.0004647236 0.0011984163 0.001487531 -0.00030858145 0.0029674005 -0.00020639168 -0.0016963396 0.00013633803 0.0013977624 0.00085357873 -0.00031053924 0.0007351933 -0.0005512193 0.0009756986 0.0014577078 -0.0010154477 0.0010872397 -4.5729983e-05 -0.0014909627 -0.002176484 -0.0008942596 0.00050069514 0.0015588572 0.0016455813 0.00077508675 -0.0013641602 0.0018382367 -0.00020073213 0.0013893272 0.0007240537 -0.0009418939 0.0005147055 0.00038526638 0.0005546782 -0.0010160469 -0.0008682934 0.0016943741 0.0017705451 0.0005085339 -0.0007467285 0.0016042612 -0.0013929878 -0.00045031108 0.0015924782 -0.00021299052 0.0013953317 0.0018489023 -0.0013194601 0.0004697571 0.0005482947 -0.0010502737 0.0007511537 -0.0003032635 -0.0017822173 0.00080202654 0.00010301112 -7.3014766e-05 -0.00046456204 -0.00074849307 0.00020821864 -0.0013178838 -0.0016807974 -0.00018555678 0.0024406523 -0.0021436913 -0.0013924654 -0.00016674613 -0.0016597353 0.00011914688 0.0011848105 -0.0013752877 0.0013902483 0.0007719854 -2.5481813e-05 -0.001440914 0.00023985609 -0.0012881487 -0.0019965097 -0.0012227444 0.0015688982 0.0002483164 -0.00090817333 -0.0012467899 -0.0010609784 0.0008570203 0.00045303564 0.0012140583 0.0014540476 0.00031121605 -0.0017651474 -0.00067791133 0.0004015494 -0.0010800423 0.0015417676 -0.000747255 -0.0015590198 -0.0014956144 0.0006457909 -0.0010317737 -5.8233116e-05 0.00076538225 -0.00093715254 -4.7841804e-05 -0.0013353664 -0.0006952558 0.0007503215 0.00064637227 -0.00035494406 -0.0017117216 0.0001268964 -0.00016581203 0.00029884223 0.0008409497 -0.00045179253 0.0007313393 -0.00012701828 0.0016255082 0.000857936 0.00042783073 -0.0017191779 0.001971765 0.0004687353 0.0013205365 -0.0004894029 0.0008739415 -0.00090136623 0.00080418674 0.0007321623 6.611352e-05 -0.00091841986 -0.001505926 -0.00016497911 -0.001812713 -0.00013422617 -0.0012270423 -0.0012923905 0.0016064581 3.1702122e-05 -2.5168218e-05 0.0010368146 -0.00094284763 -0.00087238534 0.0018246478 -0.00064598996 -5.9000537e-05 -0.00046241237 0.002002129 -1.9096241e-07 -0.0003762078 -0.0005787082 -0.00023253441 0.0015844969 0.00020376172 0.0010810283 0.001301756 0.0001848016 0.001337145 7.957004e-05 2.7535949e-05 0.0013109277 -0.0006844073 -0.001352486 0.00059276295 0.000522141 0.0013464023 0.0020592674 -0.0016688226 -0.00080147537 0.00039413947 0.00054634805 -0.00075649377 0.0009252291 -0.0010614146 0.0016379844 0.00042609876 -0.0015390604 0.0012272461 0.0004799049 -0.0017578469 0.00083050504 0.002464947 0.00026577627 0.0014054786 -0.0012994244 -0.0010617853 0.0015042125 -0.0020512938 -0.0010534978 -0.0010133352 -0.0022752476 -0.0003065712 0.00033131015 -0.0017956599 -0.00042215612 -0.00056978234 -0.0016503236 -0.0023078811 0.00046013328 -0.00056532834 3.386509e-05 0.00022386767 0.0016409523 -0.00029081936 -0.00028041477 -8.45164e-05 0.0007087059 -0.0019116229
1 -0.001568021 -0.0009676173 -0.0004240683 0.00082813203 -0.0023853448 0.0011436432 -0.0016878 -0.00023371483 0.0022177342 -0.0008708235 -0.00032199128 -0.002161891 0.002900725 0.0021272455 0.000987266 -0.0009877434 -0.002225112 -0.0019982362 -0.0014815157 0.00020349964 0.00020050367 -0.0018838012 -0.0015498821 -0.0038405661 0.00015149049 0.00033500814 -0.00027497165 0.0016971402 -0.0016096941 -0.0018205087 -0.0016044716 -0.0007900311 -0.0024839758 -0.0034727072 0.0004754643 0.0011934565 -0.00051039737 -0.0021062517 -0.0006171855 -9.016171e-05 -0.001961364 0.0010649858 0.00011062812 0.00049472164 0.0016610578 -0.0019871981 3.8735576e-05 0.0005620677 -0.0025085413 -0.0022639595 -0.0022107384 -8.918456e-05 -0.00048750418 0.00029198796 -0.00041744357 0.0009117357 0.00094423984 -0.0019847194 -0.0019445948 -3.3825625e-05 0.0007795077 0.0014810518 0.0018434732 -0.00038160235 0.0012599129 -0.0015195356 -0.0012846873 0.0021160864 0.0021273228 0.001803582 -0.00079361524 -0.001052441 0.00029211867 -0.0015000445 5.2011852e-05 -0.002234899 -0.0014894066 -0.00018447875 0.0007043553 -0.00031023085 0.0012235068 -4.6630546e-05 0.0005184083 0.004366675 0.00040679274 -0.0007320144 0.0025583233 -0.0015179614 0.00061617413 -0.0031105145 -0.002205709 0.0002890576 -0.0016522418 -0.0016248324 0.0023073563 -0.00013224239 0.0028432072 0.003393211 0.0014458471 -0.0016281055 -0.0014992058 -0.00025833285 -0.0010410398 0.0014263229 -0.0021962512 -0.0032541433 -0.0016307076 0.0017233846 -0.0009121445 -0.00087879616 0.0012588877 0.0011979826 -0.000683531 -0.0009202834 -0.0010035841 8.177312e-05 0.0013644504 -0.0028536606 -0.0007093526 0.0012286017 -0.0010807099 -0.001125279 -0.00021192135 -0.0015606923 0.0005305456 -0.00096511724 -0.001142279 -5.7334415e-05 0.00079875265 0.0019750264 0.0021452976 0.0010120486 -0.0022649926 0.00023474632 -0.0014439083 -0.00032505812 -0.00069100235 0.0008159927 0.0027376458 0.0017954017 0.0011406955 -0.0012973985 -0.0011979112 0.0018815672 -0.0028908213 0.0002777277 -9.0241294e-05 0.0015840838 0.0022393663 -0.00048296372 -0.0011725295 0.00051630725 0.0006915519 0.00054464 -0.00023263253 -0.0006393727 0.0025218956 -0.0038932767 -0.00073695095 0.0012250686 -0.0009570223 0.00035345263 -0.00080618536 -0.0030173385 0.0016320528 0.0009322889 -0.0006515114 -0.0016605172 -0.0021504739 0.0006926646 0.00035940108 -0.00018254308 0.00032504566 -0.0012400049 -0.0014188872 -0.000961931 -0.0007248016 -0.00090820115 0.0006185172 0.0011154345 0.0013988768 -5.761603e-05 -0.00015137116 -1.7098137e-07 0.00013180231 -0.0014305122 0.0015054145 -0.0019281101 5.0928033e-05 0.00233314 0.00031902958 0.00052936014 -0.0012578969 -0.00026204056 -0.0015065344 5.1030896e-05 -0.0010397239 0.0020351992 0.002635091 -0.00085704884 0.0015493743 0.0010917346 0.00035756218 0.00031629068 -0.0015218061 0.0016612604 -0.0013072639 -0.0006520101 0.000500261 -4.6625864e-05 -0.00047735503 0.00044191847 0.00032038946 0.0014876127 -0.0012361708 -0.00011695065 -0.0006945237 -0.002255999 0.0005835314 -0.0015155398 0.0010571693 -0.00085616286 -0.00021891351 -0.00034444203 0.0020149674 -0.00024287045 -0.0029993542 -0.0017373763 0.00013773519 0.0023835185 -0.00033333752 -0.0017329119 0.00012894602 0.00015385583 0.0008381556 0.0011507006 0.0004990337 -0.0022494304 -0.0009554447 0.0038148398 0.0017059625 -0.00096115674 0.0007825005 0.0028398852 -1.4358919e-05 0.0010842993 0.0029787985 -0.00023126465 -0.00030874342 0.0003823862 -0.00075339933 0.0012637391 -0.00025551248 -0.00033071724 -0.0006583588 -0.0011853967 -0.0011001636 0.001908077 0.0014690715 0.00060931273 -0.00067876006 0.001915544 0.0005686972 0.00025133858 -0.0015470764 0.0008277951 -0.0010637679 0.00025814492 0.002180496 8.746018e-05 0.0018647292 -0.0002641012 0.00026134888 0.0036578756 -0.0017035672 -0.00059645594 -0.0028428375 0.00049749704 0.0008218984 -0.0024831612 0.00071059854 -0.00083573465 -0.0001417075 0.0018419859 0.0013085749 -0.0011933825 -0.0012430514 0.0011956411 -0.0022105735 -0.0016375541 -0.001381343 -2.4427616e-05 0.00095533277 0.0014539646 0.002767202 -0.0017822509 0.00091276 -0.0014432037 -0.0005388772 0.00041974935
MarkKerr -0.001298791 0.0013571257 -0.0009679007 0.0012702018 -0.0005235257 -0.00042422055 -0.0003083748 0.0005179307 0.0009926286 0.00071994925 -1.51441145e-05 -0.0008906699 -0.0003657552 -0.0005432241 0.000461392 0.00044174297 -0.0005178238 -0.00064002455 -0.0010302875 -0.0014052269 0.0015774873 -0.0010945834 -0.0012839726 -0.0014489938 0.0012173081 0.0006419954 -0.0004467246 -0.0010972457 0.0005613999 0.00069616176 -0.00024163017 -0.0013226153 -0.00017506175 0.00089570845 -0.0016276956 -0.0002774303 -5.66582e-05 -0.0013834032 -0.0016561277 0.00045698628 -0.0012615295 0.00075864716 -0.0016232217 -9.239703e-05 0.0007734019 -0.0007810673 -0.001562161 0.0010905189 0.0011025654 -0.00016698072 0.0014901697 -0.0002292663 0.00062987406 -0.00047404974 2.4772184e-05 0.0009277209 0.00013122597 -7.000923e-05 2.3973027e-05 0.00068114133 -0.0010392474 -0.00076830224 -0.001633768 0.0012419897 0.0010370816 -0.00043851705 0.00107077 -0.0015028437 0.0013560139 -0.00044696158 -0.00035233388 0.00066013495 -0.00053440395 -3.92378e-05 0.0011245587 0.00014708826 -0.0002863569 -0.00012771052 -0.00057832815 0.0014711043 0.00013804651 0.0016342178 0.0013934632 0.00072902365 0.0009791816 0.001302738 -0.0014693553 0.0009509696 0.001171029 0.0015797637 -0.00046307378 0.00024570266 -0.00033974313 0.0012131496 -0.00067607814 -0.0013765187 -0.0008968572 8.443736e-06 0.0016063326 0.00014723533 0.0016065113 0.0012692274 0.0013483659 0.0012991466 -0.00094736763 0.00046466172 -0.0015949759 0.0017250631 -0.0016493971 1.01101095e-05 -0.0015963399 -0.00019551638 -0.00027956924 -3.6532532e-05 -0.0012497541 -0.00040371955 0.0015871994 -0.00014233807 0.0013731053 -0.0010423295 0.0006906816 -0.0012337107 -0.0013255121 0.0007635318 -0.00017983589 -0.0005385412 -0.0012359257 0.00019275156 0.0006384661 0.0001353247 -0.001643821 0.0007793687 0.0014474272 0.00031287267 -0.0015876413 -0.0001871533 -0.0012558915 -0.00074605853 0.0016475349 0.00033202648 -0.0014696019 -0.001183138 -0.00078325317 0.0016853677 0.0005610372 -0.0013013114 0.0016622749 0.000557458 0.00065730873 -0.0006547509 0.00032553257 0.0009491422 0.0012012844 -0.0007612442 -0.0014892948 0.001509668 5.435049e-05 0.0013766362 0.0007479581 -0.0008292256 0.00086154626 -0.00035548277 0.0010113913 0.00073550123 -0.00020084526 0.0010071903 -0.0008156375 0.0007509486 -0.001070561 0.0006699495 -0.00020527511 0.0013838756 -0.00067658455 0.0014314115 -0.00019057422 0.001065656 -0.0011039061 0.0007065229 -0.00035986275 0.0010418721 0.00020033178 -0.00046147595 0.00044357608 2.8681729e-05 0.00018607028 -0.0005959519 0.0005789653 0.00050014566 -0.00019499677 0.00034181977 -4.3931712e-05 0.0013921463 -0.0012821496 0.0006951667 -0.00070935924 0.00031104463 0.00023782733 -0.001311311 0.0015555817 -0.001591207 0.00026811424 0.0009331472 -0.0013183006 0.00085500075 -0.0016836601 -2.4537135e-06 -0.00054607546 -0.0015870857 -0.0016189798 5.4369528e-05 -0.00095868483 -0.0010291054 -0.00068001787 0.00047520248 0.00042325037 0.0011435822 -0.0014262913 -0.0013079676 0.0009881008 0.00013610559 0.00055393326 0.0013833503 -0.0015392192 0.0016798703 0.00038835386 0.0015553967 0.0004323606 -0.00087155885 0.00011911933 -0.0016063754 0.00011995456 0.0010292777 -0.00014339235 -0.0015439066 0.001106172 -0.001331336 -0.0011246116 0.00037825684 0.0012355344 0.0007454769 0.0011117489 0.0001621307 0.0009132878 -0.0010301493 0.0015242902 -0.001635415 0.0007158772 5.9140428e-05 0.000639968 -0.0003675158 -5.5980086e-05 -0.00015766427 0.0014462003 0.0015203079 0.0006632137 0.001663337 -0.0015344768 0.00017430143 -0.0007726052 0.0006213718 0.00066072366 9.854841e-05 -0.00044288478 -0.0013838356 -0.0010693325 0.000482441 -0.0009919943 -0.00023352292 0.00067116326 -0.0007280524 -0.0014185006 3.8198774e-05 -0.001436911 0.0012594167 -0.0013142806 -0.0016390715 -0.00012075593 0.00023779317 0.0012959909 -0.0015404101 -0.0007461708 0.00020911288 -0.0015294761 -0.001209697 0.0009283719 0.0016027892 -0.0012812257 -0.0015654456 -4.163023e-06 -0.0008806723 -0.0013605001 -0.0014472011 -0.00026456892 0.0005475727 -0.0015433601 0.0005343151 0.0007275891 -0.00013930649 -0.00078851875 0.00076649984
TheSmashingMachine -0.0011884734 -0.00023610622 0.00056948775 0.0011316187 -0.00083788 0.0014722261 0.0012037149 0.0010408615 -0.0007776617 0.0014900735 -0.00044519815 3.7777925e-05 0.0007909666 -0.00021574709 -0.00040019932 -0.0005778608 -0.0003528812 -0.0009721658 -3.8471404e-05 -0.00043688098 0.00012982986 0.0007954967 0.0006235504 0.00051287573 0.00011938693 0.000607288 -0.0016439981 0.0013895661 0.00067146873 -0.00020257704 -0.0013949308 0.00054313865 0.0012941597 0.0009254169 -0.0011982386 0.0009063107 0.00034514535 -0.0013826098 -0.0010868658 -0.0009785816 -0.001549219 -2.3209472e-05 0.0009400544 0.00047782753 0.00023078985 -0.00034506613 0.0011547952 2.243563e-06 0.00056742725 0.00021115642 -0.00044387637 -0.00070951984 0.0008408715 9.957641e-05 0.00031455452 0.0015319824 -0.001267718 -0.00016464342 0.001408332 -0.00077066035 7.689904e-05 0.00022511995 -0.0007078068 0.0010484033 0.0016652406 0.00090445206 0.00016490085 -0.00064572995 -0.0004756342 -4.690728e-05 -5.8767564e-05 8.620531e-05 0.0008768949 -0.0013891605 -0.0014838699 -0.0002519615 -0.0008762527 0.0010716332 0.0003248106 5.9885646e-05 -0.0014464989 -0.0003932396 -0.00074095855 -0.0007778393 -0.0016124417 -0.0008122601 0.00070525496 -0.0012933234 0.0012586848 -0.00018314844 0.00039754764 -8.192719e-05 0.0015446681 -0.0016384965 0.0009969128 0.0010781579 0.0005348101 0.0012326111 0.00029331358 -1.9371762e-05 0.00043290976 -0.000684652 0.0011988485 -0.0013909893 -0.0013748524 0.00051281875 -0.0012076135 -0.00023835375 -0.00081556954 -0.0011069144 -0.001127358 -0.000500299 0.00031053866 0.00010893573 -0.00045959064 0.0008040802 0.0011521932 -7.1335366e-05 0.00086340704 0.0005559359 0.0004968167 -0.0011051736 9.705568e-05 0.0005077281 1.37958605e-05 -0.00097576226 -0.0014091703 -0.001211288 0.0011532119 0.00035380016 0.0008194448 -0.0014113674 0.0013116904 -0.0008384596 0.00048212532 -0.0013005461 -0.0009173298 -0.0017286511 -0.0010389963 0.00051195646 -0.00059450977 0.0016954371 0.0013282651 0.00092183956 0.0009069911 -0.0012336634 -0.000617445 0.0009678821 -0.0014203024 0.0013911347 4.791447e-05 -0.0015971884 0.0005152024 0.00042979987 -0.0010010966 -0.0005065715 0.0001254518 0.00121983 0.0011574463 0.0013103758 -0.00031092376 -0.00017535497 -5.1656475e-06 0.001409147 0.0003197023 -0.0009156224 0.0011061066 0.00015627938 -0.0017197075 -0.0011873955 0.00058420567 -4.261713e-05 -0.00031991853 -0.00057651696 0.0008996746 0.0017051684 -0.0013140176 -0.0017736916 0.0012532634 0.00025057167 0.0016143385 -0.00079128233 0.00030874118 -0.00088240084 0.0011141252 -0.00064268307 0.0008929014 0.000799701 0.001549468 0.0014155626 -0.0015981571 0.0010957945 6.745252e-05 0.00053135137 0.0007257142 0.0001951999 -5.856864e-05 0.0015671592 0.0010373 6.286986e-05 0.001054401 -0.0009746896 -0.00015759219 0.00028466288 0.001199659 0.00079278543 0.00040173542 0.0010726453 -0.0006532252 0.0005194218 0.00035979506 0.0010313443 -0.0016976633 0.0017188491 -0.0011200567 0.00022771738 0.001496543 -0.0016502608 -0.0011062 -0.00052964245 0.001509273 0.00042015998 0.0015196259 -0.00090445724 0.0015845762 -3.1790278e-05 -0.00035414784 0.00079646177 0.0004249587 0.000558517 0.00042834945 -0.0012160402 0.0010307594 -0.00048339152 5.473196e-05 -0.00011112629 -0.000531379 -0.0012929928 -0.0007126735 -0.0013766498 0.0011982917 -0.000618141 0.00084357965 0.00045945926 -0.0013176391 -0.00047418335 0.0013334432 -0.0013033907 0.0005506605 0.0014704952 0.0011715536 -0.00012356663 0.0017377506 0.0011709204 -0.00016808732 0.00032431717 -0.0014865419 -0.00028707474 -0.00092146307 -0.0010799556 0.00085082906 0.0002410146 -0.0008614546 -0.00082592585 -0.00091465906 -0.00067093904 0.001063042 0.0005613178 0.00087797677 -0.0002224934 0.00049718405 -0.0008151595 0.0015631581 0.0008699075 -0.001274063 -0.0015789542 -0.00035230143 -5.1301995e-05 -0.0006907598 -0.0019002222 -0.001530554 -0.00032341405 0.00059949607 0.0011196199 0.0002579006 -0.00051098695 -0.00053118734 0.00043502523 -0.0015668963 0.0011620343 -0.0011364672 0.00040331628 0.0005178291 0.0012594163 0.0008030746 0.0011825081 0.0013472337 0.00064650143 0.0013989065 0.0015179557
BMF -0.00014266855 0.001123498 0.0022154832 -0.0013572295 -6.904048e-05 -0.0019406372 0.00134713 -0.0021621976 0.0006462072 0.0007702447 -0.0020168982 -0.0013193587 -0.001039267 -0.0007287644 -0.00019762776 -5.5187243e-06 -0.0009074635 0.0006796011 -0.00053394085 -0.0010111068 0.00226004 -2.0515998e-05 0.0018369835 -0.0034312673 -0.00028914213 0.00075436546 0.0016158088 0.0013617994 0.0008026764 -0.001982369 0.00011159661 0.00041509946 -0.0023945079 -0.00021990917 0.0021800594 0.0010957879 0.0005876382 -0.00021550365 -0.0005729869 -0.0004399655 -0.0018062769 0.0020881768 -0.0007485911 0.0017997809 -9.3556824e-05 -0.0017617566 0.00304663 -0.0026491198 -6.117714e-05 -0.00271093 -0.0028821132 0.0018643382 0.00129662 0.0004084022 0.00039368097 -0.0018306752 -0.00037952748 -0.0008013831 -0.0009647064 -0.00039930549 -0.0024183795 -0.0001417337 0.00020783703 -0.0023327102 -0.001894253 -0.00024004173 0.00091979216 -0.0015167693 -0.0003635374 -0.0016943286 -0.0027697105 -3.9671624e-05 -0.0016531269 0.0006617649 0.00021060045 -0.0006299478 -0.0005278017 0.0007111848 0.0010661983 0.00026017372 0.00032866755 0.0020734032 0.0009028095 -0.00054785144 -0.00030953166 -0.0010166528 0.001323505 -0.0006671614 -0.0024128188 0.0001738885 0.0016948837 0.002992238 -0.0012183669 0.0012723106 -0.0012837766 0.00072916533 -0.001095542 0.002633365 -0.0002740986 -0.0013164907 0.0011084444 -0.0013159729 -0.0012041847 -0.00019391671 -0.002181538 -2.9296038e-05 0.00082859583 7.885737e-05 0.0019405652 -0.00011999417 0.0022178597 0.0005687681 0.00010759046 0.0018957054 -0.00030749632 0.001308218 -0.0007969729 0.002206892 -0.0015263604 0.0014489033 0.0025937993 0.0018686283 0.0023995978 -0.001612176 -0.0007368053 0.0017486304 0.0012558753 0.0005337455 0.0015547192 0.0011786165 -0.00028534443 0.0013608456 0.00048480128 0.0011315728 -0.0004987048 -0.00019825877 0.000118391945 -0.00028986114 -0.0005893542 -0.000113395705 -0.00041250294 0.0007419586 0.0014018781 0.002293312 -0.0036173153 0.0031748826 -0.0015611872 -0.00030746585 -0.00023446449 0.0004232776 -0.0022491314 -0.0017396027 -0.00055210636 0.0014853481 0.0020406698 0.0003525048 0.0016323203 0.00064413087 0.0009807217 0.00024304548 5.0938208e-05 0.0010338812 -0.002785466 -0.0002512816 0.00047066127 -0.0008072797 -0.001472127 -0.00029358384 0.002676965 0.00088425213 0.0010304732 -0.0010607401 -0.0012175905 0.001589007 0.000608595 0.00077165186 0.00014614392 -0.0022824837 0.0017428204 -0.0010948912 0.00027392872 0.00020399489 -0.00221438 0.002169367 0.0016676236 -0.0011040823 0.0012905645 0.002109959 -0.0017963975 -0.0014091716 0.0014957344 0.001687237 0.0014247035 -0.0007429091 -0.0020971019 0.0012538299 -0.0016904558 0.0010778173 0.001920634 -0.0020589095 -0.00021805527 -0.0029336421 0.0018455518 -0.0012370516 -0.00025970448 -0.001452845 0.0015079089 -0.0015024049 0.0012555389 -0.0009078946 -0.0030497673 -0.0022639595 -0.00048369876 -0.0010649619 -0.00090126594 0.0014271217 0.0016183596 0.0012965571 -0.00062723405 0.0015732421 -0.0002914177 -0.0012477993 0.000825974 0.0009276778 0.00036970808 -0.0002642922 0.0003774325 0.0026642957 -0.00010600987 0.003641567 -0.0012478331 -0.0023149978 0.00035449746 -0.0015217541 0.001069778 0.00256733 -0.0012892256 0.00053275423 0.0008576516 -0.00095672306 -0.0016168621 0.001234586 0.0022152923 0.0017090655 0.00034817532 0.00075719994 -0.0021338933 -0.0006833169 0.0017001085 -0.002045364 -0.0009626731 -0.00063377095 9.609085e-05 -0.0009607253 -0.0016385381 -0.0003588451 0.00021795444 -1.3938127e-05 0.0023891812 -0.00040679553 0.0017443323 0.0015753104 -0.0005111174 0.00082298135 0.0015080046 0.0015607536 0.0006270169 -0.00032070547 -0.0014253645 -0.0024375895 0.00016371583 0.0004768629 0.0015356586 0.0024263922 -0.0014910054 0.0020094137 -0.00064085424 0.0017482504 0.0018091695 0.0008317247 0.002321013 0.00022762656 -0.0017428233 0.0018464802 2.1744204e-06 0.0008234518 -9.66023e-05 -0.0013544325 -0.0005211591 1.5360158e-05 0.00033168937 -0.0011287124 0.0019500323 -0.00042700465 0.002154977 -0.0022063842 -0.00031212077 0.00037460285 0.0025024663 0.00065994787
305 -0.0015480187 -0.00022103588 0.001455492 -0.00023927717 0.0006268845 0.0007901967 -0.001431817 -0.0008462007 -0.00014978058 0.0008216458 -0.00027169884 0.0001688213 -0.0004076888 -0.0014757271 -0.0012759372 0.00093736185 0.00018008698 -0.00053102843 0.00047263343 -0.0011379609 0.00031175613 0.0007812202 -0.00041295873 1.0079647e-05 -0.0011573388 0.00038017533 0.0014082022 -0.00048016314 -0.0013593052 -0.0015239156 0.001574125 0.0016405989 0.0004147693 -0.0006846957 -0.00075564143 -0.0015304909 0.0007750778 0.0009832362 -0.0012117357 0.0012176805 -5.9600217e-05 0.0009740622 0.001399161 0.001642809 -9.370352e-05 -0.0016327302 0.000859773 -0.0011964104 -0.0017390198 0.000730347 0.0010898685 0.0013437044 0.0009259474 -0.0014823742 -0.0012509675 -0.0018707479 -0.00013365106 -0.0013482653 0.00063305226 -0.0014074388 -0.00092049525 -0.0016389815 -0.001364855 -0.00020245006 -0.0017474513 0.0008369312 0.00036611952 0.0006595847 0.0017109539 0.0003350029 -0.0013394133 0.0005706217 0.0013737145 0.000986121 1.7041801e-06 -0.0006367857 -0.0014579727 -0.0013369181 -0.0010366826 -0.0010490592 0.00025676866 -0.0005594065 0.00022667459 0.0015029468 -0.0002255219 0.0012768621 0.0008840875 0.00089538074 -0.0004377414 -0.00013511053 0.00021020194 0.00015063824 -0.00052329025 -0.0014612365 -0.0011810507 0.0010667986 0.00055710727 0.0019408229 -0.00057123066 -0.0013546523 -0.0010080186 0.0011829823 -0.0016549622 0.0011402055 -0.0010426684 -0.00057530723 0.0010621501 -0.00014378857 -0.0006750992 0.00027252882 0.0006687982 0.00096608896 0.0015825396 0.0007434553 0.0011827764 -0.00039263148 -0.0009532597 -0.00081315386 -0.0012142934 -9.892411e-05 0.0013344422 -8.131474e-05 0.0011844635 0.0004506374 -0.001038787 0.0013681338 -0.0012159335 -0.0014234493 0.0017691508 -0.0004550692 0.0009845372 0.00068896456 -0.001393427 0.001514495 0.00062824314 -8.843718e-05 0.0010668508 -0.0015180595 -0.0004768579 0.0017366497 0.00021910614 -0.0016052392 -0.0007463441 0.0014913445 0.00050887227 -0.00053293875 -9.174307e-05 0.001506865 0.00016569394 -0.0011504015 9.531412e-06 0.0013388931 0.0010534412 0.00014162899 0.00042875687 0.0007425946 -0.00074069685 -0.00027250603 0.00070005655 -0.00021467688 -0.00079071574 0.00050472905 0.0007194881 -0.0013160565 0.0012749225 0.00011541987 0.00087146956 0.0012340149 1.8610604e-05 -0.0007033801 0.0011426663 -0.0016579389 -0.00012184119 -0.0006658771 0.0005110234 0.001595544 0.0014362714 -0.0016802549 0.0016038424 -0.0013485296 2.2146869e-05 -0.001165512 4.4070493e-05 0.0004283976 0.0012200961 0.00094725104 -0.0009749905 0.0016427652 -0.0017113432 -0.0015494694 0.00082756154 0.0006791858 0.0015794645 0.00071486854 0.0009666022 0.0010110084 -0.00018740621 -0.00054354675 0.0013523037 -0.0014763108 5.0471896e-05 -0.0014505534 0.00088880636 -0.0003192891 0.0011398663 0.00071183854 0.0002495743 0.0011018738 0.00012926415 -0.0001737771 -0.00091615383 -0.0012273955 0.00097366143 0.0009924714 -0.0002652979 -0.0008129294 -0.00055886403 0.00053703226 0.00076594437 0.00046887275 -0.00035823477 -0.0010946823 -0.0006729501 -0.00083425106 0.0005725796 -0.0014469174 0.0014182277 0.00026573977 0.0015533018 0.0019192806 -0.0009668958 0.00020516917 0.0011987209 0.0006122269 0.0002457923 -0.0006149808 -0.0016049101 -0.0011437879 -0.0010006481 -0.0009420947 -0.001693295 -0.0015812297 -0.00040520428 0.0005729858 0.0007907245 0.001621899 -0.0016366658 0.00045607158 -0.0009915459 -0.001248537 -0.00024238508 -0.00024048242 0.0016407238 0.0013546151 -0.0015477862 0.0012128289 -0.0008509892 -0.00070073805 0.0013404823 -0.0015275594 0.00062099757 -0.0006862763 0.0012596701 0.0006333588 0.00085934025 0.00035940623 0.00084249733 0.0015129327 -4.847249e-05 -0.0015866864 0.0002588646 0.00031915508 0.0008356469 -0.00085518503 0.00012840597 0.0012740897 -0.0015203712 0.0003662549 -0.0010062671 0.001281234 -0.0009878423 -0.00082641403 -0.00066222245 0.0001011036 -0.00095238944 0.0014340259 -0.00048750162 0.0014544715 0.0013075463 -0.0010806903 -0.0008267694 -0.0004281531 -0.0012848963 -0.0016764846 -0.0011247398 -6.313385e-05 -0.00019757007 -0.00015704037 0.0011931427 -3.7528975e-05
thegluttonybegins 0.0010418901 -0.0015853632 -9.466591e-05 0.00021074177 -0.00034025812 -0.0015554869 -0.0004308927 -0.00018005352 -0.0012996477 -0.0012663738 0.0003831056 0.0001668823 -8.818088e-05 -0.00061790424 -0.0011146767 -0.001411023 -0.001093245 -0.00020989298 0.000514538 -0.00094154576 0.00074222893 -0.000660587 0.00048406073 0.0004342231 -9.771087e-05 0.00033958163 1.6080914e-05 -0.0015799159 -0.000702101 -0.00054795085 -0.0016525455 -0.001152995 0.00011959497 0.00074941595 -0.00047496404 0.0005171888 0.0010605825 0.0005981708 0.00039300811 0.0011715104 0.000758308 -0.0011202449 -0.0011919457 -0.0009811297 -0.00069782673 -0.00023941079 0.00032558665 -0.0016189027 -0.0014512057 0.0014235713 0.00066471193 0.0012740206 0.0009643254 -0.00015896244 -0.0012385822 0.0015139903 -0.00094822905 0.0009155674 -0.0006169586 -0.0005443515 -0.00015922589 0.00092015835 0.0004092767 0.00096471515 -0.0005201694 0.000527069 0.0014342484 -0.00044548826 0.0015735715 0.0011639537 0.0013510755 0.00025396084 -0.0015737467 0.0007848535 -1.72375e-05 -0.0015415589 -0.00077314995 2.5549554e-05 0.0013192466 -0.0015361204 0.0003544034 0.0010213018 -0.00017840322 0.0016595349 0.0014597289 0.00082840654 0.00022142415 -0.0016194388 -0.0008157617 -0.0015819634 0.0014367746 0.00046124938 -0.00071619014 -0.0006363769 -0.0010436364 -0.0014321328 -0.0015122558 -0.0012597992 -0.00015809375 -0.00046655815 0.0014190914 0.0005707361 -1.3062381e-05 0.00075374637 0.0015541103 -0.0013240718 -1.1599041e-05 -0.0012697018 -0.0009788855 -0.0009968478 0.0014288886 -0.00037575746 -0.00057594525 0.0013243039 0.0004863164 -0.0002524904 -0.0006541078 -0.0013830257 0.0009736412 -0.00096018414 0.0016288199 0.0010231526 -0.0006668075 0.00079235807 0.0014347539 0.00039338996 0.00066639064 0.0011458856 0.0009800768 -0.00049245555 -0.00062254246 -0.0001881296 0.0011921141 -0.00079419656 0.0011625029 -0.0004117376 0.0015416292 -0.00038774847 -0.0013987666 -0.001337804 0.00028073415 0.0013211381 -0.0011136949 0.0013002455 1.5692785e-07 0.0002008999 -0.00076807203 -0.0016620519 0.0012943661 -0.00079478364 9.352004e-05 -0.00051157956 0.00081907935 -0.00031550846 0.00024807593 -0.0013302639 0.0016241455 -9.5324474e-05 -0.000116350246 -4.40242e-05 -0.0007886847 -0.0015383334 0.00087332143 0.0010209272 -5.4902863e-05 -0.0011041751 0.00016706588 0.0008217932 -0.00027021545 0.00068977894 0.0005885372 -0.0003144642 0.00035139755 0.00046190526 -0.0007850707 -0.000567405 -0.0014174827 0.0007348885 -0.00063088594 -0.0014509957 4.540442e-05 -0.00053430244 0.0006567554 0.0016520356 -0.0010106558 -0.00065492257 -2.1437882e-06 -0.001399142 -0.0014441719 -0.0010347746 -0.00017287012 -0.0003099352 6.8945694e-05 0.00024991273 0.0005352488 0.0012196396 -0.00029378769 -0.0007236115 0.00053907186 0.00030402094 -0.0010870703 -0.0010714529 -0.0011652529 -7.557054e-05 -0.0004436334 -0.00018731772 -0.0004946105 0.00025542814 6.923382e-05 -0.0006049556 0.001470308 -0.00033387146 -1.6399194e-05 0.00088068424 -0.001414128 0.0011332259 -0.000886843 -0.001056332 -0.0007279857 0.000490729 -0.0014989766 -0.00016492268 -0.00031894085 0.0016467897 -0.0012612896 -0.0011659563 -0.001539974 -0.0012734439 -0.0015491601 -0.0013969146 0.00083878543 0.0011894009 0.00018313271 -0.0004862795 0.0012881928 0.001599771 0.00061652414 -0.0008767611 -0.0013313693 0.0014184776 0.00038325042 -0.00060860417 -0.0007983806 -0.0014363079 -0.0010862178 0.0011478106 0.0014505985 0.0010433937 0.0010796981 -0.0013429679 -0.0014494823 -0.0005473405 -0.0008433674 0.0013991813 0.00063373195 -0.001470872 0.00022426306 0.0013777558 0.00031540403 -0.0009117097 -0.0007713233 -0.0002198976 0.00083869486 -0.0006128872 0.000544979 -0.0009967901 -0.001557616 0.0011945209 0.00037608598 0.00026405614 0.001333426 0.0003964333 -0.00042457704 -0.0004387051 -0.0016067402 0.0010612938 0.00031641475 -0.0005740855 0.00043531484 8.576794e-05 -0.0011651035 0.0008433601 -0.0004016225 -0.00021441164 7.1218004e-05 0.00043132692 -1.4246558e-05 0.00079375855 -0.0013806866 -0.0005091153 0.00028625573 0.0015402429 0.0005047817 -0.0013422921 0.0014589839 -0.00026501832 0.00010822213 0.000497286 4.114688e-05 -0.00019059004
tcb -0.0014856454 0.0015911803 -0.0007516034 0.00024378921 -6.177996e-05 0.0005909007 -0.00067883806 -0.00061287766 0.00070255285 0.0011134367 -0.0009820544 -0.0008583927 0.0017433591 0.0015194464 -0.000820151 -4.5024917e-05 -0.0017513848 -0.00097630767 -0.00022087652 -0.00080852635 -0.0016713223 0.0006292062 -0.0011263895 -0.0010992646 -0.00060597865 0.0016989193 -0.00026960048 0.00011929446 -0.00031458636 -0.0009508244 0.0011736026 -0.00045343782 -0.000301756 -0.0010424514 0.0013812647 0.0013128538 -0.0011418381 -0.0011791874 -0.00060436496 0.0005396035 -0.0006593676 -0.00029436892 0.0007966809 0.0010815151 0.0003801688 -0.00066657626 0.0016681862 -0.00014419791 0.00056989584 0.0004592211 -0.00023041684 0.0002210174 -6.4297536e-05 0.00017349106 -0.0013846875 0.0014195183 -0.0002212707 0.00035689666 -0.0017394124 0.0006967174 -0.0008759051 -0.0011324538 0.001347976 -0.00021254466 -0.0012645911 -0.0016148927 5.1788076e-05 0.0016754473 -0.0003436032 0.0013260124 -0.0006323918 -0.0017002003 2.8655454e-06 0.00014058776 0.00014786456 0.00016986982 -0.0010335395 -0.0013134064 0.00092682615 0.0008873048 -0.0013183807 0.00042736204 -0.000633592 0.001960316 -0.0014864716 0.0013839097 -0.00073589094 0.00041818555 -0.0006196767 -0.0017138353 0.00037290092 0.0016822941 0.0013296588 -0.0010290066 0.0014253985 0.0013832897 7.275902e-05 0.0016231759 -0.0002489386 0.0014392224 0.0004365194 -0.00085384364 0.0009591909 0.00120452 -0.0006570151 0.00084122847 -0.0014105443 -0.00073516864 0.00023174752 -0.0014113 0.0007781603 -0.00048127313 0.00035367877 -0.0008438447 0.0004093803 0.00075331243 -0.0013583578 0.0009267568 0.0009441865 7.924078e-05 -0.0005000149 0.0002252678 0.00013338345 0.0005395948 0.00054653065 -0.00066535047 -8.1032194e-05 -0.0010434528 -0.000579447 -7.818424e-05 0.00064716185 0.0013096811 -0.0013711738 0.0003675025 -0.0013057189 -0.0009184515 0.000729063 -0.00070293475 -0.0009913492 0.00029625837 -0.0011636615 0.0004472503 0.0002216399 0.001279222 0.00122917 -0.00070506905 -0.00043836262 2.3570112e-05 -0.0011459048 0.0015096162 0.00028705157 0.0016229481 -0.00073725206 -0.0010867964 0.00068263157 3.1359526e-05 -0.0010789187 0.0011725624 8.985217e-05 -0.0011953154 0.00026140167 0.0013761726 -0.0003411262 -0.0008718637 -0.0007131338 0.000676721 0.0010210093 -0.0013476564 0.0005496249 0.00088930473 0.0002854193 0.0009533824 -0.0004628766 -0.0007992829 0.0007593674 -0.0015649847 2.8955192e-05 -0.00074888417 0.0003374492 0.0014949582 0.0016239733 0.0012380285 -0.00068611663 -0.00043116388 0.00051726686 0.0014119138 -0.0007812036 0.0007096215 0.000889617 -0.00025724317 -0.0012875621 0.0009856338 0.00032058527 -0.00010785923 -0.0005986324 -0.0007450421 0.00070357264 -0.00082932576 0.0017426626 -0.0010405397 -0.0005112944 0.0006145034 -0.0008620238 0.0005567062 2.831728e-05 0.00078694796 0.0010777395 -0.00092011143 -0.00063778315 0.00020496418 -0.00072324683 0.0003977923 0.00040092683 -0.0010378088 -0.0005712823 0.00038526047 -0.0007441943 0.0014829795 0.00028121343 0.0016385639 -0.0010105825 0.00145522 -0.0016149494 0.0013189497 -0.0014001429 -0.0011130116 7.5051207e-06 0.0010448033 0.00036018377 0.0012270849 0.0009064291 0.0010480905 -0.00050177117 -0.00017209165 0.00041673018 0.0006124081 -0.0014811622 -0.00080967107 -0.00080825825 0.00010920142 -0.00016631173 0.00022217036 -0.0016515192 -0.0010378862 0.0011718054 -0.00103968 1.7939372e-05 0.000861056 0.001530031 -0.0006883548 0.0001029688 0.00015656388 0.0015439745 0.00015617444 -0.0008115955 -0.0009507059 -0.00010588243 0.00020803748 -0.0005743965 -0.000626037 0.00014613336 0.00070635957 9.6369535e-05 -0.0009030009 -0.00028078683 -0.0005673664 -0.00044721304 -0.00013704188 0.0011575534 0.000675023 0.00042732395 0.001182223 0.0011853953 0.00025559316 -9.108491e-05 0.0006768229 -0.00029531127 -0.00024934407 -0.0005064017 -0.0016524934 -0.0015660713 0.0008437649 0.0005565159 0.0015545477 -0.0006356268 -0.0012440785 8.152304e-05 0.00073300063 -0.00049410143 -0.001708829 0.0011107381 -0.000782087 -0.0014754933 -0.001524767 -0.0005810084 -0.00020091902 0.00083744526 0.00088527653 0.00032178874 0.0010724666
