34 300
foodporn -0.31546858 -0.07239281 -0.107795194 -0.13071206 -0.055611532 0.061406456 -0.0833841 0.23175797 -0.32105714 0.020287698 0.1815659 -0.12482761 0.004257031 0.030944124 0.15202264 0.11016706 -0.05299779 0.25113064 0.008205851 0.106462225 0.20142291 -0.1306374 -0.14054677 -0.10834903 0.07093591 0.09839588 -0.118560255 -0.24253349 -0.33872962 0.0070753032 0.038761005 0.13159645 0.07443497 0.13033248 0.0328019 -0.1154051 0.33900458 -0.020238059 -0.39584234 -0.027566932 -0.1771112 0.28004107 0.06158019 -0.31275064 0.08336609 -0.035139 0.022968346 0.058266178 0.1977409 0.034718852 0.3132157 -0.2014102 -0.056911882 0.08238616 0.063266315 0.052890327 0.20608091 -0.027038546 -0.3529252 -0.024216412 -0.10289694 0.16890477 -0.15526415 0.23735037 0.1468816 -0.005246498 -0.04017324 -0.052773133 -0.02388071 -0.10550878 -0.08797765 -0.13495202 -0.12165863 0.08007682 0.06308586 0.20743711 0.15901022 0.08803148 0.1802909 0.15498106 -0.038679834 0.10306562 -0.27817497 -0.13587227 -0.077564925 -0.044359013 0.31781644 0.015825648 0.542718 0.13558696 0.05491421 0.2288429 -0.3616995 -0.15052871 -0.07357812 -0.039565396 0.1992265 0.013714309 -0.2689706 0.14077973 0.073701404 -0.04211063 -0.06392923 0.112532035 0.12994821 0.017450653 -0.08079321 -0.2067191 0.011764913 -0.027191645 0.011087646 -0.051886108 -0.051662438 0.117752336 -0.15913463 -0.14880118 -0.34648967 -0.17193422 0.12594242 -0.019146904 0.012759187 0.053980704 0.10084442 0.3810901 -0.21141504 0.11646078 -0.28573775 -0.079393506 0.004171247 0.15948506 -0.10216774 0.17131834 0.016454633 0.09030667 -0.060705133 0.16944607 -0.007157839 0.22254582 0.1803678 0.20221587 0.32120287 -0.1823053 -0.08152523 0.08484982 -0.1791808 -0.10335234 -0.05518873 0.16283399 -0.10703988 0.015600233 -0.03374702 0.024569448 -0.20597316 -0.0747456 0.09497783 -0.028808175 0.06416735 0.15569136 0.14131097 0.16966161 -0.5431263 0.17371422 0.036466707 0.0026507066 -0.038117338 -0.1504726 -0.2528696 -0.3502154 -0.13621059 0.023138858 0.034436762 0.11285823 0.025382822 0.15856154 0.08880075 -0.05014607 -0.073427394 0.12464441 -0.029322049 0.26030278 0.061670452 0.055374525 -0.3581636 0.041459188 0.023836153 0.18690223 0.057546258 0.15874271 -0.34690174 0.06861512 0.02928756 -0.2801562 -0.111883424 0.14706863 0.00740456 -0.006327415 0.05886842 -0.0586012 -0.044546526 0.16957049 -0.09973205 -0.009993398 0.032317568 -0.22745065 0.2405213 -0.036866 -0.05285232 0.00908329 -0.07356629 0.11038616 0.09699423 0.12582949 0.23080371 -0.014178793 0.024526393 0.05750762 0.13841899 -0.054462906 -0.123662405 -0.18215445 0.045185633 0.042839434 0.24499413 -0.05348009 0.22768387 -0.14203706 -0.10192489 0.04974699 -0.09394272 -0.056612443 -0.39593726 -0.19378243 0.23213527 0.004924756 -0.022809722 0.21038145 0.020392835 -0.013796567 0.05925893 0.14847495 0.14041562 -0.2913995 -0.18961489 0.28998315 -0.113822974 0.17930363 0.11974948 -0.18585233 -0.009593888 0.08955721 -0.08583008 -0.06270416 0.03534287 -0.20572418 -0.319913 0.1293718 0.16533904 -0.24861829 -0.19463682 -0.18189482 -0.03745922 -0.08016497 -0.19789337 0.07162311 -0.10732479 -0.2770066 0.08039702 0.0765612 -0.12669627 0.051792167 0.083828 -0.06617585 0.2071049 0.071434595 0.11373164 0.20053877 -0.20404291 -0.075873986 0.11558346 -0.1102236 0.018904822 0.1459364 0.12752023 -0.02449885 -0.0015871144 -0.23076415 0.023858458 -0.013460352 -0.18750408 -0.007894624 -0.124842204 -0.26876986 -0.11935149 0.06062247 0.15176384 0.15242475 -0.19207852 0.25256625 0.2907459 0.26906002
food -0.25134557 -0.23995864 -0.27367517 -0.15133654 0.08124222 0.094517544 0.082636304 0.17694983 -0.572363 0.06785028 0.046846464 0.12743029 -0.017455142 -0.011665349 0.10054329 0.073212974 -0.1733182 0.19923718 0.075350754 -0.0018711141 0.22451063 -0.22759618 0.04313166 -0.02559267 0.012586462 0.28046903 -0.100656055 -0.05207359 -0.3786131 -0.16041803 -0.013165178 -0.06392723 -0.040550377 0.0377538 0.1899867 -0.12015665 0.35828432 0.13426477 -0.31271508 -0.23260039 -0.031224614 0.070922606 0.18366422 -0.19002679 0.1180842 0.17042844 0.17714825 -0.031843346 0.027859228 0.17497574 0.38741565 -0.19262584 -0.18011169 -0.12469022 -0.050042477 -0.07786141 0.27042183 -0.11996421 -0.40662402 -0.11897022 -0.18024513 0.2181606 -0.103499345 0.1919714 0.14297624 -0.18729584 -0.0745418 0.07387858 0.028927863 0.022134105 -0.030062672 -0.052100822 -0.001301561 0.22475463 -0.07357632 -0.0238553 0.088565335 0.037369058 0.08759052 0.12461208 -0.028396899 0.039047636 -0.32657686 -0.09796077 -0.23198117 0.098331615 0.2797958 0.0036133102 0.45066655 0.26528227 0.042306487 0.14417611 -0.5253743 0.06886471 -0.12626418 0.028551048 -0.06722486 -0.09886187 -0.26805642 0.11439968 0.17066486 -0.17327002 -0.13188796 0.07574128 -0.050752666 0.04904361 0.004082373 -0.06350444 0.04004741 0.049289543 0.03718101 -0.10924403 -0.048593808 -0.023945577 -0.05911206 -0.2571229 -0.27846232 -0.27077466 0.17600693 0.003789953 0.025813984 0.06309279 0.19486068 0.5114689 -0.13080253 0.025329495 -0.19867894 -0.028641595 -0.0030840244 0.17926614 0.002336696 0.08189676 0.07503821 0.03442399 -0.042802177 0.113849394 -0.0844343 0.043073054 0.09058987 0.42009756 0.38245618 -0.012839804 0.04690874 -0.050487734 -0.23911946 -0.24051645 -0.09863727 0.11787853 -0.24064612 0.06087468 -0.21257338 0.16466236 -0.29053625 -0.16005813 0.20420195 -0.096165225 0.030579276 0.2261627 0.18574871 0.21140066 -0.3816138 0.17239904 0.14830099 0.15575598 -0.06265549 -0.15419193 -0.12306355 -0.34138498 -0.0698028 -0.014626766 0.1225412 0.28109887 -0.013313694 0.078260064 0.26312232 0.14327696 0.19291367 -0.05077924 -0.055306487 0.11878417 0.18067409 0.106610924 -0.15002033 -0.020612545 0.13356668 0.28722012 0.19727243 0.07542751 -0.42414305 0.02855911 -0.16432762 -0.22686832 -0.07436984 0.15949501 0.0856376 -0.03181594 -0.185049 -0.011331439 0.002873182 0.24556082 -0.14909852 -0.047681957 0.039631117 -0.1276163 0.31021363 -0.064688355 -0.08675847 0.2285707 -0.054380212 0.004061172 -0.15992725 0.2180436 0.107096344 -0.15721588 0.05764734 0.11097343 0.03022087 0.048810806 -0.13714719 -0.18193004 0.20594837 0.013286925 0.18188152 -0.11334963 0.24858108 -0.11784866 -0.0030826633 0.073066145 -0.043067846 -0.18692341 -0.3496581 -0.07436929 0.10738838 0.03980513 0.0011368928 0.17598505 0.016042827 -0.06530801 -0.017616915 0.015211689 0.042332027 -0.123398244 -0.32468927 0.24329478 0.016777446 0.024211952 0.3233213 -0.14587277 -0.123632886 -0.08988346 0.13030684 -0.12207993 0.12745659 -0.21047659 -0.3392888 0.120929725 0.057697944 -0.22693187 -0.26754525 -0.09040919 -0.037747916 -0.21884385 -0.2429567 -0.052231465 -0.069229364 -0.14593717 0.07287388 -0.09955847 -0.28250945 0.04993805 -0.061379205 -0.09519721 0.094611794 0.31794775 -0.10806838 0.24211192 -0.027877342 -0.10923879 0.11013931 -0.08899191 -0.005490999 -0.047106974 0.14672151 0.0032293021 -0.03879969 -0.08587802 0.057658885 0.104039185 0.061705988 -0.037329275 -0.0800916 0.05501826 0.00015043552 0.03626384 -0.04188295 -0.062756464 -0.09747683 0.30923387 0.26040822 0.18800974
foodie -0.16175722 -0.20008875 -0.24160214 -0.14298381 0.07163897 -0.028391616 0.0086562745 0.10917168 -0.6973141 0.024184057 -0.013738277 0.20993078 0.09211187 -0.030938655 0.050068114 0.06843956 -0.2206996 0.17978404 0.20138742 -0.05003077 0.18666685 -0.27125925 0.016401485 -0.054855883 0.017909547 0.18665509 -0.070873775 -0.0127221355 -0.36030585 -0.20800588 0.100310154 -0.05513086 0.051907897 -0.017929817 0.24453092 -0.04410158 0.47063726 0.061049778 -0.26066655 -0.22896555 -0.03259001 0.087375596 0.22560851 -0.111675374 0.021380043 0.17494194 0.2304715 -0.048891023 0.05601259 0.049151503 0.39938375 -0.16326348 -0.19982323 -0.13212737 -0.1290385 -0.1473039 0.33595434 -0.15163283 -0.4193503 -0.17462662 -0.03698884 0.26500455 -0.096352965 0.20170501 0.07084683 -0.13871184 -0.14025447 0.12174003 0.06866177 0.103990376 0.050415855 -0.04745205 -0.02801889 0.28667706 -0.016154448 -0.050758652 -0.015125775 0.055496506 0.012665717 0.19287713 -0.115886115 0.016864419 -0.24914034 -0.05438011 -0.22295348 0.2111858 0.19531561 -0.017909475 0.33290195 0.2760761 -0.020216588 0.08691679 -0.4582417 0.0803727 -0.13154672 0.123520255 0.047976114 -0.07459364 -0.266469 0.104801506 0.18712118 -0.18962295 -0.16642256 0.010811426 -0.0034802537 0.10064522 0.07016485 -0.15088889 0.14986765 0.05239583 0.029082868 -0.16494603 -0.03220619 -0.10924008 0.0038019947 -0.32131517 -0.24631658 -0.17624368 0.12395216 -0.014623332 0.14843975 0.12652425 0.25128824 0.4951367 0.027588295 0.12913686 -0.05956385 -0.13462777 0.11386066 0.12009975 0.12378438 0.03735883 0.08959259 -0.00025086323 -0.07736373 0.14056465 -0.15986745 0.10584308 0.015139574 0.53986907 0.42937094 0.061036598 0.06769523 -0.02003435 -0.26271755 -0.28004068 -0.02939813 -0.017184988 -0.26038563 0.04970189 -0.2911847 0.18669294 -0.17667359 -0.23147276 0.1844167 -0.16248022 -0.09077372 0.25594592 0.1868912 0.3178213 -0.28486866 0.22322795 0.11559014 0.085463606 0.056501713 0.0131279845 -0.061532177 -0.32160228 -0.019390304 -0.010485933 0.15782605 0.27518162 0.0041291337 0.053858865 0.18599674 0.031446736 0.13414355 -0.009331217 -0.077283464 0.05133768 0.12781045 0.07238479 -0.04649898 -0.14803377 0.152162 0.21698436 0.19861288 0.147866 -0.47135425 -0.14372735 -0.1254701 -0.15393883 -0.17327657 0.14609058 -0.054618772 0.09274714 -0.11860526 0.03231087 -0.011535184 0.22390857 -0.038959283 -0.030765934 -0.043444984 -0.14695011 0.34901232 0.008661965 -0.14020209 0.20003003 -0.045442685 -0.13019703 -0.13975023 0.19489273 -0.018519228 -0.07334516 0.024671484 -0.0034867404 0.120509565 0.09915574 -0.1464993 -0.13123748 0.20996517 0.0655518 0.07281167 -0.09432593 0.17953776 -0.052318726 0.029667238 -0.091884315 -0.04002458 -0.21908106 -0.36433098 0.030228982 0.089248404 -0.06900098 0.05661888 0.11638823 -0.072943754 -0.077583246 0.043061692 0.051247265 -0.06375022 -0.07865553 -0.27652472 0.17972653 -0.13601635 0.05804804 0.25677696 -0.12696262 -0.10000806 -0.18441209 0.047885075 -0.13081606 0.099969134 -0.23711106 -0.42166966 0.118052505 0.024698863 -0.18624774 -0.30139363 -0.037303418 -0.019702267 -0.1546684 -0.22540765 -0.09756222 -0.031253584 -0.04197772 0.04114776 -0.1497651 -0.36220762 0.109483406 -0.14996631 -0.0010305688 0.09989596 0.40882072 -0.10720315 0.27802122 -0.087965675 -0.101455234 -0.057809185 -0.14549805 -0.05449077 -0.065163136 0.24891564 -0.023384206 -0.0689155 -0.0010162386 0.017765447 0.027463056 0.02825633 0.036264803 -0.06397993 0.15279599 0.07428502 -0.053310767 -0.103013255 -0.0896395 -0.14257236 0.17111158 0.17941768 0.199169
foodphotography -0.0039124773 -0.19502883 -0.13258454 -0.24768168 0.03155052 -0.147686 0.026933758 0.093404576 -0.6951532 -0.05542361 -0.072540395 0.2601763 0.107237205 -0.04315207 -0.0109610595 0.08291616 -0.14505951 0.16403782 0.10747014 -0.07263204 0.23345101 -0.25229982 0.028140554 -0.08720016 0.045865342 0.12436669 -0.0219404 0.06947086 -0.3364813 -0.23417456 0.12602974 -0.13069257 0.061202142 -0.07216857 0.25922847 0.002646545 0.41730395 0.17519593 -0.24951166 -0.20089282 -0.16124947 0.06705022 0.21942554 0.025605505 -0.016152674 0.0074932366 0.2545028 -0.00044310687 0.15765163 -0.01439802 0.4199296 -0.13060184 -0.10587236 -0.099834785 -0.12142416 -0.23058733 0.42614412 -0.24559641 -0.37051004 -0.27435884 -0.0057860264 0.2538973 -0.029282074 0.1618265 0.077435575 -0.13277003 -0.128921 0.1272984 0.09810357 0.14317504 0.041253936 -0.067548156 -0.09826046 0.21471116 0.08741428 0.026378345 -0.07749646 0.053562276 0.004118422 0.18425976 -0.15699305 0.037968315 -0.16666578 0.045692816 -0.15979046 0.2502266 0.14607862 0.008169913 0.31500924 0.26821718 -0.10222291 0.096034065 -0.3846002 0.06984627 -0.20895344 0.20499112 0.11846167 -0.024764832 -0.17967507 -0.0074140006 0.098277085 -0.2057897 -0.23465513 -0.06786008 0.030184465 0.15603401 0.12730446 -0.07823427 0.1452422 0.07793458 -0.012991676 -0.18005921 -0.039907645 -0.146891 -0.009718735 -0.3820626 -0.16983156 -0.114200346 0.07730018 0.012329659 0.17746344 0.12379042 0.26707312 0.44828954 0.11197373 0.18614592 0.07952959 -0.17749956 0.06129966 0.21060964 0.18816008 0.009580263 0.06708776 0.04751697 -0.06442795 0.16484372 -0.18321665 0.093661815 -0.018170346 0.596471 0.42646423 0.075710244 -0.04426989 -0.14321864 -0.2563355 -0.25161314 0.054213922 -0.07227699 -0.21242963 0.045493897 -0.44578123 0.13454334 -0.13117743 -0.10406715 0.08085457 -0.15498047 -0.08000698 0.21339981 0.09676636 0.28740793 -0.23378825 0.15144014 0.02321942 0.013970449 0.03840763 0.08629958 0.02019798 -0.20896639 0.102448314 -0.046058685 0.16187604 0.23480478 -0.016642276 0.10269136 0.007346041 0.00816243 0.022391928 -0.0036231247 -0.06323302 0.065765895 0.08046713 0.06610625 -0.07227403 -0.10689411 0.3020528 0.07545989 0.13481833 0.23792467 -0.5080544 -0.22693793 -0.15269993 -0.15098551 -0.18472955 0.05943786 -0.09062829 0.10806799 -0.06258846 0.0143449865 -0.11395212 0.25657374 -0.08722716 0.0047936053 0.04137244 -0.23663898 0.3118583 0.102050245 -0.046017244 0.07525036 0.07837346 -0.2440932 -0.06358372 0.11625552 -0.09686102 0.017290786 -0.029447882 -0.07336528 0.07063784 0.044406626 -0.16762693 0.01550937 0.12327028 -0.0027668306 -0.01272079 -0.041719172 0.14351277 0.105753034 0.06865389 -0.10779727 -0.024606884 -0.11154866 -0.3044731 0.027066072 0.069549 -0.1302628 -0.0072638835 0.0017524121 -0.118804224 -0.026618136 -0.015645538 0.10618404 -0.06258549 -0.04701853 -0.17499825 0.11264262 -0.060631663 0.099555954 0.11667217 -0.061593074 -0.16680795 -0.16910322 0.056608483 -0.14462155 0.108382665 -0.29184902 -0.43846983 0.100109264 0.048820537 -0.1419143 -0.23597616 -0.0035787192 -0.07752146 -0.08453294 -0.22399864 -0.113891006 0.094941065 0.07007185 -0.05177395 -0.14106661 -0.31445935 0.17096642 -0.04690606 0.033711717 0.09187993 0.38111842 -0.10792635 0.26495764 -0.19139342 -0.15711296 -0.20246518 -0.030425007 -0.023038115 -0.02739793 0.17013858 0.0039712526 -0.206494 0.056952666 0.045208264 -0.10127046 0.03480282 0.09076433 -0.08785933 0.14142692 0.0054507665 -0.21032067 0.03189753 -0.14443393 -0.10175489 0.15450194 0.12837079 0.2452914
foodstagram 0.07441546 -0.20858437 -0.052226968 -0.26516336 0.083909996 -0.15374587 0.021325393 -0.018653983 -0.6181865 -0.07946576 -0.007499714 0.27132872 0.056389093 -0.13267581 0.066181615 0.11735548 -0.07814656 0.090508796 0.024042573 -0.05286772 0.290205 -0.19279104 0.05820044 -0.074056186 0.101892 0.055949178 -0.08676958 -0.024163993 -0.22812235 -0.16599174 0.093350336 -0.20105127 0.06850883 -0.034544893 0.2520484 0.04144306 0.351306 0.14947031 -0.26288775 -0.14775346 -0.22723487 0.03601887 0.23993354 0.062296916 0.036118634 -0.089825325 0.28675854 0.08206514 0.24414599 0.030431315 0.4393434 -0.1713335 0.029134113 -0.034304425 -0.14200334 -0.19095545 0.41453108 -0.3388985 -0.2909015 -0.35787493 0.058492422 0.23245946 -0.0103365155 0.13557047 0.08011095 -0.06497013 -0.10302651 0.16451982 0.05418588 0.19451943 0.060704827 -0.1037386 -0.08047484 0.121220216 0.0543228 0.049095932 -0.09792784 0.0520472 0.039242897 0.12833335 -0.1561412 0.060688823 -0.2294226 0.051281117 -0.123013385 0.20058377 0.064197905 0.04663155 0.3940237 0.23120256 -0.07817537 0.21500921 -0.3312707 -0.019345295 -0.25095335 0.15551154 0.14355753 0.0873208 -0.054982048 0.042448435 0.030535283 -0.208139 -0.21507785 -0.08065406 0.0823269 0.17107756 0.09628467 0.015617058 -0.0118171675 0.15352811 0.0029877932 -0.06714567 0.0062115598 -0.10018451 -0.08773702 -0.36937645 -0.15652676 -0.13868496 0.031352587 -0.0050852397 0.18732868 0.14497069 0.1772671 0.4959095 0.12668195 0.14350824 0.16190678 -0.1666699 0.023561513 0.34969026 0.15033896 0.021950027 -0.0013296558 0.14271681 -0.050694168 0.16078897 -0.09393913 0.10107628 0.038272243 0.47938406 0.2969816 0.05028397 -0.12845606 -0.22777407 -0.34211272 -0.23593758 -0.013444612 -0.037202775 -0.19703536 0.01991238 -0.44902423 0.030943792 -0.13514327 -0.044519138 0.100398004 -0.10195925 -0.0046623494 0.19751318 0.054503333 0.23737745 -0.2319941 0.07602079 -0.10220482 0.06636404 -0.0889441 0.046725538 0.12532319 -0.20099936 0.12741156 -0.12526871 0.16211502 0.21927267 -0.057526693 0.15847492 -0.16489743 -0.0775807 -0.04831546 0.04625264 0.00049421017 0.10808057 0.12713833 0.03294166 -0.11220302 -0.003912305 0.2616645 0.018348327 0.046237428 0.23918308 -0.47472474 -0.26192692 -0.21859005 -0.16235994 -0.10848929 0.018250627 -0.02742586 0.011701671 -0.012785147 -0.0650306 -0.17377476 0.29818904 -0.13418977 -0.09162282 0.034490313 -0.23159952 0.3287612 0.049052957 0.041885585 0.06786339 0.11997292 -0.24706616 0.013781444 0.095808685 -0.1422928 -0.018624123 -0.08759028 -0.024073668 0.038272094 0.0318595 -0.12961233 0.073684104 0.05856307 -0.068391 0.027179882 -0.012179358 0.24192351 0.22430716 0.08148928 -0.0922103 -0.07403709 -0.10624249 -0.24686438 -0.02176189 0.17323662 -0.16394189 -0.086240456 -0.036811344 -0.030499717 0.11773517 -0.08704018 0.15556523 -0.0025322407 -0.10905541 -0.121961325 0.11890497 -0.0034838675 0.09453104 0.086194865 -0.1651781 -0.25051305 -0.16667987 0.07895331 -0.07427249 0.14382045 -0.22773129 -0.3992189 0.16148266 0.12398618 -0.1419781 -0.19932526 -0.025172198 -0.13180852 -0.06903901 -0.119854294 0.003076327 0.12617612 0.026968798 -0.056518212 -0.05222102 -0.21227355 0.11774646 0.041608237 -0.03773394 0.0949983 0.34435937 -0.0980615 0.25392294 -0.16227925 -0.21323545 -0.13916308 0.048394516 0.009668685 0.017029444 0.051842187 -0.026038248 -0.34671512 0.06003661 0.1236619 -0.15863931 0.04015757 0.0020168624 -0.15605883 0.1292167 -0.060902644 -0.24418974 0.08480563 -0.1328921 -0.0046422915 0.15594468 0.18658915 0.29935423
foodstylist -0.017400337 -0.16194186 -0.08711993 -0.25936583 0.10837543 -0.11290961 0.042777553 -0.086721756 -0.5280041 0.0010785582 -0.039048295 0.28497538 0.08046822 -0.11195317 0.08133856 0.123475954 -0.0414831 0.119931534 0.058749333 -0.1229445 0.1711565 -0.13672455 0.066602856 -0.12757668 0.21677725 0.014908728 -0.111569524 -0.1255086 -0.25557545 -0.20316947 0.18948668 -0.13462216 0.15013689 0.13317579 0.28648126 -0.07743532 0.35348928 0.04963706 -0.25806776 -0.13569157 -0.26344067 0.07850645 0.1127933 -0.07608914 0.022620818 -0.029107366 0.21028407 0.14816938 0.21363069 -0.01948807 0.38229215 -0.18689077 0.033313677 0.06895686 -0.1293685 -0.23824438 0.39758873 -0.33103922 -0.3131796 -0.31625646 0.045589384 0.21877302 -0.032324195 0.099486366 0.06282255 0.011141679 -0.05290222 0.11308584 0.062612936 0.22384472 -0.08347527 -0.034869295 -0.1370368 0.18887922 0.09065768 0.14437652 0.03699162 0.16102064 0.026445419 0.041216545 -0.14486367 0.11463576 -0.31771138 0.05077738 -0.05311301 0.15418184 0.09454586 0.12023997 0.42201018 0.15048437 -0.11325714 0.28257158 -0.2988999 -0.18533158 -0.31317908 0.13607724 0.2461798 0.2464004 -0.007924349 0.09693153 -0.037251547 -0.18749048 -0.1838903 -0.070315026 0.12917542 0.0994193 0.10452442 0.003598942 -0.12351762 0.12583676 -0.09357559 -0.06268303 -0.08500237 -0.1653366 -0.037277512 -0.42839736 -0.04227236 -0.13999876 -0.005168207 -0.024275826 0.17220703 0.1308625 0.08163554 0.4895365 0.1116992 0.10163216 0.14416331 -0.057447135 -0.009722056 0.3123605 0.05830167 0.019028112 -0.05394789 0.102088146 -0.012299073 0.18645905 -0.13565597 0.20239061 0.022160774 0.37227452 0.1967187 0.008344122 -0.15016091 -0.22600743 -0.33772635 -0.27275345 0.027659874 -0.006598357 -0.2685031 0.12547433 -0.3814306 0.020136219 -0.041083198 -0.039610133 0.10626436 -0.099602856 -0.011823173 0.139619 -0.06145382 0.24877143 -0.2556891 0.0742477 -0.12122068 0.14726447 -0.05858999 0.018959934 0.11103726 -0.17637157 0.15914541 -0.22916733 0.13546796 0.19101606 -0.21028844 0.23476988 -0.19394709 -0.16233139 -0.04100583 0.12292418 0.104240395 0.07429806 0.19362405 0.037441358 -0.0914852 0.0131336525 0.17653736 -0.10519082 0.01829754 0.14996836 -0.50885797 -0.28330243 -0.18298061 -0.1458619 -0.021729326 -0.07915273 -0.06783568 -0.0396606 0.06289427 -0.149423 -0.22215898 0.28799093 -0.20608117 -0.1313677 -0.04444369 -0.21436425 0.2593311 0.13194844 0.08373184 0.077308774 0.17917718 -0.16351244 0.12714224 0.1333866 -0.14368063 0.08628348 -0.11754974 0.009276863 0.087781936 0.04084494 -0.11499678 0.16392782 -0.006551197 -0.13592798 0.15689993 -0.087067336 0.33367455 0.18055847 -0.021146217 0.018158007 -0.13110851 -0.074993216 -0.24281824 -0.060869776 0.14530048 -0.23118834 -0.21537498 -0.06927978 -0.047737885 0.17316471 -0.11839754 0.14158009 0.002004783 -0.10240052 -0.1408703 0.15228538 -0.009303619 0.09758659 0.04595179 -0.20617843 -0.20730482 -0.056657534 -0.00077716715 -0.082579456 0.18531404 -0.13773227 -0.4097538 0.1680837 0.21781099 -0.058577336 -0.13787185 -0.07446268 -0.23074567 0.0059340317 0.053749133 -0.012020418 0.10890487 -0.034095354 -0.08207924 -0.12255368 -0.063823655 0.07163765 -0.017581021 -0.088623576 0.120367326 0.24326852 -0.07295813 0.3101864 -0.009762648 -0.23348483 -0.05120983 0.03875951 0.013100786 0.027713463 -0.063319445 -0.15754698 -0.32673594 -0.05693325 0.15776798 -0.10852308 0.027111107 0.001980985 -0.23077667 0.03158247 -0.019534957 -0.1941796 0.024431445 -0.15889367 -0.04362767 0.13730612 0.16797212 0.3571731
foodbeast -0.031224394 -0.14065515 0.07558961 -0.11786131 -0.07825192 -0.058229752 -0.27824304 -0.063919954 -0.48799327 -0.11106065 0.009161591 0.12225261 -0.073538005 -0.08946132 -0.04339819 0.20635356 -0.11209998 0.115581356 -0.1727178 -0.09714299 0.30949217 -0.15486524 -0.035858355 0.022446418 -0.085232235 0.07750016 -0.11111574 0.112405926 -0.35195732 0.03189564 -0.06947642 0.09997761 0.22897813 -0.013487061 0.37848905 -0.10124021 0.35024717 0.02656887 -0.33104903 0.23766749 0.015927417 0.0051143793 0.043282993 -0.011764346 0.076352544 -0.074437566 0.044821274 0.40846077 0.24377619 0.06825253 0.24705355 -0.059348706 0.090439744 0.09493623 -0.12233291 -0.33129662 0.26485044 -0.23695463 -0.1250359 -0.33839455 0.11240046 -0.012549482 0.15286681 0.13827074 0.103943266 0.091003224 0.050542843 0.13297042 0.02328805 0.20507048 0.12620158 -0.22944048 -0.1534673 0.17369306 0.23773296 0.020016348 0.05070308 -0.08166576 -0.002066727 0.17426059 -0.012139536 0.18820325 -0.27002424 0.19912216 0.14792612 -0.01884668 -0.07760749 0.26708856 0.43257898 0.17807701 0.009736183 0.52010477 -0.26382306 -0.37574473 -0.2873618 0.04417772 0.25010696 0.32410422 -0.26810855 0.23232087 -0.23974548 -0.09573517 -0.25485614 -0.012781099 0.26679847 -0.03937939 0.08218941 -0.02564494 -0.3541254 0.2399584 -0.12431938 0.043645076 0.17903006 -0.011951847 -0.34916216 -0.42301777 -0.20694326 -0.18493968 -0.07553156 -0.26938605 0.2587196 0.19050632 -0.018538408 0.45629424 0.07992095 0.11258954 -0.123324536 0.15338637 0.095895894 0.22228539 0.15463017 0.029352859 -0.21617277 0.42781323 0.003617614 0.081521004 -0.19108011 0.11987621 -0.16488583 0.3432914 0.04236077 0.12616111 -0.09786207 -0.2641828 -0.2912183 -0.12609662 -0.14178137 -0.106224336 -0.10770865 0.2606461 -0.2473861 0.17012307 -0.04292724 -0.17929605 0.07101324 -0.23605347 0.17205821 0.32481608 0.16039595 -0.14041813 -0.3262596 0.11210985 -0.15036349 0.33724535 0.23387043 0.2946714 -0.10922325 -0.10735644 0.006211942 -0.11124219 0.011682134 0.2898373 -0.39530578 0.23535517 -0.23904927 -0.15981454 -0.2495345 -0.056490168 -0.016411666 0.2305364 0.09463386 -0.13479139 -0.047107283 -0.15852903 0.14058517 0.025219696 -0.039676834 0.24520369 -0.31534436 -0.20876661 -0.20013624 0.24884138 0.011129618 -0.019291902 -0.2102478 -0.05298869 0.030096857 -0.16449463 -0.18687482 0.16760673 -0.14034325 -0.3106564 -0.1869066 -0.07984083 0.43519005 0.14659427 0.10765412 -0.08601506 -0.08162811 -0.18266314 0.060852367 0.16210657 -0.15518998 -0.05597766 0.041582372 -0.23714541 0.16770792 0.008437342 -0.36271098 0.01568556 -0.2163152 0.07823322 0.27950323 -0.08585769 0.43872046 0.19239476 -0.120046996 -0.06315893 0.037761126 -0.09539711 -0.2975562 -0.031497188 0.068695486 -0.19805202 -0.22283672 0.092853084 0.0148822935 0.48014298 -0.1984926 0.23625746 0.2548276 0.039699517 -0.20921125 -0.12864228 -0.03381946 0.06442373 -0.063904956 -0.20417668 -0.12350894 -0.22071356 -0.09309338 0.14223304 0.15951465 -0.17719814 -0.30738327 -0.14365487 0.15695433 -0.31493527 -0.15012282 -0.12749544 -0.3720338 -0.09909863 0.10488964 -0.0123288985 -0.10834921 -0.04144044 -0.05557111 -0.008242585 -0.06568457 -0.078339465 -0.1193479 -0.1723212 0.17097229 0.18753918 -0.13555612 0.27239758 -0.109804556 -0.20381428 0.05035107 -0.14918908 0.10407043 0.033967238 -0.0067241797 -0.34565905 -0.16755457 0.07229885 0.08987533 -0.31724852 -0.19986217 0.13615066 -0.14817922 -0.17600112 0.040882677 -0.26673698 -0.09538451 -0.037932005 -0.027388008 0.17775191 0.15090542 0.4208954
foodblogger -0.079696186 -0.10259621 -0.07168525 -0.21286687 0.09799374 -0.05197431 -0.22239292 0.16022907 -0.53045803 -0.056438014 -0.17772374 0.17065722 0.07274232 -0.09774222 0.084869966 0.023688333 -0.13054952 0.19094343 -0.08435148 -0.11168547 0.27120784 -0.2199802 -0.14986679 0.12720476 -0.044334676 0.18413223 -0.27232018 0.18266238 -0.42651138 0.056545973 -0.02907909 0.024848444 0.14446425 -0.05643821 0.17749612 -0.17939916 0.3314734 0.24160165 -0.3349248 0.23040535 0.068240225 0.13964929 0.022543414 -0.07474442 0.15463425 -0.2532739 -0.042054854 0.38453898 0.17050408 -0.123216555 0.21597706 0.19637887 0.13322978 0.10429659 -0.21446551 -0.3966945 0.22810504 -0.28245082 -0.14779674 -0.4106801 -0.16436526 -0.24332125 -0.0061752503 -0.1481801 0.018207457 0.15724887 0.15513323 -0.0402352 -0.064254135 0.31592038 0.059350878 -0.149742 -0.31368145 0.24183443 0.13778059 0.116088815 0.3561497 0.098014824 0.11413831 -0.02201375 0.2127749 0.2404735 -0.322536 -0.04574665 0.0672116 0.06239323 -0.122634254 0.12909772 0.35208905 0.26490805 -0.10155065 0.4599303 -0.07447164 -0.40177727 -0.30185354 0.07774929 0.1517614 0.28311998 -0.29596323 0.12688848 -0.28071943 -0.07642117 -0.19326596 0.03550169 0.40165967 0.030127628 -0.16822389 0.01619789 -0.4008202 0.1653772 -0.07165578 -0.05705804 0.16890454 0.07315585 -0.34549937 -0.29018676 -0.067190856 -0.23055278 -0.06953317 -0.18831798 0.051050562 0.2133032 -0.0408 0.39337894 0.09403007 0.24641097 -0.2489851 0.09819248 -0.06744017 0.010405202 0.1225684 0.0075533544 -0.36528894 0.35043505 -0.037738122 -0.08296207 -0.10340766 0.18004334 -0.012352327 0.36853802 -0.18641675 -0.03593996 -0.11359013 -0.16235757 -0.2366805 -0.30688527 -0.050854295 -0.10169539 -0.14417295 0.25299016 -0.36705336 0.22957098 0.038086787 0.017364057 0.02913651 -0.14173643 0.14320126 0.28131112 0.17736559 -0.18527032 -0.37146106 0.06564296 -0.09233834 0.28899655 0.11889981 0.1876597 -0.10848655 -0.12159678 0.12576945 -0.30181402 0.08065995 0.14573099 -0.375266 0.15813832 -0.19210836 0.0658584 -0.2871974 -0.25445345 0.086062655 0.23583607 0.02547709 -0.1344717 0.05518569 -0.06755083 0.24171408 -0.19080515 0.043260977 0.20665893 -0.24959324 -0.13427117 -0.06509887 0.2016908 -0.06570782 -0.078409486 -0.07880333 -0.09119352 0.08551446 -0.039110802 -0.14010198 0.12383423 -0.19876587 -0.29886913 -0.08053803 -0.059802305 0.35532287 0.09793236 -0.019206386 -0.16737671 0.023044068 -0.0053881328 0.17554589 0.08666782 -0.23203006 -0.12608564 0.10155075 -0.020770613 0.1620874 0.1409868 -0.27163836 -0.067804255 -0.077092625 0.12563401 0.2930166 -0.21724011 0.47981155 0.090420045 -0.21761112 -0.06312854 0.027878154 0.052915733 -0.14030854 -0.14380392 -0.18433778 -0.06993205 -0.41654736 0.029387334 0.12304432 0.49170348 -0.2890029 0.2995817 0.15371181 0.05256896 -0.1517387 -0.024797166 -0.10238551 0.055848863 -0.24438885 -0.17794804 -0.10249291 -0.1967536 -0.059089698 -0.034969162 0.21253018 -0.07043391 -0.24841614 -0.09263601 0.06970556 -0.26749375 0.036325347 -0.2290584 -0.41254678 -0.22547384 -0.07282473 -0.033801764 -0.2107674 0.14451477 -0.069282755 0.04644735 0.1004926 0.025373241 0.05089435 -0.07984909 0.2575549 0.17997658 0.03838051 0.4079365 -0.24807298 -0.23856187 0.1459092 -0.22613196 0.18297948 -0.011641022 -0.1624472 -0.21839231 -0.22556137 -0.17086393 0.04047657 -0.27095637 -0.31460324 0.00046482333 -0.2530864 -0.27932993 0.05181367 -0.183032 0.075337306 -0.022027757 0.11239262 0.25561324 0.065768465 0.35263136
foodpassion -0.09854701 -0.07627872 -0.11230881 -0.2214365 0.1356445 0.0094657 -0.21092458 0.14563188 -0.49169064 -0.15661083 -0.15882719 0.28051418 -0.022536606 0.025451375 -0.14573997 0.13189907 -0.0077892975 0.24137597 -0.23877841 0.1044747 0.1717117 -0.02667182 0.03817066 -0.020049786 0.005733336 0.24745077 -0.17401943 0.15917303 -0.52147776 0.18086381 -0.14885409 0.08937366 0.23933971 -0.20019674 0.27230093 -0.18637499 0.18814237 0.313697 -0.36346793 0.32987538 0.12859626 0.09559659 0.04969283 0.117693864 0.07279335 -0.1829788 -0.1064908 0.36859208 0.32795987 0.033536185 0.21213646 0.16565092 -0.12741804 0.28440636 -0.11812937 -0.46435785 0.24739534 -0.09215822 -0.10513109 -0.34186321 -0.13413265 -0.2046212 0.12254696 -0.22032216 0.25512534 -0.061207164 0.2419692 -0.054743942 0.20802668 0.19595188 0.085166425 -0.015422728 -0.20836738 0.13812645 0.0013216941 -0.019065121 0.18119031 0.26411292 0.03226941 -0.012915576 0.1461936 0.14183259 -0.25541487 0.15126939 0.06540638 0.16700742 -0.017089887 0.11890918 0.2781825 0.16721728 -0.17283984 0.44584244 -0.03265861 -0.38346088 0.008389838 0.38546488 0.21700664 0.22842208 -0.33241 0.078039855 -0.20285067 -0.2370059 -0.2498716 -0.1312818 0.39436474 -0.013706739 -0.23553586 0.15630431 -0.39700294 0.10762013 -0.0839883 -0.15462649 -0.14841378 0.005142281 -0.3090752 -0.3291564 -0.024529032 -0.22497427 0.029606244 -0.118635476 -0.042338233 0.10133306 0.12692824 0.38821042 0.0004279329 0.20283806 -0.19566333 0.04239469 -0.06945444 0.089357965 0.10834659 0.16785635 -0.3741271 0.29458618 -0.0642297 -0.07002599 -0.091808714 0.32775983 -0.13012888 0.2896332 -0.13913177 0.17219408 -0.04292086 -0.09146701 -0.30107197 -0.19503194 -0.14931671 -0.08485414 -0.107529216 0.082899205 -0.39914238 0.14335184 0.11704408 0.049479194 0.2619541 -0.016767979 0.2622606 0.23677522 0.14838473 -0.22873612 -0.31463215 0.1019011 -0.12804975 0.2852915 -0.12882587 0.124125704 0.051387716 0.01610651 0.2517966 -0.2891023 -0.010423098 0.0688237 -0.32169867 0.2132033 -0.032066386 0.19617695 -0.31320184 -0.23735331 0.19624235 0.19661315 -0.2562243 -0.05108634 0.058599334 -0.17299326 0.34622148 -0.023673277 0.03580289 0.10598806 -0.2617794 -0.004435621 0.037428495 -0.028534733 -0.1431747 -0.17370175 -0.06829964 -0.15958242 -0.04488661 -0.19637911 -0.28548723 -0.0646033 -0.28012294 -0.12141987 0.06530734 -0.17644751 0.3671198 0.08850942 0.12267791 -0.2624819 -0.025907073 -0.010432249 0.19521268 0.14584257 0.020243526 -0.13627999 0.20666927 0.14635864 0.06897524 -0.048660304 -0.28446776 -0.033854723 0.005184658 -0.0021482657 0.28474176 -0.30775112 0.3047153 0.11745173 0.0038444635 0.04009504 0.009030675 0.060242083 -0.31960744 -0.013245967 -0.2172674 0.043033097 -0.4413507 0.17545775 0.17885706 0.459987 -0.34039497 0.1000218 0.2512637 0.0021671879 -0.2332112 0.02237034 0.105779804 -0.14509624 -0.3346163 -0.11672616 -0.18343373 0.015958847 -0.1781643 0.17300189 0.10699743 0.0383067 -0.36075878 -0.016700491 -0.0084358435 -0.24856935 0.09062572 -0.189868 -0.1977657 -0.15127142 -0.16997077 0.23222753 -0.10375962 0.09779497 -0.18717687 0.09733952 0.011500899 -0.04142353 -0.023827689 -0.24024472 0.26265222 -0.12693377 0.11821191 0.26895133 -0.21285535 -0.05125405 0.21151607 0.056272615 0.07629985 0.23551919 -0.22041467 -0.40303564 -0.2362924 -0.15723018 -0.09333835 -0.06216908 -0.36802137 0.065532915 -0.2734948 -0.33413696 -0.13745381 -0.271798 -0.14513792 -0.32676387 0.11942338 0.27453595 0.19955035 0.10227635
foodlover -0.17198876 -0.029154573 -0.19003578 -0.250577 -0.13438246 -0.053620715 -0.3979008 -0.041187372 -0.32910478 0.01500818 -0.12895511 0.23089588 -0.09824133 -0.08754328 -0.01636353 -0.04476764 -0.18945748 0.22918396 -0.31851724 -0.032029614 0.14258951 -0.094333924 0.003884424 -0.012784315 0.11045037 0.19871376 -0.29438952 0.11479392 -0.53276885 0.14523451 -0.20023897 0.1250376 0.057033088 -0.20197055 0.25402614 -0.24140978 0.15760592 0.12953836 -0.28525785 0.27161783 0.09928298 0.13995005 -0.14057207 0.13574094 0.16185573 -0.044061016 -0.19486457 0.3628826 0.15122715 -0.010844493 0.1905901 0.24778399 -0.18816656 0.26974246 -0.23376639 -0.39495635 0.17635292 -0.22696708 -0.13868755 -0.21727815 -0.010737441 -0.07256366 0.014038231 -0.17989223 0.28431076 -0.11081424 0.29539728 -0.050725963 0.10713094 -0.03733042 -0.06631245 -0.009635545 0.06195595 0.30256295 0.06691468 -0.024894891 0.32107967 0.36596027 -0.08615636 -0.027676221 0.07963829 0.18615283 -0.349138 0.06548904 0.026336372 0.24247734 0.06514851 0.14690204 0.19352037 -0.092135504 -0.02912006 0.4010339 0.07347161 -0.15608291 -0.038318716 0.4362928 0.22300486 0.37172058 -0.3986389 0.15990876 -0.14846593 -0.24123418 -0.27983427 -0.11513733 0.4087267 0.09149381 -0.00602771 0.0878968 -0.42175448 0.026243517 -0.05809293 -0.15599492 -0.10270149 0.023215612 -0.23603956 -0.37333348 0.0461579 -0.32219678 -0.115109384 0.019139687 0.102509774 0.09350317 0.010848396 0.43370825 -0.07236876 -0.09701856 -0.08142502 0.32392678 -0.024800101 -0.025909178 0.011217046 0.10244258 -0.24074703 0.23653227 -0.014376453 -0.064895816 0.08562893 0.35214394 -0.18680282 0.16201282 -0.0678557 0.19633827 -0.108549066 -0.15163358 -0.27702287 -0.3030924 -0.29282308 -0.17792715 0.010341417 0.13663366 -0.16403377 -0.035103403 0.16220693 0.07244597 0.30783522 -0.16809897 0.14807881 0.16240317 0.29418463 -0.02453519 -0.28163138 0.2413614 0.16398567 0.26717815 -0.0016935663 0.24538554 -0.025783705 -0.05950841 0.1429089 -0.18922786 -0.03656155 -0.08030922 -0.39788276 0.07000588 -0.033888586 0.29783776 -0.31317562 -0.29114264 0.10385816 -0.077443115 -0.27464253 -0.12231378 0.24251536 -0.28715724 0.115180574 0.017539471 -0.09257609 -0.02005807 -0.2867436 0.15226617 0.12184488 0.107529454 0.14830774 -0.2838317 0.1398965 -0.18414564 -0.0068787634 -0.17591554 -0.15299173 -0.0065594683 -0.28415203 -0.2911477 -0.0308952 0.036807757 0.17349224 0.16947868 0.22239397 -0.113662064 -0.024546083 -0.050069716 0.3056428 0.23005265 0.058876526 0.06463666 0.11563362 0.21824105 -0.019995976 0.108030595 -0.067062706 -0.16384082 -0.14649582 -0.074848995 0.27913037 -0.2768701 0.28157777 0.04204592 0.037395574 0.16166565 0.04974933 -0.13430066 -0.27088276 -0.0125520965 -0.013670832 0.08256924 -0.37528288 0.18348019 -0.09935449 0.45077834 -0.37150142 0.17800617 0.1567302 0.08102106 -0.30159387 0.070190854 0.11322744 -0.101826794 -0.24257256 -0.089528285 -0.022123702 -0.028725717 -0.21570621 0.21876633 0.20781186 0.2632165 -0.3211019 0.22636712 -0.2185287 -0.14071566 -0.15943389 -0.13592283 -0.10925268 -0.13710658 -0.09328278 0.103479415 -0.13480683 0.1846548 -0.10118365 0.04243604 0.01718026 0.08646986 -0.10863913 -0.24988379 0.31906396 -0.14044084 0.16641732 0.38834485 -0.25647858 -0.20349579 0.11201094 -0.023821713 0.1896735 0.2085972 0.0038155988 -0.3578414 0.0422611 -0.04125096 0.02527989 -0.22471038 -0.18774721 -0.0018460508 -0.122715555 -0.2642807 -0.12429602 -0.30169094 -0.34377596 -0.3746788 0.23784962 0.29671714 0.007495351 0.12755941
foodaholic -0.033734035 -0.08408316 -0.23350117 -0.26237297 -0.08237452 0.07206571 -0.29529047 -0.13937545 -0.3074052 0.12968563 -0.23451735 0.2807311 -0.21913874 -0.06385024 -0.1316082 0.002515617 -0.17757894 0.039255116 -0.306544 -0.11530663 0.15893501 0.011220295 0.14355457 0.10643899 0.06137646 0.33028015 -0.24268147 0.31576785 -0.4919418 -0.10624465 -0.13715397 0.057997283 -0.010855995 -0.1639865 0.3053248 -0.25784117 0.052180164 0.30388147 -0.18040058 0.004249084 0.24050279 -0.00037503967 -0.1401183 0.27361214 0.19330437 0.046488103 -0.02969431 0.20217453 0.012231648 0.030102916 0.11380652 0.27433336 -0.17751284 0.097268954 -0.2168637 -0.43657887 0.057135627 -0.25931293 0.005499029 -0.27320972 -0.11411795 -0.09409221 0.2004715 -0.16659653 0.27839866 -0.17114165 0.23649509 0.079038545 0.042413816 0.052873317 -0.1339775 0.053101137 0.110846765 0.31889904 -0.0769453 -0.11123271 0.30626896 0.2121294 -0.051754728 -0.10396717 0.1509053 0.10095235 -0.24868788 0.12241017 0.011259544 0.2707875 -0.05610055 0.15714711 -0.025308654 -0.04823586 0.016601542 0.19753107 -0.012147143 -0.05236633 -0.11865491 0.42555246 0.028911265 0.2697372 -0.32018808 -0.021742547 -0.089775935 -0.33092913 -0.21345715 -0.1337073 0.2558217 0.06104708 0.1321843 0.21566786 -0.3900767 0.0497328 -0.09853267 -0.111634314 -0.09986956 -0.081928894 -0.21547005 -0.36726946 0.21362375 -0.27888384 -0.11422516 -0.038627136 0.054353878 0.04342698 0.025875242 0.32085204 -0.035433955 -0.22021413 0.02390151 0.37206882 -0.013869629 -0.10297164 0.06404035 -0.0520946 -0.19382215 0.21444272 -0.06912621 -0.12804453 0.0010100778 0.12527624 -0.22076906 0.2090627 -0.15963979 0.2408444 -0.03005194 -0.19635105 -0.18485053 -0.2974644 -0.21786283 -0.13170305 -0.0033151163 0.18297994 -0.32048059 0.039420784 0.07154337 0.028907403 0.22731963 -0.21226224 0.20572104 0.21185264 0.16498251 -0.23586449 -0.0012624998 0.1658547 0.2640848 0.27154392 0.017873185 0.28070763 0.025767818 0.030122345 0.27514544 -0.18070981 0.061047625 -0.01027024 -0.37949684 0.05233854 0.043959547 0.39383775 -0.047377013 -0.33428815 0.09803404 -0.1212011 -0.091804795 -0.10195231 0.28120875 -0.16640137 0.115793265 0.14112985 0.00048608016 -0.13241327 -0.25494078 0.031521905 -0.13914931 0.16770813 0.21884926 -0.25361967 0.15781479 -0.14600284 -0.104085125 -0.113212354 -0.074610315 0.0688367 -0.32360956 -0.2169524 0.07622343 0.111316435 0.091559775 0.13685465 0.22338957 -0.009718258 -0.06838419 -0.16309382 0.10950515 0.18420927 -0.14408901 -0.05646929 0.06928146 0.163175 -0.15221912 -0.0011674215 -0.17898166 -0.047116574 -0.076960616 -0.026829049 0.21273382 -0.34573922 0.2710905 0.0011577765 -0.0071128863 0.24028493 0.028753808 -0.08363504 -0.18385868 0.054868575 -0.19658121 0.0072635016 -0.36958802 0.04153679 -0.061539426 0.373476 -0.397283 0.13864963 0.12072606 0.16195512 -0.2948014 0.0367385 0.3144835 -0.25397694 -0.15907033 -0.016471962 -0.033571627 -0.12227588 -0.06447621 0.046067208 0.23394616 0.22063507 -0.11059695 0.17691278 -0.23163143 -0.04221742 -0.1794254 0.00040175064 -0.17111298 -0.29109555 -0.019185508 -0.095528126 -0.044425156 0.29374686 -0.16885126 -0.10528264 0.07774641 -0.005908501 -0.15566503 -0.17314415 0.11985519 0.0019987694 -0.096704565 0.34840965 -0.01039608 -0.34961754 0.14334252 0.002388745 0.14567848 0.034200557 -0.15570123 -0.3453048 0.04927546 -0.0013149069 -0.028658884 -0.15215524 -0.06486011 -0.049421795 0.13062373 -0.095760584 0.04753601 -0.30166045 -0.34419385 -0.4147185 0.23167287 0.2864794 -0.071288124 0.023720108
torontoeats 0.18238312 0.08412502 -0.11784111 -0.09753281 0.047969185 -0.10969559 -0.44393137 -0.2581475 -0.32330784 0.08977936 -0.15380338 0.20903257 -0.043764245 -0.13429084 -0.12382076 -0.0019266818 -0.23263395 -0.14903805 -0.09945637 -0.09234177 0.053308316 0.19020952 0.032400202 0.087316915 0.17371966 0.1789494 -0.23959544 0.21493411 -0.31933662 -0.12408307 0.06513468 0.20781443 0.24867322 -0.20935792 0.20900382 -0.07622812 0.18675458 0.031807136 -0.09246993 -0.0071253916 0.2774622 0.17598878 -0.117196746 0.3558185 0.03796631 0.03947431 0.036332715 0.18703774 0.15218991 -0.2683463 0.040983807 0.29995316 -0.12324218 0.24975885 -0.29135054 -0.3500299 -0.0033234593 -0.27468374 0.179802 -0.38333055 0.11124214 0.011546557 0.21641633 -0.20411187 0.10002856 0.026516078 0.16423136 0.12827519 0.09944537 0.12610063 0.07932135 0.018901818 0.13093068 0.28233877 -0.2548986 -0.10316333 0.14333001 0.2584297 -0.051461406 -0.012833564 0.0784625 0.032262277 -0.15403007 0.13712524 -0.010418291 0.43396366 -0.20341018 -0.017995382 -0.23060104 0.035494998 -0.07082048 0.05512195 0.20592712 -0.06827487 -0.03539287 0.47728866 0.27303544 0.2940552 -0.20588893 -0.023683898 0.041408297 -0.3381128 -0.17308928 -0.10890774 0.41652352 0.06582744 0.13709588 0.11736104 -0.16612576 -0.00026218029 -0.0552164 -0.11957948 -0.046982702 -0.10074215 -0.18522824 -0.2199687 0.22044027 -0.078061305 -0.12401431 -0.043355025 0.13303283 0.11207018 0.07702089 0.20362738 0.14845796 -0.08095815 0.28729534 0.12001077 0.24665894 -0.23485455 0.22098817 -0.04659552 -0.20773487 0.1473133 -0.18737996 -0.17712358 0.08569974 0.2868756 -0.2707582 0.2474401 -0.28548703 0.18746874 0.0075320993 0.032506403 -0.24851258 -0.22568393 -0.14476341 -0.24815959 -0.0073350477 -0.02136392 -0.34586206 -0.024264231 0.24827532 -0.031767618 0.23104544 -0.20465341 0.113682516 0.2970145 0.053294986 -0.15173987 0.19283943 0.2487764 0.16958293 0.010960362 0.008793584 0.34649375 0.14171629 0.042544335 0.33803383 -0.20459975 0.06946703 -0.17279004 -0.17856486 0.13674565 -0.0777985 0.1495881 -0.16718891 -0.16000806 0.101260535 -0.08486222 -0.18906334 -0.20795704 0.30627123 -0.2824204 -0.065733425 0.18368898 -0.097921975 -0.15643924 -0.18801104 -0.24637167 -0.02631803 0.20826586 0.012146841 -0.25764474 -0.03627611 0.057602156 0.13651076 -0.06240536 -0.13989548 -0.12179682 -0.0028357683 -0.20042871 0.022582669 0.04896307 0.06834496 0.06033083 0.024469953 -0.057271324 -0.1279927 -0.23244296 0.19569999 0.12677918 -0.2949717 -0.022502244 -0.01456308 0.12590489 -0.006061055 -0.04316192 -0.17974856 0.039877467 0.041357838 0.097159505 0.076304674 -0.39899683 0.073387794 0.019746877 -0.0649812 -0.10624476 -0.19169927 -0.0114678405 -0.21025199 0.16695464 -0.18468618 -0.109287314 -0.30047172 0.018902702 0.022473294 0.28094733 -0.21888919 0.24923444 0.04878239 0.0186661 -0.07624677 0.026420373 0.021959988 -0.24376751 -0.30975732 -0.014644392 0.009714297 -0.27483627 -0.24954693 -0.07173529 0.14099476 0.30513296 -0.08077625 0.3734896 -0.25311375 0.07341562 -0.22213466 -0.04933829 0.029359672 -0.26541305 0.09647032 0.035086017 -0.05168564 0.35779455 -0.23948763 -0.005251787 0.06402419 -0.052051764 -0.2565768 -0.07544733 0.1221406 0.08600159 -0.0045700963 0.37935475 -0.16388649 -0.33167186 0.14658614 -0.09556304 0.087743245 0.111109324 -0.12553419 -0.49604163 -0.07225704 0.028692054 -0.25257275 -0.18378475 -0.23997568 -0.045214374 0.21984522 -0.032627314 0.19717541 -0.29694164 -0.4412006 -0.33941323 0.19587943 -0.024275422 -0.094633095 -0.10400476
TOeats 0.24997528 0.079522185 0.08672037 -0.19636619 -0.20823371 -0.16147423 -0.32035926 -0.15389393 -0.055475686 0.08034789 -0.11944791 -0.03475362 -0.119138725 -0.025699828 -0.187167 0.021536417 -0.07474886 -0.13552512 -0.33324552 -0.17538224 0.06295667 0.25108936 0.015018045 -0.037063256 0.19666524 0.1190474 -0.026375491 0.29338434 -0.31326836 -0.24450795 0.06213347 0.24207595 0.14929236 -0.10198161 0.17408748 -0.1283899 0.040724836 0.14981703 -0.08865087 -0.0799349 -0.010766896 0.16457018 -0.33216405 0.30817768 -0.011533252 -0.121118724 -0.02256127 0.16299134 0.21648687 -0.26898044 -0.0066883666 0.21438375 0.009443435 0.25138217 -0.034078628 -0.26617342 0.05592204 -0.26147512 0.18058586 -0.25521943 0.03248725 0.08477111 0.25078216 -0.09779404 0.13349688 -0.009610825 0.15653221 0.056377523 0.09776091 -0.09209307 -0.19644938 -0.026243564 0.024012266 0.14652269 -0.014458127 0.15977539 0.16242658 0.16343956 0.004820692 -0.061406422 0.031394605 0.12046407 -0.025475208 0.21946804 0.14783117 0.23344372 0.022628821 0.10513182 -0.12620863 -0.07674464 -0.101560995 -0.041646034 0.13502297 -0.037004516 -0.21804737 0.37612644 0.33346507 0.24932134 -0.13419743 -0.23179619 -0.072539315 -0.22606261 -0.24263309 -0.062104028 0.2924739 0.022297243 0.32436475 0.09216703 -0.10096428 -0.11766668 -0.22387666 -0.1187171 -0.08290775 -0.1075159 -0.150042 -0.22197053 0.27573237 -0.037065253 -0.12079967 0.04552558 0.09792399 -0.02612482 0.025447035 -0.0074110525 0.01244613 -0.1608176 0.28452605 0.22973225 0.100911744 -0.11854094 0.12507395 -0.04750768 -0.05853668 0.14212845 -0.06631608 -0.043926578 0.049277853 0.14741337 -0.2527375 0.15107629 -0.10294836 0.0196834 -0.22803383 -0.14485392 -0.029411612 -0.0045021465 0.078480735 -0.1505972 0.09982846 0.055600375 -0.33232692 -0.09300872 0.109660745 0.1951977 -0.050951485 -0.16711748 0.1519854 0.11437336 -0.15358476 -0.23907802 0.11512981 0.15194161 0.22631182 -0.13876055 0.048386987 0.29831204 -0.05617941 0.12729385 0.31830627 -0.08095403 -0.03993446 -0.24359265 -0.19632922 0.22989546 -0.18784083 0.15623888 -0.18954982 -0.04902091 0.009572245 0.014676346 -0.122980095 -0.12883084 0.02103524 -0.09467646 0.07019648 0.077187024 -0.18565284 -0.09443348 -0.21116252 -0.14910932 -0.08931822 0.14250112 0.13361564 -0.33057845 -0.009557389 0.021024687 0.2109927 -0.06165385 -0.14967448 -0.013643484 -0.12266519 -0.062823966 0.22719719 -0.056752365 -0.17858446 0.23602578 0.17295627 -0.19851121 0.04303038 -0.26915315 0.23491156 0.039935675 -0.19131328 0.23575525 -0.1337757 -0.025246002 -0.14954093 -0.27336597 -0.23296835 0.21488766 -0.1846125 -0.036239445 0.076192625 -0.2876764 -0.031200286 0.059879284 -0.13584922 0.12848614 -0.16115834 0.18452764 -0.14523493 0.055738088 -0.08983782 -0.12844788 -0.27783954 -0.12179141 -0.15835111 0.09496336 -0.22747307 0.27016732 0.16363782 0.016449591 0.04087369 -0.0196821 0.2611596 -0.08490896 -0.3486045 0.14884207 0.06658358 -0.078050844 -0.1855395 -0.2112244 0.1107426 0.12994808 0.011159 0.27954173 -0.14330463 0.13424648 -0.16610144 -0.070194915 -0.07393838 -0.07936194 0.10085262 -0.14207308 0.11936429 0.32822856 -0.262364 -0.049273636 0.18110862 0.041352913 -0.08350359 -0.037232935 0.03205331 -0.06580556 -0.082219295 0.2653408 -0.22479564 -0.4294882 -0.01612426 0.06851936 0.16010636 0.18143158 -0.25687248 -0.35762584 0.009232584 0.0027592143 -0.1348861 -0.29426154 -0.1599168 0.103062294 0.3058948 -0.21150829 0.10509648 -0.3438123 -0.11130818 -0.26319176 0.10813674 0.046411965 -0.1965778 0.023537716
tasteoftoronto 0.2058562 0.05714934 0.12845081 -0.14070427 -0.078631416 -0.034113448 -0.32518733 -0.25693628 0.069517516 0.11906895 0.092927516 -0.13462998 -0.24530342 -0.14601213 0.03235617 0.07444388 -0.013832122 -0.2597482 -0.3585536 -0.020097867 0.20731688 0.32450342 0.029949332 0.077753566 0.213815 0.081399694 -0.19459727 -0.016425656 -0.09402848 -0.11728597 -0.018880451 0.13481058 0.087110326 0.040733412 0.046080034 -0.04644334 -0.050199866 0.08692887 -0.14730008 -0.12077625 -0.04294819 0.15742756 -0.190803 0.25323236 0.17060308 -0.15340985 0.08324701 0.14288493 0.24659382 -0.09337594 0.039965574 0.068037465 0.16054443 0.22036563 -0.057753388 -0.031192275 -0.10135061 -0.3000551 0.26190022 -0.2783158 0.08279375 0.07631489 0.22187538 0.018522713 0.1610451 0.09683193 0.11765729 0.14842103 -0.10440644 -0.06602185 -0.13105462 -0.093070745 0.12802966 -0.02969268 -0.22617997 0.12682042 0.16728468 0.09398415 0.14105289 -0.09366217 0.063617855 0.073873736 -0.14928494 0.036219425 0.06862893 0.1048348 -0.09552228 0.07381829 0.057760205 -0.093559414 0.12511963 0.09178315 0.07013136 -0.09696294 -0.15314743 0.17345884 0.20648713 0.24968816 0.011829702 -0.09962223 -0.0030160106 -0.2108094 -0.024373828 0.009339679 0.2781209 0.053837784 0.18728475 0.17486076 -0.26532504 0.010005441 -0.053603224 0.12640911 0.043522336 0.08935583 -0.3002364 -0.086843155 0.11062494 -0.093729556 -0.08854958 0.0060825045 0.047937535 0.00062439626 -0.095219485 0.13177368 -0.10646452 -0.2489342 0.27315992 0.17092869 0.09093938 0.065717466 -0.022550784 -0.0061141998 -0.1097041 0.26361826 -0.13552567 -0.08424583 0.25185692 0.12357663 -0.0032141719 -0.09699173 -0.2671805 -0.08567546 -0.20876266 -0.08454132 -0.17134875 -0.0024645282 -0.11761328 0.07030849 0.14475203 -0.06119276 -0.22659172 -0.24405271 -0.032462403 0.14777292 0.05501118 -0.058944784 0.25836778 0.14957166 -0.06835275 -0.28003496 0.05852076 0.08736747 0.102921315 -0.108569354 -0.18623984 0.110802755 0.032006312 -0.0019139319 0.20018342 -0.071844414 0.06689734 -0.20737267 -0.089234605 0.1998791 -0.27094164 0.03787649 -0.12870032 0.03450252 0.057996675 0.10041236 0.04777346 -0.16095068 -0.13758688 0.11884496 -0.17727771 0.22205296 -0.22159238 -0.12871915 -0.09631908 -0.14506572 -0.21455643 0.0057077426 0.23450062 -0.178415 0.17897502 -0.10636834 0.19016513 -0.123908974 -0.09842973 0.08341175 -0.087271444 -0.16150855 0.18889429 -0.0021081627 -0.11397922 -0.038533736 0.2201047 -0.043275915 -0.060546298 -0.14876682 0.24816391 0.047916412 -0.16912338 0.022961138 -0.16986965 0.114764765 -0.1789184 -0.27456576 -0.13569312 0.098248504 -0.13493839 -0.048781786 0.155677 -0.2040446 0.15700145 0.06675716 -0.13488808 0.11884669 -0.26546308 0.07196301 -0.10306874 -0.07159422 0.16976398 -0.10753571 -0.24930465 -0.074916326 0.046741527 0.24561372 -0.2222972 0.31299713 0.25635722 -0.20724005 0.067629375 0.1260185 0.26292205 -0.102160156 -0.1855692 -0.09800294 -0.03203627 -0.0939866 -0.10079528 -0.101749256 0.12624045 0.18613027 0.11831009 0.42033267 -0.026967958 0.07498189 -0.21514772 -0.051675163 -0.07272942 -0.21396968 0.17097095 0.06083361 0.07481572 0.101490244 -0.16825803 0.12969899 0.2694242 -0.10378664 0.085809514 -0.1396714 0.009694166 -0.030225357 -0.051163297 0.22165816 -0.100767426 -0.4908522 0.21547188 0.050297525 0.16589023 0.17665187 -0.28915352 -0.26992238 -0.124121085 -0.052895278 -0.040015705 -0.2535777 -0.12668787 -0.16493298 0.28555375 -0.16797867 0.0048666345 -0.20185225 -0.018400231 -0.07214456 0.18495457 0.088876195 0.025577117 0.053469535
viewsfromthe6 -0.033997826 0.054589976 -0.040879015 0.019121392 0.03477154 0.13424261 -0.18197282 -0.19188215 0.048492666 0.2372352 0.08448167 -0.16348594 -0.13211283 -0.031199696 0.033129517 0.119709775 -0.046037223 -0.17103393 -0.09323976 -0.14082862 -0.05032165 0.31847978 -0.0020210932 -0.039685193 0.26529446 0.111009225 -0.12891534 -0.08320826 -0.20303537 -0.22575602 0.15023294 0.3349132 0.2363985 0.25613 0.11918546 -0.23500165 0.13674742 -0.17659862 -0.12646477 -0.14894469 0.07891463 0.21962407 -0.3133854 -0.14484891 0.05554845 0.109514296 -0.0031636073 0.14333485 0.12860948 -0.15165073 -0.02332534 -0.017475009 0.04824745 0.27768576 0.031153055 -0.012183877 -0.1141427 -0.116950065 0.10376305 -0.11763514 -0.043646056 0.09897683 0.10013124 -0.020575138 0.026949301 0.1598434 0.09881629 0.048837643 -0.016727405 -0.02106445 -0.24739194 0.013317933 0.0078114234 0.1635134 -0.2102411 0.17063227 0.2838497 0.13325697 0.13955908 -0.15155222 0.11770917 0.11774749 -0.2706703 0.013340287 0.10543823 -0.025447486 0.08281921 0.11982682 0.094826095 -0.02111733 0.00965452 0.07380538 -0.041492406 -0.28379086 -0.21012467 -0.0024208757 0.2999857 0.28696588 -0.05150552 0.048129316 -0.012253354 -0.12593147 -0.026631227 0.13301139 0.2408461 -0.18210946 0.13022475 -0.009818997 -0.22231166 -0.102667585 -0.2105128 0.059025083 -0.07783503 -0.04979687 -0.13611387 -0.07087846 0.16653357 -0.1059722 -0.046031315 -0.09462444 -0.025949877 -0.008961551 -0.12569574 0.07207191 -0.13147977 -0.23260234 0.03391527 0.24996611 0.11280696 -0.11151218 -0.0930109 0.025734797 -0.0945556 0.07393342 -0.042828266 -0.019882537 0.07829287 0.17348738 -0.055499237 -0.1017439 -0.23765135 -0.16840589 -0.12380156 0.05036482 -0.08179014 -0.0030244775 0.009585489 0.08896153 -0.11447679 0.094890915 -0.01658021 -0.045110818 -0.002304961 0.00255128 0.06927398 -0.066813186 0.1989785 0.14488952 -0.24424891 -0.22466676 -0.03836862 0.1351334 0.14994909 0.07678611 -0.05277087 -0.04717432 -0.13948818 -0.107564814 0.12571122 -0.17329101 -0.060550082 -0.11073825 -0.21610703 0.32461467 -0.03261055 -0.07737859 0.025010847 0.16638395 0.13495816 0.14143103 0.18215102 -0.08221443 -0.113358945 0.07679949 -0.26992595 0.17594217 -0.11094489 -0.25944978 -0.15403435 -0.12243755 -0.14373149 0.03707472 0.17445818 -0.17130765 -0.004758744 -0.08933297 0.23957732 -0.14916393 -0.0691856 0.011588187 -0.10845593 -0.15908462 0.035164487 0.03060088 -0.091491066 0.018453164 -0.0013444347 0.020225678 -0.08558119 0.051723693 0.16559085 0.13458008 -0.101990856 0.045600902 -0.13249347 0.12225478 0.005899137 -0.23770139 -0.2052483 0.14213441 -0.064289406 0.008166874 0.3534736 -0.35627946 0.19866848 -0.1653262 -0.33726475 0.20937774 -0.328744 0.10350081 -0.20673116 -0.061874952 -0.00037797575 -0.14470546 -0.282445 -0.0059687947 0.11597277 0.05350831 -0.10195517 0.18609364 0.21983823 -0.19127509 -0.05251886 0.1704416 0.11390206 -0.09616116 -0.08043966 -0.1381172 0.08956775 0.007443934 -0.17705996 -0.2516952 0.11170764 0.20617916 0.101065755 0.28283826 0.11118046 0.07252837 -0.12984917 -0.23518467 -0.11175222 -0.10720052 0.32825643 -0.0068998463 -0.08055908 -0.083864294 -0.08788035 -0.033628773 0.2944015 -0.19553393 -0.17083313 -0.14555016 0.015202902 -0.048537802 -0.09906477 0.24938485 0.15609618 -0.34571612 0.40202117 -0.05828397 0.05847795 0.114450745 -0.37640086 -0.4757961 0.04787051 -0.2527619 -0.10792844 0.018684743 -0.19488811 -0.0825181 0.1763766 -0.2803673 0.21878527 0.04464065 -0.17899714 -0.033859693 -0.03835013 0.038439162 0.033802766 0.06634279
blogto -0.19154814 0.14750633 0.09587442 0.03419621 -0.16288215 0.067268975 -0.4025887 0.043204244 -0.04272847 0.13471757 0.0018063297 -0.3451119 -0.13705091 0.12724112 -0.109372236 0.073144585 -0.08690797 -0.038899228 -0.16885602 0.018308507 0.058760226 0.23092218 -0.12488624 0.039918013 0.020443132 0.14107357 -0.06964297 -0.064513154 -0.3043231 -0.10826315 -0.009232025 0.43060026 0.23627564 0.17850299 0.07253726 -0.21694885 0.14660282 0.07388588 -0.18635017 -0.027272953 0.11839626 0.2520547 -0.26636192 -0.041184228 0.12866981 0.07469154 -0.11751759 0.11102861 0.11978716 -0.08254315 -0.06846298 0.061025042 -0.08634377 0.13724762 0.013221354 -0.07577895 -0.18557243 0.08926841 0.049049005 -0.005393521 0.0036674023 -0.029093454 0.14327648 0.18935782 0.15191838 0.17359172 0.06868081 0.061029248 -0.10296213 -0.107318856 -0.19102418 -0.023718106 -0.09013861 0.09229301 -0.10672512 0.10684711 0.3114787 0.07956764 0.09066584 -0.012525798 0.11256453 0.07404713 -0.035790633 -0.09577048 0.11107984 -0.05821702 -0.01750871 0.121113054 0.06924771 -0.048267864 0.21584742 0.055398412 -0.08758997 -0.27081448 -0.0025813142 0.11579353 0.21389763 0.02155221 -0.30199927 -0.05641635 0.0349362 -0.07981787 0.14536193 0.10800737 0.20947596 -0.08812559 0.07369261 -0.16451645 -0.14060739 -0.10075132 -0.10161441 -0.00059899397 0.024416583 0.14188509 -0.25063992 -0.1349855 -0.07447758 -0.004369833 0.023999808 -0.09557089 0.0030224528 0.018842412 -0.039376993 0.04981112 -0.27574834 -0.059276532 -0.13845861 0.15469441 0.20101896 -0.21972534 -0.07548862 0.05343348 -0.12815918 0.2103435 -0.20286843 -0.114641294 -0.002009745 0.23193033 -0.06023308 -0.09043148 -0.14307816 -0.085277766 0.07490036 0.24709027 0.00038884554 0.0026812616 0.03306593 0.17254044 0.12042147 0.074223906 -0.084700376 0.05821155 0.025282785 -0.089070804 0.02726644 -0.11239585 0.10992941 0.2129758 0.12674409 -0.30343923 -0.11957818 0.2811375 0.21146558 -0.12175089 0.17330876 0.23416686 -0.3750791 -0.06553223 -0.031477727 0.14035942 0.058655784 -0.07204585 -0.13462159 0.06895625 0.05485576 0.014873109 -0.0592092 -0.013039483 -0.0036287536 0.10359867 0.023839366 -0.1575592 -0.16774184 -0.14165635 -0.27362093 0.32403827 0.0060810423 -0.053910915 -0.03768256 -0.118025236 -0.021682918 0.04948015 0.081809334 0.037355386 -0.05744643 0.023497676 0.080356486 -0.0150622865 0.07922265 -0.046235554 0.10382786 0.032863326 -0.0074183736 0.052345056 -0.07628982 0.06493677 0.056441236 -0.076448746 -0.28782657 0.0447067 0.16653365 0.17153998 0.005087627 0.12795258 0.08415982 -0.0953794 0.06760538 -0.30688366 -0.30545807 -0.12234617 -0.087894835 0.16686395 0.266976 -0.25633875 0.17290622 -0.23908442 -0.33008346 0.06935616 -0.19475424 -0.018106872 -0.2592151 -0.022236362 0.04502936 -0.07859227 -0.095189266 0.06681942 -0.07978844 0.14989175 -0.09315593 0.20272797 0.32587835 -0.16149923 -0.068508774 0.06569708 -0.05043142 -0.011065046 -0.1680971 -0.07668647 0.18181038 -0.017313708 -0.3001631 -0.07464378 -0.039227948 -0.020178135 -0.008923593 0.10999936 -0.033460457 -0.029678676 -0.18861273 -0.03698502 -0.19732575 -0.20350648 0.056443736 -0.097907856 -0.12845227 -0.027606994 -0.12136067 0.001385522 0.1862347 -0.12888592 -0.10309797 -0.068069786 0.0522692 -0.06299332 0.013864282 0.22642006 0.008240254 -0.32621172 0.2698257 -0.3440871 0.07117202 0.100118175 -0.03122689 -0.28391898 0.18169639 -0.20994888 -0.12987553 -0.09410696 -0.3189295 0.043003056 0.32961464 -0.32581756 0.095705196 -0.0009125024 -0.1283289 0.09899346 -0.16082045 0.036220603 0.04016147 0.08419385
yyzfoodie 0.028605122 -0.008660339 -0.022534655 0.046310183 -0.15168002 0.07556809 -0.284824 0.096312754 -0.03441686 0.058136888 0.1701347 -0.26418266 -0.18009873 -0.00034845626 -0.020682791 0.0658328 -0.1472455 -0.06606977 -0.24904774 -0.002851634 0.1850389 0.12083363 -0.11241599 0.12525293 -0.08483799 0.28776616 -0.07476973 0.24958521 -0.29612395 0.0124088405 -0.14662069 0.32979062 0.032752752 -0.14386734 0.0041598342 -0.086842485 0.09401631 -0.014511153 -0.23274834 -0.0005077839 0.20880014 0.17489825 -0.15216678 -0.0070758574 0.056825515 -0.013197041 -0.06171655 0.105303615 0.08869743 -0.0625418 -0.00838698 0.09362085 0.0035794773 0.11732443 0.07819348 0.0068329554 -0.07972143 -0.052881513 0.1615599 -0.093353465 -0.13647918 0.042647086 0.15379155 0.046331253 0.092273764 -0.05600953 0.1253622 -0.021593837 0.01720904 -0.21232517 0.065794796 -0.22539985 0.11226588 0.089956984 -0.11351615 0.039708853 0.16248925 -0.11862916 0.15070492 0.15711533 0.16399607 0.10649281 -0.15472554 0.102986045 0.024663383 0.021137165 0.16224809 -0.021964226 0.12982452 0.15495151 0.05800555 0.04200795 -0.12828836 0.031036463 -0.06832086 -0.016080225 0.07087974 0.037643097 -0.3335415 0.016033603 0.023289893 -0.06746339 -0.20735358 0.2055914 0.19376573 -0.1283787 0.1008432 0.014159014 -0.009670685 -0.0667385 -0.04990272 -0.0051737167 0.13871242 0.11207338 -0.30325252 0.09132827 -0.15330972 -0.1794849 0.0838308 -0.08756658 -0.003737285 -0.045907166 0.040206436 0.07249725 -0.15659201 -0.11065339 -0.20842429 0.20919141 0.117199264 -0.119956784 0.08122604 0.062936306 0.009779663 0.18677288 -0.027268 -0.057608232 0.12555538 -0.032138776 -0.09175909 0.16875207 0.0044633737 -0.124406256 -0.07888807 0.004455537 -0.017780717 0.1299816 -0.14998221 -0.029637763 0.08338726 0.011357222 0.026479188 0.04979065 -0.21246223 -0.02856486 0.014744821 -0.14191337 0.28425282 0.25729635 0.07591705 -0.2955858 -0.16988441 0.15843132 0.254441 0.00032563834 0.062088467 0.0013278226 -0.2815065 -0.10413931 -0.062171426 0.06464114 -0.09477679 -0.057648797 0.0048353705 0.1921978 0.13754594 0.2083136 -0.054464515 -0.099917196 -0.16753288 0.2966436 -0.058734108 -0.097724415 -0.16908018 -0.01747597 -0.053138707 0.40549618 -0.08808767 -0.10196328 -0.044361856 0.16838938 -0.080745935 0.1488772 0.007924276 0.0057600527 0.023835218 0.020960497 0.08633836 0.0043851137 -0.010585016 -0.0760036 -0.0035664502 -0.1564046 0.17082529 -0.0412577 0.07331196 -0.09380886 -0.09464166 -0.048371404 -0.23095317 -0.01344685 -0.063923575 0.074993275 0.07488186 -0.17865586 0.00947808 0.017734451 -0.048631813 -0.16276401 -0.27859437 -0.15686186 -0.016048778 0.1794744 0.20018397 -0.2147294 -0.0116997855 -0.18594193 -0.18494058 0.040800795 -0.06560722 0.11323454 -0.2629532 -0.081076294 -0.03776866 0.115658544 -0.06882795 0.23905039 0.111059554 -0.016400816 -0.00078747596 0.19628534 0.24936488 -0.08456313 -0.093827896 0.038232874 0.14083797 -0.08956427 0.0022370776 0.09460223 0.12260735 -0.16224839 -0.020221526 -0.16384163 0.07655289 0.029116627 0.11488898 0.115422964 -0.096665256 -0.18912375 -0.23724174 -0.23222025 0.108516455 -0.29827398 -0.07109091 -0.024427466 -0.19146924 -0.008990495 0.0066185505 0.12638237 -0.042303573 -0.11125874 -0.08047937 -0.10683752 0.051406957 0.05368304 -0.09174119 0.13411449 -0.29413325 -0.16513659 0.2626789 -0.09482147 0.16483957 0.11343103 -0.06256075 -0.25094315 0.20241901 -0.036876988 -0.22781931 -0.12329201 -0.22487082 0.029934606 0.24944745 -0.2855184 0.16493508 0.010005723 -0.060709473 0.076399505 0.02752107 0.20144378 0.046258092 -0.016189018
kingstoneats 0.04647486 0.018820964 -0.07659183 -0.05325387 0.009250846 0.037557397 -0.20129374 0.19748847 -0.15650675 0.14640582 0.020315656 -0.23484746 -0.057259765 0.003984432 0.009490669 -0.056210242 -0.1773372 -0.11322793 -0.14280847 -0.026884034 0.0766363 0.17417902 -0.07477058 0.07379652 0.07127773 0.30892688 -0.09645733 0.22326016 -0.3302276 -0.16363816 -0.03845736 0.2770062 0.013242223 -0.14325057 -0.07327079 -0.11074101 0.14023496 0.16785254 -0.1492258 -0.19873671 0.20021701 0.24676816 -0.18865846 0.06661365 0.073750764 -0.0437877 0.026653266 -0.048717156 0.12996507 -0.19615251 0.044785738 0.17613311 -0.076212496 0.11178521 0.008434034 0.026994905 -0.076460235 -0.06272984 0.06255003 -0.13878761 -0.23206972 0.04959605 0.019816034 -0.12051188 0.04078148 -0.028006162 0.081701845 -0.020860417 0.015724512 -0.15391648 -0.09940452 -0.02581063 0.04307231 0.15415889 -0.35631922 0.07166234 0.24196441 0.12585595 0.19526406 -0.1071955 0.20567894 0.05375753 -0.09417188 -0.1377525 -0.08758916 0.14201114 0.1670199 -0.11404826 -0.04658856 0.12804139 -0.029389558 -0.19466692 -0.0068814205 0.13162671 -0.041072942 0.15688142 0.06551509 -0.14351474 -0.2996295 -0.1983996 0.16376047 -0.14229016 -0.1064253 0.16166537 0.2119758 0.0062141377 0.014130545 -0.037540734 0.05848917 -0.2266231 -0.04646434 -0.11466882 -0.0011303703 0.1261469 -0.17205594 0.12488174 0.025936829 -0.14959455 0.08562036 0.07401335 -0.16157882 -0.028973801 0.11855272 0.01042677 -0.17571588 -0.086090304 -0.05892207 0.051605497 0.115719505 -0.27324978 0.058613975 0.061805453 -0.0045039505 -0.00023163631 -0.13350703 -0.15584813 0.20481582 0.054719217 0.008179699 0.13663836 -0.06535112 -0.17658141 -0.07715524 0.16400526 0.014298129 -0.0042071007 0.041856114 0.021063628 0.015079521 -0.1155464 -0.215302 0.05169232 -0.138297 0.12131289 0.076335855 -0.010967047 0.14663161 0.18721539 0.031711232 -0.2260353 -0.08110126 0.21273232 0.38490674 -0.1955607 -0.13666503 -0.049744476 -0.23599145 -0.17635804 0.0944114 0.016687175 -0.029695591 -0.21964927 0.12625808 0.103261776 0.18846324 0.35179326 0.0057526003 -0.13957982 -0.06598647 0.1710158 -0.08589545 -0.06247048 -0.10334877 -0.0054253945 0.0018206605 0.35670015 0.03163214 -0.15443988 -0.07436795 0.07200266 -0.030742656 -0.072382726 -0.065564916 -0.059009004 0.17627963 -4.1188396e-05 0.085091025 0.1375396 0.09718532 -0.07625748 0.012562833 0.017963076 0.31505433 -0.0021912863 -0.105130404 -0.09988025 -0.17136887 -0.05305613 -0.14341977 0.012370721 0.023636598 0.08002903 -0.027569648 -0.08317894 0.003941376 0.21452747 -0.12493262 -0.21771052 -0.17539859 -0.14176339 0.18626942 0.16213284 0.11216779 -0.3527992 -0.07872332 -0.2440475 -0.18430859 0.06662678 -0.20735672 0.12539163 -0.19907303 -0.019662766 -0.097273044 0.1534922 -0.08691666 0.07796685 0.097390495 -0.20275064 -0.070199065 0.18023777 0.17089362 -0.16682291 -0.017071098 0.17552273 0.118264295 -0.121082276 -0.11312476 0.07069014 0.09835535 -0.14544128 -0.044617645 -0.3819192 0.027750883 0.08833889 0.09316654 0.31991568 -0.21380222 -0.037665103 -0.18493228 -0.22194383 0.14146356 -0.30149525 -0.21638945 -0.04847282 -0.10194237 0.17504977 -0.04201915 0.09485451 0.024823964 0.022362715 -0.025854053 -0.002546338 0.039642166 0.067609265 -0.008167694 0.22439925 -0.30387944 -0.30853638 0.26014113 -0.10474165 0.11169934 0.12819186 -0.18519396 -0.14673771 0.13520211 -0.20801905 -0.24634627 0.0039960737 -0.2571329 -0.04443751 0.33583677 -0.18566634 0.15142347 0.019088434 -0.026657263 -0.039283 0.07376229 0.14793336 -0.04434736 -0.1497526
delicious 0.04963371 0.005077618 0.01656214 -0.02838457 -0.039536912 0.0059242477 -0.12253706 0.05786389 -0.10162737 0.10853514 0.08781642 -0.21248195 -0.074578606 0.021088807 -0.02678287 0.034857843 -0.090444475 -0.123743884 -0.111794814 -0.019334622 0.038751263 0.19442947 0.005202878 -0.04780585 0.11899382 0.15631522 0.021479296 0.05595321 -0.20664427 -0.20683707 0.019536208 0.22816075 0.06885426 -0.01391338 0.023411296 -0.058943592 0.1346426 0.051427707 -0.102509096 -0.2331936 0.035911735 0.1682131 -0.15158959 0.043902643 0.00790959 0.038958788 0.083988406 -0.074637525 0.16699152 -0.09198201 0.07185905 -0.024205292 -0.07900095 0.09602106 0.07222721 0.07835966 -0.011955115 -0.023896368 0.0045607225 -0.058494717 -0.05821485 0.19138539 0.042361 0.04877031 0.063941576 -0.03314993 -0.018991837 0.056859218 0.05055636 -0.17149866 -0.13699634 -0.010428594 0.0636221 0.07743122 -0.2517219 0.07735953 0.06187829 0.08259453 0.120829284 -0.050072752 0.028069211 0.014618588 -0.044771463 -0.049389984 -0.046755042 0.073535845 0.19735 -0.029576303 0.018905107 0.041185886 0.0041886345 -0.17237484 -0.10689777 0.10294977 -0.047063082 0.12322937 0.13834143 -0.11450641 -0.15936878 -0.15314986 0.181019 -0.13010976 -0.07152308 0.10100061 0.080739684 -0.008730925 0.13121365 -0.07583568 0.10164475 -0.18434739 -0.0801547 -0.06683057 -0.058926344 0.038906883 -0.07424362 0.01724425 -0.00803917 -0.073134474 0.079190835 0.07301208 -0.056129508 -0.042510837 0.11328189 0.024772843 -0.1687066 -0.12228239 0.06578042 0.012927817 0.14513901 -0.09028058 0.015424035 0.07079557 0.090879545 -0.021429515 -0.09568632 -0.018789 0.115876734 0.06259396 -0.006727509 0.06330289 0.087295376 -0.116445884 -0.08205759 0.108438894 -0.009534733 0.066468365 0.076712325 0.07112 -0.00305151 -0.1084982 -0.16349243 -0.01413656 -0.13964514 0.051731553 0.06706334 -0.004804828 0.0829388 0.11462677 -0.052230895 -0.09065464 -0.047631312 0.18625651 0.27217892 -0.19725029 -0.11691864 -0.03616435 -0.17173629 -0.15207829 0.052643776 0.079865046 -0.031878587 -0.1359199 0.11449723 0.13118252 0.11032756 0.1350964 0.04822468 0.05165756 -0.061205525 0.116838716 0.0058455057 -0.010620696 -0.18271895 -0.0015967708 -0.045713592 0.3304992 -0.0014623875 -0.10696526 -0.13138121 -0.026980689 -0.08203831 -0.14227033 -0.024555324 -0.03334799 0.09644111 0.00971445 0.06869309 0.051489223 0.054154117 -0.0028503397 0.02948464 0.071778536 0.22824979 -0.04773452 -0.106579766 -0.033479672 -0.06886294 0.004870508 -0.095983736 -0.05697168 0.0088122785 0.098248184 0.017114436 0.044104237 -0.06694884 0.097111225 -0.09744363 -0.27423564 -0.14809895 -0.018302815 0.10361749 0.054744333 0.08130614 -0.22323869 -0.086299025 -0.14813569 -0.11523899 0.07932695 -0.22398281 0.042986274 -0.22006273 0.028331364 0.082866706 0.028959852 0.012236472 0.024694404 -0.0057005407 -0.22989291 -0.0032808392 0.10290558 0.16376412 -0.19745927 -0.0036611897 0.15017156 0.12103849 -0.05652703 -0.010908736 0.022121284 0.06308816 -0.061920147 -0.06910229 -0.27785903 -0.01846457 0.0012357178 0.011643721 0.28541335 -0.0862507 0.009568304 -0.21505472 -0.12308555 0.1139176 -0.12460492 -0.08984446 -0.034549147 0.02773799 0.034422904 -0.04204138 0.027920505 -0.012445424 0.00012446134 -0.05940914 -0.024838211 -0.025882144 0.04333928 -0.06983988 0.13020101 -0.13622221 -0.25617018 0.1416719 -0.016367823 0.029803896 0.1390066 -0.11423524 -0.1362762 0.09004414 -0.114851706 -0.13835962 0.018482508 -0.12900555 0.017136237 0.30116206 -0.09811686 0.09060238 -0.002891406 -0.04330072 -0.046121534 -0.039942894 0.061290704 0.008379003 -0.06939036
homemade 0.02467702 -0.002678966 -0.0008331054 -0.028299458 -0.02493995 0.02757372 -0.14984494 0.12662879 -0.12799199 0.13579625 0.10546913 -0.26820186 -0.07006143 0.007490699 0.028579017 0.009703776 -0.1315722 -0.12256334 -0.119575985 -0.023146477 0.06923931 0.17632388 -0.038788 -0.008825081 0.10267916 0.20718151 -0.03142555 0.07903134 -0.25057453 -0.19477762 -0.005545131 0.25818455 0.041049406 -0.02952829 -0.019878684 -0.07964193 0.16809608 0.06778788 -0.14125192 -0.23608246 0.080196254 0.20835158 -0.16485299 0.0018191637 0.048832025 0.010503798 0.07574409 -0.06602224 0.16389447 -0.11553646 0.0864154 0.011565623 -0.055835173 0.09167831 0.05951328 0.10831277 -0.036290392 -0.03767016 -0.0013935851 -0.07892865 -0.123436034 0.16326763 0.002548286 0.020512177 0.042706553 -0.0062787393 -0.0017894849 0.03682813 0.012194415 -0.1828648 -0.13674252 -0.032763414 0.050851952 0.104399905 -0.30275986 0.09189111 0.13598785 0.0855792 0.17391582 -0.07615147 0.09101561 0.040878102 -0.09003794 -0.12621382 -0.06895625 0.057439946 0.21329659 -0.051716693 0.051625397 0.08024889 0.017297134 -0.1679409 -0.108629584 0.10414876 -0.064151995 0.08762228 0.116310015 -0.13968274 -0.22216502 -0.14760502 0.18659858 -0.113618806 -0.07250517 0.15849857 0.12531349 -0.0031590087 0.0813657 -0.09642895 0.08060319 -0.20598125 -0.06449257 -0.06374076 -0.008568081 0.10307961 -0.12445419 0.06992761 -0.04049587 -0.120772295 0.09198227 0.06874707 -0.09575545 -0.028793724 0.10460917 0.043374844 -0.20303942 -0.11786704 -0.009151324 0.023396334 0.14348264 -0.1400832 0.0109507 0.08454572 0.07060251 -0.0035663252 -0.11025901 -0.05818279 0.16775288 0.056496043 0.03424865 0.071342535 0.050887533 -0.17592062 -0.0926514 0.13872573 -0.008636005 0.0496789 0.064418085 0.0853863 -0.0062534213 -0.10971685 -0.1620374 0.012525083 -0.18042947 0.06420008 0.07316916 -0.0012590161 0.10447226 0.1490025 -0.006837225 -0.13048474 -0.11314665 0.20753406 0.3234058 -0.19841632 -0.13194562 -0.07068152 -0.23672351 -0.21559076 0.023366753 0.07536279 -0.030938948 -0.1554654 0.13006088 0.123579755 0.13993782 0.18887708 0.03958139 0.001960164 -0.07910796 0.16477299 0.009685515 -0.032319542 -0.19970074 0.017706541 -0.05651919 0.36588442 0.016468853 -0.113528535 -0.11814477 0.0140624065 -0.08062884 -0.138325 -0.030805262 -0.014414145 0.14462419 -0.009858818 0.080148466 0.09039207 0.09729006 -0.0024102873 0.032491326 0.040194772 0.2504558 -0.024863893 -0.09705192 -0.08051537 -0.12356916 0.003215135 -0.1256021 -0.011769988 0.010935256 0.110611066 0.015344411 -0.005610335 -0.0498349 0.14380494 -0.09973296 -0.260437 -0.16023345 -0.09062662 0.13610746 0.101053774 0.12195734 -0.2637866 -0.05774819 -0.19929984 -0.16507547 0.08139865 -0.23680332 0.0499836 -0.23079312 -0.014112837 0.07683349 0.07490275 -0.0016575146 0.056034327 0.037281524 -0.2368435 -0.014373737 0.14316426 0.1936977 -0.2238213 -0.01173275 0.1810907 0.102849975 -0.05506881 -0.0075239763 0.0017846429 0.07887247 -0.10181209 -0.052690364 -0.33126628 -0.0050285202 0.014828694 0.03726525 0.31016895 -0.110590816 -0.035156608 -0.22938229 -0.18392612 0.11419977 -0.19132921 -0.13748395 -0.036278013 -0.034124196 0.041264307 -0.010355864 0.06939352 -0.0034276042 0.00433128 -0.035844523 -0.027312284 0.00018798823 0.07058889 -0.04922521 0.17423844 -0.19829054 -0.29658648 0.20932369 -0.074582815 0.063837856 0.13645627 -0.13386449 -0.12567572 0.11441376 -0.17148149 -0.15235071 0.013518422 -0.18313475 -0.016369294 0.31750393 -0.13957444 0.11324499 0.039809138 -0.010562164 0.0044398643 -0.016864523 0.10573336 0.013486826 -0.06578198
homecooking 0.016631037 -0.03722372 -0.0032036013 -0.033732537 -0.04450743 0.0015466997 -0.10134532 0.14240173 -0.18977162 0.13813794 0.13339986 -0.27634177 -0.050480075 0.018645708 0.024181029 0.017664675 -0.14833769 -0.106942296 -0.08951697 -0.03877678 0.06193509 0.1531861 -0.0135308355 -0.070671074 0.1267687 0.20074461 0.02869459 0.057993483 -0.2697032 -0.25490597 0.014489725 0.25094923 0.032807477 -0.021220533 0.0077248495 -0.06426143 0.2265514 0.05032842 -0.14487618 -0.31089035 0.02498193 0.20849724 -0.15404446 -0.021231422 0.011484497 0.06095563 0.12585089 -0.1198874 0.1811513 -0.09140186 0.1449816 -0.06699713 -0.10184622 0.06289146 0.0896863 0.14538573 0.030468553 -0.026269864 -0.08760921 -0.045534804 -0.09916872 0.2675172 -0.029626664 0.08278325 0.043970503 -0.056549907 -0.060308106 0.055385377 0.050468165 -0.22728467 -0.16970256 -0.02747477 0.07016482 0.12725466 -0.2986025 0.10088125 0.072225824 0.090838276 0.16022572 -0.050351024 0.021330867 0.029173663 -0.08476825 -0.129652 -0.104992054 0.06973746 0.3075513 -0.05171305 0.09009532 0.0814899 0.005981486 -0.22373554 -0.19612205 0.18267792 -0.07721394 0.09685474 0.13058546 -0.20302421 -0.23653762 -0.16275048 0.25168407 -0.12543021 -0.10435431 0.16087635 0.06529435 0.013959975 0.14210531 -0.15566532 0.17198843 -0.2423119 -0.073686905 -0.098962605 -0.041489426 0.07172876 -0.06184127 0.03711342 -0.07537029 -0.1271101 0.11955694 0.10835356 -0.07093678 -0.038038913 0.15714806 0.071039096 -0.22385184 -0.12608162 0.022328325 -0.008598168 0.1679171 -0.0975343 0.011547228 0.10315099 0.15978086 -0.05948824 -0.09918959 0.0010051314 0.14955315 0.053088017 0.03833879 0.1190509 0.1985155 -0.17949244 -0.104069225 0.13555765 -0.009098441 0.062097974 0.104836605 0.09429508 -0.03780732 -0.13309942 -0.18112478 0.016531695 -0.22965111 0.04872706 0.088327356 -0.0032979713 0.054159842 0.13688995 -0.015486812 -0.027277308 -0.14372656 0.24298847 0.37131152 -0.23940349 -0.13662337 -0.09255414 -0.26116073 -0.27180788 -0.0049269986 0.12679178 -0.042244744 -0.13425149 0.18018904 0.12778047 0.17890908 0.18019608 0.08422284 0.05652762 -0.12134625 0.15484497 0.03565019 0.009441998 -0.244071 0.00149033 -0.03282315 0.40860647 0.038862474 -0.09637836 -0.18658069 0.009230982 -0.089137115 -0.20814924 -0.056377195 0.006734455 0.1514695 0.0066939434 0.056235556 0.109804384 0.117962934 0.0355184 0.04748747 0.08381614 0.2682195 -0.05535087 -0.10265377 -0.06043511 -0.14122595 0.05046386 -0.108041555 -0.047950473 -0.027782353 0.13757555 0.05256771 0.04793754 -0.07760201 0.13127185 -0.10609911 -0.28405866 -0.15146649 -0.08733614 0.16327152 0.0804191 0.09785602 -0.24659911 -0.10409589 -0.20919885 -0.13134755 0.08898122 -0.25279334 0.009945085 -0.28180537 0.016375158 0.14985749 0.071385615 0.07713662 0.05128305 -0.024305096 -0.3534017 0.031130975 0.11008719 0.17405565 -0.250522 -0.031007929 0.20927006 0.102944605 -0.021677634 0.06707677 0.008649819 0.07779371 -0.09675568 -0.03448485 -0.36999136 -0.023001472 -0.04493381 -0.028471671 0.34307188 -0.106252715 -0.03265244 -0.29133868 -0.17611904 0.15607105 -0.14694016 -0.17859605 -0.06783399 0.011514101 0.0115715945 0.015904801 0.031987637 -0.08559912 0.048329145 -0.06302838 -0.0125066005 -0.017680138 0.11577871 -0.08200404 0.16808742 -0.20742315 -0.2988541 0.15009677 -0.0537737 0.034817643 0.14228824 -0.07515907 -0.085943095 0.1399818 -0.14836904 -0.12853874 0.03991872 -0.1330812 0.024367552 0.3388874 -0.08694418 0.10688637 0.043321818 -0.014284367 -0.015485847 -0.066128254 0.107872725 0.018621018 -0.050357178
studentlife 0.09072174 -0.0127068795 0.03609112 -0.046439413 -0.13863775 -0.057166778 -0.19877255 0.024194418 -0.1590661 0.17517631 0.14682853 -0.29931185 -0.09069894 -0.031618603 0.021680778 -0.0039377864 -0.20094387 -0.18213381 -0.13229293 -0.09229545 0.086917154 0.18049525 -0.012838538 -0.05540065 0.15744743 0.17074677 0.017418833 0.07670732 -0.2405775 -0.32097566 0.031047925 0.27368537 0.023600517 -0.029603936 0.03784063 -0.036531936 0.22299354 0.0038499727 -0.109559275 -0.36529985 0.0054197097 0.20979376 -0.20481068 0.073779665 0.02432651 0.09204383 0.15675396 -0.1257198 0.17568167 -0.13404554 0.13646023 -0.050107095 -0.08943698 0.056873288 0.05263137 0.14820726 0.006812108 -0.11087951 -0.03646197 -0.06921835 0.0019889863 0.34180066 0.011902941 0.134089 0.047940493 -0.048711296 -0.075957015 0.12136653 0.022652155 -0.2753261 -0.18330808 -0.049016964 0.1619884 0.15682645 -0.2910643 0.092320204 0.0535759 0.07973156 0.12307476 -0.029323598 -0.0275736 0.021734972 -0.07069485 -0.10132596 -0.0961158 0.12323115 0.2741824 -0.03573689 0.026525903 0.019598933 0.05726131 -0.2623088 -0.16312885 0.25592095 -0.1164656 0.1374405 0.17309205 -0.15491106 -0.22518352 -0.18511935 0.27923465 -0.15396166 -0.1214925 0.14565022 0.074283965 0.055176914 0.28137165 -0.16208951 0.19318436 -0.24454439 -0.078560054 -0.08238065 -0.0021909077 0.05604421 -0.06826209 0.00014806219 -0.04446794 -0.11618056 0.06321597 0.13179265 0.022018848 -0.034606367 0.13765971 0.0696143 -0.2034597 -0.21906672 0.15568791 0.047872957 0.23994769 -0.11570678 0.037037004 0.05677527 0.20589797 -0.04055063 -0.11350226 0.0064922892 0.18453418 0.04219965 -0.015018501 0.11831187 0.21518816 -0.14862557 -0.13363014 0.098163314 -0.015693817 0.058474652 0.08231121 0.049228467 0.0187189 -0.13575073 -0.18637633 -0.049639918 -0.2192531 0.04060711 0.070131086 -0.07452809 0.03347246 0.15079369 -0.007300016 -0.004478425 -0.056407258 0.28980044 0.44047347 -0.2967815 -0.0788259 0.011141281 -0.25381562 -0.25951016 0.004316267 0.17741904 -0.02346644 -0.17869556 0.17370462 0.11614247 0.110545956 0.1635735 0.07900572 0.067617156 -0.16800237 0.086393 0.04625522 -0.03692568 -0.20729138 -0.040397804 -0.10812494 0.46035814 -0.028602166 -0.11728156 -0.20362492 -0.04675911 -0.12866671 -0.13609813 0.02373394 -0.03010329 0.16671629 0.043122005 0.09519989 0.11707398 0.13393734 0.06330812 0.085326284 0.04524928 0.25939506 -0.0049936464 -0.16352251 -0.025311176 -0.0943995 0.081237145 -0.120513566 -0.14421833 -0.00402941 0.14803411 -0.013529529 0.11309156 -0.14297986 0.08379471 -0.14714192 -0.29739925 -0.1403731 -0.061982248 0.10430299 0.07395651 0.056481227 -0.23455004 -0.13124001 -0.18048362 -0.124265 0.0753309 -0.2722703 -0.03023468 -0.27445397 0.051039357 0.2226258 0.019241767 0.107317634 0.010410844 -0.11996539 -0.34514523 0.023336712 0.1771794 0.1640033 -0.23433593 -0.009146598 0.19030327 0.1199064 -0.018140193 0.0658343 0.033184737 0.111859456 -0.16841598 -0.055553928 -0.38603157 0.0026640664 -0.007287618 0.0035621137 0.4371774 -0.16129284 0.022640008 -0.40034622 -0.12684591 0.1734933 -0.15507923 -0.11521688 -0.12877955 0.044596538 0.07892123 -0.0055799764 0.004651294 -0.085111596 0.06991238 -0.1014828 0.00095946563 -0.036950834 0.15823664 -0.12354245 0.20474094 -0.22778797 -0.40488935 0.08410647 -0.07469143 0.066690125 0.13334134 -0.022851652 -0.104139216 0.17710347 -0.06090331 -0.12136981 -0.063518524 -0.08027852 0.02105804 0.45834976 -0.032649074 0.14567643 -0.028802922 -0.074665375 -0.034885902 -0.03727444 0.06912574 -0.052844144 -0.039134853
studentliving 0.15902324 -0.076667264 0.053054202 -0.022641245 0.010363435 0.040146217 -0.087795004 0.06856212 -0.25123376 0.19206467 0.12342121 -0.3115137 -0.10461408 -0.0054880287 -0.0049919756 0.09176669 -0.15904568 -0.28512973 -0.05886365 -0.120984785 0.1359946 0.22619058 0.017786173 0.021341259 0.09377412 0.252748 0.05211293 0.1581513 -0.22621247 -0.4484515 0.10281238 0.2525465 0.066950805 0.049092323 0.058574848 -0.042557314 0.2622275 0.10849954 -0.122989215 -0.49545598 0.07841741 0.16275305 -0.13976787 0.03824897 0.02805503 0.074399404 0.29087037 -0.17722559 0.1811 -0.12343488 0.13679631 -0.10096629 0.0011832905 -0.033109516 0.093390904 0.14450447 -0.01989591 -0.109836586 0.018500825 -0.16825205 -0.10805672 0.2924795 0.10057943 0.15579888 -0.020695817 0.012174315 -0.14646757 0.18797837 -0.022600291 -0.11394896 -0.16906928 -0.061414704 0.0473389 0.13653387 -0.3918626 0.09248894 0.04506825 -0.063151695 0.23074155 -0.06658242 0.06075582 0.004236469 -0.05257415 -0.107217684 -0.08715082 0.054713894 0.195732 -0.02749259 0.03950232 0.18851936 0.04272075 -0.30738118 -0.3002981 0.17340541 -0.21986209 0.014450251 0.094837464 -0.24124075 -0.17384689 -0.2583981 0.27497444 -0.15979242 -0.071237825 0.20235853 0.025178518 -0.016822554 0.25041994 -0.12666976 0.19281946 -0.1939858 -0.11385952 -0.022401212 0.05310503 0.033391465 -0.122127414 0.033050746 -0.035177954 -0.08579165 0.11785702 0.013675886 -0.050070576 -0.019731404 0.15120678 0.040654268 -0.16780134 -0.15113777 0.11398774 -0.028773475 0.24618141 -0.10898337 0.09294704 0.0032232022 0.16772488 -0.0015803206 -0.15235594 -0.018914415 0.09038571 -0.087371774 0.03693559 0.19854856 0.13266575 -0.21424721 -0.09877513 0.10567997 0.0040882393 0.08523605 0.18811123 0.12888955 -0.07653166 -0.09792313 -0.3374643 0.083454736 -0.32964477 -0.01323297 -0.0051325285 -0.05202394 0.10450282 0.24292779 -0.122697614 -0.18733005 -0.005246556 0.21376017 0.38268077 -0.2611141 -0.08970898 -0.044571336 -0.26535213 -0.2745645 0.058808457 0.13229501 0.03943067 -0.058943707 0.19278555 0.1878601 0.12607287 0.11645901 0.21363133 0.09257655 -0.14887846 0.23227096 0.23085687 -0.01640675 -0.30518648 0.09692829 -0.061941933 0.506303 0.07439991 -0.10694287 -0.20319243 -0.1964701 -0.32743016 -0.13430038 -0.050317246 0.058273654 0.09510508 0.059629798 0.07932616 0.15822671 0.15442213 0.123532385 0.08782446 0.087453336 0.3098743 -0.038025767 -0.09531825 -0.09420823 -0.18716086 0.104389265 -0.1548252 -0.15901284 -0.13968867 0.10951125 -0.16477157 -0.0416685 -0.15245202 0.014560973 -0.13318662 -0.38888156 -0.30499175 0.02181963 0.19311337 0.16022395 0.08539447 -0.28635678 -0.05037374 -0.20173027 -0.24173856 0.05257588 -0.33341968 0.0559049 -0.2617275 0.034213692 0.097096235 -0.056879304 0.07762523 -0.05981685 0.03737074 -0.37639576 0.040305607 0.17967255 0.20531121 -0.2645503 0.020250307 0.1800859 0.15733607 -0.06463054 0.11458202 -0.0051595736 0.057658345 -0.24703895 0.043733187 -0.55031186 1.2334329e-05 -0.14000197 0.09954009 0.32144642 -0.035940755 -0.0126790255 -0.34133372 -0.14285165 0.056575898 -0.26230124 -0.07718873 -0.19630273 0.04820663 0.05475784 -0.026054997 -0.033987407 -0.04066355 -0.033922132 -0.09033413 0.043589924 -0.14364144 0.30372658 -0.28852424 0.19037393 -0.100431696 -0.4719726 0.18980554 -0.10830178 0.023349453 0.032547392 -0.20129316 -0.1238004 0.07139078 -0.13093443 -0.16377589 0.012681202 -0.11939779 0.0005820561 0.5133866 0.0007245467 0.27998906 0.03300509 0.045480285 0.05296743 -0.106734425 0.06864495 0.0018108 -0.02053616
university 0.16735421 0.0066037886 0.16910787 0.015029221 0.007012478 -0.10823676 -0.12973309 0.17189692 -0.25200796 0.08748045 0.22812222 -0.43685392 0.030151607 0.004046174 0.03774869 0.082858466 -0.13067694 -0.22494905 -0.03035269 -0.04430078 0.10147585 0.25371385 -0.10476711 -0.10049139 0.16241182 0.1273823 0.09848189 0.00993486 -0.20249014 -0.34959367 0.14383423 0.34459063 0.19171712 0.031484064 -0.03226629 0.03569935 0.35841066 -0.013212805 -0.17576052 -0.38362053 -0.0743891 0.3204236 -0.14174812 -0.031175321 -0.06107455 -0.033952262 0.23042992 -0.123131186 0.36458534 -0.24275203 0.17299086 -0.15057142 0.031572815 0.1152656 0.14332321 0.23340471 0.06402522 -0.06412994 -0.02778067 -0.15845917 -0.025690371 0.37112135 0.001211355 0.17321385 -0.0658842 0.09665262 -0.15998234 0.113249384 0.052276466 -0.18305646 -0.10348499 -0.11941982 -0.033193152 0.05242682 -0.35133886 0.22088782 -0.02666613 0.021977466 0.25679228 0.0039755786 -0.01729088 0.027836472 -0.02781629 -0.13053131 -0.07369145 0.05026939 0.28837314 -0.09513534 0.14730208 0.21914713 -0.036229733 -0.2848059 -0.22761457 0.11737799 -0.16228148 0.02078221 0.2999355 -0.2525534 -0.16638736 -0.23484254 0.29257292 -0.09484837 -0.094726846 0.23747745 0.12217643 -0.00225877 0.17786086 -0.24513356 0.3171618 -0.2620137 -0.10479422 -0.06562299 0.039650712 0.09712661 -0.11914108 0.09434359 -0.15721172 -0.01822408 0.16333033 0.0751269 -0.042264953 -0.0012474164 0.19852555 0.018583339 -0.16990143 -0.0015683086 0.13149613 -0.19167686 0.29554152 -0.058860965 0.10315921 0.121128984 0.17358585 -0.026922734 -0.16061755 0.031856313 0.14740986 0.07318578 0.07181459 0.1965647 0.21555293 -0.3208635 -0.16886388 0.20737877 -0.027394656 0.17042881 0.25433865 0.11843968 -0.062085137 -0.21754889 -0.30586487 0.021451317 -0.27623513 0.052171387 -0.019953314 0.02258688 0.052075136 0.21494643 -0.14529997 -0.053801674 -0.14524877 0.26427424 0.28600997 -0.4361653 -0.14227244 -0.09886856 -0.300155 -0.3144618 0.007805291 0.15914978 -0.026550805 -0.15781522 0.30685642 0.26676387 0.040981445 -0.01296929 0.02241999 0.2168353 -0.16495085 0.33790758 0.101934865 -0.026416529 -0.44661906 0.0471237 -0.052786756 0.45641124 -0.001861312 -0.013168622 -0.21747223 -0.21309042 -0.14916447 -0.24606426 -0.20026551 0.05837934 0.015086139 0.116378196 0.21925192 0.1559884 0.07384012 0.03323371 0.20604302 0.14017886 0.32390705 -0.17853752 -0.09709243 -0.089760125 -0.24941236 -0.018374372 -0.10976556 -0.10990288 -0.0063393526 0.09050281 -0.051731963 0.07960369 -0.16426156 0.012067919 -0.0378355 -0.43360403 -0.2751132 0.027216485 0.19695836 0.15618262 0.058555685 -0.2462118 -0.15703103 -0.16821942 -0.2513236 -0.07989105 -0.41727236 0.123239115 -0.33124775 0.0071671037 0.21886133 -0.042046454 0.12355685 -0.011421895 0.034045205 -0.4502533 0.13258304 0.23091596 0.24315394 -0.40901387 0.13274659 0.2063391 -0.013310579 0.07208776 0.0076109786 -0.007027595 0.059973016 -0.18643606 -0.0811949 -0.55769527 -0.08390986 -0.18306474 -0.016914243 0.39907607 0.0058695427 -0.03236127 -0.31790334 -0.2504822 0.15566222 -0.13349545 -0.13903438 -0.054021105 0.04967918 -0.008109825 -0.030111011 0.0903188 -0.080423884 0.025766827 -0.028873928 0.052428808 -0.05293413 0.22979343 -0.109291635 0.18414496 -0.33510485 -0.38896373 0.14888744 -0.11172605 0.019787049 0.19115762 -0.13638444 -0.126966 -0.002913009 -0.17913899 -0.21390754 -0.0273173 -0.25388744 0.0732979 0.409602 -0.12176739 0.18820165 0.035445824 0.1335921 0.12942867 -0.16775492 -0.009585125 0.06250643 0.008563288
student 0.07034609 -0.0019130793 -0.04981618 -0.056890037 -0.044550385 0.038186636 -0.17860025 0.09288116 -0.16414066 0.16831867 0.105196424 -0.25049728 -0.12600127 0.0349083 -0.07673728 0.03127481 -0.15657027 -0.16194314 -0.18200599 -0.003774015 0.03636029 0.29013634 0.049013518 -0.06464644 0.16860022 0.29399765 0.014608408 0.14757086 -0.35224327 -0.28058687 -0.0094347345 0.33169988 0.0667465 -0.10379346 0.03923781 -0.10040194 0.16244847 0.108707175 -0.15096053 -0.3362234 0.12434883 0.23113666 -0.21701853 0.12242907 0.00832528 0.08840911 0.112420164 -0.12666182 0.22306012 -0.11537468 0.107220456 0.014878899 -0.19255619 0.14907973 0.0917302 0.082130976 -0.02482837 -0.028932834 0.015861232 -0.08289166 -0.121538036 0.26982927 0.07439584 0.002618239 0.13507761 -0.13219199 0.010199009 0.065572456 0.12987326 -0.27757752 -0.18567446 0.021245115 0.15142232 0.14417031 -0.42023984 0.05540032 0.088096045 0.16983388 0.15224846 -0.08184922 0.05942655 -0.00036206012 -0.07845606 -0.048044056 -0.10391283 0.17449893 0.3101199 -0.074840955 -0.026499394 0.05023624 -0.01608415 -0.2846001 -0.12453274 0.21755648 -0.00086300814 0.25871477 0.16305669 -0.18661916 -0.28131098 -0.23991303 0.29218748 -0.23819254 -0.1457584 0.1115899 0.12600991 -0.0023125648 0.17051744 -0.064376436 0.15737155 -0.2881529 -0.10042677 -0.14123054 -0.14928865 0.03951104 -0.09006189 0.04085732 0.023980282 -0.14512178 0.12516779 0.13258149 -0.11635611 -0.08808769 0.20896749 0.041834574 -0.24807885 -0.2071448 0.093375154 0.038172636 0.19860467 -0.17501746 0.04153102 0.11446173 0.13535419 -0.068227254 -0.14553782 -0.048835076 0.19764887 0.09774308 -0.042697616 0.11826361 0.1239259 -0.115991086 -0.09501259 0.16301523 -0.018594658 0.07507418 0.0598173 0.06439406 -0.0003870388 -0.19044524 -0.24305177 -0.026279498 -0.19102708 0.089356005 0.16194612 0.0009324374 0.14046839 0.16629507 -0.051517926 -0.13714108 -0.041034292 0.28899547 0.4527622 -0.26571926 -0.21564019 -0.06740768 -0.21030994 -0.20395653 0.11320536 0.10313114 -0.06314688 -0.22802292 0.18434024 0.17174464 0.24257891 0.31198096 0.09114835 0.013845136 -0.08048043 0.13561045 -0.07216193 -0.0037484667 -0.19364376 -0.033318482 -0.026453014 0.5313661 0.009929058 -0.20857874 -0.1925989 0.034063704 -0.093445055 -0.2250236 -0.047565334 -0.08261021 0.18700674 0.00017325995 0.05480648 0.07349707 0.0768817 -0.047980297 0.006526344 0.11463956 0.38158897 -0.057571203 -0.15102634 -0.06612185 -0.09842262 0.00956757 -0.15360059 -0.08507518 -0.0053199804 0.15402564 0.062777355 0.017893568 -0.06411203 0.2234769 -0.18929613 -0.38360268 -0.19895457 -0.062561564 0.20253107 0.07249385 0.10549465 -0.37340337 -0.17770614 -0.23942754 -0.10479802 0.1459606 -0.30163455 0.057936333 -0.3453109 0.070705384 0.05700789 0.10515172 -0.0002295366 0.081485376 0.013899704 -0.3571572 -0.03089084 0.10924713 0.21279049 -0.25350472 -0.051440455 0.2412045 0.2321233 -0.15930179 -0.026968842 0.07147876 0.08368665 -0.08162446 -0.091865115 -0.38915998 -0.018427517 0.06904254 0.020655688 0.45453614 -0.199138 0.015695099 -0.31600592 -0.1765963 0.24591982 -0.21360095 -0.18562548 -0.023519931 0.031956416 0.096076496 -0.07379991 0.039061267 -0.06028421 0.012425401 -0.12024848 -0.05557328 -0.020931209 0.026896343 -0.08837945 0.18758431 -0.22137554 -0.34301093 0.22464286 0.022218287 0.039160598 0.22823985 -0.16534379 -0.22305055 0.16750754 -0.15926255 -0.24991278 0.07727496 -0.18363449 0.012993714 0.45068154 -0.12627245 0.12372281 -0.024457779 -0.14058517 -0.1599977 -0.008276049 0.122147106 0.001797746 -0.19012019
universitylife 0.07061861 -0.0790982 0.15827426 -0.043769885 -0.06410334 -0.014179877 -0.06307521 0.25116956 -0.20347539 0.1067556 0.2462663 -0.48742548 -0.060629666 0.037987024 0.06402269 0.09081411 -0.089484826 -0.15903062 -0.16073959 -0.055358034 0.13971403 0.19398825 -0.05480434 -0.113863036 0.12045104 0.18791696 0.11726295 0.04272275 -0.27470097 -0.3232914 0.021854872 0.31591022 0.059003215 0.0646105 -0.002033507 -0.05419474 0.29299864 0.08563037 -0.22934671 -0.39183107 -0.11630671 0.24733967 -0.19686066 -0.104066856 -0.001703379 -0.051164668 0.19960135 -0.1285245 0.34275928 -0.093317926 0.20767662 -0.20198303 0.023543298 0.0716093 0.22818236 0.26077715 0.08705584 -0.035191324 -0.11320324 -0.07363046 -0.123762034 0.34767988 -0.036351442 0.19248447 0.005991095 0.013020269 -0.13265984 0.07556564 0.03577057 -0.2750545 -0.24399121 -0.11554837 -0.040595762 0.054699335 -0.29527038 0.24369943 0.05471532 0.0120178815 0.28832084 -0.07519397 0.022257626 0.083636135 -0.09274674 -0.17230809 -0.05166249 -0.08294408 0.4295145 -0.003746984 0.28942505 0.1518294 0.0012115685 -0.23555487 -0.34107897 0.13400088 -0.2056763 -0.038598478 0.21201225 -0.28707242 -0.23364018 -0.24043047 0.23710161 -0.06444328 -0.13485721 0.26757106 0.054422304 -0.0217409 0.17185836 -0.23455165 0.2039249 -0.2861855 -0.14612503 -0.044612285 0.022825576 0.14075576 -0.1358251 0.07877361 -0.17365322 -0.1474844 0.18465072 0.09456015 -0.09893268 -0.056757104 0.15990904 0.052984472 -0.3134337 -0.09240689 -0.011612951 -0.0638239 0.17697139 0.0095431665 -0.0036712885 0.1586873 0.21312422 -0.008131868 -0.08044211 0.07503753 0.16120405 -0.0017247589 0.12997879 0.112139046 0.29029745 -0.35173535 -0.24344385 0.1014689 0.01640834 0.19643936 0.23992889 0.20154741 -0.05980248 -0.14536282 -0.26085842 0.029879665 -0.4117785 0.111848705 -0.0112930145 0.058580127 0.108768016 0.14370395 -0.1055209 -0.1076839 -0.28500006 0.24003416 0.35910085 -0.32758567 -0.18992515 -0.180502 -0.40617576 -0.37174824 -0.0616906 0.18970838 -0.07547456 -0.12416238 0.23723459 0.24458963 0.096813746 0.09942481 0.073051706 0.17373799 -0.17981526 0.370377 0.15194766 0.03697648 -0.52136093 0.13924594 0.020013943 0.457193 0.028403008 -0.020463932 -0.2311944 -0.04358074 -0.20832568 -0.30682647 -0.0953667 0.050110225 0.15041 -0.025857206 0.13243592 0.13308986 0.13498387 0.12173104 0.06245787 0.13271289 0.38286433 -0.14565916 -0.11709537 -0.07433211 -0.16768852 0.00013595916 -0.086022355 -0.062807925 -0.039546512 0.13391213 0.057305947 0.0809261 -0.1559214 0.05445622 -0.12252684 -0.45573327 -0.26783437 -0.032456502 0.13828218 0.08936975 0.16279897 -0.23184188 -0.087736756 -0.19326267 -0.23516227 0.12291785 -0.3355903 0.09085806 -0.34033152 -0.059017025 0.290009 0.040884685 0.106570296 0.0073210075 0.00467972 -0.46994695 0.061185416 0.17696369 0.32736886 -0.39150676 0.043385748 0.23829761 0.14762874 0.074907996 0.08617693 -0.024148047 0.06267877 -0.0977474 0.003048224 -0.5240281 -0.049393345 -0.20481332 -0.014829314 0.3391432 0.025927298 -0.101682365 -0.3063334 -0.28835347 0.08372626 -0.114549376 -0.20591077 -0.09273231 0.04739051 -0.082128406 0.04542561 0.07891505 -0.067423806 0.049262572 0.032200895 -0.02127568 -0.06478709 0.15680322 -0.15458646 0.15337923 -0.29166538 -0.40919638 0.1721173 -0.044479135 0.06339811 0.2095704 -0.1919702 -0.054932833 0.09697875 -0.23101933 -0.08866274 -0.00034333757 -0.19827259 0.07287063 0.38336053 -0.19553323 0.11743237 0.06947442 0.21071754 0.11901528 -0.14592111 0.14722502 0.07278908 0.07163682
koreanfood -0.0076695615 0.009554674 -0.063172415 -0.02178475 0.025966989 0.022028714 -0.10692278 0.11770315 -0.13210484 0.08822071 0.040089805 -0.13458666 -0.01288124 0.00464861 0.027129207 -0.0072919903 -0.10414614 -0.044511285 -0.031153746 -0.0011157285 0.053637 0.094154336 -0.063990705 0.02870388 0.06414798 0.17352465 -0.06815704 0.06499846 -0.19962907 -0.110026404 0.023813926 0.16933718 0.04451064 -0.037616543 -0.042027466 -0.0654513 0.13748223 0.059723955 -0.12137825 -0.1371693 0.086867966 0.18769649 -0.081303954 -0.021312248 0.03730275 -0.007855529 0.030567873 -0.027588712 0.083559364 -0.12238231 0.055221528 0.05928939 -0.044688784 0.07240159 0.009111132 0.027324386 -0.021702284 -0.035607006 -0.0022594908 -0.08372173 -0.13436697 0.06584361 -0.0064186607 -0.024952566 0.022645539 0.00046685955 0.026678657 -0.013054761 0.004260206 -0.07859767 -0.04831156 -0.031049957 0.0048373146 0.09195097 -0.20312738 0.0664944 0.14030108 0.071495645 0.13201647 -0.017490555 0.099555604 0.029949006 -0.0854084 -0.088289484 -0.07068174 0.08899754 0.11721629 -0.08023299 0.031676184 0.11508645 -0.013356843 -0.09193181 -0.05662527 0.043518685 -0.034960277 0.064928204 0.067059025 -0.06964916 -0.16948844 -0.078212425 0.118823074 -0.08855843 -0.04985405 0.113769725 0.12482706 -0.008505007 0.0010051618 -0.048286952 0.0643145 -0.12233495 -0.020134281 -0.069874994 -0.0055776522 0.06227195 -0.097715765 0.053556684 -0.028920561 -0.078655645 0.07346845 0.03223057 -0.080225766 -0.002627308 0.08272438 0.05169032 -0.10371698 -0.016985834 -0.053436927 -0.008586582 0.07871696 -0.13161236 0.027174732 0.046557233 0.005255035 0.0011102828 -0.09229696 -0.06384978 0.098135665 0.06640116 0.026613237 0.11938936 -0.0014022702 -0.13209933 -0.033008475 0.12346699 -0.021897512 -0.015154254 0.027446542 0.037322897 -0.024085578 -0.067151524 -0.11925085 0.03860962 -0.09105808 0.035743363 0.044875406 -0.017242687 0.07691722 0.13480394 0.009229645 -0.08331966 -0.08973623 0.13362227 0.19753996 -0.120343834 -0.07228517 -0.05909974 -0.14321838 -0.13573816 0.03904645 -0.003377793 0.0042895945 -0.096626624 0.085178785 0.093715265 0.12184554 0.14723511 0.012356637 -0.03184651 -0.034702413 0.12943947 -0.015725002 -0.026062064 -0.10461429 0.0049200384 -0.023588182 0.22403216 0.02724215 -0.07466637 -0.0902831 0.010476574 -0.015202228 -0.07325749 -0.0652398 0.0024865714 0.063054636 0.028239084 0.07055461 0.06557558 0.0321105 -0.026584817 0.022894014 0.010097598 0.1588552 -0.0435414 -0.020264577 -0.07133837 -0.12760311 -0.01065783 -0.09077533 0.026961483 0.013163705 0.056372277 -0.0011237162 -0.05376642 -0.0039911717 0.11754381 -0.025376108 -0.12430885 -0.11568577 -0.0801629 0.12512523 0.1038222 0.08560345 -0.20250562 -0.018295955 -0.16179381 -0.13141115 0.011063758 -0.15359077 0.069731236 -0.1575321 -0.032277785 -0.035228036 0.059516396 -0.044255357 0.064562514 0.06934553 -0.1253394 -0.0013340596 0.11725442 0.092071906 -0.14185522 -0.02077094 0.1408705 0.020044254 -0.039290015 -0.030982563 0.012074664 0.052595705 -0.076847546 -0.040164642 -0.23655225 0.014884272 0.019270996 0.013913472 0.20099518 -0.076636784 -0.03451083 -0.12658283 -0.1405564 0.08388658 -0.17992179 -0.11699179 -0.01748089 -0.07104987 0.04699316 -0.02246254 0.053696286 0.0023779743 -0.0009221426 -0.016099563 0.0012112951 0.038021564 0.072398804 0.004167494 0.15403914 -0.16723387 -0.16429739 0.16814801 -0.08156223 0.04872202 0.07116683 -0.08011422 -0.0958171 0.05275074 -0.14593737 -0.15370096 0.01887459 -0.15871932 -0.033334725 0.1681781 -0.12084435 0.09340314 0.040311582 -0.004194909 0.014258855 -0.0042294865 0.08206972 0.025642114 -0.05281194
homecook 0.028171021 -0.008356602 -0.008748354 -0.029890059 -0.028702438 0.014025754 -0.117704965 0.11622339 -0.12249842 0.109847926 0.10997789 -0.23498826 -0.061932623 0.018470647 0.0029814462 0.017212288 -0.110005446 -0.09890365 -0.116401725 -0.009643479 0.04882084 0.17621897 -0.014018494 -0.045934025 0.11202321 0.19145681 0.0037945877 0.07371435 -0.24200495 -0.18426816 -0.0055769533 0.24338767 0.043383345 -0.04460918 -0.0069201863 -0.06605638 0.15227844 0.0562442 -0.13174585 -0.2248379 0.04974362 0.195812 -0.15344945 0.012832935 0.012738061 0.023208922 0.07170498 -0.075412795 0.17352991 -0.099576406 0.09382246 -0.009896505 -0.0847806 0.10587643 0.07894234 0.0990704 -0.004336119 -0.023284595 -0.01838681 -0.057850454 -0.10389147 0.19007245 0.005802855 0.023413733 0.05785161 -0.048405387 -0.0048659397 0.02428143 0.05956647 -0.1998179 -0.13174641 -0.02200569 0.06206903 0.09090523 -0.2754186 0.088896275 0.08769516 0.10024401 0.14820611 -0.052643046 0.052730348 0.02975108 -0.07645487 -0.08126186 -0.06922972 0.075507954 0.24317649 -0.055296145 0.053079087 0.06802532 -0.010133711 -0.17372093 -0.11235366 0.1247472 -0.038669776 0.11181956 0.12716582 -0.13901241 -0.2039278 -0.1485789 0.19236831 -0.122846566 -0.0997377 0.13092047 0.10269758 -0.0058990577 0.09214552 -0.08930387 0.11385999 -0.20725547 -0.06770952 -0.08472576 -0.05383761 0.07023234 -0.08487504 0.05557625 -0.033799544 -0.11260846 0.10147569 0.086086094 -0.087931745 -0.045414034 0.12635188 0.038496453 -0.19326812 -0.111205615 0.01503709 0.008904406 0.13170862 -0.10770768 0.013325571 0.09798204 0.094626635 -0.032487996 -0.08933818 -0.02499885 0.15184604 0.065112375 0.014826716 0.08031229 0.102442995 -0.15083368 -0.095830254 0.12308228 -0.009082947 0.06495888 0.06356619 0.068067424 -0.01146382 -0.12472915 -0.15199411 -0.004072721 -0.16784321 0.071145445 0.08127602 0.009872346 0.09461548 0.122236714 -0.028335515 -0.0837563 -0.10459414 0.19884852 0.3063982 -0.19984664 -0.1460952 -0.08306728 -0.20228112 -0.19375701 0.031621803 0.075653635 -0.051413048 -0.15461443 0.13995606 0.13453145 0.14822032 0.1837005 0.03953437 0.027176589 -0.07523079 0.15227585 -0.017953174 -0.0037146134 -0.19847809 0.006488512 -0.022510748 0.35190433 0.0065400107 -0.11003893 -0.13505131 0.031659264 -0.057562124 -0.16548449 -0.048923388 -0.02768915 0.13149989 -0.0050963573 0.06960209 0.06984392 0.06666523 -0.014347211 0.021740722 0.062108595 0.2571352 -0.05588513 -0.09409674 -0.061014958 -0.10643148 -0.0013020352 -0.10065317 -0.026626742 0.005329617 0.10434644 0.0523353 0.015205392 -0.052058745 0.143677 -0.1026568 -0.2618517 -0.14233026 -0.065417945 0.1322063 0.06778241 0.09815177 -0.24274842 -0.09609083 -0.17773077 -0.11579293 0.08627894 -0.22089761 0.052356612 -0.24085501 0.006271516 0.08074105 0.078989364 0.012200948 0.062740065 0.022551907 -0.26264298 0.0012602566 0.10754706 0.16991591 -0.21391454 -0.019343648 0.18051422 0.11847215 -0.05454202 -0.0025417262 0.026648585 0.068290554 -0.06598826 -0.05441004 -0.30262262 -0.016286613 0.010046574 0.0071435543 0.3067546 -0.10362791 -0.021503843 -0.21919703 -0.16999722 0.14945677 -0.14619389 -0.14602351 -0.01731993 -0.004838651 0.02922489 -0.016890226 0.056270845 -0.033957858 0.018518854 -0.043357328 -0.034034256 0.000564172 0.044552293 -0.046021607 0.14440498 -0.20097376 -0.24657986 0.16925429 -0.019035496 0.044593208 0.15756649 -0.117160216 -0.1258536 0.109070554 -0.14495261 -0.15222566 0.035348717 -0.15556788 0.009387252 0.28874493 -0.12752031 0.087309554 0.02155652 -0.023295071 -0.036932994 -0.023377428 0.0983467 0.019457666 -0.07860109
