141 100
DCUniverse 0.0019911975 0.001112584 -0.0024682276 -0.004207948 -0.0017934232 0.00033413153 0.00064801564 -0.0029157125 0.0040039914 -0.0010023611 -0.00261168 0.003351245 0.00059016934 -0.0016651689 0.003954727 -0.002542392 0.0022270917 0.0028941184 0.0041219285 0.0013106698 -0.0021146487 0.004276733 -0.0048587397 -0.00063923 0.0008888026 -0.000117270276 0.002942345 -0.0027896154 -0.0017023981 0.0013670395 -0.00095815584 -0.0012908273 -0.0003088666 -0.0016701322 -0.0016445399 -0.003998423 1.9648578e-05 -0.0037406408 0.0048244745 0.0016490929 -0.0029803615 0.0023107957 -0.0045051933 0.00494814 0.00046107452 -0.004645031 0.00025329227 -0.0014523112 3.8250815e-05 0.00024859328 0.00404841 -0.00052653207 0.00031661429 -0.004235637 0.0049881777 -0.0041518086 0.00092317164 0.0014426745 0.00073550455 -0.0048738867 -0.00016488507 0.0017353636 -0.0006889724 0.0047783908 -0.0022733433 0.00029437058 0.0037708813 0.0029918142 -0.0026790164 0.003063703 -0.002201398 0.004898264 -0.0011472248 0.0047452375 -0.0019231588 0.003571108 0.0014389036 0.0048198793 0.0024959557 -0.0034385067 -0.00091156596 -0.0012847167 -0.0025028926 -0.00018788874 -0.004900773 0.0040507214 -0.003711937 0.002331634 -0.00012037298 -0.0025157165 -0.0045244107 0.0020589218 -0.00060999347 0.004352169 0.0026286803 0.0033695241 0.0010628845 0.0042942157 -0.0026231152 0.0008071414
JumanjiTheNextLevel -0.001671281 0.21086012 -0.17702383 -0.1419458 0.16518521 -0.21502432 0.096655615 0.0026709998 0.04255244 0.12354514 0.04330129 -0.11322008 0.04841299 0.1563697 0.1121749 0.08150427 0.0903151 -0.10813829 0.1602893 0.11128628 0.0040929345 0.005935876 0.044607297 -0.012433955 -0.1041693 -0.030123293 -0.01837363 0.07532931 0.004205136 -0.067322165 -0.02843422 0.031937454 -0.043920696 0.016559944 -0.0720655 0.06318111 -0.015393194 0.06406684 -0.10187166 -0.14797193 -0.095830895 0.038773354 -0.14778894 -0.14510222 -0.117577 0.0049478025 0.1600868 -0.016915059 0.0004710523 0.26138237 0.14027636 -0.05859458 -0.05360985 -0.069321096 -0.040147644 0.09475965 0.13348573 -0.016046323 -0.050710868 0.010908523 0.10173817 -0.059138224 0.0063346974 -0.10827043 0.2741618 -0.093400724 -0.06279834 0.003622073 0.05433945 -0.16486953 -0.03457823 0.035233367 0.0626977 0.1380634 -0.025642298 0.051755454 0.02806999 0.011978468 0.047435712 0.013588398 -0.07497179 -0.1015854 0.042169843 0.026684698 0.13798055 -0.043229572 0.058774475 -0.06888315 0.19413756 -0.040309034 0.08623894 -0.00067418773 -0.03625387 0.0099848965 -0.036431264 -0.05556134 -0.08861254 -0.20373626 0.0599994 -0.030975211
spring2020 0.0019299304 -0.0047329534 -0.004527094 -0.0047998843 -0.0018748271 0.0043682475 0.004571627 -0.004921063 0.0025409223 -0.0032165127 -0.0015739 0.002137457 0.0033787545 -0.0017973452 -0.004410633 0.0014422787 0.0024721925 0.0018071923 -0.0041537187 -0.0024256737 -0.00036053918 0.000497167 0.0012934427 -0.0028943187 0.0020011412 0.0030518072 0.0048488034 -0.004960604 0.0031214766 -0.000979933 -0.004112766 -0.002890535 -0.0012806631 -0.0008374457 0.00045831362 0.0009747953 -0.0025596838 -0.0032408945 0.004378667 0.004122517 0.003673627 0.0014658673 -0.002298785 -0.0041035963 0.003721021 -0.0039726836 -0.0043238592 0.0031863637 -0.004867118 0.00025764247 0.004910819 -0.0044428566 0.0042063342 -0.0014789009 -0.00071127294 -0.003454179 -0.004727385 0.00030592922 -0.0026522256 -0.0030015658 -0.002551986 0.002697507 0.003905233 -0.004514623 -0.00062881364 0.0025241552 0.0027237171 0.0034300545 0.00072488375 -0.002215454 0.0035726326 0.001033477 -0.0011528742 -0.0041185305 -0.00015072292 -0.0029709684 0.00083266385 -0.0021574215 0.0014128811 0.0010126578 -0.0019693451 0.0038160598 -0.0016564971 0.0048368247 0.00367101 -0.0020198624 0.0015601413 0.00089333067 0.00073753577 -0.0011705107 -0.0014407926 -0.0008811392 0.0044930996 -0.00017164834 0.0029991474 0.0016138158 0.000859838 0.0023264266 -0.00017313892 -0.0030893944
lifeisagift -0.0009913803 0.004396553 0.0033694226 -0.0011383151 0.003667538 0.0035486957 -0.0012836123 -0.0034871534 -0.0010270523 -0.00019716518 0.0048430525 0.0041520447 0.0035624672 0.002721651 0.003306413 -0.00081934873 -0.0040757065 -0.00397156 0.001765809 -0.0025874178 0.0042548478 -0.0002904171 0.00014785212 -0.0032782864 0.004210552 -0.0031286501 0.001456121 0.0006180443 0.0014825272 -0.0030554626 0.00234321 -0.0008699689 -0.00027821772 -0.004279257 0.004495973 -0.0047495156 -0.0011222905 -0.00088060275 0.0013183467 -0.001273759 0.0048111146 0.0009700549 -0.0024288797 -0.0032473681 -0.0017991757 0.0040296605 0.003130678 -0.001539585 0.0001740777 0.004853977 0.0030978043 -0.0045253877 0.0034095598 -0.003409885 0.002031345 0.0006885268 -0.002883421 -0.0035169087 0.004748836 0.000789674 0.002544974 -0.0023917966 0.0034750057 -0.0018580824 0.0015940098 0.0025720475 0.0036211563 -0.0034470302 -0.004082901 -0.0035035638 0.0027094437 0.0016685273 0.0007186397 -0.00044269813 -0.004533915 -0.00395157 0.00071297865 0.0017533074 0.0037020333 0.00011319062 -0.0005109026 0.0022902987 -0.00055133505 -0.00063737435 -0.0034651374 0.001396935 0.0006184303 6.308872e-05 0.0042635305 -0.0008016885 -0.0043229647 0.004658741 -0.0012638401 -0.0009841663 -0.0015602212 0.0030172868 0.0011866773 -0.004798126 0.003848941 -1.2395903e-06
jumanji 0.0048050564 0.1719708 -0.12799263 -0.11103436 0.12874661 -0.16979846 0.08976231 -0.0034647905 0.0023023398 0.0947212 0.034996755 -0.09349422 0.029257 0.09675872 0.08986109 0.09870851 0.04235476 -0.08785346 0.13051474 0.074715324 -0.008215538 0.012799573 0.06346302 -0.013879113 -0.059660066 -0.027280156 -0.0044312566 0.080422536 -0.014972943 -0.058240086 -0.035009313 0.041076988 -0.03810636 -0.0072831693 -0.044364043 0.055979352 -0.023308571 0.054586306 -0.075143546 -0.13494626 -0.08164755 0.028569551 -0.108353026 -0.10429865 -0.112521805 -0.020429133 0.1367581 -0.010729362 0.008375709 0.20922121 0.12828434 -0.02035044 -0.05455235 -0.04986215 -0.031109333 0.09232343 0.11977874 0.014507764 -0.04222351 -0.008914638 0.07733495 -0.042989686 0.012710023 -0.09127471 0.21946554 -0.08430463 -0.08120952 0.0162353 0.07289417 -0.11724304 -0.056887515 0.023982296 0.04701971 0.11773985 -0.011292484 0.057458445 0.041236404 0.01490854 0.049402513 0.014244178 -0.063105844 -0.09707459 0.025270509 0.052990496 0.107654475 -0.031578775 0.036300715 -0.04473554 0.1556159 -0.023752257 0.08717168 0.0077300062 -0.026453376 -0.024684183 -0.04552267 -0.009574658 -0.089667074 -0.15168215 0.028459087 -0.021267239
veteransday 0.043006636 0.33015582 -0.36209187 -0.3240223 0.09756009 -0.23250379 0.065467864 0.017295862 0.028025832 0.2735264 0.032173682 -0.10599507 -0.0052048485 0.21036719 0.116198875 0.33909914 0.011330775 -0.18921112 0.1722226 0.18858817 -0.13810661 0.07940397 -0.00072357635 0.04778456 -0.26094052 0.052393895 0.0063378313 0.17133112 0.024278043 -0.05173562 -0.07709582 0.06790069 0.0019142037 -0.029285545 -0.0330383 0.049309526 -0.026622707 0.059938088 -0.058923207 -0.2831501 -0.13434985 -0.02473372 -0.15014157 -0.22417977 -0.1800366 -0.11359206 0.19914594 0.06666568 -0.033596605 0.35552087 0.22814429 -0.17842954 0.035395 -0.10757788 -0.09495234 -0.038580135 0.23952217 0.0061380505 -0.017481241 0.036882382 0.2996368 -0.043200336 0.081030846 -0.21091603 0.37609556 -0.17461035 -0.05668165 0.027586162 0.16099484 -0.13267446 0.07040976 0.084225975 0.16103564 0.13683759 -0.08736084 0.07942626 0.02319406 0.09638961 0.054300375 0.03332496 -0.08873339 -0.18384142 -0.00052701484 0.08530585 0.13413146 -0.14500374 0.009586588 -0.01487585 0.23351724 -0.06434851 0.18399513 0.031569254 -0.006095156 0.08660332 -0.031710852 -0.14329782 -0.05052303 -0.2375545 -0.0046970453 -0.04755903
service 0.022646062 0.34255832 -0.37458184 -0.31826884 0.10469656 -0.26113132 0.06668937 0.050836608 0.033274077 0.2760127 0.04170002 -0.14059982 0.0026247294 0.22790782 0.11458035 0.31558496 0.0061325277 -0.17596154 0.17160037 0.22160333 -0.13997859 0.11369562 0.014105339 0.050128706 -0.2342194 0.06402466 -0.00085528934 0.20409311 0.024304386 -0.045481775 -0.09203838 0.079414465 0.014174018 -0.01617737 -0.041541792 0.05857077 -0.048163854 0.06835741 -0.063076444 -0.30408174 -0.14057672 -0.033687886 -0.16133547 -0.22171718 -0.17939276 -0.1200651 0.20373146 0.047961902 -0.011167816 0.37051046 0.24443254 -0.16223043 0.043532774 -0.12677602 -0.097620256 -0.005313382 0.2541006 0.012024655 -0.02921574 0.04657656 0.27253395 -0.05881304 0.076286495 -0.22246566 0.38166112 -0.19089258 -0.047144137 0.048029985 0.19106627 -0.11130101 0.08134358 0.11191384 0.15094051 0.14653061 -0.083961695 0.06594223 0.0103981225 0.10298537 0.06909079 0.06188207 -0.10492256 -0.19012645 0.02250237 0.12657835 0.15166272 -0.13757321 0.00088879676 -0.021984948 0.22428773 -0.04463827 0.19683704 0.04957105 -0.0007531212 0.08280443 -0.034833882 -0.12830108 -0.039211363 -0.23897181 0.0054142093 -0.056532692
beatupandworn 0.026311988 0.3308236 -0.3741236 -0.31738305 0.108483665 -0.26942626 0.07661108 0.031736504 0.015251182 0.25181237 0.027002936 -0.12712404 0.020092659 0.2240614 0.1153301 0.32256398 0.028109828 -0.19968416 0.18634342 0.20263684 -0.14434718 0.10871583 0.0055113565 0.03251965 -0.2522152 0.0584838 -0.028771456 0.19497737 0.030611666 -0.06582016 -0.082834944 0.06599112 -0.009752582 -0.013139973 -0.023901884 0.035992995 -0.019603353 0.07372177 -0.05793264 -0.28774405 -0.11731239 -0.025049893 -0.15222763 -0.23573217 -0.20340277 -0.10850724 0.19894727 0.05701368 -0.010977322 0.35927266 0.22497582 -0.16566665 0.03525007 -0.11453185 -0.09285429 0.0022463212 0.23561467 -0.017314952 -0.005224499 0.046931885 0.28674936 -0.04893636 0.0774659 -0.21292417 0.38629386 -0.18093096 -0.0501973 0.051401537 0.18510012 -0.10732082 0.057372898 0.10092953 0.1424456 0.1415856 -0.093508914 0.073333465 0.013422008 0.10883175 0.06142409 0.050644327 -0.0952246 -0.19476761 0.010656198 0.10297833 0.13751279 -0.14256915 0.008837937 -0.015311095 0.23693648 -0.04760265 0.18077847 0.04648891 -0.0039348807 0.08216423 -0.02718575 -0.14831047 -0.037665423 -0.24989797 -0.008646144 -0.04379081
evenbetter 0.048435252 0.36796498 -0.43729025 -0.3912098 0.080268376 -0.28051353 0.041960165 0.06944071 0.024944695 0.31392846 0.027811801 -0.14901435 -0.004168046 0.28209054 0.107965775 0.4213052 -0.0025042477 -0.22231573 0.17573936 0.23431808 -0.2153491 0.13994682 -0.015608743 0.053332295 -0.32033417 0.08089597 -0.014620834 0.21866843 0.052608397 -0.0466556 -0.09368282 0.07804151 0.0026467054 -0.004158566 -0.020528084 0.023212355 -0.020137679 0.059521716 -0.04138171 -0.34038255 -0.15374188 -0.08638257 -0.1654282 -0.28788665 -0.21397832 -0.16859506 0.18937272 0.105373524 -0.00097398006 0.3753803 0.24720661 -0.2021139 0.07485194 -0.11987427 -0.121046744 -0.06283476 0.2797829 -0.010231503 0.0180215 0.0654027 0.3565997 -0.03553131 0.12635802 -0.23372735 0.42747945 -0.21570966 -0.048597816 0.058106147 0.2419392 -0.08069723 0.15460795 0.125368 0.18985301 0.12827842 -0.11985612 0.051649075 -0.013644804 0.1405622 0.026782136 0.044841457 -0.11688755 -0.21097356 0.03467599 0.13398297 0.11627002 -0.1741086 -0.030873248 0.008091856 0.22629488 -0.034212667 0.20499308 0.06967648 -0.0015114592 0.11577384 -0.020821696 -0.1849692 -0.003336872 -0.26181373 -0.0031597489 -0.058912646
projectrock -0.028276045 0.1798096 -0.47220516 -0.021198913 0.17252187 -0.32134813 0.1908185 -0.08835608 -0.0003987678 0.19481055 -0.12203034 -0.19765767 -0.0039786207 0.24180318 0.25814956 0.13146031 -0.06982943 -0.109305814 0.0854073 0.37120906 -0.20641905 0.063282326 0.14636622 0.15691723 -0.19314858 0.14760341 0.19416426 0.16864955 0.049212657 0.15740699 0.05516459 -0.1528808 -0.20512454 0.0647359 -0.11164922 0.13323432 0.13667992 0.10866621 -0.12499782 -0.4114369 -0.03389395 -0.106000654 -0.25016776 -0.299465 -0.29503652 0.08631038 0.15816826 -0.012545732 -0.10037353 0.47485548 0.057416487 -0.017852562 -0.15805364 -0.1343476 -0.052124556 0.1803837 0.2723116 -0.22615272 -0.13477933 -0.06396634 0.13199024 0.2706007 0.055232402 -0.16301446 0.21409781 0.011388718 -0.002760892 0.108748704 0.0820108 -0.27176392 0.030425204 0.02551307 0.15176034 0.0957418 -0.09321321 0.15263768 0.01181481 -0.15623903 0.27485526 -0.09712638 -0.007403853 -0.05605356 0.15961328 0.14759244 0.41044605 0.045506384 -0.122585915 -0.15067202 0.14728953 0.04294646 0.20295209 0.116300315 0.11025453 0.1325631 0.097597726 -0.072996214 -0.04927808 -0.33758518 0.059466463 -0.022048758
underarmour 0.02059327 0.18299118 -0.2880958 -0.10951145 0.12403826 -0.27873373 0.10634885 -0.059170518 0.018829726 0.14842103 -0.017655982 -0.12639509 0.027834434 0.16407305 0.15994735 0.1486604 0.021419762 -0.11085676 0.07761171 0.18598789 -0.10524507 0.016213505 0.08095632 0.054367226 -0.16427322 0.037955094 0.07194487 0.09281556 0.039266735 0.034065437 -0.006873002 -0.044943023 -0.10364443 0.008008722 -0.045184553 0.07434128 0.057393327 0.07807585 -0.08530531 -0.22086518 -0.07582632 -0.03747746 -0.15379122 -0.18824174 -0.18033652 -0.0051536025 0.13414274 -0.0071148174 -0.037335813 0.33383825 0.06035466 -0.031146653 -0.08103219 -0.059966777 -0.045933925 0.06229861 0.15750454 -0.07378557 -0.101763956 -0.019678881 0.12291754 0.09644532 0.05571354 -0.12029471 0.21653923 -0.040276676 -0.06605931 0.009029128 0.07980245 -0.19846259 0.011869435 0.004612736 0.10447773 0.08402216 -0.039038293 0.12678371 0.033129673 -0.059586484 0.109208845 -0.057638355 -0.04030925 -0.059156388 0.12207746 0.123520486 0.2163269 -0.0070806155 -0.056229446 -0.08940627 0.1492812 -0.031902846 0.12779038 0.06606595 0.024103597 0.05061711 0.031447064 -0.047550496 -0.051958013 -0.22963293 0.022600003 -0.035946213
uafreedom -0.006239752 0.17349729 -0.34617645 -0.044512644 0.115275264 -0.256734 0.15127526 -0.0734037 0.024367476 0.1681018 -0.05822722 -0.12023351 0.02807456 0.1656311 0.16086164 0.09647311 -0.011833821 -0.094637804 0.083409175 0.26065323 -0.099350326 0.055973243 0.08851982 0.092385754 -0.15589257 0.07749216 0.12970053 0.13615763 0.024878958 0.070537604 -0.00030069237 -0.07618661 -0.09932532 0.010128965 -0.091925986 0.11217157 0.069274716 0.08090926 -0.09655646 -0.27802998 -0.053881533 -0.042282652 -0.17521381 -0.21276908 -0.20439185 0.066842645 0.17559782 -0.0279741 -0.05625626 0.37896204 0.07074788 -0.040621933 -0.112078555 -0.07476614 -0.061104394 0.08958521 0.16884623 -0.14692846 -0.12918314 -0.020901097 0.121737085 0.1453447 0.030190224 -0.13474697 0.17506987 -0.007397881 -0.016816253 0.033553712 0.056442652 -0.22875091 -0.020119108 0.04015764 0.118606284 0.093047805 -0.05518944 0.121885076 0.04083975 -0.10914494 0.19135542 -0.024495345 -0.021517165 -0.063938536 0.08750378 0.114035286 0.3039639 0.026474176 -0.024899654 -0.12792526 0.1467348 -0.016798064 0.16328889 0.0655754 0.06688094 0.09309535 0.037917525 -0.07769904 -0.038479477 -0.23999965 0.0473494 -0.0038099047
UNSTOPPABLE -0.0037535746 0.0005642497 -0.0017563587 -0.003146953 0.0046543377 -0.0049940976 0.0019578785 -0.0018665146 0.0047185654 -0.003410583 -0.0005282308 -0.0036388438 -0.004307454 0.00074769696 -0.0031082332 -0.00025703618 0.0005054367 0.0012162882 0.001441624 -0.0030889218 -0.0027061128 0.0045876885 -0.001179884 -0.0017840499 -0.0035060965 -0.0020119934 0.0004643933 0.003617608 -0.0013542813 -0.0012411373 -0.00022720499 -0.00371478 0.0012650318 0.0049473466 -0.0046790643 0.002056445 0.0003021597 -0.003224905 0.0020527905 0.004140394 0.00044744555 -0.000400173 0.003717537 -0.00049137464 -0.00031767972 -0.0033017504 0.0034115352 0.0032082517 -0.0013023037 -0.0034884517 -0.0025350146 -0.0002003191 -0.0007864996 -0.002888379 0.0011733617 -0.0023933286 0.0044553773 0.00084949145 0.0033027837 -0.0024415427 -0.0044097155 0.0024369103 0.0042362725 -0.0039650816 -0.0016819583 -0.004108883 -0.00038309116 -0.0006982805 0.0004986916 0.0040045585 0.001594441 0.0023484887 0.0013383972 -0.0010473402 -0.004637804 -0.0020902283 -0.003977929 -0.000281577 -0.0019799608 -0.004930624 -0.0027885616 0.0046245893 -0.001983316 0.0028632209 0.0026992797 -0.0047003 0.0044158427 0.00029583927 -0.0045187157 0.0019955756 -0.00389509 0.00020787679 0.002161764 -0.0010694116 -0.0047535365 6.880006e-05 0.0046072714 0.0047499295 0.004478473 0.0012024818
TheAnthonyRoblesStory -0.007847892 0.17888878 -0.15146415 -0.13100728 0.11636198 -0.17122844 0.10596051 -0.03516192 0.0131211495 0.111845806 0.033740766 -0.059478033 0.02968628 0.095992625 0.11151577 0.11847572 0.04482865 -0.08255202 0.12687181 0.07161042 -0.029479386 0.0032276232 0.04147245 0.0101278415 -0.06731124 -0.003742087 -0.013448362 0.07400334 -0.027288644 -0.04355785 -0.043105043 -0.0042838044 -0.03567538 -0.028558105 -0.059026375 0.085973635 -0.04141328 0.022611778 -0.09119764 -0.11712108 -0.06941244 0.040199667 -0.10579264 -0.106064126 -0.10327875 -0.018578984 0.13399105 -0.012991699 -0.0018108088 0.21799314 0.130809 -0.056028392 -0.036462076 -0.054329198 -0.0361729 0.07213291 0.122055404 0.0013456835 -0.018491676 0.017564261 0.067674294 -0.03456514 -0.033634804 -0.12316233 0.22974007 -0.06639064 -0.0906352 0.010094868 0.056383397 -0.14704597 -0.06664636 0.02980682 0.05690515 0.14688295 0.00364847 0.047070578 0.05339193 -0.0011310758 0.056811426 0.003162064 -0.07082258 -0.10512083 0.015806722 0.016240265 0.12405924 -0.034121394 0.041432653 -0.055781495 0.12953664 -0.061266705 0.056094408 0.0014727707 -0.0052266037 -0.01310221 -0.033023547 -0.04902964 -0.08730691 -0.1149773 0.015057215 -0.008638958
HobbsAndShaw -0.013012437 0.15141585 -0.16435017 -0.11671246 0.14569041 -0.22056831 0.10480565 0.00856416 -0.009549471 0.11716046 0.03588075 -0.06866774 0.014369775 0.15209346 0.103338875 0.1089102 0.0489344 -0.1317618 0.1421353 0.110307075 -0.03504151 0.02051948 0.02267176 0.031846166 -0.13604583 -0.03341064 -0.016299423 0.06271686 0.04150044 -0.04633552 -0.06626598 0.023815596 -0.09303642 -0.009205996 -0.040636644 0.04892255 -0.012807235 0.03300481 -0.12772721 -0.16346921 -0.08712257 0.0051471796 -0.14798799 -0.14572942 -0.116589054 0.0010740216 0.12998018 -0.01771645 -0.017569369 0.25250274 0.13161449 -0.053483363 -0.025659755 -0.10089996 -0.03064163 0.09367734 0.101191305 -0.03448479 -0.053005677 0.0047503375 0.06872594 -0.041085042 -0.019422654 -0.09177949 0.27749428 -0.09220158 -0.10947757 -0.0010241831 0.03963854 -0.13143282 -0.018763999 0.007522084 0.050465316 0.14301874 0.0031422554 0.060235605 0.057481054 -0.00390799 0.056770176 -0.032749332 -0.09227239 -0.08724992 0.0527808 0.033241063 0.16398986 -0.036264095 0.06890875 -0.09349144 0.17840952 -0.036708143 0.060565848 0.002384468 -0.03007463 0.002930824 -0.016177779 -0.050490927 -0.06280222 -0.1701614 0.03895937 -0.04960977
UFC244 0.0126759885 1.1636595 -0.3911371 -0.89168286 -0.17305903 -0.6959361 0.35136747 -0.33846354 0.2757112 0.60090613 0.0212212 -0.52811164 0.1537057 0.07852345 0.57974005 1.1335754 -0.030415073 -0.33247408 0.4391641 0.19109108 -0.55772597 -0.08498424 0.16723675 -0.201441 -0.4949907 0.18603362 -0.2741204 0.47269318 0.19895107 -0.38652202 -0.3908657 0.13107638 0.2611825 -0.79883385 0.3026476 0.5837716 -0.3750625 0.5871531 0.13278978 -0.68162066 -0.5079735 -0.39815244 -0.30024457 -0.6615951 -0.55796933 -0.43992716 1.1862572 -0.06614085 0.30449352 1.0348008 0.47894683 -0.29454446 -0.61411536 -0.19300383 0.22880766 -0.103260346 0.7594352 0.14180882 -0.17410944 -0.07418915 0.9988016 0.39400536 0.39815137 -0.5963843 0.85992956 -0.53893894 -0.44326752 -0.10166649 0.8006377 -0.70534897 -0.10628463 -0.09721814 0.02115267 0.12405676 0.12032446 0.7269555 0.6370863 -0.4867134 0.042856872 -0.4282988 -0.07703925 -0.5090719 0.23464008 0.36823818 -0.146236 0.010661217 -0.32474306 0.19551358 0.2896214 -0.20817114 0.40793797 0.52301157 0.050355405 -0.1251595 -0.33387282 -0.17064106 -0.22465208 -0.5344543 0.12302356 0.14761107
peopleschamp -0.0024428144 0.5323153 -0.38317123 -0.2914486 -0.0834605 -0.48546016 0.2131407 0.13545008 0.20141654 0.3734598 -0.11766125 -0.30824745 0.056560248 0.19605987 0.2272572 0.7668746 0.0582162 -0.3088687 0.07565554 0.31382346 -0.23457105 0.11061214 -0.17036565 -0.12280629 -0.4596627 0.131266 0.3726928 0.1897345 0.17062603 -0.21433671 -0.33570623 -0.07354643 0.15419114 -0.25179607 0.09678371 0.09641439 0.045190286 0.085887045 -0.27482718 -0.10191516 -0.40281034 -0.10679717 -0.39223105 -0.33309194 -0.17701593 -0.108412355 0.68994683 -0.00290899 0.026223049 0.7372661 0.42654955 -0.12744774 -0.06745144 -0.2834277 -0.06290725 0.10083442 0.4399373 0.2730623 -0.21101828 -0.20005874 0.75290424 -0.06404443 0.15023129 -0.1874522 0.28961557 -0.48145932 -0.49390927 0.06319037 0.10133602 -0.44624683 -0.033899724 -0.08197914 0.19343786 0.08655714 -0.0702171 0.24744642 0.29036605 -0.2989878 0.22642283 -0.15510839 -0.35056415 -0.08202203 0.09275016 0.40743178 -0.07279773 -0.10753286 -0.13897514 -0.00091109617 0.40667042 -0.20198518 0.044909608 0.08269928 -0.07276133 0.054699834 -0.0046851714 -0.27735263 -0.10903733 -0.47609645 0.06923027 -0.13367653
1 0.030393206 0.48451176 0.10132639 -0.48303977 1.0968347 -0.35856318 -0.05923294 -0.010812601 -0.010520191 -0.18722737 0.5050383 -0.46307978 0.52450174 0.07425462 0.56934637 -0.047576383 0.1801453 0.081412315 0.50472 -0.08695679 0.034866948 -0.27741906 0.44178778 -0.22893272 0.29545742 -0.032758344 -0.28060296 -0.1942651 -0.2304985 0.048047837 0.315043 0.3367032 -0.12128151 0.40538868 -0.012590453 0.02429819 -0.32180646 -0.014839373 -0.25345495 -0.3549668 0.21119279 0.4802275 -0.19694635 -0.06798686 0.033756506 -0.5275667 0.24555786 -0.047155906 -0.07329158 0.32698104 0.41930792 0.36210585 0.020462073 -0.21922334 -0.02139838 0.7211632 0.32532483 0.1797815 -0.1897116 -0.15828091 -0.29520172 -0.43475834 -0.31100455 -0.09494392 0.78161484 -0.09937719 -0.079889216 -0.0706901 0.19643214 -0.35013342 -0.27238333 0.23809923 -0.13323063 0.5056569 0.2560193 0.122234054 -0.21029067 0.60210633 0.06695843 0.18537046 0.15426283 -0.20836645 -0.14285226 0.05074739 -0.06790622 -0.42214763 -0.2917455 -0.062889196 0.4521516 -0.09490873 0.29935282 0.07111887 -0.11822001 -0.3611174 0.008594025 0.5537611 -0.75286025 -0.18490084 -0.17218572 -0.07096465
MarkKerr -0.0025368042 0.24039552 -0.12147987 -0.27404776 0.6484678 -0.26494107 0.017594839 -0.03750064 -0.08722362 -0.020342123 0.25156972 -0.17896281 0.14817443 0.21377371 0.32581916 -0.042862084 0.13210823 -0.024115333 0.3258576 0.018888973 0.029920232 -0.09200037 0.21305436 -0.08639014 0.13743588 -0.06818733 -0.11507578 -0.084734045 -0.1003465 0.064485185 0.11237816 0.11105823 -0.12916312 0.26174748 -0.10197832 -0.06415572 -0.13824734 0.008820677 -0.21166831 -0.16590813 0.062357545 0.2515046 -0.25425065 0.018603478 -0.033634905 -0.23221144 0.0456843 -0.025756463 -0.0762924 0.25827694 0.29443014 0.11213572 0.07066236 -0.16409083 -0.024554111 0.38124976 0.17398927 0.06603237 -0.07934297 -0.033200968 -0.16270266 -0.2417818 -0.2222125 -0.048207454 0.51795214 -0.06620187 -0.116608225 0.008639156 0.002133556 -0.1955642 -0.20246701 0.113865994 -0.0052081402 0.38106805 0.07780404 -0.0053475937 -0.047854386 0.33486927 0.099233896 0.15449916 -0.034054857 -0.17563462 0.014483069 -8.628454e-05 0.19267704 -0.19783093 0.016107466 -0.1524156 0.3096222 -0.027571391 0.16045244 -0.07096549 -0.019831851 -0.15558931 -0.008956282 0.16182452 -0.38182503 -0.16637474 -0.058447964 -0.14596571
TheSmashingMachine 0.010621724 0.2602572 -0.10574884 -0.2852535 0.730809 -0.274251 0.0028953194 0.008998839 -0.09146945 -0.03214327 0.29716408 -0.24140662 0.19408146 0.1978079 0.34853503 -0.046216913 0.16738708 -0.022826098 0.35700688 0.019601861 0.030346375 -0.11282402 0.23836161 -0.122401945 0.16313893 -0.06739583 -0.14409149 -0.10639798 -0.10843856 0.07989032 0.15171787 0.13744266 -0.14445008 0.3191187 -0.105214745 -0.059922304 -0.14814387 -0.009204157 -0.20842102 -0.19950858 0.07630554 0.27216262 -0.27106032 -0.0046160207 -0.02558538 -0.28609988 0.038888797 -0.024943981 -0.07850476 0.28256696 0.2928577 0.15095866 0.08947849 -0.18356495 -0.032701574 0.44694567 0.19072336 0.094546296 -0.078457184 -0.023917204 -0.19129552 -0.25478634 -0.21566792 -0.042537525 0.5695368 -0.098261334 -0.12571746 0.02656962 0.047708847 -0.21463758 -0.20040207 0.117682025 -0.021396108 0.38592094 0.092085384 -0.027210442 -0.091927275 0.35920343 0.06856516 0.17437488 -0.026904447 -0.17525537 0.024467425 0.018095274 0.17302144 -0.22291858 -0.03234827 -0.1435612 0.3225456 -0.015770718 0.15373926 -0.06983134 -0.053499926 -0.18656676 -0.0031625393 0.19361803 -0.4297089 -0.16802838 -0.06491585 -0.13619229
BMF -0.020446373 1.0219971 -0.42203474 -0.8001237 -0.08045633 -0.61666006 0.35326433 -0.29008475 0.24622282 0.57889366 0.008923381 -0.46611553 0.10628284 0.16768509 0.5151633 0.99158657 -0.0061003896 -0.315286 0.4180801 0.18583497 -0.47509515 -0.0570953 0.17346404 -0.15525706 -0.4570726 0.12703298 -0.20855783 0.4127152 0.16373424 -0.31578138 -0.3308557 0.08730087 0.14679198 -0.6546758 0.20460898 0.4919838 -0.32071632 0.48122048 0.07399469 -0.6101739 -0.46460205 -0.29978508 -0.29407358 -0.59412384 -0.49801302 -0.37687302 0.9968749 -0.04378176 0.25123978 0.9482162 0.46200764 -0.26672545 -0.49173748 -0.18654081 0.17377016 -0.07147898 0.68396646 0.111750856 -0.13354711 -0.043706935 0.86036056 0.3281022 0.31955558 -0.56448394 0.82909286 -0.47893876 -0.3893962 -0.0836214 0.6815835 -0.6153348 -0.1002915 -0.060222857 0.04043505 0.16714504 0.11123902 0.6073913 0.56467223 -0.3931523 0.05627712 -0.3699962 -0.1019353 -0.4633672 0.20670624 0.29035506 -0.0587209 -0.039598297 -0.2303252 0.11824038 0.29872864 -0.20487306 0.33491462 0.4186335 0.036414243 -0.1011743 -0.28362304 -0.1784944 -0.22098213 -0.5090247 0.111565016 0.10257885
305 0.019715417 0.60190827 -0.26951858 -0.46494097 -0.087385036 -0.38942838 0.20210499 -0.19070257 0.14126974 0.3517285 0.0035405252 -0.2706909 0.05488779 0.09036801 0.3261352 0.6637004 0.011221988 -0.23112032 0.24126832 0.11788751 -0.29828522 -0.040830784 0.09219629 -0.09183226 -0.29454464 0.11168981 -0.11256196 0.25042087 0.11963899 -0.21389334 -0.21361434 0.045634087 0.09743622 -0.40951145 0.1333116 0.2638726 -0.17140986 0.2941821 0.02087768 -0.35735816 -0.27045423 -0.19932589 -0.19364804 -0.37268895 -0.3101526 -0.21371865 0.6189512 -0.016765509 0.118793 0.60811305 0.26756865 -0.17818941 -0.2902501 -0.11748254 0.09692593 -0.052512996 0.42646885 0.09341297 -0.08465452 -0.02065291 0.5677813 0.1864488 0.19672693 -0.34463727 0.5039633 -0.30866358 -0.26979747 -0.04307306 0.3890521 -0.3926831 -0.08051779 -0.0819644 0.059827648 0.09317912 0.05794762 0.36814618 0.35859644 -0.24511012 0.059161082 -0.24268201 -0.08181789 -0.27582005 0.13567977 0.21061839 -0.025875704 -0.016187519 -0.14042279 0.07633314 0.20277412 -0.11847468 0.1899712 0.25468642 0.010196386 -0.034411017 -0.16257454 -0.123321384 -0.123959415 -0.3217082 0.073246606 0.046034098
thegluttonybegins 0.004036964 0.0025476138 -0.002039699 0.0025830478 0.004330595 0.003243032 -0.0033506858 -0.0044159363 -0.002209342 0.0016326308 0.0035368353 -0.0035663778 0.002739653 0.0009287982 0.0028106472 -0.0018749887 -0.0032052253 0.0034136446 -0.0005169064 -0.004090458 -0.00019119633 -0.0047073886 -0.004389946 -0.0020909791 -0.0049300212 -0.0024903393 0.0012431676 -0.0030896561 0.00055949856 -0.0013804436 0.002387281 0.002130208 0.004806171 -0.00036361767 0.0016993545 0.0036937492 -0.003899123 -0.0005237921 0.0046568634 0.0041845776 0.004998397 -0.0031064444 0.004696613 0.0030747978 -0.0010169083 0.004111734 -0.0023152363 -0.0011109363 7.8624114e-05 -2.2748485e-05 0.0029141428 0.0045603104 0.0035757786 0.0011969237 -0.0019444996 0.0006921585 0.0026109596 0.0045226477 0.00029995758 -0.0002386379 -0.003968243 0.0045661284 0.0016466486 -0.002681924 0.0047567226 0.0036961678 0.0028525237 -0.0042009987 -0.0020336497 -0.0009705792 0.0004729717 0.004038619 -0.0022969942 0.0026108022 -0.0045843944 -0.00058421073 0.0032715397 0.0019193371 -0.0020300192 -0.00051461393 0.0027202521 -0.00070497766 -0.0029469894 -0.001782778 -0.0009436039 0.0022345153 -0.003489055 -0.002669226 -0.0003971802 0.0020425688 -0.0019857513 -0.0028463048 0.0025698985 0.0042929538 -0.0022906088 -0.0017759656 -0.0037337916 0.0034703752 0.0049598822 -0.0040955255
tcb -0.0065226546 0.16173035 -0.13204199 -0.12108446 0.11287918 -0.17943662 0.073591284 0.012004437 0.0026542032 0.1093872 0.040280297 -0.075279094 0.041340318 0.1037476 0.098718986 0.09386048 0.050779175 -0.10512436 0.13990253 0.07722568 -0.014491124 0.013124465 0.04457031 -0.002378145 -0.069451496 -0.020246655 -0.024794137 0.07805695 0.00027849516 -0.05527037 -0.030395215 0.043122157 -0.031664424 -0.014291548 -0.04795309 0.052527778 -0.035163008 0.076699026 -0.08811508 -0.128487 -0.077689566 0.026438963 -0.09124604 -0.093491584 -0.09633408 -0.014495245 0.16072063 -0.043212816 0.025126038 0.20202827 0.11246585 -0.05572985 -0.06732008 -0.070492096 -0.039513253 0.08394579 0.09916644 -0.0051550525 -0.04407098 -0.009353932 0.06659077 -0.061196115 0.0054008323 -0.10116247 0.25135604 -0.08586274 -0.07088861 -0.0037469768 0.06807996 -0.12493686 -0.050732356 0.043409202 0.030215442 0.13408709 -0.014604013 0.065140605 0.051661003 -0.00089759385 0.037484434 0.01736169 -0.051857166 -0.08623288 0.028537558 0.04035008 0.11701515 -0.02051191 0.06642693 -0.057441305 0.14108871 -0.037652504 0.07247944 -0.019128421 -0.0049778502 -0.010798565 -0.022057757 -0.04747667 -0.0815997 -0.15348513 0.011253636 -0.024212843
BMFBelt -0.01439488 0.66117364 -0.30718228 -0.5087216 -0.07855524 -0.41096622 0.24540626 -0.16325945 0.18796399 0.41121513 -0.033459783 -0.28217968 0.06390925 0.13683102 0.3100916 0.68734455 -0.0054070884 -0.23146403 0.25609228 0.1481861 -0.3097109 -0.0065399744 0.06508164 -0.09768114 -0.3359518 0.089777865 -0.07666223 0.2823912 0.11837269 -0.19845162 -0.24674855 0.02963655 0.10564345 -0.43105835 0.12677465 0.30208293 -0.1746178 0.29217237 0.009497626 -0.37098423 -0.33473152 -0.19233651 -0.21276678 -0.39751348 -0.31502062 -0.22240882 0.66800165 -0.013681459 0.1529698 0.63632274 0.3122797 -0.19188455 -0.306236 -0.13121228 0.08527367 -0.04663106 0.44347903 0.07533663 -0.10371244 -0.04143468 0.60492265 0.21189131 0.21447611 -0.3588806 0.5156077 -0.34438628 -0.28287607 -0.041264154 0.4122237 -0.4057568 -0.055049 -0.04095714 0.051752947 0.10465065 0.052685756 0.39387128 0.38120323 -0.28960204 0.062787004 -0.24160546 -0.10927788 -0.27990904 0.13212684 0.20820174 -0.029452337 -0.029818181 -0.15008579 0.064622015 0.21025646 -0.15641311 0.19264966 0.25421646 0.010547934 -0.04638976 -0.16554546 -0.16082965 -0.12494199 -0.3586322 0.07195653 0.046332013
MasvidalDiaz -0.02131214 0.77867043 -0.3205887 -0.61022496 -0.07029795 -0.48329622 0.2797221 -0.19307275 0.2145845 0.47571582 -0.028026579 -0.3298556 0.091771305 0.13000083 0.35225305 0.76899093 -0.028378606 -0.25651476 0.30854872 0.17563036 -0.3664192 -0.006673626 0.09625463 -0.12039895 -0.37620318 0.114194475 -0.12651739 0.3379656 0.13617332 -0.21963617 -0.2885762 0.06244345 0.139169 -0.5129963 0.16682579 0.37631375 -0.21911366 0.3425526 0.051478185 -0.44416964 -0.37962645 -0.2431671 -0.24320228 -0.46172744 -0.3740393 -0.28445312 0.7846602 -0.01456302 0.18900678 0.71072054 0.34835127 -0.21648602 -0.38225737 -0.13364811 0.11009888 -0.059732858 0.5115586 0.07360584 -0.1118025 -0.039119974 0.69202566 0.2638608 0.25943974 -0.4211305 0.5891839 -0.38365555 -0.32048926 -0.03462663 0.5079718 -0.46148866 -0.06676222 -0.039760828 0.028860847 0.12600741 0.057788465 0.4848134 0.43861866 -0.33496144 0.060671605 -0.2867091 -0.11580488 -0.32185948 0.15025823 0.23875439 -0.036096748 -0.023245186 -0.18534946 0.099771895 0.22902702 -0.1811059 0.24490654 0.30033165 0.032793228 -0.08325196 -0.19362128 -0.14390402 -0.15112881 -0.41792086 0.07936103 0.08049046
DiazMasvidal 0.033255007 0.91590744 -0.3934149 -0.6787777 -0.113212675 -0.5827054 0.28490323 -0.26284483 0.21729222 0.4925653 0.026281567 -0.41468805 0.11567271 0.09371881 0.48885888 0.9347558 0.017547138 -0.30663785 0.35164908 0.17830199 -0.429646 -0.07118044 0.13100274 -0.13419677 -0.41429406 0.15887074 -0.17605528 0.35832018 0.16472396 -0.32617712 -0.29929632 0.09877471 0.18540886 -0.5885365 0.20398624 0.4108701 -0.27709073 0.45642492 0.036119387 -0.5411142 -0.4041844 -0.2651828 -0.27626276 -0.5394223 -0.4550414 -0.3095088 0.93779683 -0.050442353 0.19799006 0.896659 0.417608 -0.23991695 -0.44302353 -0.19049565 0.13957201 -0.06733406 0.6287474 0.13356161 -0.15459745 -0.04745678 0.81799424 0.25199324 0.28270355 -0.4987887 0.7244854 -0.45073798 -0.36621276 -0.08341803 0.5790881 -0.59208596 -0.1093254 -0.09281954 0.0744491 0.1457859 0.08633262 0.53840834 0.49913606 -0.33258882 0.079947144 -0.32617244 -0.10169434 -0.40968654 0.18368515 0.31029862 -0.05713894 -0.037957683 -0.21594921 0.11263239 0.3015787 -0.17343833 0.3113276 0.3819748 0.017964615 -0.06803842 -0.24824159 -0.1696582 -0.19294706 -0.47679198 0.092357 0.07955936
YouWinHalloweenKevin 0.038752146 0.31833017 -0.3011245 -0.013628107 0.034435336 -0.3517499 0.14934571 -0.10582212 0.071462415 0.20411715 0.012234739 0.033794407 0.039962225 0.29198053 0.144018 0.111144975 0.021470532 -0.20785128 0.055924553 0.24486274 -0.102212764 0.16095234 0.032437693 0.12518129 -0.17486235 -0.013978792 -0.012585747 0.21401224 0.08786625 -0.1336865 -0.07087244 -0.0001385985 -0.0608093 -0.13368073 -0.13441114 0.11782584 -0.0024190615 0.14966863 -0.116616055 -0.18854977 -0.11321019 0.0037878382 -0.16853608 -0.19874202 -0.17061193 0.037880532 0.19775216 0.04242408 -0.049183298 0.46559748 0.18270539 -0.00039310651 -0.014795802 -0.08159529 -0.05644943 0.034129884 0.2198189 -0.0053192643 -0.1831022 0.11669685 0.1524415 -0.039715942 -0.04044134 -0.23351839 0.25577748 -0.11769288 -0.1118166 0.11133823 0.20574458 -0.19270489 -0.096183755 0.05650322 0.061860982 0.11129949 -0.073018916 0.088104926 -0.029593058 0.07413273 0.13762237 -0.02433753 -0.20855679 -0.23640268 0.12852477 0.081386365 0.23756398 -0.100022085 0.045721438 -0.12051523 0.26291123 -0.03780371 0.13507713 0.018476855 -0.13825619 0.007725623 -0.028408699 -0.047133446 -0.1116295 -0.21329765 0.07506483 0.03847343
Good2HaveYouBackBrotha 0.027798465 0.28810984 -0.32869178 -0.0056225895 0.029143207 -0.34872505 0.14357948 -0.10161992 0.049056064 0.21546853 0.027276428 0.041815914 -0.014350777 0.32928133 0.14502057 0.12932026 0.0104457615 -0.25461608 0.060333867 0.23414409 -0.09950734 0.17189394 0.040015545 0.11827905 -0.1892319 -0.019962862 0.0021127104 0.19258825 0.11937644 -0.110140674 -0.085461274 -0.028867187 -0.12969811 -0.10601529 -0.14679238 0.0750899 0.031589657 0.12090456 -0.13280575 -0.16085355 -0.0989122 0.0030350175 -0.20242053 -0.18987302 -0.14330135 0.017459247 0.1450707 0.07131285 -0.05770206 0.4564842 0.17084946 0.0086974325 0.0133820595 -0.06696066 -0.04267525 0.0534462 0.21318491 0.0070322165 -0.15603006 0.12324533 0.1376509 -0.029923668 -0.053994995 -0.21802388 0.2660297 -0.1417476 -0.13708974 0.12798104 0.19014503 -0.15540963 -0.08033064 0.033362117 0.09259433 0.09154585 -0.051658 0.06994341 -0.009012468 0.07935761 0.12291036 -0.041601434 -0.2379998 -0.21793914 0.16050085 0.11342136 0.2560502 -0.08240813 0.03541727 -0.1321868 0.2577949 -0.01434749 0.059562508 -0.017063588 -0.1385081 0.022407841 -0.019894812 -0.037659716 -0.09994443 -0.20512411 0.077620335 -0.006940699
IveMissedYou 0.019375952 0.31406444 -0.30731484 -0.02953996 0.030616002 -0.35638586 0.17761464 -0.10422448 0.053987388 0.20714022 0.027272142 -0.009176103 -0.015419034 0.32945648 0.13804354 0.12839764 0.037934907 -0.23654419 0.074041314 0.19692478 -0.11698897 0.18280797 0.04507108 0.12194884 -0.19411802 -0.013004485 -0.0050771413 0.20536506 0.09962245 -0.12499403 -0.06557319 -0.05572593 -0.12401233 -0.11924756 -0.15656798 0.11466681 0.0055318424 0.12850085 -0.15610912 -0.19239908 -0.1220426 0.0031949023 -0.19824034 -0.21726085 -0.15068887 -0.0058629517 0.18281487 0.06186651 -0.031376485 0.4298223 0.17115022 -0.011355398 0.013331868 -0.05248631 -0.05202874 0.05474603 0.21190886 -0.0046659466 -0.1303001 0.13079593 0.13141713 -0.0304434 -0.04279009 -0.22945732 0.28624865 -0.15998691 -0.17880665 0.12138795 0.2206834 -0.17160122 -0.072838806 0.072497234 0.08913935 0.13545267 -0.053804647 0.06315942 0.0017222982 0.05150509 0.091469266 -0.053718876 -0.22190976 -0.20631671 0.17867142 0.10659122 0.22577384 -0.0704738 0.03991739 -0.13513087 0.2540506 -0.021104937 0.06500569 0.015437444 -0.15389115 -0.0035643787 -0.031012826 -0.057227544 -0.08654408 -0.19068903 0.11591309 0.024640927
YoureAnAsshole 0.043510128 0.346853 -0.37097397 0.06722266 -0.04537281 -0.4002676 0.17241383 -0.13889988 0.084290355 0.24031635 0.0058741155 0.08194874 -0.008981247 0.3733666 0.13694344 0.10500599 -0.009425067 -0.27287188 -0.008033933 0.31221843 -0.1409813 0.25417748 0.028463958 0.1764832 -0.21658023 0.0013471179 0.008139637 0.2721217 0.15239674 -0.16257781 -0.08696836 -0.041087326 -0.10879608 -0.179101 -0.17705707 0.12389667 0.03157679 0.16258977 -0.14430493 -0.19557078 -0.10432262 -0.0007895651 -0.19950965 -0.22586405 -0.16182835 0.037785772 0.18741326 0.10091718 -0.076382 0.5182857 0.19084682 0.030452995 0.035907958 -0.07131949 -0.059920445 0.020495215 0.24130714 0.015099251 -0.22271994 0.16812184 0.16874303 -0.019875528 -0.06578246 -0.26667187 0.20965156 -0.15691592 -0.14427938 0.18068372 0.2676736 -0.1640081 -0.09255591 0.0682067 0.080766365 0.060511082 -0.09352423 0.07645997 -0.052907478 0.1038479 0.15565212 -0.044183966 -0.2843502 -0.25838378 0.18912378 0.13758409 0.26784855 -0.09240543 0.027582351 -0.15307559 0.2866894 -0.013015744 0.10213739 0.016336732 -0.20664212 0.027784634 -0.018358262 -0.04199241 -0.07677592 -0.19173783 0.12260994 0.046178527
AreWeInFlorida 0.00979572 0.17153507 -0.12376589 -0.10960114 0.0950967 -0.13865764 0.07235111 -0.02833736 0.052784894 0.087850116 0.011718382 -0.07646491 0.043752845 0.1066859 0.068772785 0.10562921 0.04455727 -0.0706274 0.12369832 0.09104548 6.367055e-05 -0.0006034763 0.042065963 -0.024482524 -0.07866557 0.0044221473 -0.0104825385 0.056918718 0.008840288 -0.049486656 -0.046201997 0.033323787 -0.027463228 -0.012991533 -0.025349956 0.0824391 -0.005840994 0.05376956 -0.092860095 -0.10496605 -0.05152282 0.01633868 -0.08265647 -0.12455472 -0.08403637 -0.0038786537 0.15291016 -0.002820289 -0.0013398626 0.21695438 0.107279636 -0.07131545 -0.053079758 -0.035105426 -0.022734743 0.04582573 0.11827569 0.0064358064 -0.028287256 0.001085332 0.114492185 -0.045516998 -0.00077398686 -0.085259095 0.19103633 -0.08049925 -0.03562841 -0.026730856 0.030174425 -0.14199771 -0.02793227 -0.003045712 0.039715223 0.06943965 -0.015156569 0.07752081 0.04193929 -0.020635247 0.02779106 -0.019559197 -0.032928623 -0.077749714 0.0037600691 0.018530127 0.09014598 -0.017875688 0.045041252 -0.029827328 0.157695 -0.030539982 0.057624582 -0.0035181555 -0.012232506 0.009589261 -0.02203307 -0.04466254 -0.057574544 -0.1605014 0.035104144 -0.006065045
ALLOFYOUIsADifferentColor -0.0003818632 0.20370284 -0.13824786 -0.113023005 0.14164802 -0.17758831 0.08909128 -0.015274148 0.07276949 0.11143329 0.015432598 -0.117256954 0.0387399 0.17063247 0.071984366 0.08966785 0.09114502 -0.089222305 0.15141214 0.11807759 0.004183464 0.008240536 0.036809392 -0.03071745 -0.114477895 -0.015391135 -0.0022563809 0.052704755 0.021251231 -0.06089423 -0.044392947 0.031568468 -0.05908292 0.0056322063 -0.05113503 0.08072012 0.017149288 0.04519218 -0.12895183 -0.12027813 -0.07004774 0.020567117 -0.13415699 -0.17510532 -0.09759296 -0.0031977356 0.14858134 -0.001181571 0.012207844 0.2392706 0.10973331 -0.067204714 -0.03967351 -0.055712096 -0.037540838 0.08254371 0.13574408 -0.0024685164 -0.035767075 0.009378793 0.13022082 -0.038175687 0.012116487 -0.08177439 0.22300892 -0.10418937 -0.041568957 -0.022539284 0.03727012 -0.16371897 -0.012024092 0.0063017616 0.05485806 0.083203815 -0.042034592 0.055426646 0.04007704 -0.013694228 0.018462665 -0.0225246 -0.059443805 -0.08200091 0.023698077 0.026221434 0.10345567 -0.011157494 0.04483299 -0.04612174 0.19551896 -0.030467859 0.047454838 0.0109478235 -0.048292316 0.014595156 -0.031039884 -0.074927665 -0.040538292 -0.20214663 0.08132672 -0.025670636
IfYaSmell 0.029616624 0.59545594 -0.27342477 -0.47103545 -0.11332428 -0.3841604 0.18860729 -0.22224815 0.14533554 0.35430604 -0.00030957136 -0.25388005 0.04517629 0.08784685 0.34142724 0.7037712 -0.0054612877 -0.23594053 0.24255966 0.111319155 -0.31493866 -0.057358135 0.09255357 -0.09691569 -0.30707347 0.12325845 -0.12364758 0.23975691 0.14965267 -0.21492633 -0.21918873 0.03873455 0.095270164 -0.41841173 0.13828759 0.25634673 -0.18144007 0.3076588 0.024978034 -0.3552471 -0.26771936 -0.20186499 -0.18939915 -0.36385718 -0.31204763 -0.21720342 0.61646265 -0.005653764 0.10681622 0.61539733 0.2690795 -0.17385569 -0.28940612 -0.1107927 0.09827942 -0.08588586 0.4237859 0.09247261 -0.07368808 -0.015248004 0.5958173 0.19749229 0.20270346 -0.36695537 0.5056875 -0.29572088 -0.27635676 -0.06327809 0.38752335 -0.3984832 -0.08391986 -0.10276353 0.05451367 0.083835684 0.06851704 0.37728876 0.37256318 -0.23585495 0.058513455 -0.26200578 -0.079108156 -0.29115036 0.14047804 0.2021043 -0.043139562 -0.035173967 -0.14840055 0.086276345 0.20183632 -0.13169332 0.18261312 0.25110856 0.019817853 -0.030395621 -0.15756452 -0.12855448 -0.13376956 -0.33637637 0.057213183 0.03699321
the305 -0.013195408 0.24914484 -0.10201515 -0.2635016 0.656645 -0.22562908 0.049129814 -0.042253397 -0.0946841 -0.03152275 0.24470071 -0.16726592 0.14192382 0.1670201 0.2961694 -0.105200864 0.12485321 0.0027912797 0.32965642 0.017721632 0.069737196 -0.08212658 0.20608836 -0.061197747 0.18593603 -0.06651087 -0.09492715 -0.07159849 -0.14707583 0.07329928 0.12545884 0.12507603 -0.1200096 0.22394966 -0.13091616 -0.026785154 -0.16099456 -0.01657378 -0.21111122 -0.1634202 0.08001722 0.292315 -0.23254158 0.052065 -0.022776755 -0.21981587 0.04230895 -0.056775447 -0.094714 0.23786648 0.31040153 0.08031976 0.08562331 -0.14014912 -0.027403068 0.38277867 0.14029308 0.06772916 -0.09498301 -0.026443504 -0.187678 -0.25380126 -0.26358476 -0.06565802 0.48674345 -0.043063905 -0.086633764 0.000502041 -0.014554164 -0.18728372 -0.2341313 0.15731846 0.009952857 0.3911266 0.05369981 -0.0068812743 -0.05513402 0.32312912 0.10720089 0.19144887 -0.01026923 -0.17953177 -0.04504186 -0.03458627 0.21884578 -0.1880073 0.06444398 -0.17841049 0.30387083 -0.04092195 0.16820547 -0.077761695 -0.017231451 -0.14980343 -0.02296525 0.14885254 -0.39237094 -0.11484007 -0.05209741 -0.12642224
sundaycheatmeal 0.018159932 0.20212762 -0.17859702 -0.16546205 0.13575107 -0.23472852 0.09919183 0.01681637 0.024129834 0.14993188 0.022661623 -0.07765863 0.0044419817 0.13945952 0.11950633 0.12920064 0.056463826 -0.13757937 0.13090019 0.07387672 -0.026589086 0.03885873 0.039862357 0.011468443 -0.13328998 -0.0131221255 -0.0089037595 0.059448805 -0.011361307 -0.07779827 -0.053949986 -0.015376284 -0.052377496 -0.023006078 -0.069343 0.084247895 -0.0065242164 0.0365507 -0.10383766 -0.16439198 -0.08174308 0.0020991038 -0.13515759 -0.13057105 -0.10105693 0.02105573 0.16727693 -0.019062843 -0.01540808 0.26328802 0.13453333 -0.059587702 -0.018925643 -0.08533175 -0.047382485 0.07033332 0.11411322 0.006234765 -0.06392834 0.026246663 0.084148616 -0.06563854 -0.027989946 -0.11639882 0.27252164 -0.11308272 -0.11887192 0.025572784 0.0658491 -0.14528146 -0.022462768 0.027193597 0.0720761 0.13483654 -0.0035243796 0.0626755 0.070047 -0.008250022 0.04419441 0.012711394 -0.09902168 -0.13013339 0.045386266 0.039582193 0.14190932 -0.03267838 0.043595474 -0.0686049 0.20042504 -0.04164583 0.038981467 0.00012252547 -0.037741654 -0.002452171 -0.04806611 -0.06243142 -0.101824775 -0.17523631 0.022201924 -0.0525322
barnyardmuthafucka 0.0077418764 0.21508686 -0.18020812 -0.15082483 0.14363177 -0.2078192 0.1365928 -0.017471611 0.0100353705 0.14711836 0.017995317 -0.04774753 -0.0099494895 0.13044448 0.13534738 0.14319469 0.05627017 -0.12323148 0.14280011 0.07860072 -0.04016159 0.023601446 0.07058463 0.03785659 -0.09787517 -0.0052581024 1.5923255e-05 0.066304766 -0.028310545 -0.0706341 -0.04609471 -0.0082962485 -0.06443579 -0.06226717 -0.074163444 0.08999823 -0.03297676 0.02744919 -0.11540902 -0.17205021 -0.054470524 0.047208622 -0.13638727 -0.12589478 -0.119607694 0.012169469 0.14519276 -0.023256773 -0.0562727 0.26596102 0.13400859 -0.07931317 -0.022920258 -0.06819135 -0.028136872 0.08199602 0.10886372 0.0061755623 -0.04860383 0.025929114 0.09822064 -0.049448468 -0.054179322 -0.1694051 0.30507556 -0.080382295 -0.12537774 -0.0009939077 0.029002076 -0.16148238 -0.08004004 0.03683351 0.092308335 0.15618306 -0.015954228 0.06733733 0.07914255 -0.004533812 0.082287125 0.009558562 -0.08112574 -0.13166445 0.015310042 0.03444411 0.19005693 -0.039144482 0.06709506 -0.06790215 0.19404323 -0.058891762 0.034034416 0.011343931 -0.048191667 -0.002961391 -0.05168967 -0.04629414 -0.13222091 -0.15204158 0.008755222 -0.053945005
cheatmealsunday 0.043802965 0.27873716 -0.1701201 -0.1926453 0.13507544 -0.2957663 0.11705174 0.06915071 0.019142432 0.15467888 0.022450773 -0.07203698 0.044616863 0.08934221 0.12006401 0.115535565 0.04740652 -0.10955386 0.13234784 0.11415845 -0.047675423 0.038075622 0.055305444 0.027163332 -0.114380546 -0.010137933 -0.04803432 0.0907252 -0.046694208 -0.1411184 -0.05217895 0.031207938 0.015652467 -0.041301392 -0.030424308 0.13999116 -0.021827526 0.08470578 -0.07060243 -0.2352088 -0.0877667 -0.032845363 -0.12657563 -0.15710829 -0.1326085 0.035801947 0.23178175 -0.041441012 -0.008604699 0.27220112 0.14202279 -0.07808053 -0.075823076 -0.09234535 -0.030331485 0.07559229 0.10661284 0.0069283647 -0.12648623 -0.004312656 0.07336332 -0.07190742 -0.021900553 -0.11716049 0.29099908 -0.12447943 -0.09701333 0.025414659 0.089572854 -0.17530556 -0.024184456 0.06353295 0.06188047 0.10954446 -0.007523718 0.0986505 0.020796606 -0.023602694 0.039788093 0.052135088 -0.067782894 -0.14647244 0.02924045 0.048051596 0.15179296 0.0003240556 0.026850708 -0.046975337 0.2169142 -0.03147342 0.10871167 0.037001405 -0.056814533 -0.025280975 -0.070741594 -0.029662726 -0.123765424 -0.18395971 0.025515333 -0.04827887
ironparadise 0.011369771 0.20951183 -0.18894883 -0.16645415 0.16107938 -0.20590921 0.101224095 -0.015144692 0.03185992 0.1423055 0.041754127 -0.09461655 0.0271293 0.16350569 0.11893566 0.14412063 0.05712257 -0.11194802 0.12980416 0.09188899 -0.03719752 0.010911876 0.05617268 -0.008439179 -0.10954403 -0.01975721 -0.01831641 0.06453829 0.0049278145 -0.06351802 -0.0735117 0.018209672 -0.06402756 -0.012015798 -0.039590865 0.038830422 -0.03025543 0.07290589 -0.13728648 -0.15183423 -0.1084239 0.0086495625 -0.1511058 -0.11842857 -0.10417905 -0.04806569 0.14723748 0.002209047 -0.013082317 0.28910154 0.10800349 -0.062104125 -0.05365471 -0.08276918 -0.04670826 0.09213152 0.1338336 0.020817969 -0.06589857 0.01118924 0.12910879 -0.04155603 0.019037709 -0.12584847 0.2830311 -0.1213891 -0.10119299 -0.010051907 0.051544163 -0.15363201 -0.036919463 0.004269845 0.08915744 0.1777856 -0.0222548 0.07292582 0.07029352 0.02299545 0.07311775 0.0124951005 -0.06479014 -0.09222656 0.055004057 0.045296468 0.15863219 -0.06466926 0.03551501 -0.05646848 0.18122582 -0.05636808 0.07353636 0.01835489 -0.004303574 0.0067848293 -0.03863418 -0.061456054 -0.084026024 -0.17306894 0.032491464 -0.047368925
rackcity -0.015672002 0.22288068 -0.19529572 -0.1503596 0.13950825 -0.20853665 0.11865275 0.013718326 0.040823508 0.13446894 0.029719407 -0.0968944 0.028579356 0.12067833 0.078201756 0.10830756 0.04254348 -0.10948758 0.1360919 0.10787511 0.012168991 0.01667444 0.02738813 0.024308039 -0.12476463 -0.04242062 -0.024226103 0.10287433 -0.0229788 -0.07698699 -0.06985985 0.027829422 -0.035764664 -0.022428887 -0.060130537 0.076018415 -0.040564533 0.06337739 -0.10415314 -0.16642512 -0.13228871 0.026297871 -0.13881184 -0.105491355 -0.123175606 -0.006348545 0.19997346 -0.024967566 0.023858443 0.29826802 0.13779446 -0.08880576 -0.058654618 -0.07157792 -0.052402034 0.101966985 0.12609856 -0.0014093722 -0.07329093 0.019877084 0.1127384 -0.06399016 0.02818781 -0.12236339 0.28354722 -0.11446378 -0.08052698 -0.0057724323 0.048355944 -0.15121213 -0.031175066 0.03308274 0.07971064 0.1631539 -0.03894989 0.07730026 0.061224725 -0.014714663 0.056995433 0.018711882 -0.07833009 -0.11930959 0.03501952 0.053804725 0.17554563 -0.039125197 0.073223546 -0.07381787 0.20673023 -0.032216664 0.10672082 -0.0046803663 0.005981931 0.013651911 -0.058572147 -0.083067596 -0.059990942 -0.17835939 0.038800243 -0.015254453
bringyourfunderwear -0.007645278 0.24057546 -0.20490813 -0.1760012 0.12915169 -0.21554315 0.13187551 0.005062072 0.053213768 0.1673669 0.02240487 -0.1103485 0.01177635 0.16428229 0.07046577 0.1473422 0.03618043 -0.112070695 0.1250233 0.10465507 -0.0052494854 0.017998016 0.03321331 0.0142953545 -0.15506776 -0.046049114 -0.031574804 0.09435589 -0.010896558 -0.09800644 -0.11754055 0.016394345 -0.05478179 -0.03949881 -0.042361554 0.06542109 -0.03488988 0.08655394 -0.13179499 -0.1805263 -0.16761641 -0.029126648 -0.16146536 -0.11862161 -0.11260752 -0.03857996 0.1926314 7.5943026e-05 0.029181462 0.3279779 0.1008985 -0.109829515 -0.07697618 -0.08834019 -0.044802103 0.09814315 0.12363205 0.023060294 -0.0787172 0.026454128 0.16896163 -0.03063396 0.06686914 -0.12305295 0.28003487 -0.14895968 -0.112692125 -0.0155488355 0.057043537 -0.15313034 -0.00056370144 0.0010206688 0.110191226 0.18032475 -0.048643474 0.074630104 0.08868747 -0.030871525 0.05204316 0.016801799 -0.080404036 -0.09359421 0.06651739 0.05450103 0.17793503 -0.03464631 0.047901716 -0.069970354 0.205646 -0.043873627 0.08318256 0.028902985 0.0043196767 0.031437013 -0.05417544 -0.110467225 -0.021994423 -0.17877848 0.0732266 -0.044386476
ShaunRoig -0.034183864 0.16993847 -0.59285516 -0.37614986 0.38996676 -0.41946545 0.2719281 -0.26314816 -0.03700738 0.4881253 0.015688786 -0.20109838 -0.37831116 0.82122993 0.46467483 0.757513 0.20584422 -0.66953176 0.40231526 0.0034727892 -0.2768985 0.07556275 0.21269648 0.015929015 -0.562499 0.0006982883 0.09545655 0.001869922 0.27026218 0.04718231 -0.18354675 -0.31770533 -0.71370035 0.050143823 -0.3439531 -0.13064803 0.080893375 -0.14194171 -0.45000356 -0.28686163 -0.12870708 0.04745977 -0.5392923 -0.3766103 -0.24825351 -0.1270846 -0.0737876 0.25070167 -0.22297613 0.68292457 0.22373566 -0.18300864 0.22004054 -0.16755609 -0.08831214 0.14219819 0.34634963 0.08589207 0.27543837 0.28927943 0.38018104 0.0076210266 -0.090708494 -0.5107051 1.0073196 -0.27130648 -0.61279404 0.109966874 0.024455553 -0.29365918 -0.12909809 -0.24684463 0.38019764 0.49218693 0.111806765 -0.059843954 0.47975627 0.0064962455 0.18350576 -0.31746602 -0.46894506 -0.3024742 0.3302864 0.13695326 0.51930267 -0.2689542 0.14068155 -0.20558484 0.5306769 -0.21109489 -0.35862997 -0.13465537 -0.122431256 0.037659496 0.033133257 -0.27212533 -0.23902541 -0.53576154 0.09166075 -0.34539872
AnointedS -0.037242647 0.20811719 -0.6438639 -0.3853769 0.40403613 -0.4152959 0.27361333 -0.2800443 -0.041472226 0.52647185 0.0090963915 -0.18813837 -0.38473356 0.8268328 0.4830622 0.77220845 0.20547967 -0.6790484 0.42355517 0.01569482 -0.26638588 0.08571745 0.21010065 0.027743323 -0.56493163 -0.0011326331 0.10894878 0.008366786 0.25695994 0.049942862 -0.1936169 -0.32244033 -0.7161348 0.035262838 -0.3602807 -0.13098197 0.074696645 -0.14514461 -0.4707704 -0.3081847 -0.12550642 0.07051139 -0.5629042 -0.37244606 -0.26429087 -0.14844657 -0.055994086 0.249303 -0.254044 0.7285854 0.2672404 -0.20364156 0.22782302 -0.16753688 -0.083153486 0.12587927 0.34230015 0.08709085 0.27417082 0.2873312 0.41671163 -0.0101635065 -0.11601108 -0.5206168 1.0505846 -0.26562396 -0.63713306 0.101324834 0.012480521 -0.32505646 -0.16843987 -0.25013903 0.41114944 0.5085576 0.11164504 -0.0398215 0.51001406 0.012949147 0.20566075 -0.28838375 -0.47739738 -0.31597075 0.31933385 0.1313151 0.5475073 -0.2819111 0.16020131 -0.23599973 0.56728643 -0.23748593 -0.34154427 -0.15431724 -0.10863577 0.051722087 0.020947842 -0.28937274 -0.26394805 -0.54898363 0.08272743 -0.3490867
BeatboxGenius -0.05152149 0.25339767 -0.665323 -0.43829918 0.4959653 -0.4434285 0.29160053 -0.27893147 -0.06157915 0.5531057 0.026281439 -0.20893502 -0.40659487 0.8588609 0.5237967 0.8036887 0.23865247 -0.6926462 0.47975218 0.013052371 -0.27896088 0.104240455 0.23057427 0.028792782 -0.5790519 -0.00559961 0.11354229 -0.0071224757 0.2494523 0.05278585 -0.20320165 -0.32515708 -0.7631471 0.026931953 -0.39262536 -0.11822011 0.05430032 -0.15722363 -0.51417863 -0.34994316 -0.12207519 0.104324825 -0.6092864 -0.40599808 -0.28588727 -0.18441659 -0.05416448 0.24384052 -0.26580906 0.7953142 0.28408435 -0.20039648 0.24641402 -0.18564336 -0.09570189 0.1904591 0.37666136 0.1025619 0.26919043 0.31414282 0.41406047 -0.015542802 -0.15174803 -0.56193376 1.1196935 -0.29315385 -0.67238665 0.117635235 0.018821085 -0.35593605 -0.17258175 -0.23322201 0.42815337 0.5617072 0.11398811 -0.03680557 0.52535 0.032343518 0.206513 -0.27956927 -0.4986053 -0.35040778 0.32116917 0.14648865 0.59630364 -0.29446182 0.15365769 -0.26095784 0.59724975 -0.23329468 -0.3656321 -0.1397723 -0.13716102 0.037531044 0.008696938 -0.29548278 -0.3072093 -0.5575124 0.08107102 -0.3570782
HumanBeatbox -0.053439066 0.20249864 -0.6490618 -0.43116406 0.5267606 -0.38741648 0.34148854 -0.31578657 -0.06431933 0.53870577 0.005487628 -0.16699052 -0.46077004 0.88774544 0.50582635 0.772168 0.23439534 -0.69539475 0.49133286 -0.052308552 -0.26249886 0.10596809 0.21389657 0.07243296 -0.5458409 -0.012924977 0.13370363 -0.04603163 0.20147036 0.08627444 -0.17961828 -0.36555922 -0.8192675 -0.0051774676 -0.45670563 -0.14184745 0.04276777 -0.22467086 -0.55624545 -0.29876855 -0.110751316 0.14865358 -0.6112992 -0.38492373 -0.2542072 -0.17914982 -0.11831831 0.24179429 -0.31872007 0.7710806 0.2930384 -0.22632031 0.2987269 -0.14644219 -0.09838428 0.18512091 0.333917 0.0885152 0.31326377 0.36443704 0.38157797 -0.02838702 -0.20748967 -0.5931833 1.1238074 -0.26000494 -0.7037249 0.091742665 -0.040820647 -0.35286406 -0.21276912 -0.19591177 0.46741205 0.60720295 0.081062056 -0.06866058 0.5363628 0.024314873 0.19697474 -0.2854477 -0.52054954 -0.3569631 0.29757458 0.08708734 0.650772 -0.28582337 0.20659593 -0.29766375 0.5665766 -0.24939835 -0.43014568 -0.15648137 -0.14368966 0.05704246 -0.012409243 -0.33610082 -0.32646617 -0.48575306 0.0727333 -0.37265545
Beatbox -0.06950806 0.21689777 -0.6582028 -0.4421068 0.56759167 -0.38369042 0.36529008 -0.3060139 -0.06127585 0.55427486 0.013407224 -0.1581819 -0.4748813 0.89783883 0.5456852 0.7778833 0.25505006 -0.707224 0.52672666 -0.054492425 -0.26728693 0.11605887 0.23966576 0.07804204 -0.539722 -0.0047221268 0.11975027 -0.042980667 0.17035079 0.094205536 -0.16677691 -0.38513657 -0.8472114 -0.024342263 -0.46832788 -0.13816153 0.031127535 -0.24070176 -0.5905057 -0.31669232 -0.11185478 0.16664311 -0.64557326 -0.40293556 -0.2650068 -0.20483342 -0.11491489 0.22766638 -0.34396923 0.80699056 0.3233815 -0.24928412 0.32978585 -0.15416113 -0.09366943 0.21709566 0.3655947 0.10132814 0.30902556 0.37970492 0.3817689 -0.027214564 -0.2484349 -0.6432319 1.157501 -0.26595524 -0.7274542 0.08499953 -0.051415417 -0.3589582 -0.23431113 -0.176233 0.50185597 0.6525748 0.07424413 -0.07677108 0.53441435 0.043485004 0.19868685 -0.27048254 -0.5320782 -0.36651435 0.2855486 0.080638796 0.6796011 -0.29290745 0.22260855 -0.32696527 0.57209694 -0.24377401 -0.44386384 -0.14488052 -0.15304916 0.05851871 -0.036687884 -0.36213398 -0.34289888 -0.4905292 0.05930232 -0.3906787
Beatboxer -0.09096342 0.2236586 -0.62734926 -0.46285793 0.6569892 -0.34501755 0.42949614 -0.3041714 -0.07607554 0.49917096 0.010321869 -0.1611986 -0.49614394 0.9014095 0.5127834 0.6693521 0.2671267 -0.67670554 0.5702412 -0.087426506 -0.1939244 0.13912629 0.2273842 0.13653025 -0.45921278 -0.021419574 0.15222538 -0.054229233 0.064325474 0.113052994 -0.1296111 -0.40975928 -0.8691508 -0.054792505 -0.56328976 -0.09705181 -0.0025281636 -0.2968832 -0.63911986 -0.2974011 -0.099763766 0.2528511 -0.650292 -0.35220858 -0.22112533 -0.18562098 -0.13989234 0.19541207 -0.36307725 0.7569417 0.35577843 -0.28497195 0.38419417 -0.113867104 -0.09895776 0.26391727 0.3371413 0.08662838 0.32456648 0.42253095 0.30214393 -0.07087145 -0.35859677 -0.6701688 1.1600667 -0.24266653 -0.7307602 0.08354433 -0.09556073 -0.35431123 -0.26724273 -0.0683528 0.5453878 0.73517513 0.034076594 -0.111389846 0.5282349 0.04602466 0.18793876 -0.22859746 -0.53587604 -0.38493475 0.2332919 0.022434035 0.7491186 -0.27206108 0.29259694 -0.39399087 0.5645684 -0.2618887 -0.47671643 -0.1531701 -0.16519152 0.044198703 -0.060212813 -0.38517973 -0.3636928 -0.4038695 0.078684 -0.4046234
VocalPercussion -0.09844764 0.26021007 -0.51470095 -0.49009657 0.7978481 -0.30395865 0.46796775 -0.2848837 -0.07162696 0.37962118 0.052271552 -0.15505125 -0.4135218 0.81369406 0.5199962 0.51872534 0.30241674 -0.55282706 0.61629856 -0.14710139 -0.111352734 0.07718597 0.23172797 0.14903009 -0.29489046 -0.03662644 0.14219302 -0.093897134 -0.06771314 0.14286213 -0.034776554 -0.3700875 -0.82906246 -0.06200323 -0.6163549 -0.017390044 -0.08714513 -0.3592967 -0.6871165 -0.2422931 -0.06213182 0.38111383 -0.604552 -0.28753987 -0.14840749 -0.18253158 -0.13238508 0.10974988 -0.3612624 0.70045036 0.42490643 -0.26970395 0.40736282 -0.07497625 -0.07674842 0.36191395 0.3015819 0.07833317 0.28231236 0.43088016 0.14322402 -0.18005838 -0.47979078 -0.6783826 1.1300282 -0.17946345 -0.702449 0.022375608 -0.11637604 -0.35537326 -0.33252975 0.0929291 0.5512611 0.82890207 0.024953535 -0.13223729 0.44266528 0.10353141 0.19442216 -0.14766936 -0.44084364 -0.4185471 0.09599334 -0.06264051 0.74204826 -0.30944005 0.31442952 -0.42436814 0.5628853 -0.28236178 -0.43433166 -0.1292535 -0.19156933 0.023924531 -0.09087232 -0.3337578 -0.47357738 -0.29620326 0.064794324 -0.36368304
OneManBand -0.078395605 0.36721426 -0.52773243 -0.49797335 0.810386 -0.29538062 0.5380263 -0.2628581 -0.048241187 0.3509527 0.04361158 -0.11379656 -0.3625838 0.7111314 0.4991742 0.414374 0.3100277 -0.47941643 0.62925476 -0.12787293 -0.024533026 0.07026606 0.19871323 0.18695474 -0.18643203 -0.043083232 0.13619952 -0.04479901 -0.18014562 0.111002885 -0.00981356 -0.3215555 -0.73900265 -0.13738813 -0.63562274 0.06124998 -0.14513767 -0.34443545 -0.7151281 -0.24115802 -0.086659364 0.4450696 -0.5630059 -0.24529822 -0.1552588 -0.14531197 -0.030560644 0.011898601 -0.35462502 0.71361667 0.50303113 -0.32689226 0.3714836 -0.044717304 -0.069770284 0.36179104 0.2705381 0.028198598 0.2018493 0.41130728 0.109092616 -0.21807341 -0.54014707 -0.70047975 1.090735 -0.15248303 -0.64404666 -0.022547668 -0.11331237 -0.37892348 -0.39353025 0.2134773 0.5850162 0.8609174 -0.0196466 -0.11012021 0.40422228 0.09212112 0.23394065 -0.041210763 -0.38550267 -0.4584574 0.00038229997 -0.12199764 0.7792004 -0.28058356 0.39909035 -0.4611363 0.5609759 -0.30505395 -0.31744963 -0.10131841 -0.17982957 0.07069296 -0.1647282 -0.36885867 -0.49080548 -0.24118373 0.07130713 -0.29616567
TheRock -0.10518754 0.48357558 -0.5206456 -0.52225107 0.87399036 -0.27997234 0.5882334 -0.2294721 -0.047537033 0.3172185 0.061654843 -0.082033224 -0.28397733 0.6126436 0.4704658 0.28664878 0.33324036 -0.38099888 0.6848717 -0.10420582 0.06646591 0.07664966 0.17936155 0.20937732 -0.078520775 -0.053563546 0.15278496 -0.0059584733 -0.29043287 0.085429445 0.016729817 -0.26449484 -0.6471917 -0.19203134 -0.6629573 0.19452141 -0.225608 -0.34057012 -0.7408555 -0.2729954 -0.09222593 0.5385658 -0.5403823 -0.21514814 -0.16734792 -0.100781925 0.07321805 -0.10309288 -0.3266791 0.7486477 0.5758516 -0.3540372 0.3418826 -0.020912096 -0.07065493 0.39942455 0.26997626 0.002760479 0.12798779 0.40072802 0.022232937 -0.29602018 -0.60972524 -0.7027046 1.0729914 -0.10613953 -0.58919173 -0.061909642 -0.118506804 -0.39937758 -0.43121353 0.33547062 0.5867858 0.90948087 -0.046572287 -0.084802546 0.35381013 0.09984947 0.25613415 0.07605198 -0.31560287 -0.4999967 -0.09295119 -0.17233905 0.8380666 -0.26021388 0.4700264 -0.50531894 0.5723412 -0.296524 -0.2092956 -0.06478762 -0.18722638 0.07055166 -0.2076194 -0.36331204 -0.5377931 -0.15912959 0.06811103 -0.2137652
DwayneJohnson -0.09200918 0.46983317 -0.5385643 -0.483384 0.8576572 -0.22777452 0.6220146 -0.234485 -0.03700203 0.34447807 0.024756152 -0.020521738 -0.3176162 0.5738785 0.42065957 0.24197775 0.31769615 -0.3552448 0.6531996 -0.09888818 0.11690359 0.08767256 0.14074506 0.267219 -0.06426814 -0.03079007 0.2114481 0.004725969 -0.30428308 0.1074107 0.0146902315 -0.24886577 -0.6218198 -0.24855717 -0.7127578 0.18572101 -0.22806473 -0.36693713 -0.7571344 -0.23468548 -0.069911025 0.59171426 -0.511172 -0.18769197 -0.16760626 -0.040588245 0.07222423 -0.12884922 -0.38438252 0.75813985 0.571003 -0.37628224 0.3433845 0.0032201016 -0.08589117 0.37845916 0.2015141 -0.03838358 0.11317843 0.4160659 0.019352872 -0.29697686 -0.619748 -0.73611027 1.0105525 -0.06482148 -0.5535033 -0.06479717 -0.17242202 -0.40400457 -0.46392974 0.36674303 0.61632615 0.90599185 -0.10118341 -0.08026708 0.35168016 0.08032024 0.29424897 0.14014058 -0.3025055 -0.5183786 -0.15147534 -0.19660234 0.9055948 -0.24325337 0.561741 -0.5310943 0.59475636 -0.3319653 -0.18777029 -0.09315386 -0.17813207 0.12900761 -0.23009196 -0.3929396 -0.5413547 -0.13012594 0.062340926 -0.18275349
ProjectRock -0.14049369 0.46456942 -0.35695797 -0.43458214 0.83744955 -0.18874127 0.58579487 -0.19714999 -0.04848784 0.2262126 0.037187938 -0.09953917 -0.1458287 0.42198443 0.29973483 -0.037297875 0.2524097 -0.24161924 0.63655406 -0.10132383 0.22042695 0.09741843 0.12304212 0.25530913 -0.0086919665 -0.06800974 0.23983994 0.05388676 -0.38828158 0.1029246 0.012113534 -0.13753352 -0.507175 -0.2538974 -0.6681172 0.31206402 -0.30870157 -0.35920206 -0.60268813 -0.27885363 -0.047773432 0.67811984 -0.37556463 -0.09564425 -0.08197062 -0.017445419 0.11111437 -0.17739962 -0.32062092 0.5798717 0.5872035 -0.3224911 0.26210648 0.05147442 -0.10961002 0.40740734 0.13229267 -0.03171767 0.0841736 0.3364321 -0.0967225 -0.34927037 -0.62167126 -0.600566 0.89783525 -0.047104374 -0.4029815 -0.035141364 -0.17612843 -0.3567273 -0.45370632 0.46290806 0.4505066 0.8381459 -0.12353471 -0.0074519883 0.2604785 0.08061052 0.24726167 0.16442077 -0.22867319 -0.42301336 -0.25296193 -0.2608578 0.7931594 -0.16880022 0.55349785 -0.5408022 0.5167082 -0.31783465 -0.11638147 -0.11743662 -0.17120966 0.03917399 -0.18698622 -0.2980168 -0.51748747 -0.022988351 0.051490866 -0.08756217
IronWill -0.10156761 0.5361534 -0.36968544 -0.52917606 1.0803701 -0.25609016 0.48845166 -0.17102653 -0.09264176 0.13471912 0.19129844 -0.12046415 -0.046592593 0.36761194 0.4505758 -0.09019354 0.27170148 -0.12986857 0.7048468 -0.06019092 0.20596533 0.022706177 0.21545823 0.16956025 0.20568807 -0.09340912 0.04417638 -0.035801247 -0.4520495 0.1260151 0.11914637 -0.028928282 -0.39868557 -0.0865963 -0.5725244 0.20611882 -0.3545483 -0.24079038 -0.61447036 -0.27898222 0.0027863004 0.67491454 -0.46006772 -0.037111357 -0.094769195 -0.19476686 0.14152612 -0.20387155 -0.3069513 0.62324685 0.65314084 -0.22978415 0.273087 -0.08596568 -0.071147926 0.55833113 0.21783365 0.015948132 -0.05778373 0.23667313 -0.18311706 -0.4037181 -0.6723941 -0.5039317 0.94860715 -0.059316706 -0.36494735 -0.06664815 -0.14188413 -0.41425744 -0.5121957 0.4889914 0.38058388 0.9168543 -0.09182798 -0.003064842 0.14092189 0.2785599 0.24059549 0.30312592 -0.16287473 -0.45633614 -0.21523592 -0.23183312 0.760204 -0.22799401 0.44027343 -0.527052 0.5296928 -0.23097591 0.059237625 -0.08521585 -0.11161654 -0.05393601 -0.22623464 -0.16511053 -0.64908624 -0.061446063 -0.019244678 -0.17472552
HardestWorkerInTheRoom -0.1166782 0.6084296 -0.45308667 -0.4843791 0.86569273 -0.28177676 0.64607656 -0.13203011 0.0018737058 0.25142828 0.08114859 -0.050998133 -0.036987524 0.29011333 0.3114223 -0.10644728 0.25804386 -0.21429889 0.6844827 0.062940076 0.28123257 0.119188845 0.1403589 0.31549573 0.064160526 -0.06600101 0.14349705 0.1611802 -0.49325502 0.016769338 0.01689185 -0.034837425 -0.31379998 -0.29617122 -0.63540596 0.3943156 -0.30578354 -0.21178804 -0.6062746 -0.32999668 -0.10504464 0.6806479 -0.38400978 -0.13011698 -0.18922684 0.05664242 0.3316606 -0.2660816 -0.32051098 0.73429656 0.6600976 -0.41800135 0.18461858 -0.036005206 -0.15040065 0.44853213 0.22281376 -0.069000855 -0.11653441 0.27512988 -0.064506136 -0.40580207 -0.6087594 -0.64669293 0.8583777 -0.05499273 -0.3185245 -0.0775994 -0.16158846 -0.4605708 -0.49413466 0.56718177 0.45577085 0.8891063 -0.20613682 0.09613295 0.16137601 0.094476946 0.27823144 0.2861164 -0.20524068 -0.44697005 -0.32826784 -0.24301967 0.8734751 -0.15426435 0.6265708 -0.5710263 0.5512643 -0.2945473 0.091692165 -0.11259222 -0.122333504 0.0553394 -0.28082412 -0.30596012 -0.539982 -0.10311668 0.040411998 -0.05678351
SevenBucks -0.09837658 0.64585686 -0.48366594 -0.43640152 0.81603545 -0.25198376 0.73242664 -0.09128779 0.022168647 0.24895681 0.06282293 0.025333297 -0.049068343 0.21713263 0.25779602 -0.21489124 0.2500998 -0.17560518 0.6629799 0.12378343 0.37998733 0.12740283 0.13222599 0.38226607 0.13918483 -0.066619225 0.13806267 0.24739075 -0.56535333 -0.014602179 0.06055859 -0.009900735 -0.21942714 -0.34561512 -0.6707809 0.43049577 -0.31046107 -0.18500213 -0.6144473 -0.31826243 -0.12335777 0.7116905 -0.33068237 -0.09922593 -0.19323447 0.14034729 0.4163555 -0.32664305 -0.36076924 0.75701314 0.70139307 -0.5140614 0.17070445 -0.017406764 -0.14105505 0.4125906 0.19901025 -0.10305954 -0.194218 0.27625996 -0.08028413 -0.42626897 -0.6530524 -0.72334236 0.7644822 -0.020104995 -0.2392743 -0.103533946 -0.19048813 -0.46397194 -0.574038 0.64323634 0.5003583 0.8972551 -0.25944564 0.07728396 0.106483325 0.0795263 0.33466893 0.41222596 -0.15759946 -0.47997394 -0.41636857 -0.29371297 0.9691908 -0.12773386 0.7511205 -0.60311 0.5811143 -0.32018933 0.18509398 -0.13046373 -0.09991686 0.11884923 -0.33893988 -0.37065718 -0.5116788 -0.08345031 0.04434017 -0.03820866
ThePeoplesChamp -0.0995472 0.7345343 -0.43873364 -0.47000095 0.7979002 -0.308112 0.6816696 -0.0470366 0.039733015 0.21121712 0.10737631 -0.06352371 0.06348715 0.12914917 0.2546236 -0.24030367 0.24711563 -0.12101144 0.6550038 0.19152696 0.38163638 0.07799981 0.14343956 0.3196747 0.15855384 -0.0891691 0.09451726 0.2867327 -0.5604421 -0.07436753 0.05653951 0.079827696 -0.08759553 -0.31702238 -0.57133025 0.5020573 -0.33800408 -0.09107102 -0.54154956 -0.37314296 -0.15582828 0.6688941 -0.30033845 -0.09320846 -0.21354504 0.13078187 0.54686475 -0.35485902 -0.2700526 0.7447963 0.71917653 -0.4614417 0.09213369 -0.044543758 -0.12813106 0.41332293 0.24370284 -0.07257287 -0.266254 0.17859676 -0.062429633 -0.44772267 -0.5958746 -0.64414364 0.75557786 -0.052576106 -0.15515548 -0.10679102 -0.10636816 -0.4799294 -0.54896116 0.6376187 0.41487306 0.826866 -0.2044726 0.1317198 0.06303483 0.09351966 0.33290735 0.4205719 -0.09901057 -0.46229386 -0.42569754 -0.27067178 0.85724556 -0.11549688 0.66254157 -0.5392576 0.59349173 -0.30691117 0.3115504 -0.08831415 -0.08070533 0.07606222 -0.31379393 -0.25983566 -0.52674603 -0.10545387 0.059344493 0.009479031
IronWillCollection -0.19944675 0.9645822 -0.0079109715 -0.68327206 0.96530026 -0.44177783 0.5681633 -0.010434864 -0.00878406 -0.08438674 0.24346542 -0.5355612 0.48711097 0.01736164 0.24484847 -0.5794136 0.17549776 0.14370488 0.7551663 0.05902206 0.38563675 -0.04610652 0.16252102 0.085807174 0.31813267 -0.19021149 0.07392849 0.29642838 -0.65994513 -0.062429547 0.0698561 0.3148328 0.11170236 -0.29219264 -0.43066773 0.77280116 -0.6049432 -0.0482325 -0.2575413 -0.4954489 -0.17631923 0.7446725 -0.20821984 0.062204503 -0.011571535 -0.11649013 0.7348629 -0.45485145 0.0592776 0.40640947 0.8553772 -0.17206949 -0.117812864 0.011782699 -0.04363431 0.62020934 0.25324357 -0.0043589696 -0.24516806 0.026675532 -0.31697515 -0.52541625 -0.5658609 -0.2711319 0.8303606 -0.10724622 -0.113657154 -0.024091689 0.14691408 -0.5088167 -0.45981032 0.86144996 0.015172942 0.8529105 -0.080988504 0.27959627 -0.007421492 0.10919689 0.16582407 0.3292625 0.04386694 -0.40304232 -0.41350397 -0.27281576 0.45293224 -0.042301074 0.3769485 -0.47756532 0.5255993 -0.26657876 0.49187207 0.024533786 -0.089659974 -0.2772535 -0.20615113 0.04719213 -0.6323655 0.056536134 0.13749668 0.16097203
UnderArmour -0.03852193 0.78523207 -0.5386814 -0.38968104 0.66030216 -0.36178517 0.6236021 -0.007719407 0.029231954 0.2786465 0.16243601 -0.041218948 0.16521409 0.00051401707 0.175479 -0.24582171 0.1909937 -0.10901293 0.5598966 0.39063156 0.4510753 0.03473728 0.12957051 0.26497006 0.12542385 -0.06178449 0.077382244 0.41357353 -0.4632772 -0.1379613 0.012980803 0.27259648 0.124235444 -0.24293733 -0.47818556 0.46731046 -0.3003109 0.07461121 -0.43085173 -0.39840427 -0.14243902 0.62782025 -0.22245684 -0.069849856 -0.27925906 0.22386079 0.6855595 -0.38090715 -0.23973155 0.80348825 0.6919885 -0.41576162 -0.056834254 -0.10714661 -0.15924531 0.34473288 0.20548727 -0.079276726 -0.38530564 0.05578351 0.008667843 -0.47091076 -0.45285422 -0.59743345 0.6470152 -0.08916872 0.020992659 -0.081446365 -0.07407716 -0.50978863 -0.5460888 0.56709486 0.33391112 0.66728926 -0.2074092 0.20907196 0.0056595616 0.09440665 0.41677415 0.5334044 -0.00041254997 -0.47279263 -0.47246373 -0.1967062 0.8432386 -0.1250016 0.7002269 -0.46402386 0.7134445 -0.31645876 0.54440886 -0.15096813 -0.01798039 0.11521796 -0.27356827 -0.19387718 -0.49055883 -0.21179216 0.020298157 0.10374347
IgersOfNYC -0.030874118 0.8244522 -0.57294625 -0.36312726 0.5960878 -0.4172305 0.6018847 0.023719607 0.043283008 0.2926168 0.16426827 -0.059604608 0.24821156 -0.07375971 0.13010238 -0.28462678 0.16705637 -0.09206904 0.53841233 0.4731508 0.46139547 0.066738956 0.08976524 0.2595247 0.09837973 -0.057904653 0.0864508 0.49137023 -0.43575847 -0.17759892 -0.033158466 0.3431229 0.22743051 -0.23828019 -0.41053966 0.509349 -0.314003 0.15997916 -0.36648005 -0.4526801 -0.17368382 0.5976447 -0.18406686 -0.07527984 -0.3375861 0.28411248 0.776182 -0.39321256 -0.18683532 0.8245243 0.68402797 -0.39969262 -0.15889922 -0.15031739 -0.19572878 0.3407622 0.2080943 -0.121672235 -0.4595586 -0.007306464 0.03336264 -0.46549842 -0.35288695 -0.5277843 0.60799617 -0.10900184 0.10161938 -0.052969888 -0.050740294 -0.5269018 -0.4986116 0.55582166 0.2538574 0.5998749 -0.24545656 0.27888903 -0.016860306 0.0833904 0.42088485 0.5724161 0.022501014 -0.44868365 -0.45673323 -0.14742278 0.8289536 -0.06945842 0.7147185 -0.43430325 0.709069 -0.27385297 0.6567339 -0.15588313 0.003859581 0.10410204 -0.2707437 -0.18644503 -0.42954746 -0.27881312 0.0038657882 0.15326051
HipHop -0.02218534 0.8055085 -0.52878845 -0.37338835 0.59591174 -0.4453051 0.54372567 0.008154304 0.03632515 0.28064892 0.19377662 -0.08943346 0.32498008 -0.12135511 0.12374262 -0.31383586 0.12801555 -0.07397395 0.5253723 0.51065874 0.4601822 0.06717274 0.12530442 0.23287052 0.080987446 -0.046077874 0.06418899 0.5024575 -0.40883672 -0.19389886 -0.048569635 0.38664094 0.28767905 -0.19333358 -0.3596807 0.5137295 -0.2969729 0.19568579 -0.28471965 -0.47482944 -0.13925625 0.583258 -0.15657386 -0.07538945 -0.3202261 0.27544305 0.79683316 -0.38179293 -0.16095553 0.79592144 0.6905118 -0.3700248 -0.19610281 -0.18781474 -0.2163013 0.34633824 0.23744023 -0.10767164 -0.48883164 -0.05035577 0.039855845 -0.47303236 -0.30804282 -0.4588918 0.5927905 -0.114069805 0.14645785 -0.02942988 -0.0367088 -0.514787 -0.49898922 0.540876 0.1775264 0.55557364 -0.23608842 0.3415368 -0.038139753 0.09051481 0.4105005 0.5552348 0.024307972 -0.3983269 -0.46303263 -0.12656768 0.7726465 -0.06253202 0.676171 -0.41587678 0.69986755 -0.2718142 0.67883176 -0.19277096 0.010809659 0.048821103 -0.23343705 -0.11038545 -0.43244192 -0.32350704 -0.0075836927 0.15951726
BronxNY 0.00018959223 0.7995971 -0.5216583 -0.32549447 0.4834595 -0.5106384 0.4732685 0.043158334 0.053956013 0.2890461 0.20634831 -0.13443561 0.38514724 -0.13540946 0.08110213 -0.29316935 0.08920753 -0.09497986 0.46206063 0.5906657 0.43894774 0.052560404 0.12615383 0.1812481 0.004409052 -0.045068916 0.041877296 0.5565987 -0.32867154 -0.22964692 -0.09459678 0.437827 0.3614644 -0.13376264 -0.2695891 0.48600593 -0.25194559 0.29287547 -0.20332468 -0.49556312 -0.15642485 0.48850143 -0.116847135 -0.09166538 -0.3482474 0.2944297 0.83870465 -0.33879188 -0.11263418 0.78390086 0.6404732 -0.33237153 -0.26866996 -0.22109011 -0.2250655 0.31719923 0.24504198 -0.10333419 -0.5121259 -0.12978144 0.08631509 -0.43884552 -0.19105908 -0.40370062 0.5463101 -0.16729067 0.20943148 0.012876532 0.002654854 -0.5126259 -0.44189554 0.47693506 0.101367526 0.45288816 -0.2212094 0.37897784 -0.058900405 0.08473514 0.4026 0.52656597 0.03548626 -0.34573376 -0.41018325 -0.054091617 0.69530255 -0.05823889 0.61643803 -0.3560169 0.71390885 -0.24577504 0.7453932 -0.21349692 0.04187252 0.03808929 -0.19459857 -0.06818067 -0.37253407 -0.41787434 0.004679355 0.16368923
TheBronx -0.012350368 0.77139056 -0.46097812 -0.31921273 0.4856597 -0.5091782 0.41745037 0.061933536 0.04983965 0.25344217 0.22307715 -0.17582385 0.4313552 -0.16610652 0.07524737 -0.3242576 0.07152717 -0.08183909 0.43841043 0.58582413 0.41830826 0.04470295 0.14966927 0.15341312 0.012466869 -0.06303683 0.018313438 0.54355603 -0.31585985 -0.22610664 -0.090103984 0.45297474 0.38278732 -0.083572455 -0.22387883 0.49389163 -0.2369553 0.3093425 -0.14380594 -0.5041676 -0.14351317 0.46501586 -0.094998464 -0.0677468 -0.32475516 0.27901435 0.8404139 -0.32899952 -0.07050449 0.723303 0.6218853 -0.30137163 -0.29392585 -0.23975268 -0.22659566 0.32778075 0.260137 -0.078246415 -0.5228079 -0.16360566 0.07410498 -0.4476306 -0.16088656 -0.33453435 0.5326327 -0.17067279 0.23425649 0.024860587 0.020349612 -0.5024422 -0.41663623 0.45577914 0.037840318 0.4040181 -0.18458657 0.39144096 -0.083877474 0.09429694 0.36056426 0.49279016 0.04895179 -0.290298 -0.40112078 -0.05196242 0.6173819 -0.043249123 0.5528401 -0.3164199 0.6747144 -0.22615997 0.7475872 -0.21876442 0.046288732 -0.0059292275 -0.15740423 -0.003769955 -0.3575843 -0.42389926 -0.00096440036 0.15284888
ManhattanNYC 0.02991231 0.76495767 -0.65176517 -0.2741313 0.34856427 -0.5568214 0.4346879 0.08056436 0.060751207 0.3843201 0.20261417 -0.072294034 0.34986752 -0.16614515 0.053029962 -0.21187165 0.070669174 -0.15701035 0.3874528 0.7473209 0.40462255 0.07136678 0.12512475 0.18991598 -0.06220779 -0.04570096 0.00090386515 0.625539 -0.24100588 -0.27430362 -0.1300369 0.4510143 0.455206 -0.075959556 -0.19512512 0.42524594 -0.13724445 0.4247856 -0.15788323 -0.51741594 -0.19548114 0.368783 -0.118766636 -0.12693444 -0.44517785 0.37312093 0.9079787 -0.30374795 -0.105107725 0.8707806 0.57880116 -0.3837677 -0.3127768 -0.31540424 -0.26175702 0.23134917 0.2908266 -0.1060236 -0.5996845 -0.18506035 0.21319707 -0.3988096 -0.07796141 -0.39574277 0.47926942 -0.20055376 0.27926114 0.022133244 0.006891356 -0.5210113 -0.4179502 0.35604686 0.09261381 0.33831295 -0.23985493 0.39661208 -0.06902181 0.07346574 0.42738116 0.5533155 0.024191204 -0.3143162 -0.36739305 0.0040965155 0.7232253 -0.043606855 0.6270656 -0.30349013 0.72754705 -0.22789025 0.8244411 -0.25868836 0.0826302 0.07916174 -0.1884891 -0.088251345 -0.2924802 -0.5643118 -0.01892126 0.1347653
Mana 0.03962635 0.756465 -0.60681385 -0.26303485 0.32399583 -0.5780806 0.39714053 0.08512773 0.049705006 0.37860453 0.20431404 -0.12309281 0.34124404 -0.11115798 0.06624261 -0.15862639 0.07855713 -0.1738933 0.36348483 0.7218697 0.3704388 0.047938168 0.13666283 0.14242534 -0.104398206 -0.046214513 -0.0036167454 0.59766394 -0.19714035 -0.28597155 -0.14512934 0.45419303 0.42399222 -0.04221538 -0.17395638 0.39585602 -0.12157849 0.41571522 -0.14426893 -0.50270796 -0.19285764 0.31693465 -0.12828743 -0.14138676 -0.41948205 0.33857268 0.88222855 -0.28814465 -0.08360549 0.8419133 0.55239385 -0.33134213 -0.3271106 -0.29985636 -0.23460695 0.2305422 0.28772643 -0.08190723 -0.55395263 -0.18389714 0.22659801 -0.39178005 -0.040190287 -0.3750631 0.49868393 -0.22175804 0.24463844 0.031335674 0.04163772 -0.524318 -0.3846021 0.30517676 0.071479104 0.30784452 -0.20002894 0.3805247 -0.066730864 0.055978455 0.4139311 0.49464396 0.014769924 -0.30819473 -0.32613236 0.033685867 0.6697078 -0.051151443 0.57248485 -0.28102347 0.73790324 -0.22038092 0.78898066 -0.24979796 0.08340956 0.073800206 -0.15634406 -0.06529016 -0.29187632 -0.55483884 0.000517588 0.13198996
ArtWepa 0.04491436 0.68830794 -0.6051662 -0.2142064 0.26853368 -0.5407881 0.36160985 0.087143786 0.043248985 0.36888674 0.19708033 -0.121754386 0.33482763 -0.11403143 0.031252436 -0.14284302 0.056783624 -0.1731481 0.31750664 0.7224046 0.36671716 0.029250985 0.113229305 0.114873625 -0.12063771 -0.039015632 0.0135038365 0.59149486 -0.14989081 -0.26864073 -0.1353166 0.4564516 0.42011216 0.002770761 -0.1418744 0.3393398 -0.108938225 0.42707947 -0.109631486 -0.4873825 -0.1789747 0.28236595 -0.10960516 -0.122140326 -0.422052 0.34894088 0.8259553 -0.25510007 -0.07358714 0.7924893 0.48594156 -0.28307837 -0.32720202 -0.28244376 -0.240636 0.19367188 0.24303962 -0.077735655 -0.51341325 -0.2026636 0.22744845 -0.3675139 0.0051653767 -0.33065474 0.46443686 -0.22794405 0.27877545 0.038981445 0.037942156 -0.48883662 -0.3431971 0.2515396 0.04624979 0.24134365 -0.18382926 0.3634374 -0.06316136 0.06492053 0.40331107 0.47631705 0.03833962 -0.28602195 -0.2886447 0.040569536 0.63482374 -0.043371905 0.534691 -0.23768213 0.72248477 -0.19249135 0.77288175 -0.25670624 0.09010473 0.06491416 -0.124589294 -0.03651572 -0.2427492 -0.5620566 -0.016467461 0.12735248
Wepa 0.06780423 0.6496432 -0.633279 -0.19552886 0.23329991 -0.5478088 0.32589558 0.06124328 0.034304574 0.39591673 0.20431414 -0.085715234 0.31653598 -0.11016797 0.03553218 -0.06442664 0.051461432 -0.19815274 0.29312375 0.743383 0.32384798 0.036681555 0.11140688 0.10806688 -0.15683578 -0.026153442 -0.0010870041 0.5800427 -0.08493229 -0.26361322 -0.1673025 0.44448698 0.40739685 0.019386008 -0.12295743 0.29361397 -0.0689956 0.44437695 -0.10577094 -0.464365 -0.1671871 0.24744119 -0.10845662 -0.15291247 -0.4271106 0.35139883 0.8014886 -0.21096554 -0.06699435 0.80168706 0.45978543 -0.27176636 -0.3315566 -0.32049075 -0.24446607 0.1569119 0.26073986 -0.082212836 -0.5111971 -0.20836107 0.27546033 -0.3371835 0.04090687 -0.3156723 0.4535176 -0.24094489 0.26963332 0.05237584 0.042693496 -0.47795597 -0.3263357 0.19306977 0.052474406 0.19921738 -0.17568834 0.36744455 -0.03576757 0.06916731 0.4070542 0.46026507 0.01631343 -0.27513954 -0.27007985 0.08389502 0.61981034 -0.0550754 0.51750636 -0.20515247 0.7135812 -0.19224592 0.75679404 -0.2724962 0.08993265 0.07723893 -0.1009 -0.034633137 -0.23040193 -0.6088971 -0.037154563 0.11507323
lexi -0.0003587075 0.19906771 -0.1831757 -0.15602891 0.18671258 -0.19441508 0.12687857 -0.016624726 0.0022929977 0.15403633 0.038793813 -0.101990074 0.017257938 0.14447984 0.14265116 0.1270926 0.059679177 -0.1136787 0.15275994 0.08328516 -0.0087541295 0.020563016 0.08101244 -0.001336029 -0.12031029 -0.0027246934 0.0018769804 0.04732184 0.0034251737 -0.04129718 -0.04069321 0.004512807 -0.091418736 -0.036610734 -0.07054011 0.052377824 -0.019276332 0.030633288 -0.09752961 -0.12979482 -0.06479855 0.062403478 -0.13137299 -0.14155059 -0.100772925 0.0036433577 0.16139598 -0.006817263 -0.01547604 0.27052101 0.12794267 -0.03379114 -0.018887518 -0.04960891 -0.04848441 0.10055938 0.1356311 -0.03066378 -0.031701606 0.011189357 0.099851675 -0.049558513 -0.047383074 -0.14864147 0.31912658 -0.09457178 -0.11605351 0.019270973 0.074320555 -0.1456603 -0.031133126 0.022281505 0.05340726 0.16365151 -0.012539478 0.058905587 0.054425344 0.023648798 0.07445216 -0.023528343 -0.08314464 -0.11236506 0.04183405 0.040540725 0.14852224 -0.047095854 0.057031035 -0.08130553 0.15937859 -0.06837649 0.0454342 -0.0039346796 -0.043560695 -0.0063704024 -0.04797189 -0.040398087 -0.13127102 -0.17388313 0.024968177 -0.032136254
peifferfamily 0.01344315 0.21396436 -0.16928308 -0.1482786 0.16842188 -0.1931166 0.11453577 0.0004892485 -0.0066467538 0.14378893 0.0608619 -0.110904716 0.04787371 0.1136719 0.12861769 0.08756454 0.045504324 -0.10297145 0.16853805 0.08556917 0.009965415 0.020766871 0.0543362 0.009653908 -0.09792396 -0.0053887703 0.002912204 0.07774134 -0.029066399 -0.06095719 -0.03355556 0.033863302 -0.046343252 -0.037192233 -0.06665549 0.079403214 -0.027117772 0.047658004 -0.101376876 -0.1567203 -0.08167275 0.06960363 -0.11987742 -0.11129798 -0.10482762 0.017766496 0.18564487 -0.023632627 -0.010966756 0.26833698 0.15522133 -0.04210935 -0.03199552 -0.071408756 -0.059523743 0.10986553 0.12958507 -0.03264536 -0.044823542 -0.009233798 0.07441507 -0.073336355 -0.057035327 -0.15172808 0.29014185 -0.083905116 -0.08096119 0.012480243 0.073588885 -0.15142523 -0.038672335 0.07321316 0.035967402 0.17519805 -0.02390052 0.06875631 0.028843753 0.04282105 0.07111021 0.0107427975 -0.06614354 -0.11428447 -0.0037369963 0.0566077 0.15977348 -0.04961818 0.07841364 -0.09475849 0.17661539 -0.05461941 0.08408334 -0.029252024 -0.038458772 0.0025658116 -0.055074632 -0.027560646 -0.1248486 -0.16015089 0.013927723 -0.022730464
makeawish 0.035362195 0.22107595 -0.1844338 -0.17620006 0.17332838 -0.18421705 0.11565296 -0.05064777 -0.0017854123 0.1876563 0.066245645 -0.12728247 0.025415473 0.131229 0.16531357 0.18817005 0.011278495 -0.10849629 0.15718713 0.089647405 -0.0172405 0.010690485 0.0987737 -0.026170757 -0.14479989 0.03543436 -0.0032483118 0.03961308 0.028665576 -0.059459064 -0.0587886 0.030940086 -0.07834268 -0.073681645 -0.030825565 0.04608935 -0.004805625 0.04257169 -0.07319122 -0.15006055 -0.055031624 0.059525132 -0.11985583 -0.15874758 -0.11015576 0.022457674 0.21764101 0.015467642 -0.0184633 0.29248983 0.13559848 -0.013723017 -0.034391247 -0.06572502 -0.066729344 0.08153712 0.15585683 -0.031898778 -0.022131557 -0.030863905 0.14140569 -0.03916145 -0.05132576 -0.18883659 0.3369047 -0.10134169 -0.10283216 0.0016211892 0.10748499 -0.15018483 -0.009188231 0.0053723836 0.020001443 0.15474643 -0.017929422 0.09271314 0.06615552 0.049463067 0.08362598 -0.05806881 -0.07924577 -0.11444323 0.015431344 0.08519225 0.11233586 -0.06496864 0.031011946 -0.082211226 0.1569698 -0.08661181 0.06194812 -0.004159876 -0.054400157 0.0012222311 -0.066544235 -0.0056616594 -0.15526685 -0.19058885 0.0001098662 -0.03373161
gooddadgang -0.004156336 0.22606733 -0.11357591 -0.25784016 0.64707595 -0.23522754 0.036535505 -0.029264636 -0.09823959 -0.030787336 0.24308385 -0.16373615 0.13652588 0.18938334 0.28981698 -0.09183006 0.12959707 -0.011577679 0.31835854 0.019033102 0.07150207 -0.092496656 0.20163628 -0.07143078 0.16025198 -0.07216536 -0.09986022 -0.08279859 -0.12977454 0.07282272 0.12369975 0.11660083 -0.12226815 0.24498674 -0.124042094 -0.041259736 -0.14636701 -0.013295518 -0.20600955 -0.15491347 0.06997391 0.28028753 -0.23273902 0.047205262 -0.020631779 -0.21171817 0.033649314 -0.042851087 -0.083455905 0.2371683 0.2935479 0.09644917 0.08572573 -0.14385055 -0.030898862 0.38227862 0.13753471 0.06456585 -0.07824437 -0.018906238 -0.1898239 -0.2554852 -0.24412265 -0.054002598 0.49227172 -0.051898547 -0.095636725 0.007915968 -0.023376277 -0.18242149 -0.21676745 0.13836274 0.0063675856 0.38428378 0.056795843 -0.014873736 -0.06622254 0.32706678 0.098217696 0.17777546 -0.01697765 -0.16886656 -0.022158727 -0.030264229 0.22005017 -0.18729787 0.05495981 -0.17051543 0.2984581 -0.03332291 0.1604597 -0.09114549 -0.020049317 -0.15012746 -0.013727074 0.15571903 -0.38410723 -0.12926199 -0.049078543 -0.13463229
witchodumbass -0.0042481185 -0.0016690535 -0.003945977 0.002609361 0.0012158547 0.002048452 -0.0040986184 0.00022963108 -0.0017095155 0.0044095274 -0.0025327574 -0.004647495 -0.00370081 0.0011860905 0.0014950903 0.00077842874 -0.0012919139 0.00025252067 0.004230134 -0.00025513535 -0.0047482536 -0.004803683 -0.0012398015 0.004470029 -0.0015426266 -0.00051458227 0.00086364336 0.00058122166 -0.0031404225 -0.0011634016 -0.0009264238 0.004615183 -0.0005401573 -0.0020949012 -0.002298026 0.0007745349 -0.0025423984 0.002172525 -0.0013774764 0.001493725 -0.0040784217 0.0005977247 0.0027990518 0.0026819897 -0.00421327 0.0048080524 0.0013613496 0.002700441 -0.0029597688 0.001307488 -0.0048286105 0.0014721802 -0.0035830718 0.0043719206 -0.004857756 -0.004891207 0.0035136621 0.003428963 0.0011491622 -0.004396912 -0.0038705557 -0.0027043181 -0.0043887356 -0.004076949 -0.0043277917 -0.0029044885 -0.0009946208 -0.00339091 0.0015972094 0.0046388805 -0.0046244217 -0.0013588548 -0.0026326638 -0.0035143315 -0.0039515328 -0.0035183239 -0.0019626874 -0.000953828 -0.0036144226 -0.003542661 0.0020027487 0.0011136099 -0.0029911755 -0.003294766 -0.00055260677 0.0043352284 0.0046281023 -0.00048819464 -0.003536169 -0.0047340547 -0.0012968569 -0.003755649 0.0012802277 0.0018979739 0.0035227705 0.0013991646 0.00063396525 0.004740786 0.0049461573 -0.002682994
sevenbucks 0.049095623 0.23170514 -0.19383952 -0.1039319 0.12454243 -0.24968114 0.10197045 -0.0013246611 0.026651973 0.18840335 0.08774847 -0.04533377 0.03268199 0.14881313 0.17012772 0.105849475 0.078315794 -0.13548882 0.15890837 0.034942087 -0.0071889814 0.0130747985 0.0589999 -0.030246165 -0.15693799 -0.024632735 -0.062970065 0.05303438 0.029028831 -0.09186762 -0.08296609 0.057149407 -0.1203069 0.027613493 -0.05850717 0.02714736 0.0065948516 0.086399674 -0.12095296 -0.17051055 -0.097568735 -0.07708614 -0.13265106 -0.16735789 -0.1847482 -0.020396622 0.11838654 -0.012802207 0.041366633 0.256949 0.13867609 -0.015431829 -0.091269396 -0.09261009 -0.030772945 0.07743371 0.07446222 -0.052183107 -0.04324549 0.022223776 0.112270966 -0.01813108 0.053283866 -0.08411888 0.2823372 -0.13887203 -0.10546618 0.015147771 0.05479681 -0.13541912 0.049887855 0.019597828 0.116055034 0.15456973 -0.015005372 0.069436185 -0.01941996 0.038509067 0.045778923 0.02392197 -0.050347637 -0.15451074 0.09452364 0.09305755 0.16954927 -0.10694188 0.03229629 -0.0907701 0.19975348 -0.101824515 0.10892083 -0.0039124493 -0.044087704 -0.01661104 -0.043411843 -0.117468774 -0.09798335 -0.26300454 0.003947979 -0.007815323
flashbackfriday 0.008829838 0.20121282 -0.19695705 -0.13370843 0.14964864 -0.20828077 0.10809446 -0.028987536 0.003314234 0.11560487 0.03429422 -0.06495841 -0.008473333 0.14930171 0.11184311 0.09498316 0.09458666 -0.1445724 0.14268999 0.051714737 -0.04460904 0.050315138 0.04107558 0.011129433 -0.12550475 -0.03534925 0.023966383 0.10474053 -0.0007019314 -0.035320356 -0.058214664 -0.01757421 -0.09115257 -0.023912864 -0.07387992 0.08000384 -0.0038127548 0.008782638 -0.13393337 -0.1422979 -0.09281167 0.06782602 -0.13694538 -0.1416196 -0.12375786 -0.010436187 0.14084427 -0.042862225 -0.028713215 0.26314068 0.15988928 -0.07123907 -0.014753403 -0.070481196 -0.060472723 0.10035775 0.14219074 -0.02412063 -0.034181453 0.053244174 0.0927587 -0.06572548 -0.026524985 -0.11485629 0.29816332 -0.08860421 -0.1241576 0.028006777 0.045463953 -0.13235699 -0.07979107 0.043923277 0.08272221 0.17237392 -0.0044003166 0.036084507 0.0713603 0.025848066 0.08770707 0.0039232573 -0.10552981 -0.11579288 0.05320225 0.054918114 0.17435725 -0.03706729 0.063821025 -0.09238434 0.18252544 -0.03482617 0.024668815 -0.01594066 -0.043628365 0.02153764 -0.052586015 -0.04423659 -0.085818075 -0.18297987 0.05771652 -0.031268816
PornstacheJohnson 0.018381968 0.20155755 -0.17561464 -0.13765219 0.1611125 -0.22559343 0.07930337 -0.0040108575 -0.009246535 0.1181773 0.03954278 -0.047502648 0.004681651 0.15244378 0.11479771 0.10137165 0.07053411 -0.14519703 0.1245783 0.07309118 -0.03405355 0.03450184 0.050634723 0.031324897 -0.11528543 -0.04803328 0.005457151 0.08913508 -0.019065978 -0.044652466 -0.06076885 0.011977493 -0.07380678 -0.013267077 -0.06882644 0.061594862 0.00018904512 0.045627743 -0.12947255 -0.1461023 -0.09667118 0.0628253 -0.12542179 -0.14274548 -0.13367383 0.015270264 0.15866713 -0.024995675 -0.035684142 0.27283978 0.1732046 -0.07348105 -0.044638947 -0.079978466 -0.055639334 0.10849704 0.13981822 -0.018545318 -0.0526477 0.015983323 0.08693974 -0.0907467 -0.00564859 -0.10390801 0.2888245 -0.08281837 -0.11759243 0.025082944 0.050068155 -0.1442243 -0.05682157 0.02869042 0.07760914 0.17389493 -0.0039518853 0.038825706 0.058711413 0.024053914 0.0841008 0.019719822 -0.082821175 -0.12923805 0.025961824 0.038502917 0.15958431 -0.05692106 0.05229057 -0.06323236 0.18453693 -0.0376742 0.04593134 -0.024633268 -0.022559699 0.004935348 -0.053057246 -0.03893218 -0.10507483 -0.19374 0.035803128 -0.047972184
YoureUnderArrest 0.04030152 0.24857897 -0.19877651 -0.15238586 0.1145622 -0.2538787 0.07106254 -0.030349469 -0.0013060399 0.12312695 0.03391474 -0.053314824 0.012049948 0.13894041 0.12060831 0.13003698 0.06551623 -0.16454422 0.108179085 0.075127155 -0.09105 0.041051228 0.06201661 0.015290421 -0.15369348 -0.05242166 0.0110417055 0.14789447 0.007378983 -0.063637465 -0.09484788 0.0022577113 -0.050174017 -0.04438101 -0.030617058 0.109696686 0.014329616 0.05345677 -0.10197939 -0.16565458 -0.12013215 0.047013365 -0.11026502 -0.191433 -0.16492386 0.003945476 0.21241316 -0.04781986 -0.02995365 0.30336335 0.19237813 -0.09151751 -0.08974924 -0.07639682 -0.062423754 0.09490223 0.16886845 -0.019233463 -0.080572754 0.024853362 0.15214956 -0.06992884 0.029044928 -0.101001106 0.29456612 -0.099995986 -0.12683904 0.032792468 0.09186861 -0.14442846 -0.07985049 0.01508998 0.0654619 0.14578895 0.0040950463 0.07087123 0.08814277 0.020283494 0.0956534 -0.00405556 -0.075991526 -0.14057156 0.050185412 0.07944104 0.13535151 -0.040714536 0.026702894 -0.044176213 0.17284197 -0.033029955 0.04867838 -0.0045185927 -0.04169675 0.014791536 -0.07366587 -0.013641896 -0.07660048 -0.22409068 0.06781159 -0.028306592
nationalbossday 0.049705148 0.17803565 -0.19358379 -0.123003304 0.1113677 -0.18259619 0.11033141 0.010492204 -0.012152122 0.17657612 0.044630714 -0.034528904 0.006426373 0.13887392 0.13953988 0.14713557 0.04867396 -0.13546047 0.17966698 0.030064244 -0.02291312 0.011474949 0.00958906 0.012117335 -0.16604789 -0.0011895559 -0.012090009 0.025893308 0.016367372 -0.06346718 -0.098432146 0.052943476 -0.12229265 0.039191503 -0.040938888 -0.03334281 0.020030491 0.045304235 -0.11744365 -0.11449292 -0.10697744 -0.03816309 -0.15117072 -0.15247706 -0.1407343 -0.0105020795 0.09710932 0.001902517 -0.016790986 0.23633483 0.13853572 -0.054705795 -0.0661627 -0.12004261 -0.0034327998 0.10298033 0.07312537 -0.06035785 -0.049220733 0.032140967 0.08280588 -0.033209305 0.021189807 -0.13097674 0.2640828 -0.11569286 -0.123209596 0.02316086 0.025852423 -0.12072374 0.02324744 0.03410813 0.10974677 0.13671957 0.021478292 0.004179754 0.008740799 0.03245395 0.044859894 0.015023246 -0.07884415 -0.14080974 0.08231189 0.055296768 0.16788037 -0.069977686 0.037422925 -0.08178255 0.20227067 -0.10110281 0.06706502 0.003519607 -0.014169937 -0.011755104 -0.048694644 -0.105664976 -0.097105294 -0.20938268 0.0042075096 0.00064308697
likeavoss 0.08470491 0.21531604 -0.21954645 -0.10465101 0.1279273 -0.20553705 0.11010462 0.006309542 -0.01817697 0.20152009 0.06831701 -0.009545856 0.011676003 0.14455126 0.19608106 0.14516968 0.04585932 -0.13816261 0.1929089 0.0077011595 -0.0072434107 -0.0058929073 0.029229293 -0.013770954 -0.1909532 0.0074161473 -0.037821 0.014628755 0.037946723 -0.089195654 -0.10820243 0.076646015 -0.16679174 0.055664778 -0.050368328 -0.05306078 0.024369238 0.060180757 -0.13557307 -0.14281352 -0.07953908 -0.08392559 -0.1553459 -0.17832564 -0.1861183 -0.013253737 0.084144704 0.009109031 -0.032944128 0.2534968 0.1488762 -0.03922922 -0.09706338 -0.14336133 -0.009502255 0.120498374 0.04868551 -0.08057256 -0.051587198 0.03308704 0.11165635 -0.022824664 0.02479301 -0.12988588 0.26178673 -0.12070978 -0.14566375 0.023865234 0.016240753 -0.12782115 0.05550092 0.03455789 0.16421093 0.1439271 0.025486741 0.01393124 -0.028568527 0.061501984 0.05872113 0.042654023 -0.057067964 -0.17227584 0.10154819 0.07738596 0.18599288 -0.1178839 0.016857063 -0.09273435 0.23201427 -0.1359666 0.091682084 0.0024559428 -0.028197255 -0.016466973 -0.044977896 -0.13721304 -0.115142666 -0.24360727 0.0002707591 -0.0064817625
MotivationMonday -0.004924863 0.18207513 -0.17877083 -0.085349366 0.14992338 -0.2305907 0.112653665 0.047111154 0.0022886447 0.12216949 0.009476781 -0.06517186 0.0050963373 0.14797981 0.07944094 0.049705815 0.08723222 -0.09329198 0.15839435 0.10111501 0.020162897 0.042014137 0.03848733 0.033579312 -0.07975488 -0.04533195 0.0079167485 0.08430706 -0.039397422 -0.050571606 -0.04217552 0.021630848 -0.006185203 0.029913068 -0.06558818 0.09111076 -0.043470282 0.044557657 -0.11149998 -0.13578247 -0.09574745 0.04677311 -0.1430969 -0.08341094 -0.10443844 0.022529311 0.16116197 -0.038906194 0.021230746 0.24776702 0.14380983 -0.060261317 -0.020916522 -0.05556161 -0.053683035 0.09967391 0.11953013 -0.04890881 -0.06277801 -0.013874023 0.049627755 -0.06672809 -0.0019399098 -0.08969813 0.28554645 -0.07699625 -0.071505 0.04857161 0.048135266 -0.16772546 -0.02899425 0.035661697 0.054649133 0.1770908 -0.056617245 0.041868385 0.016091276 -0.0015918753 0.08672498 0.044986814 -0.06081311 -0.0938133 0.03809585 0.03374298 0.21238524 -0.019863527 0.094259456 -0.092062846 0.20765999 -0.030802505 0.099839665 -0.050301757 -0.019274326 -0.011454359 -0.058637995 -0.060934745 -0.105944335 -0.1898026 0.026176415 -0.036792804
motivationmonday -0.004495951 0.20868303 -0.15268002 -0.15543483 0.2167438 -0.21968995 0.08680227 -0.008145157 0.0039337114 0.11377984 0.061273023 -0.122711316 0.014290539 0.14992869 0.15011902 0.08283324 0.093986295 -0.076523565 0.19084021 0.077639535 -0.032429002 0.026650185 0.09413974 -0.011067316 -0.06462496 -0.034124862 -0.05502306 0.07967495 -0.013259777 -0.049534097 -0.012916905 0.024976341 -0.013370825 -0.0036197985 -0.04588711 0.07927 -0.064489186 0.058012858 -0.098331325 -0.17241634 -0.07204649 0.042079363 -0.15118949 -0.09674416 -0.08586642 -0.0559765 0.17557485 -0.017744845 0.023163417 0.26626265 0.16005212 -0.016495643 -0.036010224 -0.081554554 -0.011271496 0.11702798 0.16805217 -0.0054871677 -0.06116138 -0.006072751 0.05036118 -0.06078702 0.004022374 -0.101567194 0.32923087 -0.09928103 -0.0634007 0.03795077 0.10090918 -0.15815869 -0.037228853 0.023211006 0.03442511 0.19061656 -0.020635068 0.056508638 0.018138671 0.030953862 0.05661572 0.030320404 -0.04716607 -0.111078456 0.046724204 0.048927113 0.15451881 -0.04010266 0.027288906 -0.061875243 0.1747511 -0.033094086 0.08765495 -0.02627193 -0.03865969 -0.056598134 -0.04614327 0.0025170853 -0.12329165 -0.16688104 0.007089357 -0.023501333
allyougot 0.010760559 0.21275666 -0.17386718 -0.10822039 0.1918914 -0.23815833 0.08625279 0.034113444 0.010554035 0.12791781 0.027732154 -0.10997798 -0.0046030553 0.14977726 0.1335554 0.1161422 0.082320355 -0.06719537 0.18252832 0.10497809 -0.034881856 0.039813746 0.08115608 0.0010107826 -0.0750992 -0.019869514 -0.03840911 0.08172226 0.005503784 -0.0616007 -0.037416536 0.031808592 0.04748342 0.025570728 -0.0069823144 0.08194817 -0.06901149 0.06303387 -0.08930321 -0.16324425 -0.08416699 0.036174048 -0.16349164 -0.08267896 -0.084031105 -0.043575082 0.21737818 -0.0048422045 0.038568318 0.27705663 0.17190838 -0.019142242 -0.026571047 -0.082406126 -0.02439752 0.09310006 0.17807993 -0.011200565 -0.090271674 -0.059718046 0.08760551 -0.05244659 0.044898216 -0.09518307 0.32688957 -0.10678357 -0.05187918 0.070069306 0.09781293 -0.18017215 -0.0067183296 -0.021309927 0.04487045 0.17943004 -0.05747524 0.057763375 0.0052593 0.029052438 0.090272516 0.048290122 -0.027456952 -0.09443489 0.051904097 0.08066729 0.17420329 -0.047315404 0.029728662 -0.059885744 0.21791047 -0.046748642 0.12013364 -0.057471886 -0.03804462 -0.053226963 -0.062266737 0.0060012937 -0.1361052 -0.20042545 -0.0153798815 -0.04871723
JUNGLECRUISE 0.0006360646 0.19444466 -0.13125439 -0.14620692 0.09704707 -0.19015275 0.09821173 0.019121291 0.038250983 0.092278905 0.031280108 -0.104192995 0.05095966 0.08093904 0.083757676 0.10657658 0.046552 -0.088296704 0.12057717 0.07917663 -0.021114126 0.002238033 0.031788394 -0.006968364 -0.09775836 -0.010699868 -0.014230787 0.07915576 -0.01404461 -0.07412003 -0.03901624 0.035933204 -0.0053291647 -0.020373723 -0.020923875 0.08007599 -0.017601214 0.061639335 -0.06531548 -0.14043595 -0.092611745 0.003266725 -0.101679884 -0.12576078 -0.11470314 -0.017025359 0.1779911 -0.016599799 0.032314856 0.22916311 0.1186706 -0.03696607 -0.08072028 -0.03945308 -0.029336814 0.060487952 0.12611584 -0.026372122 -0.062441383 0.0022443675 0.09664933 -0.023532338 0.024149599 -0.094644636 0.2298003 -0.10270093 -0.08304558 0.008907477 0.07929966 -0.1286107 -0.030852858 0.026541471 0.022528477 0.110261455 -0.00037947966 0.080238946 0.040658887 -0.028571272 0.052964896 -0.009937386 -0.06191052 -0.08898545 0.055914093 0.053255267 0.10294481 -0.008533093 0.041601073 -0.042042714 0.14403047 -0.0432851 0.0876131 0.00894962 -0.008816739 -0.018152371 -0.045961767 -0.04924466 -0.050902553 -0.15757246 0.034648173 0.005624798
smackdown 0.020424912 0.37701163 -0.3525171 -0.1767009 0.0138032185 -0.4439919 0.14793538 0.20933026 0.122481205 0.2584494 -0.065850146 -0.24020463 0.0834817 0.18371622 0.1707749 0.5406899 0.09001144 -0.26893395 0.021856615 0.29784504 -0.10739912 0.11451911 -0.1583205 -0.06876574 -0.35945013 0.0872827 0.40247536 0.13121775 0.100973256 -0.18169126 -0.24926832 -0.045536518 0.123490125 -0.08530167 0.049105965 0.010617465 0.075191066 0.0012143236 -0.35315862 -0.010930453 -0.30744153 0.027608339 -0.36156252 -0.22232404 -0.103823185 -0.0020693045 0.5441814 -0.0128828185 -0.051171947 0.6276948 0.38431242 -0.052943733 0.038340874 -0.26925606 -0.1081698 0.1864846 0.3459386 0.25040403 -0.22447407 -0.18654731 0.56078714 -0.20615444 0.033162035 -0.103180945 0.21750347 -0.40525845 -0.44158402 0.08742713 -0.047446307 -0.39039698 -0.055000316 -0.022238757 0.1952301 0.11009085 -0.10953593 0.13332315 0.16264217 -0.16491893 0.26300043 -0.05543108 -0.33310735 -0.038247284 0.054785803 0.34868503 -6.43404e-05 -0.10082478 -0.052958604 -0.06320324 0.39633942 -0.17908102 0.014407707 -0.010329428 -0.09766709 0.070068546 0.048513904 -0.24227405 -0.13323359 -0.39839837 0.04586254 -0.17921856
sinceday1 0.0141221285 0.24356066 -0.26481116 -0.1015684 0.050129425 -0.27815533 0.13642873 0.05479148 0.08010181 0.2091903 -0.046320632 -0.13381657 0.0027200526 0.15692466 0.12804818 0.35651457 0.06227443 -0.19415414 0.08920197 0.19853339 -0.07801237 0.08825045 -0.092026874 -0.022221 -0.2580822 0.05021452 0.21952273 0.07429719 0.08097019 -0.071213454 -0.1573378 -0.05294086 0.016883405 -0.053843033 -0.030307867 0.019278994 0.066140525 0.013808401 -0.2153945 -0.06123491 -0.17863111 -0.003186417 -0.25399783 -0.15928803 -0.1127761 0.009858522 0.28911453 0.007994584 -0.034899384 0.41231143 0.24401756 -0.07735706 0.0121889 -0.17051362 -0.07854527 0.08006351 0.20736814 0.10349553 -0.105737515 -0.07692723 0.33842316 -0.10460752 0.044047385 -0.10638135 0.21600361 -0.23253472 -0.26095206 0.047467913 -0.0045896717 -0.24693637 -0.03043862 -0.028904824 0.13581367 0.12243828 -0.053356186 0.07484176 0.12593642 -0.09531555 0.16585922 -0.02355298 -0.21619424 -0.058168646 0.043475505 0.19891308 0.092715174 -0.090622514 0.008153972 -0.067884326 0.29078436 -0.104326986 0.01855423 -0.024865719 -0.033041652 0.06329345 0.01696745 -0.15041128 -0.085160606 -0.30140612 0.03521306 -0.100659624
