141 100
DCUniverse 0.1972155 0.082135 0.70937 -0.141015 0.79562 0.23625 0.071911 0.319625 0.246378 -0.10688 0.292385 -0.76146 0.108499 -0.240232 0.02913 -0.49017 0.341273 1.08086 0.5489 -0.37629 0.76917 -0.66115 -0.092565 -0.16602 0.75593 0.0015 1.04595 -0.274025 0.183325 0.1959275 0.35643 0.4179905 -0.75398 0.063355 -0.22436 0.2390495 -0.0915405 0.134735 -0.3417395 -0.28051 -0.141808 0.282705 -0.745715 -0.11842 -0.2614645 0.148935 -0.01944 0.239735 0.272385 0.31587 0.139083 0.45685 0.4529045 0.3738605 0.7133 -1.45565 0.1394885 0.00844 0.33377 0.405795 -0.0700295 0.601435 -0.70807 -0.02471 1.7326 0.083525 -0.474755 0.112189 0.19601 0.578845 0.6324915 0.165371 -0.17982 -0.04987 -0.13488 -0.260135 0.97098 -0.4097855 -0.558015 -0.061405 -0.44099 0.065815 -0.270525 0.1391115 -0.27325 0.638885 -0.71176 -0.315415 0.31577 -0.50089 0.149145 0.79487 0.36688 -0.21912 -0.3424125 -0.491485 0.233045 -0.41594 0.37502 -0.53309
JumanjiTheNextLevel 0.14771421 0.00579697 0.6663505 0.037240785 -0.22398692 -0.19926517 0.21010819 0.40680456 -0.42108944 -0.08155194 0.102695815 -0.08244449 -0.07883397 -0.03622982 0.17431697 0.07101328 0.03797396 0.35237402 -0.31140313 -0.118632846 0.13008441 -0.09353376 0.120654374 0.072966605 0.3016455 -0.18251897 -0.10235337 -0.4937501 -0.16775495 -0.116232544 -0.16794118 0.015746197 -0.08947072 0.086995624 0.09857027 0.22476763 0.08665406 0.20241009 0.0031406912 -0.17903602 -0.1768926 -0.23252757 0.020256598 0.02072335 0.28628474 0.32485035 0.12872799 -0.34416577 -0.31865406 -0.59248906 -0.06893374 -0.25785035 -0.15723059 0.6990819 -0.3553532 -2.0445807 0.2362352 -0.35820368 1.5654639 0.48785126 -0.13606615 0.5610229 -0.24618857 -0.057972796 0.5054502 -0.039133504 0.07912368 0.28385326 0.3263368 -0.12110598 0.4147708 -0.3425842 -0.047876067 -0.30646485 0.06164942 -0.002393413 -0.13958943 -0.069345415 -0.51006716 -0.0725136 0.3722473 0.27836758 -0.28887498 0.05140477 -0.900657 -0.030879622 -0.007506562 -0.07048714 0.0991969 0.1282563 0.012548192 0.39301094 -0.27019754 0.5406086 -0.19279885 0.01982632 0.117259316 0.020098459 0.41340315 0.117552035
spring2020 -0.394845 0.1803355 -0.204385 -0.1703815 -0.107935 0.136475 0.093045 -0.173185 -0.513685 0.452394 0.50987 -0.314665 0.2128985 0.230833 0.415065 -0.4613495 0.60069 -0.12299 -0.861085 -0.749415 -0.010905 -0.142835 0.1075 0.053761 0.5317815 0.34235 -0.0579742 -1.09365 -0.0498505 -0.55047 0.491735 -0.05739 -0.081607 -0.284095 0.422315 0.52273 0.461845 -0.120162 -0.285845 0.510162 0.158845 -0.181525 0.1924815 0.20283 0.33083 -0.1478255 0.0065545 0.2641065 0.10253 -0.6049 0.1089635 0.34677 0.145364 0.98877 0.03255 -1.32434 -0.01388 -0.6224 1.298935 0.33302 0.66467 0.54266 -0.334855 1.15784 0.416279 -0.348078 -0.048208 0.371435 -0.1981035 0.232015 -0.052605 -0.42715 0.385632 0.088425 0.02914 0.0083392 -0.330778 0.272135 -0.557613 0.04587 0.944255 0.170415 -0.49132 0.45575 -0.29487 0.402395 0.02393875 -0.590265 0.2283205 -0.009045 0.17268 -0.63095 -0.2959425 0.56478 0.417405 0.067606 -0.393155 -0.3443 0.52259 -0.05626
lifeisagift -0.222405 0.5995 0.146825 -0.44041 -0.013591 -0.99992 -0.57182 0.60483 -0.55519 0.069336 -0.125521 -0.12498 0.51125 0.247881 -0.46232 -0.44615 0.610375 0.01226 -0.563335 -0.361765 0.556585 -0.31559 -0.134865 0.43549 0.583815 0.10344 -0.2284725 -0.1038765 0.292645 -0.46767 0.078805 0.60519 0.079955 -0.305135 0.26196 0.239335 0.203475 0.067705 -0.230815 -0.256715 -0.327585 -0.266343 -0.084402 -0.71478 0.065075 0.0850105 -0.406236 -0.096615 0.2524855 -0.737845 -0.38397 -0.2237735 -0.127435 0.948735 -0.0439785 -2.01965 -0.607545 -0.3468335 1.5378 0.32521 -0.19135 0.58654 -0.45674 0.565006 0.78839 0.050495 0.54576 0.5797145 -0.24789 -0.87826 0.244855 -0.37035 0.234225 0.138655 0.19115 -0.32617 0.112005 0.106381 -0.4284945 0.205714 0.940225 0.004295 -0.47262 0.196987 -0.96945 -0.22295 0.3631 -0.15808 0.21978 -0.056915 -0.168295 -0.430398 -0.215775 0.233915 -0.48028 -0.33707 0.10722 -0.998935 0.790225 0.165515
jumanji 0.06958415 0.16460022 0.1886236 -0.077989094 -0.14840297 0.10522999 -0.27054933 0.34139407 -0.06950064 0.17985392 -0.053310566 -0.18575443 0.2922979 0.1167107 -0.107886285 -0.03242706 0.14127778 -0.085989304 -0.31444222 -0.13488021 0.27937308 0.3082171 0.23167203 0.00542114 0.088580705 -0.4956414 -0.15202418 -0.4240839 -0.2692288 0.01035216 -0.11240275 0.14078896 0.44708586 0.27493206 -0.16176347 0.15401374 -0.27865577 0.29147056 0.37374792 -0.24820231 -0.3274985 -0.27210185 0.2081097 -0.318635 0.27212626 0.30028954 0.011681434 -0.19983205 -0.02301866 -0.5404469 -0.3560171 -0.117671005 -0.09382929 1.0927314 -0.31596813 -2.1412134 -0.22854394 -0.4676377 1.5515652 0.55087227 -0.13143976 0.6073387 -0.14709963 0.09376854 0.4702803 0.003355843 0.5122546 0.01009235 0.15075563 -0.20895685 0.021715984 -0.1282923 -0.28939626 -0.16007902 0.42157343 0.37337393 0.0020993664 -0.20021267 -0.4790047 0.12031303 0.28091022 0.2764856 -0.31173667 0.06888658 -1.2793297 -0.23482396 -0.027305542 -0.28622538 -0.26663715 -0.2261568 0.5227399 -0.08462085 0.10703479 0.30432457 -0.37332353 0.34511143 -0.0029160848 -0.06402654 0.64559907 -0.12978353
veteransday 0.45234442 -0.6316153 -0.1847842 -0.43769276 0.1579138 -0.007986351 0.068196744 -0.53703636 0.18528242 -0.004907301 0.78261036 0.03757175 0.12063518 -0.18595883 0.14444086 0.04620204 0.4622638 0.50136274 0.31609458 0.16179974 -0.11054562 0.10920869 0.25912407 0.4374319 0.3128061 0.49803922 0.022081265 0.35057363 -0.08400201 0.6326183 -0.12911993 -0.08918452 -0.024536934 -0.07766493 -0.0010266207 0.21448196 0.8870222 0.5986003 0.48410594 -0.4358755 0.37986064 0.07125081 -0.49549612 -0.22108968 -0.23643325 0.48452005 -0.40289322 -0.3849899 0.5482478 0.4052848 -0.380742 -0.39645776 -0.35790443 0.2640938 0.18121296 -0.616261 0.08381577 0.43601578 -0.48508173 0.39268383 0.19783142 0.2550245 -0.40207547 -0.22625345 -0.11947128 -0.28421474 0.1083444 0.6392785 -0.24671966 0.15491346 0.28631732 0.4621102 -0.30711535 -0.23433691 0.2893118 -0.467237 -0.40276074 0.086832374 -0.8374373 0.14035083 0.029863123 -0.31919417 0.5398541 0.252795 -0.16701487 0.050833073 -0.34553108 0.1107221 -0.25371116 0.011872906 0.4143056 -0.20516808 -0.13404423 -0.22271843 0.32059127 -0.13975053 -0.18427157 0.2648822 -0.16238013 0.13551007
service 0.21244699 0.78127396 0.07803404 -0.4610073 -0.3703919 -0.24960205 -0.2105687 -0.12329808 0.054790642 0.5540812 0.38955066 0.012353209 -0.09175757 0.07468379 0.024480127 -0.2989282 0.31222007 0.7580878 0.042477295 0.41133916 0.30601788 0.28130844 -0.18840039 -0.62681663 0.032010004 -0.18577978 -0.32611534 -0.2610063 0.019398917 0.049591463 -0.3449457 0.45163968 0.26123166 -0.19151537 0.16789769 0.30045307 -0.06665216 -0.30520147 0.12988646 -0.08226266 0.08880423 -0.32746077 -0.28478748 -0.7568164 -0.4468072 -0.050222367 0.052122742 0.05515124 0.15554225 -0.71122134 -0.0070175263 0.21319573 0.07478411 0.73049086 0.30212647 -2.0413132 0.030545674 0.3337048 1.5100602 0.046131387 -0.11279194 0.913098 -0.32583517 0.13601004 0.71333194 0.20941448 0.58312994 0.21469769 -0.10353032 -0.5060323 0.82807416 -0.18405703 -0.018889463 -0.32768196 0.18580939 0.29268017 0.070126265 0.13484155 -0.33933535 0.6542847 0.42791036 0.18013029 -0.28689492 0.19826749 -0.71672386 0.4789291 0.16094932 -0.053467628 -0.51589537 0.046742994 0.09489014 -0.058990035 0.18207523 -0.5344059 -0.2626868 -0.3220258 -0.12669525 -0.30624422 0.7388681 0.7252399
beatupandworn -0.091139846 0.045203436 -0.16475235 -0.37227112 -0.23960458 0.28108004 -0.3842457 0.10249396 -0.14662269 0.0002661346 0.10834114 -0.29436406 -0.094542764 -0.115163006 0.045461882 -0.31522968 -0.5412696 0.013467679 -0.35762468 0.31218627 0.58522904 0.2727057 0.43620822 -0.14810406 0.48129776 0.5752884 -0.44995734 -0.036989458 0.0390825 0.06918848 -0.40323475 0.51083124 -0.19930343 -0.18980289 0.18658532 0.05957172 0.15131609 -0.07199252 0.041871943 0.08299929 -0.44852152 -0.21291894 0.09129042 -0.27736652 0.1310812 -0.0891059 0.24420561 -0.018230855 0.8404499 -0.5888908 0.11860487 0.07281697 0.0036234448 0.9278909 0.23227906 -1.8584731 -0.1866563 0.27477464 1.0459635 0.28024027 -0.13732052 0.34209827 -0.012073081 0.1852193 0.63944674 -0.047020428 0.37053898 0.33060253 0.57191455 -0.20179833 0.024765542 -0.20067286 -0.114609554 -0.39999956 0.01062331 0.27055573 -0.24541461 0.029889861 -0.36519164 -0.26779294 0.8589421 0.061855584 -0.44198844 0.48048082 -1.0868047 -0.29383564 -0.13371807 -0.10622464 -0.3858963 -0.50581956 0.17278251 0.13271105 -0.46516123 0.13592711 -0.43216574 -0.11462398 -0.1855705 -0.14743088 0.46483037 0.23881833
evenbetter 0.24146491 0.12777804 0.603006 0.19125849 0.37247607 -0.43440762 0.1244851 0.16214362 0.283433 0.13934405 -0.124199 -0.36619136 -0.08859736 -0.4526016 0.1792469 -0.44723126 -0.18390763 1.3006161 0.16417451 -0.1294304 0.03412894 -0.06929818 -0.63430667 0.19301616 0.6254485 -0.008401699 0.6434153 -0.35662672 -0.108096905 0.12149313 -0.23429675 0.29191697 -0.3465958 -0.267579 0.2091064 -0.07671409 0.18875855 0.07290461 -0.49092978 -0.5856093 -0.1566513 -0.39972332 -0.11893631 0.30538458 0.03598975 0.17030202 0.5700189 0.23776388 0.3082261 0.07672333 0.15621747 0.5745488 0.32126957 0.6700417 0.5372247 -1.9621606 0.101274066 -0.2899887 1.1117963 0.8980964 -0.3343577 0.33461156 -0.3098166 -0.097813986 1.4203498 0.3367097 -0.30311346 -0.08555531 0.3570937 -0.02701951 1.0409796 -0.12798359 -0.26300827 -0.13845068 -0.15387738 -0.49439132 0.33835468 -0.16629271 -0.59325886 0.22373134 -0.047870792 0.21629591 -0.30447984 0.29947728 -0.5814084 0.320267 -0.12907553 -0.6683138 0.44615826 -0.40292284 0.3516538 0.5429115 -0.029882275 -0.26156914 -0.19105667 -0.6459185 -0.13463107 -0.07869342 0.44239125 -0.2001378
projectrock -1.4432583 0.8346276 -0.3543763 0.0037089393 -0.42214656 1.0660176 -1.0772204 -0.74341977 -1.4820263 0.9931311 -0.15936197 0.48445854 1.4893298 -1.5213096 -0.46954018 -0.8243973 -0.821687 -0.56126744 -1.510314 -0.39385158 1.6858162 0.61717397 -1.3470943 0.86001205 1.683042 0.06469578 -1.0179849 -0.29605937 -1.2448819 -0.010939643 1.4199706 1.3467095 0.6310493 -1.5999119 1.3414768 1.2465354 0.89673907 -1.1557969 -0.41158488 -0.08788861 -1.2162379 0.07545717 1.3810381 0.35483935 -1.4425316 0.12161409 -0.5550055 -1.3617867 -0.31650734 1.2476408 1.5881047 0.37853986 0.23885646 -0.84710467 0.7154928 0.18120737 1.7840406 -1.2817101 0.68951833 1.6824133 -1.2189053 0.39806247 0.3534885 0.17684902 -1.1900811 -1.5585679 0.6271128 1.2132509 -0.8966981 0.13234219 0.42773494 -1.5810236 -1.5368149 1.3748624 -0.6149762 0.81106037 -1.6608666 0.9869098 0.17091753 0.18061526 0.92584395 0.13574691 -0.8513115 0.5615073 -1.4607196 0.05203533 1.0527523 1.709159 -0.72895265 -0.37059888 0.76367193 0.5651368 -0.75834024 0.8134056 -1.2386187 1.2801231 -1.5210123 0.7249303 0.8127563 0.035382956
underarmour -0.17165051 0.42044517 -0.271908 0.0051221936 -0.255782 0.017096477 0.52158916 0.1308664 -0.24668162 -0.28484336 0.1305697 -0.47240174 0.2727005 0.12759118 0.6227987 -0.22548439 0.120498285 -0.28999227 0.19277535 -0.33459276 0.43866104 -0.2703724 -0.06586769 -0.52554446 -0.055718046 0.99634314 0.010710402 0.037207946 -0.46737054 0.103894636 -0.044875834 0.18720552 -0.22172736 -0.118890114 0.043665446 0.70070314 -0.02517975 0.039645046 0.36708137 -0.50728846 0.29069683 -0.74442273 -0.22258224 -0.5397019 0.04560346 0.21921489 -0.23587947 0.32195503 0.23168088 -0.6762974 0.002362495 0.08043862 0.12625721 0.781462 0.032160465 -1.2533857 -0.10225988 0.48038003 1.5789626 -0.26269796 0.26479593 0.59924823 0.006524836 0.41571772 0.010588779 -0.37355554 0.5612654 -0.41573974 -0.14325517 -0.57134354 -0.035677552 -0.7645373 0.67111206 0.255393 -0.13953693 0.54190326 0.060664188 -0.5419901 -0.02498055 0.107846975 -0.018855052 -0.52226764 -0.40072444 0.6888495 -0.7368384 -0.54564524 0.005015362 -0.21706896 0.5586808 0.024704877 0.44300282 0.10168748 -0.25840896 0.16200101 -0.8726864 -0.23350602 -0.19476907 -0.4079099 0.76252073 0.12230666
uafreedom -0.2799654 0.4262982 0.18859364 -0.040642276 -0.42057016 0.3505638 -0.3765537 0.13914937 -0.0031954325 -0.46997917 0.21784212 0.10317947 0.14887312 -0.013388245 -0.067656234 -0.1866005 -0.055447344 0.45201102 -0.4382461 0.4717071 0.25330958 0.121235 -0.23339461 -0.25740162 0.21536246 0.11429559 -0.15324794 -0.2037837 0.57339305 -0.4448211 0.0012052823 0.44151482 0.013535586 0.09214901 0.18784995 0.060268488 -0.05140974 0.3288531 0.09139632 -0.54877573 -0.22773556 -0.20005602 0.22392128 -0.26680905 -0.723184 0.109350115 0.46149907 -0.08152899 -0.075015105 -0.83038265 0.087689325 -0.19436699 0.07050891 0.871975 0.1985417 -1.4499089 0.44398922 0.24220817 0.9773844 0.33049434 -0.2743506 1.411197 -0.56507736 -0.06503657 0.59933156 -0.015820079 0.711756 0.20387095 -0.23500496 -0.45877 0.21836837 -0.2063872 0.4937569 -0.25145856 0.16110578 0.3859411 -0.078072384 -0.25321865 -0.4927923 -0.09354059 0.09129889 0.069267 -0.12723613 0.3518279 -1.3986068 0.21964625 -0.3076817 -0.27560118 -0.4656367 -0.34443766 -0.22032306 0.06977911 0.019529799 0.06170685 -0.85415924 0.050237756 -0.47595352 -0.3565801 -0.14935298 0.7362241
UNSTOPPABLE 0.10889142 0.395002 0.3630082 -0.2984194 -0.011642 0.631994 -0.4858088 0.33517 -0.182983 -0.23147 0.0590372 -0.259604 0.42144 0.63978 0.0995146 -0.594102 0.064294 0.4327986 -0.762318 0.292522 -0.016938 -0.25327 -0.153332 -0.063244 0.511056 0.609892 -0.557258 -0.5269684 0.547599 -0.06647264 0.288498 0.468594 0.156192 0.242892 -0.372162 0.272936 -0.2581556 0.302859 0.304116 -0.484708 -0.3492264 0.091834 0.4306432 -0.483566 -0.361272 0.0239186 -0.182202 -0.10039 -0.288304 -0.777242 -0.306588 0.315052 0.3436094 0.78114 -0.3522998 -1.87255 0.4469574 0.181997 0.974082 0.2581754 0.33775 0.6212978 -0.2400872 -0.19184159 0.304232 0.09214 0.5385066 0.288586 0.2233356 -0.368746 0.486636 0.2191 0.454978 -0.696244 0.09407 0.2319798 -0.1397106 -0.1190012 -0.279932 -0.0431714 0.0694274 0.144068 -0.2261896 0.330516 -1.099862 -0.094228 -0.1012262 -0.251585 0.0922726 -0.3157558 0.04142494 -0.397556 0.53229 0.4662352 -0.287182 -0.333552 -0.290092 -0.225184 0.3580156 0.346086
TheAnthonyRoblesStory -0.032125454 0.061231688 0.1294968 0.2217506 0.3557628 0.49377623 -0.09793228 0.009335828 -0.21563472 0.2078835 0.001664368 0.09814716 0.124251924 -0.0030186279 -0.09820927 0.05334356 0.24439369 -0.21264301 -0.38542685 0.14121605 0.82560015 0.04684255 0.056198835 -0.027263172 0.23569447 0.4360008 -0.22068033 -0.14952774 0.52123123 -0.21125175 0.024997266 0.96112585 -0.08208339 0.2586358 0.11860216 0.25658116 0.2764072 0.89993703 0.12252556 -0.24162155 -0.22550537 -0.09710866 0.5350633 -0.30675867 0.12707512 -0.24420343 0.22535814 0.3063509 -0.111868724 -0.078471154 -0.04064129 0.088134855 0.053626694 0.8125882 -0.10197211 -1.8903152 0.26442227 0.07497185 1.7139122 -0.13000076 -0.48980477 0.024849178 -0.7986569 -0.36221334 0.7272433 0.45935947 0.47967842 0.3702225 0.15718654 0.107193515 0.019377591 0.15234508 -0.003179404 -0.43638298 0.2930424 0.17758583 -0.27230158 0.03964607 -0.8589136 -0.15585202 0.19605447 -0.5627159 0.081521496 0.073783405 -0.98832554 0.14968961 0.50857896 -0.6128022 0.39784703 -0.36523646 0.25615898 -0.020497715 -0.112692975 0.24948028 -0.17247654 -0.40394774 0.20138004 -0.5194099 0.4581623 0.052600686
HobbsAndShaw 0.11973069 0.3832849 0.12672167 -0.28652552 0.15053728 0.6848024 -0.024540432 0.28475314 -0.49279174 -0.12765935 0.58811057 -0.0696127 0.6738373 0.7694626 -0.002279745 -0.16289866 -0.39162847 -0.12575412 -0.44753116 -0.19299737 0.59251136 -0.054239564 0.15164576 0.06802182 0.6794198 -0.2701847 -0.40107554 -0.31823388 0.21965726 -0.014087836 0.4600407 0.22867732 -0.16053686 -0.12286571 0.23711757 0.04908781 -0.010817589 0.037693877 -0.038935926 0.19486088 -0.25280508 -0.57575816 0.4976955 -0.21951015 -0.28801593 0.060820747 -0.27792555 -0.0136585925 -0.29654723 -0.32218936 -0.5138814 -0.2661072 0.21866883 1.5441316 0.027494555 -2.0130985 -0.16916372 -0.19154221 1.6481026 0.83344305 0.08361391 0.9650508 -0.062229887 0.28308332 0.0475979 0.04371342 0.45656574 0.514685 0.015310608 0.004422742 -0.3863354 -0.13137653 0.15956496 -0.63083744 0.24216822 0.18927704 -0.7314984 -0.03250944 -0.6456859 0.101067595 1.0904505 0.39595515 -0.3139764 0.3297352 -1.3895882 -0.35555252 -0.03710403 0.19566491 0.009551013 -0.2664401 -0.17510286 0.03213664 -0.2538007 0.22701687 -0.8947791 0.026045933 -0.5478803 0.024442343 0.4977034 0.08857666
UFC244 -0.23097983 0.44769678 0.31669605 0.06847622 -0.46152762 0.10894604 0.4018314 0.091265514 -0.33614618 0.34710586 0.91133916 -0.32244188 -0.25285894 0.2586024 -0.241275 0.3021982 0.2316846 -0.1944548 0.0034262354 0.8120436 0.6506038 -0.023000998 0.0573074 0.787812 -0.09646764 0.5089845 0.39341024 0.5342308 0.23395006 -0.5591719 0.12082119 0.97843117 0.01472858 0.028160091 -0.27893507 0.2765144 0.104019776 0.38249272 0.037460823 0.21655169 0.3859817 -0.7574033 0.2983519 -0.62056226 0.21405116 -0.2704923 -0.585086 0.17493473 0.23597702 -0.14694574 -0.19417821 -0.021777758 -0.017037343 0.9284297 -0.5301693 -1.9718983 0.005397846 0.17100434 1.1258187 0.0041615134 -0.551227 -0.29839587 -0.8567499 0.12121957 0.7736974 0.502411 -0.26032692 0.53888565 0.3775848 0.6531589 -0.23361535 0.1642178 -0.13039123 0.06674404 0.5546577 -0.40268645 -0.0028778994 0.28407887 -0.58143944 -0.24971949 0.40811208 -0.39159682 -0.16985525 -0.035932977 -0.5942522 -0.093906015 -0.44100004 -0.20940702 0.577589 -0.44531476 -0.36743566 0.9553749 -0.03646114 0.0501921 -0.15975402 0.06274316 -0.056949925 -0.4400392 0.2504701 -0.31331447
peopleschamp -0.43137485 0.64063644 0.10671292 0.25255966 0.0026584864 0.23904939 1.0415322 0.3788555 -0.14458099 -0.33255026 1.2091867 -0.24173751 -0.8262101 0.63184714 0.61016655 0.0037120976 0.49234203 0.22714129 -0.41964236 0.9319587 0.70825213 -0.22272834 0.38118476 0.95314497 0.42748123 0.42364004 0.52938867 0.30066147 0.25841126 0.01294507 -0.121195704 0.66019374 -0.37544107 -0.21867284 -0.5552681 0.29358545 0.25728247 0.74486136 0.020499079 0.17551884 0.6571425 -1.508532 0.21943699 -0.72776824 0.5105402 -0.6999713 -0.6725471 -0.34000117 0.14029554 -0.18073992 -0.37476522 -0.58763546 -0.33895725 1.398739 -0.8580644 -2.6656404 -0.29045597 -0.5238858 1.383925 0.65745604 -0.62565005 0.08227763 -0.8680064 -0.043554 0.7859869 0.39453855 -0.7146393 0.96801263 0.42747545 0.51583755 -0.47039697 0.024391986 0.1875998 0.64256895 0.35798484 -0.016003842 0.06254078 0.14102331 -0.3716663 -0.16335048 0.52762395 -0.3932837 -0.8520172 0.2858451 -0.32113308 -0.07635565 -0.20756027 0.16952103 0.49409315 0.4856033 -0.6122426 0.73851657 -0.6107427 0.3582819 -1.0581812 -0.3002692 -0.023673125 -0.19114693 0.66802984 -0.84291667
1 0.2933009 -0.09044677 0.39222682 -0.34013605 -0.7693258 -0.16594198 0.15514147 -0.2135029 0.37175894 -0.49499133 0.7844367 -0.49801105 0.0065779006 0.07729389 -0.03710445 0.27921382 -0.23315082 -0.22534423 -0.11832968 -0.3633123 0.11680334 -0.428855 -0.42871076 0.44063523 0.30051097 -0.06296556 0.66557187 -0.44935188 -0.03829142 0.058674756 -0.015626354 0.45240045 -0.20862056 0.011500389 0.50656754 0.45069635 0.18048464 -0.1511418 0.24403802 0.28566667 -0.0018018016 0.111189075 0.18280794 -0.32269722 0.04579194 -0.7549953 -0.89715075 0.40673068 -0.07140261 0.021499343 0.6113102 -0.030489236 -0.64466417 0.09239001 0.04486161 -0.58191746 0.60593426 0.06611714 0.2175171 -0.012582291 -0.45915768 0.70645744 -0.43280825 0.17642872 0.08832748 0.030172987 0.09296531 -0.765141 0.24733818 -0.5975246 -0.41048437 -0.19624637 -0.11402889 0.19845566 -0.24650688 -0.2674464 -0.07552407 0.10116335 -0.49416256 0.22675383 -0.6174948 0.26555747 0.86859846 -0.58576596 0.07823554 0.29615316 0.13680092 0.25937536 0.102958806 0.39515442 0.39335006 -0.17583232 -0.18862928 0.109250724 0.30210677 -0.12208299 -0.028837183 -0.616097 0.45097107 -0.073783174
MarkKerr -0.6488956 0.4141329 0.12686482 -0.52889866 -0.53288656 -0.035893694 0.9302011 0.3017461 -0.5182226 -0.3591635 -0.15519118 -0.8385919 -0.21216357 0.3229167 -0.22983329 -0.38176426 0.52912205 0.28893057 0.1510229 -0.07752383 -0.49867597 0.16989309 -0.01010711 -0.08229717 -0.046312537 0.9886933 -0.12966496 -0.5962647 -0.14763275 0.17966728 0.114057526 0.33045393 0.26027548 -0.22477993 -0.47897825 0.08232059 -0.19437246 1.0718395 -0.6085437 -0.63271344 -0.00030604878 -1.4187173 -0.15378198 -1.3859494 0.5610449 -0.080543056 -0.1606703 0.090725526 -0.039077453 -1.1126037 -0.80716443 -0.0618728 0.4836456 0.8293861 0.16110809 -1.3965225 -0.6865528 0.12142091 1.1658002 0.07059962 -0.5959618 -0.01814578 -0.06360733 -0.4639488 0.5240864 -0.7666991 0.44454095 0.16263749 -0.17176835 -0.20903352 -0.09265852 -0.016227018 0.17309022 0.9951249 -0.13519807 0.20176236 -0.26267195 -0.35716704 0.25477025 0.79244566 0.41195914 -0.40145534 -0.725594 0.72655064 -0.42492127 -0.44926786 0.13237429 -0.5767161 0.4811746 0.5240062 -0.13894498 0.40631846 -1.2239289 -0.27483663 -1.0238969 -0.9430455 0.1367282 0.27677995 0.9091707 0.20415643
TheSmashingMachine -0.020904075 -0.050667733 0.68741536 -0.36241925 -0.06396455 -0.08815962 0.31651828 0.30876178 -0.80930895 -0.26530164 0.17857096 -0.26459613 -0.25806797 -0.30405298 -0.59768087 0.22051908 1.2757493 0.21365023 -0.5240707 -0.27206564 -0.11000332 0.17037024 0.5834173 -0.014061656 -0.008860239 -0.47097427 -0.050126188 -0.90689236 0.5733731 -0.2688989 -0.4800108 0.4271688 -0.27875024 0.059839465 0.40333298 -0.4486555 -0.514565 1.1441908 -0.99584407 0.47251773 0.07693937 -0.21810974 0.3231843 -0.4879993 0.4323227 0.4655103 0.797909 -0.26872465 -0.7082025 -1.0730871 -0.71167576 -0.37162194 0.16337895 0.61749107 0.62469286 -2.5223143 0.083663285 0.47133178 1.2352238 1.0251473 -0.6428894 0.36669126 -0.017834395 -0.10827891 0.3741411 -0.15052031 -0.44225252 0.53912324 0.57917774 0.46607846 0.19092171 -0.19845387 -0.07113466 -0.26879185 -0.28263766 0.41996083 0.0004123151 0.013968981 -1.1262374 -0.2259641 0.43154684 -0.24274795 -0.045636185 -0.035913914 -0.1160124 -0.24226913 -0.77857405 -0.0044006547 0.8319858 0.3688797 -0.28440374 0.04499745 -0.60279167 1.016675 -0.46743193 -0.074346 -0.109424174 0.17463481 1.2804188 0.19189341
BMF -0.08075966 0.031277515 0.6103523 0.3872926 -0.048664812 0.017270269 0.012925242 0.28283644 -0.22342058 0.25760376 0.52043015 -0.08124516 0.26469985 0.16243301 -0.10251346 0.03310509 0.048244815 -0.21275584 -0.11403189 0.0036801004 0.85793257 0.054212447 -0.0369327 0.18073544 0.001624867 0.21987753 0.2250967 0.059855822 0.37994653 -0.41634825 0.2008736 0.82307774 0.1609063 0.2905278 -0.29654798 0.3126818 0.40472373 0.9410266 0.09740013 -0.4193538 -0.26335338 -0.2913051 0.19335371 -0.37551102 0.29572582 0.29411232 0.027174162 0.19923839 -0.0072534913 0.06619916 -0.25475866 0.31071 0.3916808 0.62843835 -0.4211548 -1.9415005 -0.15361924 0.10445245 1.7036104 0.18057844 -0.7773265 0.10539302 -0.5157453 0.07483295 0.87374705 0.34750766 0.30379727 0.5994287 -0.015058187 0.12259676 0.20965675 0.22646512 0.0311162 -0.8203638 0.41776338 0.14228304 -0.3501095 0.30835566 -0.5968953 -0.18345067 0.36106473 -0.58707553 -0.40118334 0.015400437 -1.2774931 0.0051042866 0.14249374 -1.0364236 0.45404822 -0.29753393 -0.1180531 0.48652363 -0.3181495 0.6760352 -0.31583354 -0.64952016 -0.20294149 -0.5316606 0.52718276 -0.20361605
305 -0.012946973 0.28850237 0.2198063 -0.3063113 -0.20001717 0.14928305 0.18627296 0.41141546 -0.15337451 0.09133889 -0.24452232 0.39560205 0.5062904 0.4551152 0.024326025 0.04880028 0.06001742 -0.11144988 -0.39025125 0.33095494 0.42709562 0.3756874 0.14399129 -0.06943533 0.33949018 0.19639277 -0.45980093 -0.3994349 0.02742584 -0.28977558 0.24659245 0.4788107 0.104152806 0.15251258 0.19645175 0.35315308 -0.27681413 0.47342378 0.45148146 -0.09342455 -0.17385928 -0.19312915 0.35415936 -0.5268586 0.0784905 0.16281536 0.46656996 -0.19966067 -0.050768886 -0.7200384 -0.0808664 -0.20336996 -0.0015357787 0.85249645 -0.5100251 -2.0196342 0.16577405 0.14377077 1.1483016 0.58122754 -0.16379727 0.70452565 -0.6338959 0.036241807 0.7954093 0.16177076 0.52712977 0.37119535 -0.073818095 -0.08609509 0.059188068 -0.1560183 0.22973052 -0.43156448 -0.014773714 -0.01929968 -0.5033536 0.1373384 -0.6655368 0.090315096 0.69728714 -0.27804375 -0.46599278 -0.092313826 -1.1816485 -0.22200055 0.1605524 -0.44166863 -0.13912538 -0.5992474 -0.2769383 -0.12669396 -0.2050349 -0.2985941 -0.3900133 -0.081611626 -0.41122743 -0.40738696 0.28361666 0.48322967
thegluttonybegins 0.83163 0.48577 -0.9815 -0.37327 -0.45973 1.5564 -0.34629 0.31268 0.38836 0.87137 -0.73099 -0.19337 -0.032714 0.25448 0.10981 0.02038 -0.15584 -0.51625 -0.84386 0.091071 0.88069 -0.86866 0.25436 -0.083986 -0.062303 -0.70892 -0.20387 -0.20111 -0.0651 0.69334 0.17504 0.014705 -0.39464 -0.036902 0.54803 -1.1733 -0.031704 0.22928 0.08853 0.43999 -0.91073 -0.13646 -0.24461 -0.011415 0.027228 -0.036022 -0.38604 0.5872 0.01319 0.12643 -0.45174 -0.81924 -0.8662 1.0493 -0.33626 -0.56014 -0.42743 -0.027777 1.021 0.4809 -0.17573 0.25249 -0.41955 -0.21946 0.22884 0.81394 0.48709 -0.50206 0.52245 -0.54021 0.16523 -0.51216 -0.47088 -0.3986 -0.65728 0.49328 0.90536 0.41608 -0.15934 -0.74871 0.96892 0.29157 -0.36696 -0.30547 -0.48222 -0.56361 -0.57627 0.16319 -0.72672 0.081648 0.047504 -0.64115 -0.16386 -0.46798 -0.74062 -0.17427 -0.88319 0.63499 0.68394 0.30608
tcb 0.12421302 0.2344855 0.20973818 -0.07377094 -0.22949937 0.063233815 -0.29918644 0.39250252 -0.07010482 0.08309112 0.09543378 -0.2794177 0.31829688 0.11802056 -0.20064655 -0.24064161 0.17989884 -0.011089585 -0.30096412 -0.2363498 0.4788107 0.3026509 0.33789408 0.018251603 0.024361428 -0.58579063 -0.11467635 -0.2722374 -0.18256144 -0.10604286 0.036523435 0.074485436 0.24850684 0.14156166 -0.19692832 0.20405684 -0.15844278 0.33110738 0.26353034 -0.21442693 -0.43529657 -0.29802302 0.120496914 -0.28886482 0.207251 0.3190907 0.10858279 -0.15194003 -0.01971635 -0.5182759 -0.4557094 -0.16148521 -0.19304611 1.1216617 -0.4130826 -2.1447628 -0.1306317 -0.53115064 1.7238882 0.5081057 -0.2745661 0.7461844 -0.123519465 0.08372197 0.53228813 0.008834952 0.43821308 -0.025800277 0.19666408 -0.35047162 0.0019766758 -0.12106957 -0.40686244 -0.22877102 0.39045244 0.34652328 0.012447158 -0.08165589 -0.5394002 0.11494819 0.45756254 0.18350974 -0.44702002 0.06622373 -1.39454 -0.27072412 0.006664941 -0.16707274 -0.28616923 -0.1341561 0.4938018 -0.11341991 -0.0045792353 0.2518088 -0.53374755 0.27121753 -0.12039651 0.06371486 0.7602021 -0.07050126
BMFBelt 0.0676824 -0.25984 0.566388 -0.35283697 0.33663362 0.36105737 0.87972283 -0.30832502 0.20485827 -0.024932686 0.30582067 0.31800792 -0.38080093 -0.9317747 0.16596201 0.26657945 -0.6430751 0.54313993 0.07172502 -0.56767344 1.2461671 0.50891834 0.354219 0.029690035 0.8060174 0.8111277 -0.18116212 0.23200385 -0.196208 -0.69746894 -0.15070248 0.3446319 -0.24315482 -0.2883162 -0.15588158 -0.9412706 -0.44451967 -0.46867707 -0.102874264 0.021719506 -0.16340749 0.87109935 -0.1610138 0.33585173 0.7509048 -0.27607095 0.6427208 -0.045509607 -0.0064347778 -0.3592854 -0.09788509 -0.018958228 0.21024066 0.06906591 0.41977784 -1.1822966 -0.029756801 0.37361646 0.1908658 0.035028458 -0.0526375 0.15004607 -0.5515242 0.26524758 -0.23928207 0.4787156 0.31608716 -0.4921314 -0.24688202 -0.47637725 0.59526783 -0.35036215 0.018558638 -0.33433574 0.28985697 -0.63493156 -0.42404458 -0.08814378 0.24690959 -0.5682829 0.5084488 0.39030823 -0.5648959 0.14905305 0.07786992 -0.742702 0.45642754 0.11312968 -0.44460776 -1.1262137 -0.39481062 0.45582202 -0.09488713 0.31847566 0.06625066 -1.2569181 -0.06914575 -0.33423465 -0.09492476 0.37594894
MasvidalDiaz -0.26736858 0.66651154 0.042559836 -0.19774899 0.49415407 -0.5480085 -0.21807525 0.46504137 -0.46595454 0.23142378 0.12196653 -0.18503962 0.34330112 0.1790616 -0.48480552 0.0908491 0.7447726 0.11018287 -0.26503032 -0.18785594 0.4095783 -0.15590799 -0.05278224 0.1658554 0.4265431 -0.06859066 -0.17043948 -0.096118845 0.07883356 -0.5062834 0.050792363 0.20055446 -0.12619278 -0.24853513 -0.02927313 0.34904173 0.29676804 0.14383028 -0.3625628 -0.45859164 0.04603625 -0.36203617 -0.08328902 -0.42205283 0.15384944 -0.02967506 -0.26744863 -0.09562093 0.44245344 -0.28965664 0.04939741 -0.016541826 0.10473686 0.593873 -0.11382339 -1.9118937 -0.5552234 -0.2873086 1.4637715 0.20170394 -0.1089975 0.59923214 -0.4573212 0.51958686 1.002329 -0.09001859 0.36334032 0.5622082 0.049127556 -0.7122475 0.4728613 -0.035017457 0.34110212 0.08355705 0.28472915 -0.27845123 0.00992496 0.26536477 -0.51778114 0.15083723 0.977248 0.17791687 -0.2360545 0.07059986 -1.0140936 -0.21126507 0.16495976 -0.61385113 0.10205567 -0.121169545 -0.15508875 -0.31124985 0.20291579 0.07277111 -0.51891917 -0.37718937 -0.13084657 -1.0706246 0.6573657 0.2572582
DiazMasvidal -0.050602775 0.3949487 -0.0014478059 0.29529497 0.3854915 0.44767988 0.3591355 -0.2074977 -0.46946716 0.36734015 0.10046661 -0.19535182 0.49152315 0.89185154 -0.27896953 0.06292472 -0.22387166 0.012929014 -0.4000299 0.028319143 0.449555 0.027404834 0.07681041 -0.040453345 0.31701076 -0.32356617 -0.33347198 -0.41887274 -0.20235871 -0.2426065 -0.044106267 0.6178762 -0.58696246 -0.11027223 -0.38249928 0.26740167 -0.1333759 0.23900123 -0.30327755 -0.028361993 -0.5336682 -0.3862198 0.5398686 -0.50717765 -0.5137638 -0.18528071 0.07338259 0.018395446 -0.0782138 0.018959617 -0.07062123 0.10677309 0.15223889 1.0468287 -0.07886857 -2.000516 0.07047359 -0.050086368 1.3619877 0.49230185 0.11480875 0.564819 -0.3565472 0.09288472 0.53751844 0.1553038 0.22767808 0.383349 -0.07279124 0.19877051 -0.24642992 0.3052588 0.4478826 -0.55237496 -0.10277392 0.029809251 -0.35117498 -0.00070840825 -0.40265885 -0.115357794 0.6054328 0.17000733 -0.85387164 -0.08617344 -1.2256458 0.0042453064 -0.08971542 -0.34635314 -0.02522711 -0.6792496 -0.13267802 0.01929636 -0.07776005 0.26998958 -0.44001096 0.017347377 -0.5883612 -0.49320248 0.5482148 0.32681966
YouWinHalloweenKevin -0.07958504 -0.0644106 -0.09297887 -0.31122676 0.41630915 0.18659994 -0.109303676 -0.37253937 -0.1546043 -0.40617874 0.43144003 -0.060830843 0.23441577 -0.29878065 -0.2950076 0.56946963 0.15397356 -0.38000494 -0.13685487 -0.5054934 0.482463 -0.03532503 -0.30950937 0.07912453 0.57054985 -0.24260435 0.20533633 -0.5653722 -0.07706246 0.49449667 0.15214029 0.46376467 -0.20586412 0.19531883 -0.20893979 0.23621377 -0.27122128 0.016769752 0.12471866 0.04755076 -0.37863153 -0.38758394 -0.6901346 -0.104866445 -0.17628272 -0.3169219 -0.0839795 -0.08481298 0.31276745 -0.34973666 0.27674076 -0.011769014 -0.030107945 0.41693076 -0.5428503 -2.5106921 -0.22889078 -0.11895279 1.4493817 0.36902654 -0.19434139 0.6023084 -0.32843322 0.10969232 0.4491017 -0.2756032 0.6649989 -0.089626215 0.49093553 0.1166068 -0.14842096 0.79579926 -0.32004344 -0.0768314 -0.32140404 -0.39070818 0.8016722 0.51909107 -0.7784673 -0.55296355 0.12760697 0.25356376 -0.24199474 0.01935059 -0.51942515 -1.0052837 -0.38434935 -0.8756265 0.19643171 -0.06693359 0.44525307 -0.13851924 0.46394986 0.057580482 -0.43447995 0.351808 0.41949138 -0.558293 0.7011834 0.67218965
Good2HaveYouBackBrotha -0.21239984 0.5969229 0.7952488 -0.46759775 0.11073875 0.3380676 -0.12544057 0.39267412 0.13961835 -0.19741572 -0.11514022 0.21511954 0.18039906 -0.31244493 -0.12459095 -0.59032935 0.20192389 0.2999614 -0.025624586 0.33457062 0.19774269 0.32768068 0.5457448 -0.19129722 -0.11147143 -0.7120194 0.081651345 -0.27762747 0.420775 -0.35113266 0.41806126 0.49762565 0.2904888 -0.06561517 0.23255956 0.078379095 0.35968676 -0.19845973 -0.17254253 -0.08767386 -0.6940014 -0.49210507 0.4058129 -0.556455 -0.48658395 -0.7258985 0.24644962 -0.6700705 -0.42746007 -0.89780784 -0.035550717 -0.3084696 0.10339971 1.1516912 -0.33181626 -2.4188652 0.05192801 -0.17626365 1.4425874 0.3656982 -0.41478324 -0.03864216 -0.036454756 0.022457263 0.81082076 0.42325377 0.10936082 0.5056408 -0.23206098 -0.11249641 0.19792712 -0.20253733 -0.5286259 -0.30028024 -0.20068005 -0.1094733 -0.5621208 -0.076063976 -0.95092493 -0.2610545 0.36454293 -0.3813211 -0.27117297 -0.13759604 -1.3047795 -0.61590403 0.49327967 0.032219656 0.021510359 -0.33242044 0.15218306 -0.28799775 -0.2984353 0.6854616 -0.755792 0.3358641 0.39009908 0.10893596 0.5560502 0.25020194
IveMissedYou 0.012501624 0.6376889 0.47039396 0.13403761 0.017877718 0.03364616 0.028392086 -0.34457797 0.11064937 -0.15678594 -0.7603308 -0.45710924 0.36817062 -0.12036557 -0.123705104 -0.5365043 0.06605026 0.015997728 -0.7201477 0.10423595 0.12298934 -0.101120785 0.13624308 -0.026953062 0.039163716 0.009304805 0.4117668 -0.008065038 0.3198978 -0.09198848 0.19869179 0.9535793 -0.24130273 -0.32680127 0.6340024 -0.0118887555 0.11108395 0.5587575 -0.33222586 -0.37685525 -0.7392971 -0.11652237 0.4780913 -0.12086122 -0.19322562 -0.13628002 -0.03765135 0.21047698 -0.25962248 -0.23544967 -0.12362158 0.25871077 -0.2012237 0.7783601 0.026366359 -1.214102 0.45627552 -0.015773622 1.0939579 0.14301673 -0.3115406 0.32564434 0.049860697 -0.2815092 1.2456971 0.032454763 0.11435392 0.11416718 0.08604353 -0.7287827 -0.007909784 0.13140053 0.08875001 -0.64006734 0.25358295 -0.045005675 -0.80089337 -0.07778717 -0.48442912 -0.06772859 -0.20767751 0.261049 0.116842225 -0.012928841 -0.8369522 0.1193193 -0.40020865 0.05887491 0.11366696 -0.37404054 -0.25171453 -0.46986642 0.25126427 0.20432067 -1.0284235 0.04135814 -0.49696666 -0.2860046 0.37599653 0.3829021
YoureAnAsshole 0.2932681 -0.25049385 0.10406721 0.02326558 0.490338 -0.23912074 0.39791298 0.2999127 0.14246897 0.06864269 0.50044227 -0.2429101 0.60546696 0.21026453 0.18046835 -0.41886932 0.047614105 0.33019826 0.40705186 0.076097585 0.63174635 0.0041920156 -0.45591527 -0.122828916 0.7441348 0.81533337 0.71551174 -0.4005121 0.35320038 -0.15976273 -0.09906082 -0.7051582 -0.31730828 0.43547997 0.45061862 0.5748891 -0.3581899 0.2389383 0.20401247 0.08293075 0.2078858 0.45493302 -0.19334626 -0.43843448 -0.68553126 -0.014584738 0.19136937 0.07225299 0.23888019 -0.07220093 -0.77985436 0.4948704 -0.2584523 -0.098150335 0.31449613 -0.08503609 0.7698138 0.23309325 0.29139864 -0.90201485 0.19444863 -0.10174139 -0.4172774 0.033143323 -0.3678427 -0.01564178 -0.0070229215 0.3902753 0.81093544 0.053688105 0.28826225 0.9344141 0.41697794 0.81158864 -0.01767007 -0.7893239 0.101619385 -0.58364075 0.44952682 -0.23973745 -0.223531 -0.05797811 0.09628901 0.19601996 0.47890761 0.2131973 1.1464534 0.007717542 -0.59479475 -0.35672566 -0.28096542 0.6051142 -0.008643966 0.11059435 -0.32111782 -0.6957085 0.22706108 -0.3335636 -0.077960424 0.041943204
AreWeInFlorida -0.33700636 0.41535813 0.07801309 0.20711938 0.025656424 0.101135574 -0.22246094 0.15041679 0.33745575 -0.057797853 -0.57509685 0.018412786 0.4357157 -0.6554489 -0.2896531 -0.72036445 -0.0891062 -0.25774294 -0.4136086 0.5655336 0.21245953 -0.27575257 0.5442562 0.30828634 0.2786871 -0.20118819 -0.029283306 -0.29596823 0.57622385 0.46769193 -0.07410441 0.7687565 -0.11016063 0.4830273 0.40554985 0.22567971 0.30939522 0.25698012 -0.5998461 -0.5100175 -0.11693506 -0.16500627 -0.29480895 0.2460535 0.21735099 -0.25343904 0.20771699 -0.19097461 0.3320383 -1.2475595 -0.14192154 -0.08981032 0.3419395 0.69028026 0.04806366 -1.7844831 0.12622267 -0.51714694 0.76905364 -0.06976624 -0.062111273 1.0819334 -0.16159602 -0.53456306 0.6457713 0.12672813 0.0025794173 -0.30123937 0.5809599 -0.12103878 0.3568466 -0.44796243 0.5356453 0.08265247 0.33387297 -0.08340411 -0.070696525 0.13941021 -0.03515832 0.21442169 0.157837 0.13916452 -0.048613068 0.15815741 -1.4871927 0.25194183 0.14084604 -0.48269406 -0.7152765 0.23834781 -0.089881994 -0.5578229 0.083319955 -0.2002418 -0.5118752 -0.19023003 -0.35935614 -0.22637077 0.6118051 -0.04988922
ALLOFYOUIsADifferentColor -0.2420121 0.40532404 0.23707391 -0.1689226 -0.95327437 -0.35140568 1.0648308 0.17471969 0.24511404 -0.6482036 0.31858757 0.3355328 0.08307179 0.4927488 0.11793755 0.33268493 0.45011824 -0.9381882 0.24624932 -0.30847037 0.19419034 0.04425502 -0.6488422 0.7531329 0.2902209 0.4554875 0.14201266 0.23714513 -0.25493935 0.25440067 0.07255409 0.42164266 -0.04988066 0.1704847 -0.22225332 0.25541374 0.6175676 0.1452689 -0.29054356 0.31799018 0.13428853 -0.49937913 0.03506679 0.0052598394 -0.39067534 0.005733607 -0.6768923 -0.54550487 -0.25517148 -0.057750117 -0.39078468 0.24721172 -0.40588295 -0.2548888 -0.24863005 0.49993727 0.20986313 0.7995512 -0.23852733 -0.59030086 0.87927055 -0.23103707 -0.29969627 0.73793733 0.27426142 -0.07465596 0.46140537 0.06924984 -0.30789372 0.32654476 0.430012 -0.35171005 -0.63103914 -0.26412606 -0.7303985 -0.74337125 0.15692872 -0.061115857 -0.77330834 -0.5323292 -0.74224293 -0.69007236 -0.08150812 0.09463764 -0.24803181 0.69673216 -0.16943327 0.48177788 -0.34222168 0.8654089 0.46464428 0.0092899315 0.07235806 -0.31862578 0.5377079 -0.4474927 0.2010907 -0.31002134 0.4469863 -0.08965527
IfYaSmell -0.07318382 0.7912364 0.80152935 -0.37733677 -0.5443795 0.45062107 -0.18191226 -0.0010315687 0.18427755 -0.10314529 0.064898916 -0.14659801 0.34519997 -0.55245215 -0.3546227 -0.35046408 -0.09883755 -0.0011871408 0.14537914 0.558683 0.3146024 0.5478045 -0.04094372 -0.2021434 0.07299088 0.52617884 -0.4391561 0.18624003 0.055868834 0.29391053 0.15581992 0.20441963 0.28497195 -0.36871627 0.16636525 0.45278317 -0.52570003 0.45803195 0.42766985 -0.639298 -0.1108879 -0.16980615 -0.15742601 -0.32956555 0.10196832 -0.2251626 -0.19058476 0.3998659 0.33299872 -0.102532 -0.38188526 -0.48647645 0.5056843 0.3466961 -0.19444703 -0.93827695 0.046324782 -0.14122084 0.64341706 -0.5554882 0.32288155 0.12888008 -0.84001213 -0.3230854 0.74164915 0.04927669 0.19697277 -0.19036649 0.13948637 -0.40132552 0.23803999 0.014867648 -0.21889552 -0.42075482 0.3257479 0.4833466 -0.062159713 -0.17393407 0.05148811 -0.141454 0.23858786 0.5835365 -0.5585498 0.5007878 -0.746985 -0.31906375 -0.34181774 0.08133769 -0.7788396 -0.46426827 0.2003253 0.13274519 0.4705726 -0.07332393 -0.85888153 -0.6810676 -0.51410013 0.04294191 -0.16643369 0.29958716
the305 0.016042732 0.041952897 0.23786546 -0.6121155 -0.46865997 0.20207372 0.08068197 0.06516069 0.4117991 -0.13017835 0.12176905 -0.14144991 0.07785993 0.57817113 0.32838362 0.44057208 0.20865758 0.29389828 -0.21112822 0.1492112 0.3193473 0.29665518 -0.16852461 -0.45214167 0.13449036 0.93065524 -0.3050722 -0.37208137 -0.13534935 -0.30444098 0.22160888 0.32723036 0.3743678 0.2933148 -0.2817546 0.1450953 -0.32369858 0.51820594 0.033902228 -0.5997047 0.20481636 0.07716202 -0.08710813 -0.3924015 -0.40271088 -0.15919752 -0.24848567 -0.06695988 -0.37096238 -0.36373022 -0.20118967 -0.08760804 0.11654698 0.6215817 -0.54875433 -1.331645 -0.1579416 0.5936297 0.8773566 -0.03460043 0.57124543 0.50510025 -0.39581105 0.26440108 0.42078736 -0.15139067 0.62782705 -0.07527961 -0.13426459 -0.49624714 -0.39095742 -0.22905609 0.30985156 -0.16341768 0.0154761085 0.45249537 -0.33048853 -0.13270839 -0.5384684 0.18454117 0.2658732 -0.4503585 -0.04270911 0.13971794 -0.71280533 -0.41516122 0.05646249 -0.37580723 -0.0122080585 -0.21823007 -0.08764501 0.0321558 -0.06388385 -0.2787462 -0.38584492 -0.4612225 -0.31979352 0.015540354 0.50263643 -0.010548501
sundaycheatmeal 0.18360837 -0.0727281 0.30043027 -0.585389 0.08371963 0.09568663 0.039007865 -0.06113185 -0.09635197 -0.33935493 0.22366068 0.21666478 -0.033141207 -0.09158632 -0.22284067 -0.034568675 0.21470518 0.01423761 -0.33624735 -0.052495763 0.1553702 -0.14107114 0.2076311 0.18689744 0.34847894 -0.101382315 -0.13784786 -0.6964512 0.0002570295 0.21772373 -0.13937938 -0.021760348 0.06558799 0.28415614 -0.06152158 0.059342444 0.13748626 0.5909084 0.32067785 0.013642338 -0.37777632 -0.22523512 0.048074063 -0.19271971 0.24127169 0.09559475 -0.2532306 -0.6690942 0.087327205 -0.0525257 0.17469263 -0.13902861 0.26806584 0.5342545 -0.45095736 -2.0074747 -0.11492167 0.2044698 0.68567944 0.20890772 -0.38253537 0.7015182 0.14686625 -0.13345654 0.3324482 -0.2642283 0.46469757 0.2958625 -0.30510905 0.31437725 0.08083473 0.46897 -0.29613927 -0.15444006 0.4417824 -0.0007717404 -0.14913414 -0.021083096 -0.5944497 -0.03507543 0.27415964 0.27175963 -0.09490145 0.0009681139 -0.69592375 0.06988747 -0.36877382 -0.13110562 0.10495136 -0.35115466 -0.03781235 -0.10243842 -0.2754915 0.21926323 -0.3248658 -0.0058836015 -0.15670796 -0.71797043 -0.026504233 0.11552317
barnyardmuthafucka -0.1122995 0.32638454 0.6161793 -0.23157495 -0.026287457 0.2643479 -0.10175457 -0.083558 -0.33698454 -0.2010664 -0.24623986 0.04442423 0.31230325 0.14559087 0.093305714 -0.333442 0.3389232 0.064719945 -0.047156002 0.86413187 0.05459768 0.17937556 -0.022692228 -0.08954016 0.3321728 0.36417785 -0.2778225 -0.7162324 -0.32271582 -0.0040857974 -0.42136562 0.62719786 -0.021400193 -0.10808919 0.20516384 0.25750136 -0.21333939 0.4159017 -0.07589164 -0.4235968 -0.29845536 -0.046347916 0.36659646 -0.41036043 -0.14542903 -0.030255206 0.30112103 -0.2938579 0.0060340944 -0.7845208 -0.019808702 -0.5762035 0.28751776 1.3347847 -0.14177643 -2.719577 0.17405753 0.0069999928 1.5383093 0.35955912 0.03821397 0.78763795 -0.4803959 -0.31086305 0.9850558 0.12325148 0.81297266 0.11210636 0.2438034 -0.3192122 0.17584924 -0.27572033 0.14347225 -0.10936373 0.5452006 0.0053625936 0.06936294 -0.21865459 -0.7660976 -0.062119316 0.24137153 0.45708022 -0.45290035 0.19251293 -1.42826 0.0032729034 -0.09895769 -0.42222938 -0.11475304 -0.7297756 0.035959568 -0.3527209 0.16737558 0.21606104 -0.3461765 0.1954425 -0.07663899 -0.8620755 0.33685833 0.581449
cheatmealsunday 0.09125191 0.09568385 -0.070716724 -0.42747542 0.27465194 0.17231372 0.00058441487 0.02295217 -0.26453823 -0.070735484 0.19672345 -0.09660672 0.29382393 0.4868508 -0.089576505 -0.019527175 0.22354782 0.28083515 -0.09573278 0.0445977 0.18648276 -0.36569458 -0.04099829 0.017294494 0.038264167 0.52986664 0.1222947 -0.40943322 -0.38669798 -0.37092564 -0.21162763 0.23161042 0.3893417 0.20835435 0.32705835 0.07314081 -0.013046575 0.48955107 -0.09818069 -0.1858447 -0.13956176 -0.20144464 0.23506443 -0.23620322 -0.3282789 -0.037678942 -0.3493027 -0.27710357 0.4652861 -0.6412336 0.16408417 -0.42174008 -0.21019521 0.22556965 0.029699106 -1.8252524 -0.32572305 0.023328759 0.23492138 0.53563184 -0.0843346 0.40683326 0.13992214 0.08631207 0.013686588 -0.3986908 0.5703659 0.33358118 0.15196384 0.36834905 -0.17628972 -0.06995196 -0.3034746 -0.2069401 0.020377472 -0.35801405 -0.21508288 -0.01202036 -0.73814124 0.1739129 0.34708193 0.15591861 0.49086764 -0.022190982 -0.88220435 -0.21099617 0.090510234 -0.3504005 -0.11440417 -0.5649393 0.07089061 -0.020988002 0.31989318 -0.109660186 -0.18542965 0.26155338 -0.11683225 -0.17252801 -0.19757144 0.1148883
ironparadise -0.2721209 0.3434462 -0.57853645 0.34426096 -0.040859632 0.01207045 0.12272291 0.4850705 -0.2651947 0.30614963 0.17684248 -0.1638302 0.77274734 0.10614723 0.1311485 -0.16730171 -0.5830944 0.04030479 0.6097456 -0.55505913 -0.17113768 0.43904465 -0.038949255 0.01355869 0.5254088 0.32685304 -0.34837943 -0.34465033 0.14634177 -0.80754584 -0.1557234 -0.0051513496 0.49914515 -0.17915668 0.1523787 -0.37672934 -0.20302112 0.14994091 0.2971557 -0.38922265 -0.17162918 -0.29615968 -0.8147671 0.3989361 -0.3616164 0.20919767 -0.24497001 0.12774834 -0.31743807 0.25756702 -0.7563258 0.37306908 -0.17356145 0.5381927 0.008272416 -0.68295 0.56082517 0.0742622 0.6779553 0.26028776 -0.099273294 0.29270896 0.1886451 0.64300513 0.19706696 -0.10340241 0.34177345 -0.021829007 -0.4842401 -0.070946254 -0.0025996156 -0.13849302 0.74400264 0.37701365 -0.13276488 -0.15402661 0.27109963 0.3957841 0.49045745 -0.20189545 -0.2527671 -0.45862213 0.3019127 -0.081736244 -0.29466003 0.1871332 0.5433964 -0.3102684 1.0882764 0.2861174 -0.18713115 0.3121124 -0.65101755 0.15302673 0.3288396 -0.7570983 -1.1422278 -0.37940165 -0.055819787 0.34426445
rackcity 0.1250631 -0.09325274 0.52778196 -0.9523588 -0.13806716 0.17606004 -0.041481633 0.4375581 -0.7809629 0.7584128 0.2600534 -0.24059533 0.59657294 -0.17980175 -0.373804 -1.048397 1.0011042 1.0121969 0.5411759 0.019621855 0.45201048 -0.05236375 -0.50133383 0.22784697 0.7741781 1.3340877 0.02029374 0.0018629793 -0.20318566 -0.49584016 0.03105324 0.8012475 0.63473797 0.10106351 -0.7919213 0.20568302 0.0254875 0.3968955 -0.43240976 -1.1904085 -0.35484526 0.17196694 0.13451748 -0.45334637 -0.13404933 0.019171827 0.5739915 0.8150923 0.23389028 -0.41474497 -1.1688181 0.24454494 0.53841084 -0.84521425 -0.093576856 0.20958248 0.8372832 0.36763966 1.1787361 0.31407422 -0.9708316 0.16931336 -0.26834592 -0.041279692 -0.78752255 -0.43295804 -0.15467657 -0.22132628 -0.3157652 -0.08505906 -0.42172736 -0.19527364 0.33797988 -0.26433513 -0.4629512 0.64903015 0.8259794 -0.07888189 -0.52021813 0.40758544 -0.4704537 -0.97477007 0.42381203 0.3058484 0.86125886 0.108392894 0.07841654 -0.18783535 0.6133054 0.6489417 -0.020248488 -0.07460581 -0.20230338 -0.40622073 -0.19264759 -0.4173199 -0.09303734 -0.019617245 -0.09864107 0.2047599
bringyourfunderwear -0.20843434 -0.20930353 -0.43349198 -0.22799969 0.38558 0.111676015 -0.16703387 0.023411863 0.6958486 -0.024039535 0.17175055 0.56073636 0.21416248 -0.22025289 0.35059807 -0.548036 0.28148544 -0.5516099 0.17865507 -0.1424308 0.7212301 -0.03284041 -0.040799238 0.61258024 -0.15431759 0.26943156 0.49521747 -0.65344137 -0.1895435 -0.36779267 -0.77587736 -0.02738853 0.64520365 0.44150126 0.0597938 0.050926507 0.5044551 0.6289556 -0.21432723 -0.85805875 -0.52663404 -0.17073861 0.04238118 -0.46801445 0.180225 0.26259398 -0.8729377 0.312117 0.19753702 0.26039732 -0.775371 0.07320945 0.6101476 -0.06310213 -0.36726236 -0.31243274 0.32558566 0.62463224 0.6669425 0.23332876 -0.12792085 0.16185614 -0.35663486 0.5293936 -0.5786359 0.41962868 0.092699304 0.92218304 0.2889945 0.61781645 -0.2993851 -0.18392268 -0.11179263 -0.5189358 -0.5450369 -0.21974982 -0.3719074 0.5172381 -0.47847128 0.10387993 0.24000904 -0.23317622 -0.097253054 -0.681166 -0.36013103 0.5896089 -0.8248784 0.3714669 0.44525883 0.3976301 0.36162505 0.16106817 0.47719723 0.8716982 -0.39303517 0.28416696 -0.30683357 -0.6663551 0.027978225 -0.23995173
ShaunRoig 0.6600826 0.74382555 0.9775923 -0.031535465 -0.33569682 0.18301824 0.012864849 -0.49576703 -0.2568499 -0.6521776 -0.59202385 0.44210547 1.2148789 0.18065484 0.15507904 -1.0204834 0.27775726 0.18133561 -1.1252701 0.3417383 0.40902922 -0.02087226 0.112929866 0.07937029 0.38618004 -0.21277331 -0.40680856 -0.051367454 0.64263844 -0.5678201 0.1660269 0.10041003 -0.007362401 -0.0020416908 0.6139208 -0.28562936 -0.064222194 0.4814199 0.2317357 -0.26007357 -0.66679865 -0.15053226 0.29903585 -0.14498627 0.029580554 -0.2376971 0.26841006 0.19039275 0.13849829 -0.37050074 0.075663775 0.033504464 0.76560307 0.2521308 -0.34240142 0.049118668 -0.6112056 -0.52187586 0.45402172 0.3791908 0.38174576 1.4737043 0.8786216 -0.51703423 0.88756776 0.004797021 -0.32842368 -0.07095019 0.33758467 -0.8430766 -0.2952355 0.5074148 0.16325398 -0.9302589 -0.018989772 -0.50991184 -0.7082758 -0.32894498 -0.7906664 0.5520179 -0.48394608 0.5743841 0.32564858 0.36651063 -1.1050345 0.20317134 -0.34973478 -0.7716354 -0.49947715 -0.000109006134 -0.082029074 -0.4685418 0.8875836 0.37250692 -1.1048238 -1.3568226 -1.2561107 -0.6601211 0.098161876 -0.28063843
AnointedS 0.2900947 0.42632204 0.1601016 0.021180855 -0.18163954 -0.0020947054 0.52012974 0.5371914 -0.67757595 0.8432639 -0.47511154 1.0002123 -0.08034081 0.67932934 0.7893147 0.99872637 0.33377308 0.37179074 0.54620576 0.5326912 -0.12732047 -0.8965572 0.61049306 0.38643 0.20560546 0.23386091 0.8876133 -0.49603233 0.20551614 0.17795429 0.8634033 0.24902944 -0.40130672 0.275034 1.4676117 -1.3755256 -0.09617671 -0.43607253 -0.04993701 0.037721537 -0.376406 -0.41610327 -0.32366574 -0.5443001 -1.02557 -0.26346156 -0.0038918306 -0.11489089 -0.63986325 -0.29467976 0.37557018 -0.13866805 0.5624006 0.4265893 -0.38116363 -0.7194297 -1.6157647 -0.77703834 1.4411672 0.85041946 -0.40923056 1.3798428 1.2339493 0.25517198 1.5890414 0.27073756 -0.21319 0.8198589 0.3324219 0.13693541 -0.04264333 1.1274053 0.78322035 -0.42054105 0.5955877 0.0062362473 -0.2527672 -0.89647263 -1.0325397 0.19228284 0.36468905 0.505402 -0.27912226 -0.028857846 -1.6371051 0.52388656 0.88858306 -0.058142718 -1.3484322 0.57009876 -0.13990986 -0.5571007 0.11357387 -0.22692291 0.9647824 -0.60449994 0.38748187 -1.2680558 -0.13204971 0.054673877
BeatboxGenius 0.77676404 0.27954346 -0.601554 0.104283 -0.29911897 0.8900552 -0.20354013 0.31046265 -0.35834727 -0.08139679 0.42903492 -0.04185804 0.4883636 1.3264468 -0.12887777 -0.89159334 -0.025228916 0.75601166 -0.8574499 1.0982103 0.051536348 0.15795256 0.1807185 0.8279227 0.5351541 0.07556023 -0.19547167 -1.0686272 0.16553137 0.6157392 0.34247002 0.045100678 1.0901351 -0.27227402 -0.11336561 -0.29414928 0.49976194 0.6454802 0.5178077 -0.19723712 -0.51495683 0.5253296 -0.11936974 -0.65393925 0.2937093 -0.5072973 -0.6345489 0.34594613 0.91451824 -0.15590361 -0.7365723 -0.3490303 0.3203588 0.45368552 0.28498656 -1.6562208 0.039106052 0.019242493 -0.15881115 0.9497359 0.043154765 0.79064345 0.45966503 -0.48479435 0.1977134 -0.53444684 -0.71591705 1.0351648 0.382766 -0.15216243 -0.035237912 0.37231493 -0.38529643 -0.47430846 0.26392165 0.49373668 0.3406757 -0.46893656 -0.048492283 -0.34539315 -0.60264057 0.6028944 0.43267024 0.6870733 -1.7286952 -0.7412325 0.020015351 -0.16869298 -0.09740244 0.07396387 -0.34711623 -0.20928822 0.5797725 0.22369029 -1.1899858 -0.80071616 -0.8031367 -0.5084094 0.033832308 0.28529894
HumanBeatbox 0.16231124 -0.012892932 0.22804777 -0.45913747 0.05149105 0.31471193 -0.14071336 -0.06131592 -0.44376525 -0.37632692 0.13870592 0.13255271 -0.0799623 0.3067517 -0.011423573 -0.017649565 -0.02752532 0.4095803 -0.5656763 0.013930178 0.32278582 -0.084675565 0.16516864 0.2980344 0.7197367 0.49765763 0.030452922 -0.38528973 0.33301577 -0.41919044 0.18413778 0.4624362 0.29922208 -0.0100327255 0.30509263 -0.18861265 -0.2187282 0.25874367 -0.1607857 0.2524971 -0.33105808 -0.52614266 0.35241055 -0.53523505 -0.4676823 0.2272229 -0.07339433 0.05681655 0.037279878 -0.681215 -0.17089233 0.046473242 -0.1578705 0.98608375 0.39128566 -2.0328364 -0.27787113 -0.056572106 0.92924654 0.27056926 -0.049038503 0.45614085 -0.2966852 0.21972871 0.43886754 -0.23594627 0.756205 0.52110654 -0.4158172 0.0044065565 -0.22630545 0.0658964 -0.52537394 -0.20892476 0.15731606 0.0046788803 -0.5335248 -0.028178407 -0.32666224 0.18558478 0.64383453 0.0638813 -0.14012977 -0.12364859 -0.8768979 -0.6302546 0.1806302 0.067315385 0.05732647 -0.18082781 0.20845382 -0.1715655 0.25121102 -0.099904835 -0.5489708 -0.09869516 -0.08051931 0.17062081 0.23972718 -0.037132956
Beatbox -0.08182219 0.109018706 -0.2404361 -0.29191425 -0.324199 0.4393861 0.20628186 0.9554521 -0.5002784 -0.041159656 -0.14237657 -0.024050627 0.5484667 0.4654729 0.13380182 -0.3479543 0.22125901 -0.03105607 -0.4048359 0.327964 0.12975605 -0.6063708 0.426168 0.3984356 0.5323955 0.323197 -0.26395762 0.09160392 0.18644291 -0.59673405 -0.5021987 -0.112089716 0.81679356 -0.19270404 0.20032075 0.2259694 -0.13754702 0.13231654 0.011569987 -0.2621397 -0.22428955 -0.07546694 0.65857154 -0.0361585 -0.18977642 -0.44254488 -0.74732536 -0.4800128 0.5273 -0.75174576 -0.008199286 -0.36647245 0.4415301 0.63635063 -0.7415802 -2.590023 -0.47246403 0.41157955 1.4189125 0.628165 -0.44161057 1.3386462 0.17403524 -0.38461694 -0.12908985 -0.10435117 0.1853732 -0.36626887 0.25238532 -0.49298954 -0.4096293 -0.5154391 -0.29495814 -0.19501537 -0.17776582 0.6248869 -0.028868403 -0.56823134 -0.62669635 0.04598162 0.047669854 0.008538254 0.9806367 0.084538125 -1.2520971 -0.41558138 -0.2016852 -0.51761776 0.26782703 -0.48875755 0.21828581 -0.1689339 0.5828581 -0.18612014 -1.0406557 -0.2668518 0.3492768 0.21538065 -0.080714494 0.17305672
Beatboxer 0.12786922 -0.27099544 -0.3058689 -0.7530435 -0.086231284 -0.06448932 -0.055929627 0.2932413 -0.49687895 -0.44764954 0.15945572 -0.36217886 -0.007344994 0.3356946 0.22190769 -0.08067727 0.23186383 0.37971497 -0.8302749 0.4356788 0.12068487 -0.09490915 0.9086226 0.2387835 0.741724 0.276937 0.15121654 -0.36835423 0.030309435 0.08105857 -0.21895215 0.8482925 0.14140289 -0.039012007 -0.090593345 -0.05608684 0.08778035 0.51795167 -0.09781725 -0.1301097 -0.2716975 -0.13114716 -0.029301558 0.08399547 -0.18261434 0.09368632 -0.13210899 -0.50395477 0.47013643 -0.34325874 -0.069713235 -0.06501634 0.19089504 0.40692896 -0.14118434 -1.6956618 -0.07079458 -0.13594173 0.27206942 0.76308376 -0.023748843 0.4330622 0.07982157 0.36865035 0.31642985 -0.29522997 0.6806666 0.4085548 0.49385944 0.14819252 -0.339923 -0.09356054 -0.32267737 -0.5207278 0.39927897 -0.21468778 -0.3315725 0.32983705 -0.45667097 0.18581654 0.270596 0.14218883 0.15134919 0.19244803 -0.7405679 -0.045172293 0.10893795 -0.4318795 -0.10974983 -0.23259164 -0.21383414 -0.6522626 0.17130493 0.18991151 -0.5295341 0.059262704 -0.2719619 -0.22206166 0.17393552 0.14040902
VocalPercussion 0.12547702 -0.26849744 -0.28037858 -0.751625 -0.0922915 -0.09750003 -0.04626149 0.30286592 -0.5085021 -0.48871282 0.20474213 -0.3646667 -0.007109342 0.33324438 0.22743437 -0.10507273 0.24829006 0.38389117 -0.84985214 0.43682244 0.13018753 -0.10817435 0.9336858 0.2704467 0.7469856 0.26885378 0.17624332 -0.3359864 0.04585008 0.06988208 -0.2494532 0.86517864 0.10837288 -0.06616181 -0.12870336 -0.05892033 0.07808028 0.5310037 -0.12231938 -0.10269221 -0.27087176 -0.1586956 -0.022477088 0.11188142 -0.14008918 0.08438311 -0.1211715 -0.51560223 0.44784632 -0.33772546 -0.069615506 -0.07694646 0.19105555 0.42818645 -0.15360981 -1.6756986 -0.07620797 -0.1527366 0.23421992 0.7434459 -0.02596276 0.3925213 0.072043926 0.38331243 0.3172631 -0.27135655 0.66169256 0.39660224 0.51302963 0.14011955 -0.35286027 -0.118792474 -0.34758002 -0.5017441 0.41349295 -0.23214495 -0.3437872 0.36298284 -0.46499825 0.18804477 0.28210217 0.14870253 0.14561225 0.20056489 -0.6740036 -0.023748463 0.11495804 -0.45235628 -0.06940674 -0.20896833 -0.24649814 -0.63397986 0.14940678 0.21804975 -0.5500548 0.042009894 -0.26047158 -0.21115123 0.17097156 0.11310102
OneManBand 0.4995322 0.2526696 0.5628188 -0.7615096 -0.22739178 0.15443823 0.055776384 0.13393487 -0.5640102 0.043184977 1.1704483 -0.28801998 0.45436722 -0.8215967 0.5537771 -0.69508827 0.3421719 0.23961172 0.084757715 0.12939553 0.9531554 -0.66336054 0.6444572 0.6319833 0.49279064 0.19981635 0.8440972 0.37300876 0.62367773 0.25125214 -0.6020117 0.24156123 -0.14335628 0.27986205 -0.14864533 0.59103453 -0.4434676 0.17579414 -0.3404379 0.8036691 -0.11506859 -0.28810984 0.29841396 -0.3909754 0.08071299 -0.3724499 -0.35748607 -0.30156606 -0.70145136 0.5681582 -0.65496314 -0.06948966 -0.14814323 0.71551913 0.10690863 -1.0223702 0.3198972 -0.31723842 -0.3845777 0.29244804 -0.17193231 -0.10968236 -0.37225446 0.48459694 -0.2397498 -0.44617537 0.14157422 -0.13551371 -0.035416625 0.0022922684 -0.12550464 -0.2560721 -0.7158672 0.68398035 0.21314237 0.17235759 -0.5008997 0.3211285 -0.864188 0.1778471 0.025339445 -0.32163638 0.7780874 -0.05294054 -0.049450744 -0.32678136 0.28796574 -0.3682516 0.04248876 0.2220728 -0.005376721 0.17913544 -0.29032966 0.7789204 -0.43333185 -0.35903594 0.118217 0.45228904 0.54570186 -0.32501543
TheRock 0.36773628 0.30856255 0.8915307 -0.15577006 -0.053586643 -0.2473886 0.18995893 -0.0806917 -0.20609207 -0.6423516 -0.060899604 -0.11903653 0.44383034 -0.021162989 -0.47618213 -0.37370035 0.0056325677 0.08207897 -0.8269913 -0.017810004 0.505916 0.014095366 0.2799853 0.61816895 0.7304511 -0.17378554 0.5534416 -0.5375627 0.45590395 -0.24493612 -0.27175754 0.49383703 -0.007390047 -0.17029418 0.7792097 -0.30695665 -0.34996605 0.55803037 -0.46136245 0.102836415 -0.75238234 -0.36930957 0.3138415 -0.46803698 -0.22279721 0.1485588 -0.3755171 0.045106612 -0.13694908 -0.21675527 -0.7479902 0.25078428 0.01863913 0.6149829 0.48696136 -1.0015122 0.19780257 0.6507085 0.62021196 0.71559155 -0.18214063 0.5465047 0.046460986 -0.32858896 0.65664846 0.0014060424 0.14410263 0.12880506 0.08479554 -0.29186118 0.14867227 -0.054938436 -0.24176884 -0.28800073 0.2086252 -0.19746305 0.016523315 0.13314404 -0.78009874 0.09084788 -0.1959618 0.12345796 0.19835357 0.5268154 -0.2589538 0.42793983 -0.84454966 -0.2105501 0.24164735 0.010990603 -0.18251124 -0.23261715 -0.025503777 0.43194377 -0.6689456 -0.6261375 -0.5824873 -0.15401432 0.17445973 0.030388229
DwayneJohnson -0.22361153 0.60393625 0.043306354 0.23553036 -0.059620153 0.20332286 1.1387663 0.4199889 -0.06744229 -0.5116861 1.1320658 -0.24251586 -0.607095 0.47191134 0.7051266 -0.4536003 0.85936594 0.2597039 -0.32653797 0.7071171 0.5059634 -0.21851116 0.559602 1.1416816 0.5827695 0.4127609 0.8444708 0.017295761 0.42064953 -0.18649131 -0.37832054 0.8971691 0.010985776 -0.24246195 -0.5864937 0.17259635 -0.052444812 0.9751881 -0.095771134 0.056212302 0.7400615 -1.6160883 0.28951037 -0.61140215 0.5107209 -0.6199963 -0.38016278 -0.4220165 -0.071237944 -0.6426201 -0.18111363 -0.54786015 -0.40331936 1.58219 -1.0985849 -2.7899094 -0.29484522 -0.65498877 1.5840352 0.5404527 -0.2936536 0.08431578 -0.89260113 -0.03247007 0.85972005 0.10885116 -0.8774848 1.0349799 0.6443884 0.31638768 -0.6120901 -0.13626587 -0.3012819 0.85924786 0.39206263 -0.0482779 0.06970351 -0.102036856 -0.83979994 -0.12805738 0.3090742 -0.6274382 -0.7365647 0.3269747 -0.2768526 -0.079494804 -0.23010035 0.14733072 0.50326544 0.50183517 -0.7394024 0.74205744 -0.5957104 0.50963473 -1.16711 -0.36872488 0.2668706 -0.093195945 0.4635004 -0.8000392
ProjectRock 0.08224038 -0.21978202 0.06642924 -0.5630313 -0.24223553 -0.30207115 0.23106655 0.28366965 -1.096043 -0.6788182 0.16652183 -0.20685989 -0.042976372 0.18489666 0.34347415 -0.0877024 0.19242762 0.32946396 -0.72143924 0.31599852 0.59642553 -0.015539469 0.46133825 0.44677415 1.0654399 0.04613623 0.40426 -0.5262489 0.27820003 -0.2045408 -0.4387652 0.70770943 -0.016761994 0.32782418 0.19119868 -0.36321273 -0.08529172 0.57210135 -0.012440915 0.108715214 -0.13629852 -0.41731942 0.30063224 0.5407387 -0.3408538 -0.056656532 -0.15565254 -0.57641155 -0.07112789 -1.1695509 0.49249673 -0.4132413 -0.022548227 0.25908884 0.051325064 -2.0883327 -0.49436375 0.25075573 0.27064487 0.02446663 0.15266886 0.2106996 0.058103148 0.46103066 -0.014685352 -0.3936655 0.59131145 0.66243196 0.23028374 0.0969535 -0.07004716 0.4558166 -0.71221024 -0.20869622 0.6047805 -0.5333975 0.099845715 0.0869197 -0.38095543 0.21430999 0.28106493 0.09463547 0.3045642 -0.13283151 -0.22142838 0.14041623 0.012363216 -0.25218898 0.36880514 0.026968801 -0.5017732 0.07357001 0.005538867 0.3932858 -0.6854447 0.005201263 0.22057225 -0.1441271 -0.5839739 -0.15147002
IronWill -0.16707015 -0.12735008 0.25101814 -0.3709638 0.15986095 0.4933542 0.1532895 0.3703289 0.0003928518 0.38622668 0.48731303 -0.51601356 0.2822085 -0.10448583 0.15127008 -0.080406964 0.03803006 0.4421186 -0.2330684 -0.08866338 0.4090856 -0.18730433 0.5625862 -0.07059549 0.61364853 0.04113121 -0.18138342 -0.2780592 0.023376005 -0.06958456 0.06599464 0.25154215 -0.06318921 0.121771544 -0.03667874 -0.7057734 -0.1023039 -0.35958362 0.4471755 -0.28701213 -0.20766842 -0.31575695 0.039074033 0.12857483 0.13335857 -0.035465743 -0.019698322 -0.38504624 -0.2993772 -0.79076415 -0.055615008 0.17892103 0.074182905 1.1329112 -0.20999248 -2.0272102 -0.25028643 0.47040787 1.1357954 0.6845251 0.06033223 0.43416926 -0.036885686 1.1317867 -0.12772474 -0.041811205 0.23184837 -0.20458286 0.021819975 -0.13957801 -0.17898305 -0.03945564 -0.19598162 -0.2495395 0.14312725 0.22720695 0.08291288 -0.1586301 -0.62234247 0.20562133 0.79009885 0.4135781 -0.28854126 0.21810779 -0.86262023 -0.0719859 0.25359946 -0.5884026 0.017344674 0.24370255 0.3373473 0.3541668 0.00898816 0.73174256 -0.33635467 -0.9054633 -0.39617258 0.076505385 1.0265301 0.13456795
HardestWorkerInTheRoom -0.12823768 0.4011832 0.41942865 -0.41094834 0.18875043 -0.7989833 0.20851047 0.7542368 -0.37314674 0.12992282 0.0854742 -0.43414795 0.51290417 -0.446678 0.46547532 -0.8472005 -0.27914426 0.6504911 -0.45319664 -0.63830286 -0.44167182 -0.18241113 -0.23443408 0.8448286 -0.039979346 0.59055924 -0.105956264 -0.29405865 0.5188995 -0.19635691 -0.6604282 0.44173974 0.19015135 -0.7189721 0.09165845 0.42231017 -0.18797736 -0.18350103 -0.36729318 -0.14620501 -0.5149161 -0.25484088 -0.20781222 0.46437716 0.13124463 -0.3253395 0.13657767 -0.7947609 -0.27953398 -0.45085886 -0.47482067 -0.64263636 -0.1389812 0.6343076 -0.40756243 -2.109356 0.108109586 0.31899545 1.2443073 0.13313468 -0.39433408 0.91183066 -0.3914261 0.07655892 0.55063665 0.04505219 -0.37146398 -0.83299583 0.64572805 -0.81581223 0.49006656 -0.31461567 -0.9463909 -0.0038433482 -0.36639023 -0.14714424 0.35183144 -0.17510936 -0.7879625 -0.15807934 0.2898548 0.26208913 -0.48188204 -0.14247245 -0.0913876 0.31083474 0.527024 -0.24709825 -0.02516744 0.7182834 0.2675213 0.15232703 0.013370717 -0.0059188134 -0.9860128 0.14114647 -0.08852349 0.21948843 0.3542644 -0.52606356
SevenBucks 0.34207556 -0.11176255 0.16925013 -0.49998638 -0.3243292 0.2750728 -0.004591281 0.21294124 0.09380451 -0.7291081 0.82583594 -0.34659117 0.27910477 0.021737846 -0.19782467 0.29657525 0.1906185 0.12666628 0.03480643 0.2860577 -0.081875205 -0.09234575 -0.5414999 0.2822853 0.031477742 0.051352024 0.39319667 0.11660683 -0.0020926436 0.13127637 -0.25180438 0.783067 -0.2585298 -0.15458809 0.24986841 -0.063852966 0.095607415 0.12346781 0.2904732 0.61257386 -0.34657162 0.33745107 0.20905522 0.012959944 -0.18274733 -0.69954306 -0.26843432 -0.1830922 -0.04860537 -0.011126559 -0.33608514 -0.17517886 -0.02007035 0.4132382 0.25020614 -0.29856205 0.32833588 0.32983193 0.51726586 0.24073622 -0.22272988 0.47582626 -0.029066611 0.28706184 -0.024506537 -0.050605502 -0.107939176 -0.19571435 0.55811816 0.2804455 0.24601948 -0.09591118 -0.59393 0.5631407 0.04964461 -0.36786872 -0.13705342 -0.20589286 -0.21182723 0.093965486 -0.8185873 -0.43074492 0.45122474 0.14697295 -0.068013676 -0.164455 -0.13846828 -0.078980975 0.09674329 0.7788878 -0.028440252 0.069352746 0.017859306 0.107101485 0.17841193 -0.57175887 -0.25636873 -0.018420354 -0.07795938 0.08908274
ThePeoplesChamp 0.51371855 0.48682192 0.67819655 0.004677173 -0.6487182 0.80180806 0.5713133 0.18224064 -0.43403655 -0.17634538 1.0989642 0.22736087 0.55225694 -0.13770796 0.3671289 -0.23177469 -0.45627904 0.22696516 -0.36193958 0.12557891 1.2446057 0.028982997 0.2560263 0.8109862 0.5738215 -0.025784072 0.8192979 0.132116 -0.23617865 -0.3280907 -0.17173614 0.4784788 0.0915602 0.3007682 -0.23159382 0.698638 -0.25654325 -0.38112763 0.42280647 0.9307247 0.33463362 -0.7629942 -0.04732066 -0.492905 -0.10446625 -0.115461186 0.3070504 -0.6557368 -0.47884274 0.7610673 -0.43390185 -0.2427602 0.2661096 0.81574667 -0.9331778 -0.5959491 0.3812553 -0.42042908 0.13882737 -0.10188509 -0.205022 0.10342761 0.11524747 0.7297039 -0.6289666 0.2539259 0.15436402 -0.012538424 0.5248179 -0.19097741 0.09093419 -0.15411015 -0.27988046 0.36198446 0.4921768 0.44117934 -0.41714016 0.5015002 -0.6426681 -0.31475115 0.05292651 0.08450004 0.26367998 0.050191887 -0.37372088 0.062778406 0.5397637 -0.9643732 -0.003403289 0.4622263 0.43313152 0.7778525 -0.21503566 -0.3130075 -0.54310846 0.045621667 -0.34234557 -0.27255848 0.5706242 -0.56643957
IronWillCollection -0.12513213 0.07953094 0.9435434 -0.44709414 -0.033499453 0.3729 -0.39450213 0.5094448 -0.005705512 -0.26236156 0.3877517 0.09727368 0.25706995 -0.25804967 0.1082417 -0.098268904 0.027295798 0.505675 0.037228156 -0.022764174 -0.083176725 -0.5219133 -0.15716225 0.20759659 0.23451293 0.48003942 -0.20394276 -0.20439973 0.19301578 -0.10066919 -0.516259 0.20652491 -0.17128606 -0.18129094 -0.51364625 0.08144324 -0.11229974 -0.06525996 0.104386516 0.1658078 -0.29900727 -0.33512732 -0.028792456 -0.11587408 0.025272856 -0.08994287 0.3764394 -0.5201184 -0.2618515 -0.75348544 -0.061793327 -0.27164105 -0.013783593 1.0846899 -0.47421676 -1.8424692 -0.015533946 -0.10690732 0.9782505 0.34942913 -0.10373417 0.6577541 0.6223469 -0.18680239 0.33765158 0.35191783 0.2559619 -0.33188793 0.114013 -0.33000737 -0.10200653 -0.58848435 -0.621799 -0.030238241 -0.15620482 0.16214994 -0.2380748 -0.12333821 -0.7605648 0.12863082 -0.028987119 0.4542535 -0.38722932 0.24909416 -0.5241664 -0.020177295 -0.129442 -0.4625872 0.39564723 0.11027569 -0.16190946 0.30880156 -0.14729893 0.4308575 -0.0077428627 -0.40092203 0.08910016 -0.53287 0.5114206 0.31870583
UnderArmour -0.008480406 -0.08646907 0.5347956 -0.7487591 -0.46407333 0.48057565 -0.123140745 0.46447724 0.14820841 -0.9046749 0.5824219 -0.2450016 0.3281086 0.14636111 0.29041904 -0.04167197 0.06344777 -0.13346243 0.90969795 -0.096986465 0.28545365 -0.3745161 -1.0710701 -0.14405337 -0.15621172 0.9331921 0.21408853 -0.021226205 0.22639853 0.24255392 -0.16007803 0.723169 -0.015704457 -0.01872204 0.030306611 -0.32254878 0.043039992 0.50052583 0.97905105 -0.5575899 0.1631674 0.19696209 0.36199716 0.52144694 -0.49648193 -0.5580943 -0.4901102 0.20810187 0.063588254 -1.0922333 -0.13490042 0.19074439 0.30722976 0.2887574 0.15039381 -0.54111403 0.5771517 -0.25632644 0.34245852 0.39169145 0.011273101 0.10003101 -0.13949646 0.77059925 0.22213429 -0.06219291 -0.24975166 0.36426106 0.708787 0.07063395 0.57135755 -0.5935738 -0.818229 0.28125593 0.19246556 -0.30002007 0.13277517 0.036354158 0.1145197 -0.10480335 -0.5243148 -0.30112287 0.67715234 -0.03591498 -0.26948854 0.43200716 0.12920564 -0.46103737 0.053756252 0.30329496 0.38189796 0.8047141 0.17880565 -0.08019811 0.41464546 -0.6831829 0.18998902 -0.011462261 0.20332344 0.077532046
IgersOfNYC 0.07587323 -0.097850576 0.4734976 -1.0085471 -0.030123366 -0.01050564 -0.27057567 0.3452072 0.08358047 0.3181978 0.2700184 -0.16612177 0.44348451 0.0067507634 0.0814009 0.0951462 0.28082278 0.033306796 -0.063388824 -0.4262887 0.11667337 -0.07230224 -0.5447435 0.103507504 0.19615732 0.46687478 0.065769576 -0.47193545 0.054618742 -0.05440525 -0.20590897 0.19753489 0.31246486 -0.40666696 0.45621905 0.0057719294 -0.07652552 0.035658166 0.13469824 0.7221633 -0.31991932 0.04400235 0.52755904 -0.33177647 -0.42326474 -0.44211262 0.18117857 0.23971328 -0.0741152 -0.22761145 -0.87805474 0.2591854 0.030419065 0.71988153 0.5707772 -0.90908104 0.30396855 0.17852424 0.98469573 0.39683747 0.2357755 0.7212155 0.03869962 0.42930102 0.028510166 -0.14181592 0.085795775 -0.035741664 0.48515126 0.0500704 -0.011034838 -0.12634556 0.008329755 0.51402414 -0.20444065 -0.25862294 0.23258123 -0.08812618 -0.122190714 0.41441575 -0.49616554 -0.39397603 -0.33946502 -0.46681285 -0.040872306 -0.12094597 -0.124255635 -0.5311093 0.12081196 0.54985625 0.13658205 0.26555052 -0.0070682783 0.18252835 0.11260541 -0.12121947 -0.34108236 -0.095859915 0.194593 -0.12034696
HipHop 0.019629601 0.015172797 -0.12280603 -0.8585944 0.44346872 0.29396915 -0.025718393 0.2561463 -0.026533356 -0.36129448 0.08102762 0.08810974 -0.2208467 -0.34198314 0.91599035 0.07616396 -0.49446693 0.6822526 0.15476078 0.026220363 -0.020426145 -0.073764786 0.291419 0.830491 -0.042824 0.39094952 -0.08612931 -0.76456875 0.82125217 0.3551942 -0.34835997 0.22906302 0.2507841 0.49759752 0.4360977 0.08866506 -0.05730573 0.28124064 0.41940597 0.21575274 -0.15898676 -0.14472415 0.22359437 0.11854589 -0.20444669 -0.40400764 -0.3853267 -0.42379948 -0.03304214 0.11487016 -0.2674846 -0.122417666 -0.41445842 0.50254744 0.14155798 -0.8236973 -0.09264314 0.12758428 0.07722587 0.65957403 -0.16194169 0.49777758 0.27884787 -0.023981886 -0.32200098 -0.3823438 0.00578062 0.15912686 -0.54019636 0.25888973 0.27900404 0.53326577 -0.3887883 -0.14646934 0.44181246 -0.027698893 -0.27067882 -0.32219264 -0.6162891 0.48212105 -0.30897245 -0.31408447 0.27580357 -0.38265887 -0.3248563 -0.54332715 -0.29948026 0.030096283 -0.45369244 -0.52015 0.1000176 -0.15368097 0.13655956 -0.076261126 0.09383059 -0.11580533 -0.2254707 -0.3382692 -0.42531297 -0.1730114
BronxNY 0.008359873 0.037905462 -0.10997093 -0.8453191 0.46731827 0.31226316 -0.046784572 0.23904954 0.017040709 -0.3642495 0.038604382 0.0948622 -0.21634023 -0.33735594 0.917274 0.096443385 -0.5148427 0.6887981 0.1784831 0.037838187 -0.0371979 -0.04502501 0.26127237 0.7934971 -0.06379652 0.3753862 -0.110459514 -0.7631176 0.820798 0.35502696 -0.3365941 0.19775486 0.24101585 0.4914457 0.44150648 0.08380021 -0.06826723 0.28063998 0.4311453 0.20032619 -0.1458355 -0.13320905 0.22429642 0.10199775 -0.20876887 -0.3946964 -0.3800575 -0.3885425 -0.028784012 0.13038805 -0.29171687 -0.12276698 -0.43077078 0.4779271 0.15600674 -0.7338658 -0.060820892 0.12355533 0.033949047 0.628658 -0.144281 0.48901907 0.27623186 -0.053283464 -0.33040172 -0.36982855 -0.0051960303 0.16151975 -0.5765055 0.26209697 0.29706988 0.5506085 -0.345645 -0.13342008 0.44057813 -0.03153365 -0.26516268 -0.3430471 -0.58802766 0.48727417 -0.32042596 -0.3149445 0.2471955 -0.37038755 -0.32214633 -0.5531699 -0.32933125 0.042734433 -0.45606238 -0.5533559 0.080895945 -0.15139326 0.15421689 -0.11809392 0.11696107 -0.11382287 -0.21891311 -0.34684512 -0.45017973 -0.16012967
TheBronx -0.28985876 0.3671062 0.716217 -1.0305423 -0.2696799 0.49640903 -0.12963112 0.17862256 -0.1386765 -0.34802 0.14621516 -0.36014318 -0.04431352 0.0018861019 0.25514278 0.0002497998 0.15548255 0.8218441 -0.45575523 0.7540675 0.3849095 0.15472545 -0.03126331 -0.15549766 0.26554802 0.36293435 -0.10205249 -0.4946873 0.11689559 -0.75591654 -0.41111863 0.5316036 0.26141536 -0.100541696 0.16558881 0.094505586 -0.48336846 0.25419438 -0.031161832 -0.11927295 0.11870096 -0.10051424 0.091276206 -0.45551273 -0.45035115 -0.110542476 -0.15367454 -0.5822096 0.10063447 -0.8731775 -0.18874532 -0.38135824 -0.122882575 0.57780266 0.14461872 -2.3720627 0.10569673 0.5123735 0.6961319 0.3465724 -0.3008984 0.8743883 -0.5223412 0.00037306309 0.41831765 0.15532494 0.46648315 0.42652926 -0.41385585 -0.08317023 -0.13303241 -0.19482794 -0.52312654 -0.26593775 0.025344344 0.35050157 -0.4102213 -0.20536208 -0.2988939 0.24638097 0.12599632 -0.22708419 -0.4710278 -0.027584985 -0.9360193 -0.44024864 -0.18465464 -0.08574687 -0.19458665 -0.1684728 -0.07032702 -0.11445394 0.32029596 0.026708042 -0.3296504 -0.41159412 0.31858099 0.17874871 0.0538714 0.07971262
ManhattanNYC -0.08000217 0.44087958 0.39766246 -0.686181 -0.2789249 0.2723385 -0.002851895 0.06775614 -0.028983276 -0.35355404 0.33097598 0.18256944 0.25188833 0.16110739 0.35701013 -0.19064103 0.013980889 0.39923796 -0.29118222 0.46434107 0.2994181 0.27543285 -0.14099663 0.073669694 0.20433493 0.405806 -0.25020903 -0.42156956 0.19149484 -0.34287554 -0.045177795 0.5418452 -0.033856805 0.069813415 0.13116975 0.21785332 -0.14533277 0.41858262 0.22909684 -0.21571591 -0.061179478 -0.5038698 0.081764705 -0.4342636 -0.26844695 -0.19787824 -0.06861803 -0.21691222 0.08940087 -0.8287841 -0.18713805 -0.25613472 -0.14720242 1.0403411 -0.091097295 -2.2173824 0.10428469 0.06008168 1.2953103 0.43067056 -0.17051843 0.8019802 -0.62912816 0.13046367 0.5930241 0.20515223 0.4131615 0.5041338 -0.037063908 -0.185499 0.07806019 -0.093742386 0.00267788 -0.28396496 0.103254616 0.087615386 -0.22186996 0.12511776 -0.40459815 -0.067978166 0.47555226 -0.00409328 -0.6370916 -0.088103734 -1.0612142 -0.2728259 0.053255413 -0.0851242 -0.3457627 -0.11421162 -0.26500314 -0.006549497 -0.18150456 -0.14913613 -0.5033253 -0.14944862 -0.11569079 -0.1896094 0.16464084 0.18867071
Mana 0.003206559 0.27662918 0.38693154 -0.5741911 -0.4808508 0.1988674 0.15465869 0.31196865 0.24739921 -0.41826656 0.62896067 0.15701698 0.41087365 -0.030161552 0.23932518 0.15039723 -0.40713897 0.43962073 -0.66314054 0.7141705 -0.23955384 0.35584348 0.052035816 -0.12944543 0.42529622 0.36081934 -0.41033027 -0.565005 0.114983164 -0.52269584 -0.24520704 0.6829093 0.31253618 0.047574855 0.3893903 0.09611342 -0.65104556 0.55093914 0.20807658 -0.06104931 -0.07935015 0.20126499 0.21786508 -0.20666416 -0.4973003 0.074100986 0.19883847 -0.517638 0.252982 -0.6338295 -0.22217569 0.016577076 -0.24062985 0.57445896 -0.2596893 -1.7627274 0.20726342 0.14289197 0.818044 0.4342373 -0.22760399 0.75130135 -0.79020077 0.3065524 0.07224626 -0.16051674 0.51045424 -0.021494318 -0.46771094 -0.34062743 0.14531939 0.34459648 0.21262671 -0.09520733 0.19968757 -0.061066095 -0.20302221 -0.19283204 -0.1557697 0.36082408 0.33854586 -0.23029867 -0.65074563 -0.15261237 -1.3728515 -0.26982793 0.031397417 -0.3320895 -0.35146898 -0.062153235 -0.31833303 0.22789264 0.16131501 -0.22867295 -0.4984359 -0.17774655 0.062560394 -0.05879554 -0.26421672 0.40593678
ArtWepa 0.028087374 0.33684742 0.43249837 -0.3247092 0.50059795 0.6991468 -0.038573988 0.19590531 -0.058301896 -0.024930699 -0.38620996 0.09244147 0.16582727 0.034948613 0.24484326 -0.09872542 0.52647793 0.1075538 -0.09672016 0.50032485 0.041974057 0.004623443 -0.22329198 -0.12925291 0.5548235 0.32057062 -0.4191752 -0.64226615 -0.32601178 -0.18606132 -0.31573832 0.6275046 0.12614857 -0.11181818 0.102338165 0.3037498 -0.2070548 0.3019698 0.09569331 -0.47919926 -0.038383834 0.06295988 0.68280554 -0.3848134 0.0564331 -0.01351457 0.25232774 -0.02619141 -0.12777665 -0.5451464 0.09301852 -0.41103896 0.49447766 0.9944618 -0.30234268 -2.712042 0.126179 -0.23943208 1.6422887 0.34217942 0.18758857 0.7577796 -0.2639935 -0.100694925 0.7194753 0.060610306 0.61359036 0.17127174 0.21343789 -0.35159078 -0.093820386 -0.14859544 -0.064162076 0.04178371 0.2479963 0.22886088 -0.029747497 -0.34307384 -1.0273931 0.1638067 0.20933363 0.172957 -0.25175834 -0.054563396 -1.22993 -0.050967015 0.15471739 -0.5567402 0.041692536 -0.84019023 0.18039122 -0.094733134 0.31664473 -0.10906972 -0.32176936 -0.07634322 0.11722967 -0.7116681 0.42457825 0.29616177
Wepa -0.044983868 -0.112814516 0.47737235 -0.47306043 -0.20754515 0.41670984 0.14310268 0.0021952745 0.4399159 0.085275985 0.20823045 -0.06113094 0.26343745 -0.43377843 0.33098873 0.09686561 0.34503713 0.287893 -0.10774591 0.41079777 0.2529557 0.2722738 -0.30884868 -0.2553502 0.58735937 0.34543794 -0.1415501 -0.11952356 -0.009179837 -0.1333012 -0.2521512 0.62251186 0.29573846 -0.115424074 -0.064164974 -0.07891058 -0.116533004 0.13912119 0.25111857 -0.25194767 -0.3797581 0.65450317 0.19949228 -0.33965334 0.07148013 0.019824723 -0.041163407 0.01995981 -0.16649994 -0.12173107 -0.21337233 -0.07063467 0.585233 0.36918688 -0.5606094 -1.1247345 0.24812129 -0.29208797 0.64479315 0.5995461 0.23376593 0.026292697 -0.2240964 0.15672125 0.26906583 -0.1504223 0.2646482 -0.45693988 -0.19348241 -0.2528466 -0.16003937 -0.320522 0.029312551 -0.18078437 0.073030226 0.09466518 -0.1995692 0.008675818 -0.42798057 -0.4609288 0.049948137 -0.22298554 -0.2903855 0.13082407 -0.21305923 -0.27927727 0.10817188 1.6337548e-05 -0.295997 -0.4120219 -0.005411759 0.20798716 -0.042261958 -0.10999152 0.23836407 -0.6859419 -0.06973825 -0.29049978 -0.037011843 0.19003439
lexi -0.20247792 0.3345341 0.42600134 -0.4971079 0.020496333 0.20640083 0.019238492 0.43225673 -0.3348439 -0.15753372 -0.041839678 -0.18534896 0.41914403 0.14595605 -0.097433664 -0.5516374 0.27403826 0.47606605 -0.532718 0.30982876 0.3383272 0.49944642 0.5790354 0.14520697 -0.12723844 -0.02491589 -0.0002707737 -0.6053331 -0.27834103 -0.16273046 0.042462245 0.16296391 0.100394934 0.19742411 0.16016729 0.09546218 -0.15461811 0.45512503 0.08752976 -0.29593486 -0.4646469 -0.5167357 -0.10026244 -0.41281018 -0.15525532 -0.086381905 0.53167003 -0.3650217 -0.09366488 -0.8374873 -0.0077788588 -0.26716393 0.07657483 0.98862356 -0.19270271 -2.3425019 0.24217105 -0.42648214 1.6296526 0.75068295 -0.8020583 0.97893804 -0.3433732 -0.17703462 0.94744724 0.15770306 0.43088272 0.44253078 0.05857313 -0.11385647 0.006318981 -0.34217072 -0.23000439 -0.5281051 0.18399553 0.01883709 -0.048135784 0.04917667 -0.82435197 0.070657074 0.5253651 -0.115737386 -0.8756743 0.2461663 -1.3135233 -0.31288567 0.13793726 -0.2294683 -0.3740374 -0.5165756 -0.23382431 -0.24106663 -0.2136798 0.13544157 -0.85171914 0.3490704 -0.24483481 -0.25134578 0.82842267 0.1726838
peifferfamily -0.43022814 0.4043548 0.20964186 -0.20128496 0.39911896 0.42518973 0.18515496 0.27198365 -0.13851182 0.275648 -0.40268221 -0.3483606 0.38720548 0.03886461 0.31809855 0.08210525 0.2118911 -0.16594173 0.1950791 0.097777285 -0.034103412 -0.20023245 0.21790329 -0.08522931 0.46684504 -0.110695474 0.21222578 -0.43668148 -0.28659117 -0.04133088 -0.06881391 0.7476513 -0.25026426 -0.23167108 0.5035999 0.25789106 -0.067506514 0.24394874 0.16593605 -0.21680553 -0.11819211 -0.39883474 0.1175354 -0.28696963 -0.2406709 0.1103002 0.22395271 -0.014079533 -0.4053647 -0.6885202 0.16144864 -0.3089379 0.17755477 1.1576738 -0.19875602 -2.6090982 0.15409662 0.08882737 1.6598941 0.2555509 -0.098798074 1.0713708 -0.29713953 -0.054458987 1.1059724 0.045933887 0.49443686 -0.02118455 -0.0066813137 0.06528719 -0.15170704 -0.049466442 -0.018104346 -0.03856656 0.6749082 0.018010069 -0.06254864 -0.31406185 -0.68306684 -0.07923888 0.21967699 -0.21604013 -0.49128985 -0.032494567 -1.1835527 0.008661338 0.25405627 -0.5456727 0.26895332 -0.35783818 -0.04277742 -0.038201433 -0.40288252 -0.057195194 -0.36580026 0.0044775554 -0.7030281 -0.7777596 0.574713 0.27144518
makeawish 0.068926536 0.16253419 0.7373919 -0.77443784 -0.4331533 0.15398562 0.14142813 0.14553651 0.837543 0.1638809 0.2638297 0.5542874 0.45919204 0.3804077 0.1969258 -0.13461512 -0.029841568 0.3421123 -0.03165153 0.58425725 0.10953123 -0.16056272 -0.4396181 -0.45853406 0.23436013 0.5603849 -0.04488908 -0.4705903 0.32367507 -0.41412604 -0.13142669 0.3104435 0.07316543 0.06604526 -0.448611 0.17129104 0.1926004 0.2013521 0.42851302 -0.42645296 -0.055208486 -0.45887586 -0.3881718 -0.85861945 -0.07408665 -0.011409072 -0.20902175 0.102729596 -0.47235534 -1.038917 -0.02203995 0.18285021 0.0073936684 0.5641656 -0.40548667 -1.2520481 0.36164 0.60355526 0.7212711 0.078589626 0.024743935 1.0056305 -0.6181175 -0.059703108 0.54655135 0.31095353 0.72387606 -0.08796262 -0.4823404 -0.3986558 0.2091758 0.113028884 0.3668186 -0.5190129 0.12831268 0.13053249 -0.1947323 -0.7595907 -0.5788052 0.036597166 0.30943143 -0.31444454 -0.84597015 0.16912164 -0.96227455 -0.058435306 0.13612123 0.010498136 -0.045842625 -0.18338023 0.37839082 -0.37340078 -0.23968716 0.29476056 -0.38861716 -0.052470412 -0.18989958 -0.30503187 0.15542927 0.15895641
gooddadgang 0.21392158 0.065444164 0.5844106 -0.067076944 -0.26580828 0.35820013 0.069283195 0.18951012 -0.47554168 0.03863368 0.582862 0.10527739 0.33472598 -0.18466313 0.014595381 -0.17710777 -0.0034599595 -0.1619995 -0.29394352 -0.24699342 0.59527934 -0.1596016 0.3077817 0.30095965 0.38631907 -0.34841183 0.3621737 -0.12431643 -0.2936744 -0.19482948 -0.019777905 0.21449225 0.08032103 0.2773129 -0.35628322 0.370811 0.01783486 0.02618615 0.24042787 0.3936768 -0.12491243 -0.5527101 0.04796004 -0.26440874 0.24577093 0.3180779 0.49894783 -0.41326594 -0.4141602 0.17255658 -0.12983994 0.036418024 0.33210158 0.7486069 -0.85059565 -1.4155977 0.1272981 -0.40416893 0.9897858 0.20054324 -0.21552883 0.33342758 0.1031797 0.5387187 0.18822013 0.04475315 0.0030946066 0.10069216 0.1778473 -0.18462221 0.015307297 -0.17638956 -0.20312501 -0.023010518 0.37925467 0.3470911 -0.44545949 0.17525499 -0.82151574 -0.1366279 0.43737873 0.30113134 -0.09011204 0.1382386 -0.7690989 -0.10735343 0.24230763 -0.5360725 0.23075728 0.09946022 0.24087115 0.35374486 -0.32429683 0.27528033 -0.53708434 -0.13986997 -0.350033 -0.12757015 0.6976039 -0.13645644
witchodumbass -0.17205666 0.06431333 0.2199 -0.35580334 -0.5155 0.47590333 0.18323667 0.63843334 -0.16853 -0.0048506665 -0.063267 0.332107 -0.096716665 -0.006080333 -0.07691 0.039583333 0.34277335 -0.18885666 -0.59252 -0.021125333 0.21180333 -0.17766634 -0.07445833 -0.092213 0.058343332 0.18874 -0.51668 0.087683335 -0.076677 -0.23551333 -0.24078 0.15942334 0.22341667 -0.40813667 0.460165 0.4479 -0.29422334 0.19732 -0.12523334 -0.27865 -0.15673333 -0.031693332 0.16415334 -0.42299733 -0.01937 -0.075136 -0.35748 -0.49434668 -0.100727 -0.55330867 -0.22011466 -0.013913333 0.29070666 0.6773667 -0.6318567 -1.1712136 -0.37362534 0.25139567 1.2508267 0.14236 -0.37264132 0.34912032 0.05307 -0.47756 0.173718 0.120576665 0.13631167 -0.013426334 -0.039433334 -0.5847433 -0.6342767 -0.222761 0.21393667 -0.19972667 -0.24967334 0.6858467 -0.117649 -0.050845668 -0.17874333 0.35377333 0.34384334 -0.027505 -0.7193 -0.36834133 -0.78847 -0.3861 -0.184211 0.39838243 -0.34063667 0.137867 0.07096667 0.067482 0.12274633 0.262855 -0.5279833 -0.34961 0.31587 0.034417 0.39739 0.25288
sevenbucks 0.7203374 0.14198205 0.8482301 -0.10674213 -0.1078611 0.46961868 0.28780183 -0.30515516 -0.042853087 -0.4661998 -0.84173506 -0.487096 0.0006207645 -0.33616114 0.64896095 0.771253 -0.16002016 0.17752266 0.5655965 -0.037234556 0.7326877 -0.041912705 0.19678435 -0.47995105 0.3328584 0.32639417 -0.43372712 0.53426385 -0.20254692 -0.03408435 -0.26237366 -0.0068557994 0.59775686 0.8071092 -0.0555539 0.550326 -0.64820796 -0.3629581 0.419974 -0.03914111 0.48496628 0.38664258 -0.07915475 0.0023984334 -0.101058885 0.33836645 -0.7781242 -0.043337647 -0.60478896 -0.10437918 -0.20535783 -0.38523075 0.05447841 -0.016065214 -0.67237175 0.7237742 0.31410283 0.18604675 -0.05627653 0.14403437 0.174384 1.0480636 -0.19938748 -0.16862537 1.0090533 -0.39902046 0.14813986 -0.4481249 0.5191676 -0.6108265 -0.237502 -0.37244958 -0.098445915 -0.5117602 -0.40897182 -0.10549335 -0.0041306107 -0.36292052 -0.10308122 0.6042504 -0.59676594 -0.06026765 0.24528147 0.5818503 -0.43916762 0.31443253 -0.1810526 0.27047366 -0.017556932 0.45501044 0.02735043 -0.26240876 0.5968906 0.4642955 0.31871533 -0.7581575 -0.60236657 -0.031751156 0.0769307 0.37177995
flashbackfriday -0.16975477 0.067154214 0.22265935 -0.36302614 -0.525824 0.49034438 0.17541035 0.6487367 -0.17882422 0.0057703047 -0.058782324 0.33266792 -0.08565768 -0.007361026 -0.07759192 0.027184734 0.35152298 -0.1912548 -0.6159925 -0.023693072 0.21983734 -0.18626201 -0.07630573 -0.08240448 0.07294117 0.18894362 -0.5098321 0.090592586 -0.07553319 -0.23072082 -0.24755238 0.16794923 0.23739684 -0.4095018 0.46879435 0.45503214 -0.29326615 0.19954313 -0.12270457 -0.28354734 -0.1644672 -0.03511767 0.17231216 -0.4329323 -0.021516044 -0.084043466 -0.37760606 -0.5002984 -0.095468625 -0.5359233 -0.227953 -0.009501694 0.2917003 0.6827006 -0.64075875 -1.1901598 -0.36755484 0.23930764 1.2666935 0.15961598 -0.38410252 0.36191505 0.061339974 -0.47624472 0.17992476 0.110128425 0.12980849 -0.008087919 -0.031792585 -0.58756435 -0.6454398 -0.22227426 0.2078848 -0.19801496 -0.252087 0.6863072 -0.115754746 -0.04836938 -0.18661235 0.3592526 0.33897698 -0.019056574 -0.71370906 -0.36400214 -0.80430263 -0.38302687 -0.18300773 0.41141096 -0.34422866 0.15030344 0.082572386 0.064118765 0.13218577 0.27114227 -0.5401452 -0.35380235 0.3086818 0.038161404 0.41532254 0.24311833
PornstacheJohnson -0.06357606 0.40716466 0.32407075 -0.27321783 0.25626194 -0.7158816 -0.4516566 0.29146618 -0.3948496 -0.095868796 -0.053534307 -0.10714282 0.17613338 0.17724514 -0.23336987 -0.19313042 0.7414255 -0.15236296 -0.27422276 -0.000839837 0.8796435 0.071004435 -0.24095832 -0.27049056 0.6146005 0.56908166 -0.17433687 -0.19985971 -0.033349168 -0.2021498 0.28389838 0.23511301 0.393735 -0.26865217 0.42260134 0.06402054 -0.09330146 0.2043864 0.13208187 -0.6179389 -0.43568045 0.06953839 0.03988144 -0.4283701 0.5254445 0.0787765 -0.34057966 0.4696962 0.5268575 0.08079184 -0.76279885 0.04217161 0.1740152 0.6736017 -0.25701195 -1.5486076 -0.296099 -0.03172646 0.74770707 0.05609094 -0.2375807 0.82817084 -0.25871578 0.1886714 0.41854802 -0.09557975 0.6520984 -0.25333762 -0.14466552 -0.87297785 -0.5536254 0.29424208 0.5126417 0.4891434 -0.25196442 -0.29020324 0.70534164 0.10108492 -0.1709927 0.3985412 0.24571486 0.41905683 -0.35875663 0.44570872 0.14763571 0.18060999 0.09012513 -0.44015995 0.1599263 0.39702475 0.04475989 -0.4898417 0.17521124 0.42150488 -0.27264133 -0.33699504 -0.059050184 -0.49512923 0.50187695 -0.2509419
YoureUnderArrest -0.5078221 0.101418264 0.203746 -0.5086644 0.11812128 0.6515779 -0.5273018 0.67005134 0.09198267 0.6995336 0.32265505 -0.081217855 0.21398956 0.04143937 0.14094904 -0.4217224 0.4143282 -0.1769712 -0.49049422 -0.5156135 0.29523107 0.028755708 -0.26065558 -0.4909354 0.14223328 -0.1907068 7.2415496e-05 -0.414889 -0.6594335 -0.50342846 -0.24951877 0.06461031 0.22029528 0.4259724 -0.5991993 0.19709924 0.026760764 -0.06208361 0.20945041 -0.4878212 0.3288352 -0.77245814 -0.075603686 -0.6921876 0.29139075 0.048067156 0.1888796 -0.35633662 0.64871836 -0.11691504 -0.29401952 0.1344861 -0.24273159 0.89442337 -0.5460628 -2.0193472 -0.18813933 -0.018794456 1.1130725 0.20928417 -0.18153998 0.45806354 -0.08681713 0.48576012 0.29118627 -0.047383174 0.13035028 0.23370095 -0.2444563 -0.03544008 -0.3396066 -0.16199826 0.21861261 0.111226104 0.26235616 -0.30628428 0.65756255 -0.05365324 -0.03257096 -0.26564282 0.33036458 0.43492234 -0.9108413 0.5075254 -0.3107879 0.026888372 -0.09538998 -0.021818107 0.5319116 -0.10527112 0.38177067 0.1995236 0.03945409 -0.26128507 -0.67944336 0.15331955 0.18738395 0.030208662 1.0523082 -0.35822803
nationalbossday 0.61461896 -0.09552279 0.5441142 -0.023289736 -0.43528873 0.24465492 0.9347073 0.38146698 -0.42057252 -0.7111453 -0.4331942 -0.0040474623 -0.79790664 0.22668143 0.27186626 0.70041144 0.23590295 1.1727146 -0.24669036 0.34620947 0.37786332 0.17464074 0.0378156 0.1439722 0.6124838 0.7177612 -0.3870956 -0.14586854 -0.84832203 -0.031227732 0.18430214 -0.5042665 -0.5615013 0.1839951 0.25922635 -0.30517536 0.7939234 0.44904426 0.32595575 -0.61773163 0.64223117 0.44791615 -0.28170535 0.5622574 0.0054339305 0.29445422 -0.3565378 0.025525799 -0.5926757 0.074520156 -0.42220873 0.329508 -0.53316253 -0.4156153 -0.16258302 0.07736576 1.2363625 -0.09548225 0.31726685 0.17297429 0.30445415 0.22424912 -0.037562303 -0.5927092 0.121212795 -0.5130942 0.40908763 0.576196 0.07420995 0.18122622 0.6142584 -0.15932919 -0.016379997 0.35377598 -0.14184092 -0.259717 0.30977306 0.35526028 0.007179206 0.19434635 -0.39951235 0.3642627 -0.0894236 0.4895582 -0.03465184 0.07827562 0.2455722 -0.0983074 -0.5767295 0.9751873 0.45080107 0.5814035 -0.016686542 0.1082849 0.80068666 0.09315361 0.5785641 0.520237 -0.6207306 0.27491918
likeavoss -0.24876302 0.29144529 0.26357517 -0.3343592 -0.37458405 0.197648 0.04236199 0.12718008 -0.4802364 0.4672184 0.45588496 -0.16279086 -0.081639655 0.35817194 0.05086666 -0.13611671 -0.10849715 0.4424906 -0.06278516 -0.1929295 -0.050323386 -0.034205027 0.30816603 -0.0037652352 0.16039787 0.67371774 -0.040971134 -0.73874843 0.20228256 -0.39652014 0.33736446 0.4775834 -0.050949678 0.22081342 -0.14043275 0.33514723 0.15260226 -0.103232175 0.16022395 -0.10160343 0.33001935 -0.31021762 0.05603217 -0.45895708 -0.46951684 0.17076157 -0.45853186 0.18597077 -0.026443716 -0.6529542 -0.058085483 0.3042334 -0.04462565 0.6208714 -0.15052404 -1.3739026 0.049675345 0.13615473 1.4166846 0.09791395 0.029752014 0.7963308 -0.6754692 -0.07309267 0.8499417 0.34728375 0.6011505 0.021414235 0.1360561 -0.10022496 -0.046148267 -0.28678232 0.147983 -0.3611003 0.73459965 0.25560075 0.13912308 -0.22580788 -0.14902042 -0.039008964 0.20706792 -0.1725657 -0.19396442 -0.060855895 -0.7250247 -0.14580986 -0.11583557 -0.19783519 -0.074063554 -0.23968607 -0.15471298 0.5413624 0.6016343 -0.3751979 -0.21577309 -0.3618721 0.070618756 -0.08665193 0.47002125 0.24186417
MotivationMonday 0.061997615 -0.14752957 -0.1443 -1.065073 -0.23564044 0.15369591 0.12214064 -0.08739716 -0.40832895 -0.15795405 0.011091253 0.460398 -0.22588477 -0.1426258 0.55686295 -0.28191763 -0.49403572 0.17409036 -0.15916324 -0.065664954 -0.2724482 -0.059680644 0.3858491 0.09071867 0.20744549 0.5973999 -0.03450572 -0.17110014 -0.24464397 -0.08810875 -0.9946423 0.19978437 -0.12881832 0.25217843 0.10150826 0.06914126 -0.52686894 0.658165 -0.2586194 0.40865698 0.13899927 -0.28221485 0.1953351 0.15338041 0.04839942 -0.080530606 -0.13085607 -0.17779413 0.32254604 -0.029688245 -0.058169458 0.15571372 -0.7223413 -0.44486645 -0.2986349 -0.63644886 -0.43669793 0.2658034 -0.38167986 -0.26753128 0.038767464 -0.40239963 0.20655593 -0.100450985 -0.21980716 -0.4078968 0.2097454 0.20949681 -0.5236852 0.16670395 0.05824034 0.29931095 -0.41683865 -0.37356278 0.108763486 -0.18529767 -0.25846252 0.518045 -0.09301627 -0.30850017 -0.017298846 -0.3975738 -0.31701118 -0.12116567 0.25290856 0.20356134 -0.6059973 0.10354447 -0.510573 -0.45154697 -0.1479033 0.12179449 -0.1448467 -0.33255193 -0.26570648 0.108685486 -0.44735748 0.042526815 -0.73722386 -0.38400036
motivationmonday -0.039826028 0.26103666 0.79839534 -0.13465604 -0.16710763 -0.014652411 0.1682304 -0.16294695 -0.24332632 0.25027427 0.21496995 0.31540346 0.1674369 0.17576942 -0.20471671 -0.33197 0.38692927 -0.31799316 -0.072412185 0.27856937 -0.03583771 -0.5338278 -0.23478967 0.51858294 0.11251467 0.46997073 0.012072548 0.42133582 0.39621094 0.2523829 0.73049444 0.35412654 -0.11655072 0.35535514 0.24916951 0.3131721 -0.10198553 -0.32014576 -0.5036068 0.14542298 -0.022437787 0.019363394 0.7965867 -0.27140325 0.15481623 0.22610424 -0.44415987 0.32453194 0.11907115 -0.38664138 -0.33187532 -0.029434403 0.48399183 0.36487466 -0.5556769 -1.236094 0.12586321 0.59396964 0.36565885 -0.17214496 0.049824335 -0.22270098 -0.25799543 -0.09958769 0.51681846 0.24378091 0.242668 0.2204344 -0.12894039 0.16367738 0.22944376 0.27183574 -0.5155835 -0.2286041 0.11677354 -0.5360365 -0.15475419 -0.3084996 -0.28535745 -0.72768205 0.048087116 -0.26762724 -0.20165548 0.091099 -0.19120765 -0.48112106 -0.05859694 -0.29947865 0.357721 -0.5068405 0.0024075476 0.4580747 0.3680766 0.27953035 -0.4308013 -0.24999334 -0.13438387 -0.46604016 0.10022562 -0.11675628
allyougot 0.5196036 0.37421635 0.45291972 0.16595523 -0.21361037 -0.22847448 0.34367153 -0.32286248 -0.014228862 0.11549013 -0.14678046 -0.1726387 0.03864191 -0.44281876 -0.606701 0.59742737 0.09977701 0.14766404 0.114356585 0.037539948 -0.06598093 -0.26685533 -0.1148921 -0.33951348 0.49456105 0.8371699 0.07843722 0.12611324 0.6212273 -0.09686864 -0.012629038 0.07072656 -0.2546447 0.031915247 0.08922094 -0.49444973 -0.74317217 0.24267712 0.11775923 -0.1270888 -0.06398596 0.63415325 -0.19472075 -0.45513922 -0.14891595 -0.30260804 -0.16927254 0.24192142 -0.4147818 0.18364553 -0.36220855 0.15222843 -0.037397064 0.22269772 0.48212495 -0.693971 0.17449212 0.21147543 -0.16878702 0.20065065 0.662203 0.44069284 -0.34842297 -0.16534437 -0.10339883 -0.15410075 -0.08014697 -0.22942571 0.23366679 -0.1754644 0.20543852 0.47899833 -0.119921386 0.065844975 -0.20866683 -0.09780424 0.20479882 0.11893763 0.28931782 -0.13495073 -0.012390222 0.22448152 0.2995801 0.06606372 -0.6676634 0.542509 0.104119524 -0.14735602 -0.23870681 -0.39381212 -0.062763415 0.064372145 0.049791444 0.31118044 0.27095214 -0.23481733 -0.46031985 -0.84097517 0.04930553 0.16861124
JUNGLECRUISE 0.26168504 0.514096 0.2654414 0.32420817 0.034390274 -0.12798132 -0.15524371 -0.121011026 0.03765301 -0.18918315 -0.68080914 -0.23800386 0.7138102 -0.08956392 -0.48173007 0.8184336 -0.17077515 0.18206769 -0.06540754 -0.49070942 0.17759815 -0.23146543 0.3335218 0.10590569 0.3221171 0.85831493 0.09180146 -0.062833056 0.7262196 0.52570134 0.19258034 -0.10737011 -0.17394009 0.45253605 0.16045703 -0.5898318 -0.58590716 0.5057111 0.03222491 0.2160337 -0.6179226 0.08730887 -0.29070964 -0.34759614 0.04142146 -0.103049174 -0.29739305 0.07986192 -1.0205765 0.106644526 0.3619657 0.08520901 -0.28204772 0.41949862 0.29906744 -0.61150897 0.17329259 0.0815492 0.6295876 0.18275669 -0.00063257985 0.22877549 -0.14282677 -0.5887976 0.3577128 0.3151965 -0.40863827 -0.13820192 0.56434876 -0.29622334 0.4866421 0.19207051 0.18832421 0.08142824 0.34144145 -0.23410696 -0.18908232 -0.07029804 -0.6217735 0.110342614 0.060395256 0.418066 0.45079744 0.61363524 -1.0878232 0.5477875 0.29928136 0.29540983 -0.15710364 -0.0462172 0.34803498 -0.32295093 0.039827537 0.2357958 0.32152495 -0.14974332 -0.65782624 -0.7932456 0.54594946 0.009121336
smackdown 0.21117672 0.48036364 0.09209727 0.23365764 -0.09205795 -0.53503895 0.16169271 0.1249582 0.010381704 0.00092544244 -0.41829297 -0.43687153 0.2657974 -0.24199034 -0.9218978 0.72336566 -0.3418585 -0.1997227 0.3616028 -0.95169365 0.2994191 -0.21817203 0.20782493 0.21347138 0.21912493 0.9831851 0.01916227 0.27383 1.1360077 0.3150186 -0.26367587 -0.29593074 0.14472206 0.3347262 0.2437451 -0.6139071 -0.8076919 0.06095715 0.40513414 0.115124606 -0.30112138 0.32537976 -0.29554212 -0.5089796 -0.061917935 -0.3696459 -0.44449732 0.22117223 -0.4901817 0.21714035 -0.456661 0.38682196 -0.30368176 -0.26920766 0.67787457 -0.20514953 0.60798246 0.2155232 -0.21324323 0.3727929 0.13037208 0.16770653 -0.17822295 -0.33670554 -0.29858333 0.15812397 -0.7474842 -0.22673926 0.45723233 -0.3803365 0.3227016 0.456798 0.23454222 0.20559746 0.19435254 -0.0844878 0.037059236 0.14120568 0.14849555 -0.315502 -0.34392852 -0.11919111 0.77413327 0.6128635 -0.22544913 0.41013464 0.21772511 0.2684256 -0.17404424 0.32299393 0.072556175 -0.08240875 -0.101615265 0.10747465 0.42822912 -0.32842532 -0.54062116 -0.44711927 0.50940096 0.2022908
sinceday1 0.0018118154 0.19204506 -0.12986293 -0.16451985 0.56163824 -0.026522297 -0.22336812 -0.5504638 0.20771424 -0.04096631 -0.630265 -0.21263574 0.39311895 -0.3195512 -0.024864983 0.3444636 -0.18237188 -0.11741957 -0.13422783 0.22643477 -0.19225723 0.17352521 -0.44238672 -0.36638033 0.11427386 0.4880578 0.26534384 0.080390334 0.29027548 0.071927495 -0.15567319 -0.044132832 0.13550296 0.27069363 0.16411652 -0.28781494 -0.40433455 -0.037782177 0.037479185 0.28247502 0.58693814 0.27709204 0.33200744 0.35736057 0.13196325 -0.1766318 0.16204034 0.35404715 0.13494478 0.20927678 -0.0035020774 -0.021704508 -0.20698154 -0.12211499 0.42821875 0.86096877 -0.54799336 0.24362881 -0.42666867 0.155788 0.27911493 -0.10681866 -0.16459063 0.0740385 0.18884945 -0.19615623 0.08073664 0.004553383 0.3716119 0.06344389 -0.31523475 -0.035946913 0.018692052 0.5351087 -0.226138 0.005495171 -0.0064612655 -0.07126071 0.7098691 -0.3784074 0.1590663 0.03999922 0.086089216 0.44007593 0.5548048 0.022329427 -0.08856953 0.44416118 -0.028297953 0.0313934 0.33016044 0.07251953 -0.12362429 -0.20424755 0.67512214 0.25056478 0.042351123 -0.21241584 0.09543104 -0.57056373
BehindTheAttraction -0.040678024 0.97759956 -0.03690096 -0.67410326 0.56743443 0.7411279 -0.23908924 0.014883843 -0.47752362 0.57647663 -0.13431907 -1.1785362 -0.3425048 0.62967813 -0.19630012 0.37944713 -0.48724625 -0.3470785 0.7850308 -0.16614386 -0.13277721 -0.5222929 0.5780048 -0.37162796 0.32305786 0.33095014 -0.51751834 0.016025642 1.0591975 0.33173624 -0.4920854 -0.031499542 -0.037994865 0.38313028 -0.33331493 -0.533513 0.36034715 0.4274409 0.10893051 -0.45658696 0.23164517 -0.012974593 0.2460326 0.44355878 0.148289 -0.51605517 0.06504711 -0.24527374 0.04927529 -0.536035 -0.58644164 0.43750238 -0.16942601 -0.19278331 0.44309565 -1.518869 0.27166435 -0.487874 0.31606624 0.82271177 0.72655576 0.47307166 -0.050855633 0.5832383 0.019006636 -0.65158117 0.58577085 0.07368797 0.53736675 -0.2229037 -0.28489268 0.2101908 0.14945222 0.021199923 0.02688583 -0.24758561 -0.32314533 -0.014115575 0.83315533 -0.4287764 0.17181902 -0.71674913 0.23297195 -0.55425894 -1.3532938 0.5664031 0.48018458 0.017249225 -0.31783015 0.14521211 -0.6363443 -0.0153137725 -0.4660228 0.4543392 0.22410907 0.42270887 -1.804982 -0.8619481 0.79173094 0.37738863
SevenBucksProds -0.008923662 0.22624959 0.38368425 -0.80980325 0.2758433 0.61277664 0.1922593 0.12948143 -0.32793352 0.15901144 0.12319513 -0.09008828 0.32088348 0.15367998 0.20777802 -0.22047623 0.5841799 -0.36140972 0.0052171783 0.37491906 0.70696074 -0.20201646 -0.13418642 -0.23837058 0.4644367 0.1049918 -0.24533582 -0.5342924 0.6310749 0.25286424 -0.09164042 0.4859879 0.05736507 0.2382956 0.15819657 -0.20116167 -0.23349422 0.47007868 0.59482354 -0.46204215 -0.24810052 0.34453365 0.50578696 0.18889669 0.14116398 0.09036434 -0.030612957 -0.026001345 0.1641137 -0.4306072 -0.25988474 -0.26509088 0.2500893 1.0297211 -0.2943666 -2.677678 -0.45425758 -0.030726388 1.2103522 1.0228819 0.40196672 0.85958666 -0.32252693 0.12412329 0.8489285 -0.2437425 0.62683946 0.28338706 0.05908025 -0.03362407 -0.059417702 -0.06797612 -0.13856928 -0.0629499 0.099925995 0.01645506 0.20392102 -0.5108312 -0.26749256 -0.26402798 0.46611464 0.20504914 -0.011415857 -0.08142102 -1.3744651 -0.28054142 -0.17948674 -0.37821046 -0.051204707 -0.014227712 -0.18368597 -0.21973306 -0.25750685 0.19871172 -0.4137545 -0.1780266 -0.76081836 -0.28836107 0.43804833 -0.061496343
NacelleCompany -0.37933615 0.08534432 0.61226165 -0.41447553 0.26903898 0.18888368 -0.272801 0.13275221 -0.5199523 0.28031847 0.35869408 -0.07618115 -0.029237593 0.16687627 0.08061074 -0.27510732 0.5851318 -0.5347232 -0.045302372 0.24840994 0.5264448 -0.047005463 -0.031298906 -0.29957414 0.2701786 -0.022803025 -0.03410285 -0.37139323 0.41111135 0.059179418 0.035917655 0.10484805 0.15798257 0.70881206 -0.025357647 -0.19085187 0.12546365 0.21003975 0.36081728 -0.57976913 -0.5106173 -0.108705804 -0.26149407 0.22008117 0.24097277 0.20702922 0.12672064 -0.03407963 -0.015158742 -0.53631985 -0.27130145 0.08025795 0.3382933 0.47966427 -0.46370178 -2.9293432 -0.37396583 -0.1291974 1.8487608 0.9881109 0.18368252 0.98977214 -0.008566653 0.33580172 1.0792804 -0.23851845 0.47803506 -0.05989276 0.027994124 -0.6334391 -0.17405519 0.17746687 -0.39863434 0.1406354 -0.12866358 -0.2852991 0.15606214 -0.13738357 -0.23543906 -0.15835972 0.46527225 0.3138403 0.020505195 0.095455594 -0.7644925 -0.13200788 -0.12984103 -0.36435536 0.16053034 0.12192312 -0.12584086 -0.30303466 -0.7364656 0.79642034 -0.45423976 -0.4813452 -1.0004303 -0.1281711 1.0628852 0.30376783
DisneyPlus -0.21327554 0.9543762 -0.0073788418 -0.4812212 -0.47195208 0.13820103 -0.05326513 0.51422167 -0.76092255 -0.51677316 -0.06846971 -0.3849593 0.09731404 -0.12426335 0.14899874 -0.56524396 0.65008503 -0.3970971 -0.61748457 -0.08974151 0.51256764 -0.0649052 -0.052495193 0.121061504 0.005732957 -0.098284185 -0.38711601 -0.054664873 0.62403274 -0.06616345 -0.0065604993 0.024965169 0.075862624 0.19362094 0.020849435 0.032913335 -0.4136538 0.67371184 0.05919589 -0.015274833 -0.3301783 -0.27967525 0.38744807 0.034805097 0.3053964 -0.08908833 -0.14747308 -0.22266918 -0.036590103 -0.77392924 0.3283748 -0.66636044 0.09491331 0.656775 -0.22739471 -1.5667151 0.049424987 -0.19642784 1.7899468 0.70876324 -0.45091382 1.0560753 0.32852462 -0.52170986 0.09880872 0.12461402 0.32316992 0.14280751 0.24529316 0.050749145 0.095313676 -0.22606921 -0.7472134 -0.18167527 0.027192814 0.44825205 -0.019391438 0.35797656 -0.6768224 -0.30858937 0.33610603 0.089582466 0.36704817 0.24501847 -1.5495744 -0.047127362 -0.46181288 0.15611358 -0.18528932 -0.19203147 0.040698834 -0.3429116 -0.072000936 0.32359764 -0.81611854 -0.11207006 0.43587416 0.19724259 0.28336987 0.13270825
DISNEY 0.059479173 -0.3691074 0.11808043 -0.7948375 -0.38679743 -0.113596104 0.28297937 -0.03838659 -1.1337992 -0.8179423 1.0030653 -0.3037871 -0.2248305 0.25459665 0.13129972 -0.1592055 0.4102232 0.45353475 -0.27083647 0.3835937 0.1407181 0.18222679 0.30441508 0.11230372 0.45281276 0.86184055 0.14697963 -0.3329418 -0.13998532 0.510123 0.27438986 0.48678717 0.1753796 0.33725116 -0.17721331 0.10751133 -0.08240372 0.71620756 -0.22299525 0.63388556 -0.35210374 0.019599034 0.4832852 0.03366685 -0.47519395 0.4874224 -0.21667412 -0.0856982 0.047072228 -0.647443 -0.047455758 0.26816538 -0.73417675 0.10479305 0.3383023 -1.5199538 -1.0472047 -0.12558025 0.15220049 0.6200213 0.12931739 -0.2690107 -0.081070594 0.16905354 0.456353 -0.3964262 1.2291718 0.46355703 -0.4326286 0.5331405 -0.36046502 0.3668003 -0.6034993 -0.20341362 0.33640042 -0.78232944 -0.26799607 0.0065684724 0.36283252 -0.21989396 0.055218406 -0.24235876 -0.11407078 -0.0974269 -0.31498128 -0.19983818 0.35047093 -0.0729963 0.004662852 -0.4412963 0.21134481 -0.35718358 -0.573289 0.27969423 -0.7437132 -0.014835563 0.14944236 -0.16044627 -0.47274065 0.0033574174
