3006 20
frommydiningtable 0.1056113 -0.18423454 0.1282523 -0.1454283 -0.1272093 0.16461565 -0.36369756 0.13334715 0.010027475 0.04537968 -0.11588369 -0.031423297 -0.09038431 -0.070896156 -0.4715485 0.040892467 0.06957259 0.112538874 0.361643 -0.4472427
ladolcevita 0.047996424 -0.21980429 0.10715 -0.16804038 -0.15981255 0.15226266 -0.3648415 0.11012228 0.010031903 0.09738979 -0.06709833 -0.042518917 -0.06590586 -0.031897865 -0.51888865 -0.015130452 0.08607497 0.02621511 0.36968872 -0.44987193
happiestinthekitchen 0.045200013 -0.114795074 0.049914807 -0.08975643 -0.08205916 0.10732565 -0.20117742 0.072254665 0.03183947 0.0017591434 -0.06420028 -0.036706418 -0.07253208 -0.053274762 -0.3086146 0.005828713 0.05400249 0.043137092 0.2395984 -0.32865664
collaboration 0.058638003 -0.19582294 0.063137986 -0.11713469 -0.072389066 0.0803588 -0.18413474 0.15367602 -0.0025409213 0.07201533 -0.052797288 -0.004542326 -0.08047453 -0.014743701 -0.3392939 -0.008197397 0.096737005 0.011577991 0.26320326 -0.238518
drinkresponsibly -0.10103718 -0.3304062 0.4619674 -0.050595183 0.18812887 0.26331913 -0.23389418 0.10190316 -0.29535094 0.053848878 -0.35753295 0.70503294 -0.19484892 -0.011752623 -0.65506876 0.2680558 0.013874367 -0.11789666 0.64497924 -0.86797714
breakfastofchampions 0.48820573 -0.24785414 0.51345223 -0.23151317 -0.06514362 0.11987442 -1.826559 0.3026107 -0.8169199 0.39873976 0.010593129 -0.2057949 -0.2828594 0.72461057 -2.050035 0.0121233 0.05147323 0.09108849 1.057151 -1.3765347
sweetsforthesweet 0.010598594 0.005228862 -0.024681052 -0.0036632065 -0.018950481 0.017917363 -0.004148191 -0.0010750834 0.022688301 -0.008470703 -0.011845869 -0.0039593726 0.0054242574 0.018959733 -0.023682712 -0.019470189 0.0028816257 -0.021775624 0.012894226 -0.010360727
onacoldnight 0.016813293 -0.09972519 0.050783906 -0.05275155 -0.010210753 0.04385462 -0.12680905 0.11822071 0.038938995 0.002834554 -0.039259374 0.052082058 -0.0064981803 -0.03068202 -0.13388747 0.0033076925 0.00995961 0.0074741053 0.12691382 -0.17568281
comfortfood 0.057089604 -0.40618506 0.13092348 -0.3420984 -0.11437715 0.18443468 -0.7384444 0.25236994 -0.09396049 0.022385757 -0.20642579 -0.041047346 -0.06974929 0.039668504 -0.7853259 -0.04918697 0.06133909 0.031981193 0.57144 -0.6742224
autumnmood 0.6551624 -0.74569106 0.8350679 -0.911621 -1.533004 0.533673 -2.4385536 -0.07554233 -0.405999 0.95517945 -0.73030645 -1.0437398 -0.878879 0.2154847 -4.3057146 -0.6006742 0.91045153 -0.09310502 2.466774 -2.3715396
happybirthdayaeneas -0.0049086213 -0.011294859 0.020088779 -0.015068337 0.015878728 0.0056693964 0.015710926 0.003983021 0.007172713 -0.009590534 -0.022524629 -0.0031922106 0.015329218 -0.0032551102 -0.008453175 0.022129657 0.02367534 -0.009146908 -0.014674902 0.021453427
lastdaysofalmostsummer -0.015265608 0.0151076745 0.020241456 -0.022262534 -0.010033554 -0.016525876 -0.00071720406 -0.015882213 -0.0052136816 0.02203085 -0.010090113 0.020802638 -0.0075252205 -0.0008921679 -0.021300135 0.009365791 -0.020904029 -0.0015654508 -0.0028073676 -0.015021023
thatfridayfeeling 0.040601518 -0.18208216 0.082114525 -0.0734778 -0.06328852 0.06533089 -0.18717398 0.09997178 0.0019533366 -0.010283493 -0.064431705 0.003997882 -0.059850078 -0.0035774226 -0.22083521 -0.019693827 0.019963501 0.024418013 0.17039791 -0.27266484
fastfood 0.02168691 0.0001333747 0.023092506 0.0014726035 0.016343514 -0.0060911234 -0.00095236674 0.018888654 0.020226898 -0.001972815 0.022273393 0.0021953192 -0.011155761 0.00269044 0.015937394 0.0022768043 -0.009574622 0.011124732 0.014890695 0.018321084
neverwanttoleave -0.011229381 0.0027072523 -0.0036665145 0.002045313 -0.012307855 -0.0180951 -0.005553622 0.012502154 -0.023756012 -0.018264651 -0.022529447 -0.02032363 -0.003838813 0.011525536 -0.00066062436 0.017319536 -0.02068617 0.0060514025 -0.014913619 0.0025989972
aboutlastnight 0.017623158 -0.020993799 0.018621424 -0.015796453 0.0025040768 0.014083238 -0.012683815 -0.0045019425 0.0071885604 -0.013223571 0.023844505 0.012020582 0.009016113 -0.009914211 -0.017086573 -0.006965857 0.013356386 0.00029532984 0.008307485 -0.020643955
lazyweekend -0.0070131123 0.014622556 0.018304946 -0.009520504 0.014611991 -0.0019223131 0.003432056 -0.0069698803 0.010651292 -0.0024459567 -0.0063998755 -0.021563465 0.006708311 -0.006782433 0.011989003 -0.0015526209 0.0062424894 -0.018197635 0.018129269 -0.016707819
homesweethome 0.18455356 -0.12259838 0.5100712 -0.4712029 -0.2147851 0.3817242 -0.4129138 0.35817668 0.27108255 -0.051680326 -0.29090178 0.072201006 0.021080824 -0.64170116 -0.6933364 0.13887385 0.12621629 0.39550152 0.7064931 -0.8206975
atableinvenice 0.003071282 0.020328311 0.0037463997 -0.024126137 -0.00538666 -0.00052437186 -0.00027740374 0.017011216 -0.0008034967 -0.011860654 0.011707505 -0.0180228 0.017562395 -0.02225936 0.016814614 -0.0035595782 -0.0084911585 -0.00010840036 -0.018043045 0.01775779
babyachilles -0.010761702 -0.000194842 0.0059075058 -0.023344869 0.012365343 0.012127155 -0.009314725 0.017307954 -0.010718969 -0.0209754 0.015802087 0.005326465 -0.0006524231 -0.024488071 -0.012223101 -0.018946912 0.013069274 -0.011444396 0.01980506 -0.014718115
sweetdreams -0.00033778022 -0.15568817 0.016435724 -0.0727838 -0.06795239 0.05473838 -0.18612325 0.041283928 0.009968022 0.031867936 -0.05069917 -0.013901812 -0.048515484 0.0022750334 -0.21688657 -0.07393976 0.055562556 0.0041589406 0.16072287 -0.19201002
lunchtime 0.12324411 -0.4368716 0.11865414 -0.24378574 -0.18891005 0.14720106 -0.7168079 0.2577907 -0.18984859 0.029983865 -0.1699807 -0.10779494 -0.24458583 0.13199502 -0.85180146 -0.014706357 0.013768269 -0.08745745 0.5656603 -0.6007518
summerinvenice -0.016494315 0.009154746 -0.008319799 -0.010110656 -0.007634705 0.023104785 0.01835044 -0.01225895 0.012741307 -0.0042252634 -0.019969955 -0.0144868195 -0.01158627 -0.005099723 -0.019953126 -0.004230153 0.01192564 0.012708345 0.013028497 0.008956166
viewoverthegrandcanal 0.027834203 -0.13504066 0.014791216 -0.10424576 -0.06473119 0.09162076 -0.18469767 0.065085515 0.0019117797 0.00013046594 -0.0442597 0.0026810481 -0.024834955 -0.052454267 -0.19024302 -0.04195108 0.065263234 -0.019199103 0.17485183 -0.194993
classic 0.36053383 -1.6802882 0.52600884 -0.99599683 -0.99575895 0.87133235 -2.013177 1.0107611 -1.1733102 0.05599649 -0.4410181 -0.3775748 -1.2267896 0.45257932 -3.477005 0.030461183 1.0946429 -0.43578976 2.7489328 -1.8403015
favouritemealoftheday 0.023499927 0.0065410715 0.004789371 0.0015207194 -0.0010533687 -0.011183656 0.003851017 -0.02362894 0.016161392 0.006114006 -0.016794406 0.017582064 -0.01761428 -0.00039564632 -0.0072705895 0.019315409 0.022163881 0.01980176 0.0032758862 -0.0048167594
recipetesting 0.27418002 -0.82222503 0.08841257 -0.2995203 -0.38909894 0.4625655 -0.71823144 0.49723488 -0.8961973 0.03888946 -0.33694804 -0.2774308 -0.5170387 0.300754 -1.4511148 0.5737167 0.5149314 -0.17072116 1.1448618 -0.95815563
summermood 0.024129616 -0.017765757 -0.024354089 0.0003114231 0.024994666 -0.02142538 0.015678523 0.019171076 0.01095379 0.008601574 -0.0016927756 -0.018120402 0.0153252985 0.014573025 -0.0041688792 0.006023312 -0.008234406 0.0023668557 0.011729365 0.023091232
holidays 0.35433215 -1.1330426 0.36175862 -0.78274626 -0.52509797 0.34068334 -1.7700619 0.6145575 -0.45638865 0.34166574 -0.48378524 -0.16625136 -0.62016636 0.3279322 -2.261905 -0.20983358 0.45740944 -0.30856144 1.4588418 -1.4146271
onemonthold 0.01584027 -0.14794163 0.046918202 -0.045426585 -0.035497755 0.027824158 -0.121590525 0.08369121 -0.062032066 0.015804922 -0.01196798 -0.003139863 -0.07548841 0.011071528 -0.22157986 -0.018066509 0.039764896 0.0015524549 0.16592498 -0.15188932
summertime 0.031333394 -0.2472219 0.08649138 -0.08941409 -0.11245287 0.14883019 -0.26495892 0.22102895 -0.021378543 0.05039294 -0.09015843 0.03212306 -0.10614901 -0.052081604 -0.4013351 -0.0038202 0.10249941 0.041640244 0.33022648 -0.33242917
servechilled 0.04907046 -0.148382 0.12954377 -0.10783152 -0.11410713 0.109917685 -0.23487335 0.119368546 -0.028597998 0.027828535 -0.06259765 0.016664024 -0.08605065 -0.026223198 -0.35993153 0.04412788 0.086338334 0.010262789 0.28597888 -0.30442184
makeahead 0.030383231 -0.21562983 0.10044886 -0.080423556 -0.16070354 0.11580733 -0.26692873 0.19196148 0.044216592 0.04713019 -0.09231858 -0.013670106 -0.10971731 -0.08795455 -0.41782272 -0.020602174 0.045551136 0.061938044 0.32213283 -0.37762994
secretvenice -0.019370174 -0.017425444 0.01599777 -0.02066359 0.023257496 -0.012581119 -0.012132237 -0.016333798 -0.021208612 -0.02021367 -0.005612081 0.01885731 0.024355011 -0.0109591875 0.010615477 0.02301065 0.020521479 -0.008315286 -0.017354632 -0.024451349
myfavouritecolour 0.000799099 -0.013907152 0.019179212 0.013195308 0.009657806 0.015712747 0.018363887 -0.023047138 0.0142576415 0.008701237 -0.0044041276 -0.021893078 0.014506834 0.021105757 -0.022354398 -0.022909233 0.0077088233 0.000102495775 -0.013556788 -0.021611476
lavieenrose 0.02207947 -0.09260788 0.049382295 -0.07150221 -0.085186124 0.06998796 -0.15916307 0.07660432 -0.009947121 0.029394304 -0.056227196 -0.0048444853 -0.07108137 -0.043997902 -0.24315368 0.0020350623 0.036966063 0.019503318 0.17013043 -0.20579705
inthemoodforpasta 0.010824116 -0.02166661 0.018254912 0.015710367 4.9829483e-05 -0.007311931 -0.015947431 -0.011023805 -0.018016076 0.008382393 -0.021311948 0.004903104 0.004336253 0.0058205687 0.011851577 -0.014088345 -0.02477382 0.010248328 -0.01384101 0.01884797
sunday 0.0078659225 0.021082358 -0.007240668 -0.0021670368 0.0014129225 0.006932495 -0.013298971 -0.024273291 0.018882493 0.010072755 0.0043055266 0.0153988805 0.01605356 -0.0058765598 0.016886117 0.014864089 0.0072955955 -0.008479133 0.0018358566 -0.013804662
babyboy 0.010622295 -0.013105059 0.0062103607 0.009303348 0.015541559 0.015001154 -0.00916582 0.0073718634 0.0023444537 -0.0075911246 0.0019077566 -0.0017353799 0.011901809 0.007918952 -0.0092931185 -0.022187704 -0.015901813 -0.015886039 0.020161172 0.01724759
mondaynight 0.016457846 0.014110098 -0.005253235 -0.005942017 0.0226024 -0.0103827035 -0.023419091 -0.01138554 -0.008050477 0.021775575 0.01765331 0.017332567 -0.020304877 -0.017128304 -0.017864903 -0.0016858727 -0.0077411886 0.0055854134 -0.0123896515 -0.011198741
weekends -0.008291233 0.004485432 0.0008148458 0.024235113 -0.020911181 -0.02222066 -0.0025900863 -0.004392341 0.0017453972 0.006683113 -0.007642094 -0.016849563 0.018252453 -0.01467258 -0.009483102 0.0063719805 0.0022072904 -0.005566735 0.0126090925 0.008826671
lazystarttotheday 0.0065810634 -0.119846836 0.063066594 -0.10550076 -0.075430304 0.08720828 -0.16473909 0.08707907 0.010245416 0.0023624063 -0.09284107 0.03653451 -0.050190296 -0.06995558 -0.23019016 0.024123685 0.046897236 0.041629534 0.14228569 -0.18948896
themorningafter -0.002775898 -0.076727 0.030350301 -0.047163576 -0.045666903 0.04695836 -0.1330388 0.0590651 -0.027318167 0.015767585 -0.0439129 -0.0051623113 -0.034938026 -0.04641624 -0.17768534 0.008154417 0.057606995 0.026193164 0.116595104 -0.10990078
andthesweetestroses 0.01942834 -0.11184956 0.04795012 -0.06453753 -0.061965648 0.101633996 -0.22088742 0.03744771 -0.0034648776 0.022162592 -0.09388102 -0.009224623 -0.05384355 -0.0403234 -0.28072935 -0.034797985 0.023697032 0.040445883 0.21561188 -0.2934979
tuesdaynight 0.015017267 -0.096965745 0.036673862 -0.062256604 -0.022394264 0.066949055 -0.10688703 0.11915062 -0.03810425 0.016299298 -0.068012714 0.0084222285 -0.024858076 -0.031843077 -0.14730029 0.018712752 0.047603328 0.024775771 0.15246922 -0.17093824
wishiwerethere -0.005737897 -0.016503073 -0.0067065563 -0.0029460099 0.009277759 0.001861129 0.009219432 -0.01797075 -0.018830752 -0.014511648 0.014370846 0.01065761 -0.001807157 0.00016846322 0.0075390693 0.001868749 0.007364938 -0.008626148 -0.024808794 0.014887502
postcardfromvenice 0.026069127 -0.114379175 0.048725143 -0.074393965 -0.06241012 0.07708129 -0.17218 0.08193553 0.0063725593 0.025559243 -0.064498425 -0.036231905 -0.08128963 -0.0375656 -0.24792632 -0.005515562 0.080101885 0.0010006253 0.19311081 -0.1965475
decorativegourdseason -0.011221153 0.011186613 -0.007975828 0.014827652 0.000686625 -0.0006082114 -0.0027753413 0.01876436 -0.0036457889 -0.0054914895 -0.012665331 -0.0036790278 0.01646095 -0.013610357 0.004890153 -0.0009481944 -0.007173542 -0.0012774915 0.0065439474 -0.0157611
wildfoodlove 0.028868778 -0.16241059 0.021588791 -0.0553071 -0.07527792 0.089303486 -0.17642938 0.11697604 -0.032935277 0.04147182 -0.034786213 0.009252246 -0.04768625 -0.0030435016 -0.213688 -0.0055538015 0.05029773 0.015030866 0.17230447 -0.19789124
tomatoseason 0.012025828 0.018507319 0.02342944 0.015590178 -0.011935047 -0.022992572 -0.018813401 -0.024281124 -0.019021014 -0.018467184 -0.006099563 0.014050523 -0.011157743 -0.013619018 -0.024639597 0.021408742 -0.006884018 0.020713525 -0.02279821 -0.019178158
peakperformance 0.011371689 0.0049127676 -0.0040599853 0.024550265 -0.015005884 0.012172537 -0.0054852962 0.017713802 0.004874844 -0.012438036 -0.005188618 -0.0014766008 0.016476879 -0.0027149823 0.018506916 -0.0027425792 0.0068545435 0.02048049 -0.0031393263 -0.010814336
leoseason 0.02930421 -0.12721327 0.063826896 -0.071860164 -0.04942805 0.06516591 -0.21234547 0.10654093 0.002065951 0.030810399 -0.09583807 0.001359104 -0.05890673 0.0014712808 -0.2627028 -0.03384635 0.04589717 0.0003385828 0.18826482 -0.25239924
summerismagic 0.024412196 -0.12686688 0.037229337 -0.10487007 -0.06951734 0.059293967 -0.17011449 0.07094483 0.01221226 -0.007747678 -0.020950615 0.030091533 -0.06949488 -0.00334881 -0.26000825 -0.06746128 0.047121044 0.018447226 0.16656964 -0.2090342
feedlife 0.06918255 -0.21424857 0.079306915 -0.1484744 -0.08069224 0.14710855 -0.35499308 0.17726088 -0.039314967 0.042359553 -0.061293155 -0.00011856065 -0.103435114 -0.031243058 -0.45138243 -0.0015702939 0.07163069 0.032559406 0.33686772 -0.3539125
summerlovers 0.015176477 -0.0096270805 0.00057170726 0.017035918 0.011233723 -0.012916419 0.0037425943 0.016248008 0.018373476 0.020679893 -0.02477099 0.015404871 0.00958412 -0.017561197 -0.0053002927 0.003277287 0.0024487022 -0.00022902712 0.005773088 0.007180156
alpenglow -0.023359487 0.014248317 0.017615689 -0.021857386 0.008773213 0.012617247 0.0046995077 0.02111365 -0.023300007 -0.005872568 -0.000562679 -0.018680355 -0.013173694 0.0190666 0.016544783 0.0149889905 -0.020153936 0.010642299 -0.0032014158 -0.008047681
weekendwarrior -0.019148882 -0.016417217 0.0013022516 0.0017809756 0.012745755 0.00025996566 0.004846763 -0.023516163 -0.015237927 -0.000209013 -0.020159528 -0.020853564 -0.020161565 0.01857643 0.024177628 -0.022295907 0.011770209 0.024155362 -0.017401055 -0.012584388
figtastic 0.03450737 -0.14103837 0.023845462 -0.06458952 -0.065112256 0.09702257 -0.1736547 0.09812065 -0.012500536 0.04541336 -0.052467324 -0.007998793 -0.06483792 -0.03185681 -0.20897505 -0.017836856 0.018429263 0.0049920385 0.14882243 -0.23828694
figonometry 0.030164909 -0.07239788 0.07149832 -0.06708028 -0.06337384 0.0826402 -0.16482115 0.08685128 -0.009445418 0.0480439 -0.0432346 0.02035662 -0.020499196 -0.03320946 -0.23359208 0.057612102 0.07004718 0.049790613 0.19493538 -0.19699211
fignewton 0.05073651 -0.1661905 0.08679237 -0.10161228 -0.08925249 0.124706276 -0.26301348 0.110459745 -0.022170406 0.050120577 -0.056605026 -0.01456519 -0.06443086 -0.026058707 -0.31673715 -0.021629475 0.0889425 0.03973693 0.28239504 -0.33223367
summerfridays 0.039248645 -0.55537933 0.1505566 -0.48268652 -0.7404164 0.277271 -1.4400342 0.50015926 -0.91300994 0.096287236 -0.4230084 -0.5156732 -0.8945026 0.40568352 -2.6447906 -0.13140555 0.81273645 -0.08151621 1.26245 -1.060861
optoutside 0.013141377 -0.02138621 0.015185373 -0.023481613 -0.0114482315 0.0021283273 0.009994002 -0.01831331 -0.0093436185 0.02419983 -0.0014835391 0.0002997853 0.001351485 0.004020566 -0.011481431 0.0046909153 0.0021150615 -0.020225143 0.011795832 -0.01341433
mood 0.01335611 0.007650839 -0.0011495799 -0.00872246 0.0052689854 0.017033936 -0.011472404 -0.0025736783 -0.017395765 0.02410316 0.01121738 -0.0077048 -0.024527272 0.017930651 -0.011604729 -0.009564093 -0.0037867874 0.019369593 -0.0032928735 -0.015727941
joyspotting 0.051207982 -0.3677182 0.15953377 -0.18764196 -0.2618219 0.21836607 -0.8321071 0.23829143 -0.19829917 0.21948121 -0.18621555 -0.0902165 -0.39646846 0.22186804 -1.1938895 -0.32774365 0.21370748 -0.104195386 0.7297244 -0.7590797
ilovesummer 0.023062017 -0.10068868 0.04666624 -0.07663888 -0.058269415 0.08380523 -0.14980859 0.08492583 -0.039509676 -0.004131112 -0.07761317 -0.0038277823 -0.024096938 -0.03686251 -0.2238507 -0.00036887982 0.047984857 0.0058135684 0.15032743 -0.20642981
teamworkmakesthedreamwork 0.008704724 0.0008331444 0.0048918426 0.011973215 0.009522064 -0.017172754 -0.0019219611 0.017370941 0.019502854 0.018592196 0.0034786854 -0.0036870893 0.02376634 0.022020428 0.015173214 0.0071275216 -0.0025031082 0.020050148 0.00593324 -0.0015038736
freedomfries -0.0015326645 -0.019725274 0.0018355697 -0.005556479 -0.012933344 -0.0008089058 0.012170626 0.014606828 0.022808192 -0.010612899 -0.01435178 0.020685693 0.009631129 0.014557945 -0.020242492 -0.0040480904 -0.018311832 0.00449327 -0.0052990373 0.008533167
iloveyou -0.01185025 0.004952779 -0.017799538 0.010518407 -0.022533188 -0.008445833 0.011969486 0.01643538 0.012455376 -0.0132327555 -0.012727139 0.018509677 -0.021889409 0.004170632 -0.014895159 0.023161093 0.005577445 -0.022639304 -0.017637696 -0.008314904
fuckthepatriarchy 0.030988006 -0.12534322 0.0452919 -0.05102772 -0.06838423 0.0698465 -0.16488194 0.054204624 -0.011301815 0.061019037 -0.061572284 0.020510972 -0.06585879 0.0103132455 -0.23432447 -0.014695571 0.07458979 -0.0206179 0.21820058 -0.23520139
jbfa 0.10778591 -0.22141328 0.0946854 -0.13340837 -0.08235856 0.14236309 -0.24071856 0.20003265 -0.033493914 0.014507684 -0.07446621 0.004559208 -0.04989503 -0.122071944 -0.32155132 0.06342282 0.08765705 0.118997216 0.28217143 -0.37291718
chicagohome 0.025281182 -0.17106013 0.08239345 -0.10674472 -0.13008955 0.068162516 -0.27629897 0.19116189 0.04059701 0.02388549 -0.11621578 0.014170127 -0.057698723 -0.097589746 -0.3755401 0.005038967 0.016219538 0.041077893 0.3548756 -0.35409677
illinoisrestaurants -0.021376463 -0.20895056 0.059688013 -0.14414658 -0.13989183 0.10690408 -0.36593506 0.14993092 0.044328816 0.058403634 -0.06294882 0.03788228 0.0046251505 -0.10185449 -0.35570678 -0.012999876 0.06577573 0.06881833 0.2996359 -0.39886189
petalpower -0.011286917 0.013970571 0.017580008 0.014691142 0.012973929 0.02208493 -0.020015165 0.006222304 0.005906556 0.024794234 -0.012356612 0.0031888224 0.00062679313 0.00045405887 0.018657425 0.011156606 0.0061293337 0.011193881 -0.0048963074 0.023391323
spargel 0.00057941675 -0.0185648 -0.014679265 0.008871717 0.020012865 0.013430508 -0.017143063 0.005308291 0.009779224 -0.0046516806 -0.008798534 -0.009372696 0.024168214 0.006171232 0.012822935 0.012715837 0.020458596 -0.018184572 -0.007900972 0.006911261
pollinators 0.02464463 -0.023557285 0.021847041 0.0037213601 0.0049759187 -0.009296715 -0.022709964 0.024380209 0.0064719412 -0.004266465 0.0076345224 0.01967101 0.02261136 0.0047400948 -0.004285449 -0.015893765 0.02302649 -0.024227798 -0.020356912 -0.018572304
greenstrawberries -0.017425233 0.013048714 -0.017528575 -0.010187328 -0.0247744 0.005298678 0.0014455412 0.018732747 0.019714708 -0.013992357 -0.022037888 -0.0048192237 -0.01784138 0.013548778 0.0063533317 -0.002132792 -0.0044741724 0.0074133556 0.010354837 0.007357521
soothinbspringvibes 0.030207863 -0.10826639 0.037002105 -0.088247955 -0.053488605 0.074930996 -0.16530514 0.13620399 -0.033938114 0.005756277 -0.078780964 0.026491512 -0.039242037 -0.05190522 -0.24388032 0.043529496 0.03578929 0.047208276 0.1956054 -0.18466724
squidink 0.022663837 -0.01887921 -0.013658819 -0.012776992 -0.005168408 -0.015995339 0.005563909 -0.010528842 -0.005800372 -0.022949068 -0.021683553 -0.02303617 -0.010725066 -0.011314765 -0.01573948 -0.0013580974 -0.003146017 -0.0017719064 0.008066924 0.011201968
carbcycling 0.048643854 -0.11896355 0.032670874 -0.07524359 -0.047977105 0.08404052 -0.1950213 0.092033505 -0.0027968506 0.028614638 -0.0503657 -0.025899608 -0.027670648 -0.014955012 -0.24124964 0.003784988 0.014011942 0.014243708 0.1579662 -0.23963751
conjuringspring -0.011043019 -0.010341502 0.00814371 0.008692881 0.022099467 0.005679529 -0.0032329317 0.0075993743 -0.007373303 0.0037184153 0.010338934 -0.0002244357 -0.0239455 0.005509913 -0.013127732 0.00875592 0.004229348 -0.013155028 0.01065032 -0.013000703
radish 0.03561686 -0.12004591 0.036553252 -0.07429758 -0.071407855 0.07368914 -0.20352222 0.095032446 -0.011186717 0.029442193 -0.03111835 -0.05908501 -0.05186414 -0.043186355 -0.25937226 0.0024162426 0.06720069 0.017067611 0.15033837 -0.18587954
hurryupspring -0.010723218 -0.0095071765 -0.022702947 -0.022702629 -0.014115688 -0.0034066588 -0.006623376 0.0024472717 0.0064378213 -0.012594125 0.000113952905 -0.0060181376 -0.019106101 -0.019580906 0.004885653 0.014618056 0.009029092 0.018093405 -0.0041216277 0.0070402566
bivalves 0.022505792 0.0031929053 -0.01886501 0.011692064 0.003607165 0.012602573 -0.010045004 -0.0005883835 -0.011795923 -0.0019034892 0.015387738 0.0010339227 -0.020190915 -0.013273174 -0.0028120242 -0.024349138 -0.006831851 0.018013222 0.02325019 0.015061816
theworldismyoyster 0.064635 -0.16656771 0.048932727 -0.106546804 -0.08112292 0.07075866 -0.20436007 0.083925284 -0.011447209 0.028478928 -0.07193252 -0.018190349 -0.073919505 -0.017498007 -0.2522565 -0.023611642 0.058896005 0.02465434 0.16126284 -0.19060335
terroir -0.007013822 0.00020210445 0.002760578 -0.005235743 -0.015288117 -0.016229901 0.021702738 -0.0046135634 0.019262193 0.014578527 -0.020700881 -0.012291404 -0.013644069 0.0043031573 -0.0045037325 -0.011321834 -0.015588961 -0.010323331 -0.024050161 -0.006659245
rhubarbarians 0.00084113516 -0.0038980208 0.009591324 -0.0013732705 0.02032051 -0.013902816 0.022177877 -0.0064213686 0.013124539 0.020716926 -0.01267454 0.016133653 -0.005910268 -0.009149283 -0.009722135 -0.01224705 -0.0083567165 0.010924907 0.016801866 -0.0011932794
radicchiovibes -0.016566884 0.00097179785 -0.0058299955 0.00031715631 -0.0056662504 -0.022946049 -0.011839244 -0.0064947605 0.004682865 -0.01957428 0.0071514416 -0.017265674 0.0005060341 0.022735378 -0.0078034066 -0.0077622123 -0.0051811747 -0.0026350804 0.0031982008 -0.0021684207
millenialpink 0.027518796 -0.1333583 0.042888224 -0.07344735 -0.05832384 0.056952007 -0.19550315 0.11170326 -0.0010289336 0.014987303 -0.06905764 -0.008272093 -0.083138056 0.0036723875 -0.25176847 -0.01328719 0.060181893 0.028837709 0.18001714 -0.24232677
vegan 3.4710662 -5.572763 2.952229 -3.175884 -2.980466 1.097552 -12.574916 3.8952782 -4.2366633 2.7070305 -2.5273278 -3.6922998 -6.1493645 5.2847457 -19.10277 -2.382193 3.4998314 -1.4049292 11.501747 -9.266788
glutenfree 2.316598 -5.36183 2.0876625 -3.7582207 -3.1936755 1.3583492 -9.721713 3.5155537 -2.6155875 1.6572692 -2.6848252 -2.2945712 -4.2386775 2.5962384 -13.556113 -1.4153314 2.059944 -1.2245729 8.521888 -7.7916765
sponsored 0.35946685 -1.3646748 0.34996346 -0.5994841 -0.66611964 0.46459353 -2.2184525 0.72470015 -0.35475653 0.32261178 -0.42231554 -0.42839122 -0.4055557 0.27332157 -2.5832312 -0.0851103 0.39706364 -0.14445129 1.9610615 -2.184601
prepsaucesunday 0.050366946 -0.4264949 0.053117823 -0.24814557 0.19736712 -0.059457954 -0.61967933 0.19742501 -0.090752766 -0.19236384 0.007830088 -0.02969449 0.06650557 0.16209738 -0.50792825 0.25765547 -0.15410598 -0.056576986 0.19983882 -0.48392788
pizzamagic 0.01919221 0.0019647125 -0.0035943724 0.021954654 -0.021672685 -0.003659537 -0.018301126 -0.017919784 0.020101933 -0.020677134 -0.019301753 -0.007685825 -0.0022401065 0.01366006 -0.01824058 0.0054673348 -0.013717005 -0.0036746748 0.0035933312 0.0044904537
ToastTuesday -0.009652913 0.008569764 0.021422492 0.0061468333 -0.008055732 -0.016958829 0.0102372635 -0.023624275 -0.0036586262 0.0021247808 -0.015672307 0.019180892 0.0016886033 -0.0076492094 -0.004259512 0.020778717 -0.011101076 -0.021279875 0.010983812 0.017234715
dairyfree 0.55258465 -1.278006 -0.09146011 -0.6913135 -0.7814396 0.62344 -2.230572 0.5220207 -0.68882173 -0.014773866 -0.65322566 -0.63722646 -0.71769804 0.5788542 -2.6168163 -0.38099453 0.4281408 -0.1072957 1.5536013 -2.0586507
grainfree 0.097623475 -0.3284292 -0.007595376 -0.1778558 -0.0060020345 0.060079936 -0.5292286 0.18753958 -0.09700839 -0.107472405 -0.06873 -0.046604227 -0.0084841335 0.10087558 -0.44535717 0.12497332 -0.023807675 -0.005784008 0.24332803 -0.46760088
refinedsugarfree 0.09729211 -0.28671247 0.022290865 -0.20843564 -0.06550325 0.14223035 -0.42106926 0.18081525 -0.05378867 -0.031825997 -0.10961116 -0.023124104 -0.08432998 0.03204778 -0.32864058 0.030077046 0.023251489 0.05170684 0.26665825 -0.39952055
allthefrees 0.02329808 -0.3080939 0.0240981 -0.17005402 -0.0510058 0.15088816 -0.4406736 0.21990258 -0.10841928 -0.049016975 -0.12720525 -0.015224251 -0.10037854 0.031291813 -0.4209975 0.036487173 0.019892007 -0.006283356 0.28918368 -0.48385453
teamwedge 0.024040284 -0.17292465 0.03502127 -0.06874384 0.011753761 0.007357685 -0.30125457 0.07397101 -0.017429873 -0.090174 -0.028552761 -0.05461748 0.039792165 0.038979672 -0.2062599 0.032891724 -0.050998654 0.01444167 0.12630174 -0.19488433
foodandwine 20.891232 -42.546307 21.89761 -29.823946 -31.280186 14.62324 -83.29773 27.229733 -22.721544 19.191721 -23.017885 -17.928417 -41.48255 18.006893 -131.75313 -17.794823 25.163939 -9.403819 82.04931 -72.986664
FWhealthy 0.215649 -0.42582536 0.005009214 -0.25945276 -0.047695868 0.057162564 -0.647536 0.083563924 -0.12902386 0.04406517 0.03955448 -0.07758465 -0.15648116 0.3287049 -0.69746727 -0.14081377 0.08330014 -0.12325162 0.39236382 -0.39922053
thekitchen 0.1864405 -0.40138072 0.011332574 -0.1858136 -0.050440952 0.079424985 -0.62747914 -0.010017324 -0.09851338 0.11199973 0.0872424 -0.14400081 -0.24203387 0.41137832 -0.7162096 -0.22351827 0.07450008 -0.25025147 0.3516917 -0.42103654
feedfeed 19.952305 -33.51398 18.497295 -22.12683 -25.774866 9.378219 -67.59651 23.334803 -19.36647 17.87583 -18.76743 -19.152405 -36.176914 18.006632 -111.660095 -15.067138 22.757648 -6.4818435 65.962776 -56.936993
iamwellandgood 0.1469603 -0.42507684 -0.042479184 -0.16793534 -0.057936136 0.0773253 -0.71664006 0.014006144 -0.04447198 0.12274715 0.02337455 -0.13879932 -0.24405941 0.5076735 -0.7977918 -0.4156003 0.08820474 -0.25824186 0.39196816 -0.43083683
onthetable 3.0531883 -4.509081 1.3215818 -2.5060568 -3.210508 1.6570373 -7.832031 2.0004961 -2.0164337 1.7287778 -1.7963301 -2.8705175 -4.7617397 3.042321 -13.793777 -1.8246026 3.0753567 0.2853262 7.7029543 -6.852523
f52extra 0.13240801 -0.32876295 -0.051571835 -0.14961128 -0.13955913 0.07560339 -0.62387204 -0.07406615 -0.0038760777 0.16769393 -0.12445292 -0.18105389 -0.22983947 0.26897654 -0.73972154 -0.3638196 0.21498664 -0.25860357 0.31829128 -0.5547189
f52grams 10.950013 -15.766623 8.505972 -9.232139 -12.423313 4.2928605 -33.735317 10.719885 -10.943084 9.53931 -9.3030815 -10.131441 -17.46335 10.2756605 -54.847202 -8.562561 11.638451 -4.9451313 32.303173 -26.604496
bareaders 1.8133374 -6.19442 2.614477 -3.3755982 -3.678048 1.6333989 -11.039332 3.7399457 -2.4704425 2.8711765 -3.5641882 -2.3290336 -5.822119 2.739757 -17.603493 -3.7823799 3.5364199 -1.6916234 9.652791 -9.061043
plantstrong 0.07134549 -0.26931745 -0.09033639 -0.07674411 -0.15343593 0.1317602 -0.5347845 0.029795371 0.063971475 0.15798628 -0.03824689 -0.23016205 -0.20976676 0.1562907 -0.7052883 -0.3688913 0.12812755 -0.15419549 0.33778146 -0.44078866
huffposttaste 8.232194 -15.416554 8.627368 -9.551456 -11.725357 4.6174164 -28.838108 9.198802 -8.625705 6.870361 -8.143811 -7.3746734 -16.567781 8.131447 -47.714497 -6.792828 9.875669 -3.4948027 28.282413 -23.301409
buzzfeast 2.2560468 -5.0205536 2.2854378 -3.0939655 -2.7175627 2.0238922 -9.253216 1.6862463 -2.1868355 1.7067591 -1.6493701 -2.49124 -5.0022354 2.650493 -14.373575 -3.3424234 3.6111174 -0.8665433 8.290936 -6.8894672
eeeeeats 9.332557 -19.586838 10.002807 -12.674571 -14.9618025 8.948695 -35.502983 13.590085 -9.920645 8.319151 -10.988515 -7.3567142 -17.9744 7.250763 -56.79541 -8.163071 13.353306 -3.6551585 36.65854 -31.611546
beautifulcuisines 13.171662 -23.516436 13.849659 -16.798464 -17.693016 7.359193 -46.80545 15.35691 -13.913042 11.816801 -13.999717 -13.1321535 -24.75621 12.440026 -77.35566 -10.187978 14.871264 -5.947976 46.15256 -39.553596
thekitchn 5.7419767 -7.6393147 4.140908 -5.5243735 -7.032908 1.8207453 -15.682273 4.252885 -4.7090044 4.501856 -4.2974806 -4.287788 -9.239755 5.2607684 -28.40769 -5.019059 6.4521604 -2.1171808 16.163334 -12.840833
forkyeah 10.860705 -23.833168 9.279878 -15.583278 -15.916507 10.101529 -42.41348 16.325283 -12.03493 9.5065365 -12.801581 -8.432709 -19.266743 9.829844 -66.71852 -8.416227 14.373878 -2.483389 42.473953 -36.933716
yahoofood 1.828124 -2.9204211 -0.8187136 -1.3942977 -1.493926 0.7869938 -3.2906659 1.2313461 -1.3240744 0.6265961 -1.0856891 -2.0101073 -2.128657 1.7031655 -5.24431 -1.1742263 2.0253284 -0.52354705 3.6010983 -2.1540437
buzzfeedfood 9.131101 -17.45404 7.5356 -10.358576 -12.220578 8.009167 -30.346485 12.306322 -10.481974 8.618952 -10.4504595 -7.619104 -16.723833 8.833827 -52.149216 -6.730602 10.716805 -2.700812 31.828974 -28.770042
vscofood 1.5732782 -2.736453 -0.076849595 -0.1319 -1.3862567 1.0799826 -2.2835984 1.264112 -0.7247968 1.0983293 -0.4753562 -1.6692008 -2.4330826 1.501089 -5.977141 -0.4503075 1.1631368 0.11856277 2.9345095 -2.6867416
foodstyling 5.552873 -9.149784 4.6136394 -5.2418985 -5.7153296 1.8493193 -17.97313 5.3195887 -5.671781 4.7443166 -4.9993196 -5.951868 -10.958243 5.26625 -30.124752 -3.3276122 5.641664 -2.50208 16.501358 -14.423916
foodphotography 9.81618 -18.606173 9.64516 -12.016724 -14.02546 4.8611984 -36.965416 11.01863 -10.169725 10.256799 -9.491469 -9.443338 -20.192589 9.780683 -60.562794 -8.972168 12.040018 -5.5186753 35.601997 -30.488087
lifeandthyme 2.207354 -1.4677573 0.96242124 -0.60417753 -3.3218737 -0.22196402 -6.02084 0.7123264 -1.8387245 2.7772167 -0.7548641 -1.9103394 -3.897323 3.8719575 -10.458039 -1.7329775 2.6383464 -1.230636 5.1375003 -3.7837527
eater 10.518456 -22.50997 10.092292 -15.693057 -16.317608 10.090042 -39.39816 15.88669 -11.432262 10.379868 -11.535507 -8.436175 -20.265291 8.373742 -65.81362 -8.068782 14.0686 -4.1346936 41.025032 -38.066788
heresmyfood 1.4403282 -4.1267343 1.3006036 -1.2293683 -3.5053575 0.76034975 -6.6524 2.2299852 -1.8400292 2.8279505 -1.856985 -2.0868707 -3.884808 2.769371 -10.727637 -1.5604416 2.9980147 -1.0156251 6.09332 -5.023804
food52 15.336396 -30.853893 16.598602 -21.600521 -23.094574 10.253644 -57.2013 20.88758 -15.2603655 14.754194 -17.939926 -13.386392 -29.274897 11.968231 -91.89015 -12.105121 18.99561 -6.526851 56.560715 -51.372482
gloobyfood 0.67077327 -1.9255471 0.8712716 -0.2995436 -2.2416358 -0.25690967 -3.1748927 1.4788989 -0.6918958 1.9419284 -0.8302045 -1.3090149 -2.7939627 1.5103025 -7.0674734 -0.034982946 1.0914245 -1.0241932 3.5210733 -2.6948643
foodgawker 10.773218 -24.511026 12.097968 -16.60495 -18.34427 9.485381 -45.299854 17.381626 -12.103355 12.0735655 -12.020794 -8.466955 -23.29793 8.948714 -74.2936 -10.156953 14.882765 -4.627286 45.790775 -40.659542
eattheworld 5.1355944 -8.079901 4.752957 -5.2058325 -7.192167 2.460728 -17.347864 5.582628 -5.0694103 4.9912186 -5.1499486 -4.2389154 -9.852822 5.4705935 -27.859886 -4.245665 4.6436095 -2.980688 16.640665 -13.559429
eatfamous 9.837753 -22.43327 10.668799 -15.080309 -16.15844 8.612631 -41.60594 17.032671 -11.162093 9.6864605 -12.867798 -8.513546 -21.323597 7.664258 -65.095276 -8.802789 14.40078 -4.218501 41.416676 -36.971012
tastingtable 3.1603982 -8.289094 3.9357448 -4.718926 -6.159547 2.441918 -14.631284 5.2657185 -3.8666925 4.118428 -4.1108794 -2.974917 -7.9948955 4.045854 -24.020569 -3.4741123 5.45887 -1.9345444 14.770488 -12.129749
dailyfoodfeed 10.1008 -23.825138 11.33097 -15.473869 -16.206388 9.629097 -43.637318 17.25846 -11.208763 10.0523 -13.083391 -7.9291344 -22.599972 8.598927 -69.1288 -8.779721 14.528382 -3.8282022 43.622963 -39.13578
spoonfeed 17.5383 -42.917267 21.705486 -28.513865 -28.742172 16.884739 -78.55235 30.06298 -21.32574 18.010874 -21.3617 -15.570152 -37.91087 14.521439 -122.58744 -17.193892 25.42292 -8.072306 78.38553 -70.04409
foodbeast -0.5300749 -2.2258277 1.3460383 -0.54550904 -0.57764226 0.026643034 -1.755852 1.5730032 0.39333582 1.6869913 -1.4732541 0.3814535 -1.9607365 0.6681687 -4.3797593 -1.0138211 0.73147887 -0.9641951 3.3247285 -1.6141553
hautecuisines 0.90783167 -1.2615291 1.0408669 -0.04028624 -0.8430186 -0.47358415 -3.6962364 1.0895047 -0.3185528 1.3652891 -0.20075256 -1.5392375 -2.6626828 2.3618917 -6.3195357 -0.19318873 1.695628 -1.550088 4.2088366 -1.9529675
foodblogfeed 1.9727807 -8.5793705 4.1135473 -5.433772 -6.092679 2.8509555 -15.86368 5.4886284 -3.9226437 4.0779853 -4.9655695 -3.5208333 -8.779989 4.5094523 -25.895887 -3.4134483 5.5660734 -2.7036915 16.409021 -13.3293495
onmytable -0.85550076 -1.2069216 0.9750215 -0.3746223 0.19286938 0.11001606 -1.2763778 1.2185144 0.72794425 0.9688464 -0.8732418 0.63748723 -1.4744035 0.123814516 -2.7958286 -0.23341864 0.75306463 -0.6804089 2.6040835 -1.1143017
theartofescapismcooking 0.39253232 -1.1601073 0.40186772 -0.5599677 -0.46117368 0.5685288 -2.0751243 -0.8919263 0.011201902 0.40091988 -0.22671628 -0.26201016 -0.3922388 0.5245368 -2.1853263 -1.4226981 0.6804656 -0.96434623 1.4111414 -1.6276258
ladyandpupscookbook 0.34613258 -1.137053 0.17033719 -0.5872593 -0.46471617 0.50929874 -1.9176685 -1.0187724 0.2800691 0.33445612 -0.25601813 -0.28733686 -0.20095131 0.4332148 -1.7457674 -1.5954031 0.66456246 -0.91129285 1.1271327 -1.3039565
holidaygiftguide 0.119407415 -0.64987016 0.016565436 -0.27414674 -0.3359988 0.31435022 -1.0268683 -0.5906848 0.16661155 0.10913253 -0.076409906 -0.17812485 -0.090657406 0.26523736 -0.952552 -0.9678147 0.36429182 -0.51808274 0.6193705 -0.68304384
homedecor 0.012703975 -0.21399416 0.53774077 -0.37136945 -0.2636352 0.23874328 -0.23753771 0.35067827 0.06983652 0.0019833422 -0.42908028 -0.1474082 -0.17390777 -0.63569814 -0.5992912 0.18221536 0.05091326 0.36927593 0.5287416 -0.44032612
decor 0.06278132 -0.2351243 0.5391122 -0.42566216 -0.36079323 0.30726272 -0.3178726 0.29021707 0.08317391 -0.043338235 -0.45082054 -0.21749534 -0.19906226 -0.6804157 -0.6794638 0.094629005 0.08638427 0.36801815 0.57545537 -0.5058715
homedesign 0.05741561 -0.25868735 0.5894508 -0.53699833 -0.34631225 0.33611432 -0.37024426 0.3763955 0.15447128 -0.04272185 -0.52956456 -0.15728924 -0.22606039 -0.75099826 -0.73928505 0.034541033 0.085544646 0.3688016 0.6453261 -0.5990453
interior 1.7205135 -2.9912596 2.7320085 -2.2225885 -2.6846216 1.1700293 -5.8595896 1.6013187 -1.9272848 1.1462461 -2.1775713 -2.6121418 -3.7457187 0.6231249 -10.474505 -1.5345936 1.9248244 -0.64735174 6.3447814 -4.9248986
interiors 0.10397471 -0.16213654 0.5966867 -0.47769567 -0.25551572 0.33558914 -0.27324602 0.304055 0.15306057 -0.15111195 -0.54598397 -0.17915276 -0.14145967 -0.8233766 -0.6035465 0.09614934 0.023592036 0.44899514 0.55214834 -0.6218876
decoration 0.0433179 -0.28234076 0.61392826 -0.52062434 -0.34903926 0.3817824 -0.4185844 0.45462963 0.13052551 -0.12085803 -0.5267606 -0.17720367 -0.21443275 -0.7850764 -0.7992028 0.12740701 0.045474045 0.47657064 0.6966944 -0.6842766
instahome 0.10896598 -0.21702817 0.64790356 -0.50918674 -0.2590887 0.3639084 -0.35462362 0.42039746 0.194363 -0.045107357 -0.49473935 -0.11990265 -0.156941 -0.8582387 -0.6942114 0.16378392 0.030017098 0.47019157 0.6540799 -0.6534432
homestyle 0.13713007 -0.1860645 0.6350532 -0.527066 -0.3173279 0.35279042 -0.35406503 0.42324153 0.16069564 -0.064768784 -0.49095216 -0.13318184 -0.13604745 -0.8357338 -0.70006067 0.17029169 0.08648162 0.46714368 0.65817577 -0.69958985
instadecor 0.0640483 -0.13782768 0.62282324 -0.508838 -0.28777972 0.36068803 -0.32668146 0.34710282 0.23512824 -0.08873456 -0.42136598 -0.11825812 -0.057699747 -0.8290476 -0.6246815 0.11456222 0.09698197 0.53750396 0.6221407 -0.6903657
interiordecor 0.22677836 -0.14393802 0.5179693 -0.50891405 -0.18242341 0.34562933 -0.4352372 0.3513247 0.31516066 -0.014014008 -0.24740873 0.117152706 -0.0049611484 -0.6190108 -0.73927444 0.04977754 0.12393472 0.39513355 0.7730539 -0.84106416
furniture 0.23504727 -0.10342639 0.4871919 -0.52447927 -0.15641476 0.3695339 -0.40944532 0.3386799 0.30971056 -4.107585e-05 -0.19317326 0.19707236 0.05033613 -0.5712661 -0.6930145 0.034282062 0.10049616 0.4194018 0.6997199 -0.8205448
interiorstyling 0.44132403 0.12085612 0.5380873 -0.8563478 -0.07300177 0.3929828 -0.373414 0.36167803 0.26330933 0.006324313 -0.15609902 0.17924456 -0.028433433 -0.51263875 -0.77640784 -0.014715768 0.2617293 0.53303194 0.78230613 -0.79483753
interior4all 0.48465684 0.04827925 0.64518815 -0.4936299 -0.5543628 0.4261461 -1.0388496 0.10241267 0.7332663 0.025022347 0.06604795 0.08760421 0.5334305 -0.8266067 -1.3927741 -0.25167844 0.24622665 0.8933189 1.0592985 -1.5038935
homedecoration 0.4767705 0.114837825 0.47270054 -0.8577062 0.031537253 0.3494398 -0.35470048 0.44017512 0.29045436 0.027690738 -0.062005926 0.25092155 0.046852957 -0.48021758 -0.741046 0.048115183 0.26658008 0.49043602 0.77761483 -0.8378176
homestyling 0.45136553 0.07932617 0.5118422 -0.8617074 0.021522054 0.3785693 -0.4025846 0.3932373 0.3198914 0.03377073 -0.07117341 0.27616292 0.008706453 -0.50681907 -0.76838034 -0.039593577 0.28753445 0.45093518 0.81375587 -0.8449042
instadesign 0.4899618 0.10093212 0.4741633 -0.86627245 0.03357612 0.3479421 -0.36585957 0.47955903 0.2851912 0.008939491 -0.03790182 0.2346421 -0.030663958 -0.44428903 -0.7707458 -0.012298567 0.33099586 0.44836855 0.819505 -0.832363
interior123 3.108704 -2.4276128 2.309005 -3.6076407 -1.6786335 0.90503716 -6.4891553 2.3986664 -1.8418944 1.8709989 -1.1633533 -1.5120589 -3.7501402 2.0464334 -11.771519 -1.768982 2.7949026 -0.34927928 7.253215 -5.7117844
livingroom 0.49952692 0.06990212 0.45267004 -0.9157496 -0.00240717 0.31652644 -0.39468968 0.4867202 0.27321142 0.014929383 -0.0046455027 0.2770849 -0.022859387 -0.4551625 -0.78077066 -0.037632547 0.30833426 0.46585885 0.8309261 -0.8403797
homeinterior 0.5055623 0.08210526 0.43985862 -0.9120115 0.08124421 0.32359967 -0.37960562 0.46808225 0.19638127 -0.012914538 -0.016334409 0.22824332 0.0054946146 -0.37114513 -0.73480004 0.027491134 0.30264726 0.42091835 0.8113423 -0.79499125
bedroom 0.5142556 0.08343759 0.44064197 -0.8388484 0.077406704 0.33668593 -0.37174416 0.49558407 0.21338817 -0.045527723 0.005541237 0.19486526 -0.0716649 -0.3720136 -0.7394499 0.051172648 0.27065834 0.3785573 0.78200084 -0.81432736
arquitetura 0.42574337 0.048844136 0.46658593 -0.8212227 0.090523735 0.26999995 -0.28284806 0.5448477 0.18326785 0.07085916 0.0140274875 0.21068679 -0.10709365 -0.3643637 -0.6508584 0.06013734 0.27988344 0.41583452 0.78675014 -0.73680127
decorating 0.4338273 0.07023218 0.46356404 -0.7953651 0.04679211 0.25678024 -0.31177992 0.48020348 0.20075405 -0.027771119 -0.035745237 0.18142578 -0.06515729 -0.35678908 -0.64044434 0.011285854 0.29326916 0.35755265 0.7397932 -0.7395696
interiores 0.32363278 -0.14773346 0.35901725 -0.53709817 0.021325694 0.25111195 -0.36113173 0.4665013 0.13443269 0.01134749 -0.1138646 0.17467138 -0.14019269 -0.33193925 -0.6509061 0.07712994 0.2426652 0.31447867 0.6499642 -0.7482942
kitchen 0.25212076 -0.13510989 0.33228162 -0.51409686 -0.058218192 0.22131933 -0.35976794 0.35096917 0.18527566 0.012709889 -0.08292587 0.17167401 -0.101972 -0.33518934 -0.574213 -0.005348243 0.23153946 0.27324712 0.6154141 -0.70873785
interiorinspiration 0.21283399 -0.119246334 0.28481764 -0.4594374 -0.0090844855 0.21453065 -0.38158193 0.3840575 0.12415729 0.011602923 -0.09485824 0.12137594 -0.09527049 -0.32575426 -0.600786 0.0164241 0.17188363 0.2214612 0.58451605 -0.6821028
decoracao 0.19082882 -0.14699759 0.25149408 -0.37046248 -0.03273716 0.21429855 -0.3846153 0.33124116 0.037940107 -0.028688094 -0.07592864 0.09513245 -0.079374515 -0.24464627 -0.6061082 0.08749961 0.14319462 0.14462167 0.60828316 -0.6417328
remodelista 0.16180302 -0.20663501 0.2561187 -0.37496167 -0.06488255 0.21138616 -0.44510293 0.33627564 0.06995159 0.027716026 -0.10354333 0.04342291 -0.116418034 -0.21193035 -0.65825737 -0.0026349006 0.1620532 0.18783575 0.5591597 -0.65824014
horumonyaki 0.16107413 -0.4808129 0.15564267 -0.2435604 -0.25611666 0.27557635 -0.87798226 -0.6444746 0.0022645923 0.17556912 0.0012460487 -0.14290214 -0.09175997 0.34372017 -0.890853 -0.72299254 0.31073752 -0.47170773 0.5496998 -0.6401329
firstworldproblems 0.128076 -0.18019155 0.031350177 0.03404169 0.053998232 -0.08657993 -0.5586612 0.16808084 -0.18998355 0.0065339436 0.10974475 -0.1581985 -0.16503944 0.30417803 -0.5966598 0.09698269 -0.08814209 0.008716193 0.2120806 -0.37152353
nothingfancycookbook 0.012748206 0.011739975 9.033829e-07 0.0037953202 0.011715276 -0.0012549013 -0.020568207 0.007828748 -0.0142658 0.014259772 0.0031415373 0.02350138 -0.00275819 0.023160206 -0.0055214856 -0.00208522 0.010228889 -0.01132952 -0.0015653335 0.0022339635
nytthanksgiving -0.014732266 -0.018827196 -0.0039701406 -0.018685201 0.0018215664 -0.02300625 0.011457743 -0.02444735 -0.0002362635 0.002161473 0.024160566 0.0011350922 -0.016629409 -0.013014159 -0.004344348 -0.019448573 0.008964034 -0.024983019 0.0069227684 -0.020868802
helpyourselfbook -0.013542197 -0.00623418 -0.008948902 0.020053627 -0.0024613999 -0.0042841677 -0.009882748 0.014867159 -0.02292872 -0.022779776 0.005385587 -0.0030008163 -0.0085220095 -0.014422441 -0.0004324969 -0.0033057574 0.011333963 0.017869158 -0.0007536411 0.017770836
healthyishcookbook -0.016173065 -0.014812148 0.018629467 0.0031658001 -0.011454067 -0.005037952 0.007119747 -0.0143851815 -0.0074815117 0.02473362 -0.0038771126 0.016862156 0.015994025 0.018859567 -0.024697617 -0.0022131652 -0.004306484 -0.014875141 -0.020262122 -0.011768836
heirloomcookbook 0.03365654 -0.15455423 0.08020722 -0.11214472 -0.10088273 0.11441946 -0.19704999 0.2192212 0.029634546 0.09808733 -0.10326634 0.021814847 -0.06340089 -0.09901267 -0.35136044 0.07522583 0.036649823 0.074500844 0.23089994 -0.379775
bakeitbold 0.0037563615 -0.061915092 0.012296121 -0.061952583 -0.04594437 0.08329344 -0.09745781 0.03928231 0.0012200965 -0.006089621 -0.03428816 0.03816957 -0.005970007 -0.036831442 -0.13338217 -0.04873432 0.023697896 0.01561954 0.14343534 -0.18091346
bombesquad 1.452846 -4.0638475 2.5781608 -2.4248414 -3.1194 1.3122487 -9.719677 2.8049834 -3.254011 2.8027337 -2.1139092 -2.1098974 -5.0535836 2.5957363 -16.089544 -2.9324672 3.0470119 -1.0061527 9.918756 -8.207772
2 0.05192025 -0.08696935 0.06480794 -0.10130581 -0.080125295 0.06933793 -0.12783305 0.09913842 0.0011300154 0.017828869 -0.056778993 0.033620715 -0.024474643 -0.09004825 -0.22943515 0.041778184 0.0594116 0.028077304 0.16882262 -0.2214089
lamasamadre -0.00761112 -0.024083024 0.01882081 0.021115692 -0.0054352283 -0.0032013413 0.010560764 -0.017052606 -0.008315971 0.00020200573 -0.007504329 0.011275148 -0.017608475 -0.020890225 -0.016767774 -0.0019945204 0.0064279046 -0.021780742 0.004276801 0.022798287
bakebakebake 0.019818852 0.00334456 0.017485974 -0.015945073 0.01710718 -0.024618948 -0.0030888412 0.023734549 0.0074958596 -0.01946779 0.024003701 0.0041303597 0.018779417 -0.0074024443 0.00786748 0.0063419994 -0.022318155 -0.002327431 -0.0061577745 -0.014858696
letshopeicatchthisflight 0.041625697 -0.13067895 0.12199021 -0.10332714 -0.09876663 0.0975398 -0.2751432 0.09115952 0.0061316607 0.06961551 -0.10136466 -0.00039277456 -0.071157515 -0.031157682 -0.35492808 -0.07593809 0.0049346914 0.031699132 0.28099704 -0.3012444
gratitude 0.007199304 -0.024452725 0.02123 0.021491447 0.0002119001 -0.006066341 -0.0012506694 -0.018071407 -0.023730064 0.013836065 0.009623395 -0.0043373145 -0.015554351 -0.009937323 0.00475212 0.022064062 0.0103910845 -0.021217411 0.0066972505 0.002598172
communitynotcommodity 0.008076037 -0.100783095 0.013446885 -0.080298215 -0.059170414 0.051476568 -0.17020127 0.046071846 -0.04978372 0.018737592 -0.06329896 -0.0140199205 -0.03933892 -0.014373183 -0.2056524 0.030828008 0.058617365 0.023891963 0.13760935 -0.23143338
kneadingconference2019 -0.0049747974 -0.004045967 -0.0072660837 0.006287249 -0.016656108 -0.02402223 0.0019610673 0.00987274 0.008844079 -0.014130369 9.026751e-05 -0.0056025833 0.0063329097 0.0065062437 -0.0014381111 0.022082625 -0.00396272 -0.0047982894 -0.011826984 -0.0007093493
highsummer -0.007052729 -0.020263428 0.00044084713 0.016426248 0.021129644 -0.019632552 -0.020385817 0.0072413962 0.023930589 -0.022559393 -0.017503938 -0.005485108 0.0025885254 0.010915151 0.023503201 0.020415595 0.0059095863 -0.0006568469 -0.021970868 -0.0033234656
bakeyourheartout -0.0061546527 -0.012445996 0.01684031 0.011237206 -0.024319097 -0.006140899 0.008226829 -0.011304266 0.00078379735 0.01839778 0.02383669 -0.019717956 0.0050925054 -0.00461727 -0.023923537 0.0068409983 0.012930213 0.016401043 -0.00884055 0.009918885
makemondaygreatagain 0.017350556 -0.020611871 0.0024155974 -0.0073195044 0.011786493 0.0012017451 -0.010946194 -0.007827813 0.019230666 0.006912237 -0.018371422 0.010526763 0.019967454 -0.016013458 0.0196675 -0.024409285 -0.020042125 -0.011777336 0.02286007 0.01920061
seasonalbaking -0.014462295 -0.09558679 0.019700611 -0.05653543 -0.055597905 0.053718157 -0.16927226 0.11442554 0.018832995 0.03497643 -0.075183816 0.055044822 -0.065281995 -0.0622942 -0.22853622 0.0064807236 0.029363628 0.031072965 0.15805188 -0.20251377
baketheworld 0.01066667 -0.0038396213 -0.018456403 -0.004779676 0.009176122 -0.010376567 0.015889445 -0.0067354683 0.006097894 -0.006861955 -0.002083391 0.002862459 -0.003516445 -0.004245255 -0.0061231256 0.017467292 -0.003793288 -0.0124888485 -0.0076724533 0.018390091
preservetheseason 0.09171533 -0.11299072 0.04267116 -0.0526769 -0.034602474 0.15282007 -0.32604352 0.17380199 -0.015724186 -0.0462343 -0.08189854 -0.012788449 -0.09446816 -0.051269382 -0.2655274 0.0020052355 0.06571839 0.1571626 0.21830857 -0.42074656
naturallyleavened 0.0558131 -0.28471437 0.1611873 -0.14410917 -0.09899493 0.16428395 -0.37532535 0.21664965 -0.02814107 0.038891606 -0.121960446 0.042096928 -0.08127515 -0.08136104 -0.46871188 0.0343314 0.061610974 0.039678395 0.42001677 -0.47513187
holiday 0.7928942 -1.7031875 0.66106975 -1.0823157 -0.8449403 0.6382113 -2.57266 0.8793225 -0.39794248 0.6539825 -0.56392163 -0.4121268 -0.9913572 0.3929786 -3.4274774 -0.68995774 0.6178186 -0.57166237 2.6646342 -2.1630611
herewegoagain 0.0038153238 -0.11991813 0.022144575 -0.10865722 -0.03408645 0.073182836 -0.14208047 0.11450297 0.026180983 0.0010156803 -0.052228753 0.033243284 -0.058821205 -0.054545995 -0.18024476 0.0064456915 0.044865854 0.017142618 0.15965453 -0.16661544
fermenteverything -0.019557113 0.021172242 0.007576404 -0.014593864 -0.011561182 -0.02165245 -0.016228218 -0.010073123 0.0043130927 -0.011881441 -0.008889407 -0.007657716 -0.0014863405 -0.0036435425 -0.01152271 0.012281368 -0.012488255 0.004817147 0.002504686 -0.021917894
makeityourown 0.02493473 -0.020242056 -0.004780665 0.0070062038 0.015330898 0.01639182 0.022523614 -0.01631707 0.015411137 -0.019650778 0.018378494 0.008123973 -0.0016305055 -0.013799367 -0.022178082 0.012967592 -0.0013602488 0.010914585 0.010025648 -0.016493484
heirloomrecipe -0.0062319175 -0.1337073 0.024734268 -0.082879744 -0.08097684 0.07014695 -0.18073887 0.08070153 -0.037864003 0.017845487 -0.06787176 0.026674744 -0.07003577 -0.04643545 -0.23708433 0.014219297 0.047806717 0.0060909116 0.19630942 -0.22478607
sourdoughworkshopseries 0.02143286 -0.01848954 -0.008767301 0.014107501 0.0067812633 -0.021994418 0.017907863 0.015464196 0.009885127 -0.01562638 -0.013703316 0.0021604989 0.014216246 -0.012529838 0.011016751 -0.021684006 -0.0057602525 -0.010565916 0.011037266 0.021159073
HUAWEIP30PRO 0.03761094 -0.10383035 0.052689213 -0.05879928 -0.08571082 0.05564201 -0.14952873 0.06789626 -0.025369285 0.050689224 -0.043746106 0.00023337621 -0.045277838 -0.031393696 -0.25023544 -0.004583442 0.068247996 0.0058836876 0.1756352 -0.19615065
hfk -0.007848458 -0.11381 0.0969927 -0.09393314 -0.051675066 0.09677018 -0.14991504 0.0996277 -0.0530234 0.027161444 -0.01620087 0.026410904 -0.030999828 -0.06361651 -0.23968093 0.037600804 0.029756173 0.023991924 0.22605821 -0.22873642
HuaweiFotoKonsortium 0.055350814 -0.19878247 0.053573765 -0.085370764 -0.10156704 0.08998083 -0.26541796 0.1337513 -0.025226306 0.04111072 -0.075712614 -0.015999362 -0.10152134 -0.033762276 -0.36721218 -0.009914948 0.05177799 0.041914504 0.24159701 -0.2960347
TraegerCulinary -0.014301131 0.024497198 -0.004802298 0.0077555347 0.0027513858 0.01538579 0.015219206 0.0019707195 -0.014070145 -0.0032514129 0.009200586 -0.0009504445 0.012597876 0.014605971 0.009380357 -0.024761965 0.01162078 0.0043663345 0.0019642375 -0.0023685396
ad 4.1350026 -8.163517 4.689109 -5.5667243 -5.239901 3.7640157 -15.689621 5.3532605 -4.311377 3.8620782 -4.2712817 -3.499092 -7.819166 4.060492 -23.9478 -2.3552558 6.132057 -1.4621327 15.528917 -13.455383
TraegerGrills 0.011369469 -0.012793398 0.0054205917 -0.015661906 -0.022347927 -0.012895915 -0.008799221 0.0071337987 0.00014400482 -0.02499557 -0.012970022 -0.0058829747 -0.0029869936 -0.014741478 0.00717731 -0.014952856 0.021952258 0.010602443 0.00069881603 0.019453479
pomitomatoes -0.0234879 -0.019255381 -0.005389178 -0.019573245 0.009399356 0.010575132 0.00737557 0.0067816842 0.0068344343 0.02499521 -0.0017281733 0.0062844623 -0.024930855 0.0052366257 0.0050502773 0.018040782 -0.0154559435 -0.0021480527 -0.021670163 -0.0063119624
cookingwithpomi 0.04526859 -0.1306528 0.046602193 -0.034973264 -0.029664276 0.07570099 -0.14931923 0.10421712 -0.007995241 0.027748177 -0.014790776 -0.005167069 -0.06716742 -0.0075563206 -0.256636 0.023149228 0.02769926 -0.0031176375 0.1850815 -0.21492107
jkimPies -0.011223876 -0.23101738 0.08280192 -0.19844238 -0.04643548 0.06775448 -0.28657374 0.22287203 0.009577507 0.010104043 -0.095044665 0.0068666046 -0.072673656 -0.035747506 -0.36944073 0.082197204 0.04773992 0.04373031 0.2894964 -0.3566331
sparkjoydaily 0.02341143 -0.25619638 0.10546165 -0.23047641 -0.025313938 0.15427262 -0.33812362 0.27810386 0.03079279 0.027512087 -0.11193564 0.023003362 -0.030099152 -0.105562516 -0.38806874 0.15247902 0.055299237 0.08081471 0.37103465 -0.48086005
bts 0.024919054 -0.17939018 0.09213164 -0.10094636 -0.07625475 0.14506139 -0.24042837 0.10748169 -0.032319944 0.085454136 -0.04586048 -0.0024164033 -0.07405527 -0.039409176 -0.3589662 0.027003981 0.08613888 0.020842008 0.275223 -0.30966523
SnacksWeek 0.011648703 -0.104159094 0.025384102 -0.07116911 -0.024760958 0.045636564 -0.15944561 0.10032986 0.013769075 0.02488052 -0.024670588 -5.501621e-05 -0.053233862 -0.042366758 -0.16139998 0.021076322 0.048719756 0.05948002 0.15567824 -0.1994176
Thanksgiving 0.7214142 -2.180991 1.0415109 -1.8854922 -1.0916152 0.4862607 -3.6648302 1.5718918 -0.78695726 0.407353 -1.015331 -0.66408306 -1.588957 0.9102579 -5.3938975 0.11386514 1.014702 -0.45582336 3.499891 -3.336981
happythanksgivng -0.022604346 0.0154173095 -0.0046533607 0.019868301 0.007901566 0.01958082 -0.016521286 0.004332125 -0.015306902 0.014344217 0.012377063 -0.00498645 0.0026160888 0.024461662 -0.023571236 -0.012717903 0.024188312 -0.01591941 0.024778025 0.012244111
supportsmallbusiness 0.021063259 -0.092081144 0.06789966 -0.062365238 -0.07185544 0.08160835 -0.2042687 0.04424778 -0.055096034 0.02820491 -0.018847004 -0.03475835 -0.040998913 -0.030395906 -0.32506338 -0.018388024 0.09186974 -0.019874923 0.19998483 -0.25059447
thanksgiving 2.0507932 -5.4914427 2.1309855 -3.4155552 -3.3104377 1.9566288 -9.161733 2.8145058 -2.4053066 2.1788418 -2.1136732 -2.073273 -3.9164405 2.0881107 -12.857476 -2.2328942 2.517624 -1.697071 8.573677 -7.198966
thanksgivingleftovers 0.019366486 -0.17482923 0.047023788 -0.13924225 -0.05161863 0.087344244 -0.22832175 0.059749786 -0.010317648 0.03431165 -0.040976536 -0.016903669 -0.01424683 -0.010106897 -0.17692722 -0.069271944 -0.0004041962 -0.043835256 0.2024748 -0.16058284
love 0.4115398 -1.8999903 0.66611975 -1.2589375 -0.96875715 0.7007728 -2.1854997 1.0930727 -0.68828523 0.5718205 -0.6193148 -0.15280074 -0.88089293 0.04529061 -2.927764 -0.26094866 0.6271554 -0.30082986 2.5657568 -1.8806858
cookiesalad 0.006584833 -0.25637627 0.093581386 -0.14388816 -0.08587365 0.1322523 -0.2746702 0.1603408 -0.03596706 0.018583305 -0.095445834 0.05662474 -0.0683863 -0.066980995 -0.2541856 0.006704425 0.028406879 -0.020625252 0.301139 -0.29879785
midwest 0.06549033 -0.33231196 0.0675863 -0.21395361 -0.11688759 0.14508636 -0.4019724 0.13126355 -0.026560739 0.003947765 -0.088939525 0.027509227 -0.0443502 -0.03250455 -0.3057632 -0.047129955 0.012693865 -0.016891452 0.34076458 -0.3931519
undeniablydairy -0.017587041 -0.0030722823 0.005768543 -0.012863288 0.0041861143 -0.011934093 0.0058368035 0.006330544 -0.004512202 0.006988598 -0.024055263 0.0011103544 0.024643207 0.009681331 -0.014830775 -0.01116049 0.018156735 -0.014242264 0.02401788 -0.010999808
smallbusinesssaturday 0.018116886 0.010175722 0.0209855 -0.021513844 0.013010563 -0.016633395 0.009327071 -0.012246177 -0.0030728485 0.02082082 -0.011684829 0.016974667 -0.009897366 0.023550348 -0.021038642 0.008932045 -0.014711228 0.019488538 -0.0013629403 0.008550333
roadtobeijing 0.057536922 -0.18491122 0.111756794 -0.12551479 -0.13488169 0.12390249 -0.3435906 0.17101893 -0.029693946 -0.0008702652 -0.07904061 -0.04751382 -0.0939666 -0.051618185 -0.44436842 -0.019278653 0.087265894 0.0552267 0.31809285 -0.34685618
bestdayever 0.045873504 -0.19862705 0.062267452 -0.14090058 -0.07062185 0.13086836 -0.19761257 0.18546322 -0.027804105 0.06812005 -0.10198944 0.023506239 -0.108474374 -0.05332075 -0.34676465 0.06674337 0.08599996 0.08357754 0.3120691 -0.30388427
girlmeetsfarm 0.04930411 -0.1593295 0.11368912 -0.14859405 -0.07330125 0.17097043 -0.307709 0.15327528 0.051066548 -0.040826898 -0.12690607 0.05223863 -0.074985996 -0.16320577 -0.40435207 0.04108656 0.06320404 0.10653685 0.32152832 -0.42847878
greenshakshuka 0.02411859 0.0036858507 0.016307482 -0.0074730814 0.0002896376 0.009012802 0.01626571 0.010159859 -0.008851249 0.023414223 -0.016507301 -0.017840588 0.024427323 0.00077806786 0.0012146179 -0.014188237 -0.007925713 -0.0052555595 0.020716684 8.626841e-05
shakshukapizza 0.024153788 -0.0986318 0.07342654 -0.08023011 -0.05020596 0.08795713 -0.17277339 0.08611555 0.011626136 -0.012230064 -0.07829971 0.032422967 -0.06751444 -0.031263307 -0.22459115 -0.039530236 0.04837037 0.029302089 0.1989159 -0.19699755
cranberry 0.17456096 -0.74718267 0.23918557 -0.47399315 -0.3063651 0.25114137 -1.2340482 0.3576709 -0.2502532 0.061555956 -0.32611257 -0.19464049 -0.35753784 0.18432465 -1.3449453 -0.059493713 0.121096894 -0.1074827 0.98188245 -1.0229113
Vermicular -0.011196299 -0.14598355 0.056872003 0.000121451834 -0.23591511 0.08951585 -0.82288384 0.03151251 -0.1774358 0.0106641045 -0.047514915 -0.17573375 -0.48149407 0.4988709 -1.129956 -0.61027926 0.060933694 -0.055426266 0.48702267 -0.35071537
Ad 1.2568439 -1.8294263 1.3084421 -1.9144546 -0.8413714 0.98916423 -4.6135607 1.5535822 -1.1271875 1.0577337 -2.1531782 -1.447112 -2.242916 2.785067 -7.742102 -0.58901644 0.5895488 0.037849255 4.5774703 -4.106658
MusuiKamado -0.036504164 -0.24719296 0.05998596 0.11984496 -0.31180707 0.006937582 -0.67336905 0.27757445 -0.24722452 0.3469356 -0.13692635 -0.31628406 -0.60288244 0.652234 -1.4003854 -0.5634634 0.08936996 0.042203877 0.47100785 -0.32698146
howisummer 1.1319389 -2.8029602 1.8606323 -1.2949475 -2.412813 1.0882695 -6.1312437 2.000565 -1.5852242 2.3577857 -1.8219165 -1.4176311 -3.5749145 1.7775412 -10.098668 -2.0676517 1.5750729 -0.83933985 5.777258 -4.981237
rslove 0.5376299 -2.5064905 -0.083255984 -0.78411424 -1.0664616 0.17007443 -3.0797987 0.94858253 0.14149964 1.6045588 -0.7421159 -0.6231154 -1.7085365 0.6447508 -5.0335693 -1.7830493 1.2953658 -0.8911655 1.9623933 -2.2211308
tastemade 9.285174 -23.176924 11.266265 -16.04328 -16.172201 8.772395 -43.27027 15.690717 -11.457439 10.461401 -10.926501 -7.7884145 -22.139133 8.275885 -67.444786 -10.811017 14.296671 -5.0123405 41.577892 -37.296604
createandcapture 0.06459619 -2.098966 0.44337282 -0.6682215 -0.5290994 0.4290679 -2.6849976 1.2339585 0.8228841 0.45781696 -0.6830079 -0.3973801 -1.052888 0.18466505 -3.5737824 -2.586479 0.584436 0.66712606 1.3827002 -1.7920305
momentsofmine 0.30636624 -1.2430556 0.7591064 -0.2751436 -0.44869643 -0.30620864 -2.6005583 0.6985019 0.5657022 0.58917034 -0.51877433 -0.92829525 -0.7007358 0.09243665 -4.015913 -2.1329274 0.47707987 0.71983635 1.0915323 -1.6186162
aquietstyle 0.05783326 -1.9756414 0.4457054 -0.4846221 -0.27916926 0.3435914 -2.4148169 0.38199154 0.7788689 -0.173628 -0.6712902 -0.64716 -0.85108644 -0.025887486 -3.2189207 -1.9483892 0.4175179 0.36994827 1.026798 -1.7944319
daysofsmallthings 0.0057237195 -1.3370161 0.25304288 -0.74955636 -0.40349084 0.45747125 -2.8618689 0.67632645 0.8874673 -0.4051374 -1.0198927 -0.37384567 -0.47985083 -0.25260773 -2.5233142 -2.5088155 0.032229397 0.28320098 1.1793827 -1.8180127
simpleandstill 0.1354651 -1.3433163 0.3000946 -0.69031066 -0.36292753 0.588572 -2.6895325 0.33228797 0.469239 -0.38362807 -0.9203671 -0.4788758 -0.32702914 -0.1883618 -2.5300767 -2.2485037 0.28493032 0.08022107 1.106477 -1.7947853
untoldvisuals 0.13192916 -0.9346396 0.32853436 -0.51751876 -0.011617617 0.44953212 -2.4443152 0.5717067 0.8156915 -0.7229548 -0.6815292 -0.12146655 -0.1954189 -0.44237703 -1.7354248 -2.069753 -0.16733961 0.6040627 0.63234556 -1.5922168
eatrealfood 0.4526868 -2.175734 1.4500045 -1.1048877 -0.86935306 0.8148453 -4.3300653 1.4597671 -0.5643136 0.3193812 -1.3443573 -0.60446596 -1.3703233 0.68742394 -5.683849 -2.106877 0.43871453 0.15331835 3.1871917 -3.3762932
CrateStyle 0.020107014 0.011719124 -0.020850718 0.005755488 0.015155813 0.0241344 -0.023444448 0.023305422 0.022070242 -0.022313595 -0.019260297 0.0121783335 0.006696714 -0.012968061 -0.0031385217 0.00061663426 0.0030659437 0.0033303015 -0.001315942 -0.017701969
coffeeeee 0.037302338 -0.31588683 0.11400383 -0.1284901 -0.03223049 0.17554143 -0.7139183 0.12648524 0.30908787 -0.20369199 -0.18394065 0.00849789 0.016537627 -0.1508088 -0.5078745 -0.5858684 -0.066797934 0.17694445 0.16189423 -0.5602254
sourdough 0.47531384 -1.4650449 0.5466642 -0.8270583 -0.4125388 0.3875078 -2.4555724 0.48167947 -0.26530832 0.25817272 -0.4757845 -0.17487699 -0.5755935 0.55085933 -2.4389005 -1.1154858 0.35694987 -0.27892473 1.5685151 -1.5844364
wildyeast 0.03916681 -0.34159586 0.17721146 -0.18994632 -0.008364337 0.18877 -0.7774359 0.18123077 0.26486877 -0.21696827 -0.20466879 0.033779625 -0.045134954 -0.16862215 -0.517372 -0.50438267 -0.07029106 0.14522184 0.26154852 -0.5926144
tinytinymoments 0.117864534 -0.9258435 0.3922423 -0.5781023 -0.036632493 0.42968968 -2.303777 0.52168095 0.6803622 -0.59555715 -0.69371945 -0.060557045 -0.18792982 -0.33751076 -1.7231805 -1.7411989 -0.14517434 0.5184606 0.6442431 -1.6132562
shanghaiwonton 0.04693991 -0.3550376 0.13549334 -0.23694225 -0.04698542 0.18258125 -0.9136355 0.21784389 0.35076514 -0.22433592 -0.25949582 0.014839678 -0.017747 -0.1617396 -0.6487433 -0.7676162 -0.08718072 0.22173166 0.261463 -0.65030473
wontons 0.02350749 -0.85326004 0.03128012 -0.33531526 -0.08735433 0.20171745 -1.3383564 0.33493492 0.5608711 -0.28443456 -0.3043305 -0.17141435 -0.26612726 -0.06429188 -1.148405 -1.3150771 0.09813626 0.23651716 0.34084487 -0.74805737
wonton 0.32056156 -0.5809401 -0.030494535 -0.31093913 -0.20520289 0.27634627 -1.2754703 0.27767453 0.2759481 -0.41895074 -0.23621719 -0.3022554 -0.37326518 0.11441552 -1.1203158 -0.8177944 -0.05928924 0.17840385 0.38395786 -1.1128792
aseasonalshift 0.12969457 -0.7745743 0.21288082 -0.31344455 -0.073487185 0.3934349 -1.7683398 -0.15904695 0.21737473 -0.5976884 -0.5620805 -0.25289395 0.056366473 -0.101117864 -1.3265939 -1.299422 0.038252175 0.17469434 0.43219805 -1.2712028
dumplings 0.47001973 -0.67179406 -0.11625576 -0.4374089 -0.47741497 0.41320047 -2.1584673 0.23856218 -0.06472678 -0.6620123 -0.5380079 -0.7049206 -0.7029759 0.44990808 -2.1846974 -1.1239572 0.102877386 0.21607524 0.8021678 -1.725621
chinesenewyear 0.080347806 -0.69014376 -0.019472959 -0.30942956 -0.09027567 0.15993574 -1.1163286 0.14381358 0.5062924 -0.2663509 -0.30186504 -0.13065471 -0.2702182 -0.0067733857 -0.95123935 -1.047984 0.09741004 0.19147702 0.29489398 -0.70898104
lunarnewyear 0.07172681 -0.35907868 0.12238319 -0.18359724 -0.046470903 0.14502 -0.8190495 0.13565747 0.2180803 -0.23519373 -0.22459869 -0.04339701 -0.03403708 -0.117662355 -0.59027046 -0.55358595 -0.024746493 0.16801462 0.21217045 -0.60334766
superbowlfood -0.0004405819 -0.7185186 -0.017093387 -0.27753082 -0.13935846 0.16796578 -1.0075544 0.2801389 0.4360505 -0.14947443 -0.29088888 -0.19235185 -0.25791612 0.01828529 -0.9876194 -1.0329853 0.15315814 0.154309 0.30197668 -0.60842294
gamedayfood 0.066748396 -0.40107328 0.08157518 -0.20733617 -0.09689146 0.17532094 -0.8971291 0.17761166 0.2977287 -0.14853776 -0.22810705 0.005595841 -0.10855801 -0.07539635 -0.6757537 -0.73986965 0.018598976 0.13008636 0.26766595 -0.5923833
karaage 0.03943478 -0.3025585 0.14131564 -0.195768 -0.03720279 0.21085979 -0.7149965 0.18236896 0.24364455 -0.19992964 -0.22280112 0.017275937 -0.00447778 -0.14095522 -0.47807613 -0.52817416 0.0050073797 0.16828103 0.24962364 -0.5657393
f52bestof 0.15348308 -0.8619067 0.4764904 -0.17094241 -0.70130104 0.2459169 -1.3998033 0.5786883 -0.28209716 1.0230185 -0.4083623 -0.39635032 -0.94584125 0.65231854 -2.6237974 -0.77632904 0.35101065 -0.40759015 1.5728655 -1.1958097
myshanghaicookbook -0.06033591 -0.33623323 0.17881097 -0.008637755 -0.114005834 0.112096734 -0.82614833 0.2989116 0.3168656 -0.28394064 -0.29032624 0.09151505 0.07209118 -0.3421959 -0.48453695 -0.40571702 -0.12393683 0.19563723 0.2924284 -0.7771647
everydayfood 0.06707828 -0.32499012 0.12510853 -0.1715419 0.014841973 0.18427566 -0.78609556 0.21148111 0.25187507 -0.22002257 -0.23835522 0.015100516 -0.031610142 -0.14300619 -0.49613842 -0.538611 -0.11061835 0.18319161 0.22691694 -0.61794007
thanksgivingfeast 0.015299159 -0.4359074 -0.10747238 -0.090431005 -0.16404024 0.26470402 -0.7158666 -0.27480116 -0.11836499 -0.19471574 -0.18825929 -0.22613215 0.07267252 0.0600617 -0.76541454 -0.526992 0.21553668 -0.053334694 0.3955257 -0.5441518
bakersgonnabake 1.6340945 -3.3713834 1.2905375 -1.8000245 -2.1969535 1.7634991 -5.8315816 1.6560401 -2.8825333 0.993481 -2.097149 -1.6923923 -2.8589766 1.4601884 -9.920113 -0.34282607 2.5875704 -0.56843626 5.9576635 -5.6886287
feedfeedbaking 0.7530302 -3.1629095 1.2076535 -1.828365 -2.109895 1.2541491 -5.224241 0.8484432 -1.9337809 1.2214254 -1.3370193 -1.2290622 -1.8255769 1.1758584 -8.227767 -1.3027723 2.143433 -0.9149709 5.273273 -4.2515287
thebakefeed 5.351711 -10.697091 5.249926 -6.9547205 -7.6203427 4.0184283 -19.834154 6.4628434 -6.381637 5.5426736 -6.039544 -5.1412997 -10.600649 5.1987886 -32.92559 -4.081631 7.3553367 -2.4090385 19.647831 -17.371492
bakersofinstagram 2.5685225 -4.3730707 1.8781294 -2.205813 -3.2203665 2.1818988 -7.143069 1.7795733 -3.2104723 1.6479212 -1.7384162 -1.8959311 -4.401894 2.328961 -12.734731 -1.1605647 3.2126827 -0.8194359 7.9896708 -6.2738013
bakeandshare 0.64301807 -1.5988977 0.7446747 -0.7892943 -1.4234387 0.8684157 -2.1550813 0.09682517 -1.269779 0.86457556 -0.21369919 -0.35576448 -1.3551314 1.0886515 -4.3560324 -0.5890922 1.2017281 -0.6029947 3.0934122 -1.4983971
abmlifeissweet 0.026884532 -0.3146365 0.06960767 -0.0694084 -0.19225077 0.21926698 -0.31560165 -0.13913684 -0.40293476 0.10508491 -0.07033783 -0.06891306 0.0039324276 0.07526386 -0.6317632 0.20034283 0.26235768 -0.13486862 0.5152258 -0.500533
dametraveler 0.025490442 -0.42492828 0.08724886 -0.13056678 -0.17785373 0.07997249 -0.65486264 0.32739455 0.20077743 0.07904438 -0.2903561 -0.038045265 -0.22983746 0.01829711 -0.74753076 -0.69908535 -0.008644956 0.039676107 0.35450754 -0.41397926
livemoremagic 0.018904714 -0.49684232 0.09244455 -0.11541374 -0.19401932 0.13253129 -0.6990123 0.3964618 0.27230695 0.049881205 -0.30706057 0.01282971 -0.22255492 -0.020839598 -0.7599697 -0.72323245 0.008649167 0.1030916 0.3236552 -0.45795095
unlimitedparadise 0.019651225 -0.47542027 0.10608636 -0.13064 -0.16349642 0.10247771 -0.70034564 0.3645325 0.29169166 0.036030453 -0.30959323 -0.020743372 -0.2038046 -0.039451264 -0.7180973 -0.709774 0.01256282 0.1262369 0.35129702 -0.47015998
forahappymoment 0.059815235 -0.3938468 0.05139049 -0.040673334 -0.19966602 0.13752149 -0.7746629 0.3265648 0.3428203 -0.09751023 -0.23401636 -0.009449663 -0.04988665 -0.20778184 -0.6249773 -0.55532056 0.011729511 0.17811455 0.369217 -0.60995597
planetdiscovery -0.006302605 -0.36524954 0.09105279 -0.0424683 -0.22504751 0.16933584 -0.76960856 0.26522946 0.28078774 -0.08563814 -0.23884797 -0.0031597437 -0.009911785 -0.18035986 -0.67593825 -0.44404826 -0.0014836565 0.14901868 0.4240728 -0.69072586
darlingescapes 0.0548449 -0.37721306 0.11966502 -0.05130614 -0.24287246 0.14855605 -0.65947974 0.30332896 0.31606823 -0.093047194 -0.19850294 0.022565018 -0.009142275 -0.25805745 -0.65130585 -0.25688577 -0.005776856 0.16596991 0.42524993 -0.7054666
leagueoflenses 0.023410145 -0.33893722 0.12838636 -0.024364468 -0.23668925 0.17028704 -0.63215524 0.2821808 0.31603992 -0.055044122 -0.22745655 0.07585084 0.023140654 -0.28705022 -0.5939602 -0.22095549 -0.0031738458 0.14285322 0.45438665 -0.7298141
mytinyatlas 0.2759629 -1.3708917 0.49171606 0.2761917 -1.6244301 0.47646555 -2.6510804 0.6000288 0.62020457 0.26274562 -0.5162784 -0.25028005 0.032147318 -0.46352744 -3.3582664 -0.56728005 0.43356448 0.31351033 2.3798454 -2.8846378
exploringtheglobe 0.038303696 -0.35162485 0.12851591 -0.014217115 -0.24260573 0.18684688 -0.5156012 0.3371739 0.16767932 0.0054250434 -0.14076582 0.092805855 -0.0042598518 -0.29500434 -0.5356482 -0.010586122 0.01910744 0.12446137 0.50622743 -0.7376757
theglobewanderer 0.043472335 -0.29977578 0.103786446 -0.029105641 -0.24820437 0.15771957 -0.51581925 0.3860409 0.19507791 -0.038879223 -0.09151947 0.016486151 -0.0050355857 -0.2913999 -0.53842264 0.062704965 0.035283506 0.12863466 0.4779984 -0.7132313
flashesofdelight 0.09562154 -0.4138302 0.337586 0.15344481 -0.6413457 0.2746986 -0.907189 0.23222186 0.52846587 -0.10564741 -0.028661983 0.08242135 0.3690543 -0.5662791 -0.87333167 0.12905262 0.0596826 0.45398453 0.90595144 -1.27689
visualoflife 0.02655562 -0.3059795 0.18899515 0.11697344 -0.2808214 0.09923345 -0.49131906 0.41206485 0.22770198 0.03748547 -0.14660524 0.08576359 0.010306777 -0.390651 -0.53185564 0.044196907 -0.0048946217 0.08566859 0.57241184 -0.7622479
roamtheplanet -0.044695172 -0.32969534 0.13996482 0.088794485 -0.29728746 0.10641003 -0.47130924 0.3833664 0.21807197 0.019613381 -0.1380451 0.11657363 0.012703866 -0.3574492 -0.4649254 0.120875366 0.012207748 0.072998874 0.5338934 -0.70604265
traveldeeper -0.02228649 -0.25722855 0.15351239 0.053295832 -0.24547724 0.10207673 -0.43589625 0.38485673 0.10351583 0.012229024 -0.15898548 0.10326045 -0.01566298 -0.3245236 -0.4720992 0.14239892 -0.0075484384 0.08363417 0.4734961 -0.6535169
travelstoke 0.018085364 -0.3229835 0.15048161 0.009417025 -0.2734526 0.07710568 -0.4966161 0.4412994 0.12400762 -0.009717448 -0.21341594 0.06790548 -0.079560295 -0.25918117 -0.5577476 0.10440563 0.05485252 0.069162905 0.55162823 -0.7059561
openmyworld 0.0009071988 -0.2808597 0.14057012 0.017344592 -0.2168096 0.12513292 -0.43035164 0.35653725 0.0717941 0.0067143897 -0.13979541 0.068913214 -0.027144631 -0.27248353 -0.48280057 0.11583941 0.035831653 0.06212829 0.4627501 -0.5875777
tasteintravel 1.5366669 -2.924952 1.8014634 -1.0643924 -2.546675 0.30357352 -5.9899707 2.3050292 -1.5181297 1.4857404 -1.8049225 -1.616696 -2.932546 1.0381811 -9.494649 -0.940678 1.3726552 -0.95842713 6.115644 -5.3081994
landolakes 0.116246395 -0.42531127 0.18467218 -0.086509 -0.28442878 0.16053948 -0.46534202 -0.06887968 -0.13799441 0.34615684 -0.027316252 -0.14472026 -0.2604369 0.37800786 -0.8475012 -0.3464661 0.19900844 -0.18713023 0.46283147 -0.31770465
awakethelight 0.07935127 -0.49174234 0.029838929 -0.278679 -0.1461118 0.18404347 -1.0910422 0.15892836 0.43072772 -0.25635612 -0.29232296 -0.12981956 -0.14665832 -0.09135895 -0.8151456 -0.97053343 0.028380334 0.1226847 0.3184165 -0.66322917
frenchtoast 0.008378392 -0.46604294 0.05833981 -0.29828236 -0.123808846 0.23628744 -0.5715008 0.19811867 0.00074084435 0.05880194 -0.1416268 0.07982484 0.07570509 -0.08988509 -0.37579462 -0.043270092 0.07738409 -0.022637956 0.42599714 -0.5681205
gorengpisang 0.036983628 -0.13785039 0.038437244 -0.096581884 -0.037042998 0.08105771 -0.21712588 0.09296342 -0.013834842 0.018208435 -0.039304808 0.008609135 -0.07482512 0.012124057 -0.25733936 -0.025191028 0.024168335 -0.0118854465 0.17308326 -0.19477727
hoshinoyaguguan 0.023918627 -0.19836114 0.10146165 -0.12786292 -0.10137497 0.14375587 -0.28765976 0.17892753 0.0064561074 0.03787377 -0.11684612 0.028999267 -0.060214527 -0.09999132 -0.36454916 0.033422176 0.049715947 0.023581456 0.33911392 -0.37878537
xlbcrxtaiwan 0.03598148 -0.16611685 0.07030225 -0.11411167 -0.0990671 0.13329217 -0.2435253 0.11001511 -0.04005382 0.016916977 -0.058878615 -0.0055478564 -0.066442095 -0.02175331 -0.33688226 -0.010996579 0.04953429 0.006316796 0.2661169 -0.28847677
chunexperience 0.10476186 -0.53802973 0.05503723 -0.17375791 0.12767361 -0.18435493 -0.7853927 0.44659346 -0.31824455 -0.14669496 -0.035918664 -0.07389651 -0.15256856 0.37217024 -0.56375575 0.34416068 -0.34166068 -0.1352004 0.34540856 -0.4189261
theveggiemaiden 0.15880015 -0.5017593 0.11359734 -0.21368766 0.16093218 -0.16759263 -0.8509647 0.4483719 -0.27496615 -0.19750081 -0.06654512 -0.073073186 -0.12649956 0.3402147 -0.54645807 0.31714487 -0.3785463 -0.15659113 0.3324347 -0.4639304
plantbased 3.324336 -5.0572133 3.0116003 -2.4662402 -3.7082746 0.55536216 -11.128372 3.4848676 -3.9301353 2.6206071 -3.3726592 -3.50796 -5.8493605 4.473126 -15.3850155 -2.4425168 2.4557853 -1.3889235 9.935528 -7.725937
tacos 0.06536725 -0.63032556 0.15127398 -0.3375798 -0.058666285 -0.23290195 -1.1786714 1.0451099 -0.5006981 0.22538222 0.11944688 -0.21159749 -0.48210996 0.43279603 -1.2143902 0.07604395 -0.18679558 0.07472478 0.401987 -0.40872622
xlbcrxhoshinoya 0.04170837 -0.19977452 0.059213344 -0.17381555 -0.079575434 0.13694693 -0.28956476 0.19986245 0.0037259357 0.006165397 -0.08685602 0.028554117 -0.08306333 -0.06224833 -0.36204356 0.04264921 0.09385543 0.017707018 0.27269477 -0.36142686
spanishmackeral 0.032906793 -0.1438851 0.06270956 -0.12813108 -0.0807882 0.112911336 -0.24463423 0.13580489 -0.01398057 -0.012029278 -0.092466705 0.0019217519 -0.014428901 -0.056135796 -0.26673186 -0.0012293576 0.017924372 0.06636897 0.20152697 -0.29314038
xlbcreats 0.045700736 -0.22158228 0.10755638 -0.13290991 -0.102601774 0.11659526 -0.3024996 0.1683285 -0.05793154 0.0066545806 -0.09226935 0.0021483747 -0.12689768 -0.051234808 -0.41611952 -0.0010383038 0.09376136 0.016466567 0.37968767 -0.4238584
CitiDiningSG -0.00055495417 -0.19307336 0.07032062 -0.12727489 -0.1171365 0.103101104 -0.19988725 0.15610015 0.02916592 0.012925953 -0.10077415 -0.0043353545 -0.08367204 -0.10499228 -0.356711 -0.003936628 0.06147446 0.03191149 0.2759898 -0.28863397
sp 0.048143916 -0.1969347 0.10649857 -0.15224557 -0.109654784 0.112947986 -0.24006821 0.13627253 -0.017639376 -0.046887077 -0.09535329 -0.019841295 -0.079759434 -0.11151851 -0.39933634 -0.015382411 0.054739203 0.0765069 0.3181127 -0.36710638
xlbcrxkyoto 0.0017247163 -0.003461009 -0.0029686633 0.024199845 -0.009745848 -0.00036337972 0.02308488 2.6186928e-05 0.015051773 -0.017350007 0.021283822 0.0064344537 -0.004960602 -0.0041721277 -0.014826441 0.019651512 0.00395439 -0.008074895 0.021797685 -0.023836052
bnaaltermuseum 0.013861456 -0.13964309 0.015463779 -0.057876963 -0.06936905 0.0654961 -0.16778989 0.06826899 -0.031941794 0.029333055 -0.019415427 0.009781218 -0.03808949 0.011238141 -0.22947574 0.00017700932 0.04655888 -0.020620482 0.17651689 -0.18626913
anxiety 0.0031232573 0.000555763 0.0140304435 0.01574689 0.02464308 -0.023940613 0.014616197 0.021651974 0.006525038 -0.011742348 0.003185233 0.022566913 -0.012590683 -0.010837937 0.009227844 -0.0093843965 0.0021188855 0.004706379 -0.022265956 0.020863568
mentalhealthawareness 0.007917517 -0.13549261 0.04086476 -0.09838225 -0.034388132 0.058830608 -0.1521203 0.12519263 -0.033351544 -0.0010141747 -0.063925445 0.032644026 -0.052511953 -0.017586697 -0.19306433 0.041984428 0.06514346 0.02629353 0.13381146 -0.23118542
myseasonaltable 0.45523274 -0.48636097 -0.42906317 0.47102702 -0.36446488 0.6832941 -0.37222373 0.34792313 -0.7141467 0.32193524 -0.16262129 -0.6066675 -0.6802948 0.48121542 -1.1850795 0.38054505 0.4201356 -0.5514522 0.51112837 -1.3571687
eatseasonal -0.025865747 -0.4583379 -0.23051171 0.45417878 -0.5411152 0.50313115 -0.39036214 0.22958198 -0.5458003 0.9202184 -0.0021776566 -0.28041008 -0.4634003 0.5534847 -1.4744511 -0.13449778 0.3861192 -0.77429557 0.7179912 -1.105007
seasonaleating -0.111528635 -0.33683005 0.041327875 0.32157806 -0.41727415 0.24912314 -0.2682086 0.284847 -0.36266062 0.8796252 -0.16004245 -0.0032618467 -0.27471852 0.45554727 -1.1610622 -0.21407 0.10205963 -0.3736984 0.5155171 -0.76145
seasonalfood -0.11713891 -0.57549876 0.6418147 0.06964887 -0.54386955 0.6171262 -0.83492017 0.48499975 -1.0676124 1.350141 -0.36201176 0.30685768 -0.3644346 0.65437806 -2.4331524 -0.07078037 0.3540499 -0.6569692 1.495209 -1.6710557
realsimple 2.23243 -5.9390426 2.7509122 -3.023715 -4.2166395 2.56967 -11.196858 4.0107994 -3.5030336 3.3715785 -3.4446862 -2.429792 -6.0521793 3.8008382 -17.836647 -3.277216 3.359094 -1.8804034 10.643558 -10.001084
firstweeat -0.16906862 -0.3970796 0.010113047 0.47389635 -0.5636327 0.31583104 -0.3554256 0.35313702 -0.44466543 1.0564674 -0.14617196 -0.03000809 -0.41395226 0.5960537 -1.4361036 -0.14925994 0.1385638 -0.53995925 0.67957497 -0.86037916
inmykitchen 0.5996227 -3.504516 1.4149555 -1.390697 -2.9035594 1.2164984 -5.4461493 1.5549347 -1.8376218 2.3652885 -1.4372911 -1.1787032 -2.6113226 1.7702907 -9.416566 -1.4676883 1.9812281 -1.2721283 6.058742 -4.7531605
eatmunchies -0.1558982 -0.69995093 -0.008231216 0.6077883 -0.71481425 0.25424114 -0.33109167 0.46635583 -0.42202806 1.3640649 -0.20836115 -0.09008247 -0.5532911 0.6601824 -1.9298581 -0.13117042 0.35846248 -0.86930484 1.3512324 -1.0192316
thenewstyle -0.09588326 -0.6228287 0.05895577 0.52635276 -0.7099772 0.3269084 -0.2094441 0.34955242 -0.27873316 1.3477907 -0.09586307 -0.08353516 -0.51267105 0.65374607 -1.8616525 -0.06470734 0.40085828 -0.76847214 1.3067833 -0.992905
italianfoodstyle -0.19948618 -0.5063607 0.1523798 0.25932673 -0.5611914 0.36676836 -0.11182696 0.0918144 -0.1547817 1.0724316 -0.09128782 0.0370406 -0.21880011 0.28530693 -1.2207749 -0.17402233 0.30533648 -0.4753758 0.88757265 -0.6787995
mangiareitaliano -0.12705693 -0.47291315 0.16429475 0.32348648 -0.52093416 0.3826394 -0.15200774 0.18428995 -0.16310225 0.9509774 -0.14934295 0.087870374 -0.24302983 0.31359032 -1.1575791 -0.13582203 0.1917095 -0.4266265 0.89759403 -0.7253468
italiancooking -0.10242247 -0.5114005 0.10586567 0.178616 -0.6057437 0.3899105 -0.21848807 0.086991474 -0.1313612 0.8983159 -0.10676989 0.118445754 -0.22682855 0.27194503 -1.1042877 0.017606407 0.2851485 -0.58171034 0.94349736 -0.7524171
italianrecipe -0.06646129 -0.46355158 0.044088148 0.16534574 -0.5137334 0.40726882 -0.20576225 0.07764242 -0.14930199 0.7937042 -0.15586145 0.13548371 -0.2240783 0.18418337 -1.0343498 0.0956132 0.32237756 -0.5105243 0.8431773 -0.7260152
homebaking 0.30474406 -1.0878227 0.4634014 -0.5075485 -0.6981001 0.62758225 -1.4922479 0.34378034 -0.63119763 0.76323235 -0.3664808 -0.12568147 -0.49766865 0.35847738 -2.5641344 -0.08382456 0.63872457 -0.40207577 1.8643541 -1.7033509
instabake -0.010441812 -0.38479507 0.091943085 -0.07447828 -0.2594663 0.32371032 -0.317315 0.008103615 -0.24914113 0.28796348 -0.15092257 0.058040597 -0.003899464 0.05206425 -0.6732749 0.20706163 0.19540702 -0.16783606 0.64658225 -0.5567989
patisserie 0.71153593 -1.1126765 0.08816052 -0.3967623 -0.6841906 0.7385003 -1.6515678 0.53083384 -1.0517288 0.28304657 -0.5787365 -0.6019023 -0.81805474 0.5389759 -2.7753587 0.3823955 0.6660887 -0.14551993 1.7710252 -1.9963996
baking 4.0470867 -8.030963 3.132195 -5.1691785 -4.994102 3.1197276 -13.648321 4.281191 -3.9560957 4.0719213 -4.2259994 -3.6699874 -6.7610035 3.7563975 -22.267725 -2.5678391 4.1106806 -1.9196451 14.045569 -11.036267
bakingtime 0.0018900995 -0.4674321 0.04649624 -0.17195001 -0.26188403 0.34113634 -0.37568918 -0.054114405 -0.35901645 0.16313505 -0.13034546 -0.0110186525 0.06520385 0.04095322 -0.5993796 0.24510725 0.25376078 -0.1514074 0.5958896 -0.52598536
lovebaking 0.049913622 -0.44546092 0.046871275 -0.2528305 -0.20152692 0.3248418 -0.4551886 0.046564545 -0.37875804 0.14773387 -0.20605867 0.015684396 0.0014255249 0.06718296 -0.6190881 0.24494356 0.2674711 -0.16987301 0.6124177 -0.5553595
ilovebaking 0.015580728 -0.45078936 0.03291587 -0.2646862 -0.24957661 0.3106152 -0.39817113 -0.018527808 -0.38102257 0.06704096 -0.16908555 0.00017815792 0.015275877 0.039148524 -0.55875367 0.2434937 0.24231228 -0.13417217 0.5546203 -0.50261253
lovetobake 0.53315806 -2.5466497 1.0305331 -1.4587638 -1.7665046 0.93004394 -3.4037344 0.6845973 -1.4499912 1.297906 -0.7965752 -0.8153528 -1.691387 1.0727113 -5.8016033 -0.80664665 1.7019701 -0.80177504 4.0587163 -2.5247884
bakingday 0.0026397782 -0.350358 0.053138025 -0.19525701 -0.1674031 0.263275 -0.41673136 0.05178851 -0.25548273 0.12382717 -0.1797263 -0.09389437 -0.014151989 0.014990682 -0.64097613 0.05267519 0.20269048 -0.079061516 0.5143618 -0.48755738
bakingfun 0.0358133 -0.369284 0.05812097 -0.20215899 -0.20451449 0.19531624 -0.37971866 0.012723015 -0.281815 0.08033849 -0.13310808 -0.07693306 -0.06035227 0.054460708 -0.57526106 0.088899255 0.20441194 -0.066376165 0.45379147 -0.46715802
oliveoilcake 0.0141593525 -0.32987866 0.041301314 -0.18081535 -0.20770533 0.20343575 -0.47248128 0.14281768 -0.123610325 0.091181785 -0.0870722 -0.007193633 -0.09655917 -0.028283203 -0.5393251 -0.016076576 0.14914376 -0.019232687 0.40749085 -0.46677878
bakedinmud -0.0030497992 -0.27579018 0.04090172 -0.0018999341 -0.1556322 0.21507844 -0.2670177 0.21455382 -0.15455393 0.24868874 -0.09848932 0.05355663 -0.13362437 0.07975718 -0.5608432 -0.09693079 0.15363668 -0.14747083 0.39329052 -0.50930536
savorypie 0.00082367525 -0.3159416 0.13919677 -0.05098926 -0.1959292 0.19269243 -0.28225765 0.25987545 -0.07160116 0.2714091 -0.15348135 0.07823348 -0.15542679 0.0009767812 -0.6762073 0.017981295 0.13827075 -0.0794372 0.5591685 -0.5078355
cookingfromscratch 0.16020438 -0.5830071 0.27308387 -0.23509626 -0.35895842 0.27393976 -0.7327016 0.45968464 -0.19335186 0.35503587 -0.18814294 -0.044989746 -0.36762094 0.07097689 -1.3547949 -0.074221686 0.3343312 -0.06798873 0.9662302 -0.89267385
weeknightmeal 0.0069678016 -0.2699486 0.16983962 -0.11816402 -0.201237 0.1823684 -0.29850847 0.22885333 -0.040744066 0.18267207 -0.14155346 0.06799439 -0.06346657 -0.11346859 -0.5220777 0.058894183 0.102071814 -0.037629303 0.5073183 -0.49901888
lovescucchiaio 0.0697468 -1.369137 0.25535738 -0.90691906 -0.36396176 0.8674973 -0.8095193 0.2800415 -0.5581128 0.28292254 -0.30369326 0.35744238 0.15575291 -0.123979375 -0.28378725 0.41050673 0.5256378 -0.38166258 1.4296571 -0.76810896
cake 0.8982608 -3.9702365 1.1821431 -2.188142 -1.9791108 1.5125421 -4.4039316 1.5871764 -1.5730463 1.7236983 -0.9437943 -0.85364354 -2.0414171 1.049228 -6.554278 -0.87651724 2.1003656 -0.8295364 5.2723923 -3.4409518
dessert 6.450398 -14.875143 7.51631 -9.952914 -10.156478 4.6257935 -26.579447 9.292124 -7.5708 6.167378 -7.0773687 -6.7602096 -13.825559 5.750893 -41.91229 -5.362962 9.190995 -2.6291447 26.251602 -21.84756
chocolate 4.759312 -9.183827 3.746211 -6.2990756 -6.114969 2.9254403 -15.833228 5.856438 -5.210039 3.5308926 -4.468591 -4.2760973 -8.658786 3.555925 -25.157598 -2.5711105 5.481345 -2.3456295 16.190071 -13.298718
sweets 0.2436484 -2.0604608 0.015994279 -1.2754364 -0.8638236 0.9777101 -1.1920478 0.6635527 -0.95681304 0.5224198 -0.51778793 0.18105003 -0.26904383 -0.048274823 -1.0513368 -0.028292973 0.70943797 -0.68025964 1.8970187 -1.0312093
pastry 3.1936836 -8.367772 3.2348068 -5.502539 -5.2301884 2.917062 -12.286726 5.2766848 -3.8421075 3.440275 -3.6981356 -2.3089588 -6.399942 2.0855646 -19.703262 -3.0121706 4.4291186 -1.5772718 13.19999 -11.100077
desserts 1.2513064 -4.222286 1.1662076 -2.4614608 -2.3837461 1.874611 -4.9675007 2.4350867 -2.1557734 1.473676 -1.0270368 -1.2588692 -2.9289308 1.011659 -8.2145 -1.1704751 2.4046974 -1.3385001 6.0418434 -4.4848456
bake 1.0428693 -2.1602695 -0.0019400964 -1.0739999 -0.94284767 0.6683043 -1.6629144 1.3832926 -1.2100004 1.3061762 -0.41716692 -0.73202986 -1.4391176 0.035717756 -2.3938222 0.025888719 1.0583707 -1.0263605 1.8184992 -1.7513431
baker 0.32167834 -1.5122056 -0.36163917 -0.93043727 -0.7403903 0.6790676 -0.5097729 0.25474745 -0.8889401 0.6019125 -0.30203518 -0.19491145 -0.59667027 -0.009955955 -1.0625371 -0.11234875 0.9757119 -1.0026243 1.1896485 -0.60885763
instacake 0.32979983 -1.4391335 -0.3261795 -0.90584344 -0.6520299 0.5008079 -0.646368 0.2391434 -0.9278296 0.51109594 -0.45951462 -0.07436546 -0.6913846 -0.0274179 -0.94085443 -0.23079893 1.0376607 -1.026073 0.94799674 -0.6288717
cakestagram 0.55720115 -1.1995395 -0.24674803 -0.7696893 -0.53228605 0.4288131 -0.8011397 0.40149567 -1.1242071 0.7010818 -0.1963773 -0.29180813 -0.68829864 0.23883522 -1.1535203 -0.38306308 1.0215988 -1.0316046 1.1367131 -0.5479134
bbcgoodfood 1.9088284 -1.5706803 0.761228 -0.6955191 -0.31881866 -0.39175335 -3.9239178 0.93384045 -2.4262877 1.7648441 0.1776318 -1.9367336 -2.148121 2.0310655 -6.1028256 -0.92457217 1.5159869 -1.3106674 3.4852102 -1.8824579
saveurmag 0.56667584 -0.98754394 -0.38945326 -0.16371277 -0.44449037 0.2504245 -0.81122756 0.16254397 -1.1257831 0.85630155 -0.15044715 -0.6231889 -0.6384665 0.6632739 -1.5651804 -0.030578656 0.8196486 -1.1149124 1.061253 -0.87932277
chocolatetruffles 0.627465 -1.0646292 -0.35014158 -0.490325 -0.20213568 0.23085935 -0.9101999 0.0390279 -0.9055541 0.22220735 0.013818001 -0.3950217 -0.27891922 0.50077397 -0.926794 -0.11249033 0.72490746 -0.76603305 0.8749962 -0.6414225
bakingbook 0.46638423 -0.9060267 -0.1884377 -0.50676906 -0.18341401 0.21595433 -0.90342146 0.09350442 -0.89875025 0.31184316 -0.056082018 -0.29996595 -0.16375983 0.47621468 -0.70044047 -0.07434736 0.62183285 -0.73568565 0.8228326 -0.46188352
pastrybook 0.4214164 -0.8429041 -0.21387418 -0.39241 -0.15408288 0.2938281 -0.743554 0.20107335 -0.9649362 0.41533813 0.05198735 -0.44125345 -0.08034211 0.38390908 -0.611279 -0.011091825 0.57423574 -0.61555433 0.86598074 -0.41562304
inseasonnow 0.48373336 -2.5710566 1.0167016 -1.8323404 -2.257599 1.1617008 -4.337033 1.1640532 -2.2422402 1.5195677 -1.4513226 -1.1385629 -1.9604727 1.0750045 -7.200893 -0.64689213 2.1031654 -1.0067248 4.623722 -3.7498202
f52farmstand -0.002208077 -0.268233 0.015036814 0.054595612 -0.36587802 0.17205039 -0.37265483 0.16955152 -0.37424114 0.43724257 -0.09868892 -0.11470725 -0.2771419 0.3409725 -1.0077499 -0.015179795 0.17229412 -0.18270296 0.4284675 -0.5063847
homegardener 0.0011058863 -0.3834318 0.07379501 0.16735691 -0.32705045 0.101596765 -0.4218904 0.2895886 -0.29419306 0.514731 -0.13332093 -0.12660106 -0.44337556 0.41282892 -1.1159918 -0.12347008 0.09505215 -0.18416585 0.4502414 -0.5585072
mycommontable 0.7622714 -0.83448035 0.82101876 -0.11610371 -0.36225507 -0.25627953 -3.256897 0.6124909 -1.5023363 0.64403903 -0.5177427 -1.4158322 -2.3673549 2.0967054 -4.7551956 -0.0010043189 0.28306797 -0.2293119 1.6480898 -1.6583145
porcini -0.071514934 -0.3912019 0.08508167 0.13630424 -0.38478 0.113429904 -0.29687068 0.21423484 -0.22434339 0.59810144 -0.1437334 -0.041794382 -0.37227985 0.3261566 -1.0624542 -0.07326854 0.18007298 -0.25443715 0.55773884 -0.44004712
risotto -0.040079422 -0.50395995 0.07364163 0.08725949 -0.4744819 0.16056702 -0.2692761 0.28330004 -0.15622975 0.64591485 -0.1581671 -0.07469152 -0.41657305 0.3011841 -1.1993097 -0.11672876 0.21681722 -0.26321012 0.6903644 -0.5175853
f52mains 0.0024387096 -0.33797202 0.16330557 -0.08812215 -0.21879533 0.22854431 -0.32068452 0.1672143 -0.06301995 0.305449 -0.08778029 -0.007870975 -0.17016794 0.021442441 -0.664735 -0.08276483 0.17591034 -0.21081282 0.51186746 -0.5425993
savblogawards 0.9766367 -0.6502545 -0.5203983 0.09470136 -0.2573817 0.51829606 -0.46013284 0.6387978 -0.68511933 -0.20880449 -0.4371386 -0.79606616 -0.7954479 0.23971403 -1.2657543 0.92335796 0.43416888 0.2627735 0.4941432 -1.264981
foodwriting 0.7844198 -0.72152627 -0.27842778 -0.06187191 -0.27343187 0.60298765 -0.70200276 0.7324304 -0.8372315 -0.033673305 -0.42503315 -0.64506143 -0.7848592 0.2393359 -1.6632426 0.87205535 0.47468662 0.14565101 0.85891676 -1.4705482
julskitchenstories 0.6772132 -0.48792306 -0.44393927 0.12542076 -0.1772376 0.41324186 -0.25457108 0.5259723 -0.56197894 -0.242635 -0.30051306 -0.6073716 -0.590425 0.15592295 -0.8739981 0.8316142 0.29701355 0.23256645 0.32541952 -0.98959965
foodblogging 0.6497068 -0.5691932 -0.45113698 0.11448187 -0.24648683 0.40147585 -0.29493517 0.58556813 -0.55119693 -0.085013196 -0.34315333 -0.6541799 -0.6577393 0.16512255 -1.0405276 0.7773928 0.34550276 0.1966121 0.39370808 -0.9718661
tuscanfood 0.56982446 -0.48172647 -0.34845462 0.098019496 -0.29514927 0.3659327 -0.28561467 0.5077135 -0.5201078 -0.07244611 -0.26559836 -0.50880575 -0.53025585 0.23976168 -0.9736612 0.65941566 0.32224295 0.12274853 0.43151918 -0.8875793
tuscancuisine 0.55271196 -0.44883946 -0.33314225 0.10862617 -0.2827671 0.32638136 -0.31320065 0.54288834 -0.48183465 -0.07178165 -0.2542544 -0.5332628 -0.5677148 0.23061922 -0.9502564 0.5559666 0.3162952 0.112120084 0.43386856 -0.7819212
infoodwetrust 0.1815982 -0.5707739 -0.22151934 0.17234494 -0.4209311 0.3970639 -0.38468477 0.05786028 -0.49570358 0.38883948 0.05327265 -0.3792912 -0.37090454 0.43410635 -1.1292434 0.018274218 0.40808028 -0.6606165 0.70895696 -0.839401
fromscratch -0.075089864 -0.42642352 0.10785759 0.37250996 -0.3871044 0.018000472 -0.14897926 0.5300999 -0.17905611 0.82405734 -0.22323236 -0.1182523 -0.6104098 0.43094286 -1.3797145 0.1698023 0.26138622 -0.31882817 0.8795985 -0.5075458
cookmagazine -0.07478845 -0.45757398 0.26401505 0.18957534 -0.28893328 0.009532847 -0.21978101 0.4808163 0.021703511 0.80966246 -0.19820435 0.03296953 -0.62497705 0.304579 -1.3452878 -0.045545306 0.22043599 -0.255904 0.82659715 -0.4931749
sourdoughbread -0.03835725 -0.37193024 0.19951014 0.036625177 -0.18051918 0.00927319 -0.26281118 0.36669728 0.07382584 0.52375513 -0.19409867 -0.026746351 -0.4287092 0.19703473 -1.000389 -0.03212723 0.16847572 -0.14240268 0.6123831 -0.4004221
sourdoughbaking -0.007484356 -0.33166897 0.23180231 -0.04441669 -0.20313704 0.09516045 -0.31940636 0.4440354 0.11394935 0.4112851 -0.20365572 0.06371259 -0.43875888 0.09834795 -0.91764927 -0.08363018 0.16498098 -0.0717934 0.6498924 -0.4332152
weeklybaking -0.064596996 -0.25733185 0.18068554 -0.009649506 -0.11700539 0.07484498 -0.3299285 0.30990466 0.108818375 0.24503465 -0.14548981 0.07364752 -0.33034015 0.043560594 -0.7827309 0.04615695 0.109677196 -0.079019465 0.6255939 -0.4142481
weeklybread -0.049348623 -0.2667782 0.20377068 -0.043814424 -0.07728936 0.08429515 -0.383601 0.38669243 0.12817137 0.22947304 -0.1533982 0.07027498 -0.33839795 -0.010389882 -0.73725516 0.01703207 0.13421202 0.015461515 0.59955096 -0.42661425
sourdoughclub 0.0024545437 -0.30517802 0.18049292 -0.14085755 -0.1886104 0.1598338 -0.4170103 0.30524787 0.06067984 0.13299651 -0.1246547 0.043371238 -0.20914209 -0.03473724 -0.65580887 0.02634477 0.12503144 0.016523076 0.52214366 -0.50812143
levain 0.018151665 -0.2744507 0.17566122 -0.15475437 -0.15990457 0.13701583 -0.4145779 0.24024725 0.07914123 0.1398999 -0.109365925 0.07271468 -0.14711848 -0.06224201 -0.60001284 -0.05814882 0.105126135 0.008565369 0.48696768 -0.46039855
artisanbread 0.024134107 -0.2897 0.14355452 -0.18933073 -0.13332796 0.1479711 -0.3822935 0.26478866 0.038633972 0.092931025 -0.15493144 0.06832737 -0.17382583 -0.09270634 -0.5713344 0.02913708 0.13723516 0.06877392 0.4407176 -0.45730075
breadmaking 0.046249382 -0.2977926 0.18719351 -0.24394867 -0.17854619 0.18041728 -0.4313496 0.29262257 -0.033311464 0.064660415 -0.18302487 0.011590243 -0.20938018 -0.10351115 -0.67298704 0.015644867 0.13131188 0.058829058 0.54427123 -0.5366101
homemadebread 0.014212801 -0.25559294 0.12736717 -0.18380101 -0.09557669 0.14777072 -0.3838513 0.22046998 -0.0062999846 0.07027615 -0.11433114 0.026190136 -0.122233786 -0.08485757 -0.5675389 -0.014396658 0.069179796 0.032211676 0.43359718 -0.44175458
bakingforchristmas -0.027137171 -0.3529438 0.18726455 0.058816206 -0.17040762 0.033189103 -0.2444777 0.4157615 0.06208928 0.47869676 -0.19175647 0.028168207 -0.42995033 0.1802452 -0.94981474 -0.07050246 0.15826784 -0.098736644 0.60153514 -0.40997753
christmascookies 0.006559601 -0.48904017 0.3549661 -0.102605134 -0.3186558 0.21904786 -0.5627621 0.3858072 -0.24783057 0.4881463 -0.31479317 0.01898272 -0.53892624 0.23842494 -1.4485418 0.046112493 0.31983817 -0.23252863 1.067158 -0.7000318
christmaslove -0.051208306 -0.3151184 0.21486802 -0.06758518 -0.091883235 0.0936621 -0.31781662 0.34903744 0.066783585 0.31259513 -0.17762555 0.13144584 -0.3747269 0.019097239 -0.76645195 -0.001414137 0.17138912 -0.047292203 0.6276596 -0.44559684
christmasmagic -0.03293531 -0.28606975 0.1760109 -0.06903496 -0.12322962 0.12673531 -0.3349085 0.35078934 0.117138185 0.23777924 -0.15087087 0.12518613 -0.28387994 -0.039820224 -0.74620706 -0.008846424 0.17549503 -0.06381391 0.6036171 -0.48305964
cookieswap2019 0.009871267 -0.25815102 0.1852908 -0.116184 -0.17581117 0.17436822 -0.38781402 0.28545842 0.024930233 0.14908461 -0.14603299 0.09917784 -0.20091297 -0.068422444 -0.6655829 0.0132683115 0.112719655 -0.027276572 0.5484278 -0.51653934
julskitchen 0.018941185 -0.24341375 0.16918918 -0.10834324 -0.12501466 0.1256348 -0.36281663 0.297748 -0.007360986 0.09024273 -0.08891824 0.052269395 -0.19158284 -0.09271976 -0.6039516 0.015946103 0.09958388 0.014026276 0.49720988 -0.46868247
itsbeginningtolookalotlikechristmas 0.057464793 -0.26431105 0.14956285 -0.17647643 -0.13000736 0.15157732 -0.34434342 0.26966825 0.02409083 0.097946964 -0.13634549 0.06807145 -0.18714254 -0.13780667 -0.57792246 0.037017927 0.11911914 0.034386005 0.49778625 -0.48319843
nevetooearlyforchristmas 0.034158178 -0.26097828 0.15746467 -0.14562628 -0.14734069 0.15463746 -0.357486 0.23822896 0.020451885 0.10419088 -0.12190504 0.06628597 -0.112694636 -0.08324618 -0.54815245 0.029909834 0.093619056 0.01542854 0.48576704 -0.483691
tistheseasontobejolly 0.058849957 -0.23050626 0.13514332 -0.1296916 -0.1091706 0.17432663 -0.37780672 0.19731227 0.0020980225 0.08499789 -0.10536395 0.007828068 -0.12133028 -0.07013609 -0.5297177 0.0046080565 0.066654235 0.08416152 0.45812187 -0.4794705
christmascookieswap 0.018235812 -0.27299747 0.1395141 -0.1517465 -0.11698991 0.19061217 -0.35070077 0.22609586 0.020083424 0.062631845 -0.114034176 0.06381675 -0.115704946 -0.1230258 -0.53090894 0.009755576 0.10274946 0.0679199 0.42912444 -0.45188662
1 -0.008370111 -0.01861746 0.0075387377 0.008013206 -0.010921165 -0.012899778 -0.023845134 0.020953933 -0.017404178 0.009474771 0.020526437 0.023711124 -0.0026053973 -0.021591514 -0.001329761 -0.0015073381 0.0020925216 0.009603566 0.0036928412 0.017240545
coffeeshopcorners 0.27244937 -0.544099 0.54168916 -0.4584629 -0.36258766 0.5120732 -1.3590443 0.45695046 -0.1912867 0.38120332 -0.11389626 0.014534328 -0.3591114 0.051945 -1.9073505 0.0574156 0.41961777 -0.001521239 1.406825 -1.4789078
shotoniphone11pro 0.0447284 -0.16680256 0.14774941 -0.07913305 -0.11567014 0.111912936 -0.3129309 0.25323626 0.07165689 -0.01441732 -0.10382503 0.046092756 -0.08220562 -0.13569263 -0.43227878 0.047268115 0.017709695 0.102278985 0.36740777 -0.45729437
chasinglight -0.023366984 -0.17820728 0.19549039 0.14772578 -0.5733066 0.019419018 -0.73541415 0.5361603 0.332201 -0.11875389 -0.43567902 0.15856127 0.26123902 -0.68485546 -0.7242296 -0.049557686 -0.04905859 0.16555132 0.65769076 -1.0163766
morningslikethese 3.4346623 -2.9694521 3.3757043 -2.985451 -4.7296133 0.5916049 -10.045044 1.5259429 -3.619103 3.3587418 -1.9684 -4.086997 -5.59243 3.908113 -17.3828 -3.1570606 3.4042113 -1.4231734 8.937736 -7.303753
coffeeshoptabletop 0.012277292 -0.017248973 0.015222983 -0.02341108 0.009676712 1.763925e-06 0.02215016 -0.0074628834 -0.0150573645 0.015638506 -0.018646542 -0.012262967 0.0045016296 -0.0023145191 -0.008764004 -0.020183826 0.022463055 -0.0060080383 0.01611364 -0.019163957
iphone11pro 0.010593647 -0.17148268 0.06940783 -0.065822676 -0.10030389 0.08724046 -0.21144867 0.15097931 -0.0035987536 0.014502271 -0.10389829 -0.00019512234 -0.03409818 -0.076522596 -0.25576892 -0.025531607 0.06947153 0.021475038 0.24460939 -0.27597043
prettyshopfronts 0.021487134 -0.005791504 0.023738602 0.0028482415 0.015309496 -0.0020696484 -0.02429837 0.020672066 -0.0037303362 -0.010733575 -0.021592034 0.00057036243 0.015614053 -0.023491686 0.022762185 -0.012694955 0.021421077 -0.009133857 0.019488486 0.00046383403
sharingaworldofshops 0.021908524 -0.12525529 0.06239066 -0.056261152 -0.069733635 0.056056876 -0.17284994 0.09699133 -0.024948277 0.017082062 -0.06523303 0.0037006312 -0.032995787 -0.04439924 -0.23757605 -0.017252017 0.060906406 0.016984675 0.17670305 -0.20507169
doortraits 0.02815139 -0.11944279 0.0706635 -0.049838047 -0.068290055 0.086466916 -0.14943877 0.14425343 0.029474951 -0.0097450605 -0.042865817 0.011740753 -0.019629097 -0.05236165 -0.22432521 0.0040154033 0.015448529 0.048231475 0.19230895 -0.24140558
interiorgoals 0.007939087 -0.01677563 0.015944017 0.024018856 0.020951072 -0.023735091 -0.010479621 0.012000674 -0.0039323717 -0.013530162 0.0106679965 -0.0056327675 0.007353222 -0.0013062395 -0.01809707 -0.012368694 0.02202764 -0.016924465 0.0031382535 -0.018946448
soup 0.42341697 -1.2967006 0.40190265 -0.9439861 -0.44528675 0.22591081 -2.2811732 0.77973026 -0.43784603 0.2573349 -0.54468685 -0.24589542 -0.5730988 0.6007029 -2.5745292 -0.1610932 0.2089804 -0.23180895 1.5869011 -1.7393663
chicken 0.6719767 -1.2853082 0.1244977 -0.8141491 -0.90388775 0.41988268 -2.3370676 1.3579007 -0.3415336 0.023899632 -0.26322418 -0.7900706 -1.3496077 0.58768934 -3.0396497 -1.1152704 0.37373322 0.3092561 1.4398106 -1.828365
cookies 0.94703615 -3.7556598 1.2703964 -2.3426793 -2.3013816 1.2381092 -5.4859962 1.5017847 -2.0864677 1.2222129 -1.0639977 -1.1544979 -2.0742347 1.2500424 -7.751722 -0.7991417 1.4734907 -1.2150196 5.647142 -4.0727053
kalesalad 0.2063022 -1.1945812 0.11006342 -0.69518965 -0.28183672 0.20352454 -1.6862465 0.48533875 -0.5502794 0.09591969 -0.52900344 -0.23873655 -0.2639665 0.4092904 -1.2093856 -0.034498457 -0.1281373 -0.44669497 1.120549 -1.0438185
easydinner 0.13977592 -0.4310902 0.112830035 -0.23064277 -0.054307442 -0.14019834 -0.70094025 0.45702806 -0.2860686 -0.07300321 -0.21458903 -0.08943372 -0.21086013 0.2688814 -0.36409292 0.17473255 -0.31610748 -0.13454345 0.2806067 -0.31252378
cheesecake 0.4219574 -1.5956926 0.32177946 -0.8903793 -0.8137453 0.7402425 -1.6598928 0.67601395 -1.2685121 0.19241503 -0.61485016 -0.39785805 -0.77642024 0.5254265 -2.3988473 0.47595695 0.7303718 -0.42328742 2.1273873 -1.5612999
chai 0.20996192 -0.7837803 0.30941162 -0.52588344 -0.43128693 0.33475965 -1.0638905 0.40880015 -0.26788744 0.14793183 -0.32162386 -0.08326817 -0.3633221 0.06945194 -1.3310952 -0.15041097 0.34759447 -0.15329865 1.1078902 -0.97298074
plantprotein 0.53613114 -0.32401276 0.11488229 0.6153524 -0.1190569 0.11798765 -1.054848 0.38154706 -0.4603061 0.51667887 0.5264541 -0.86581266 -0.51813954 0.4645466 -1.6457059 -0.0085410075 0.15370084 -0.41102505 0.73963076 -1.0521399
snack 0.021331495 -0.103514455 0.060145073 -0.056276277 -0.0014030781 0.096200466 -0.14582081 0.05054157 0.02666562 0.014063861 -0.042089015 -0.0051176082 -0.039087716 -0.030811299 -0.14402641 -0.025325954 0.0020205588 0.011982359 0.12999648 -0.21870789
chickpeas 0.31876358 -0.371934 0.19222714 0.013117586 -0.051207896 0.11721214 -0.73085546 0.40224692 -0.30030346 0.3220966 0.041667055 -0.24767148 -0.40128672 0.23478206 -1.1883136 -0.13708082 0.21259037 -0.15691756 0.8100988 -0.6235244
cheese 0.63923985 -2.219186 -0.22880745 -1.6778901 -1.1654825 1.0464206 -3.9947908 0.5939223 -1.0217015 -0.10721766 -1.2870976 -1.018229 -0.999639 1.0938269 -3.87145 -1.2539406 0.8803923 -0.4657646 2.610337 -3.023142
kalechips 0.048783828 -0.13173203 0.04233083 -0.057098094 -0.022201937 0.08287413 -0.1889181 0.09401117 -0.04695785 0.03344885 -0.040730376 0.0007053476 -0.030023249 0.0027408253 -0.23922102 -0.051499892 0.009752631 0.0022376766 0.15974727 -0.21536483
healthysnack 0.022182154 -0.12847976 0.012013534 -0.05387026 -0.045644406 0.09784809 -0.21917629 0.09873469 -0.010981405 -0.0026312475 -0.04350295 0.012609245 -0.030895088 -0.031540707 -0.27098915 0.008670315 0.05644974 0.043131184 0.19331822 -0.2353099
oatmeal 0.16236623 -0.8403272 0.15527608 -0.6042178 -0.27573398 0.17560643 -1.3671904 0.3224406 -0.33071476 0.1249093 -0.33651957 -0.13808435 -0.22518286 0.3449826 -1.3359029 -0.044888075 0.11932795 -0.21477541 0.8646599 -0.96157444
cozy 0.11978127 -0.6021408 0.19625309 -0.3661867 -0.22157934 0.18218285 -0.8809405 0.32002285 -0.27880105 0.04269234 -0.22896908 -0.12600638 -0.26619187 0.16456522 -0.9427375 0.058199663 0.018574 -0.15323079 0.73885864 -0.70236033
pumpkin 0.27027875 -1.7700207 0.3500145 -0.89813864 -0.7945033 0.29595676 -3.001159 0.30293432 -1.2884468 -0.28593388 -0.68679273 -0.79157764 -0.9955606 1.1536736 -2.789109 -0.35547578 0.26800576 -0.584961 1.958424 -1.3456702
SmithHotels -0.011308956 0.019251505 -0.020964209 -0.017134227 -0.021734342 -0.013040483 -0.0038719922 0.01339676 -0.00883482 -0.011894274 -0.00498892 0.005052369 -0.02496529 -0.0011366848 0.0023151431 0.006479623 -0.004291471 0.0073254984 0.016385773 -0.019186053
TheArtOfBelmond 1.6136855 -2.1425495 1.2168746 -1.7265842 -1.3068148 0.8165117 -4.274216 1.5541215 0.39799494 1.0368947 -1.3140074 -1.0954049 -1.7370708 -0.02066547 -6.018912 -0.78923243 0.49810764 -1.0480436 4.1396685 -3.897483
FoodWastePledge 0.09210092 -0.23468891 0.14245676 -0.1927338 -0.13920663 0.14166842 -0.43202907 0.18951489 -0.006084581 0.07743647 -0.17391995 0.019348683 -0.13016501 -0.07246601 -0.56125283 -0.123574585 0.09490667 0.05906187 0.42141056 -0.4852972
RegentStreetw1 0.071480885 -0.2020833 0.068497226 -0.10942177 -0.14196754 0.1176199 -0.3163312 0.19261403 -0.039284423 0.011400287 -0.06346406 -0.04818866 -0.12690836 -0.06837175 -0.38827783 -0.016047435 0.07643916 0.10644488 0.23883894 -0.38537782
StJamesLondon 0.086155765 -0.16676694 0.15150332 -0.12986296 -0.14381865 0.13676684 -0.4150678 0.25614738 0.016201882 0.08853022 -0.06708612 -0.025936376 -0.14526576 -0.13844709 -0.49364194 -0.027674595 0.05369575 0.16721788 0.39280036 -0.4362608
TasteofBelmond 0.15424022 -0.17218556 0.09007066 -0.1447332 -0.04248861 0.09998596 -0.29441094 0.092692874 0.26164994 0.057580985 -0.0944197 -0.032885958 0.0011812964 -0.17726727 -0.22831637 -0.03573736 -0.092194095 -0.12455363 0.25489685 -0.35111868
ShopSmallUK -0.022194117 -0.015945593 -0.016452704 -0.020962495 0.02082877 -0.0024771541 -0.011669156 0.008637989 -0.020047862 -0.0150879985 0.015309626 -0.003971964 -0.021239573 -0.01176284 -0.0041328017 -0.0118594915 -0.015496517 0.00511856 0.0029471219 -0.0048810896
WaitroseNo1 0.0058712065 -0.009629756 0.024961194 -0.013238037 0.020136902 -0.018407036 0.013799822 -0.009422377 0.018566137 0.016900318 -0.017571803 -0.00271984 0.023580043 -0.010365978 0.021483874 -0.020524245 0.020612342 -0.012570343 -0.007833082 0.009231241
