3006 40
frommydiningtable 0.10656359 0.022737859 0.046882797 0.16682395 -0.009080666 0.2230762 0.13705094 -0.14901274 0.24417642 0.1555471 -0.30684704 0.062238358 0.06544779 0.16261876 0.04807783 0.18816015 0.011905877 -0.035510384 -0.09296303 -0.17582004 0.10498521 -0.06561087 0.06641158 -0.030249871 0.21171105 -0.03725424 -0.15062287 0.16250229 -0.35957307 -0.09010821 0.06798936 -0.12559466 -0.052833315 -0.064143896 0.32489273 0.1124133 -0.08318068 0.06416425 -0.1997449 0.024010938
ladolcevita 0.108187065 0.0007338947 0.055246346 0.14130084 -0.02526729 0.15445687 0.091545716 -0.09328331 0.16602318 0.09766591 -0.27996856 0.04613701 0.047284752 0.15725876 0.01681107 0.14310482 -0.001221798 -0.044573616 -0.046104737 -0.13739717 0.06535131 -0.05587746 0.061321657 -0.026245324 0.18573289 -0.018371766 -0.12011915 0.120119184 -0.28390026 -0.073890425 0.03904646 -0.07038279 -0.021750413 -0.026351813 0.26954904 0.102993794 -0.06819184 0.045079205 -0.15094183 0.013621766
happiestinthekitchen 0.058933392 0.0010258036 0.042834785 0.07185268 -0.012647031 0.1095056 0.05176215 -0.034226052 0.09991773 0.07580755 -0.14303613 0.0320262 0.017319582 0.06908297 0.0068393205 0.08654855 0.011482325 -0.044690173 -0.036270067 -0.10253333 0.05448692 -0.018562747 0.03167899 -0.049211033 0.104014456 -0.0019949148 -0.07313336 0.075629756 -0.17113915 -0.048273034 0.020445427 -0.042107064 -0.019286433 -0.0180181 0.13724804 0.057629026 -0.045247078 0.043557636 -0.08650809 0.013420729
collaboration 0.048327066 0.0037960054 0.028299885 0.08738447 -0.014163157 0.09775345 0.05820388 -0.061089568 0.11182465 0.04347257 -0.1573412 0.049165968 0.018402742 0.079641715 0.011108127 0.10668077 0.0014807165 -0.019212876 -0.048067182 -0.08786577 0.066158965 -0.020605186 0.027187496 -0.019652463 0.1147739 -0.017216627 -0.06808407 0.0681796 -0.17588426 -0.05915972 0.028831365 -0.041980807 -0.017338043 -0.014508448 0.15747876 0.045952443 -0.024793161 0.053690907 -0.09734353 0.016396869
drinkresponsibly -0.0035404884 -0.1244711 0.0102327 0.12335338 -0.09832192 0.25511917 0.10452484 -0.17497253 0.3462597 -0.012123013 -0.3856376 0.22242856 0.0028645224 0.2466692 0.03858497 0.14391287 -0.00925914 -0.14236857 -0.120620616 -0.19747324 0.11813873 -0.09222999 0.08885553 -0.21274889 0.4704886 -0.12123925 -0.19538723 0.14386554 -0.27206478 -0.11711595 0.05374712 -0.11434619 -0.03332442 -0.052472025 0.25519517 0.082843706 -0.20107561 0.0902789 -0.24737036 0.17102088
breakfastofchampions 0.19223182 0.09489943 0.1248883 0.29054493 0.07841612 0.24225777 0.11390086 -0.032017 0.25102568 0.28399912 -0.38915855 0.06218582 0.14032125 0.32599637 -0.042338535 0.51928097 0.029568072 -0.023746243 -0.21516107 -0.13698012 0.23113519 -0.06959067 0.13343723 -0.056548405 0.23972657 -0.03161303 -0.29784355 0.21521768 -0.6292419 -0.1729085 0.09104981 -0.13737024 -0.030333858 -0.012122712 0.43958902 0.10882708 -0.1581233 0.22405116 -0.17851004 0.038310025
sweetsforthesweet -0.0038767187 -0.0060909973 -0.0072867796 -0.0054736226 -0.0058216187 -0.012416345 0.006765769 -0.0023122998 0.007513321 0.008001155 0.00093596615 0.005071626 -0.00027805567 -0.010344434 -0.002289203 0.0022425633 0.004125391 -0.0070263282 -0.0016438691 0.010983844 -0.009812353 -0.0035156216 0.007882073 0.004814365 0.012237177 -0.0010928493 -0.0031515034 0.0075291293 0.0026583467 7.102825e-05 0.0044644633 0.009782088 0.0002891915 0.0012321752 0.004952452 -0.0017614365 0.004231666 -0.010530809 0.0010869186 -0.0035659866
onacoldnight 0.021628337 0.00047910988 0.008973215 0.016768686 -0.0053040106 0.051000558 0.019553207 -0.02083948 0.046053853 0.03833281 -0.076191634 0.008216004 0.025084162 0.035354786 0.012620333 0.03901193 -0.0055909874 -0.00460212 -0.01276045 -0.04715409 0.0108169 -0.004218284 0.014244235 0.0012862381 0.049735066 -0.0060406956 -0.028904157 0.032465182 -0.07749691 -0.015990065 0.00055287377 -0.025274107 -0.012783008 -0.018589968 0.06221278 0.03516004 -0.02698638 0.009316479 -0.052403413 0.0012303868
comfortfood 0.12730426 0.0060887234 0.06997438 0.16175675 -0.036107942 0.25296482 0.13126065 -0.18099214 0.2719421 0.16318417 -0.37360892 0.06568164 0.08937124 0.18050587 0.035920586 0.19790398 0.010589902 -0.06573938 -0.09291994 -0.18850757 0.113271445 -0.0878062 0.082689896 -0.046845436 0.24577397 -0.059566036 -0.15689692 0.13460767 -0.3827793 -0.13427785 0.06122781 -0.11577557 -0.040642127 -0.05396042 0.35016927 0.10155359 -0.10592257 0.08045333 -0.21567672 0.054516196
autumnmood 0.2935637 0.15747221 0.016637346 0.11964167 -0.04633944 0.45392615 0.20036323 -0.26458338 0.35048983 0.2100727 -0.6381703 -0.090508096 0.21741587 -0.0056178872 0.105606064 0.124815166 0.139509 0.14344935 -0.051818706 -0.21780454 -0.009662249 -0.08954211 0.14246377 -0.0032751574 0.22654851 -0.23881203 -0.020000074 0.4345687 -0.41441706 -0.10326847 0.009435452 -0.24125864 -0.17791425 -0.10784417 0.34014523 0.19252619 -0.22050297 -0.23823515 -0.5754438 -0.056813374
happybirthdayaeneas -0.001856057 -0.0036209077 -0.011269264 -0.0022130068 -0.008751485 0.009529243 0.006485359 0.009083026 -0.0006721001 0.00971974 0.008804851 -0.0056022913 -0.0024234857 0.0010162639 -0.009943219 0.011582254 0.00037178677 0.00528529 0.011836671 3.772974e-05 -0.010837661 -0.0086665945 -0.005195439 0.00598609 0.010960695 0.010988475 0.007912454 -0.008717792 0.011363166 -0.0004848363 0.0013334276 -0.012064069 0.002019329 0.0054170704 0.0013306271 0.008849726 -3.9788894e-05 0.0014316468 0.0021737963 0.0032330165
lastdaysofalmostsummer 0.009343118 -0.002197815 -0.004596822 0.0053642737 0.0116442265 0.008094364 0.009315343 0.0066255284 0.006653688 0.011051978 -0.0035532694 0.0020954264 -0.009217897 0.00075305067 0.007090823 0.0012318399 0.012098183 -0.010801757 0.002853142 -0.003770168 -0.0005872641 0.0048516626 0.0022749258 -0.0020403713 0.00066184066 0.00020668656 -0.0017316211 -0.0014276356 -0.0064704674 -0.0011987463 -0.010907607 0.0013761669 -0.010347618 -0.0028083874 -0.0055575445 -0.0047283308 0.0015792269 0.00033504702 -0.011281717 -0.00032545812
thatfridayfeeling 0.034633067 0.0027048897 0.034593374 0.034859896 -0.0085525075 0.05791942 0.026199661 -0.026524339 0.06296033 0.047525197 -0.08441868 0.016022285 0.015090918 0.0320709 -0.0097619565 0.056882426 0.019089783 -0.008501955 -0.020917498 -0.05460726 0.025614234 -0.012902092 0.016703956 -0.023559935 0.07064191 0.0050661047 -0.053618655 0.029104702 -0.09839807 -0.030713629 0.017235521 -0.031822495 -0.022587564 -0.00456431 0.08298725 0.028824408 -0.015409009 0.014116102 -0.039746463 -0.0049126665
fastfood -0.005853401 0.0042737657 0.0046021426 -0.005822444 -0.006631312 -0.009350657 0.002580355 -0.00587817 0.007840448 0.011922591 -0.0077631236 -0.0039706733 0.0024368344 -0.0061785164 0.01013855 0.0023553995 -0.004497856 0.010867902 0.0032426054 -0.008777855 -0.007845974 0.00933184 -0.008278204 -0.009955366 0.0029295133 0.0038132323 0.0055551967 0.010870201 0.0016036537 -0.005276065 0.008561534 -0.010273675 0.00015676953 0.003989446 0.003944353 0.01005379 -0.009664128 -0.0069704624 0.011466048 -0.007201731
neverwanttoleave -0.00485135 0.004628652 0.005203224 0.009966052 -0.01135892 0.001151259 -0.008736613 0.009345087 0.011902108 -0.0071564093 0.0011665616 -0.0044513317 0.011047146 0.0014528828 0.0043885736 0.010740857 0.006498323 -0.006784448 -0.008403083 -0.0037061367 0.0064386604 0.0054928055 0.0064750304 -0.006726447 0.007085786 0.0048807273 -0.012239272 0.0021848204 -0.006070146 -0.006467819 -0.004436044 -0.012128557 0.004295514 -0.011057921 0.0023933025 0.0074039986 -0.006670846 -0.011361447 -0.006023392 -0.0038818642
aboutlastnight 0.005540381 0.0054337224 0.0024822578 -0.0060050595 -0.0008195536 0.007613574 0.010632007 0.0028305706 -0.00988545 0.007745561 -0.00089134835 -0.0014741765 -0.01023416 -0.000516993 0.011500322 0.0091765085 -0.00025708415 -0.004970798 -0.011747514 0.009862374 -0.0076543065 0.010850978 -0.0024050344 -0.0062323245 -0.00047457777 -0.003382911 0.007834618 0.0068857847 0.0069186846 0.009728716 0.00023268163 0.010307551 -0.010333205 0.009521098 0.007909135 0.009331574 -1.8621795e-05 -0.0024381224 -0.0028238613 -0.00861266
lazyweekend 0.01082435 -0.007920277 -0.010614905 0.0022924598 -0.005263516 -0.0014186781 -0.005603619 -0.0071988776 -0.00835332 0.0098146135 -0.0119914515 0.007728298 0.012242786 0.003472236 -0.0066628917 -0.0071308925 0.006061177 0.0014389502 -0.0074967267 -0.009967305 -0.0051528155 0.009651256 -0.011004957 0.0003465768 -0.0043222066 -0.011149193 -0.008244288 0.0022002328 0.006622839 0.009753552 0.0043678647 0.00017034262 -0.0029470995 0.012174764 -0.012420892 0.006612734 -0.010620502 0.003651646 -0.0038254308 -0.0048580663
homesweethome 0.13229328 -0.0038668616 0.04009269 0.18375404 -0.074204534 0.26784873 0.17720686 -0.17769507 0.30496714 0.16020148 -0.440124 0.07811206 0.09919384 0.21398817 0.05351293 0.21520832 0.0031571318 -0.07043745 -0.094535284 -0.22304751 0.081647605 -0.092914015 0.085148916 -0.05826827 0.29951704 -0.046181105 -0.17730905 0.19018972 -0.43692347 -0.13084716 0.055550903 -0.12655315 -0.079056755 -0.052470766 0.39657024 0.15655911 -0.1232356 0.06976502 -0.26374838 0.043696165
atableinvenice 0.0029339194 -0.00906839 0.0009854045 -0.008341452 -0.011526056 0.011648887 0.0095557375 0.005148747 -0.0077579054 0.00064606406 -0.0015237825 0.0031859586 -0.0068642185 -0.007335988 -0.011833136 -0.0033484679 -0.0038725333 0.007861997 0.010176848 0.011350549 0.009042713 -0.01003665 0.0069308234 0.011492857 -0.004086539 0.008422007 -0.009615148 -0.008977245 -0.006453015 0.009663715 -0.004377991 0.0011741817 -0.002071065 -0.0064551756 -0.010183752 -0.0018561529 0.010740398 0.011146945 -0.010618351 -0.0026866226
babyachilles -0.01171336 0.0007259669 -0.0045599435 0.00032714754 -0.011787209 -0.010685804 -0.0018404098 0.010672801 -0.009263871 0.0011115 0.0016043233 0.001370552 -0.011456124 0.0110573275 -0.00505528 0.005024758 -0.0015923502 0.0068604397 -0.009162133 0.007552066 0.009794896 0.0075690607 0.0042025587 -0.0015532319 -0.0032153334 -0.0042164475 -0.0023022797 0.0026532281 -0.0038617123 -0.009675915 -0.0070203156 0.0049521206 0.009766976 -0.00036036223 0.0026017157 0.009605891 -0.0037103575 -0.012145805 -0.007146253 -0.012186708
sweetdreams 0.015786903 -0.014173762 0.00012220099 0.03758822 -0.02498656 0.0724105 0.030532902 -0.04474735 0.06665538 0.04076664 -0.09633178 0.03422014 0.012907927 0.053234525 0.02180504 0.043957897 -0.00958447 -0.02693691 -0.010842929 -0.05887815 0.019773053 -0.020903604 0.028115895 -0.0020534638 0.06473218 -0.016646238 -0.037116673 0.031170344 -0.10766641 -0.028967092 0.00248283 -0.02683885 -0.026516987 -0.015452545 0.105864376 0.047370706 -0.031835355 0.02179174 -0.05884674 0.010801985
lunchtime 0.09405447 0.01977162 0.07151112 0.10922855 -0.021961505 0.14692374 0.07971428 -0.07847732 0.15235774 0.11327005 -0.24055342 0.02844127 0.04450675 0.12313153 0.010741741 0.16785453 0.039091963 -0.043476764 -0.055659387 -0.14389493 0.07521213 -0.039039765 0.0682918 -0.018176403 0.1580375 -0.0044661937 -0.11893217 0.114850655 -0.30168372 -0.07537814 0.042528994 -0.071625434 -0.038140286 -0.038565256 0.20578973 0.081553526 -0.06408859 0.070186876 -0.11867621 0.025577655
summerinvenice 0.0022969171 0.00092971325 0.007704814 0.008331423 0.0007640226 0.010764201 -0.00432075 -0.009018347 0.010914673 0.0057755085 -0.008288456 -0.009815264 0.001411031 0.008695495 0.010656917 -0.0076962817 -0.0105405 -0.011699949 -0.00033056736 -0.009085918 -0.011008236 -0.0031953305 0.006301065 -0.0043117385 0.009295504 0.00097163767 0.006982022 -0.0021964516 -0.010542971 -0.0024740444 0.004312993 0.0021915827 0.0029032556 -0.01087157 -0.007809587 -0.010686973 -0.005660489 -0.007958427 0.0021984782 -0.007246894
viewoverthegrandcanal 0.034462456 0.020394227 0.012893764 0.04487036 -0.016913526 0.05176712 0.051258978 -0.031459495 0.068476364 0.049095236 -0.091839194 0.0113598425 0.008808205 0.04355588 0.020756949 0.046944063 0.019894065 -0.024763007 -0.006067159 -0.071914256 0.023925569 -0.0065614376 0.034147713 0.0005048672 0.056026414 0.020520728 -0.047715064 0.05312494 -0.09646817 -0.019417537 0.017859118 -0.017408848 -0.011722913 -0.03498557 0.095005974 0.03895607 -0.018601945 0.009002904 -0.04252264 0.01884449
classic 0.14581059 0.0753322 0.043469828 0.2201215 -0.07489068 0.27110103 0.19860384 -0.13261294 0.26266944 0.222247 -0.40461832 0.14863583 0.041620992 0.24101678 0.030721577 0.17328477 0.023499122 -0.13455112 -0.103034355 -0.29166967 0.06965912 -0.032340202 0.074251324 -0.04038177 0.30757436 0.020320473 -0.22173649 0.13002892 -0.4706646 -0.1588846 0.0795026 -0.079393916 -0.0058840564 -0.08140704 0.46333003 0.2181508 -0.11415078 0.07692159 -0.22986703 0.06725569
favouritemealoftheday 0.0051203696 -0.010014157 0.011615449 -0.012357435 -0.011021963 0.0075149247 -0.008173652 -0.01161076 -0.0004009558 -0.005188635 0.00522256 -0.0006913198 0.009674386 -0.002842458 0.0124140745 -0.010287866 0.011885603 0.005886589 -0.006574494 -0.0063965856 -0.009217247 0.007825532 -0.0022592787 0.0036499696 -0.0120663615 -0.0037480425 -0.0051358477 0.01178404 -0.0057164715 0.005867454 -0.0044195773 0.010265182 -0.0038732113 0.0029403064 0.0004233895 -0.012047248 0.00019970257 0.008353283 -0.0045965565 -0.0024270285
recipetesting 0.1625357 0.03495345 0.17008439 0.21555033 -0.024437351 0.22606637 0.02856259 -0.07939294 0.08240705 0.25067705 -0.33556524 0.08706988 0.07761423 0.17336106 -0.041956086 0.20416346 0.15529783 -0.17756821 -0.114743225 -0.2950262 0.13015082 -0.05780067 0.06027969 -0.094929054 0.2680313 0.040271655 -0.2362222 0.09414961 -0.56187785 -0.14077252 0.02940051 -0.045832563 0.07991108 0.044809792 0.3425064 0.15469857 -0.11571371 0.12124259 -0.08946875 -0.00092223426
summermood -0.011396574 0.0076446896 -0.008428281 0.0018942412 -0.007120931 -0.011668831 0.0031565959 0.0044897785 -0.0016898718 0.009545582 -0.011240603 0.008292713 -0.008185474 0.00782992 -0.0037112506 0.007872117 -0.0016495781 -0.0028402088 -0.00051094126 -0.0026263073 -0.0029051322 -0.0031409012 0.00043649971 -0.0056237145 0.004317214 0.0019578887 0.011069448 0.002144957 0.0053849714 -0.009604344 0.00038068555 -0.010602227 0.008107343 -0.0116743315 0.008936829 0.0049121166 -0.008359913 -0.006550209 -0.004135211 0.00029353797
holidays 0.07437497 0.022303974 0.004921306 0.10307676 -0.024883373 0.19593416 0.08033109 -0.16445908 0.24038012 0.15456963 -0.3180552 0.09621425 0.0857864 0.17702414 0.056484964 0.15091366 -0.011454655 -0.104002066 -0.07703403 -0.14199117 0.090117596 -0.05163769 0.093733534 -0.038867433 0.24474446 -0.05567242 -0.12699676 0.07271345 -0.33231327 -0.11156304 0.06606153 -0.072655834 -0.0063676257 -0.10698548 0.26398134 0.08569989 -0.10131801 0.08442762 -0.13426892 0.11381478
onemonthold 0.024342023 -0.014944023 0.027673976 0.024476904 -0.010405929 0.054996777 0.013033091 -0.01309401 0.04949821 0.044156797 -0.083509214 0.017906947 0.018774346 0.037416704 -0.010376308 0.039195944 0.014774069 -0.037187196 -0.021484349 -0.065453954 0.023348013 -0.016594412 0.016484756 -0.021946283 0.08029706 0.00457007 -0.04042017 0.042489454 -0.10603275 -0.035055615 0.0026895022 -0.031564634 -0.0049813744 0.0044196523 0.063303426 0.028640399 -0.040322233 0.009260332 -0.04597402 -0.0045470544
summertime 0.09541585 0.010226425 0.05860037 0.15265262 -0.03484842 0.14202732 0.12437802 -0.08812494 0.15218297 0.11034565 -0.21467364 0.044911586 0.025895081 0.12385833 0.029793255 0.14354253 0.018233668 -0.030243294 -0.058843765 -0.15142274 0.082540266 -0.03568495 0.042241607 -0.016049793 0.15700567 0.004206882 -0.12604217 0.11248466 -0.26646706 -0.07167516 0.033763364 -0.06860077 -0.032388367 -0.03144142 0.23659173 0.10456211 -0.046653 0.043790925 -0.13621558 0.009851862
servechilled 0.057367723 0.0066043856 0.016758265 0.092203654 -0.0476647 0.12518872 0.09413834 -0.060041066 0.119417004 0.069003426 -0.19506307 0.04762349 0.037631024 0.12795609 0.02625109 0.11941818 -0.0017898484 -0.025432354 -0.035130303 -0.100449145 0.0387377 -0.039661366 0.056718513 -0.024624549 0.113420345 -0.024253191 -0.07457723 0.08308219 -0.20165095 -0.059481665 0.023339787 -0.057718765 -0.03572338 0.00059796905 0.20777902 0.063239865 -0.058557317 0.033936944 -0.1159835 0.013189532
makeahead 0.09549218 0.013526461 0.06304218 0.13463187 -0.036808 0.18281437 0.10556797 -0.09295433 0.18254454 0.1182724 -0.2610871 0.049554873 0.03655307 0.13725965 0.021551047 0.15285455 0.042935766 -0.05571074 -0.06819473 -0.17215383 0.09821445 -0.05312544 0.058582313 -0.052318066 0.20262109 -0.022262828 -0.1225589 0.1162512 -0.3129769 -0.10205984 0.046267338 -0.08529214 -0.03806674 -0.047552966 0.25260678 0.11142369 -0.07725244 0.056745656 -0.13994162 0.025744941
secretvenice -0.00021927245 0.00125203 0.0035771588 0.0065504694 -0.001609223 0.0081202565 0.008395796 0.0014086794 -0.011111403 0.0017036293 -0.0017124098 -0.006476593 0.008735989 0.0066575045 0.0033349553 0.005394415 -0.008180248 -0.010768746 0.0012890277 -0.011507212 -0.0011915695 0.008678817 0.0024835635 0.0029005604 0.010989086 0.0034703976 0.0052773105 0.011623221 -0.0055137174 0.00073197484 0.0020896597 -0.0039905906 0.0002186643 0.005792276 0.0013606222 -0.00023053586 0.006023287 -0.0052035227 0.0053762095 0.010513433
myfavouritecolour -0.008925535 0.00487152 -0.0016238615 -0.005897574 -0.011445135 -0.0065310686 -0.012134179 0.010180765 0.011534902 -0.011135772 0.010337538 -0.008887352 0.00399864 0.0040601706 -0.0035954956 0.0035467362 0.004173967 0.011906383 0.01230248 -0.0024194065 0.0034507634 -0.0020433636 0.006121899 -0.0017633308 -0.0024024965 0.0018477384 0.005516733 0.0050165793 0.009217084 -0.009472186 8.2617626e-05 -0.00046209246 -0.0070694136 0.004454228 0.004105375 0.0035529817 -0.005409607 0.0070397714 0.0029918281 0.010602514
lavieenrose 0.011902109 -0.0034756074 0.0051592337 0.045960274 -0.0057327314 0.06201461 0.034623113 -0.045727435 0.075261466 0.01633834 -0.089325085 0.032233216 0.019247428 0.06250938 0.027355094 0.02822685 -0.010992934 0.00011451972 -0.015551976 -0.050109643 0.0035415094 -0.029359143 0.026871832 -0.013518195 0.061318453 -0.025011826 -0.025129074 0.04580325 -0.090729594 -0.01991702 0.015625367 -0.036069468 -0.019555276 -0.021936126 0.072106935 0.04132426 -0.031247428 0.01175346 -0.050047975 0.01332626
inthemoodforpasta -0.0090058055 -0.0042729257 0.011086644 0.0055459114 0.0029045893 -0.0065670046 0.0019527795 -0.000851335 0.007426058 0.0007593455 0.0029956158 0.002031264 0.00451387 -0.005248812 -0.01187062 0.0022914829 0.001521091 -0.012074882 0.0048487717 8.599926e-05 0.0050793653 -0.012143485 -0.0014226316 0.0072279545 0.0040647713 -0.008486822 -0.003080395 -0.0025220336 0.003451827 -0.0024362635 -0.004344927 0.012056955 0.0031367699 0.0053932415 -0.01227303 0.0006017927 0.008655679 -0.0005349498 -0.0015773345 0.0032067737
sunday -0.005484644 0.002885675 0.0075722607 -0.0059277727 0.0014201775 -0.011412372 0.006657739 0.0010705339 0.011507862 0.000684157 -0.0048905103 -0.0029404238 -0.011624656 0.008144769 -0.0026784595 -0.006258324 0.012055212 -0.012341055 0.0066341916 -0.011645622 -0.0035478277 0.004782199 0.0067333495 -0.0002611503 0.0007513715 0.007034409 0.000432821 0.008988016 -0.00013732724 -0.008098577 0.004928463 0.01116355 -0.009757186 0.010235715 0.009798934 -0.010798757 0.008167339 0.010036035 0.010110992 -0.010613299
babyboy -0.0043235 -0.0014119623 0.008527624 -0.0008425284 -0.010626621 -0.0053459196 -0.012448415 -0.0029535908 -0.004420954 -0.008450145 -0.011299674 0.003646643 0.0010740329 -0.0010057343 0.00028862804 0.0074970974 0.0008537518 1.1736527e-05 -0.00312607 -0.0019420143 0.006080077 -0.00852329 0.010276799 0.0063328603 -0.00577288 -0.011499183 -0.00388172 0.011160255 -0.010568745 -0.0076387287 -0.0041660788 0.008788674 -0.00862537 0.007096215 -0.006465067 0.01069606 0.008848072 -0.011097426 0.0062063253 0.008407661
mondaynight -0.0051616654 -0.010314876 -0.011523395 -0.00215221 -0.002909854 0.007441026 -0.012018998 -0.001519246 0.009008692 -0.0088334335 -0.004260379 -0.0046726195 0.00080492534 0.0008007195 -0.0075569274 -0.012236561 0.0033636848 -0.008872459 -0.009091526 -0.0069897207 0.007485072 0.00045310706 -0.007939679 -0.006057869 -0.00019985251 -0.0109226825 0.010884878 -0.011281902 0.011733399 -0.00018098485 -0.0011988226 0.00010836311 0.00040345173 -0.0024367375 -0.011467894 -0.0025948808 -0.0095444815 0.0014071781 -0.0010937601 -0.0074561327
weekends 0.00021840353 0.010608816 -0.0026986469 0.0009652497 -0.009428024 0.0075314874 -0.0067503825 -0.010727574 0.0012498405 -0.010042133 0.0064409906 0.0056690415 0.001097409 0.009968779 -0.0037444755 0.0014221352 -0.0041780546 -0.007979308 0.0023848163 -9.0025365e-05 0.00468129 -0.01141783 0.0023265127 -0.003427878 -0.012253678 0.0075750677 0.00023159571 0.0025640028 -0.0034247665 -0.0071296617 -0.0009961482 -0.0036460068 0.012061375 -0.010023892 0.0045553064 -0.0039904313 0.0075665927 -0.008244783 -0.0020248815 -0.00013316236
lazystarttotheday 0.04188667 0.020776672 0.015251107 0.04662288 -0.008671073 0.06975475 0.049050786 -0.031228913 0.06425329 0.053709276 -0.10987296 0.00734097 0.0020602092 0.05444723 0.006010499 0.06347758 0.024104943 -0.021924317 -0.018059816 -0.07923584 0.050721306 -0.0066265846 0.030416304 -0.035332054 0.06583007 0.00913685 -0.0617891 0.057493053 -0.10449028 -0.044372495 0.012964926 -0.021500617 -0.011460923 -0.017905917 0.0935007 0.038729295 -0.024033854 0.023364462 -0.06834125 -0.0035069175
themorningafter 0.041080363 -0.004063729 0.009868314 0.024266623 -0.013355823 0.06491361 0.027794309 -0.04468435 0.049943738 0.027377779 -0.08603835 0.01254808 0.030935772 0.046495076 0.021494223 0.041797545 -0.0028148931 0.00087143626 -0.012058262 -0.018634042 0.010497482 -0.007072405 0.031436604 0.010877467 0.04733902 -0.025399677 -0.020959733 0.021819083 -0.0668278 -0.03726195 0.012701966 -0.02023614 -0.0021014847 -0.0010871224 0.06914624 0.023641625 -0.026364032 0.0035893356 -0.06231889 -0.0031200047
andthesweetestroses 0.050301082 -0.008370588 0.02785253 0.074528344 -0.010479457 0.1030134 0.05354457 -0.05538335 0.099493094 0.04480199 -0.13630393 0.052534137 0.01731948 0.08087444 -0.0034380103 0.075616516 0.020766828 -0.044613507 -0.046383962 -0.087529115 0.04653074 -0.032246284 0.009530987 -0.025819896 0.11784884 -0.0015621013 -0.078777015 0.07079078 -0.17932291 -0.04957613 0.034232445 -0.038076334 0.008438723 -0.0058587976 0.13986175 0.054059114 -0.039897412 0.031925466 -0.06384517 -0.0014490013
tuesdaynight 0.03323704 0.011027939 0.013483227 0.033264354 -0.009469372 0.0398756 0.034897953 -0.02720069 0.044902008 0.038248852 -0.07780201 0.015195058 0.0029818267 0.029005354 -0.0016427794 0.025094021 0.013234008 -0.033322718 -0.018273043 -0.065690644 0.016312473 -0.010612053 0.027286505 -0.009583807 0.05810778 0.016638706 -0.029962528 0.02738699 -0.08407779 -0.026251962 0.0041320873 -0.017128862 -0.012083432 -0.011918086 0.07177175 0.025241211 -0.025703337 0.009928148 -0.028368087 0.02050642
wishiwerethere -0.011738134 -0.008345303 -0.011615216 0.012334554 0.0037506437 -0.011875838 0.010450886 0.011529817 0.01042368 -0.009169946 0.008936868 -0.00070786756 -0.0017075613 0.0075506316 0.0042596767 -0.00878595 0.0071973996 0.009101224 0.0023075733 0.00058118254 0.003745283 -0.002442588 0.0051947096 0.00058527105 -0.0008000657 0.0032026088 -0.010770196 -0.0107929455 0.00440129 -0.0017684968 0.0039106114 0.010027328 0.005893369 0.0044039274 0.002646042 -0.0031689946 -0.00012026541 0.011483 -0.0061504007 0.009596457
postcardfromvenice 0.03656253 -0.015102865 0.028662065 0.053596143 -0.026162222 0.059884243 0.040450994 -0.044587925 0.07363163 0.01575846 -0.10656889 0.02990136 0.025146406 0.052528374 0.004533288 0.0518334 0.0046831137 -0.04129412 -0.014464995 -0.071835116 0.034095533 -0.015293386 0.027417999 -0.037213065 0.085145995 -0.0073362887 -0.05471697 0.042809684 -0.09092321 -0.043048214 0.024522182 -0.02895366 -0.015981471 0.0019002787 0.10562998 0.04463009 -0.035118226 0.03592591 -0.057562437 0.02114153
decorativegourdseason 0.009239252 -0.0018129246 0.002064337 -0.00044038426 0.009765659 0.009870538 -0.005076298 0.010830139 -0.007470609 -0.0069064307 -0.0063467384 -0.007541548 -0.0040510725 -0.003982256 -0.00025918614 -0.008352824 0.0019814726 -0.00354888 0.0017563077 0.0033287732 -0.005774704 0.0058790026 0.011071806 0.011023697 0.00056329183 -0.011782045 0.0004517557 0.0075436244 -0.0007656608 0.011160287 0.0058329543 0.00048451312 -0.011490022 -0.0075326907 0.012327126 0.0003019767 -0.0018997807 0.011266136 -0.0034078015 -0.00076045096
wildfoodlove 0.017501883 0.012627635 0.012685168 0.04963021 -0.008068176 0.07165091 0.05110932 -0.03686627 0.09048739 0.04431166 -0.09818068 0.011916133 0.012852392 0.051543146 0.00888802 0.05999624 -0.010292838 -0.014905852 -0.021658137 -0.037388712 0.025418926 -0.018434515 0.0154695995 -0.0010295981 0.057007607 -0.0046608173 -0.038771737 0.031447742 -0.09115994 -0.019221326 0.0067376634 -0.033040565 -0.011638382 -0.028501749 0.08020863 0.036579937 -0.016958822 0.024042053 -0.041882858 0.014965845
tomatoseason 0.004464538 0.0027432758 -0.011002364 0.004210378 -0.004069833 -0.0019966634 0.00084018894 0.005707138 0.008989233 -0.008475793 0.0017905012 -0.0065153795 0.005844203 -0.004408148 -0.0058309063 -0.00695055 -0.0018512206 -0.010668993 -0.010449235 0.0014335094 -0.0027487827 -0.0027270522 0.008913928 -0.0006822925 -0.011337726 0.0029824423 0.005106191 0.006296537 -0.0022996916 0.0007113889 -0.002538371 0.008527133 0.010529856 -0.0010168133 0.012212948 -0.004694991 -0.00042709522 0.0020428672 -0.011354323 0.004572819
peakperformance -0.009394126 0.0056810854 0.0078032324 -0.003998041 -0.0097301155 -9.200722e-05 -0.0058214827 0.0056482563 -0.003957348 0.003683378 0.003096548 0.010723858 0.0071252687 -0.00470164 0.0028072447 -0.006352592 0.0042416295 0.012308943 0.0013808561 0.0027504321 0.011187115 -0.010114044 -0.001228149 0.0112066055 0.004076273 0.0029702215 0.012339878 0.004722585 0.0015692338 -0.011825467 -0.00026640855 -0.007859193 -0.011529694 0.0021277424 -0.011942304 -0.006730363 0.005767961 0.001870255 -0.0060547725 0.0034189792
leoseason 0.02396592 0.0057236236 0.016111704 0.031870622 -0.019516652 0.053603534 0.03223899 -0.044964094 0.057381447 0.03373143 -0.10208025 0.021516563 0.01928341 0.041812956 0.0052215043 0.07067074 0.009653197 -0.014624823 -0.030256666 -0.057790115 0.03813474 -0.025941418 0.019740963 -0.023421075 0.053009152 -0.0117865 -0.03956179 0.044193693 -0.110441096 -0.04236199 0.001888742 -0.025402488 -0.00881667 -0.0009920076 0.090865865 0.023908842 -0.024048734 0.02998494 -0.05180228 0.009970054
summerismagic 0.024336414 -0.0077319015 -0.001670654 0.045478333 -0.010025727 0.073546045 0.053190935 -0.035336513 0.07369025 0.027489087 -0.103211306 0.013267404 0.014372605 0.05106527 0.02606814 0.04278972 -0.019702293 -0.0059294803 -0.0074590794 -0.04918536 0.022686958 -0.019611187 0.019415163 -0.004066689 0.058563773 -0.020813009 -0.041307896 0.04094559 -0.08490596 -0.03329403 0.012593774 -0.042605072 -0.025101818 -0.017692124 0.077809185 0.024495183 -0.028810149 0.0044033853 -0.074947014 0.008183557
feedlife 0.07016191 -0.005285164 0.04298534 0.08538431 -0.049822092 0.15237796 0.0754971 -0.07548562 0.14922662 0.10036169 -0.20127505 0.06410079 0.047676407 0.1246582 -0.00593834 0.12976795 0.029463196 -0.06598263 -0.046140898 -0.1298456 0.08226918 -0.038572997 0.04815555 -0.043544177 0.17546876 -0.026171263 -0.1149195 0.07048239 -0.2504513 -0.0645264 0.038629245 -0.066477284 -0.03213143 -0.02854924 0.20915532 0.08980264 -0.07529553 0.03908544 -0.120262325 0.02049213
summerlovers 0.0010688324 -6.5040775e-05 0.0011445824 0.0092355525 0.0019025002 0.0031339535 0.0061412314 -0.012274332 -0.0054666474 -0.011687808 0.005237353 -0.0056002066 0.003314943 0.001836827 -0.0057164463 0.006435604 -0.00063324906 0.0013580639 -0.010985548 0.009677433 -0.0071167173 0.009130265 -0.004606828 0.00807174 0.0042079063 0.00081244856 0.012284446 -0.0060080946 0.0004780665 -0.0010564383 0.006601258 4.2527914e-05 0.0062336707 0.0045662234 -0.004188831 0.006423586 -0.00322182 -0.009725129 0.010596951 0.0029960126
alpenglow 0.006009306 0.0078029158 0.0022560228 0.0010394556 -0.008875583 -0.0011223704 -0.008048486 0.004492252 0.012166291 0.0019499706 -0.010575085 -0.0050682053 -0.008627253 -0.007604416 -0.008146005 0.0036725113 -0.011142092 -0.0016472843 0.010066082 -0.0026180493 -0.0054233535 -0.010811823 0.00013406388 -0.006757258 0.00030937232 0.00078635477 0.0029612277 0.008897279 0.011722534 0.0065153865 -0.009992935 -0.0039233966 -0.0035293251 -0.011891124 -0.012018802 -0.007909802 -0.011341785 -0.0018728767 0.00555537 0.0006517321
weekendwarrior -0.00714072 -0.0030667884 0.009523203 -0.012441233 -0.0062899753 0.0086870575 -0.0068775415 0.009938101 -0.0055080876 0.0039833942 0.011382083 0.0012153741 -0.011768103 -0.00488186 0.0061588446 0.0011664508 0.011786827 9.521283e-05 0.0069349287 0.0064163515 -0.0035654781 -0.00026789773 0.00936734 0.0023384783 -0.0049847513 0.011577093 0.0062870877 0.002761173 -0.0022512525 0.0021834802 0.0055303825 0.001226591 -0.0026621995 -0.010520408 0.00039978884 -0.00596464 -0.00554328 -0.00024348032 0.0053200806 0.0023043063
figtastic 0.025082514 0.011478165 0.018778646 0.045893647 -0.015629986 0.053529467 0.034420844 -0.026172142 0.06130676 0.05068218 -0.09407565 0.01463438 0.01627819 0.03849735 -0.0018181293 0.058515433 0.025662575 -0.0031083385 -0.021854913 -0.049875464 0.034518436 -0.012776037 0.027388789 -0.027818495 0.06649718 0.0074686967 -0.047800582 0.03985354 -0.10399054 -0.02597095 0.016020427 -0.01925192 -0.009231659 -0.008922343 0.09886639 0.03398574 -0.011651004 0.030885432 -0.051116303 0.013644271
figonometry 0.034371387 0.0023943568 0.018531306 0.05852849 -0.020572254 0.049734812 0.0382003 -0.035985272 0.06407078 0.014455016 -0.09001439 0.028528152 0.0051099407 0.039757352 0.019540029 0.046890367 -0.015402881 0.0068547293 -0.017580574 -0.04757829 0.03321243 -0.02502967 0.012317662 -0.017193988 0.07199116 -0.023232127 -0.04463488 0.043274906 -0.0839175 -0.030584503 0.01639916 -0.01762673 -0.007128322 -0.02878625 0.09955807 0.0372436 -0.02758228 0.021016067 -0.0564578 0.021490479
fignewton 0.051456153 -0.010139743 0.021623233 0.07241762 -0.03807081 0.13187136 0.053298593 -0.065488495 0.12622444 0.056559887 -0.16898307 0.060474742 0.049692232 0.10110695 0.024674846 0.09218518 0.0060938806 -0.031109372 -0.044606023 -0.085796975 0.05534734 -0.032552935 0.04486797 -0.018600482 0.10979742 -0.026717605 -0.07740488 0.057388783 -0.20746468 -0.046927605 0.031664293 -0.055122156 -0.02306454 -0.0047900556 0.18373787 0.04947615 -0.06069235 0.058000036 -0.10089773 0.031732783
summerfridays 0.19222718 0.06991425 0.11085951 0.106036164 0.037632108 0.33483064 0.098749034 -0.12160274 0.1764524 0.30379185 -0.3124432 -0.020927029 0.11243352 0.19943914 -0.0719852 0.30727652 0.18532626 -0.069222026 0.0049035894 -0.19064751 0.04806938 -0.059185047 0.17365982 0.12916131 0.08297375 -0.05639132 -0.17887081 0.2190709 -0.4785956 -0.04484118 0.088919066 -0.14321434 -0.10508801 0.017668132 0.3211753 0.18080425 -0.18584459 0.017248245 -0.18964952 -0.03964816
optoutside -0.0070514544 0.00017250795 -0.0039680284 -0.0048071668 -0.010020262 0.011098952 0.003120087 0.010360754 0.0018098596 -0.008819317 0.005958072 -0.011335547 0.001003541 0.011582374 0.0040570768 0.006288142 0.005083912 -0.010260871 -0.0064201686 0.0072283885 0.005611093 -0.010498358 -0.003099434 0.0061187604 0.0013365094 -0.006185149 -0.00843182 0.0023429692 -0.011732168 0.004313682 -0.010006201 -0.012375563 0.010355937 0.002904296 0.009799543 8.856878e-06 0.009514184 -0.0010758489 -0.006355801 -0.00826267
mood -0.009857001 0.0064323014 0.0036898172 -0.00020891707 -0.008641792 -0.011347768 0.0032100147 0.008703875 -0.0024697706 0.006984354 -0.0037955549 -0.011555995 0.008374992 0.008302973 0.0070699016 -0.00454015 0.0060609365 -0.00074400567 -0.0014688196 0.0045196014 0.0073925154 7.758103e-05 0.0045617586 0.007633417 -0.0025243955 0.010179016 -0.006688857 -0.01245137 -0.007439058 0.0013993979 -0.008367114 -0.007882334 -0.0083605945 0.010851714 -0.0058285925 0.0015425365 0.008048887 0.00023379363 0.0004078839 0.0065417467
joyspotting 0.10160283 -0.0036227088 0.060085878 0.12413792 -0.03179624 0.1762257 0.08660008 -0.11261036 0.17928503 0.115971066 -0.29713416 0.029117439 0.064860575 0.15174939 0.039524745 0.17322436 0.017907258 -0.02964 -0.057631597 -0.13579161 0.08831072 -0.048357915 0.05969914 -0.01469847 0.15036713 -0.027340833 -0.13287313 0.10363003 -0.3188805 -0.09695529 0.04415736 -0.10000573 -0.022139696 -0.03146516 0.2934996 0.07950108 -0.07921539 0.06464149 -0.1443989 0.012712024
ilovesummer 0.01393272 -0.009203396 0.01637353 0.056499925 -0.017080074 0.051330894 0.047540303 -0.038621392 0.04867558 0.02451108 -0.07848322 0.011126662 -0.0012329741 0.04804722 0.0031044544 0.045842923 0.006508177 -0.02414743 -0.017401118 -0.064095296 0.022471732 -0.022968087 0.004587684 -0.029877556 0.05321675 -0.0056602363 -0.028380312 0.03811701 -0.08827727 -0.01929799 0.006704469 -0.023924107 -0.034018975 0.00740798 0.096245036 0.047437247 -0.027909065 0.0127083175 -0.0616576 0.016386459
teamworkmakesthedreamwork 0.0036077583 -0.007857238 0.009093911 0.006322951 0.0044409344 0.00871911 -0.009385461 -0.008498286 0.00376176 0.0060110157 0.011588925 0.0044100406 -0.00454312 -0.010280713 -0.008172387 -0.0034592953 -0.0015829969 -0.002797355 -0.0077676238 -0.01149468 0.00329391 -0.005997957 -0.003553356 -0.01247467 -0.0038738418 0.011520536 -0.0005646916 -0.010360198 0.00033427496 -0.0018726857 0.0060864696 -0.0029058624 -0.005461608 -0.010796118 0.0028072912 -0.0029721782 -0.0051266076 0.0013101278 0.0018080641 0.0076739034
freedomfries 0.007925549 0.008514005 -0.0034670113 -0.010281277 -0.003655864 0.004940265 -0.008922761 0.0002733227 -0.008992789 -0.0021376042 -0.007802366 -0.011580783 0.010521471 -0.0063148215 0.0070137614 -0.009838959 -0.00785389 -0.0035282196 -0.0068627195 0.007644632 -6.988179e-05 0.00992811 -0.00322284 -0.008718622 -0.0044547766 0.0017076032 0.003091393 0.011080387 -0.011206663 -0.0111756995 -0.00721207 0.005190215 -0.011790292 -0.00011185277 -0.0074301586 -0.0064438074 0.01073162 -0.0028732019 0.011488075 -0.01145492
iloveyou -0.0019943388 -0.0036012903 -0.006724669 -0.011292624 -0.0038991626 -0.0010086596 -0.004780996 0.005878399 -0.007453598 -0.007934475 0.0018934635 -0.0090931 0.0016985461 -0.000845504 -0.0062428103 -0.0017342521 0.0015026974 0.0045726197 0.0062582204 -0.00039831828 -0.008305233 -0.0024498682 0.0024892362 -0.0021925569 -0.010978796 -0.0037055118 0.0043838033 0.010267907 0.00503748 0.0044522816 0.0049480805 0.0037687207 -0.0049154013 0.00045586657 -0.011226351 -0.010069077 0.00634645 0.004846777 -0.011041536 0.007923403
fuckthepatriarchy 0.036770195 -0.016703755 0.020494243 0.051928695 -0.03441467 0.07724094 0.036790583 -0.028308256 0.06367865 0.027639061 -0.10156241 0.023706373 0.014036408 0.04649663 -0.002599362 0.05569354 0.004626201 -0.02862954 -0.02062845 -0.06474729 0.033794925 -0.011720169 0.014127195 -0.024246082 0.07255672 -0.00743392 -0.04742163 0.03509288 -0.103848204 -0.035064343 0.024546232 -0.031703796 -0.014466662 -0.006368434 0.0967411 0.054555416 -0.033311717 0.010682384 -0.060200892 0.009090867
jbfa 0.08262302 -0.007650519 0.051927913 0.11370813 -0.060100272 0.16729906 0.087713815 -0.07425325 0.15881276 0.09653373 -0.24470533 0.05499713 0.023801904 0.11307435 0.003770832 0.13569634 0.032528177 -0.0633664 -0.051455162 -0.16701598 0.072304934 -0.05970165 0.06036458 -0.061093003 0.16859384 -0.008603851 -0.12746476 0.10278006 -0.28113443 -0.07981401 0.025537642 -0.049362205 -0.043488212 -0.037493125 0.22484933 0.11034628 -0.08516086 0.03295588 -0.122909434 0.018416502
chicagohome 0.091557145 0.008852019 0.07184875 0.111314036 -0.028100537 0.16798116 0.0999263 -0.08215253 0.1639552 0.10015002 -0.23169044 0.040753346 0.045857675 0.12234524 -0.0026487487 0.14703895 0.031639628 -0.028372437 -0.04597445 -0.1375172 0.06473564 -0.045451924 0.055882107 -0.035431184 0.16220215 -0.01768467 -0.12980607 0.10870771 -0.2662553 -0.065756686 0.026614215 -0.08101547 -0.024642618 -0.040889718 0.20409983 0.097059794 -0.05789763 0.03535628 -0.14156091 -0.0008943995
illinoisrestaurants 0.088140994 0.01766357 0.044628687 0.15465312 -0.051215086 0.19918075 0.1319288 -0.103668064 0.2306354 0.104849786 -0.30087236 0.079823084 0.060583156 0.1659157 0.026853032 0.16683453 -0.011927267 -0.05196465 -0.05954997 -0.17048673 0.08667164 -0.046729796 0.0672713 -0.04516059 0.21971987 -0.030663792 -0.1471634 0.14677313 -0.32519585 -0.11007005 0.050867144 -0.10043497 -0.0284619 -0.058083687 0.29914194 0.116532095 -0.08151343 0.06601715 -0.18673569 0.027715735
petalpower -0.002676797 0.0030783396 -8.3208084e-05 0.007495097 0.0011972338 -0.0047915685 0.011930442 -0.0048420294 -0.007184164 0.006111945 0.0012188796 0.008231119 -0.000360528 -0.0073267194 0.0048636636 -0.011911876 -0.00012560468 0.004624049 -0.0045739654 -0.012244112 0.011592173 -0.00912329 -0.008863303 0.010584393 0.012093418 -0.008501546 -0.007013102 -0.0046487823 -0.010698396 -0.000467062 0.009831616 -0.007970413 -0.0060724854 0.011038086 0.0059099765 0.00071049295 -0.010467121 0.0071448116 0.011049864 -0.0038004685
spargel 0.0039706687 0.012476322 -0.011276552 0.010362544 0.0042083943 0.0011733603 -0.011507578 -0.0123966355 -0.008347878 -0.0005535288 0.0063383365 -0.008415664 0.0062240893 0.0062625436 0.0071036136 -0.0070020007 -0.0028212396 0.006313232 0.008926342 -0.003906386 0.010700033 0.0030404162 0.003075419 0.01226795 0.00041252654 -0.0010046903 -0.00095595233 -0.0040333467 -0.0021871058 0.00044355262 -0.008901993 -0.0029500024 0.011778624 0.008569173 0.0019901525 0.012325059 -0.010591355 0.008902173 0.0044557797 -0.004633257
pollinators 0.010673965 0.006590196 0.0087937 -0.0026434036 0.007935789 0.0050575556 -0.00591653 0.010009299 -0.005428539 0.0031178342 0.003734653 0.006777779 -0.010103673 -0.0055163773 0.005841854 0.0039517255 -0.0029724594 -0.009308403 0.005720434 -0.0074386643 0.004692287 0.007531508 -0.011569621 0.0017140908 -0.0047221812 -0.0032264562 0.004669928 0.0018359814 0.0044738287 -0.0068244636 -0.012305468 0.002477033 0.0024179574 -0.011014955 -0.0039682984 -0.008618225 -0.0015752111 -0.002893594 0.0075377272 -0.0019327085
greenstrawberries 0.0018948568 -0.011826986 0.0027295295 0.007470249 0.010181918 -0.0077677625 -0.007916398 -0.010237167 0.0037777117 -0.0026088404 0.0093612475 0.0057867123 -0.0003698347 -0.007589017 -0.0017070863 0.0044396827 0.00026834756 -0.009345159 0.0023635998 0.011785966 0.0066866884 0.010217135 0.0076824883 -0.0038205609 0.009147651 -0.008726853 -0.0018949388 0.007792839 0.010684186 -0.0023967866 0.011807361 -0.009137566 -0.005861749 0.010216351 0.00034790207 0.0053405715 0.006338653 0.010053181 -0.008320719 0.0037531191
soothinbspringvibes 0.02058308 -0.0031608057 0.004830922 0.05040525 0.0032342284 0.064800866 0.026820166 -0.029732378 0.07333778 0.040656164 -0.086512566 0.01185274 0.017634375 0.04469344 0.002212348 0.06298502 -0.004704767 -0.008641292 -0.016777502 -0.05626997 0.031745 -0.015203539 0.0135058295 -0.0010836223 0.07211306 -0.0018437104 -0.04999535 0.045373116 -0.09963353 -0.041002546 0.016542863 -0.028422814 0.003979591 -0.026817657 0.08754153 0.030490182 -0.038988505 0.023722822 -0.0559248 0.02498412
squidink 0.0031089215 0.00275941 -0.011511758 -0.0063555376 -0.012252492 -0.0021621063 0.011021999 0.0013415786 0.0095215505 0.0016169995 -0.00897833 0.00059930794 -0.007955236 0.012135805 -0.008317074 0.0016125124 -0.011568606 -0.011361298 -0.01103765 -0.010839298 0.011271876 0.00096993893 -0.0062336433 0.009160097 0.0024684947 0.0017239852 -0.012050693 -0.0076565044 0.0023689475 0.0039241062 0.009699049 -0.006277798 -0.011810084 0.007889518 -0.0032732636 -0.006878005 -0.0089701265 0.009390383 -0.0034085754 -0.0057084947
carbcycling 0.033315305 -0.00720094 0.02718653 0.05787673 -0.00888611 0.06163369 0.035102107 -0.035608687 0.06838672 0.039170306 -0.103991784 0.017887438 0.00531655 0.046522323 0.0153830005 0.05468362 0.012519031 -0.014253077 -0.024215437 -0.06139007 0.04178553 -0.010630167 0.027263172 -0.021547746 0.06679393 -0.008876713 -0.048307855 0.039004173 -0.113075495 -0.029326914 0.021225158 -0.020365836 -0.021500228 -0.013249906 0.097329736 0.02961927 -0.03659929 0.033737496 -0.06656179 0.017223096
conjuringspring -0.0016158298 0.0027856901 0.003607695 -0.001226047 0.004540977 0.001980153 0.0020041661 -0.003902167 0.008522836 0.011978331 0.002240127 0.0034959847 0.010322758 0.004320017 0.0012383331 -0.0059494763 -0.011912127 -0.00077787973 0.0025526835 0.010542245 -0.005930077 0.0057424763 0.006281466 -0.009292224 -0.004673888 -0.009427436 -0.007135016 0.010127756 0.010139731 -0.010210988 0.005249518 0.009147099 0.00041728 0.0040925564 0.012044878 0.0069383467 0.0039231023 -0.0073674503 -0.011505914 -0.007434398
radish 0.02784907 0.008037839 -0.00253042 0.038462162 -0.006045659 0.049505766 0.048134696 -0.032732032 0.064041905 0.036810156 -0.0690267 0.01568559 0.003403458 0.045210075 0.02047264 0.03871193 -0.01734278 -0.0089723235 -0.012067715 -0.040148806 0.034537964 -0.01726185 0.018244948 0.00079527404 0.052028656 0.0056854575 -0.03223815 0.031512104 -0.07985602 -0.015538685 0.004473459 -0.034090493 -0.021343462 -0.031622317 0.0899246 0.022678308 -0.012286298 0.011953607 -0.06046816 0.006669771
hurryupspring -0.005586584 -0.002482826 0.001568797 0.010156487 0.0093441 -0.009167078 0.00017789751 -0.0064806836 -0.011306313 0.0109979 -0.00425041 -0.010001028 -0.006851028 -0.0035736281 -0.0054223896 0.0024567526 0.012390393 0.008476452 0.0053141667 0.00082207937 0.011799633 -0.006477307 0.004232592 -0.004566352 0.0049638553 -0.0007893201 0.004333335 -0.00627756 0.011828856 -0.008497255 0.012157082 -0.005526668 0.0007196991 -0.0022229012 -0.009540871 0.0043790014 0.011295634 0.001537038 -0.010885613 -0.004518496
bivalves 0.010073564 -0.0017447304 -0.00032567233 -0.011354588 0.009958298 -0.003955081 -0.009000736 0.0013010055 0.011173063 -0.0009872736 -0.00050040055 0.003121023 0.0071988637 -0.007993968 -0.005078617 0.0031264434 0.010953347 -0.0069852206 -0.008441602 -0.0034788717 -0.0010789577 -0.0106205335 -4.077889e-05 -0.0090664 -0.009859616 0.009571907 -0.0069868253 0.0098117525 -0.00688567 -0.0019250112 0.011065229 -0.0026028631 -0.010460971 0.0066348435 0.0027018562 0.008634807 0.006236783 -0.012353472 0.0016277032 -0.004773654
theworldismyoyster 0.050250232 0.011062245 0.023500405 0.063698694 -0.0022840581 0.06169549 0.04834362 -0.035878647 0.08137074 0.056231827 -0.09153273 0.007298356 0.007827264 0.04735846 0.013410922 0.06756095 0.0030814598 0.0009818979 -0.023385882 -0.044817623 0.031709846 -0.005869552 0.03014287 -0.015388305 0.0608857 -0.004922799 -0.058174737 0.057308454 -0.10619692 -0.028000014 0.015540864 -0.023770094 -0.025338393 -0.020662539 0.104783826 0.04170657 -0.028012842 0.020477701 -0.07670228 -0.0007220048
terroir 0.006892436 0.0010715397 0.002409907 0.009225824 -0.0054507377 0.010578635 0.003581659 -0.00066535175 0.009586767 -0.010538446 -0.012387723 -0.002603854 -0.0022343453 0.0039563375 0.008575252 0.0019503552 0.0012655603 0.012034471 0.0031740302 0.011305538 -0.0060971244 0.009001591 0.0016032681 0.0034559192 0.008471654 -0.0022609178 0.0108210975 0.0002646353 -0.01233154 0.010011283 0.010714007 0.0041743526 -0.0036534248 0.009241407 -0.0056316527 -0.0043304414 -0.01023916 0.0011752713 0.0035830447 -0.0045139696
rhubarbarians -0.009555015 -0.00629694 -0.008052942 0.009058488 -0.0016867425 0.00817526 0.008319001 0.0016186852 0.0028067334 0.011961046 -0.0047840313 0.008364865 0.008435364 -0.007685538 0.0083371615 0.011930176 -0.0060669677 0.003421043 -0.00032521505 0.009579762 -8.5751526e-05 -0.0044351937 -0.0035349 -0.000918597 -0.0034396378 -0.0008159857 -0.009627541 -0.0030962657 0.00381432 -0.0060699093 -0.0104279015 -0.010054225 0.009107807 0.0070677428 -0.0018131956 -0.007013166 -0.0047466205 -0.0036143558 0.007824377 0.009128255
radicchiovibes 0.010844261 -0.012330103 0.0076330015 -0.010617231 0.001767491 -0.011205234 -0.0030675083 -0.0021624686 0.0007710513 0.003661436 -0.011408954 0.00677953 0.00802376 -0.007369259 0.0016782209 0.007919525 -0.0047959103 -0.0042176824 0.005500878 0.007927154 0.001489481 0.0043809796 0.007273809 -0.006359556 -0.008367889 -0.0064844266 0.0013703657 0.005921486 -0.005709356 0.009710384 0.0060486654 -0.00024716835 -0.010748953 0.004760581 0.010066469 0.0122326175 0.006846809 0.011033644 -0.004494289 0.0004847292
millenialpink 0.03178001 0.013533381 0.0066561475 0.050047234 -0.001744557 0.05965545 0.024561424 -0.052715603 0.07215481 0.03734788 -0.0847762 0.011279874 0.01431536 0.0551437 0.0047468357 0.052271906 0.00036139475 -0.010414872 -0.027795618 -0.051936086 0.044957813 -0.025067363 0.02119452 0.0010428788 0.069647856 -0.003428002 -0.04131087 0.04997617 -0.105705135 -0.015583175 0.026883453 -0.024207579 -0.01247255 -0.028553864 0.094954796 0.031802796 -0.008948675 0.018261721 -0.05801468 0.010236806
vegan 0.2377266 0.28621003 0.24330848 0.39254484 0.89974034 -0.0371329 -0.062172078 -0.001012414 0.36913937 1.0187011 -0.6457724 0.1688717 0.56616056 0.96190363 -0.2827817 1.5857956 -0.11726968 -0.31744438 -0.7946855 0.21172908 0.52356344 -0.13038012 0.24592829 -0.2867902 0.43521512 0.020123264 -0.43359137 0.14875196 -1.6837772 -0.3541077 0.28065786 -0.048816357 -0.18967827 0.11515325 0.485527 -0.26967287 -0.27457088 0.9496411 0.04086838 0.2953778
glutenfree -0.15664038 -0.05577294 0.06914412 0.15799114 0.2954788 -0.035727184 0.09913075 -0.15912503 0.48204395 0.5735043 -0.42716077 0.30244452 0.42769465 0.7126423 0.06521645 0.34253445 -0.26064998 -0.4245482 -0.23946717 -0.1345271 0.28819382 -0.13617094 0.20226605 -0.056854896 0.57450515 0.012964809 -0.09471347 -0.22093351 -1.0414977 -0.32781997 0.1326086 -0.03636536 0.09857558 -0.084322125 0.5069594 -0.14614041 -0.07545282 0.6929019 0.18975411 0.5875231
sponsored 0.10090491 -0.07354601 0.08585855 0.21068054 -0.1061637 0.21974917 0.20860097 -0.121306315 0.3189315 0.15326221 -0.48330188 0.16559422 0.10949732 0.31114078 0.0572393 0.2267928 -0.03265775 -0.12916338 -0.08899587 -0.23233041 0.11430865 -0.083222724 0.10534787 -0.095151134 0.38094664 0.019351773 -0.18560094 0.12716624 -0.5266211 -0.1838142 0.038253076 -0.06669714 -0.014475955 -0.017733144 0.4631362 0.12792687 -0.13025482 0.18195914 -0.19453676 0.07705989
prepsaucesunday 0.10409709 0.053068813 0.05050611 0.11345365 0.098567106 0.103399254 0.004271432 -0.039071586 0.10363098 0.17194474 -0.23311855 0.056493495 0.115938656 0.19001211 -0.0057248943 0.2371205 0.012147297 -0.04534917 -0.108032584 -0.059743036 0.1339407 -0.015170537 0.066413425 -0.029747734 0.14374152 0.0025780997 -0.12172 0.045625012 -0.34789616 -0.074657194 0.029837098 -0.05693854 0.030181237 -0.02112546 0.20632125 0.022229131 -0.05471689 0.13049507 -0.0387249 0.058176294
pizzamagic -0.0039807577 0.0012313742 -0.0012892233 0.008472008 -0.003870043 0.0022137612 -0.003971882 -0.00056132954 -0.0037615132 -0.002663849 -0.0047170254 0.0031311372 -0.011989589 -0.007455802 0.007626475 0.0016032783 0.00775651 0.0028698742 0.0031973151 -0.008653028 0.005068456 0.0009289216 -0.0047383937 -0.0074990913 0.010113739 0.006671519 -0.0116980225 0.012031772 0.0004106639 -0.006992911 0.004778537 0.008959617 0.008327593 0.002922644 0.004444252 0.010066316 0.0025271755 0.00998103 -0.0034414995 -0.007498366
ToastTuesday 0.011709335 -0.010935986 0.01194735 -0.0076679843 -0.0050150976 -0.0097632725 -0.002695146 -0.007224855 0.0024568317 -0.0036530178 0.004009544 0.0051149363 0.0025913287 0.003543361 -0.00015858095 0.009489431 -0.0004742574 0.009169259 -0.008321188 0.0018654782 -0.0076479437 0.010590558 -0.008803693 -0.005871739 0.0035478259 0.0012805033 -0.008431099 0.0031997869 -0.001664482 -0.008516664 -0.00072045624 -0.005362882 -0.0037154453 0.005346733 0.0011215042 0.00482867 0.0040622624 -0.008184534 0.011989907 0.012013913
dairyfree 0.1299317 0.017942132 0.08460432 0.16237667 -0.004611681 0.28610507 0.09591679 -0.2612519 0.26360112 0.2391725 -0.4737113 0.108534515 0.17667241 0.29746518 0.058707103 0.22614624 0.014452497 -0.11001065 -0.12591025 -0.21790582 0.15047152 -0.0957848 0.14736876 0.04097958 0.28410769 -0.07786615 -0.22143951 0.09128305 -0.5733695 -0.17178197 0.03722512 -0.10834644 0.06186612 -0.028824551 0.46017507 0.12501924 -0.13114078 0.16420886 -0.20145133 0.09713439
grainfree 0.07633382 -0.0018509619 0.03480067 0.08934542 -0.011904125 0.15318139 0.04217289 -0.07825568 0.13708958 0.08355498 -0.27232772 0.056550767 0.089873455 0.15456957 0.022065088 0.15429394 -0.0132801 -0.035324097 -0.07585594 -0.09450275 0.08629804 -0.040641498 0.070108436 -0.017616542 0.149511 -0.057607457 -0.11611056 0.09457143 -0.2791252 -0.07790181 0.027880734 -0.07968328 -0.022958953 0.004017113 0.24773957 0.057503317 -0.08982708 0.08662746 -0.12478438 0.027027568
refinedsugarfree 0.033628013 -0.02332949 0.016321259 0.08993067 -0.054211773 0.13161676 0.08809737 -0.09431743 0.1574909 0.0619268 -0.2183397 0.07788374 0.05683122 0.11589687 0.031773407 0.118208565 -0.014083517 -0.06131353 -0.0507487 -0.09609525 0.058555428 -0.04409349 0.030712685 -0.057122402 0.16355368 -0.040545188 -0.08022885 0.06872405 -0.20978455 -0.07169011 0.022228451 -0.052302144 -0.033414733 -0.026023967 0.20483227 0.045195736 -0.0636514 0.07101762 -0.10143787 0.054068454
allthefrees 0.07530465 0.006236941 0.034088366 0.089285076 -0.049186066 0.14923018 0.08593934 -0.08189934 0.16551211 0.07774342 -0.2207048 0.06384155 0.0435072 0.13364719 0.020823274 0.12484133 0.012159508 -0.058784958 -0.027755737 -0.13228102 0.066162355 -0.033729795 0.06454479 -0.023005124 0.14972074 -0.015123417 -0.10373961 0.08935385 -0.21540056 -0.07134493 0.0432655 -0.0724337 -0.04372993 -0.0397212 0.2255381 0.07770205 -0.06775969 0.03937613 -0.1102877 0.032384314
teamwedge 0.038770914 0.0110905105 0.027078561 0.038372993 0.012810567 0.045161165 0.013072893 -0.010385695 0.053627603 0.03520239 -0.08486043 0.02771376 0.043671392 0.06448991 0.016334107 0.051774558 0.0023900992 -0.030543532 -0.02676455 -0.032448944 0.040847592 0.0013346563 0.03357898 -0.009841743 0.049921975 -0.0005070268 -0.03568034 0.02277313 -0.10676927 -0.025982665 0.014251705 -0.016315425 0.0005505424 -0.0031135338 0.064858 0.018944362 -0.035383027 0.04491307 -0.030059723 0.007426189
foodandwine 0.029000804 1.1353061 0.46734312 0.8787951 0.605523 0.75941163 0.7993708 -0.45693886 1.0511523 1.7883536 0.22538996 -0.7410642 -0.57182646 0.44108084 -0.6400048 1.0820366 -0.25865468 0.019019399 -0.74177414 -0.30344146 0.062003408 -0.13730325 0.18270698 0.18238212 -0.048132896 -0.1483917 -1.0319641 1.0016899 -1.5943519 -0.33127025 0.33658183 -0.6860644 -0.51129246 -0.4226884 0.5906485 0.64073485 -0.05451224 0.46578908 -0.86954004 -0.5596484
FWhealthy 0.091042064 0.03900814 0.038521077 0.13503195 0.003492589 0.18943654 0.06250988 -0.11967991 0.23334695 0.17247407 -0.23292585 0.040817015 0.05415867 0.15140614 0.02317529 0.2107043 0.026292067 -0.02637487 -0.10625366 -0.12804939 0.15721098 -0.03093875 0.06019934 -0.019493131 0.18599458 -0.024880625 -0.1823889 0.10725624 -0.3332582 -0.08207882 0.06727649 -0.12504792 -0.030705731 -0.122078694 0.24602929 0.11257669 -0.07084027 0.1061917 -0.11022984 0.051632054
thekitchen 0.14320014 0.07249735 0.059471812 0.19182159 0.06492015 0.20718578 0.054003652 -0.15750292 0.23907274 0.18798517 -0.30234072 0.024222568 0.06994041 0.19508635 0.04366717 0.28943297 0.022138758 -0.0031324427 -0.10401405 -0.12400773 0.15618037 -0.040949352 0.10273235 -0.006720551 0.1661589 -0.038749915 -0.20482625 0.13986471 -0.39761242 -0.08967464 0.059929878 -0.12740022 -0.01970419 -0.1303261 0.29432532 0.11909161 -0.055644106 0.11814389 -0.14113115 0.033419423
feedfeed -0.24682996 1.022984 0.53470224 -0.5683707 0.5893881 0.8626829 -0.041060865 -1.5835485 1.2923836 1.5238339 -0.1887219 -0.09586605 0.45857602 0.59855795 0.25792637 0.80316526 0.6141457 -0.2898055 -0.1963069 -0.48737526 0.7623336 0.082534365 1.4219097 0.5331527 0.6924858 -0.37368372 -0.8940106 0.12612645 -1.2331268 0.29659504 0.075379625 -0.14891154 0.5428299 -1.0580617 -0.2104576 -0.20737924 -0.21450022 0.9421201 -0.2170566 1.124054
iamwellandgood 0.13861468 0.09657803 0.03284104 0.1546929 0.052696604 0.2317641 0.09701322 -0.2243296 0.2820212 0.21969318 -0.35294017 0.003036482 0.074890375 0.14780922 0.070475124 0.19742052 0.015393577 -0.017300267 -0.12042327 -0.15732574 0.12157481 -0.063403666 0.08978132 0.0063938764 0.2132122 -0.06972057 -0.1507904 0.15350233 -0.33803234 -0.117463216 0.051042087 -0.1356538 0.012949918 -0.15244785 0.29119575 0.10875524 -0.052005045 0.04770362 -0.21856868 0.050165977
onthetable 0.6123508 0.36318207 0.40675253 1.3517519 0.74928445 0.23286253 -0.09942558 -0.6568388 0.28674042 0.5263018 -0.95651656 -0.70710474 0.3372 0.4832589 0.7736617 1.190529 -0.17795232 0.59569144 -0.6913935 -0.20679826 0.54914224 -0.118113935 -0.14110015 0.14021252 0.042241 -0.09284983 -0.74067014 0.5395434 -1.320815 -0.08943185 -0.20676255 -0.9010738 0.36494225 -0.032996308 1.1181493 0.3917044 0.91884166 0.66885763 -0.44219828 -0.34966472
f52extra 0.1449626 0.10237226 0.037172966 0.13729608 0.07695424 0.19648351 0.06891879 -0.22538054 0.25647232 0.22514756 -0.33274624 0.0050112554 0.09441767 0.14105928 0.06912731 0.17508222 -0.018988784 -0.01276953 -0.100258194 -0.1277477 0.11795727 -0.047700558 0.07796549 0.054626994 0.1478554 -0.06755307 -0.15373603 0.08916776 -0.32195362 -0.104562245 0.052211106 -0.11700594 0.04010404 -0.14694992 0.29410017 0.09408415 -0.01872957 0.06333903 -0.18926929 0.05217807
f52grams 0.5845834 0.90593356 0.6251567 0.5535174 0.13843772 1.691471 -0.04953793 -0.69948894 0.6609241 0.9519584 -1.3536241 -0.76099426 0.75938535 -0.28821313 -0.016355317 0.35144803 0.9768144 0.31678525 -0.72286046 0.09680028 1.2177712 0.27853072 -0.24262881 0.24135326 0.3740985 -0.6661713 -0.35916778 0.6267368 -1.3145077 -0.14795649 0.3666179 -0.5195405 0.3714567 -1.0387677 0.57408327 -0.31244507 -0.2327916 -0.15625447 -0.16890746 -0.7258275
bareaders 0.34268546 0.37612087 0.06194449 0.6037088 0.44385895 0.6784863 0.5132158 -0.9012499 1.1576703 0.8652768 -0.62299675 -0.14059384 0.2730425 0.74195653 0.48444858 0.8418125 -0.4127658 0.361254 -0.36669385 -0.015986554 0.5208297 -0.11224414 0.3526217 1.1818702 -0.14497396 -0.38607895 -0.6208086 0.085739635 -0.7550875 -0.2163557 0.22139081 -0.688712 -0.0008035796 -0.69426715 1.4321171 0.2310074 0.3218314 0.65874285 -0.3608161 0.26284742
plantstrong 0.10351988 0.058603883 0.05243014 0.11171905 0.037576396 0.17213899 0.054460976 -0.151427 0.14852698 0.14512478 -0.2390538 0.0036677804 0.07084097 0.13206688 0.041007906 0.11419975 0.015974823 -0.0065819337 -0.088019595 -0.10979236 0.06887662 -0.03889082 0.031006131 0.03830406 0.10835476 -0.04724153 -0.11114365 0.08612934 -0.2641996 -0.06752333 0.032275293 -0.079693325 0.025655808 -0.07548827 0.2255195 0.08672775 -0.030224308 0.056298204 -0.16252321 0.0046492014
huffposttaste 1.0197293 1.1822246 -0.216508 0.7214569 0.5940071 1.246755 0.21613671 -0.9809454 1.0236669 1.1618257 -1.377364 -0.34291393 0.35245493 -0.059230007 0.37057537 0.14670251 0.5741279 0.58424145 -0.49035233 -0.36342028 -0.3134554 0.021025414 -0.087248236 0.3087709 0.32292873 -0.2933631 -0.22513016 0.85766655 -1.3512386 0.09498462 0.4775318 -0.64140016 -0.20971163 -0.85308176 0.5058359 0.49339616 -0.38966513 -0.7543387 -1.0962571 0.033905417
buzzfeast 0.77358115 0.91373074 0.08597788 0.48760524 0.74924135 1.084194 0.15626073 -1.2019577 1.0739719 1.2259257 -1.1427135 -0.38965398 0.4381173 0.4671317 0.19977826 0.62624687 0.29001015 0.33450586 -0.3804272 -0.022275154 0.14091352 -0.09246288 0.31949535 0.79101723 0.15819989 -0.5386531 -0.5141877 0.5282781 -1.1501687 -0.19023739 0.44155076 -0.6162162 0.023485327 -0.8811959 0.81930995 0.31525078 -0.3742297 -0.06784887 -0.9973622 0.18271813
eeeeeats 0.5565621 0.97931707 -0.3725938 1.2247651 0.46502525 1.2631979 0.82096475 -0.89855385 1.6260996 1.0399728 -1.1310309 0.3117919 0.2269151 0.982812 0.76716924 0.31275535 -0.3260011 0.78459704 -0.15942605 0.3054457 0.11650087 0.10598896 0.29562914 1.5266988 -0.0614211 -0.50714755 -1.0467117 0.63518214 -0.80903745 -0.18240142 0.76803905 -1.0075518 0.21264082 -1.2995634 1.7187691 0.56587356 -0.07376036 0.081348635 -0.73271704 0.4261097
beautifulcuisines 0.3007723 0.3384626 0.5716182 0.3808774 1.080178 1.0107998 0.30048662 -0.39351258 0.42509383 0.9064414 -1.4387817 -0.27251267 0.6620378 1.2368357 -0.15761873 1.1468457 0.85769355 0.6411084 0.6152041 -0.08431065 -0.10962621 0.22275382 1.0563831 1.3014711 -0.77318645 -0.26316047 -0.1747682 0.9163494 -2.278278 0.9720826 0.37827575 -0.9574463 -0.6535035 0.012606985 1.057035 0.15116295 -0.49485987 0.8405023 -0.50673753 -0.036963742
thekitchn 0.9980751 1.2526774 0.34881175 1.5543208 1.0299445 0.97550416 0.6496885 -1.0200592 0.97567385 1.1487417 -1.2379606 -0.6834802 0.18140526 0.24897364 0.43354863 0.8760611 0.710537 0.5423353 0.11207133 -0.6380283 0.022726402 -0.11809481 0.2758227 0.56133705 0.15784411 0.16141489 -0.65248036 1.2353909 -1.5924757 0.12857126 0.4721238 -0.7079036 -0.07036023 -0.8831413 0.51626307 0.921315 0.25407004 -0.5123516 -1.0824839 0.1251826
forkyeah 1.1642236 0.8079666 0.28332192 1.5688778 1.1008308 0.34406275 0.6786042 -0.9658965 1.1123346 1.0324934 -1.3338509 -0.016838433 -0.41638073 1.234199 0.6806082 1.7584814 -0.56035316 0.3447332 0.25550896 -0.8449306 0.8676035 0.11302403 0.3557481 0.8186833 0.36295494 0.69862825 -0.94847465 0.63303894 -1.0967717 0.09994732 0.7979898 -0.9317399 0.0010149329 -1.4400061 1.4496185 0.6645955 1.4608172 0.64585525 -0.3190505 0.06518194
yahoofood 0.57333803 0.73574215 0.53209853 0.9338713 0.7220696 0.6721878 0.010933162 -0.59823126 0.6006047 1.0980654 -0.918243 -0.65735716 0.4145999 0.44506553 0.33625892 1.2397287 0.27383476 0.47721887 -0.44801348 -0.40106854 0.90025 0.13335502 0.44481176 0.5141988 -0.03881414 -0.111349 -0.9177938 0.6523478 -1.2406181 -0.13200833 0.030294934 -0.6706393 0.42265123 -0.5333022 1.0502124 0.38585 0.6039307 0.6270088 -0.45419288 -0.14134173
buzzfeedfood 0.5288028 0.17601039 0.49449095 0.8157833 0.8181021 0.49885887 -0.064856224 -1.3453348 0.20171487 1.0143967 -1.5469594 -0.39657155 0.7461786 1.0922875 0.71832883 0.38693288 -0.43248472 0.0917142 -0.33166152 -0.26264873 0.61480117 -0.2783651 0.3005694 1.4622068 -0.18464953 -0.141372 -0.46935534 -0.18363136 -1.6398003 -0.46716052 -0.11164016 -0.47327814 1.325849 0.09583074 2.1042693 0.17753005 0.7297331 0.84442115 -0.33430943 -0.05593706
vscofood 0.92169297 0.59092236 0.5538021 1.2378069 0.83644444 0.54513246 -0.19809625 -0.5968443 -0.0690771 1.1730165 -1.2577562 -0.39022717 0.4419012 0.36398795 -0.006388107 1.3216408 0.14325704 -0.17113921 -0.62685925 -0.51524544 0.6641156 -0.28985602 0.12582496 0.09951175 0.02550317 -0.18712364 -0.7864559 0.2275236 -1.8185377 -0.53078204 -0.06083589 -0.6218213 0.7047855 0.1301576 1.239501 0.3599752 0.41196764 0.36884525 -0.34718305 -0.45698643
foodstyling 0.7852535 0.10720548 0.84517413 1.1216459 0.31915417 0.6976346 -0.4137547 -0.14179328 -0.5609996 1.1236937 -1.2204695 -0.16269308 0.63706356 0.2873107 -0.41608554 1.6014694 0.66687065 -0.61168104 -0.39525515 -0.8479508 0.6995212 -0.3495307 0.28945458 -0.5726894 0.07669717 -0.091157585 -0.64375097 -0.019502293 -1.673682 -0.5386841 -0.008795245 -0.38192722 0.34615415 0.67341924 0.7447881 0.43626457 0.11225328 0.5871538 -0.22238314 -0.72769827
foodphotography 1.2122517 0.42173836 0.48590457 0.667385 0.38518125 0.9199685 -0.70894337 0.123719014 -0.46225297 0.68343264 -1.4073839 0.053254943 0.56678784 0.13699399 -0.44176087 1.303632 0.71803814 -0.6975216 -0.60937464 -0.7827208 1.0056134 -0.23801428 0.111270554 -0.48313397 0.31047878 0.30516323 -0.787582 0.063042305 -1.9111359 -0.13233373 0.14696929 -0.28158233 0.4611598 0.39881107 0.80894697 0.2575512 -0.17722574 0.23261525 0.462786 -0.5794413
lifeandthyme 1.1772873 1.0161384 0.8156816 1.2939029 0.59444535 1.0202564 -0.06944245 -0.35240024 0.3030365 1.1657547 -1.5583345 -0.9756474 0.28561065 -0.06506796 -0.051077694 1.1244699 1.1853755 0.65683585 -0.447902 -0.8079319 0.69245535 -0.18884501 -0.001230168 -0.22547713 0.40686142 -0.1027925 -0.7338853 1.2323753 -1.7935854 0.10521008 -0.012689647 -0.61753494 0.28073177 -0.27008048 0.51892185 0.6042289 -0.039243266 -0.2449714 -0.91900194 -0.53345525
eater 1.2489803 0.55736226 1.5506248 1.1688915 0.22943845 0.15890011 0.22595368 -0.23402037 -0.058852863 1.0417205 -1.588859 -0.4753074 -0.5010746 -0.058031414 -0.46602774 1.0584353 1.2438523 -0.23462254 0.17334183 -2.0505223 1.1941645 -0.31883875 0.14267303 -1.2128378 1.6492568 0.83675885 -0.7978507 1.0817162 -1.8000197 -0.35673493 0.2222249 -0.4221753 0.2252673 -0.8404668 0.48166767 0.8221062 0.24617636 -0.28080723 -0.6746818 -0.4887672
heresmyfood 1.0804524 0.8363424 0.646798 0.5086458 0.5404072 0.8869778 -0.018350663 -0.45428854 0.6889296 1.430279 -1.1702659 -0.58520824 -0.13948403 -0.38659024 -0.7162576 1.2161386 0.72529054 -0.2795354 -0.29843026 -1.0360533 1.2298763 -0.29163164 0.38418674 -0.27061972 0.62160194 0.039924465 -0.54773545 0.93308866 -1.3241134 -0.6879753 0.096614614 -0.23228994 0.10275946 -0.94398504 0.36590505 0.63305503 -0.037152465 -0.26467004 -0.48004162 -0.277204
food52 0.7889444 0.5851 0.22176322 -0.4445831 0.008731968 1.6863631 0.19396281 -0.00058085663 0.21452926 1.4812826 -1.1895747 -0.3271676 0.3591667 -0.3850017 -1.0104741 0.61416876 0.9316988 -1.0122745 0.8038572 -1.6899214 0.32589796 -0.27900594 0.93975157 0.27363533 0.32402796 0.19283584 -0.4741334 1.1770109 -1.113314 -0.43692413 0.33590156 -0.31312147 -0.40903616 0.15562446 0.20089407 0.8872566 -1.0335373 -0.962816 -0.6981938 -0.889864
gloobyfood 0.830813 0.6519539 0.93547505 0.4492639 0.24478067 0.9346276 0.52718335 0.08036745 0.8148316 0.9670984 -1.0930651 -0.54277015 -0.25071052 0.07609695 -0.4838944 1.4663968 0.65389174 0.10889434 0.02610538 -1.132826 1.3676739 -0.05942129 0.41225567 -0.17491408 0.7215521 0.42926946 -0.5082208 1.4237761 -0.88616294 -0.04392977 0.27527726 -0.27763176 -0.35051784 -0.6982217 0.33339065 0.527521 0.13093407 -0.053301014 -0.52417433 -0.5337763
foodgawker 0.28897578 0.4116072 0.91960317 0.17545533 -0.3387919 1.2679331 1.079308 -0.25369975 1.6464344 1.2065358 -0.3647573 -0.6046406 -0.79412407 0.03899433 -0.62344396 1.365486 0.6066966 0.14523275 0.1617241 -1.3080442 1.1213748 -0.21859872 0.55427563 -0.024974741 0.6463741 0.18692985 -0.9468615 1.6752602 -0.73872614 0.071919434 0.49937418 -0.6117163 -1.2063392 -1.0631826 0.6005439 0.98056155 -0.03195852 -0.018786134 -0.7383483 -0.39101934
eattheworld 0.88253874 0.4068385 0.80214846 0.007144369 0.6216759 1.0042826 0.12846017 0.04747629 0.80618125 0.7994127 -0.86606085 -0.5515201 -0.22623955 0.5488228 -0.29817724 1.6351496 0.27741644 0.5662663 -0.40065923 -0.5185149 1.5164361 0.0718792 0.018580511 0.2735423 0.7300802 -0.3644493 -0.48521528 1.3397233 -0.9018821 0.088163085 0.011259134 -0.7777817 -0.30603558 -0.8471904 0.33695218 0.13858052 -0.07105077 0.30443957 -0.23289509 -0.6677228
eatfamous 0.73615265 0.7597251 0.44166335 0.9707898 0.36304268 0.612497 1.4498371 -0.20405371 1.8362808 0.74133444 -1.2720279 0.13802288 -1.1348166 0.67230964 0.18659747 1.3382488 -0.8559417 0.23412895 0.15833387 -1.3137254 1.1128861 -0.0481642 0.1375607 -0.1868591 1.5034592 0.8001738 -0.6884378 1.6853001 -0.626541 -0.27978894 0.451596 -0.5133691 -0.384441 -1.7168992 1.006212 0.8358623 0.93461233 0.2555288 -0.8503943 -0.14585623
tastingtable 0.8239674 1.126759 0.43230236 0.91647667 0.4797409 0.7836753 0.458214 -0.60084957 1.1995128 1.3558562 -0.588363 -0.36187357 -0.61826265 -0.22218534 -0.23199697 0.79541105 0.5540754 0.29622695 -0.6015024 -1.0276631 0.8822727 0.047215853 -0.085891694 -0.27152187 0.82899165 0.28975746 -0.82314026 0.8327185 -0.8919172 -0.26952484 0.4450152 -0.47116947 -0.1063078 -1.6070471 0.5380721 0.8049367 0.15976948 -0.11821573 -0.57747436 0.075185
dailyfoodfeed 0.6161487 0.7377791 0.9564389 1.2802554 0.47159547 0.2528216 1.2110584 -0.34360573 1.4602722 0.67940795 -1.4026293 -0.16387185 -0.6558693 0.5596878 0.1762238 1.3996556 -0.2850369 0.21807902 -0.13164982 -1.5247422 1.333812 0.09690305 0.12517372 -0.73267627 1.6026278 1.1563525 -0.5579852 1.4015626 -1.2076119 0.037962705 0.43076816 -0.24470414 -0.20543353 -1.4236434 0.72870076 0.60368377 1.1362716 0.664217 -0.6869315 0.017607654
spoonfeed 0.119270205 0.16301446 1.2430845 1.765354 -0.8038327 0.5669236 1.0203894 0.20250534 1.162157 0.8637331 -0.34413698 0.19899099 -1.1034584 0.4370449 -0.35055566 0.66615015 1.0802257 0.16320188 -0.29253477 -1.8947173 0.96365064 -0.13860284 -0.39757556 -1.238818 1.6413012 1.2784923 -1.3826169 1.4384824 -1.9181552 -0.08866996 0.80541015 -0.553348 -0.609767 -1.013462 0.6484648 1.4767224 -0.021179436 0.4485161 -0.28250733 -0.121001765
foodbeast 0.27859327 0.3992154 0.78092486 0.90187263 0.02472782 0.33103484 0.8023712 -0.31134608 0.9014275 0.6036011 -0.59696555 -0.01935036 -0.61149585 0.35112542 -0.07235661 0.733903 0.5588123 0.14449117 -0.21361658 -1.2081912 0.741568 0.05790113 0.013070002 -0.77740324 1.1558851 0.79250455 -0.64696616 0.96512926 -1.2957997 0.04239066 0.41492882 -0.31764224 -0.33350155 -1.0524485 0.49606344 0.5519738 0.25642177 0.40878323 -0.48764557 0.033889145
hautecuisines 0.9175894 0.57486165 0.82114726 0.96493024 0.75231725 0.3892931 0.068204276 -0.49115577 0.17351218 0.9526939 -0.53494567 -0.388806 -0.34059843 0.31522584 -0.44193304 1.4300759 0.726721 0.14120246 -0.48923522 -0.68275774 0.68976015 -0.025517212 -0.12500237 -0.46369138 0.6501293 0.42815065 -0.6249283 0.76590234 -1.6533742 -0.06907439 0.34374604 -0.38362902 -0.22249536 -0.7965241 0.4242384 0.34392455 0.0711579 0.38692698 -0.6040599 -0.55038595
foodblogfeed 0.38089982 0.4584093 0.73149997 0.58901507 0.29595596 0.3623765 0.2979758 -0.660171 0.5970744 0.97154135 -0.27943584 -0.3316785 -0.11169257 0.25518548 -0.27367073 0.5615665 1.1935607 0.00972352 0.081028976 -0.8351538 0.17741525 0.08466734 0.39947978 -0.0073656635 0.38064206 0.67501915 -0.39709365 0.5114638 -1.5491585 0.30455303 0.50802916 -0.093834914 -0.41096073 -0.81487185 0.20082794 0.37008256 -0.070188925 0.2535725 -0.23934625 0.15487131
onmytable 0.15930821 0.2073834 0.62685627 0.722927 -0.02586924 0.21878019 0.5109784 -0.18337199 0.60355514 0.37379578 -0.47661212 -0.009534295 -0.31564426 0.25172475 -0.10375302 0.60821 0.5299337 0.10985062 -0.10581507 -0.87036645 0.54875857 0.048940253 0.074441195 -0.5579195 0.7317537 0.6595463 -0.4206179 0.7169235 -1.0749164 0.11923302 0.28263798 -0.19642964 -0.24991712 -0.666824 0.37461615 0.3543963 0.18565202 0.40419158 -0.24362141 0.013363013
theartofescapismcooking 0.37582514 0.46941864 0.110509016 0.120398276 0.25509474 0.58997065 0.017943151 -0.63357085 0.55700094 0.60798204 -0.7046749 -0.18787538 0.24966432 0.039994318 0.15755816 0.12833644 0.20067596 0.07134877 -0.3381994 -0.22050245 0.2631237 -0.045841955 0.11829823 0.13136873 0.3822752 -0.25577667 -0.24594921 0.24890186 -0.6146965 -0.21574864 0.10631179 -0.23073964 0.21176478 -0.5401096 0.32829034 0.120490685 -0.13880435 -0.080284365 -0.48057905 0.10546941
ladyandpupscookbook 0.4451123 0.5826124 0.081445105 0.13342713 0.30824375 0.67140967 0.01757469 -0.69257903 0.67594075 0.6654692 -0.80716074 -0.22045739 0.3064976 0.003028304 0.17314982 0.1327147 0.2796306 0.17251535 -0.4215127 -0.1660471 0.27694073 0.0066424594 0.13668595 0.16449614 0.3890983 -0.33771947 -0.26393783 0.31962797 -0.6402179 -0.23027928 0.11727367 -0.3099788 0.22631553 -0.6511788 0.3798106 0.14934483 -0.22036184 -0.12645215 -0.5328 0.14564122
holidaygiftguide 0.25807852 0.2800191 0.049096927 0.15508024 0.14560735 0.39640936 0.07445759 -0.37009645 0.41386196 0.3648724 -0.48515677 -0.09344465 0.16738674 0.084192656 0.12637463 0.14403199 0.10713105 0.0928786 -0.1892469 -0.12938339 0.13307604 -0.011289206 0.09903782 0.09287995 0.21742027 -0.16662171 -0.15368593 0.22710888 -0.43006212 -0.11900087 0.0843964 -0.19380227 0.061824474 -0.31432033 0.30733827 0.10297876 -0.12272571 -0.040360298 -0.3477486 0.07076447
homedecor 0.115445 -0.06722196 0.0072436687 0.08327401 -0.1200467 0.21464226 0.11894159 -0.08390783 0.15695556 0.075144775 -0.33835208 0.0696715 0.07526552 0.13049427 0.026595317 0.12750329 0.0033967032 -0.07932348 -0.016232137 -0.20842944 0.05045101 -0.0651133 0.10433094 -0.060421843 0.21137948 -0.037503097 -0.0978801 0.14529528 -0.32289562 -0.11291095 0.03879658 -0.097973496 -0.10900573 0.03797867 0.30619022 0.124386884 -0.16303705 0.028506776 -0.2357309 0.002062839
decor 0.11570301 -0.06353276 0.015185606 0.07803276 -0.15140085 0.23946935 0.16929094 -0.13330826 0.2266374 0.08785124 -0.37496263 0.09314911 0.093030885 0.14497663 0.03966224 0.13949423 -0.006243455 -0.06914945 -0.0141148735 -0.22826342 0.068996824 -0.06964955 0.11062233 -0.061744276 0.24640524 -0.051628772 -0.0984391 0.1915883 -0.31085163 -0.12141006 0.06571495 -0.11957833 -0.1446594 -0.005237243 0.3384651 0.12757711 -0.15879805 0.017491976 -0.28873605 0.015161276
homedesign 0.10534559 -0.097784005 0.005840845 0.11177296 -0.19432546 0.26035905 0.20747016 -0.124835245 0.24538583 0.067352705 -0.42033607 0.09887446 0.080454074 0.16781768 0.054053992 0.1251557 -0.036818642 -0.074809186 -0.035780743 -0.2554338 0.07719207 -0.0830161 0.115549974 -0.11184427 0.29451856 -0.03361577 -0.10532194 0.18505904 -0.35719654 -0.14958803 0.06547321 -0.13113551 -0.15547591 0.016187267 0.39452603 0.14495572 -0.19474433 0.016003609 -0.3345341 0.015548245
interior 0.2276566 -0.8048895 -0.46483943 -0.05339768 -1.1067512 0.89659923 0.6876161 -0.40111333 0.53233653 -0.13133194 -1.3840104 0.43826887 0.69609606 0.32432148 0.091798425 0.30474782 -0.21578953 -0.35620874 0.32935143 -1.210055 0.023722136 -0.18119799 0.6457887 -0.49346966 0.72795355 -0.45196906 -0.27521655 0.66819656 -1.0679082 -0.48197246 0.15959737 -0.72877353 -1.1948407 0.47349283 1.2600665 0.4236388 -1.0358855 -0.12808426 -1.4915645 -0.24273156
interiors 0.13934171 -0.0996416 -0.004029491 0.07982826 -0.17331308 0.27413914 0.19888957 -0.1323882 0.23678327 0.063589394 -0.4567334 0.10709788 0.13080923 0.1834271 0.07047961 0.15479615 -0.032193683 -0.093584776 -0.03095104 -0.24733555 0.06766554 -0.09038996 0.14868401 -0.06734497 0.28820527 -0.087257035 -0.13242525 0.19530807 -0.38748583 -0.13779774 0.055297513 -0.1454349 -0.16883036 0.04614087 0.41583538 0.14255665 -0.21546268 0.023055749 -0.32851568 -0.004723749
decoration 0.11582948 -0.08064604 -0.0082225185 0.07415111 -0.1829569 0.27760875 0.20710726 -0.12369672 0.24416943 0.07195239 -0.4284739 0.114806436 0.12604274 0.17576478 0.07200593 0.13939366 -0.015088764 -0.09574978 -0.02296904 -0.2630349 0.0458035 -0.08145065 0.14638883 -0.0788838 0.28876904 -0.057990566 -0.104542814 0.1968608 -0.3946367 -0.13947217 0.06502097 -0.11806596 -0.15607096 0.04747927 0.4353664 0.15901 -0.22412309 0.029984426 -0.32011858 0.034285694
instahome 0.09854694 -0.088086 0.00986405 0.10659402 -0.16742478 0.27492487 0.1940011 -0.11401779 0.2754481 0.062119804 -0.40760854 0.13521121 0.0961229 0.1777436 0.05874219 0.1421532 -0.045282155 -0.096959546 -0.030163007 -0.2594028 0.081753075 -0.07954508 0.11843812 -0.09912357 0.31055978 -0.043364137 -0.13870127 0.19774279 -0.35794112 -0.15208256 0.07187435 -0.13206182 -0.14899364 0.011104105 0.41925442 0.15130591 -0.17125554 0.034519035 -0.30451825 0.014222414
homestyle 0.118514195 -0.04649107 0.054429267 0.17305617 -0.12097871 0.25454062 0.1795642 -0.14173229 0.2800938 0.13321239 -0.40653557 0.11005349 0.09292115 0.22812831 0.06096933 0.19795932 0.005874728 -0.0627716 -0.07942624 -0.23861602 0.091623105 -0.08875809 0.08919395 -0.080764346 0.28221244 -0.036045767 -0.19009426 0.18527305 -0.4198543 -0.1432516 0.052905355 -0.12282812 -0.09212062 -0.035229687 0.420699 0.15122274 -0.1537607 0.0954549 -0.25569412 0.04616226
instadecor 0.121208064 -0.048553444 0.06575274 0.19375192 -0.11942736 0.26426187 0.18024895 -0.13493694 0.3054297 0.12432692 -0.408633 0.12000608 0.06284939 0.24409701 0.058043297 0.20908022 -0.023897264 -0.087708265 -0.07112672 -0.25271097 0.11809437 -0.09605237 0.0746799 -0.090889834 0.2975936 -0.039056923 -0.197888 0.19532163 -0.41383177 -0.12221125 0.07619518 -0.13639703 -0.090066835 -0.02080987 0.41780782 0.1697899 -0.1182667 0.09029234 -0.2562993 0.04751002
interiordecor 0.12835297 -0.011334769 0.048415568 0.2026489 -0.106596485 0.2554853 0.16982938 -0.13451721 0.2687989 0.13157386 -0.4083624 0.102329895 0.05476929 0.22252503 0.030589962 0.20083357 0.009178974 -0.07304408 -0.07832458 -0.23023614 0.0980207 -0.08968917 0.08614169 -0.069545984 0.29890904 -0.036152743 -0.17422877 0.18866645 -0.4338749 -0.12193514 0.05256034 -0.11788732 -0.07975671 -0.039516836 0.4098269 0.14947858 -0.11770854 0.08824911 -0.25704387 0.0148852775
furniture 0.097389564 -0.030609531 0.060267597 0.22185281 -0.093607455 0.24656504 0.19814834 -0.13907756 0.29620498 0.12594491 -0.37685987 0.0968963 0.04694768 0.22315478 0.043962587 0.21651682 -0.014840418 -0.052207332 -0.092561685 -0.23136646 0.12799245 -0.075129755 0.045903992 -0.10146394 0.3131832 -0.020025142 -0.18961227 0.18992123 -0.41952258 -0.1294484 0.06270618 -0.14174421 -0.086768426 -0.046877373 0.40394986 0.16602369 -0.117613934 0.099077016 -0.23769483 0.017129077
interiorstyling 0.12701207 -0.0152251525 0.05648046 0.22270243 -0.10169036 0.26934353 0.17812781 -0.150925 0.28328425 0.131823 -0.4044723 0.08589592 0.066909716 0.25296733 0.048582677 0.21755694 -0.02018861 -0.062053733 -0.09113548 -0.2161878 0.0930349 -0.09824078 0.05427943 -0.081750244 0.2796529 -0.035408285 -0.17233579 0.18247709 -0.45586887 -0.13996729 0.05202434 -0.14075078 -0.08841499 -0.031203005 0.41106775 0.1633039 -0.11686741 0.09227353 -0.26984876 0.012174429
interior4all 0.21500304 -0.054646548 0.011030496 0.16139002 -0.22819997 0.36456144 0.29413104 -0.17737895 0.42008796 0.02557089 -0.69211835 0.08959453 0.11755016 0.23879625 0.1464151 0.15944645 -0.070535176 0.03597822 -0.026534747 -0.2306416 -0.0328071 -0.14790642 0.098622285 -0.12649302 0.35072678 -0.10322273 -0.03900711 0.33034065 -0.43189654 -0.19437747 0.010971916 -0.1726922 -0.24172541 0.0129713025 0.535332 0.20631818 -0.21622634 -0.07962602 -0.5165595 0.012558839
homedecoration 0.02297165 -0.10708346 0.0234041 0.26224405 -0.12081041 0.2678619 0.16093263 -0.18528037 0.31460747 0.007147126 -0.34168372 0.1634719 0.057912905 0.30615166 0.06698635 0.25595096 -0.10469812 -0.09080472 -0.08315039 -0.1626325 0.109059036 -0.12422158 -0.0077824923 -0.10421123 0.32374588 -0.15453826 -0.18426302 0.10766476 -0.40315372 -0.10841145 0.061775185 -0.17608264 -0.084211685 -0.02515424 0.36953104 0.11417254 -0.08848517 0.16139424 -0.2663618 -0.02954215
homestyling 0.025226433 -0.1395872 0.046792 0.2710954 -0.15847634 0.2841336 0.16603276 -0.15726317 0.30909926 -0.0017911766 -0.34421393 0.18014261 0.024368206 0.3060019 0.050319254 0.24763483 -0.09214221 -0.07554433 -0.0781446 -0.17254625 0.07628234 -0.1363783 -0.031299163 -0.12573637 0.32506624 -0.16012356 -0.20691048 0.12441863 -0.42624077 -0.092714146 0.07486338 -0.1545165 -0.08824692 -0.0113214925 0.37975076 0.1464854 -0.09463418 0.15269059 -0.26386172 -0.05126349
instadesign 0.005639013 -0.14709674 0.032892328 0.2582881 -0.17441177 0.26703852 0.15891424 -0.17979044 0.33048767 0.00055803556 -0.3496181 0.17848167 0.043674372 0.3097176 0.056953263 0.24597687 -0.09322741 -0.0927021 -0.07171156 -0.16516684 0.097382255 -0.12990956 -0.012868749 -0.1331615 0.3469765 -0.19057961 -0.19835062 0.0988487 -0.40165466 -0.10092975 0.06685081 -0.18004219 -0.1092988 -0.01614327 0.36671263 0.11853813 -0.11517474 0.1851575 -0.28151888 -0.022653222
interior123 -0.5374753 -0.8213709 -0.03637517 1.2474545 -0.6640356 1.0391742 0.2809143 -0.9955008 1.0928717 -0.33270586 -0.5567647 0.7287548 0.22371349 1.3718053 -0.020753834 1.1789467 -0.553056 -0.263399 -0.26424024 -0.17900132 0.0711177 -0.5414507 -0.570218 -0.46473196 1.0240167 -1.3862966 -0.743318 -0.017604563 -1.3289967 -0.17229412 0.22553842 -0.8072307 -0.38454953 0.010569189 0.64079833 0.4718065 -0.16824412 0.94545835 -0.86652285 -0.52922606
livingroom 0.0074146455 -0.15449542 0.045452386 0.2458698 -0.1561653 0.29917613 0.14615984 -0.1925211 0.3191717 0.019895343 -0.3121293 0.187001 0.059003152 0.3288888 0.049094144 0.24885653 -0.07419685 -0.11264449 -0.07539653 -0.16099933 0.072637066 -0.11750242 0.0031242578 -0.09707671 0.32893384 -0.18272878 -0.21368633 0.091239735 -0.4394415 -0.10874763 0.07961965 -0.17717929 -0.09366655 0.010866575 0.35814914 0.12234903 -0.1303019 0.1883278 -0.24705082 -0.036999386
homeinterior 0.015214504 -0.09162641 0.048599523 0.24237473 -0.12029633 0.2683474 0.1504391 -0.18522832 0.32124156 0.040917706 -0.30764523 0.1635877 0.014852687 0.294982 0.04909125 0.22975394 -0.06595191 -0.079186805 -0.07830731 -0.16979927 0.09462819 -0.12319676 -0.015468577 -0.092609644 0.31550947 -0.1412064 -0.20816773 0.12344621 -0.40935943 -0.09631307 0.09198316 -0.15959571 -0.0943074 -0.053003382 0.34832183 0.1444927 -0.104351625 0.17335054 -0.25850224 -0.022611877
bedroom 0.03895133 -0.0843624 0.06742901 0.26557592 -0.1158172 0.29663306 0.15932384 -0.18593124 0.33183715 0.07020524 -0.32226413 0.13740286 0.043458484 0.28517792 0.056308694 0.22965893 -0.04582455 -0.052147716 -0.10006759 -0.17648442 0.079432376 -0.10627207 -0.01741788 -0.0822506 0.32177508 -0.16884385 -0.18647721 0.1196488 -0.4049029 -0.10150687 0.068652086 -0.17974226 -0.08201315 -0.034282926 0.354542 0.122751884 -0.10081108 0.12891662 -0.27477947 -0.03712582
arquitetura 0.10253524 -0.055456407 0.04752809 0.21663842 -0.09819741 0.2650912 0.18102542 -0.15803029 0.28099933 0.12568668 -0.43424708 0.13505727 0.0724298 0.26084778 0.02936385 0.22736739 -0.018080179 -0.09704798 -0.06842698 -0.25110558 0.09123871 -0.10531707 0.06970784 -0.0763332 0.3152825 -0.051397283 -0.19066745 0.15911856 -0.4406687 -0.1438365 0.059093907 -0.11018586 -0.051111177 -0.008986585 0.4177077 0.15068302 -0.123034894 0.0950633 -0.2446133 0.045597043
decorating 0.12530635 -0.04061534 0.06632451 0.20753366 -0.09394972 0.2626662 0.1732252 -0.14657685 0.2843516 0.1260464 -0.40805575 0.110731885 0.07791101 0.24060339 0.03604224 0.24343306 -0.002554175 -0.07032953 -0.09905875 -0.2215913 0.10974922 -0.0988226 0.058178402 -0.06689606 0.29550883 -0.07931238 -0.19418798 0.16043651 -0.45445892 -0.1505532 0.06371122 -0.1210517 -0.074906126 -0.008651629 0.41606292 0.14884804 -0.13008763 0.10372356 -0.24079742 0.018088903
interiores 0.11169569 -0.018458378 0.058661483 0.20834598 -0.07645466 0.2716871 0.15634018 -0.15336211 0.2500987 0.1431788 -0.38280728 0.094199345 0.08452565 0.22143863 0.03376981 0.24144092 0.024190476 -0.08540819 -0.074266255 -0.22777289 0.11471721 -0.07963642 0.08932091 -0.07784368 0.28663686 -0.056620397 -0.19372508 0.15290232 -0.4549052 -0.1390261 0.0489794 -0.13469832 -0.066874444 -0.029335016 0.39203462 0.15660734 -0.13107905 0.112252794 -0.22942634 0.02992237
kitchen 0.12795173 -0.028400442 0.077241085 0.16877872 -0.0742491 0.2605806 0.14251645 -0.14497693 0.25778255 0.1267382 -0.40483937 0.077702954 0.08944791 0.2057811 0.025027247 0.21639834 0.024147103 -0.083801106 -0.08698375 -0.21202569 0.09310663 -0.08935312 0.08886011 -0.08940027 0.28398 -0.042238206 -0.16109349 0.15272464 -0.41965362 -0.11989126 0.061837174 -0.09794275 -0.04711263 -0.035717316 0.3623875 0.121816486 -0.12769619 0.0804967 -0.23521107 0.02111803
interiorinspiration 0.11217298 -0.006832944 0.054091156 0.17419007 -0.06897443 0.2426095 0.14477545 -0.13626856 0.26112035 0.13561444 -0.33561215 0.08721143 0.05734364 0.19944113 0.026314344 0.20166795 0.006715455 -0.05124623 -0.07780522 -0.19559558 0.08670767 -0.07979712 0.08139333 -0.052476864 0.25562173 -0.03410534 -0.16675472 0.13824408 -0.36603093 -0.11902899 0.062167007 -0.12362151 -0.0754052 -0.02347189 0.3447649 0.13421987 -0.104754224 0.067069486 -0.2050498 0.02315426
decoracao 0.10597139 0.01815454 0.05232768 0.16408592 -0.059408203 0.21437311 0.13368756 -0.117976606 0.22301213 0.12893261 -0.29081485 0.06839698 0.04901656 0.17585401 0.018352734 0.18963608 0.001925273 -0.063970566 -0.08815404 -0.17358899 0.10395911 -0.051915947 0.055815246 -0.062378895 0.21203667 -0.022207668 -0.16857256 0.1219416 -0.33603567 -0.09635679 0.055792045 -0.09916212 -0.035509445 -0.07547274 0.3086212 0.11684984 -0.09177678 0.07756305 -0.18974356 0.03601081
remodelista 0.0784242 -0.023655633 0.03634377 0.1622731 -0.07203948 0.18653686 0.11560242 -0.10989763 0.2216924 0.10588074 -0.31065512 0.0716249 0.043633662 0.18473248 0.033383623 0.16566472 0.017670415 -0.061125334 -0.06044404 -0.17851895 0.080784336 -0.054232545 0.05720014 -0.04690494 0.21608824 -0.014616145 -0.15519184 0.12431783 -0.34246024 -0.09841214 0.045136362 -0.089695625 -0.054889787 -0.050510526 0.2985661 0.12632385 -0.10353061 0.07944888 -0.16634548 0.033821832
horumonyaki 0.1892496 0.1788627 0.09251977 0.10434189 0.09849342 0.2995587 0.0631416 -0.23644619 0.22329357 0.28524312 -0.34083074 -0.0745547 0.12390287 0.079122946 0.04755394 0.13474835 0.11468114 0.013770845 -0.16248648 -0.12778695 0.11171431 -0.030323833 0.041327246 0.08340475 0.1510732 -0.09474299 -0.14084949 0.15380132 -0.37573767 -0.10754407 0.04125498 -0.109764285 0.041796282 -0.1648922 0.25280607 0.07943428 -0.10117807 -0.013369031 -0.23778519 -0.0007261389
firstworldproblems 0.08184744 0.048408873 0.04914958 0.11629055 0.01862117 0.12731348 0.052446835 -0.061490882 0.12549917 0.1136058 -0.20599714 0.03150825 0.06763795 0.1276089 0.007107467 0.19143203 0.0148800565 -0.047793996 -0.087640986 -0.09017661 0.109117486 -0.028170548 0.070174225 -0.030341974 0.12859464 -0.018096717 -0.12005457 0.08230325 -0.27849132 -0.07951755 0.02310179 -0.054354876 0.015027992 -0.039836496 0.18257324 0.056150988 -0.039302737 0.07753067 -0.06494424 0.0149633465
nothingfancycookbook 3.4791417e-05 0.0006544916 -0.0066447183 -0.008947922 -0.011592786 0.009132824 -0.005775818 0.003170685 -0.012058663 -0.0057253153 0.004463245 0.011082876 -0.007920552 0.0045262733 -0.0038749026 0.00065336376 -0.0046703247 0.0043473328 -0.0014153821 0.0054397127 0.004259982 0.009044715 -0.002693465 0.009136022 -0.0070815324 0.009239093 -0.004772331 0.012224606 0.0016005933 0.0053576333 -0.0041891634 0.0044830823 0.010985217 -0.011699828 0.008683206 -0.0048918724 -0.00043683033 -0.011057242 3.544707e-05 -0.0063142194
nytthanksgiving 0.009173655 0.004496525 -0.0008419659 -0.002863789 -0.007292828 -0.0012320904 -0.0047552395 0.007129143 0.008002919 -0.012406098 -0.006900677 -0.0055002677 0.0027732104 0.0019557793 0.0038738707 0.0071698083 -0.00024229567 -0.0060197874 0.004826133 0.003621799 0.009102442 -0.006536688 0.0018168762 8.514151e-06 -0.0018190714 -0.006464665 -0.0065499395 -0.011722091 0.010670963 -0.0031547071 -0.007812718 -0.0048464956 0.0093268 -0.0028324677 -0.0058386014 -0.0054999725 -0.008379877 0.0024136277 0.01151597 -0.0030583516
helpyourselfbook 0.002435198 0.00727106 0.010188875 -0.0055373134 -0.005768481 0.009232148 -0.0005734395 0.00199149 0.010925864 -0.010886627 -0.0018147733 0.0016144533 -0.011403906 0.011302295 0.010335223 0.00971824 -0.009042586 0.007186123 -0.00042286236 0.00093086995 0.007808865 -0.009927328 0.0049759774 -0.010609306 0.005865068 -0.0070737065 -0.0021342067 -0.00019415654 -0.0019334359 0.00091707986 -0.0006910162 0.01206541 0.0007389914 0.0013600541 -0.0039572865 -0.005343181 -0.012397403 -0.00055073015 -0.0068660914 -0.0063303052
healthyishcookbook -0.007492 -0.0062272996 -0.012185906 0.008391696 -0.011047119 -0.009688504 0.0093829585 -0.003619017 -0.011597012 0.0019259974 -0.00020174403 0.0014548171 -0.00033520907 -0.004941918 0.008649961 0.0007437784 0.01139243 0.008200704 -0.007477537 0.0032762112 -0.0057606846 0.011293181 0.0045957128 0.009118258 -0.009249409 0.006836041 0.004771323 0.012074078 -0.0052242293 0.008647564 0.005899449 -0.011770791 0.0012616012 0.009892707 0.0035277987 -0.0039456813 -0.0124913035 -0.002315782 -0.0063648014 0.0015813187
heirloomcookbook 0.10716782 0.017789343 0.06268554 0.1112161 -0.025097756 0.1599579 0.08629439 -0.08538733 0.14164793 0.09942206 -0.24140811 0.022310179 0.03520191 0.116255656 0.030647095 0.13998067 0.017533405 -0.043417357 -0.026177378 -0.12253797 0.082556725 -0.033477705 0.047973823 -0.015917605 0.15957338 -0.02941795 -0.116883874 0.12439894 -0.2709563 -0.09116278 0.035457723 -0.08817736 -0.042522766 -0.022300662 0.23130861 0.102905445 -0.049019013 0.051428765 -0.12236054 0.024233345
bakeitbold 0.039913617 0.015906839 0.0031667447 0.038652264 0.0114187095 0.051118016 0.012272521 -0.04048153 0.04993194 0.017625082 -0.08125802 0.0010638109 0.015671039 0.031419437 0.014314196 0.069793895 -0.014143498 0.008706222 -0.022876086 -0.021248631 0.03611607 -0.005251642 0.021854427 0.0048701824 0.018842809 -0.006964931 -0.023700446 0.03401329 -0.08789392 -0.024345318 0.016347 -0.021224208 -0.012904453 -0.011484778 0.07562714 0.006766344 -0.017113026 0.032771703 -0.04357897 0.0128315175
bombesquad 0.29807433 0.18954034 0.37290436 0.36008376 0.016919132 0.5220217 0.40733007 -0.05301043 0.3625727 0.4678336 -0.3004813 -0.20393972 0.065187395 0.20338762 -0.25306833 0.7153457 0.25628927 0.20018478 -0.08490926 -0.12266883 0.20759562 -0.051979356 0.13900794 0.01512379 0.1349981 -0.11557838 -0.31853825 0.61593956 -0.60819423 0.0069414163 0.15228415 -0.19862804 -0.2577065 -0.16716374 0.32627302 0.18495528 -0.24255581 0.05434794 -0.41846648 -0.20769306
2 0.03900991 -0.014408171 0.034971755 0.043953132 -0.026538575 0.08622932 0.02986465 -0.05099103 0.06787999 0.049784407 -0.124082685 0.021679327 0.03636421 0.06686336 0.0032839407 0.061262995 0.006404294 -0.02374232 -0.04135061 -0.060178053 0.028008968 -0.020726139 0.03490619 -0.0084201675 0.06911103 -0.027876182 -0.06050416 0.032756157 -0.14287893 -0.04790811 0.018724972 -0.039196566 0.0056126853 0.004798321 0.123606 0.03816182 -0.036078617 0.01802781 -0.07332141 0.016911808
lamasamadre 0.010838813 -0.00974752 0.006379013 0.0010340344 0.0031727785 -0.009020482 -0.011171299 -0.011118988 -0.0035011992 0.007020752 -0.008900741 0.0055485154 -0.00020338316 -0.006602092 0.010095992 -0.00753302 0.005525044 -0.00094097387 0.0066539804 0.009525294 -0.007757214 -0.003182252 0.0043103145 0.0020905565 -0.0075938003 -0.0012387363 -0.0107705295 -0.010643924 0.011906008 0.012439183 -0.007817646 -0.012160428 0.0042006383 0.0013601137 -0.009851622 -0.011587652 0.006714315 -0.008503035 0.003695161 0.0018448401
bakebakebake -0.0061292322 0.009674354 0.005004444 0.004605188 0.00014672615 0.0023735883 0.0073403353 -0.005478543 -0.0053273174 0.007837343 -0.004898095 0.00030946266 0.012045083 -0.0107597085 0.009776506 -0.0021746997 -0.0011957884 0.012078523 0.001716448 0.00910755 -0.008860456 -0.0029165 -0.010620969 0.011731804 0.008894171 0.0023188516 0.005765223 0.008196271 -0.0036169114 0.008053386 -0.002756618 0.009483329 0.0027918369 -0.006064539 0.0052732388 0.004406714 0.010776748 -0.0055229976 3.3100136e-05 -0.008601755
letshopeicatchthisflight 0.07381293 -0.025137346 0.027478509 0.09898869 -0.032372806 0.15342551 0.08416945 -0.08115554 0.17641744 0.066772245 -0.24978442 0.0675564 0.046009883 0.14395216 0.022716863 0.11860719 -0.001954004 -0.054281633 -0.04730007 -0.13905273 0.080364875 -0.042260863 0.057387218 -0.03158563 0.17430647 -0.021436775 -0.104921326 0.09082609 -0.24413954 -0.069200575 0.032140546 -0.052993108 -0.02594028 -0.023318889 0.21805404 0.0770471 -0.051114958 0.06262168 -0.1139569 0.046388254
gratitude 0.0063835355 0.0045558317 0.0017725406 0.0049503604 -0.01130817 -0.0013926579 -0.0061973794 -0.0015883744 -0.008467952 0.011430112 -0.0029103737 -0.010302087 0.0017407183 0.0060793674 0.010872812 -0.0022324324 -0.0010683965 0.002229874 0.0075116446 -0.0071028876 0.0081041185 0.010146297 -0.010914653 0.004681132 0.0029035117 -0.009661296 0.00955025 0.009684204 -0.009295592 0.0048502805 -0.0071636452 0.003323027 -0.0061786 -0.0057175667 -0.01123138 -0.0033641085 0.008767263 -0.008185245 0.0036221137 -0.0082296785
communitynotcommodity 0.055151 0.020657964 0.026147086 0.059440684 -0.014595564 0.0805502 0.035352677 -0.03948526 0.058791682 0.05014966 -0.081457935 0.013171473 0.022398902 0.04327767 -0.0072799767 0.045851562 0.017468093 -0.021708608 -0.036766145 -0.06946064 0.020700019 -0.01514668 0.024677962 -0.0009033257 0.06823772 0.001958418 -0.0469302 0.05184691 -0.11781134 -0.032311887 0.003545383 -0.0234448 0.0023209418 -0.0097760055 0.085588545 0.042799562 -0.03929663 0.010732209 -0.063578926 0.015275449
kneadingconference2019 -0.00541683 0.010922029 0.01150889 0.008040843 0.00010267459 -0.0042812526 0.0006250171 -0.01214276 0.0067056613 0.009670869 0.0056962753 -0.009055872 -0.010205725 0.007642529 -0.0065421537 0.0029119495 -0.0054911165 0.0067317216 -0.0060554133 -0.009283699 0.008597213 -0.008740971 0.0015695496 -0.007359825 -0.008305276 0.009305731 -0.006344098 0.0054233586 0.0063939197 -0.0033910405 0.008702439 -0.005365226 0.011329674 -0.008915271 0.006976499 0.00997758 -0.005009298 0.010252648 0.009079591 0.009780624
highsummer -0.0041384753 -0.0024736896 0.00075594615 -0.0094966395 -0.006194666 -0.0029221997 0.008566585 0.008438825 0.008154512 -0.009973208 0.0064988965 -0.010602146 0.001760778 0.0023519844 0.0119680585 0.0008817706 -0.006967558 -0.010182625 0.0037673516 0.0025211647 -0.0041819485 0.01000807 -0.008112229 -0.009953613 0.007836551 0.007387466 -0.01057282 -0.012047465 0.007535287 -0.0043283943 0.0066580595 0.005301983 0.0018409593 0.0033480627 0.010414363 -0.011428303 0.0034331875 -0.00894692 -0.010495965 -0.0031696167
bakeyourheartout 0.0010078745 0.011460834 0.0004300056 0.008200583 0.011153723 0.0067946846 -0.0024764854 0.006553064 0.0009509651 -0.007036635 0.01119247 -0.008939005 0.0064810487 0.0050004935 0.009267832 -0.003500091 0.0055050002 0.009797226 0.0016753878 0.0013053417 -0.0005592285 -0.00973185 -0.009195511 0.0037779445 -0.0042222785 0.0076079657 0.011077969 0.00993359 0.006548059 -0.0025909934 -0.0038916636 -0.0008436246 -0.00039981864 0.0026341025 0.0035910727 -0.011941688 -0.0010125954 -0.003606719 0.007263596 -0.0036544027
makemondaygreatagain 0.008208894 -0.009097552 -0.0012065442 0.008814658 0.01201846 0.005365827 -0.0064907447 0.002585481 0.0057346756 -0.004739508 0.005099223 -0.008819377 0.0022105053 0.0063799033 -0.0013721529 0.0027006594 -0.00650838 -0.0056257755 -0.007182445 -0.010606042 -0.004473488 -0.0049037486 0.0011590365 -0.006040038 -0.01128612 -0.008570889 -0.005314386 0.005397835 -0.0016847327 0.011626416 -0.0030717012 0.008091657 0.011336337 -0.0046358136 0.0067990655 0.00731936 0.0037858235 -0.0030192565 0.00079362374 0.0055177556
seasonalbaking 0.026066791 -0.0042286622 0.018177401 0.044299453 -0.010361833 0.077926606 0.04162826 -0.046583295 0.064957105 0.03343969 -0.100786105 0.026259614 0.03462607 0.063928545 -0.00022355356 0.05614113 0.0014522877 -0.029135022 -0.028769763 -0.0500648 0.035187896 -0.0090566985 0.014351496 -0.021220835 0.056633245 -0.020338882 -0.060197566 0.049937766 -0.11778541 -0.0389567 0.0109266015 -0.034146275 -0.023851506 -0.018403389 0.10608316 0.047812253 -0.022396337 0.025672326 -0.06611244 0.0066266987
baketheworld -0.007862789 -0.010240075 0.0040235994 0.0071884384 -0.0063493266 -0.010074655 -0.004538797 0.0022912845 0.005269238 -0.008830436 -0.010488762 -0.004045481 -0.009528099 0.0011641514 -0.0084736515 0.008856091 -0.008704188 -0.0009253025 0.008923315 -0.0019800458 0.0063906787 0.0016753823 0.00030196924 -0.010878401 0.011488023 0.0021646945 -0.012084435 -0.008148693 -7.284619e-05 -0.010449236 -0.001479758 -0.0031644134 -0.0016911607 -0.0061130184 -0.0013874862 -0.012359369 0.012242786 0.009458912 0.008997426 0.002755682
preservetheseason 0.09747885 -0.039434325 0.054223716 0.12786299 -0.08113519 0.15359578 0.11171663 -0.07141297 0.15700586 0.05754243 -0.26488677 0.0488487 0.027530668 0.12533592 0.012726478 0.13331701 0.0065503176 -0.053422004 -0.043217577 -0.17608815 0.10050748 -0.06805376 0.017489363 -0.077559955 0.18036298 0.0077465037 -0.11194737 0.09075057 -0.25828105 -0.09249381 0.035446715 -0.058168072 -0.02117294 0.0002361415 0.2776343 0.09878797 -0.052586794 0.062534906 -0.1551886 0.005148273
naturallyleavened 0.073279075 0.005096495 0.039302096 0.10898852 -0.050133146 0.15513067 0.07619597 -0.09399385 0.16731614 0.095276944 -0.21880695 0.042555217 0.02735577 0.12183728 0.013248269 0.13806511 0.014178277 -0.04834519 -0.05667429 -0.13124093 0.06875608 -0.04752148 0.046935707 -0.037603065 0.1858947 -0.02387754 -0.10415879 0.10460949 -0.2606542 -0.076770656 0.053533234 -0.06599198 -0.020717934 -0.047975704 0.22167668 0.09964599 -0.08367509 0.043837693 -0.13237004 0.011934612
holiday 0.10866214 0.028186774 0.057675898 0.21896775 -0.10079439 0.3198865 0.20245802 -0.2549717 0.44316724 0.17690517 -0.39763227 0.09877025 0.08098841 0.22892876 0.11047724 0.19675021 0.035632297 -0.08736837 -0.11734926 -0.27300373 0.14372426 -0.050795864 0.09978272 -0.06314375 0.3543935 -0.08122228 -0.2530011 0.17537478 -0.45435438 -0.16889268 0.11662136 -0.13890138 -0.05484376 -0.22038536 0.43749014 0.18399277 -0.10749696 0.11200565 -0.26473397 0.16085333
herewegoagain 0.032152113 0.004876762 0.0015999083 0.04079702 -0.011777025 0.07073901 0.025875794 -0.046395417 0.05706149 0.053041335 -0.09248356 0.021955244 0.014856938 0.042582486 0.0065357536 0.024533875 0.008799961 -0.006042327 -0.0014257362 -0.03973139 0.029200533 0.00019153731 0.01646398 -0.0003803294 0.06308213 0.0008950787 -0.03908883 0.052260533 -0.0758141 -0.024915619 0.0045698322 -0.026318468 -0.021396449 -0.022455731 0.09119945 0.040693857 -0.039740134 -0.007766155 -0.043838013 0.025044525
fermenteverything 0.006637822 -0.007066184 0.004407664 0.001283315 -0.0103625115 -0.0046544895 0.007851549 0.002956519 -0.0048888116 -0.0038839802 -0.0050976053 -0.007691629 -0.0089459475 0.0056791445 -0.0006901594 -0.0024911268 0.0007519219 0.0016124025 0.0049258852 -0.0043044183 0.009608823 -0.0084941555 0.006967754 0.010697682 0.0027493965 -0.0052068443 0.0015483471 -0.0077809813 0.0022852467 -0.005732875 0.012318547 -0.0003843233 -0.007518803 0.0048167156 -0.0076515973 -0.004916416 0.0016583446 0.0034543565 0.01248788 -0.003391494
makeityourown 0.0091421595 0.0024337424 -0.00845536 0.010638566 -0.0056183073 -0.0067028063 -0.0069150776 -0.008009632 0.0120966965 -0.009586705 0.0045013605 0.0011618407 0.008852952 0.0025277166 -0.0061579854 0.008143046 -0.01043153 0.0047241626 -0.004025434 -0.00662106 -0.0051257643 0.005703875 0.0053307274 0.0043677995 0.003895429 0.0032095695 -0.01097118 -0.005009295 -0.0043428987 -0.010077189 -0.008276086 -0.010499539 -0.0053373026 0.003221902 -0.0029012011 0.0031100307 -0.01190564 -0.007731013 -0.0040733693 0.0039939443
heirloomrecipe 0.020001123 0.010709794 0.023506286 0.053134333 -0.006235579 0.044404697 0.040012583 -0.011778995 0.049840637 0.050081465 -0.08574917 0.037567705 0.019814586 0.05356464 -0.008392156 0.04766624 0.00399952 -0.025226763 -0.033831514 -0.060849752 0.027778411 -0.0035290408 0.013012536 -0.009885087 0.056479987 0.0026818968 -0.04498878 0.038176708 -0.09362347 -0.040491402 0.012587642 -0.030416789 -0.006141614 -0.004425194 0.091898866 0.03656066 -0.011490453 0.030085834 -0.045988802 0.00949442
sourdoughworkshopseries -0.0054303454 0.002554588 0.0043884637 0.002598037 -0.002127789 0.0013577659 -0.0053364844 0.006885442 -0.0053931954 0.0013749925 0.01129532 -0.0021691946 -0.006023699 -0.00025253743 -0.00855739 0.004080071 0.0061556464 -0.0096537545 -0.009238131 -0.01042248 -0.0011420576 -0.006572713 -0.004537585 -0.010545391 -0.006762244 0.0036937082 -0.0064752176 -0.00948683 -0.010476591 -0.01248426 -0.009383666 -0.01138703 -0.00539476 0.0038962597 0.008181375 0.01128224 -0.0041252347 0.010321668 -0.0012880098 0.002926032
HUAWEIP30PRO 0.031676654 0.0014965369 0.004899238 0.035836797 -0.024632655 0.051715568 0.03266761 -0.03583851 0.06014124 0.016785275 -0.088959455 0.034021974 0.0009794954 0.040690377 0.0022961597 0.032989018 0.016875265 -0.029412592 -0.020135675 -0.046879537 0.025137935 -0.02590219 0.011937148 -0.022600705 0.07161022 -0.0065460326 -0.03482598 0.045981452 -0.09560083 -0.013839239 0.020378549 -0.020654848 -0.011396962 -0.009300127 0.08811821 0.043732353 -0.02347755 0.006570806 -0.052868728 0.008445352
hfk 0.024887776 -0.0035243263 0.015156166 0.041654017 -0.01585409 0.068761304 0.021927109 -0.025949437 0.06558184 0.049891513 -0.1041667 0.016612647 0.028928403 0.03989361 0.0019728802 0.045718696 -0.0012854944 -0.016036237 -0.025552277 -0.0522244 0.03085044 -0.028907606 0.025610395 -0.029886762 0.06009926 -0.005472262 -0.032092337 0.04610432 -0.101989344 -0.043575928 0.0027198074 -0.010739432 0.0028032116 -0.013926153 0.07771671 0.03485042 -0.028050555 0.023824563 -0.05475795 0.01570557
HuaweiFotoKonsortium 0.03378982 -0.0003974133 0.023719972 0.062333643 -0.0381827 0.088950545 0.065301776 -0.04311195 0.11619185 0.039000873 -0.14898117 0.043783043 0.03909332 0.08074345 0.0160888 0.08079288 -0.01116488 -0.03806907 -0.026162552 -0.085103944 0.042664282 -0.031817682 0.038511924 -0.03169026 0.109470665 -0.017336925 -0.078339756 0.06513725 -0.17280853 -0.06390889 0.028200163 -0.052536197 -0.029759802 -0.019495549 0.14910206 0.05771927 -0.032958094 0.041309822 -0.0857206 0.013033983
TraegerCulinary 0.005625223 -0.0053046453 0.009778685 -0.0027586296 -0.007410756 0.011900418 0.0037526945 -0.00777065 -0.0122257965 0.002788568 0.008920855 0.004093633 -0.0074309274 -0.0010752054 -0.0076387706 -0.005600801 -0.0073313224 0.0031180205 -0.0036951676 -0.008942841 -0.009841351 -0.0019824058 -0.009115299 0.0011742311 0.0038436754 -0.009856431 -0.007958945 0.0045486083 -0.008844376 -0.0021132734 0.011520759 -0.0075961235 0.008260646 0.0076503446 -0.007147451 -0.0057338956 -0.0038776426 0.0057136742 -0.007273221 -0.007620424
ad -0.011193397 0.0073705222 -0.1529992 -0.10435547 -0.1900095 0.47106054 -0.17232952 -0.6308596 0.7346508 0.40171438 -0.58007383 0.60438776 0.17308179 0.25386867 0.21966565 -0.0832845 0.099445246 -0.5117422 -0.24969406 -0.40561703 0.0010778978 0.031287625 0.37954062 -0.33108094 0.90857714 -0.16361888 -0.45651004 -0.17845738 -0.5587695 -0.34498632 0.08107736 -0.08912056 0.4676156 -0.4602304 0.26400828 0.31187952 -0.39579397 0.23329706 -0.024379548 0.6707541
TraegerGrills 0.00478468 -0.004548082 0.0093679605 0.0023229169 0.0052213287 -0.009121766 -0.0043666568 0.0057314383 -0.0092266295 0.004039378 0.008859272 0.0056889085 0.0028752787 -0.01168883 -0.010661691 0.0060003297 -0.0039290283 0.0029609604 -0.0052452595 -5.2260235e-05 -0.0047537345 0.008945405 -0.009973047 0.0046366462 -0.0005151015 0.0034287805 0.00085213315 0.010501617 0.009392521 -0.00470787 0.0024408307 -0.0029684128 -0.00257436 -0.0075353743 0.0064387536 0.008194641 0.0061514685 0.0011491105 0.005418646 -0.0021417486
pomitomatoes -0.008234991 -0.0067267525 0.0059788795 -0.0004991563 0.0024259537 -0.009614463 -0.005679673 0.0055458257 -0.010668801 0.012387975 0.00025561266 0.011995357 -0.009638727 0.0039381264 0.010047586 0.00357096 0.006259882 0.0097362 -0.001661812 -0.00060488004 -0.009015488 0.012206647 -0.0122799305 -0.00324074 0.0086698895 -0.009474573 -0.011627723 0.0037272582 0.0046679405 -0.0045632813 -0.010708014 0.011240832 0.0077442965 -0.0037889825 -0.0019369107 -0.0063238773 -0.0044777934 0.010460324 0.0040058913 0.0059029134
cookingwithpomi 0.016378451 -0.0050624544 0.008439393 0.02902901 -0.021915287 0.06422251 0.035624187 -0.041318312 0.0756831 0.029747471 -0.0932507 0.017117135 0.026181793 0.04525158 0.005744934 0.04401147 -0.005229227 -0.007990242 -0.0033843983 -0.06809614 0.02159171 -0.013353746 0.021744305 -0.021676816 0.08114322 -0.006003622 -0.027781881 0.04976512 -0.07882624 -0.033063557 0.001765281 -0.027059142 -0.011082701 -0.0137885995 0.087681696 0.032491606 -0.020479983 0.023385804 -0.058822848 0.018060295
